в 1.265489 0.293811 0.076027 -0.285156 -0.881058 -0.031617 -0.193960 -0.305478 0.265415 0.047647 -0.548458 0.413325 -0.805582 0.125635 0.280724 -0.369132 0.071612 -0.241080 0.398458 0.090096 -1.434296 -0.950617 -1.236713 0.693511 -0.481712 0.894457 -0.291087 -0.126089 -0.792327 -0.114455 -0.394039 0.047177 -0.282701 0.028419 -0.075282 0.336029 0.304622 -0.069119 -0.561291 0.401809 -0.412710 -0.110863 -0.770293 0.996702 -0.524563 0.912783 -0.076923 -0.275003 0.811023 -0.446755 -0.701765 0.009922 -0.533705 0.197811 -0.432009 -0.330365 0.130332 0.255873 0.307916 -0.252790 -0.141832 0.223073 -0.117952 0.205729 0.051658 0.376813 -0.112723 0.018753 0.797829 -0.387080 0.549120 0.876276 -0.102664 0.696573 -0.654038 0.545949 -0.158254 -0.065257 0.821275 -0.155076 0.621252 -0.948565 -0.188122 -0.686243 -0.224830 0.503330 0.563061 -1.445182 -0.143437 0.143021 0.952959 0.778304 -0.087819 0.031084 -0.479400 0.097845 -0.348797 -0.049768 -0.795444 -0.196970
на 0.225752 0.525767 0.232724 -0.762165 -0.595272 0.616330 -0.605041 0.248616 -0.479722 -0.902083 0.083888 0.339240 0.357560 0.295005 0.611083 0.362784 0.163752 -0.460504 -0.029159 0.011759 0.280606 -0.597181 -1.213617 0.675522 -0.642355 -0.041647 -0.312396 -0.435098 -0.128976 1.086505 -0.151258 -0.794554 0.567183 -0.801920 0.226958 0.242798 0.134942 -0.327374 -0.827997 0.530161 0.094614 -0.176585 -0.277177 0.128319 -0.069865 0.727499 -0.793461 0.239257 -0.190402 0.821972 -0.104994 -0.378761 0.401095 0.140995 0.224080 1.051292 -0.975774 0.789629 0.176049 -0.696007 -0.694203 0.836262 0.446945 0.526153 0.020310 -0.863434 -1.340969 0.745360 0.537186 0.305442 -0.513959 1.098488 -0.092873 -0.002055 -0.295465 -0.556275 0.028680 -0.257158 0.106661 -0.536128 -0.283379 0.207754 0.198184 -0.398123 0.162923 0.444843 -0.056221 -0.894658 -0.190502 -1.170133 0.543546 0.048297 -0.886029 -0.122033 -0.602024 0.762096 -0.199179 0.675320 -0.046061 0.383727
и 0.832381 0.340673 0.285558 0.155440 -0.722048 0.486236 -0.583816 0.269570 0.028596 0.464223 -0.306996 0.536207 0.099530 0.172877 0.826180 -0.783767 0.442368 -0.018501 -0.670722 -0.306778 0.057249 -0.614439 -0.666825 1.590714 0.302197 0.379288 0.215734 0.830504 -0.098726 0.892428 0.013349 0.432883 0.296939 0.018509 -0.540152 0.266922 -0.207445 -0.060919 -0.659352 -0.191828 -0.289162 0.607480 -1.041198 0.993596 -0.291404 0.017094 0.090900 -0.324777 0.628054 -0.271330 0.219691 -0.260379 -0.738654 -0.316888 -0.469169 0.554138 -0.849753 0.894980 -0.424170 -0.143991 -0.944801 0.345911 -0.297247 0.324631 -0.614300 0.307100 0.069171 -0.061467 -0.652920 0.427559 0.097375 0.779903 -0.152229 0.438713 -0.202466 -0.135405 0.313190 -0.241855 0.616107 -0.466911 0.875032 0.370956 0.038050 0.372172 0.490563 0.633972 0.104617 0.389323 0.075861 -0.647210 0.509986 0.987092 -0.131177 1.033211 0.123921 -0.006280 0.241964 0.004411 0.058043 -0.106690
банк -0.049801 0.017117 0.294314 -1.232106 -0.921734 0.357648 -0.224330 0.606598 0.618695 0.325941 -0.078571 0.309299 -0.117529 -0.360220 0.502154 0.141406 -0.102675 -0.151511 -0.067749 1.137748 -0.858098 0.180673 -0.503327 1.202594 0.663793 -0.601601 1.215189 -0.149864 -0.125360 0.381838 0.121997 -0.636104 0.264954 -0.275851 0.023444 0.203190 -0.773148 0.180430 0.115407 0.478920 0.012987 -0.443978 -0.615769 0.421580 -0.252664 0.163422 -0.652849 0.215612 0.678444 1.001314 -0.021889 -0.362154 0.044668 0.473416 -0.178961 0.295994 0.226746 0.718576 -0.483587 -0.917788 -0.776187 0.319671 0.489496 1.071025 -0.006697 -0.548363 0.018076 0.510482 0.936058 -0.221382 0.262911 -0.686623 0.532761 -0.440256 -0.458292 -0.234688 -0.710652 -0.296421 0.548947 -1.336761 0.629024 -0.368359 -0.511116 -0.429601 0.761768 0.508156 -0.070673 -0.124759 -0.009658 0.343839 0.453633 0.895936 -0.413049 0.187222 -0.427194 0.601380 0.178202 -0.174055 0.538659 0.315085
россия -0.042165 -0.039789 0.421326 -1.041047 -0.954511 0.471885 -0.343465 0.619584 0.548547 0.455940 0.082332 0.470953 -0.297363 -0.483242 0.508910 0.224469 -0.082741 -0.050273 -0.108937 1.074008 -1.102738 0.264766 -0.337325 0.979893 0.742945 -0.655123 1.150471 -0.087967 -0.031553 0.336810 0.282040 -0.635575 0.178296 -0.242629 0.022137 0.157971 -0.553302 0.167550 0.051614 0.511589 0.157170 -0.403854 -0.609251 0.431891 -0.328437 0.169521 -0.961788 0.370227 0.626852 1.008436 -0.275773 -0.209680 0.328944 0.350998 -0.224988 0.105954 0.227618 0.885794 -0.317895 -0.972866 -0.760715 0.301595 0.482831 0.937175 -0.015741 -0.558971 -0.013069 0.418335 0.780349 -0.513812 0.099452 -0.674701 0.335336 -0.438408 -0.467602 -0.291608 -0.606665 -0.257978 0.458975 -1.331003 0.462057 -0.573685 -0.496272 -0.489926 0.404280 0.518164 -0.309856 -0.376735 -0.073743 0.234793 0.285600 0.839944 -0.291842 0.225970 -0.353834 0.675813 0.124692 -0.299809 0.379862 0.183272
год 0.519281 -0.096566 0.171788 -0.799939 -1.092637 0.314095 -0.271587 -0.072224 0.810358 0.111156 0.145752 0.176283 -0.709433 0.299022 0.674328 -0.035950 0.432141 0.067342 0.052721 -0.081210 -0.204562 -0.615021 0.042667 0.633871 -0.526766 -0.865622 0.706741 0.380902 -0.176727 0.373439 -0.739530 -0.663698 0.506110 -0.731426 -0.342704 0.443832 -0.735160 -0.260877 -0.466794 0.586790 0.112667 0.108669 -0.034744 0.582143 -0.507720 0.865818 -1.007975 -0.493915 0.459267 -0.819594 -0.602425 -0.076441 0.581757 0.175492 0.237852 0.380020 0.083631 0.415223 0.453235 -0.754655 0.405502 0.622187 0.446606 0.383585 -0.554702 -0.073820 0.575265 0.138625 0.539568 -0.121979 -0.245379 0.210335 0.779479 -0.028273 -0.725167 -0.151887 0.076899 -0.577414 0.575429 -0.826327 0.272512 -0.318707 -0.082824 -0.227017 -0.288200 0.145040 0.664025 -0.302767 -0.100226 -0.859448 0.664890 1.327406 -0.683589 -0.229660 -0.537006 0.676280 -0.376169 0.360080 -0.396266 -0.238213
ставка -0.923046 -0.505049 -0.456802 -0.219900 -0.259966 0.245682 -0.240022 0.882289 0.124731 -0.356523 0.598476 0.609506 0.264081 0.632281 0.893777 1.145739 -0.504203 0.149234 -0.371793 0.189858 -0.344913 -0.576711 -0.298955 0.702240 0.654054 -0.299332 0.600683 -0.605932 -1.204241 0.192496 0.296014 0.079773 0.199542 -0.280236 0.508558 -0.917049 -0.084065 0.389495 -0.672798 0.649080 0.088888 0.071133 -0.718899 0.647693 -0.062134 0.149118 -0.158351 0.469257 -0.040868 0.487766 -0.076151 0.239499 0.173065 -0.223385 -0.191368 0.901581 -0.502164 0.113992 -1.211048 -0.530302 -0.036716 0.452960 0.077975 0.215443 -0.822889 -0.857392 0.121227 0.516453 1.155451 0.150523 0.482277 0.378710 0.896140 -0.757433 0.334163 -0.535947 -0.751360 -0.280264 -0.015911 -1.528420 0.217898 -0.135479 -0.338692 -0.928555 -0.132094 0.627727 0.181686 -0.651168 -0.216500 -0.544244 0.876441 0.136291 0.015288 0.632111 0.221760 0.135984 0.261232 -0.341264 0.746271 -0.556745
по 0.311748 -0.124391 0.198644 0.141798 -0.677653 0.004642 0.124092 0.139889 0.237037 -0.713714 0.477577 -0.105355 0.191095 -0.028390 -0.063725 0.642792 0.073379 -0.542677 -0.501990 0.434262 -0.724865 -0.769787 -0.591327 1.050166 0.686581 -0.977690 0.863785 -0.119889 -0.796440 0.654354 0.368502 0.241774 0.560459 -0.639579 0.406735 0.264074 -0.912052 0.445637 0.059564 0.001818 -0.220310 0.002687 -1.131264 0.504619 -0.256946 -0.476510 -0.213888 0.152971 -0.082601 -0.339219 -0.047928 -0.265994 -0.649246 0.174590 -0.526656 -0.099006 0.473773 0.145558 0.177237 -0.734259 -0.215376 0.575169 0.032108 0.217074 -0.124865 -0.465855 -0.301776 0.495565 0.921794 0.360450 -0.201554 0.477297 0.943379 -0.919740 -0.444718 -0.482856 -0.016850 -0.637413 -0.065967 -0.735048 1.041710 0.243903 -0.725177 -0.208651 0.424427 0.789001 0.491897 -0.675947 0.005659 0.108990 -0.107070 0.659594 -0.180726 1.292303 -0.884307 0.412137 0.056274 0.543580 0.139560 -0.828433
с 0.033862 -0.357903 0.125105 -1.479873 -0.929905 -0.159562 -0.540857 -0.573373 0.528592 0.180697 0.037501 0.080580 -0.493298 0.578763 0.723204 0.351547 0.207718 -0.234916 0.282030 -0.461913 -0.330030 -1.271796 -0.890501 1.057470 -0.094511 -0.543501 1.044296 0.391303 -0.244015 0.663620 -0.106544 -0.940282 0.102750 0.319488 0.275899 -0.264103 0.460521 0.313463 -0.816074 -0.330650 -0.705157 -0.178190 -0.707417 0.677030 -0.020990 -0.604648 -0.598487 0.088104 0.768188 0.088274 -0.544701 0.389465 -0.098813 -0.006998 -0.571154 0.248368 -0.031763 -0.464173 0.301418 -0.352877 -0.452579 -0.135043 -0.705286 0.514250 -0.485080 -0.040960 -0.154242 0.513363 0.200141 -0.977862 0.252149 0.517128 0.093528 0.185771 -0.594422 -0.747760 -0.169626 -0.811379 -0.498305 -0.097839 -0.451881 -0.016623 0.329275 0.217298 0.169132 1.619433 0.203519 -0.563454 0.251963 -0.225265 0.342029 0.422554 0.178469 -0.067870 0.076412 0.239981 0.898355 -0.251266 0.662976 0.523759
инфляция 0.225410 0.745245 0.001384 -0.105485 -0.451212 0.496471 0.188307 -0.208681 0.642739 -0.257866 -0.063033 -0.202391 0.095964 -0.902187 0.286962 0.121203 0.700666 -0.187524 -0.514620 -0.241391 -0.709827 -0.068119 -0.911532 1.478627 -0.585837 -0.258335 0.019067 0.467868 -0.350088 0.061567 -0.321656 -0.840094 1.129734 0.457785 -0.573948 0.344768 -0.732073 0.105662 -0.359663 -0.531045 0.127029 -0.515987 -0.855265 0.283460 -0.616511 0.579738 -0.161369 -0.691796 0.740458 0.022844 -0.439621 0.013641 0.262377 -0.104229 -0.410500 -0.086675 0.086328 0.154805 0.610639 -0.667907 -0.093133 -0.220131 0.387071 0.611331 -0.519761 -0.595502 1.235706 0.152032 0.154272 0.061371 -0.070920 1.056754 0.025896 0.039578 -0.577482 -0.033740 -0.111459 -0.465920 0.673968 -0.835258 -0.496146 0.410376 -0.104217 -0.379674 -0.481166 0.197386 -0.225686 0.183840 -0.755433 -0.805695 0.002447 0.818817 -0.295816 0.508725 -0.201763 -0.364356 0.454966 0.183157 0.203898 -0.093076
рост 0.738041 0.579766 -0.320941 -0.534515 0.096969 0.002953 -0.165849 -0.087977 0.272241 -0.619011 -0.794538 -0.364736 0.239019 0.450072 -0.060499 -0.151787 0.241774 -0.345022 -0.300215 0.218918 0.596535 -0.252483 -0.941712 0.800843 0.198869 0.110661 0.215479 -0.236734 -0.076330 0.621302 -0.374858 0.049239 -0.218354 -0.126576 0.192664 0.615968 1.146662 -0.661480 0.059051 -0.126719 -0.005352 -0.141406 -0.781420 0.851686 -0.133884 0.307195 -0.488252 -0.139945 0.268818 -1.151156 0.014538 -0.266131 0.021319 0.327900 0.099747 0.291841 0.177175 0.044296 -0.059321 -0.702097 -0.279093 0.895308 0.316842 -0.637833 -0.073672 -0.401946 -0.200572 -0.132544 -0.167424 -0.479447 0.000958 0.781746 -0.082440 0.348244 -0.922496 0.093046 -0.072971 -0.093070 -0.156430 -0.075574 -0.483447 -0.276277 -0.547244 -0.853980 1.206642 -0.353590 0.487739 -0.253762 -0.165126 -0.245771 0.663097 0.531270 0.169213 0.206267 -0.468683 -0.178753 0.035747 0.846175 0.504572 -0.099516
ключевой -0.679860 -0.758395 -0.647651 0.204911 -0.483138 0.650279 0.004745 0.560194 0.689029 -0.204729 0.075115 0.442600 -0.011760 0.772437 0.933856 1.264708 -0.509127 0.469121 -0.181036 0.129322 -0.406486 0.002590 -0.012132 0.574765 0.699209 -0.181757 0.888527 -0.149338 -0.723465 0.601650 -0.015054 -0.496532 0.735211 -0.479248 0.251035 -0.843257 -0.090780 0.038208 -0.633118 0.592484 0.805080 -0.388290 -0.365673 0.528763 -0.445066 0.316295 -0.510575 0.117934 0.750115 0.535660 0.127158 0.359681 0.329287 -0.424077 -0.205184 0.904109 -0.227165 0.424034 -0.569582 -0.353405 -0.538969 0.504099 0.245770 0.491880 -0.379401 -0.619382 0.089592 0.278274 0.918335 0.155739 0.195250 0.584142 0.643824 -0.989947 0.257643 -0.662874 -0.350538 -0.387777 0.709587 -1.809284 0.055607 -0.236303 -0.098742 -0.930365 -0.181640 0.350169 -0.166372 -0.606139 0.128310 -0.566367 0.659410 0.343020 -0.045687 0.491647 0.092172 0.129443 0.572267 -0.179687 0.169374 -0.588579
риск 0.449072 0.100112 -0.303779 -0.288334 -0.137332 -0.201084 -0.459080 -0.083793 0.651523 0.259536 -0.089537 0.186305 -0.182110 -0.065154 -0.009308 0.812337 -0.506165 -0.375548 -0.137004 0.591342 0.559541 -0.483990 -1.151590 0.884994 -0.411618 0.635528 -0.060551 -0.099160 -0.650576 0.575396 0.214117 -0.563261 0.679083 -0.031557 -0.099616 0.435757 -0.025421 0.202686 -0.569671 -0.272784 0.126651 -0.161198 -0.448316 0.645120 -0.897040 -0.041043 0.153441 -0.235927 0.583773 -0.320836 -0.169700 -0.938634 -0.599970 0.144234 -0.080867 -0.342082 0.125208 0.523026 -0.418755 -0.774315 -0.594228 -0.496214 0.598374 0.606170 -0.228234 -0.215152 0.509334 -0.478115 0.005581 0.235918 -0.088642 0.413345 1.251226 1.086526 -0.193680 0.314027 0.521169 -0.023162 0.793663 -0.375106 -0.599296 -0.305043 0.289113 0.413199 0.303383 1.138666 -0.242699 -0.026021 -0.104812 -0.471171 0.041019 0.357673 0.509437 0.206417 -0.282178 0.616821 0.940005 0.437005 0.337678 1.382601
цена 0.934268 0.694591 -0.012318 -0.394743 -0.554330 0.618437 -0.360145 -0.227191 -0.259837 -0.898073 0.087843 0.058488 0.661846 -0.338749 0.684177 -0.009398 0.602517 -0.395933 0.410396 -0.292966 0.051050 -0.291656 -0.676913 0.369541 -0.530997 -0.388609 -0.177893 0.186747 0.496635 0.790893 -0.583976 0.098053 0.190785 0.033665 -0.569464 0.286362 -0.332165 0.025202 -0.306169 -0.371232 -0.187849 -0.617338 -0.371394 0.675361 0.005907 -0.088778 -0.344130 -0.360962 0.851866 -0.243408 0.310034 -0.412414 0.448406 -0.039747 0.035960 0.249868 -0.165307 -0.391747 0.990843 -0.674320 -0.703717 0.783909 0.718855 0.273686 0.383336 -0.040855 -0.308624 -0.077254 -0.151307 -0.294457 -0.247020 1.342105 -0.229827 0.069184 -0.564437 0.115119 -0.564348 0.221008 0.215446 0.523747 -0.200789 0.244039 0.008218 -0.138864 -0.358082 0.302062 0.008273 -0.150833 -0.313272 -0.603717 0.442443 0.808361 -0.252330 0.487508 -0.184808 -0.249282 0.306229 0.019870 -0.197035 0.173822
условие -0.012569 0.223138 0.238214 -0.491408 0.061277 -0.338914 -0.011927 -0.526759 0.339199 0.224181 0.076019 0.136709 -0.382566 0.706083 0.675291 -0.357605 0.255743 -0.047779 -0.307140 0.337832 -0.095934 -0.434615 -1.264866 0.669005 -0.096421 1.156960 -0.283745 0.318271 -0.484400 -0.393012 0.402036 -0.048992 0.116432 -0.565138 -0.414855 0.318428 -0.247913 -0.484149 0.723213 -0.234141 0.192581 0.065212 -1.177307 0.380760 -0.221044 0.510869 0.476591 -0.013730 0.481470 0.012298 -0.351600 -0.476258 -0.226616 -0.059747 -0.231689 -0.351834 -0.547360 -0.234524 0.223983 -0.247358 -0.609015 0.076586 -0.036757 0.333420 -0.082159 -0.624306 -0.224954 0.446629 -0.320502 0.197291 0.301766 0.454647 1.053037 0.449014 -0.251758 -0.024368 -0.433262 0.327531 0.607714 -0.806577 -0.096965 -0.471357 -0.334614 0.335383 0.368477 0.098636 -0.149669 -0.005210 -0.179391 -0.447728 1.150811 0.124368 0.107035 -0.051602 0.228731 0.494808 0.016329 0.454596 0.684362 -0.602059
быть 0.312816 0.200797 -0.383694 -0.480570 -0.208723 0.142084 -0.128917 0.229289 0.669686 -0.003259 -0.545851 0.065858 -0.584662 0.766991 1.516909 -0.096368 -0.375716 0.328846 -0.042264 0.229831 -0.777928 -0.157896 -0.219651 1.124598 0.630000 -0.303183 -0.093263 0.295554 -0.430261 0.572923 0.333740 -0.893578 0.626341 0.427325 -0.429795 -0.405909 -0.751669 -0.054118 -0.047601 0.629733 0.781807 0.017117 -0.314371 -0.079510 -0.389767 0.823826 -0.664341 0.088374 -0.076423 -0.114122 -0.035327 -0.013092 0.597512 -0.190517 0.304720 0.567406 -0.656942 0.555058 0.754492 -0.538727 -0.123021 -0.454572 0.853276 0.217400 -0.018790 -0.025404 0.155746 -0.004321 -0.102687 -0.215436 -0.367181 1.074278 0.150457 -0.435047 0.003320 -0.379650 0.278774 0.219385 0.540832 -0.015539 0.031567 -0.951865 -1.061098 -0.217544 0.392244 0.363933 -0.362711 0.213387 0.151926 -0.589996 0.489382 1.247171 0.275467 0.153942 0.105755 0.713386 0.234541 0.348927 0.198348 -0.213753
к 0.160992 -0.006200 0.454958 -0.896699 -0.442274 1.043527 -0.206245 0.061100 0.629998 -0.289142 -0.914823 0.461528 -0.104078 0.087162 0.609206 -0.264395 -0.393728 -0.728489 -0.147822 -0.026516 -0.129332 -0.206478 -0.436786 0.635896 -0.124693 -0.212071 0.608554 -0.230011 -0.273648 -0.062829 -0.165342 -0.393908 0.133424 0.573287 -0.306638 0.624835 -0.030548 -0.357739 0.877763 -0.357194 -0.559269 0.083524 -0.463158 1.086966 -0.316316 0.055907 0.805400 -0.350912 0.736582 0.472581 0.296440 -0.352159 0.245415 0.144886 -0.991291 1.196121 -0.151701 0.284871 0.149792 -0.126197 -0.662432 0.052412 0.432776 0.307265 -0.488562 -0.038596 -0.189875 -0.584535 0.535640 0.784965 0.552899 0.144783 0.458508 0.118522 -0.264524 1.297045 -0.195192 -0.582836 -0.371822 -1.464138 0.280568 0.255483 -0.535940 -0.132632 -0.278237 -0.162918 0.965296 -0.878237 0.446222 -0.361869 1.004893 0.044842 0.677169 -0.336657 -0.140636 0.133823 0.348801 0.279209 0.794486 -0.346006
инфляционный 0.093007 0.376080 -0.345442 -0.053895 -0.103016 0.294125 -0.332548 -0.648364 0.243275 0.179934 -0.027937 0.157548 -0.029881 0.275420 0.435878 0.758246 -0.057084 0.232015 0.253382 -0.095800 0.731711 -0.815781 -0.276555 0.849738 -0.684449 0.166028 0.824129 -0.280226 0.140891 0.193570 -0.240093 0.065952 0.686030 0.000741 -0.200295 1.116379 -0.424524 0.490266 -0.006543 -0.067077 0.515945 0.022239 -0.474206 0.893747 -0.028789 0.141519 -0.163067 -0.747804 0.298388 0.025184 0.291960 -0.663308 -0.445319 -0.530920 -0.138337 -0.308564 0.157379 0.932014 -0.042416 -0.654282 -1.146091 0.189061 0.061783 0.425947 -0.004043 -0.371196 -0.129810 -0.690445 -0.041420 -0.054902 -0.178091 0.725785 -0.128530 0.136713 -0.459004 0.467220 0.370751 -0.165370 0.561827 -0.319931 -0.705887 -0.206641 -0.104774 -0.787519 0.017699 0.578362 0.123375 -0.415847 -0.158552 -0.038260 -0.022120 0.700158 0.401767 0.173410 -0.360895 0.674205 1.003704 0.519388 -0.042371 0.278563
годовой 0.333551 0.407033 0.145229 -1.193446 -0.262982 -0.339781 -0.189740 0.233810 0.335116 -0.452657 0.042291 0.100154 0.068462 -0.915935 0.030461 0.159093 0.767865 -0.620239 -0.315831 -0.065072 -0.538340 -0.323964 -0.311054 1.178735 0.033555 -0.617260 0.558489 0.187126 -0.252570 0.013710 -0.239733 -0.056823 0.459903 0.101962 -0.269198 0.347286 -0.618294 0.207092 0.207939 -0.336455 0.297420 -1.001988 -0.397137 -0.115936 -0.369946 0.476748 -0.885011 -0.350514 0.950351 0.410922 -0.092030 -0.553850 1.017034 0.017799 0.150691 0.173547 0.671470 -0.344330 0.486280 -0.971712 -0.232202 0.283755 -0.142348 0.180359 -0.451690 -0.994588 0.612721 0.294574 0.643272 -0.476081 0.103644 -0.060815 0.309680 -0.203069 -0.715149 -0.460297 -0.740783 -0.413915 0.205861 -0.667956 0.193214 0.239922 -0.336498 -1.130775 -0.462048 -0.062019 0.394114 -0.268381 -0.526653 -0.580727 0.320084 0.706221 -0.313376 0.408914 -0.044217 0.281162 0.154722 -0.026035 -0.366021 -0.635047
динамика 0.620240 1.027459 -0.011444 0.410383 -0.003078 0.412893 0.001723 0.125677 -0.429044 -0.354979 -0.336500 -0.127856 -0.044609 -0.358377 0.435587 0.305288 0.146071 -0.031165 -0.421083 -0.023850 -0.521350 -0.059204 -0.695668 1.169080 0.050521 0.285119 -0.415294 0.161789 0.012953 0.758740 -0.412304 -0.895413 0.621484 0.797418 -0.412526 0.267917 -0.104506 0.092263 -0.473930 0.004013 0.180093 0.390868 -1.268526 0.729472 -0.088889 0.534377 0.108869 0.151988 -0.024068 0.014169 0.282369 0.153336 0.000177 0.516956 -0.252637 -0.462058 -0.007498 0.325688 -0.209563 -0.739661 -0.179774 -0.422362 0.994252 0.608992 -0.717063 -0.439251 0.346158 0.504104 -0.106493 -0.512575 0.262354 1.415611 0.060240 -0.014462 -0.437724 -0.454973 -0.107845 0.107137 0.080190 -0.097229 0.195306 -0.664968 -0.143323 0.201319 0.084590 0.414164 -0.000983 0.039167 -0.368255 -0.283974 0.305362 0.389299 -0.056465 0.643676 -0.520240 -0.047195 0.415713 -0.109156 0.594063 -0.408149
кредитный -0.019050 -0.104887 0.454842 -0.422059 0.063010 -0.465075 0.141724 -0.060748 0.861280 0.261981 0.167506 0.086212 0.401889 0.257965 0.699585 -0.681123 -0.028899 0.501003 0.189007 0.107988 -0.014910 -0.262544 -1.013389 0.967538 -0.076756 0.415624 0.162080 -0.336213 -0.752495 -0.846259 0.509730 -0.128524 -0.050881 -0.003089 -0.550171 -0.436991 -0.629526 -0.227374 0.368384 -0.074059 -0.383394 0.609453 -0.853016 0.353851 -0.474773 0.468098 -0.297975 -0.280111 0.630945 -0.183278 -0.891697 -0.390743 -0.121491 -0.658384 -0.088182 0.336258 -0.725309 0.076761 0.300189 -0.404116 -0.230979 0.134035 -0.316093 -0.269481 -0.332387 -1.286906 0.428125 0.534359 0.742337 -0.182207 0.669089 0.176129 0.519229 0.298992 0.183902 -0.321997 -0.821501 -0.077787 0.078309 -1.091392 -0.018718 0.602766 -0.307411 0.010163 0.502943 0.269527 -0.037420 0.130651 -0.398731 -0.540638 0.724520 0.598078 -0.161830 -0.268668 0.455910 0.287715 0.038974 0.519297 0.706096 -0.629844
уровень -0.066389 -0.327652 -0.121153 -0.256188 0.459705 0.221847 -0.739352 0.059837 0.453159 -0.478896 0.255495 0.127170 -0.937602 0.617399 0.446271 0.407419 -0.095561 -0.090954 0.097341 0.459732 0.075757 -0.332256 -0.692492 1.033720 -0.575381 0.041353 -0.126336 0.059485 -0.480383 0.350604 -0.124730 0.015579 0.609356 -0.628940 -0.732573 0.390812 -0.462139 -0.010205 -0.034330 1.035468 0.273372 -0.877909 -0.266242 0.122372 0.131147 -0.048724 -0.395400 -0.125691 0.718229 0.416045 0.374444 0.174810 1.135211 -0.133588 -0.239489 1.000666 -0.370393 0.875215 -0.640222 -0.166012 -0.356477 -0.135729 0.421929 -0.363979 -0.710365 0.194498 0.329888 0.174594 -0.017815 0.277394 -0.423300 0.302215 -0.420230 -0.278602 -0.685575 0.459303 -0.427625 -0.252867 -0.053124 -0.880464 0.297504 -0.504185 -0.518908 -0.645406 0.001749 0.339923 0.784797 -0.597208 -0.514575 -0.369713 0.195807 0.747948 0.039228 -0.458169 -0.149270 0.325867 0.179930 0.696186 -0.235602 -0.350341
экономика -0.094507 -0.383955 0.118018 0.328843 -0.220591 0.406039 0.026527 -0.449908 0.255363 0.031715 -0.879167 0.261511 0.077036 -0.039693 0.180497 0.151469 0.322844 0.017577 -0.482090 0.682836 -0.117082 -0.148852 -0.798771 0.565202 0.451559 -0.017739 -0.252677 -0.246314 -0.326841 0.277686 -0.482456 -0.504783 0.116039 -0.360959 -0.225966 0.660706 0.358037 -0.175197 -0.636095 -0.454353 -0.223582 0.013158 -0.638820 0.483853 -0.626061 0.751941 -0.476438 0.239063 0.590921 -0.311226 -0.314782 0.174219 -0.344201 0.211690 -0.110984 0.180101 -0.277346 0.354367 0.563064 0.430272 -0.311394 -0.034591 0.382159 0.235740 -0.374958 -0.479664 -0.291459 0.109624 -0.192627 0.454769 0.033154 1.077036 0.714525 0.826616 -0.650245 -0.237381 0.034869 -0.335497 0.722114 -0.821637 -0.491402 -0.473249 -0.048144 0.276131 0.593654 -0.171011 -0.341038 -0.478937 -0.380725 -0.542518 -0.450179 0.330731 0.421546 -0.203492 -0.613394 -0.882197 0.014209 0.497303 0.546879 0.520667
рынок -0.215764 -0.154738 0.442621 -0.371867 0.345232 0.225666 -0.589688 0.052413 -0.287709 -0.431896 -0.144753 0.066306 0.694889 -0.398087 0.549741 0.103827 0.030267 -0.674988 0.658661 0.577657 0.548050 -0.883489 -0.771255 0.304616 0.038672 0.543063 -0.422822 -0.346840 0.046046 0.600962 0.152733 0.181766 0.049489 -0.183868 0.241823 -0.180947 0.688532 -0.554527 -0.733507 0.147797 -0.516377 -0.383340 -0.982533 0.556451 -0.024591 -0.265385 0.470940 0.716730 0.483457 0.347942 0.085544 -0.410944 -0.253476 0.034167 0.216645 -0.029799 -1.031844 -0.072278 0.120088 -0.816952 -0.149980 0.261570 0.329225 0.425955 -0.103717 -1.211991 -0.952551 0.120106 0.899909 -0.074834 0.177790 0.466457 0.560078 -0.048145 -0.335457 0.214362 -0.399278 -0.118283 0.424787 -0.362368 -0.412770 -0.246795 -0.081388 0.041665 -0.249014 0.596888 -0.153623 0.331564 0.299967 -1.115605 -0.249858 0.532341 -0.089196 -0.033063 0.200973 0.390342 0.262317 0.650691 0.012087 0.113693
до -0.029122 -0.267097 -0.540570 -0.123628 -0.250347 -0.028674 0.504411 0.650902 0.439875 -0.698561 0.649458 0.375225 -0.331563 -0.247122 0.024676 0.654152 0.542210 0.002118 0.481020 0.180530 0.108285 -0.635716 -0.263964 0.850998 -0.042513 -1.009599 0.613522 -0.252123 -0.962941 0.384472 0.168418 0.648670 0.504988 -0.353726 -0.312610 -0.674270 0.156036 0.215782 -0.767724 -0.032465 -0.226151 -1.309855 -0.235786 0.740731 -0.273897 -0.219592 -0.685034 -0.415308 0.896317 0.101917 -0.418129 -0.130128 0.456463 0.052430 0.219668 0.672513 -0.041999 -0.351284 0.360545 -1.053057 -0.407397 1.221609 0.225531 -0.104835 -0.070640 -1.026597 0.239246 0.297300 0.880542 -0.200367 0.153434 0.269956 0.691367 -0.443647 -0.200264 0.128508 -0.307180 -0.484143 0.240602 -0.435807 -0.062026 0.891837 -0.302487 -1.192652 -1.166593 0.166838 0.641678 -0.593362 -0.369795 -0.732543 -0.051842 0.317485 -0.573168 0.362875 -0.142009 0.202558 0.067579 -0.116711 -0.425304 -0.269811
темп 0.668138 0.259052 -0.455686 -0.786697 0.128068 -0.137894 -0.280554 -0.202942 0.416029 -0.494454 -0.518773 -0.061346 -0.008856 0.162055 0.266320 -0.176815 0.556951 -0.224393 -0.183133 0.092117 -0.050053 -0.342936 -0.465414 0.488046 -0.000333 -0.511165 0.113374 -0.008321 0.292580 0.582872 -0.479061 0.344884 0.349244 -0.424014 -0.115112 0.641191 0.096180 -0.248245 0.456522 -0.109799 -0.192594 -0.538176 -0.427929 0.522378 -0.186996 0.431940 -0.768462 -0.048001 0.675643 -0.258312 0.273344 -0.009483 0.713299 0.113102 -0.108114 0.455804 0.803668 -0.364232 0.812424 -0.400147 -0.122355 1.082223 0.331510 -0.137845 0.412343 -0.194369 0.264997 -0.058168 0.261805 -0.307295 -0.272453 0.944621 0.232010 0.288503 -0.674335 -0.193566 -0.579648 -0.627841 -0.267851 0.275692 -0.263581 -0.022821 -0.388270 -1.080881 0.547878 -0.489342 0.235435 -0.389092 -0.040109 -0.119423 0.501776 0.208538 0.258257 0.037258 -0.360430 -0.147120 0.140272 0.590022 0.149741 -0.102682
ожидание -0.327698 0.382010 0.701092 -0.154703 -0.092352 0.375321 0.032311 -0.398284 -0.323360 0.126602 0.245050 -0.055252 0.105494 0.165798 0.623953 0.082474 0.209455 0.286885 0.700124 -0.008819 0.365826 -0.510081 -0.320947 1.399615 -0.730328 0.000459 0.335180 0.055364 0.453081 -0.047362 -0.263440 -0.240652 0.423223 0.074412 -0.510189 1.128517 -0.350788 0.775832 -0.312472 -0.002553 0.270243 -0.022047 -0.471150 0.849703 0.480615 0.165324 0.308374 -0.426197 0.218651 0.193045 0.237929 -0.175717 -0.892136 -0.876393 -0.112283 -0.401835 -0.316762 0.986165 -0.144314 -0.737929 -1.279119 0.207571 -0.155941 0.058925 0.008228 0.083111 -0.138469 -0.403294 -0.168236 -0.206385 -0.241474 0.592127 -0.398754 -0.534026 -0.614053 0.279716 0.375302 -0.466783 0.066905 -0.452756 -0.816504 0.046671 -0.229101 -0.861464 0.013675 0.293122 0.201695 -0.307303 -0.125711 -0.348331 0.104202 0.632263 0.138783 0.139227 -0.965035 0.421973 0.949879 0.124558 0.016984 -0.059979
снижение 0.142478 -0.214155 -0.278395 -0.662106 -0.391779 0.578987 -0.031590 -0.052465 0.364605 -0.044808 0.128788 0.553861 0.231399 0.266079 0.893312 0.050247 -0.417921 -0.023520 -0.550001 -0.096092 -0.011395 -0.148902 -0.788510 0.278497 0.377761 0.419611 -0.293091 0.148813 -0.622933 0.494931 -0.255923 -0.024245 0.366045 0.197837 0.115224 0.374624 0.506450 -0.093347 0.192454 -0.339617 0.319888 -0.005438 -0.619748 0.615937 0.085746 0.036716 -0.596212 -0.464470 0.683591 -0.798415 0.165129 -0.582873 -0.159356 -0.467315 0.170523 -0.009910 -0.294508 0.298525 -0.012505 -0.274850 -0.409352 0.498118 -0.105986 0.408940 0.173389 -0.253523 0.136270 -0.219485 0.310205 -0.551599 0.394565 0.756140 -0.215774 -0.264657 -0.470288 -0.185522 -0.598599 0.469915 0.394234 -0.910867 0.044869 -0.379753 -0.218915 -0.545080 -0.380366 -0.486684 -0.119688 0.384787 -0.314554 -0.031987 1.188835 0.865795 0.380434 0.477149 0.131418 -0.068126 0.295928 -0.198161 0.700239 -0.461711
решение 0.086352 -0.249106 -0.308271 0.480416 -0.068716 0.053416 -0.626600 0.366908 0.539627 0.549337 0.274269 0.136868 -0.348511 0.414848 0.478603 0.749898 -0.347819 0.663264 -0.236523 0.326968 -0.808387 0.181751 0.510259 0.560211 0.452139 -0.356375 1.113865 -0.520030 -0.286207 0.479050 -0.576072 -0.482154 0.465118 -0.631456 -0.236637 -0.253395 -0.681554 0.590980 -0.336965 0.374941 0.997826 -0.612159 0.488302 0.649440 -0.794220 0.402700 -1.134271 0.205407 1.299167 0.327640 0.135035 -0.593142 -0.141963 0.165176 -0.230782 0.104001 -0.006434 0.545147 -0.657772 -0.014948 -0.111383 -0.157534 1.171761 0.393695 -0.390294 -0.855252 0.560426 0.378724 1.152890 -0.019835 0.297131 0.384787 0.410985 -0.727086 0.169318 -1.096431 0.027022 0.008874 0.508878 -1.086937 0.597389 -0.130201 0.011662 -0.076689 0.297870 0.431517 -0.400299 -0.159900 0.285647 -0.257613 0.616472 0.694308 -0.127010 0.465839 -0.266367 -0.380185 0.353846 -0.016331 -0.711714 -0.690956
потребительский 0.953252 0.801556 -0.174945 -1.180116 0.398913 -0.602760 -0.379846 -0.154715 -0.086961 -0.452999 0.140310 -0.094456 -0.035536 -0.079819 0.435013 -0.366017 0.472930 -0.015134 -0.288743 -0.301790 -0.137635 -0.289496 -0.664562 0.819745 -0.139533 0.027929 -0.152380 0.137411 -0.257822 0.758695 -0.130464 0.287668 -0.300542 0.030204 -0.753895 0.181670 -0.630097 0.428864 0.195505 -0.143431 -0.389233 -0.488917 -0.361744 0.533695 -0.765093 0.183806 0.165171 -0.633119 0.291752 -0.765978 0.036955 0.060141 0.654518 0.620412 0.358154 -0.071824 -0.120417 0.159367 0.569350 -0.064604 -0.380750 0.651901 0.660494 0.755966 0.692305 -0.123416 -0.240473 -0.610482 -0.163422 -0.544246 0.032892 0.681530 -0.319261 0.182297 -0.599587 -0.091453 -0.783374 -0.000168 -0.382673 0.375183 0.042519 0.118226 -0.501413 -0.410672 0.267047 -0.170632 0.418334 -0.028684 -0.089841 -0.026715 0.808919 0.771853 0.088908 1.081993 -0.556609 0.102193 -0.154814 0.026482 0.689890 -0.189708
денежный 0.142752 0.053803 0.486403 -0.260593 -0.003505 -0.370360 0.250862 -0.362711 1.142085 0.431390 0.033178 -0.034801 0.091514 0.240813 0.797264 -0.573849 0.002803 0.570639 0.256669 0.101265 -0.179608 -0.045754 -0.785312 0.784286 -0.225548 0.128882 0.476997 -0.010511 -0.344057 -0.688524 0.402850 -0.267349 0.199570 0.027500 -0.829184 -0.237668 -0.649880 -0.359717 0.846925 -0.131578 -0.285177 0.399151 -0.691152 0.183644 -0.376221 0.149420 -0.453840 -0.309025 0.832912 0.168412 -0.704274 -0.443998 0.029408 -0.524895 -0.249244 0.287852 -0.412181 -0.127291 0.711777 -0.450457 -0.224882 -0.113547 -0.039004 -0.222595 -0.067098 -1.024069 0.576937 0.761747 0.413830 -0.182033 0.300933 0.151976 0.513771 0.092051 0.003336 -0.357242 -0.768277 -0.055106 0.197166 -0.722231 -0.085233 0.437493 -0.469567 0.117966 0.492521 0.247396 -0.113344 0.208009 -0.200351 -0.467613 0.509179 0.544613 -0.108235 -0.586779 0.432555 0.380379 -0.008095 0.718568 0.556486 -0.819797
также -0.057718 0.930259 0.030968 0.111566 0.336741 -0.027609 -0.234161 -0.488719 0.017988 -0.000286 -0.152838 0.015237 -0.222253 -0.049969 0.584842 0.354118 0.084523 -0.167932 -0.276639 -0.278356 -0.461318 -0.184044 -0.628791 0.967487 0.112512 -0.662295 0.077625 -0.037036 0.217147 0.129630 -0.861221 0.195312 0.381623 -0.576899 -0.498331 0.422148 0.543930 -0.091850 -0.248932 0.091257 -0.329341 0.501346 -0.611208 0.924036 -0.518466 0.187511 -0.173947 0.286185 -0.034724 -0.083970 -0.241367 -0.813156 -0.210437 0.192456 -0.198240 -0.070537 -0.820057 0.539849 0.138717 -0.455134 -0.801956 -0.058406 0.386737 0.269961 0.320339 -0.476230 -0.418172 -0.110080 -0.871726 0.564918 0.163922 0.645712 0.029743 0.239088 0.014721 -0.076162 0.037596 -0.497860 1.333355 0.230209 -0.509161 -0.651074 0.267296 0.085200 -0.084656 0.404212 -0.303773 0.226590 0.744081 -0.787431 0.294619 -0.100173 0.752085 0.218403 -0.574939 0.141386 -0.145400 -0.103154 -0.042542 0.669741
директор -0.331255 -0.473133 0.266552 -0.422011 -0.259730 0.279848 -0.621500 0.121310 0.547646 0.380391 0.473534 0.026563 -0.186702 -0.158228 0.282217 0.170923 -0.116610 0.193582 -0.121371 0.588284 -0.279005 -0.186666 0.255967 0.443882 0.066073 0.499726 0.763187 -0.155220 -0.075394 0.318569 0.326665 -0.288863 0.514673 -1.186553 0.188835 0.233935 -1.173810 -0.023518 -0.002690 1.059450 0.668950 -0.531421 -0.479876 -0.018396 -0.437434 0.153448 -0.598149 0.297454 0.380551 0.617739 -0.021951 -0.030976 0.300735 0.091438 -0.120366 0.081891 0.144793 0.402682 -0.584200 -0.545207 0.108545 0.014806 0.798456 0.492802 -0.703217 -0.652293 -0.103289 0.628223 1.049608 -0.315166 -0.252875 -0.489582 0.564896 -0.936406 0.180339 -0.514890 -0.126689 -0.063460 0.495484 -1.487655 0.242255 -0.470324 0.089810 0.025985 0.318418 0.061514 -0.339586 0.183504 0.092111 -0.024683 0.175358 0.836175 -0.924696 0.466437 -0.190669 0.528034 -0.042654 0.192663 -0.102670 -0.453820
совет -0.331934 -0.626040 0.296158 -0.449206 -0.260831 0.262370 -0.721645 0.143945 0.637936 0.588123 0.445502 -0.034054 -0.250129 -0.137691 0.352352 0.147037 -0.207696 0.191326 -0.172204 0.557928 -0.264830 -0.120695 0.222821 0.464515 0.109735 0.484364 0.817290 -0.130299 -0.015791 0.421586 0.357324 -0.459235 0.586244 -1.402903 0.384918 0.218162 -1.208350 -0.166121 0.024144 1.090527 0.737768 -0.576927 -0.503928 0.066090 -0.498468 0.190425 -0.670864 0.511592 0.494855 0.746590 -0.037071 -0.167644 0.372511 0.012373 -0.153021 0.107796 0.214073 0.450322 -0.590484 -0.524150 0.175446 0.023239 0.945930 0.498404 -0.721611 -0.735770 -0.083852 0.733111 1.120010 -0.307585 -0.312229 -0.422686 0.694148 -1.049044 0.141942 -0.709933 -0.187854 -0.022523 0.629232 -1.658871 0.249822 -0.561264 0.178480 0.214899 0.394832 0.055194 -0.399218 0.305758 0.117040 -0.092929 0.200207 0.869680 -0.972645 0.469006 -0.289994 0.531060 -0.025925 0.167434 -0.179632 -0.463632
спрос 0.334472 0.583786 -0.177545 0.013850 -0.243268 -0.498338 -0.554404 -0.789608 -0.354917 -0.399679 -0.526806 -0.195311 -0.370097 0.730234 -0.106083 -0.163963 0.101795 0.014848 0.055610 -0.070242 0.371802 -0.142161 -1.231115 0.617433 0.022661 -0.196093 -0.030954 0.522686 -0.285407 0.724073 0.161026 -0.709270 0.037317 -0.366071 -0.116524 -0.040281 -0.415231 -0.055065 0.231308 -0.374562 -0.050588 0.096285 -0.755461 0.180810 -0.054380 -0.096775 0.716412 0.157209 -0.061633 -0.393393 -0.385066 -0.464792 0.591452 0.626522 0.225575 -0.027944 -0.529805 0.520008 0.397091 0.738442 -0.465905 -0.075940 -0.055442 0.233653 0.752887 -0.315866 -0.325394 0.137630 -0.265382 0.278940 -0.340357 0.535663 -0.760811 0.457024 -0.810656 0.223707 -0.486975 0.443810 0.307859 -0.127391 -0.025837 -0.192378 -1.094917 -0.431973 0.621686 -0.065340 0.586420 -0.047283 -0.391385 -0.597351 -0.173308 0.615849 0.374249 0.745643 -0.647977 0.082372 -0.201800 -0.085480 0.697605 -0.198941
влияние 0.600064 0.748226 0.620261 -0.067044 0.235830 0.307443 0.102089 0.078135 -0.526837 0.343373 -0.199575 -0.016380 0.035461 0.335694 0.696541 -0.171408 0.312210 -0.187054 -0.195898 0.032808 -0.416591 -0.247927 -1.132859 0.190909 -0.343735 0.360264 -0.081538 0.401702 0.234011 0.769007 -0.008895 -0.487596 0.623078 0.194296 -0.127248 0.199341 -0.628587 0.296555 -0.409954 -0.547578 0.196248 0.766413 -0.212585 0.613556 0.465136 0.574998 -0.406070 0.716692 0.943610 -0.529962 -0.303558 -0.801667 0.344135 0.493608 -0.251501 -0.357638 -0.797147 0.585084 0.378008 -0.254971 -0.175590 -0.429989 0.347723 0.082082 -0.324049 -0.303054 -0.365280 -0.244143 0.309416 -0.717503 -0.038491 1.035302 -0.126535 0.195634 -0.046487 -0.372473 0.313752 0.482795 -0.379865 -0.188845 -0.266056 -0.017955 -1.118239 0.339305 -0.369067 0.284330 -0.514292 -0.677410 0.018452 -0.820715 0.789966 -0.410120 0.730589 -0.338938 -0.347968 0.250354 0.151561 0.412734 0.007422 0.045383
при 0.114653 -0.514831 -0.279837 -0.442646 -0.098273 0.443113 -0.015411 -0.708625 -0.047880 0.185156 0.665563 -0.110621 -0.412463 0.119919 0.187638 0.479909 -0.047969 0.667074 0.087584 0.604704 0.417884 -0.785076 0.184857 0.496726 -0.659039 0.164551 0.185445 0.662763 -0.784011 0.588231 -0.097716 0.017372 0.519725 -0.570697 -0.473748 0.013889 -0.147546 0.391781 -0.065208 0.460400 -0.470019 -0.792875 -0.737141 -0.455332 -0.610658 0.026989 -0.360425 -0.167497 0.198554 0.139121 0.459870 -0.524946 0.190395 0.718104 0.020055 0.122749 -0.658216 0.614655 -0.205448 -0.001762 -0.187640 0.359266 0.189138 1.434192 0.381967 -0.565941 -0.484740 0.767790 0.831604 0.206270 0.206607 -0.385976 0.382274 -0.032207 -0.681219 -0.676055 -0.227633 0.034406 0.358028 0.230562 0.797974 -0.025647 -0.577506 -0.447808 0.203596 0.311066 0.773012 -0.235016 0.328326 0.448943 0.650929 0.341130 0.115634 -0.277544 -0.282377 0.198295 -0.378763 0.582130 0.646376 0.172164
операция -0.715407 -1.074258 0.061817 -0.091370 -0.122608 0.315026 0.370176 1.081542 -0.151029 -0.549397 0.215646 0.421776 -0.394046 -0.218459 -0.443642 1.387109 -0.508267 -0.268792 0.267719 0.866115 -0.711514 0.243845 0.256402 0.216329 0.788758 -0.808287 0.227662 -1.098285 -0.884484 -0.060007 0.696446 0.645369 0.166614 0.092826 0.319014 -1.041046 0.186510 -0.188829 -0.134614 0.560300 0.079826 -1.047626 -0.188241 -0.269421 0.370802 -1.145033 -0.428273 0.743668 -0.192471 0.918186 0.116186 -0.156739 0.026949 0.107588 -0.070702 0.804180 0.191893 -0.302590 -0.776740 -0.539770 -0.034714 0.342987 -0.224321 -0.531912 -0.159299 -0.439697 -0.581166 0.571669 0.867062 -0.014375 0.018119 -0.894361 0.210357 -1.285374 0.406145 0.032462 -0.303215 -0.110545 -0.519995 -0.566034 0.656610 0.002161 -0.235429 -0.796408 -0.366149 0.309623 0.183098 -0.543556 0.221667 0.504869 -0.659709 -0.705620 -0.045351 0.419465 0.636750 0.097842 -0.068826 0.192222 -0.192810 -0.038070
прогноз -0.324755 -0.005943 0.268269 -0.660176 -0.410140 0.385563 0.179322 -0.041337 0.774836 0.546094 -0.520013 -0.041258 -0.701759 -0.686738 0.559265 0.245418 0.505050 0.256443 0.057244 -0.005318 -0.614973 0.184102 -0.015741 1.514183 0.596387 0.082167 0.579997 -0.145030 0.154729 0.059458 0.398495 0.001652 0.435695 -0.410318 0.056928 0.389933 -0.451622 0.231868 -0.104415 0.318741 -0.330123 -0.897338 -0.598348 0.497671 -0.805284 -0.058279 -0.505917 0.147341 1.369000 0.304939 0.188875 -0.508054 0.253533 0.241788 0.119725 0.386617 0.250602 0.347716 0.262743 -0.733921 0.460040 -0.206925 0.042811 0.854726 0.143234 0.079624 0.273036 0.546634 0.571257 -0.179104 -0.355460 0.352895 0.468130 -0.796383 -0.136638 -0.943270 0.139205 -0.861025 0.863221 -0.621639 -0.060914 -0.645939 -0.419759 -0.326658 0.562275 0.343616 -0.443184 0.427364 0.307475 0.606481 0.149690 0.537284 0.143381 0.362240 -0.403599 -0.247386 -0.029231 -0.194680 -0.036944 0.332915
процентный -0.319541 -0.186682 0.324280 -0.046288 -0.026556 -0.317205 -0.010049 0.862547 -0.356446 -0.657940 0.627626 0.452673 0.289302 0.304217 0.200339 0.881291 -0.530690 -0.311448 -0.427532 0.611567 0.123347 -0.627201 -0.097398 0.170703 0.441919 -0.319745 0.545060 -0.792497 -0.893436 -0.235018 0.373271 0.763091 -0.196409 0.043048 0.122946 -0.541729 0.117864 -0.158552 0.044464 0.239700 -0.304604 0.097863 -0.997808 0.599956 -0.075923 -0.244717 -0.005023 0.693889 -0.637453 0.476519 -0.217463 -0.537835 -0.380295 0.473482 -0.158033 0.993175 0.008110 -0.195323 -1.000696 -0.687749 0.093449 0.426483 0.137697 -0.584872 -0.567418 -1.055205 0.130000 0.713872 0.516933 0.219445 0.202016 0.006964 0.650166 -0.731732 0.229650 0.022670 -0.571912 0.109574 -0.547647 -0.760464 0.557144 -0.163778 -0.472059 -0.596424 -0.772027 0.334258 0.324362 -0.489252 -0.063909 -0.196781 0.420078 -0.146593 0.082529 0.666662 0.498023 0.162487 -0.231483 0.314980 0.377830 -0.338035
это 0.224100 0.042637 -0.263902 -0.435699 -0.135706 0.250681 -0.000306 -0.580101 -0.039321 -0.577841 0.156003 -0.393009 0.079487 -0.011909 -0.050247 0.085360 -0.011978 0.070542 0.311764 0.135120 0.326805 -0.696049 -0.577452 0.694691 -0.249105 -0.111134 -0.226216 0.055941 -0.922106 0.312837 0.007036 -0.012365 0.565920 -0.136540 -0.648076 0.105038 -0.138512 0.440034 -0.075676 0.504525 -0.171903 0.029907 -0.609277 -0.003903 -0.101248 -0.057326 -0.705178 -0.024527 0.176560 -0.648285 -0.418725 -0.284495 0.089417 -0.032562 -0.096550 -0.031286 -0.707544 -0.044845 -0.414885 -0.031043 -0.495938 -0.189447 -0.274767 0.583438 -0.229322 -0.197263 -0.036632 0.452499 0.424486 -0.396750 0.356400 -0.301323 -0.249863 0.789718 -0.542327 -0.093913 0.104165 0.494302 0.316762 0.371672 -0.119002 -0.137884 -0.582994 -0.683949 0.404875 0.279406 0.294106 -0.423784 -0.140756 0.336056 0.333203 0.821326 0.374544 -0.301633 -0.328131 -0.144116 0.100773 0.542462 0.911553 0.634552
дальнейший 0.127234 -0.075168 -0.367042 -0.267893 -0.429161 0.322274 0.155061 -0.027932 1.018907 0.369516 -0.165777 0.370259 -0.088233 0.470089 1.304130 0.239867 -0.517134 0.190866 -0.381474 0.104572 -0.340636 -0.264842 -0.248457 0.557414 0.566057 0.140190 -0.091631 0.465094 -0.460103 0.096045 -0.111409 -0.214432 0.077016 0.411327 0.058064 -0.016791 0.704619 -0.098802 0.312790 -0.258131 0.370451 -0.429986 -0.447467 0.089100 -0.151346 0.335481 -0.386575 -0.460377 0.493968 0.276884 0.518181 -0.331507 -0.129843 -0.425790 0.120768 -0.146298 -0.311264 0.450152 0.704748 -0.478334 -0.392371 -0.146196 0.135513 0.711230 0.162501 -0.285002 -0.043579 0.100488 0.273917 -0.166196 0.215905 1.153272 0.318508 -0.106860 -0.579405 -0.393464 0.112854 -0.465282 0.576092 -0.378153 0.291395 -0.166236 -0.527866 0.043866 -0.157530 0.710125 -0.025175 0.207466 -0.024265 -0.558247 0.829735 0.784046 0.305284 -0.144602 0.246538 0.392541 0.203825 0.316663 0.069704 -0.725892
политика 0.621479 0.188910 0.262634 -0.127621 -0.226009 -0.216452 0.231402 -0.119186 0.881339 0.172916 -0.280248 -0.355887 0.136573 -0.356494 -0.083477 -0.558879 -0.539099 0.254200 0.236558 -0.086296 -0.372425 0.043441 -0.628359 0.723535 -0.096588 -0.361700 0.847657 -0.101692 -0.096617 -0.497254 0.139836 -0.649926 0.164429 0.500806 -0.512499 -0.317513 -0.419900 -0.306364 0.012862 0.083035 -0.311061 0.415871 -0.441820 0.257631 -0.957218 0.200287 -0.642335 -0.318254 0.829139 0.243629 -0.825104 -0.521352 0.026821 -0.219883 -0.223849 0.969288 -0.185591 0.293370 0.558536 -0.080538 -0.224164 -0.662652 0.152045 -0.175304 -0.268132 -0.933421 0.651474 0.662784 1.027926 0.018875 0.440175 -0.015390 0.019104 0.470938 0.066577 -0.221658 -0.149415 0.243658 0.190084 -0.781138 0.182825 0.448717 -0.028868 0.077661 0.376576 0.011374 -0.200193 0.514046 0.203100 -0.401403 0.070044 0.484693 -0.212517 -0.328610 -0.032993 0.233022 -0.133315 0.264623 -0.050573 -0.229390
оставаться -0.018363 0.170489 0.130313 -0.055106 0.582916 -0.696308 -0.758717 -0.419270 0.338581 -0.159164 0.626563 -0.193616 -0.525315 0.586160 0.128612 -0.553667 0.051334 0.075575 -0.050100 0.309639 0.414389 -0.398209 -0.975253 1.439193 -0.622116 0.959740 -0.482940 -0.044752 -0.150872 0.277977 -0.090365 -0.299851 0.020029 -0.134656 0.021958 0.317617 -0.209336 0.243876 -0.238548 0.035107 -0.033701 -0.628690 -0.566956 0.331840 -0.466405 0.406113 -0.071604 -0.179346 0.603820 0.156304 0.212625 -0.172405 -0.280664 -0.134453 0.252769 -0.491726 0.057776 0.652103 -0.180135 -0.075031 0.007172 0.301014 -0.277437 -0.294025 0.173374 -0.359267 0.310443 -0.087233 -0.186465 0.320899 0.117539 0.249449 0.336901 0.092181 -0.875745 -0.413693 -0.460988 0.026134 -0.699182 -0.032006 -0.089155 -0.118129 -0.293230 -0.511818 0.875575 0.522339 0.322587 -0.258877 -0.967876 -0.125988 0.079004 0.342320 -0.080510 0.002696 -0.380895 0.303070 0.464899 0.611375 0.211498 -0.089198
мочь 0.397905 0.928751 0.319936 0.354724 -0.513519 0.435070 0.042673 -0.343203 -0.119961 -0.471569 -0.889627 -0.043230 0.170461 0.103818 0.298353 -0.626816 -0.520557 -0.384172 -0.038385 -0.285805 0.102560 -0.405517 -0.817762 0.221620 0.051024 0.161309 0.133918 -0.965605 0.243202 0.012613 -0.054452 -0.161544 0.355709 0.579021 -0.413698 0.498955 -0.115470 -0.043840 0.291498 -0.299336 -0.621741 1.110679 -0.376445 0.466510 -0.252997 0.541510 0.131580 -0.158814 -0.318060 -0.758175 -0.567421 -0.934543 -0.066498 -0.059281 -0.103202 0.259151 -0.659331 0.202010 0.367336 -0.578044 0.212909 0.406161 -0.169911 -0.211385 -0.010078 -0.129383 -0.982328 -0.385192 -0.190411 0.240164 -0.105471 0.025998 -0.187595 0.642354 0.537516 0.871411 0.015594 0.529519 0.435030 -0.349427 -0.620718 0.107962 -0.802373 -0.082342 0.288691 0.139479 -0.482874 -0.253720 0.173013 -0.301013 -0.124533 0.495934 0.620204 -0.517745 0.611527 0.435857 -0.037742 0.501908 -0.015788 0.528308
активность 0.185443 0.022757 0.103432 -0.678233 0.189332 -0.240469 -0.162942 -0.162020 -0.401124 0.121069 -0.126232 0.228779 -0.057058 0.112775 0.242308 -0.542664 0.324428 -0.113295 -0.433593 0.129783 0.014475 -0.134127 -0.710972 0.893590 0.213986 -0.024667 -0.810455 -0.235062 -0.391520 0.102993 -0.226616 0.136147 -0.118516 -0.511291 0.120433 0.581905 -0.413992 0.181160 0.119232 0.200705 -0.426828 0.728183 -0.808787 0.568641 -0.509063 0.853684 -0.268631 0.246768 -0.346463 -1.008490 -0.328639 -0.174760 0.153116 0.178706 0.196633 -0.251664 -0.479615 0.777910 0.025112 0.385310 -0.121665 0.611877 0.032404 0.439620 -0.205859 -0.442470 -0.021443 -0.464267 -0.113420 -0.257433 0.135777 0.552294 -0.088842 0.330015 -0.857746 -0.366318 -0.777180 -0.494321 -0.289183 -0.076707 0.497845 -0.189940 -0.615027 0.250129 0.454108 -0.367666 0.232973 0.136995 -0.417391 0.173204 0.387816 0.492131 0.341781 0.222250 -0.687780 0.128036 -0.515729 0.348415 1.004816 0.293942
а -0.380050 0.828130 0.062644 0.127113 0.784033 0.032727 -0.430522 -0.472779 0.132570 -0.187392 -0.240170 0.153914 -0.101535 -0.141046 0.356931 0.464488 0.366667 -0.462019 -0.590045 -0.448666 -0.599679 -0.108419 -0.746581 0.793215 0.223942 -0.760286 0.020968 -0.144338 0.267137 0.114102 -0.988770 0.627275 0.398617 -0.995638 -0.601511 0.453305 0.857830 -0.114651 -0.114121 0.017707 -0.679709 0.457381 -0.867531 0.933541 -0.817139 -0.174553 -0.235673 0.326949 0.248702 0.322984 -0.017534 -0.308734 -0.202678 0.040828 -0.741672 0.109353 -0.957339 0.490857 0.039508 -0.090421 -0.820957 0.104130 0.270327 0.461438 0.370824 -0.672481 -0.419222 -0.035594 -0.991788 1.030484 0.290696 0.861602 0.248406 0.256307 0.184593 -0.370829 -0.309401 -0.877586 0.988571 0.211208 0.046793 -0.626675 0.607431 0.185347 -0.098968 0.289468 -0.228389 0.239811 0.804170 -0.572282 0.130217 -0.373838 0.853111 0.140378 -0.628276 -0.200924 -0.306246 0.259728 0.321707 0.686228
принимать -0.059209 -0.079912 -0.519980 0.257581 -0.130683 -0.160257 -0.528722 0.520407 0.671742 0.193995 0.184550 0.259421 -0.020402 0.448985 0.578198 0.477875 -0.024944 0.470556 -0.311603 0.174894 -0.787882 -0.321330 0.236404 0.561298 0.756575 -0.521075 0.931838 -0.229215 -0.162632 0.606400 -0.523714 -0.371063 0.691768 -0.444704 -0.278501 -0.399309 -0.728784 0.693019 -0.502356 0.034159 0.932925 -0.372069 0.623244 0.274699 -0.557426 0.668780 -1.156411 -0.049126 1.039184 0.218504 0.108106 0.149184 0.006659 -0.008056 0.172027 -0.309084 -0.114796 0.194820 -0.405348 0.063466 -0.205432 -0.074827 0.908524 0.581238 -0.534001 -1.118272 0.564586 0.197589 0.778201 0.117966 0.452932 0.172910 1.081107 -0.127963 -0.065411 -1.085185 -0.141295 0.026581 0.512804 -0.826004 0.425101 -0.055301 -0.178187 -0.209397 0.337523 0.295003 -0.663864 -0.018924 0.041023 -0.480899 0.542670 0.794357 0.094373 -0.240020 0.091275 -0.005970 0.605670 0.049678 -0.213542 -0.626035
экономический 0.304239 -0.186537 -0.142132 -0.623405 0.005250 0.233534 0.301144 -0.094463 0.075697 0.334941 -0.034859 0.020966 -0.433885 0.265230 0.167386 -0.098914 -0.018644 0.018678 -0.416173 0.246900 0.125086 -0.040754 -0.607768 0.541533 0.178831 0.024246 -0.514525 -0.351771 -0.066483 0.017155 -0.049620 0.043859 0.102105 -0.491268 0.348009 0.856241 0.277650 -0.319836 0.296485 0.187889 -0.251765 0.419457 -0.714704 0.555196 -0.392552 0.734101 -0.440756 0.308461 -0.171860 -0.799815 -0.005204 -0.196596 -0.215101 0.203256 -0.041978 -0.222266 0.110406 0.917501 0.198282 0.218031 -0.211964 0.367736 0.192495 0.374821 -0.198706 -0.554210 0.099531 -0.427450 -0.251145 -0.312861 0.024193 0.756200 0.491513 0.173356 -1.021114 -0.243391 -0.325073 -0.534827 -0.478694 -0.266328 0.443938 -0.296046 -0.575546 0.412878 0.239670 -0.292960 -0.004318 0.117286 -0.159881 0.548888 0.249550 0.021745 0.639814 -0.249940 -0.703691 0.612976 -0.419251 0.682194 0.939127 0.101186
время 0.273659 -0.491041 0.304606 -0.584596 -0.534651 0.373096 -0.774473 -0.561904 0.031720 0.116061 0.529228 -0.079871 0.244414 0.634759 0.143860 0.618512 -0.017941 0.425249 -0.323660 0.658533 -0.603299 -0.561345 0.456774 -0.131182 -0.339415 0.214263 0.955055 -0.752381 -0.399784 0.385664 -0.057164 -0.001170 -0.144901 -1.000845 -0.033614 0.508816 -1.595301 -0.150468 0.430530 0.610763 0.548650 -0.043545 -0.177365 -0.490224 -0.018420 0.083006 -0.609260 0.287042 -0.320930 -0.191592 0.012920 -0.882405 -0.259577 0.509686 -0.006430 0.228761 0.535022 0.445519 -0.434795 -0.394205 0.773444 0.008837 0.549304 -0.296965 -0.454177 -0.393748 0.260702 0.519270 0.836949 -0.423204 -0.764409 -0.748263 -0.067139 -0.764504 -0.380632 0.261760 -0.050849 0.269840 -0.009087 -1.172493 0.472811 -0.522297 -0.455313 -0.255329 0.500956 0.691186 0.451826 -0.700433 -0.462856 0.174340 0.164405 1.021986 -0.158842 0.383040 0.076736 -0.270213 -0.415516 0.766715 -0.663019 -0.063195
внешний 0.045269 0.302915 0.210046 -0.165307 -0.535901 0.001040 -0.332951 -0.711248 -0.264569 0.399079 -0.287699 0.012530 -0.510593 0.456427 0.115247 0.105093 0.349856 -0.523135 -0.494416 -0.081133 0.274282 -0.359598 -0.803977 0.329940 0.633111 1.069343 -0.329323 0.709401 0.073332 0.367576 0.344325 -0.319708 0.114092 -0.876965 0.313588 0.233652 -0.010382 -0.190199 -0.072271 -0.298378 0.249460 -0.275537 -1.122451 0.110116 -0.252015 0.480938 0.482984 0.765884 0.335032 0.296503 -0.153021 -0.679188 0.449777 0.715055 0.104512 -0.511644 -0.429492 0.069713 0.201337 0.322757 -0.567439 -0.113933 -0.178987 0.826436 -0.306397 -0.562130 -0.852586 -0.130524 -0.611012 0.543309 -0.150702 0.315950 0.727130 0.527333 -0.349796 -0.328516 0.382667 0.137038 0.739330 -0.550723 -0.144740 -0.416693 -0.243576 0.820343 -0.068833 0.295641 -0.466060 -0.119503 0.389435 -1.000295 0.296928 -0.112472 0.136381 0.451294 0.071251 0.393351 -0.164289 -0.159913 0.087454 0.226848
от -0.158528 -0.158244 -0.279305 0.758750 -0.242848 0.086694 1.132855 0.685709 0.423072 -0.702328 -0.549803 -0.071873 -0.229119 0.405667 0.125501 0.436056 -0.024739 0.411727 0.086078 0.567809 0.380761 0.194728 -0.339977 0.711257 0.941703 -0.486803 0.352715 -0.545431 -0.599794 -0.008755 0.254841 0.025962 0.336642 0.611265 -0.296955 -1.383841 0.753121 -0.296537 -0.535064 -0.557927 -0.086614 -0.324680 -0.227457 0.933952 -0.756638 0.172552 0.146559 0.519899 0.349167 0.113772 -0.608619 -0.124165 -0.760839 0.538628 -0.066863 0.994924 -0.149523 -0.458165 0.074203 -0.321561 -0.483172 0.511153 0.309821 -0.545479 -0.240165 -0.816895 0.535383 -0.046767 -0.548157 0.487657 0.150166 0.342790 0.842377 0.015894 0.246518 -0.027234 0.280822 -0.010273 0.259201 -0.179984 -0.412304 0.592814 -0.464389 -0.453548 -0.161944 0.261839 -0.165813 -0.781758 0.138931 -0.426472 -0.450845 -0.358852 0.511516 -0.039909 0.195646 -0.359828 0.504996 0.487533 0.160386 0.359638
финансовый -0.141736 -0.078179 0.639721 -0.060977 -0.189399 0.468050 -0.030202 -0.165761 -0.149950 -0.153083 -0.070384 -0.112946 0.775382 -0.295924 0.548552 -0.256227 -0.109281 -0.470595 0.082105 0.227811 0.281707 -0.684396 -0.545299 0.153595 0.582044 1.466922 -0.093653 0.095776 0.413528 0.609320 0.244624 0.376846 -0.185850 -0.465449 0.738384 0.188120 0.481334 -0.430804 -0.363057 0.226377 -0.311041 -0.124421 -1.346528 0.003511 -0.198378 -0.100440 0.451209 0.597323 0.306726 0.627917 0.258754 -0.210177 -0.223175 -0.031569 0.148418 -0.394785 -0.787593 0.377582 -0.171351 -0.298270 -0.389578 -0.012235 -0.168390 0.285878 -0.387120 -0.658758 -1.284566 0.047491 0.396820 0.399752 0.136786 -0.194532 0.663334 0.186534 -0.118184 0.079097 0.120004 0.024451 0.719328 -0.769670 -0.490758 -0.233886 0.120663 0.135783 -0.028320 0.520016 -0.577496 0.378480 0.260983 -0.755622 -0.261608 0.201085 -0.172421 -0.021049 0.128034 0.367500 -0.049885 0.367365 -0.086568 -0.162148
для 0.135769 0.131899 0.048440 -0.757308 -0.652368 0.387006 0.029393 -0.276982 0.873370 -0.498798 0.831627 -0.455705 0.121100 -0.061645 0.451960 -0.272534 -0.359625 -0.351624 -0.966784 0.017764 -0.006700 -0.113245 -0.961065 0.161272 -0.020769 0.984854 0.703433 -0.265288 -0.211259 0.239456 -0.004243 -0.324498 -0.265348 0.468120 0.256310 0.372095 -0.308964 0.060060 0.374347 -0.728734 -0.018025 -0.010845 -0.497108 0.035732 -0.337216 -0.241378 0.336393 -1.013123 0.574857 -0.164985 0.240432 -0.350223 -1.027051 -0.353694 -0.176930 -0.090475 -0.059359 1.066233 -0.008009 0.077229 -0.402478 -0.579185 0.053194 0.276911 0.021201 -0.205193 0.288386 -0.162575 0.008245 0.771102 0.167485 -0.255276 0.849322 0.399340 -0.004706 0.251447 0.190218 0.426186 0.080402 -1.445804 -0.215956 0.249857 0.094128 0.212815 0.387010 0.319538 -0.291624 0.328330 -0.546256 0.256066 0.378095 0.253479 0.278727 -0.171018 0.019360 0.089997 0.384891 0.195238 0.485900 -0.637636
сторона -0.141167 0.379781 0.025407 0.084636 -0.304270 -0.059404 -1.161525 -0.641033 0.203050 -0.224113 -0.093436 0.018753 -0.556287 -0.133371 -0.202414 0.842083 0.307008 -1.171100 -0.412658 0.177963 -0.033096 -0.328622 -1.441948 0.662035 0.045794 0.028411 -0.624260 0.271742 -0.371715 0.322068 0.116940 -0.310140 0.785707 -0.320173 0.001312 0.259227 -0.263039 -0.346329 0.069670 -0.203969 0.280341 -0.112648 -0.657257 0.041461 -0.026788 -0.357206 0.802246 0.255848 0.022554 -0.075613 -0.228906 -0.905484 -0.037774 0.052842 -0.151911 -0.586215 -0.560127 -0.340626 -0.246254 -0.156096 -0.069105 -0.657581 0.323837 0.663423 -0.126673 -0.130124 -0.482974 0.147858 -0.374784 0.943604 -0.020653 0.162947 0.737221 0.769282 -0.140191 0.174862 0.335197 0.425846 1.468353 -0.091518 -0.064258 -0.884912 -0.218978 0.681877 0.458234 0.698403 -0.144103 -0.024732 0.196885 -0.866626 0.041631 0.316342 0.195659 0.097492 -0.024765 0.535362 0.550344 0.458401 -0.041015 0.454671
оценка 0.452095 0.566947 -0.179929 -0.340217 0.071360 0.344571 0.059708 0.077121 0.193418 -0.248960 0.178536 0.125701 0.098019 -0.699544 -0.306835 0.339609 0.724095 -0.544322 -0.413343 0.451029 -0.441188 -0.100514 -0.614590 0.956544 0.226117 -0.562996 -0.091538 0.239679 0.204858 0.257176 -0.229657 0.115634 0.706962 -0.215011 -0.263762 1.023595 -0.107449 -0.018288 -0.056930 0.398865 0.367512 -0.242393 -0.695949 0.506649 -0.208854 0.185142 -0.493636 -0.195626 -0.032164 -0.043240 -0.080446 0.007038 0.324009 0.225974 -0.222017 -0.240288 0.619847 0.005799 -0.146517 -1.127702 -0.787610 0.720224 0.788406 0.383346 -0.376390 -0.267940 0.539609 0.063624 -0.070016 -0.377018 -0.168899 0.364672 0.103793 -0.192515 -0.723608 -0.111700 -0.351101 -0.551589 0.275248 0.053612 0.289903 -0.314880 0.099628 0.049737 0.537950 0.064612 -0.170441 -0.185956 0.024282 0.166414 0.179246 0.466475 -0.702614 0.231598 -0.947046 0.525949 0.346069 -0.040528 -0.028621 0.261863
высокий -0.207735 0.213708 -0.262505 -0.322486 -0.109852 -0.646199 -0.823135 -0.059467 -0.305473 -0.299205 0.019348 -0.309823 -0.067883 0.076733 0.413706 0.031090 0.599449 -0.129487 0.177265 -0.210424 0.591622 -0.222011 -0.512509 1.545220 0.076497 -0.102893 -0.389836 0.213470 0.133571 -0.136499 -0.599971 0.037081 -0.359282 0.449581 0.587400 0.210821 -0.491656 0.057691 -0.427566 0.367709 -0.380719 -0.053276 -0.208785 0.419585 -0.139691 0.347059 0.621851 0.217817 0.004902 -0.040500 0.535755 -0.761557 0.247111 -0.221687 0.602109 0.379845 -0.568099 0.363684 -0.371312 0.086026 -0.079122 -0.011478 -0.491837 -0.153327 -0.304094 0.420400 0.574501 -0.444758 0.284393 0.490378 0.142026 0.266610 -0.076457 0.669533 -0.850944 -0.114996 -0.092568 -0.539949 0.345604 0.261302 -0.151235 0.017626 -0.651458 -0.569300 1.162979 0.204321 0.696712 0.105940 -0.112542 -0.099676 0.356683 0.063123 0.480725 -0.139335 -0.360450 -0.146889 0.626944 -0.154911 -0.240298 -0.116908
кредит 0.197466 -0.068780 -0.216183 0.479063 -0.252700 -0.460642 0.441367 0.717430 -0.040450 -0.977488 0.131268 -0.068977 -0.364230 0.583049 -0.227715 0.586211 -0.117845 -0.314672 0.143425 0.154997 0.432539 -0.055280 -0.419070 -0.562743 0.290324 -0.470805 0.777708 -0.515127 -0.451257 0.752644 0.883184 0.529670 -0.109900 -0.423647 0.033307 -1.316027 -0.423441 0.062108 0.418740 -0.382822 -0.514570 0.384736 -0.353390 0.184255 0.272113 -0.823182 0.725198 0.569919 -0.406658 0.332375 -0.248026 0.500436 0.615270 0.744142 -0.846800 0.716148 0.539570 -0.505331 -0.279977 0.069311 0.190149 0.806396 0.139179 -0.799962 0.211112 0.051088 -0.446951 0.260307 -0.362074 0.388222 -0.567196 0.010213 0.268804 -0.261601 0.783404 0.238733 -0.549509 0.069598 -0.834136 -0.263855 0.338508 0.917174 -0.475742 -0.575085 -0.787110 0.822568 0.459658 -1.393836 -0.277531 0.002672 -0.642806 -0.757829 0.152669 0.893356 0.115200 0.330296 -0.207184 0.154929 0.589272 -0.169269
фактор 0.769884 0.472253 0.834742 -0.358501 0.023150 0.355429 -0.095816 -0.440790 -0.078052 0.056785 -0.217484 -0.155635 -0.238991 -0.268107 0.033549 0.342823 0.191138 -1.233135 -0.425157 -0.021643 -0.065213 -0.464594 -1.084778 0.427822 -0.078912 -0.034419 -0.327808 0.233392 -0.296987 0.220441 -0.053220 -0.328275 0.538059 0.827635 -0.170082 0.417212 -0.209650 0.075559 -0.136635 -0.692513 0.096061 0.417019 -0.089752 0.028465 0.410177 -0.029605 -0.462830 -0.306775 0.346541 -1.218235 -0.370579 -0.798029 0.416850 -0.148549 -0.126323 -0.394515 0.165250 0.218246 0.045315 -0.726171 0.549774 -0.273400 -0.025819 -0.174356 -0.340983 0.029420 -0.788819 -0.128927 -0.130383 -0.403334 -0.163416 0.030393 -0.197880 0.153813 0.139438 -0.226213 0.116265 0.345556 0.165750 -0.115987 -0.537677 -0.233978 -0.934890 0.259288 0.146081 0.610637 -0.162150 -0.327508 -0.031132 -1.013158 0.300872 0.119879 0.302090 -0.017257 0.123328 0.429584 0.215820 0.686937 -0.028402 0.618373
внутренний -0.169438 0.776885 -0.337707 0.118599 -0.261432 -0.398644 -0.932037 -0.625644 -0.334936 0.205653 -0.619186 -0.125419 0.164267 0.157364 -0.244356 0.087209 0.371987 -0.268060 -0.287728 -0.178812 0.029459 -0.114664 -1.100578 0.596587 0.345729 -0.081895 -0.295136 0.776082 -0.090711 0.574875 0.286168 -0.496822 0.294178 -0.834858 0.513486 0.149741 -0.163109 -0.582570 0.074659 -0.320226 0.333306 0.321166 -1.129984 0.020547 -0.057299 -0.141489 0.867240 0.579334 -0.210267 0.294475 -0.092610 -0.623187 0.499575 0.416211 0.260087 -0.464969 -0.405096 -0.106504 0.049391 0.066474 -0.297091 -0.477637 -0.004770 0.579531 0.163173 -0.570425 -0.315120 0.572595 0.054174 0.222734 -0.268981 0.471050 0.237907 0.639769 -0.652460 0.214245 0.404302 0.107086 0.863426 -0.261385 -0.307462 -0.664276 -0.405371 0.192847 0.770689 -0.091156 -0.169954 0.501963 -0.068144 -1.044214 -0.079092 0.031704 0.212855 0.807732 -0.503587 0.256826 -0.023391 -0.075736 0.453524 0.016530
заседание -0.609859 -0.956119 0.152414 -0.315847 -0.530708 0.369886 -0.236950 -0.075473 1.120784 0.616749 0.015711 -0.143011 -0.224609 0.128744 0.738119 0.024475 -0.624519 0.059131 -0.125175 0.277819 -0.242404 -0.207918 -0.059002 0.552418 0.345995 0.787309 0.784289 0.257170 -0.088245 0.238543 0.942558 -0.714018 0.769416 -0.771569 0.853720 -0.378835 -0.686742 -0.572171 0.031901 0.949132 0.445463 -0.467888 -1.029333 0.006395 -0.548268 0.021805 0.043130 0.327263 0.337111 0.780831 -0.074087 0.410926 0.094468 -0.498555 -0.368436 0.319002 0.303176 0.046317 0.095430 -0.629566 0.216817 -0.214657 0.350224 0.576546 -0.440885 -0.223409 -0.297366 0.798253 0.977073 -0.234675 -0.330987 0.184740 0.852883 -1.274779 0.669920 -0.654467 0.064455 -0.444702 0.947684 -1.551215 -0.016918 -0.605966 0.179191 0.440788 0.420544 0.454574 -0.529948 0.505122 0.314660 -0.088298 0.028386 0.629704 -0.887266 0.463568 0.123034 0.877616 0.225130 0.166045 0.145234 -0.428982
тот 0.631181 0.084170 0.474680 -0.600238 0.346804 -0.188491 -0.678606 -0.833822 -0.193284 0.010638 -0.216691 -0.388070 0.422816 0.559241 0.031834 0.061823 0.578288 0.046990 0.470657 0.583939 -0.482442 -0.324237 -0.230485 -0.331275 -0.163888 0.520972 -0.078700 -0.303294 -0.232419 -0.096525 -0.037534 -0.515796 -0.745895 -0.177450 0.126933 0.557768 -0.052556 0.169638 -0.338925 0.140267 0.253183 0.450991 -0.687321 0.414547 0.083660 0.425902 -0.161829 0.774994 0.281712 -0.464570 -0.605829 -0.771908 -0.528268 0.189241 -0.472462 -0.445231 -0.289385 0.471845 0.348799 -0.045110 -0.229311 -0.522159 -0.192157 0.079694 0.065196 -0.684254 -0.058102 -0.291814 0.724390 -0.405029 0.020836 0.795277 -0.768183 0.183580 -0.249016 0.289272 0.190698 0.099665 0.073669 -0.085933 -0.064752 -0.572466 -0.433928 -0.188551 0.209617 0.862425 0.172916 -0.863534 0.522000 -0.376637 0.536390 0.731502 -0.020606 0.478719 -0.483130 -0.756257 0.021955 0.313042 -0.623935 0.082538
учет -0.129359 0.119777 0.427273 0.067668 -0.505210 -0.165815 -0.029932 -0.045860 0.341527 0.323502 -0.388154 0.038869 -0.547206 -0.176228 0.594255 0.582667 0.433014 0.051908 0.227307 -0.541266 -0.678261 -0.357126 -0.580665 1.550034 0.391987 -0.619002 0.576260 -0.102707 -0.078207 -0.015568 -0.102550 -0.830753 0.557743 0.586179 -0.558475 -0.167789 0.068334 0.186175 -0.082041 -0.154357 -0.439252 0.089863 -0.754689 0.515241 -0.186263 0.042421 -0.654073 -0.079722 1.082863 0.241516 -0.156090 0.188617 -0.244946 -0.459761 -0.711913 0.129339 -0.018523 -0.024436 0.551357 -0.630546 -0.190433 -0.267782 -0.251767 0.253728 -0.625266 -0.435145 0.450144 1.263283 -0.024960 -0.021595 0.365997 1.019163 0.569000 0.249036 0.119669 -1.492989 -0.155149 -0.688813 0.304731 -0.510470 0.090419 0.067213 0.464752 0.188555 0.531758 1.141459 -0.347023 0.222156 0.236093 -0.294891 0.170626 0.262063 0.005963 -0.195504 0.341766 -0.088571 0.752380 -0.035034 0.457653 -0.607898
что -0.147992 0.448003 0.317694 -0.915201 -0.479385 0.282142 -0.536842 0.328399 0.285027 -0.378243 -0.328629 -0.056442 -0.589630 -0.734786 0.643313 -0.258977 0.398312 0.144974 0.122604 -0.389299 0.387181 -0.827687 -0.248281 0.535120 0.303409 0.005174 -0.390805 -0.799354 -0.189227 0.123575 0.196303 -0.355073 0.008518 0.395010 0.188436 0.993106 -0.272077 0.558506 0.358514 0.383071 0.163457 0.220025 -0.639362 0.562913 0.181092 0.034323 -0.513895 0.262546 -0.080952 -0.773422 -0.239607 -0.051266 0.687872 -0.053221 0.152207 0.303508 0.083443 0.465088 -0.003910 -0.300449 0.308243 -0.625904 0.298624 -0.171104 -0.683641 -0.328840 0.216534 -0.116067 0.556005 -0.327980 -0.304021 0.843872 -0.384226 0.533974 -0.265556 0.556773 0.368494 0.247023 0.077220 -0.430928 -0.866740 -0.474961 -0.564111 -0.930472 -0.259167 -0.144937 -0.527511 0.410362 -0.400324 0.370268 0.039616 1.114813 0.325920 0.229919 -0.416413 -0.301825 0.068067 -0.147584 0.341493 0.017524
проинфляционный 0.546062 0.372436 0.035267 0.016593 -0.398087 -0.220016 -0.097066 -0.142903 0.260454 0.191703 0.045009 0.093390 -0.436527 0.275775 0.019329 0.247982 -0.350175 -0.872476 -0.251008 0.405992 0.407177 -0.372372 -0.848531 0.794148 -0.345596 0.353734 -0.205778 -0.114274 -0.738557 0.321165 0.212932 -0.354134 0.383117 0.446449 -0.022321 -0.032627 -0.170848 0.081813 -0.572560 -0.504466 -0.069010 0.396003 0.124628 0.314018 -0.292971 0.047657 0.104550 -0.147784 0.243703 -0.700482 -0.309511 -1.626498 -0.437011 -0.053665 0.149363 -0.460472 -0.305968 0.086461 0.046194 -0.946539 0.227802 -0.134613 -0.138368 -0.051498 -0.077239 0.526216 -0.583856 -0.231487 -0.356712 -0.068786 -0.096163 -0.205631 0.814193 0.875167 0.410624 0.188673 0.951603 0.285440 0.619181 0.151939 -0.190544 -0.111186 -0.387828 0.430913 0.038802 1.352137 0.129147 -0.803463 -0.107024 -0.643243 0.124246 0.138975 0.432343 0.182545 0.247237 0.864723 0.559794 0.307478 -0.396261 1.056766
российский 0.215133 -0.532415 0.194777 -0.005540 -0.986049 0.441514 0.081744 -0.086613 0.309524 -0.172509 -0.379922 -0.316284 -0.509407 0.208215 0.167572 -0.369271 0.674229 -0.163448 -0.541505 0.801737 0.270160 -0.083873 -0.666301 0.503804 0.673127 0.378052 -0.150487 -0.082729 0.317582 0.777556 -0.400235 -0.388699 -0.281071 -0.243097 0.600203 0.453171 0.366827 -0.486712 -0.630315 -0.356636 -0.104850 -0.554505 -0.568429 0.654666 0.069991 0.679889 -0.691190 0.705236 0.650725 -0.872425 0.089383 0.062110 -0.444428 0.455471 0.090262 0.068195 0.168719 0.866930 0.397304 0.931533 -0.393387 0.339641 -0.109605 -0.336875 -0.023521 -0.278536 -0.334265 -0.464069 -0.502269 0.680146 0.002201 0.446732 0.248644 0.689999 -0.986513 0.140783 0.625465 0.347373 0.443949 -0.663973 -0.548437 -0.338066 -0.380137 -0.269667 0.268815 -0.449214 -0.251507 -0.214130 -0.418304 -0.358239 -0.555419 0.287959 0.334830 0.174287 -0.357093 -0.660216 -0.004082 0.274264 0.094390 0.043714
оказывать 0.461891 0.724178 0.434263 0.276885 -0.051785 0.384397 -0.308890 -0.259936 -0.215653 0.525749 -0.328712 -0.022404 0.280172 0.093240 0.767810 -0.286552 -0.005008 0.419791 -0.332989 -0.218684 -0.723258 -0.392817 -0.746175 0.433242 -0.163527 -0.211861 0.047367 0.164695 0.604437 0.716817 -0.894750 -0.426600 0.016243 0.539757 -0.270331 0.464319 -0.899523 -0.113624 -0.672457 -0.255266 -0.010424 1.279915 -0.345443 0.781811 0.030362 0.655132 -0.472122 0.109082 0.016192 -0.648407 0.127705 -0.188976 0.224355 0.321759 0.327303 -0.211079 -0.830728 0.782755 0.189624 0.377370 -0.149125 -0.154516 0.407248 0.249240 0.307803 -0.420132 -1.054730 -0.823964 0.525926 -0.219793 0.644282 0.550522 -0.403934 0.681497 -0.227823 0.210166 -0.088193 0.399300 -0.138742 -0.166894 -0.384977 -0.353080 -0.710832 0.163698 0.465832 -0.274233 -0.578048 -0.406742 -0.201761 -0.787248 0.180618 -0.226685 0.847606 -0.003615 -0.179235 0.392691 0.130883 0.267974 0.470953 0.155459
замедление 0.439894 0.217017 -0.082158 -0.823065 0.025111 -0.330698 0.182584 -0.031780 0.092442 -0.214393 -0.271740 -0.087188 0.639548 -0.235163 0.322163 0.129198 0.086651 -0.308682 -0.665473 0.086731 0.084174 -0.497553 -0.665759 0.512695 -0.273886 0.390184 0.100732 0.073569 -0.360078 0.601730 -0.543703 0.178379 0.319935 0.124862 -0.411783 0.600027 0.214513 0.061642 0.060161 -0.916022 0.036824 -0.307504 -0.311570 -0.072422 0.068370 0.319720 -0.322807 -0.358307 0.335402 -0.485900 0.176956 -0.065916 -0.126379 0.286334 0.423879 -0.398409 0.297515 -0.190245 0.183580 -0.351258 -0.328239 0.033544 0.224827 0.389021 -0.254257 -0.562282 0.158416 0.248138 -0.142216 -0.732829 -0.033835 0.583919 0.003943 0.143527 -1.105106 -0.155803 -0.340764 -0.294222 -0.015153 -0.298724 -0.622839 0.303093 -0.276443 -0.409757 -0.207572 -0.284716 0.401056 0.164028 -0.449211 -0.446443 0.401468 0.554346 0.422920 0.175427 -0.290468 -0.442934 -0.056881 0.588866 0.752146 -0.319796
день -0.430116 -0.603485 -0.405246 0.679622 -0.047989 0.056349 0.706360 1.163235 -0.006324 -0.903499 0.246539 0.451446 -0.269727 0.134214 -0.224656 0.857836 -0.118675 -0.104668 0.339401 0.176317 0.090408 -0.084449 0.215491 -0.089080 0.383391 -0.451491 0.066015 -0.785244 -0.816160 0.104995 0.516882 0.903985 0.036974 -0.069761 0.073881 -1.551915 0.807196 -0.261248 -0.709980 0.100065 -0.209143 -0.711710 0.196313 0.538482 0.052437 -0.587117 0.084783 0.310118 -0.079884 0.317804 -0.201155 0.427552 -0.184473 0.079290 -0.195681 0.933019 -0.051570 -0.725720 -0.441535 -0.423201 0.198700 1.003229 0.110026 -0.844962 -0.184419 -0.350891 -0.106540 0.196457 0.205896 0.303324 0.159373 0.074552 0.432009 -0.673107 0.806679 0.291893 0.130211 -0.194610 -0.388931 -0.096052 0.099355 0.529871 0.314988 -0.655188 -1.080303 0.358217 0.436206 -1.008034 -0.011022 -0.330219 -0.451287 -0.762959 -0.455868 0.385114 0.430854 -0.194874 -0.011780 0.067500 -0.328184 -0.193582
происходить -0.157562 -0.340391 -0.087834 -0.482309 -0.073412 0.089845 -0.065534 -0.436089 -0.845502 -0.116225 -0.194309 0.627220 0.503773 0.940615 0.576626 -0.303122 -0.180152 -0.488524 0.345633 -0.035796 0.197837 -0.516913 -0.349774 0.000994 -0.387396 -0.154684 0.158489 0.812218 -0.351255 -0.022416 -0.460525 -0.158758 0.494983 -0.760683 -0.250961 -0.018975 -0.154425 0.222707 -0.332675 -0.442690 -0.177670 0.044490 -0.698122 0.445376 0.192470 0.418185 0.018999 0.116282 0.234115 -0.616786 -0.574561 -0.082318 0.167045 0.025628 0.109270 -0.404455 -0.867496 -0.631023 0.123022 0.003705 -0.710532 0.731113 -0.350393 0.677447 -0.186798 -0.221906 -0.201548 -0.200739 -0.150742 -0.566195 0.141581 0.494846 0.083788 -0.412119 -0.666053 -0.020672 -0.995946 0.032880 0.114137 -0.104650 0.113554 -0.168085 -0.605129 0.237058 -0.905764 -0.264556 0.394216 -0.171557 -0.210761 -0.631179 0.871058 0.770126 0.133756 -0.275931 0.026147 -0.081459 0.004444 -0.320667 0.712464 0.519807
снижаться 0.095608 0.259579 0.376695 -0.558858 0.313706 -0.248624 0.014110 -0.100323 0.298014 -0.025444 0.414986 0.183778 -0.145311 -0.449223 0.128416 -0.396499 0.704346 -0.151301 0.570513 -0.062313 -0.061712 -0.513018 -0.367154 1.247951 -0.687668 -0.040256 -0.418392 0.528767 -0.451727 0.182049 0.285694 -0.109160 0.415626 -0.216367 -0.175306 0.502618 -0.267090 0.580457 -0.217432 0.232446 -0.299837 -0.289393 -0.647780 0.274807 -0.048881 -0.137440 -0.351267 -0.575058 0.915432 -0.305023 -0.334666 0.007190 0.387731 -0.532280 -0.316181 -0.326197 -0.148770 0.252031 0.556521 -0.856603 -0.046352 0.493631 -0.357061 0.099021 0.211589 -0.141396 0.096048 0.027428 0.881438 -0.170434 0.208565 0.179612 0.661511 0.249411 -0.158088 -0.123338 -0.165083 -0.398686 -0.188972 -0.229289 -0.038366 0.265062 -0.061723 -1.064493 -0.275182 0.168463 0.237530 -0.037379 -0.223939 -0.542452 0.217638 0.520633 -0.412279 0.412267 -0.537803 0.356378 0.336707 -0.205900 0.378315 -0.272515
население -0.244397 0.673626 0.172813 -0.962938 0.473691 -0.177784 -0.321248 -0.431162 -0.446238 -0.614345 0.580228 -0.034420 0.210358 0.079428 0.510295 -0.370061 0.495970 0.269960 0.274529 -0.660038 0.006351 -0.602536 -0.043459 0.722665 -0.748246 0.090159 0.400588 0.157956 0.109341 -0.048759 -0.023815 0.452138 -0.050630 -0.165577 -0.294891 0.921693 -0.151869 0.760912 0.125144 0.296260 -0.238410 0.386289 -0.572724 0.806715 -0.094511 -0.159920 0.670317 -0.689243 -0.157487 -0.213615 -0.154536 0.155949 -0.605231 -0.680952 -0.585930 0.103030 -0.778072 0.631614 -0.180110 -0.329640 -0.764786 0.262463 -0.301134 0.321060 0.534861 0.174903 -0.109037 -0.705590 0.115247 0.501086 0.544190 0.141168 0.049052 0.237094 0.000936 0.257758 -0.070533 0.069069 -0.378564 -0.129803 -0.088975 -0.079748 0.282572 -1.099074 0.200512 -0.273315 0.537072 -0.179496 0.339941 0.313327 0.807759 0.334970 0.130470 0.350263 -0.968243 0.211721 0.417935 -0.181577 0.787184 -0.691620
среднесрочный 0.281620 0.223807 0.341853 0.247868 -0.362785 0.475885 0.540739 0.228633 0.822107 0.244874 0.130485 -0.485380 -0.320776 -0.125704 -0.058509 -0.147053 -0.428349 0.038774 -0.431378 0.239532 0.047449 0.143353 -0.492939 1.212519 -0.375803 0.174559 0.693519 -0.745664 -0.117167 0.128852 0.397755 -0.469408 0.284665 -0.701005 0.199608 0.318024 -0.474535 0.106514 -0.585079 0.422999 0.047734 -0.160960 0.100719 0.797680 -0.655297 0.182208 -0.152336 -0.264368 0.395039 0.076081 0.360893 -0.783082 -0.744769 -0.008725 0.119102 0.370335 0.126276 0.858454 -0.237651 -0.796649 -0.102731 -0.447186 0.584564 0.008650 -0.100912 -0.044246 -0.345902 0.445844 0.235898 -0.275253 -0.422176 0.412489 0.319307 -1.002251 0.057445 -0.084748 1.255904 -0.383435 0.215466 -0.784210 -0.023411 -0.013349 -0.012376 0.524356 0.186930 0.444550 -0.025909 -0.204738 -0.295205 0.309386 0.022393 0.093850 -0.101300 0.588348 -1.126177 0.709213 -0.143912 0.141566 -0.469033 0.408154
со -0.055049 0.545623 -0.026743 -0.047015 -0.044560 0.111662 -1.020757 -0.810466 -0.048499 -0.018722 -0.265175 0.158697 -0.050235 -0.201699 -0.212747 0.769589 0.453009 -0.791141 -0.495998 -0.091268 -0.252640 -0.419180 -1.086211 0.403183 0.210156 -0.129688 -0.578769 0.486522 -0.194606 0.424912 -0.137457 -0.292498 0.855235 -0.630562 -0.132707 0.397511 -0.152201 -0.252600 0.123995 -0.201578 0.452546 0.025074 -0.788272 0.055026 -0.154666 -0.220630 0.388572 0.310496 -0.027854 0.125387 -0.117566 -0.748007 0.351823 0.165167 -0.172690 -0.596742 -0.511145 -0.327092 -0.217589 -0.068253 -0.166813 -0.722851 0.365555 0.956088 -0.266765 -0.533148 -0.319559 0.079928 -0.446981 0.719943 -0.032696 0.156044 0.601517 0.694409 -0.320044 0.006995 0.148124 0.190333 1.249981 0.086222 0.082203 -0.983118 0.001420 0.815831 0.399739 0.632577 -0.273999 0.095876 0.269223 -0.875235 0.106794 0.328557 0.299734 0.060073 -0.307742 0.307869 0.184630 0.416924 0.155048 0.772518
о -0.307536 -0.954951 0.118265 -0.337280 -0.106516 0.252510 -0.598364 0.460412 -0.077383 0.364778 0.445362 0.673869 -0.283282 0.478540 0.492203 0.934435 -0.448112 0.557932 -0.337903 0.363167 -0.532777 0.538394 0.563922 0.170961 0.432345 -0.220056 0.133461 -1.095960 -0.526992 0.336543 -0.516611 0.362478 -0.228874 -1.011077 -0.098909 0.300441 -0.771005 0.373198 0.326158 0.517108 0.639854 -0.309558 0.267591 0.500728 0.259147 -0.541954 -1.066992 0.443238 0.173375 -0.407789 0.364659 -0.749194 -0.172493 0.087526 0.185343 0.023703 -0.208894 0.526088 -1.212006 0.223385 -0.024055 0.302245 0.471843 -0.369865 -0.474104 -0.090842 0.054586 0.145882 0.774925 -0.376550 -0.040061 -0.256844 -0.192413 -1.163955 -0.101626 -0.588906 -0.601465 -0.010838 -0.449570 -1.119897 0.698032 -0.349074 0.169974 -0.048120 0.047841 -0.161856 0.182782 0.085159 -0.021517 0.422349 0.509735 0.471224 -0.018569 0.948943 -0.002334 -0.774966 -0.320691 -0.145482 0.047195 -0.634822
продолжать 0.314253 0.007417 0.300910 0.304268 0.254750 0.141148 0.058699 -0.364259 0.055930 0.334006 -0.216426 0.370710 0.235115 -0.124454 0.052527 -0.045392 0.472023 0.682009 0.544725 0.241239 -0.232354 -0.104066 -0.308610 0.887260 -0.362734 -0.391322 -0.344796 0.571572 -0.039091 0.026144 0.142952 -0.400765 0.647814 0.581722 0.052550 0.187791 -0.655214 -0.179141 0.252349 0.200526 0.148989 0.334145 -0.901130 0.234021 -0.099012 0.001117 -0.295190 -0.023234 0.165729 -0.188710 0.072538 0.025163 0.206906 -0.668942 -0.249081 -0.214914 -0.148347 0.366926 0.679467 0.012073 -0.422993 0.494333 -0.132461 -0.318737 0.832235 -0.334841 -0.486782 -0.263944 1.120191 -0.215890 0.581402 0.154728 0.389899 0.456786 -0.003852 0.252801 -0.378897 0.274415 -0.166925 0.033307 -0.047324 -0.444875 -0.729735 -1.291912 0.650063 -0.614579 -0.036051 -0.213756 -0.216093 -0.425542 -0.248790 -0.080819 0.309647 0.623584 -0.455333 0.876958 0.736517 0.214617 0.950403 -0.507775
мера 0.639024 0.228195 -0.026884 -0.092312 -0.221432 -0.389814 0.283370 0.318444 0.465900 -0.318597 -0.246695 -0.372601 -0.091800 0.212292 0.236495 -0.183008 -0.365192 -0.205182 -0.263573 0.016314 -1.200395 -0.425061 -0.385414 -0.000394 0.470609 -0.429935 0.822764 -0.219776 0.268214 0.617258 -0.217857 0.160307 0.651339 -0.105555 -0.140114 -0.205023 -0.453451 0.129893 -0.445600 -0.181617 -0.049751 0.635873 -0.010273 0.216477 -0.292285 0.090980 -1.265856 0.340487 -0.040281 -0.407719 -0.852778 0.383750 -1.129239 0.652455 0.088397 -0.626356 -0.083840 0.238476 0.095775 0.443563 -0.730032 -0.399408 -0.081126 0.548701 -0.009862 -0.626251 0.196932 -0.666171 -0.082477 0.119281 -0.106501 0.289562 0.033797 0.060990 -0.316374 -0.329671 0.197827 0.023269 -0.068193 0.615277 0.231651 -0.036221 -0.434951 0.353664 -0.138020 0.097756 -0.886788 0.142910 0.411077 0.551360 -0.331450 0.311895 0.745643 -0.376395 0.130952 0.420005 0.131361 1.053108 0.162431 0.712875
не -0.487496 0.576342 -0.406197 -0.236273 0.849683 -0.042908 -0.512355 0.221576 0.989748 0.265366 0.046355 0.083534 -0.637147 0.732209 0.442389 -0.358757 -0.690307 0.105491 -0.178442 0.270083 0.119527 -0.225240 -0.624294 0.385111 -0.792148 0.015296 0.399351 -1.060717 -0.535711 0.455951 0.376429 -0.430413 -0.169945 -0.338414 -0.712779 -0.042416 -0.147120 0.642495 0.015091 -0.110710 -0.440593 -0.296909 0.248242 0.983380 -0.214212 -0.000451 0.166588 -0.567130 0.300541 -0.108500 0.051183 0.694103 0.612196 0.318772 -0.338931 -0.322468 -0.024694 0.413181 -0.613401 -0.356249 0.362076 -0.029862 0.579801 0.388874 0.455504 -0.706074 -0.633947 -0.321662 -0.222041 -0.391972 0.594918 0.105927 0.498809 -0.177612 -0.110952 0.974827 -0.478066 0.402932 -0.767770 -0.532503 -0.717612 -0.134079 -0.498555 0.044629 -0.309286 0.743511 0.007176 -0.351776 -1.260904 -0.314006 -0.019877 0.371845 0.132417 0.551466 0.122165 0.301745 -0.184922 0.058487 1.032006 0.638112
повышение 0.094218 0.004019 -0.057355 -0.662123 -0.361802 0.026201 0.131312 0.147230 0.367497 0.181933 -0.518900 0.514254 0.521740 0.646149 1.244091 0.702378 -0.459364 0.044408 -0.221214 -0.068877 -0.258857 0.188247 0.456447 -0.242714 0.250414 -0.375514 0.439715 0.204113 -0.313631 0.007101 -0.132641 -0.196882 -0.025429 0.314740 0.055614 -0.124610 0.107982 -0.151080 0.326321 0.038365 0.417272 0.423255 -0.220931 0.459188 -0.047796 0.611460 -0.437788 -0.311382 -0.296170 -0.326843 0.006752 -0.039747 0.198205 -0.483213 -0.143231 0.107777 -0.008357 0.192114 0.463148 -0.665374 -0.528027 0.711485 -0.226223 0.374107 0.695764 0.060583 -0.279564 -0.573325 0.323699 -0.448196 0.368694 0.589742 0.242723 -0.562210 0.444294 0.043527 -0.311589 -0.415677 0.505251 -0.455136 -0.212401 -0.525342 -0.374643 -0.689418 -0.403587 0.007889 0.001588 -0.153158 0.463536 -0.666088 1.083983 0.471107 0.228851 0.588159 0.302087 0.359289 0.081072 -0.178714 0.212666 -0.073049
кредитование 0.479348 0.404807 -0.142179 -0.567738 1.028158 -0.793502 -0.440836 0.445720 0.256389 0.181246 -0.369046 -0.254809 0.673466 0.455799 0.129136 -0.782529 0.342254 -0.069450 -0.581070 0.462184 -0.225586 -0.429423 -0.266957 0.774868 0.365736 0.282962 -0.060801 0.117437 0.034981 0.241238 -0.272694 0.255955 -0.458674 0.121264 0.013004 -0.207686 -0.264137 -0.175203 0.231972 0.110596 -0.075449 0.380615 -0.208763 0.377569 -0.074569 0.476905 0.106855 0.272581 0.006508 -0.362592 0.355332 0.533469 0.007309 0.096086 0.141040 -0.144999 0.052082 -0.291911 -0.475393 0.477553 0.015260 0.461998 0.171813 -0.186504 0.104260 -0.349139 -0.262587 -0.502292 0.328209 -0.103533 0.990043 -0.143260 0.558238 0.740431 0.094728 -0.103367 -0.696651 -0.338653 -0.644951 0.275572 0.149713 0.049026 -0.303956 -0.251827 1.185274 -0.353140 0.334479 -0.020593 0.394144 -0.237641 0.902088 -0.182345 0.197693 0.441426 -0.180478 0.177448 0.312880 0.512455 1.155442 -0.426171
товар 1.021267 0.174434 0.385006 -0.465780 -0.905652 0.430901 -0.846425 -0.350659 -0.769630 -0.826491 -0.204664 -0.483324 -0.103316 0.233456 0.090128 0.106746 0.731905 -0.538707 -0.032039 0.291125 0.409716 -0.662108 -0.687869 0.415334 -0.450165 -0.321014 -0.239729 -0.113565 0.271691 1.420850 -0.012307 -0.528208 0.152122 -0.152413 -0.302321 -0.120029 -0.042802 -0.060284 0.133679 -0.058165 -0.385827 -0.787114 -0.358115 -0.011224 0.926703 -0.132101 -0.328716 0.810100 0.075363 -0.496061 0.883934 -0.318151 -0.109403 0.216249 -0.617992 -0.124451 -0.202601 0.402024 0.846019 0.372297 -0.596542 0.494456 -0.106526 -0.359173 0.871228 -0.571583 -0.661906 0.486856 -0.647433 0.253618 -0.179687 0.563409 -0.437705 0.343081 -0.377338 0.489843 0.216595 0.877700 0.031026 0.026853 0.283184 0.150287 -0.029726 -0.478815 -0.377164 0.366952 0.327110 0.479951 -0.032197 -0.843424 -0.144808 0.724505 0.200216 0.807775 0.488185 -0.039703 0.014691 -0.150895 -0.013355 -0.250638
бюджетный 0.747573 0.945395 -0.086253 0.296810 0.037660 -0.334180 -0.128857 -0.064667 0.488634 0.152970 -0.482179 -0.531880 -0.121338 0.034529 -0.340312 -0.997481 -1.085480 0.084505 0.124364 -0.237106 -0.735771 0.172694 -0.251591 0.377585 -0.198490 -0.574567 0.875534 0.088729 -0.032218 -0.317433 -0.152043 -0.745820 -0.322786 0.265256 0.048558 -0.297059 -0.168072 -0.173927 -0.543782 0.266737 -0.200741 0.499490 0.115155 0.546190 -1.214515 0.237250 -0.170230 -0.245757 0.062209 0.291540 -0.444317 -0.631044 -0.366895 0.244023 0.040755 0.489056 -0.290838 0.504155 0.234767 0.169964 -0.240296 -0.974369 0.310912 0.005451 0.440132 -0.488139 -0.118720 0.052478 0.721083 0.063919 0.552257 -0.058216 -0.339829 0.360080 -0.059945 0.308242 0.719429 0.493874 0.106369 0.384275 0.630222 -0.149219 -0.030493 0.392163 0.438662 -0.021605 0.019016 0.517988 0.382240 -0.205722 0.224681 0.497868 -0.035243 0.253761 -0.587805 0.684308 -0.387184 0.029534 -0.724132 0.327970
прирост 0.754938 0.456472 -0.377453 -0.998473 0.020427 -0.389255 -0.139696 -0.085429 0.367163 -0.715643 0.031807 -0.044012 -0.291431 -0.330771 0.250008 -0.283002 0.805473 -0.017140 0.142523 -0.146290 -0.112444 -0.352297 -0.172695 0.411753 0.026623 -0.534494 0.219517 0.070322 0.291946 0.400022 0.059503 0.548452 0.125748 -0.465347 -0.238502 0.386770 -0.322655 0.092308 0.504527 0.195813 -0.312327 -0.665303 -0.311965 0.566186 -0.375058 0.122926 -0.562380 -0.257460 0.772119 -0.098959 0.005426 0.019205 1.126462 0.362138 -0.009855 0.412396 0.968763 -0.554949 0.875601 -0.730230 0.187964 0.999130 0.504760 0.205251 0.418684 -0.109215 0.547814 0.091473 0.433764 -0.427906 -0.361093 0.668117 0.317334 -0.049729 -0.535389 -0.347349 -0.780963 -0.243221 -0.429111 0.473427 0.115348 0.108576 -0.206406 -0.987635 0.158704 -0.258269 0.234526 -0.186857 -0.083930 0.268009 0.469782 0.560169 -0.239315 0.476593 -0.443026 0.089410 -0.106943 0.087110 -0.090673 -0.366743
более 0.352552 0.146498 0.122590 -0.063476 -0.950006 0.099370 -0.150237 -1.003803 -0.242412 -0.179609 -0.522139 0.160753 0.674625 0.523485 0.182777 -0.363076 -0.820297 0.009961 -0.255614 0.095399 -0.720573 -0.602420 -1.074820 0.238343 -0.121136 -0.535423 0.488648 -0.532931 -0.383000 0.094301 -0.447898 -0.521303 0.147331 0.133536 -0.801771 0.385438 -0.610199 0.009038 0.055996 -1.233748 -0.324354 0.825780 -0.001345 -0.300101 -0.008283 -0.092581 0.453393 -0.561772 -0.183713 -0.476999 -0.393255 -0.814367 -0.837794 -0.019540 0.417875 0.330539 -0.126075 -0.593690 0.424760 -0.083093 0.092062 -0.135505 -0.158740 0.016759 0.340840 0.358743 -0.021539 0.684106 0.053712 -0.264855 -0.800988 -0.014480 -0.041052 0.100111 -0.470342 0.829742 -0.204211 -0.211912 0.218784 -0.848459 -0.670401 0.251857 -0.662189 -0.085663 0.976226 0.046921 -0.114112 -0.593800 -0.642418 -0.235997 -0.173596 0.573259 0.938762 -0.437829 0.222271 -0.526177 -0.030604 0.104260 0.202578 0.628375
число 0.597146 -0.051077 0.476808 -0.721524 0.865006 -0.328018 -0.720403 -0.639364 -0.243077 0.249176 -0.441266 -0.273626 0.503322 0.483297 0.180330 0.185761 0.599745 -0.168489 0.826812 0.824895 -0.537184 -0.051066 -0.049989 -0.513058 0.085037 0.184341 -0.297726 -0.151798 -0.126782 -0.422692 0.184773 -0.596317 -0.510658 0.012194 -0.070394 0.524967 0.422613 0.322412 -0.370922 0.220273 0.394675 0.316190 -0.474477 0.407936 0.102210 0.372797 -0.146429 1.079858 0.539137 -0.174198 -0.811520 -0.740015 -0.462931 -0.001938 -0.655463 -0.272004 -0.549164 0.302106 0.533104 0.005291 -0.519716 -0.830618 -0.211784 0.170539 0.132621 -0.552305 0.121130 -0.394089 0.689264 -0.321377 -0.011136 1.093343 -0.999010 0.051407 -0.019030 -0.078099 0.080282 -0.136530 0.022439 0.363269 0.058266 -0.551346 -0.442497 -0.100108 0.143453 0.821371 0.024928 -0.882020 1.120400 -0.520502 0.529461 0.733901 -0.018951 0.075580 -0.573605 -0.879775 0.158155 0.543880 -0.769392 0.182846
базовый -0.006188 0.110883 -0.519418 -0.909362 -1.081396 0.525063 0.152321 -0.266931 0.629520 -0.698950 0.157101 -0.456339 -0.266183 -0.874380 0.153864 -0.009660 -0.345149 -0.632110 -0.099994 -0.317406 -0.505910 -0.251839 -0.879391 0.430871 0.053880 0.146314 0.573716 -0.218576 -0.074007 0.665437 -0.216690 -0.539138 0.160937 0.667148 0.847191 0.137632 0.300177 -0.200061 -0.775528 -0.359518 -0.747130 -0.785636 -0.598620 0.197295 -0.824208 -0.291547 -0.004706 -0.923335 1.122568 0.054138 -0.085365 -0.653370 -0.415654 0.351994 0.483657 0.267057 0.264612 0.310312 0.645350 -0.719553 0.334080 -0.064748 -0.005332 1.077835 0.656792 0.245110 0.163707 0.427811 1.189680 0.184173 -0.230437 0.421676 0.037323 -0.270466 -0.162550 -0.370741 -0.172961 0.040232 0.804996 -0.359517 -0.300820 -0.194662 -0.070215 -0.378539 0.212298 0.307580 -0.547122 0.370083 -0.264606 0.952545 -0.032420 0.387177 -0.389698 -0.388728 -0.231968 -0.170761 0.174539 -0.669180 -0.413723 0.592442
вблизи -0.229168 0.077257 0.095710 0.203158 -0.028118 0.360846 0.802422 0.132932 1.355056 0.304221 0.418595 0.038396 -0.397465 -0.060093 0.864767 -0.541245 0.091018 0.198384 -0.006774 0.469312 -0.289983 0.223350 -0.404750 0.863917 -0.330502 -0.021042 -0.428676 0.180753 -0.140530 -0.631270 0.166346 -0.402841 0.082824 0.339307 -0.440872 0.234376 0.008438 -0.049985 0.349477 0.001740 -0.036058 -0.480549 -0.101755 -0.330552 -0.053965 0.485227 0.296045 -0.890778 0.238091 0.728381 0.067176 -0.142218 -0.050649 -0.579134 0.217591 0.221837 -0.349888 0.604310 0.912105 -0.906729 0.183019 -0.119383 0.401649 0.054041 0.068385 0.105067 0.370320 0.370323 0.237398 0.312612 -0.356544 0.743451 0.177873 -0.566325 -0.612855 0.036268 0.027006 -0.851188 0.147393 -0.103809 0.210631 0.426181 -0.737580 0.251285 -0.129230 0.527445 0.304701 -0.485676 -0.932892 -0.370518 -0.253251 0.415151 -0.647124 -0.775602 -0.450962 0.781342 -0.164188 0.813875 -0.479030 -0.786071
за 0.167359 -0.614686 -0.798641 -0.704200 -0.060730 0.065496 -0.514244 -0.228602 -0.032462 -0.003854 0.058098 0.112665 0.401834 0.686260 -0.070225 0.125001 0.130094 -0.602870 0.682542 0.451438 0.711180 0.009019 -0.043257 -0.268976 -0.148292 -0.144073 -0.371814 0.266661 -0.183443 -0.349494 -0.024710 -0.809478 -0.163236 -0.190312 0.755021 0.195829 0.712965 -0.289206 -0.443937 0.589495 -0.253912 0.060278 -0.378808 0.818632 0.016817 0.561282 0.510944 -0.011514 0.080537 -0.961706 -0.573269 -1.075679 -0.186589 -0.812238 -0.087520 0.177760 0.057972 -0.182498 0.204247 -0.308112 -0.134006 0.854087 -0.466020 0.000308 0.150310 0.259559 0.906391 -0.399254 0.427014 0.235804 0.123608 0.734964 -0.060879 0.001927 -0.203900 0.666762 -1.089097 -0.313598 0.429304 0.139835 0.371491 0.109877 -0.158903 0.170674 -0.164202 0.539967 0.922409 0.059061 0.436487 -0.481909 0.954145 0.857975 -0.819625 0.335915 -0.247348 -0.100734 0.299293 -0.777684 -0.359933 0.895197
пресс -0.186719 -0.367571 0.037118 -0.168204 -0.205338 0.589992 -0.858786 -0.129730 -0.688416 0.112780 0.549335 0.170691 0.268636 0.252420 0.048950 0.872711 0.106296 0.302186 -0.030729 0.878010 0.038346 0.088043 0.856305 -0.675014 -0.042659 -0.138319 0.314328 -0.429603 0.301580 0.871251 -0.686797 -0.357265 0.214152 -1.578409 0.402941 0.649173 -0.968488 0.227656 0.064174 0.899578 0.924392 -0.132886 0.119747 -0.205210 0.340689 0.283623 -0.837929 0.699018 -0.254946 0.280824 0.479926 -0.594294 0.272309 0.621884 0.150879 -0.370736 0.045475 0.856476 -0.718084 -0.100626 0.128420 0.426893 1.167309 0.574455 -0.140957 -0.581693 -0.487965 0.429997 0.840577 -0.198751 -0.632634 -0.366386 0.075479 -0.784801 -0.369147 -0.606754 -0.332483 0.210744 0.292727 -0.723181 0.554734 -0.726924 -0.157521 -0.011136 0.174988 -0.064124 -0.053202 -0.078639 0.060023 0.034814 0.209849 0.712699 -0.559212 0.134283 -0.752444 0.041631 -0.267145 0.059621 -0.472435 0.003572
цель -0.475763 0.462575 -0.080811 0.855415 -0.623105 0.588315 0.476339 -0.023596 1.053649 0.039255 -0.390819 0.215243 -0.515588 -0.391544 0.038477 0.404805 0.161948 0.179876 -0.643886 -0.162974 -0.949819 0.387302 -0.692612 0.968765 0.282878 -0.657238 0.068469 0.219779 -0.557753 -0.378996 -0.229284 -0.796875 0.594681 0.251389 -0.753422 -0.087562 0.014363 -0.169142 -0.209806 -0.802901 0.009745 0.145734 -0.435874 0.200087 -0.971401 0.367093 0.213652 -0.644227 0.389691 0.583042 -0.543998 0.317998 -0.195412 0.276046 -0.493591 0.321878 -0.249735 0.244355 0.264206 -0.119177 -0.035036 -0.707113 0.539506 0.740701 -0.581128 -0.523664 0.696757 0.423346 -0.301911 1.201258 0.354608 0.651041 0.986832 0.587413 -0.197120 -0.183498 0.542383 -0.737063 0.950507 -1.023386 0.033754 0.182768 0.325197 0.665248 0.082511 0.230085 -0.309428 -0.314389 -0.245943 -0.776662 -0.197440 -0.232470 0.082724 -0.146529 -0.136836 -0.391503 0.076506 0.275370 0.507414 -0.095387
текущий 0.039208 0.075926 -0.973917 -0.388608 -0.211604 -0.062691 -0.328862 -0.761918 0.396084 -0.607002 0.444215 -0.011202 0.443264 0.578718 0.268926 0.486511 0.728624 0.348814 0.133154 -0.433289 0.522998 -0.271550 -0.152224 0.008743 -0.408286 -0.508699 0.402189 0.353884 -0.146937 0.037910 -0.454095 0.107505 -0.221995 -0.451897 0.053392 0.082623 -0.064140 -0.369805 0.223561 0.267190 0.276105 0.050684 -0.492209 0.333991 0.201568 0.266191 -0.410676 -0.852924 0.489708 -0.148403 -0.154033 -0.369980 0.679824 -0.312907 0.146009 0.046754 0.201405 -0.150821 0.364532 -0.348798 -0.332736 0.740312 -0.316828 0.262586 -0.226020 -0.618339 0.608962 0.041151 0.368400 -0.153338 0.309628 0.579281 0.072036 0.214129 -0.898209 -0.235056 -0.538334 -0.266445 0.098608 0.023455 0.160510 0.064504 0.229808 -0.479839 0.361334 0.196264 1.021454 -0.716460 -0.518148 -0.337802 0.436418 0.494521 -0.553032 -0.157290 -0.128428 0.018633 0.207990 0.350675 -0.045747 -0.584342
сохраняться -0.087238 -0.032730 -0.349585 0.139216 -0.035156 0.397136 -0.481910 -0.418073 -0.150166 -0.310570 0.590257 0.123793 -0.088133 0.151328 0.143700 0.565973 0.264829 -0.035859 -0.346987 0.013505 0.331055 -0.345941 -0.826284 0.570182 -0.654392 0.437689 -1.220860 0.013554 -0.315617 0.289813 -0.657653 -0.269530 0.114610 0.090092 -0.280450 0.810915 0.113195 0.008888 -0.462938 0.064986 -0.249319 -0.083976 -0.385764 0.083985 -0.127387 0.177053 0.260975 -0.244132 -0.108564 -0.065091 0.460211 -0.915041 0.089956 -0.333978 0.088304 -0.030406 -0.673905 0.614107 -0.244964 -0.146282 0.273741 -0.186664 0.140952 0.182653 -0.304102 -0.014050 -0.014470 0.062489 0.254219 0.669908 0.149021 0.697592 0.156982 0.840780 -0.811131 0.022720 0.108825 -0.082378 -0.167559 0.016953 0.334175 0.045550 0.102540 0.161385 0.153452 0.511836 0.520664 -0.772239 -0.599489 -0.424163 0.491903 -0.245183 0.249185 -0.481068 -0.297591 -0.163073 0.367956 0.640948 0.022516 -0.041535
этот 0.430318 0.225712 0.407982 0.049395 -0.280042 0.017182 -0.020789 -0.385608 0.095370 -0.084263 -0.342793 0.159132 0.032339 0.420025 -0.030395 0.062830 -0.485060 -0.085301 0.603649 0.287057 0.034432 -0.230841 -0.499311 0.311012 -0.436436 0.258625 0.150194 -0.233569 -0.201379 -0.171289 0.153938 -0.949321 0.005582 0.152119 -0.908803 0.052042 0.095081 0.102551 0.030762 -0.330334 -0.197573 -0.327314 -0.217028 0.127985 -0.176221 0.028138 -0.144007 -0.671893 0.430199 -0.095773 -0.208435 0.379353 -0.411025 -0.060019 -0.423615 -0.218214 -0.057591 0.042802 0.180156 -0.576771 -0.170229 0.391778 -0.114488 0.294609 0.369674 -0.486004 -0.471999 0.448409 0.074519 0.140300 0.521507 0.124313 0.499907 0.088307 -0.074485 -0.065181 -0.224686 0.462654 -0.175339 -0.188401 -0.021125 -0.078844 0.233777 -0.045815 0.478772 0.674738 -0.039162 -0.231637 -0.314505 -0.291783 0.245416 0.487256 -0.501303 -0.127144 0.374409 0.020092 0.236211 0.340949 0.522891 0.307032
составлять 0.611491 0.290589 0.233908 -0.737057 -0.486541 0.175981 0.071424 0.112765 0.658408 -0.494345 0.341307 -0.104581 -0.270346 -0.904105 0.065797 -0.261341 1.043045 -0.318776 -0.004992 -0.453584 -0.488045 -0.588383 -0.294717 0.527286 -0.371546 -0.448195 0.195930 0.275305 0.116181 0.024785 -0.220766 0.220573 0.364154 0.216142 -0.489896 0.571395 -0.613798 -0.133528 0.100399 0.155081 -0.620295 -0.428604 -0.366326 0.055559 -0.465396 0.194726 -0.830625 -0.920193 0.542387 -0.289760 -0.456006 0.416800 0.895245 0.189701 -0.052332 0.367762 0.532429 -0.232271 0.798848 -0.905050 0.502054 0.731155 0.086243 0.323452 -0.371317 0.083949 0.632709 0.545186 0.677931 -0.122012 -0.324919 0.321443 -0.434946 -0.125863 -0.305593 -0.236101 -0.532188 -0.632543 -0.265713 0.010137 0.354824 0.589288 0.115154 -0.240494 -0.158899 0.236728 0.212796 -0.208206 -0.235207 0.336235 0.259447 0.707692 -1.290166 -0.108331 -0.012336 0.021993 -0.192663 0.269306 -0.424214 -0.497862
сохранение 0.172912 -0.294718 0.192338 -0.332895 -0.241955 -0.420909 -0.621279 -0.630201 -0.212707 0.021269 0.804942 -0.187179 -0.695553 0.277809 0.779959 0.792050 0.009167 0.584460 0.205296 -0.010896 0.835422 -0.367709 -0.633092 0.620355 -0.197949 0.100011 0.082769 0.098471 0.195957 -0.078292 -0.347132 0.050024 0.036217 0.321451 -0.236901 0.153187 -0.167806 -0.042638 0.499579 -0.019428 -0.131162 -0.510818 -0.165459 0.273663 0.200998 -0.122358 -0.084065 0.126374 0.492459 -0.186927 0.223985 -1.164498 -0.080009 0.250299 0.386836 0.365762 -0.313654 0.611580 -0.132115 0.693090 -0.663631 -0.556083 -0.006967 -0.167963 0.031415 -0.290693 0.706456 0.226255 -0.123644 0.762292 -0.189164 0.343041 -0.372988 0.202124 -0.779940 -0.536252 -0.614250 0.435483 0.355453 0.097876 -0.462227 0.194918 -0.618090 -0.197072 0.610628 0.317950 0.291121 0.455844 0.126755 0.095350 0.559267 -0.035847 0.710886 -0.797110 0.002785 -0.250109 0.288318 0.181525 -0.079288 -0.485959
который -0.179069 -0.294571 0.131080 -0.223590 -0.064060 0.421564 -0.276048 0.286208 0.166281 -0.253643 -0.428495 0.044941 -0.460819 0.566724 0.695862 0.077569 -0.645733 0.296449 0.161852 0.517577 -0.029790 -0.015079 -0.106791 0.367852 0.199999 0.628157 0.470901 -0.136307 0.126025 0.601860 0.671777 -0.472313 0.534423 -0.299383 -0.102585 -0.191511 -1.076145 -0.375534 0.080993 0.979249 0.583956 -0.296109 -0.381012 -0.344969 -0.222446 0.233569 -0.181885 0.596731 -0.515564 0.593590 -0.049907 0.450947 1.025594 0.227126 0.172991 0.799006 -0.294792 0.426750 -0.368286 -0.234433 -0.088835 0.056724 0.650607 -0.190002 -0.364545 0.016076 -0.582754 0.152759 -0.069729 -0.111831 -0.748511 -0.271645 -0.090947 -0.706904 0.352715 0.229623 -0.200995 0.594197 0.033982 -0.918893 -0.455941 -0.625609 -0.560586 -0.459314 0.407832 -0.062052 -0.271537 -0.088105 0.092473 -0.172072 -0.277689 0.509613 -0.224614 0.086206 0.390906 0.496530 -0.022048 0.556740 0.226758 -0.034032
то 0.083372 -0.499068 0.045596 -0.355648 -0.563577 0.058103 -0.500619 0.120823 0.486635 -0.298572 0.373577 -0.165156 -0.519215 0.129018 0.337342 0.006554 0.048393 -0.166150 -0.202217 -0.282921 0.534263 -0.564242 -0.672890 0.553259 0.035032 0.214814 -0.633202 -0.551187 -0.072632 0.889819 -0.709454 -0.773730 -0.231606 -0.035244 0.283986 0.295290 -0.365937 0.097628 -0.458756 -0.146389 -0.269094 -0.000533 -0.497008 0.659332 0.548764 -0.319106 -0.527878 -0.011247 -0.172179 -1.353844 0.283624 0.123916 0.021265 -0.103900 0.329255 -0.412129 -0.136048 0.443504 -0.457970 0.372831 0.353472 -0.241911 0.361249 -0.458959 -0.804198 -0.525535 0.024357 -0.008797 0.244943 -0.245763 0.161798 0.638620 -0.264483 0.271210 -0.671878 0.329285 -0.182699 0.130430 -0.717765 -0.284515 -0.217785 -0.200504 0.118024 0.394932 -0.595160 0.282673 0.197003 0.501225 -1.021057 -0.049588 -0.108086 0.567676 0.012276 0.321404 0.055978 -0.181983 0.327830 -0.091780 0.724936 0.066647
ограничение 0.497786 -0.230963 0.168539 0.130898 -0.464506 0.765382 -0.317591 -0.716674 0.367426 -0.262200 -0.305287 -0.182684 -0.477751 0.227004 -0.082324 0.379883 0.098451 -1.048686 -0.143036 -0.119096 0.079696 -0.229238 -0.778547 -0.395984 0.142137 0.463360 0.080097 0.154134 0.335846 0.156782 -0.258388 -0.726430 0.608650 -0.271625 0.123740 0.320398 0.092822 -0.423067 0.094214 -0.122463 -0.038929 -0.279741 -0.438369 -0.013416 0.066386 0.230552 -0.409499 0.188556 0.505394 -0.660876 -0.604765 -0.383167 0.460343 0.041155 -0.514802 -0.160906 -0.418826 0.542347 0.316291 0.580766 -0.038511 -0.301380 -0.234264 0.297313 -0.542388 -0.450087 -0.780368 -0.474064 -0.056406 1.259034 0.145531 -0.044675 -0.005841 0.492017 0.150276 0.166051 0.100448 0.608518 0.949125 -0.616855 -0.245823 -0.298791 -0.143369 0.628040 -0.371394 0.300684 -0.208671 -0.091922 0.592546 -0.876214 0.081161 0.159691 -0.056659 -0.576250 0.457127 0.097078 -0.036021 0.530751 -0.357476 0.287755
относительно -0.769617 0.187199 0.205008 0.837696 -0.087759 0.491500 0.043989 -0.225236 0.140507 0.527501 0.101583 0.085569 -0.337040 -0.357520 0.572205 0.763232 0.509632 0.574896 -0.358481 -0.166199 -0.686745 0.429315 -0.554166 1.345449 0.487297 -0.080129 -0.613173 0.323460 0.238774 -0.334346 -0.417209 -0.589182 0.525740 -0.121106 -0.009854 0.475718 -0.056404 -0.004852 -0.373976 -0.049091 0.061614 0.049189 -0.837268 0.194034 -0.533050 0.388352 -0.035384 0.375948 0.210377 0.792037 0.373158 0.101716 -0.264724 -0.217135 -0.180549 -0.194278 -0.629382 0.901758 0.054286 0.293259 -0.114062 -0.937928 0.427888 0.773432 -0.480490 -0.604161 0.271673 0.467132 -0.247008 0.772412 0.121333 1.429524 0.489553 0.004836 -0.641365 -1.267057 0.162410 -1.103893 0.635921 -0.545127 0.036370 -0.354635 0.096477 0.849115 0.703520 0.261703 -0.619451 0.379636 0.079798 -0.315566 -0.000604 -0.556290 0.403529 -0.070624 -0.563227 -0.369834 0.330674 0.262305 0.498479 -0.503071
квартал -0.155740 -0.401062 -0.221392 -0.643053 -0.520293 0.310305 -0.013620 -0.285821 0.264819 0.099278 -0.297463 0.207722 -0.458817 0.232427 0.159492 -0.027181 0.502663 0.148068 -0.046162 -0.273279 0.080365 -0.067696 -0.061713 0.406166 0.134039 -0.637784 -0.651643 0.034770 -0.377905 0.235787 -0.196713 -0.763767 0.122909 -0.587096 0.508251 0.531557 0.266592 -0.312703 0.185726 0.430641 -0.039364 0.172926 -0.433066 0.504053 0.252929 0.710655 -0.462840 -0.020574 -0.113402 -0.895199 -0.185745 0.120458 0.848380 -0.193972 0.107664 0.113793 0.769889 0.006917 0.559261 -0.290136 0.602091 0.807621 -0.196317 0.045488 -0.182234 0.010464 0.459875 0.198535 0.199712 -0.340742 -0.260749 0.738486 0.233469 -0.255011 -0.722829 -0.228554 -0.778740 -0.822852 -0.028399 -0.272294 0.078252 -0.459614 -0.162369 -0.099431 0.024673 -0.300686 0.676124 -0.103974 -0.488516 -0.084812 0.292532 0.540601 -0.367198 0.154452 -0.654135 0.038508 -0.476557 -0.445361 0.301834 0.004494
во 0.425938 0.132504 -0.480736 0.390944 -0.305657 1.027578 0.259537 -0.347487 0.144109 -0.640754 -0.805538 0.313660 0.805272 0.539633 -0.110691 -0.114668 0.053286 0.631749 0.325462 -0.366245 0.241675 -0.597904 0.514134 0.087310 0.641981 -0.543122 -0.044867 -0.119987 -0.523127 0.366170 0.171070 -0.698644 0.367580 -0.257368 -0.342633 -0.291049 0.164307 0.218562 0.045698 0.031494 0.346912 -0.095938 0.067761 0.206868 -0.190061 0.413008 -0.024003 -0.312395 -0.232871 -0.842960 0.557722 0.277987 0.634781 -0.024553 0.452488 0.134931 -0.057288 -0.672138 0.247699 -0.486346 0.398406 -0.094731 0.533833 -0.031767 -0.668171 -0.770314 0.317262 0.309503 -0.189272 -0.649603 -0.008927 0.287372 1.177190 -0.059037 -0.887414 0.294439 0.292457 0.191105 0.264304 0.145038 0.430315 -0.419572 -0.568689 0.232301 0.489169 0.192159 0.411019 0.212714 -0.260144 -0.525488 0.385953 1.395740 0.399012 -0.043719 -0.397875 -0.206251 -0.129670 -0.378063 0.259951 0.378176
депозитный -0.831461 -0.717423 0.038857 -0.312068 0.201524 -0.235388 0.090264 0.938316 0.123121 -0.432169 0.735978 0.430684 0.189818 0.288273 0.318289 0.484640 -0.124281 -0.232436 0.021447 0.314049 0.135727 -0.384483 -0.391581 0.484440 0.319757 -0.131831 -0.052572 -0.675663 -1.335839 -0.321493 0.500121 0.622897 -0.171301 0.181948 0.104399 -1.122185 0.335595 0.069272 -0.700424 -0.123706 -0.143791 -0.370784 -0.411583 0.541872 0.194933 -0.479018 -0.188560 0.003586 0.126728 -0.376027 -0.399173 -0.236832 -0.523591 -0.655676 0.245843 0.348272 -0.715990 -0.291010 -0.714381 -0.825145 0.013578 0.690951 -0.665515 -0.571128 -0.471914 -1.018393 -0.199239 0.109387 0.636198 -0.201828 0.680701 -0.145297 0.461078 -0.732432 0.341688 -0.076838 -0.378169 -0.080737 -0.412971 -0.659786 0.051445 0.487918 -0.087468 -0.533207 -0.749844 0.352264 0.213948 -0.192010 -0.364270 -0.629452 0.375720 -0.035814 -0.201752 0.456324 0.812027 -0.042237 0.333240 0.111381 0.239594 -0.262200
основной 1.118973 -0.064560 -0.124186 -0.862604 -0.635428 -0.216528 -0.254163 -0.009565 -0.410668 0.081276 0.353648 0.111721 -0.212004 -0.099453 -0.528460 0.696073 -0.539537 -0.606061 -0.117969 0.368278 -0.521478 -0.349760 -0.394033 0.777448 -0.088346 -0.437628 -0.239912 0.017628 -0.481079 0.168390 -0.017576 -0.264740 0.144651 0.902345 0.619447 -0.115380 0.119118 -0.483301 -0.478158 0.269457 -0.106077 -0.334989 -0.462367 -0.149386 -0.189563 -0.634826 -0.787820 0.366103 -0.250821 0.038479 0.501386 -1.165683 -0.324660 0.304085 0.101782 0.064698 0.807532 0.277194 -0.031331 -0.080521 0.053955 -0.556261 -0.115620 -0.223978 -0.032681 -0.028071 0.070697 0.268514 0.335239 -0.598828 0.314875 -0.255299 0.366246 0.443575 -0.574349 0.042057 0.215622 0.633253 -0.707203 0.388749 1.036148 -0.602696 -0.105601 -0.115496 -0.128602 0.472819 0.354024 0.334413 0.018981 0.093226 -0.139465 0.009297 0.436449 0.886607 0.163002 0.960117 -0.089698 -0.024883 0.132182 0.260906
повышенный -0.158649 -0.109748 0.021287 -0.229842 0.163720 -0.092158 -0.658885 -0.293417 -0.111997 0.002970 0.132405 -0.005195 -0.167619 0.732115 0.323699 0.103494 0.006324 -0.095978 0.468050 0.042717 1.005258 -0.437892 -0.475501 1.073704 -0.913580 -0.077241 0.068832 0.371434 0.137936 0.308124 -0.320959 -0.376827 0.277100 -0.227854 -0.275368 0.519817 -0.573495 0.107069 0.069491 0.359090 0.036558 -0.094075 -0.196923 0.507994 0.593831 -0.241704 0.594122 -0.179505 -0.007434 0.260799 0.391240 -0.325388 0.081794 -0.419137 -0.130795 0.238815 -0.349284 0.538364 -0.544250 0.084291 -0.872783 -0.000120 -0.031235 -0.247081 -0.061409 0.380010 -0.030833 -0.217156 -0.338308 0.401043 -0.112493 0.173184 -0.268156 0.046551 -0.577589 0.480002 -0.200753 -0.340347 -0.183387 -0.085267 -0.275059 0.134098 -0.183649 -0.332882 0.378295 0.400348 0.968199 -0.422657 -0.210752 -0.417745 0.167893 0.199916 0.139490 -0.155384 -0.616460 0.470195 0.693976 0.278300 0.404247 0.271854
