в 0.145249 -0.022859 -0.023035 0.085910 -0.066577 -0.212825 0.085729 0.314071 0.483546 0.087565 0.038827 -0.323529 -0.616291 0.098999 0.310741 -0.392738 -0.138525 -0.271301 0.125466 0.245170 0.223613 -0.503623 -0.211130 0.222176 0.276443 -0.456936 0.192688 0.722665 0.369917 -0.001356 -0.019964 -0.195925 0.370168 -0.122285 -0.228756 -0.206564 -0.423324 -0.149857 -0.210105 -0.163428 -0.558470 0.104854 -0.075431 0.503786 0.166438 -0.195110 -0.243844 -0.496230 -0.213177 -0.321061 0.341608 0.268195 0.219559 -0.380999 0.136423 0.147648 -0.113110 -0.188865 0.416152 0.106969 -0.181661 0.040208 -0.357393 0.036790 -0.187409 0.438669 0.278993 -0.297561 -0.154560 0.293780 -0.052296 0.630949 0.592535 0.300336 -0.131642 -0.241554 0.579720 0.065992 -0.486369 0.100794 0.136179 -0.139930 0.500354 -0.291119 0.023657 0.305790 -0.248238 0.509550 -0.134166 0.199504 -0.289104 -0.341597 -0.230614 0.350714 -0.052321 -0.289863 -0.325976 0.104608 0.238066 0.089195 0.326436 -0.541410 0.738802 0.193811 -0.393839 -0.583774 0.100909 0.216763 0.428310 0.585750 -0.186474 -0.327590 0.024064 -0.299730 0.396517 0.055649 0.247935 0.039458 -0.135378 0.274871 -0.407275 -0.325886 0.062994 -0.479413 0.389304 0.286982 -0.382992 -0.183246 0.046144 0.149470 -0.796219 -0.408833 -0.093387 0.344498 0.637237 -0.312735 -0.162285 -0.095900 0.228903 0.242913 -0.117261 -0.281644 0.324532 0.030900 -0.142991 -0.291208 -0.049196 0.278002 0.280523 -0.240378 0.055745 -0.118053 0.239515 0.621369 0.014105 -0.810182 0.606125 0.137612 0.443398 -0.356085 0.060229 0.762633 -0.399566 0.312483 0.413927 0.472177 0.257566 -0.026480 -0.553096 -0.243342 0.159764 0.208138 -0.421300 0.438290 0.254676 0.254916 0.002504 0.021162 0.396939 0.160945 -0.065156 0.458041 -0.136819 0.380862 0.067300 0.237174 -0.057012 -0.118862 0.360812 -0.173376 0.054704 0.098835 -0.025133 0.276381 -0.299727 -0.108539 0.384230 0.115375 0.590149 -0.003710 0.478284 0.239121 0.296570 -0.133805 0.096332 -0.061055 -0.284800 0.272724 -0.438642 -0.159533 0.217914 -0.553977 -0.426282 0.297977 0.432993 -0.413693 -0.114654 0.071645 -0.808430 0.024718 0.239948 -0.051511 0.270897 -0.418153 0.159348 -0.198849 -0.199920 0.121671 -0.222473 0.194237 -0.623593 -0.409940 -0.269766 0.034813 0.022874 0.031783 0.163775 0.239880 -0.307673 -0.361952 -0.107448 -0.145090 -0.298883 0.104157 0.344535 -0.141948 -0.023140 0.429015 0.041607 -0.633339 -0.269550 -0.193568 0.072094 -0.090184 -0.395897 0.089648 -0.079608 0.054848 0.152605 -0.471348 -0.312954 -0.283090 0.047193 0.484110 0.315019 -0.048697 0.499410 -0.210698 -0.188061 -0.546773 0.146945 0.010052 0.262534 -0.209435 0.118197 -0.410829 0.242387 0.083078 0.139257 -0.178884 0.390199 -0.176432 -0.059578 -0.165157 1.087807 0.522101 -0.241070 0.360370 -0.088191 0.319087 0.116782 -0.230901 -0.076174 0.257927 0.204449 0.172751 0.035438 0.331944 -0.176862 0.220442
на 0.298949 -0.495947 0.317546 -0.388502 -0.128361 -0.115978 -0.063413 0.227361 0.405225 0.533731 -0.267835 -0.175433 0.409670 -0.160348 -0.269206 -0.158589 -0.355039 -0.030594 -0.076936 -0.061527 0.239424 -0.207979 -0.172177 0.164945 -0.023587 0.021802 0.002186 0.145055 0.016010 -0.074033 -0.715453 -0.171603 -0.085552 -0.270528 -0.005366 -0.275839 -0.407483 -0.077132 -0.126485 0.155157 0.038572 -0.133984 -0.373191 0.015329 0.350442 0.060929 -0.291840 -0.183620 -0.149790 -0.025027 0.392495 -0.107816 0.255542 -0.417232 0.198119 0.161796 -0.214432 -0.011545 0.090040 -0.557080 0.435804 -0.100499 -0.189263 0.362543 -0.147692 -0.187264 -0.296408 -0.211074 0.040512 0.133042 0.166676 0.039694 0.138276 0.399153 -0.119085 0.205700 0.398336 0.067592 -0.506522 0.571669 0.347522 0.152274 0.288197 -0.179748 -0.013657 0.133029 -0.156465 -0.106854 0.349149 -0.405786 0.109064 0.030712 0.270553 0.284130 -0.407612 -0.444758 -0.029388 0.191238 0.143583 -0.263226 0.489570 -0.319854 0.265732 0.382802 -0.168557 -0.068034 -0.109165 0.173482 0.012114 0.406257 0.095622 -0.233191 -0.447513 -0.690151 0.280260 0.400039 -0.100701 0.053747 0.050681 -0.067448 -0.349712 0.133403 -0.521505 -0.331470 0.387166 0.339376 0.068355 -0.631667 -0.021070 0.231946 -0.191149 0.022863 0.436013 -0.008385 -0.257455 -0.504153 -0.222895 0.232392 0.695347 -0.670784 -0.335252 0.361483 -0.338756 -0.043198 0.496460 0.019213 -0.049245 0.262501 0.283397 -0.559699 -0.378505 -0.232715 -0.351611 0.034698 0.692295 -0.244363 0.328348 -0.075636 0.083483 -0.374880 0.366748 0.296454 -0.127396 0.129412 0.703607 -0.553898 -0.368436 0.023198 -0.528847 0.283312 -0.229894 0.415289 -0.109780 0.150151 -0.241171 0.115453 0.355038 -0.429703 -0.108431 0.113158 -0.148024 0.487075 -0.100467 0.486869 -0.652403 -0.101375 -0.512964 0.395005 0.065984 0.251654 -0.145743 0.214885 -0.243004 0.305642 0.437267 -0.128294 -0.407230 0.080371 0.441256 0.141225 0.994877 0.252107 0.552582 -0.270839 -0.136300 0.081007 -0.088205 0.091952 0.343787 -0.156576 0.153749 -0.167602 -0.104740 0.092975 0.282285 -0.687745 -0.483383 -0.279613 -0.547651 0.119770 -0.230909 0.106328 -0.069804 0.108380 0.059249 0.357433 0.251522 -0.313460 -0.383276 -0.324547 0.488597 0.027367 0.019964 0.265134 0.049899 0.005937 0.124958 0.547645 0.001926 -0.422569 -0.056715 -0.278252 -0.570341 0.456495 -0.128400 0.291752 -0.191604 0.140443 0.437047 0.195593 0.135936 0.213423 -0.297358 0.249002 0.048903 0.144241 0.560624 -0.361653 0.033099 -0.145832 0.226117 0.343005 -0.340059 0.161889 -0.413080 -0.627913 0.773755 -0.128998 0.431995 -0.081527 -0.070244 -0.166426 -0.471009 -0.732563 0.665808 0.050055 0.067286 0.226330 0.051364 -0.228349 0.324081 0.225795 -0.178331 -0.271072 0.288987 0.359363 -0.028098 -0.043381 -0.141297 0.495882 0.322286 -0.317371 0.309372 0.349114 0.019628 -0.298096 -0.423933 -0.158428 0.422794 0.053730
и 0.342352 0.114041 -0.028274 -0.225903 -0.180058 -0.362020 -0.347057 -0.000072 0.289301 0.245018 0.052948 -0.596453 -0.001924 -0.167456 -0.632482 0.106494 -0.645304 -0.187970 -0.154053 -0.155320 -0.087627 0.436405 -0.067036 0.517466 0.044973 -0.239315 0.834074 0.504217 0.252576 -0.412175 -0.264744 -0.004048 0.389059 0.036811 0.022965 -0.245352 -0.354066 0.149752 0.360198 0.139710 -0.476622 0.265846 -0.078079 0.444324 -0.047647 0.092865 -0.047242 -0.023582 -0.314792 0.301243 0.130726 0.221826 -0.152727 -0.165496 0.360550 -0.008276 -0.327084 -0.111764 -0.110331 -0.524180 -0.104692 0.088348 0.172289 -0.006544 -0.080979 0.029470 0.475239 0.111448 0.277293 -0.011592 -0.142001 0.159729 -0.010504 0.051297 0.206512 -0.235447 -0.043943 -0.098973 0.318275 0.250178 -0.017566 -0.033441 0.341804 0.295570 -0.330354 0.052833 -0.006164 0.203775 -0.457021 -0.196038 -0.206882 -0.127804 -0.244043 0.330791 -0.137615 -0.090445 -0.432965 0.031132 0.361152 -0.093827 -0.152314 -0.246293 0.289034 0.445391 -0.190017 -0.208803 -0.173111 0.298976 -0.112038 0.131883 0.024730 0.042943 -0.060787 -0.077616 0.044416 0.005726 -0.237571 0.511853 -0.033118 -0.386258 -0.398297 0.062218 0.434696 -0.503859 0.149090 0.058533 -0.198447 -0.268646 0.246686 0.073024 -0.222402 -0.204635 -0.282254 0.008551 0.028577 -0.332479 -0.336558 -0.127622 0.428703 -0.562480 -0.065026 -0.544975 0.436168 0.118435 0.085540 -0.657867 -0.061056 0.245626 0.670461 -0.424696 -0.214486 -0.092590 0.390085 0.565807 -0.375229 -0.047747 0.066283 -0.103756 -0.052271 -0.554661 0.386429 0.377355 -0.177123 0.014817 0.933220 0.322047 -0.124933 -0.237016 -0.105720 0.324240 0.122512 0.177136 -0.595768 0.079072 -0.295160 -0.437720 0.652745 0.217360 0.265294 -0.295554 0.355394 0.290689 -0.446866 -0.023817 0.125135 0.069981 -0.100724 -0.382850 0.092067 -0.145487 -0.079782 -0.075050 0.436418 -0.099313 -0.231327 0.332665 0.250613 0.027346 -0.030573 0.242157 0.119837 0.252888 0.275382 -0.051524 -0.390421 -0.122727 -0.199390 -0.433118 0.179028 0.350503 0.345168 -0.120035 -0.410252 0.242492 0.496009 0.209842 -0.367286 -0.070539 -0.554598 0.015190 -0.063239 -0.045347 -0.245837 -0.347856 0.113232 0.420959 0.227829 -0.166851 0.659587 0.182190 0.612621 0.093209 -0.262858 0.213519 0.164717 -0.399188 -0.393994 -0.001356 0.229848 -0.468577 0.114889 0.132215 -0.361512 -0.132711 0.251243 0.186609 -0.340719 0.173208 -0.112389 -0.368310 0.053954 0.230430 -0.465288 -0.547135 0.236431 0.362275 0.359789 -0.802061 -0.029867 -0.683563 -0.073441 -0.035332 0.116414 -0.335661 -0.272049 -0.019448 0.510942 -0.280330 -0.036201 -0.344937 0.075455 -0.269791 0.096350 0.194899 -0.222405 -0.157869 0.420566 0.386427 0.153035 -0.374712 0.438350 -0.331382 -0.101001 0.024645 0.252131 0.725399 0.352969 0.042300 -0.154255 0.180856 -0.106555 -0.309978 0.051929 0.264581 0.064754 -0.327285 -0.148873 -0.014811 -0.396451 -0.205280
банк 0.750965 -0.069408 -0.109352 -0.198411 -0.524758 -0.695527 -0.336314 -0.184745 0.298818 0.092023 0.194887 -0.718780 0.430198 -0.458718 -0.404340 0.102372 -0.043413 -0.060523 -0.280879 -0.004595 -0.403906 -0.271579 -0.454408 0.036248 0.159785 -0.337605 0.387428 0.461552 -0.148859 -0.380941 -0.072311 0.374696 0.027421 0.161677 -0.046455 -0.233612 -0.015877 -0.233588 0.099843 0.028706 0.233602 0.308789 -0.119645 0.498984 -0.178719 -0.030569 -0.495928 -0.216374 0.300189 0.032268 0.473525 -0.352181 0.383304 -0.446630 0.002875 0.107532 0.186787 -0.035222 0.223325 -0.254072 0.011545 -0.114130 0.255216 0.009375 -0.111718 -0.348920 0.195337 0.139099 -0.244107 0.180465 -0.002203 -0.051732 -0.027612 0.143561 -0.294123 0.189287 0.265952 -0.473699 -0.051751 -0.452534 0.395410 -0.240099 -0.334377 -0.127080 0.057527 0.141118 -0.029157 0.239798 0.225286 -0.088792 0.633191 -0.196985 -0.028946 0.671443 0.134722 -0.384003 0.158466 0.148134 -0.134993 -0.153072 0.410323 -0.165296 -0.113607 0.251771 -0.120562 -0.874472 -0.290795 0.036920 0.470885 0.233020 0.644744 -0.122231 0.049783 -0.581139 -0.065407 0.391793 0.015293 0.120346 -0.230313 -0.716747 -0.280665 0.000994 0.131116 -0.162436 0.216320 -0.112379 -0.069394 -0.058327 -0.642108 -0.218310 -0.081792 -0.125994 0.223027 0.239393 -0.082552 0.087285 -0.219123 0.327308 0.059617 0.018664 -0.158009 0.168725 -0.374489 -0.205985 0.259157 -0.031177 0.113923 -0.099361 0.138055 -0.200375 0.129161 0.161393 -0.288776 -0.124346 -0.409245 -0.697142 -0.050451 0.068636 0.146385 -0.684370 0.012214 0.243230 -0.241116 0.177529 0.476932 -0.059743 0.470653 0.203479 -0.228440 0.398141 0.252060 0.460552 -0.329201 0.214873 0.348021 -0.123833 0.125012 -0.092513 0.563124 0.034229 0.691360 0.222776 0.335180 0.303288 -0.174121 0.127168 -0.379487 0.250974 -0.040986 0.100718 -0.173169 -0.540000 0.262773 0.113466 0.182833 -0.016590 0.182642 0.463015 0.604841 -0.150027 0.503844 0.146947 0.353192 -0.157055 -0.213162 -0.202903 -0.246132 -0.029983 0.175984 0.099689 0.573197 -0.153801 0.034778 0.286031 -0.300283 -0.375628 -0.075146 -0.161394 -0.396411 0.098090 -0.225344 0.499455 0.166103 -0.170401 -0.355477 0.044406 0.070423 -0.038442 0.209172 -0.148644 0.199427 -0.093912 -0.208690 0.726078 0.140044 -0.485090 0.190080 0.037119 -0.074450 -0.559862 -0.578295 0.130760 -0.512938 -0.047852 -0.028487 -0.051812 -0.342658 0.238699 0.048369 -0.090576 0.167889 -0.189578 -0.117025 -0.084282 0.143944 0.057734 -0.134364 -0.209776 0.695116 -0.116277 -0.188358 0.160130 0.020679 0.267405 -0.195114 -0.442492 -0.087578 -0.307387 0.016835 -0.159389 0.072321 0.194815 0.244639 -0.460346 0.385770 0.138191 -0.052497 0.339412 -0.278517 -0.248533 0.528611 -0.097597 -0.002472 0.262604 -0.241445 0.268309 -0.074145 -0.170561 -0.091432 0.077599 0.462376 -0.072933 0.554290 0.318762 0.278592 0.354074 -0.554581 0.088750 0.137008 0.148392
россия 0.804051 -0.140383 -0.166355 -0.156696 -0.508254 -0.661656 -0.307955 -0.113794 0.397290 0.080104 0.177351 -0.651908 0.379021 -0.503471 -0.517133 0.028205 -0.164325 -0.049096 -0.361852 0.018009 -0.475353 -0.326723 -0.463121 0.054120 0.202553 -0.339052 0.382233 0.439740 0.029192 -0.488227 -0.012404 0.240645 0.094748 0.153939 0.094650 -0.172596 -0.070280 -0.261529 0.039291 0.083075 0.472498 0.263038 0.037251 0.453924 -0.191203 -0.060063 -0.501055 -0.275957 0.320212 -0.057854 0.471347 -0.427422 0.608998 -0.471143 -0.003283 0.120437 0.208928 -0.072923 0.281921 -0.094703 -0.055089 -0.182681 0.292358 -0.021725 -0.201442 -0.369849 0.407061 0.149946 -0.328730 0.220849 0.050384 -0.022316 -0.019534 0.164243 -0.337956 0.305967 0.260856 -0.457519 -0.154846 -0.484963 0.249804 -0.271340 -0.372549 -0.195352 0.103353 0.184623 -0.096775 0.243110 0.118202 -0.203071 0.652792 -0.211208 -0.010965 0.693061 0.051077 -0.303656 0.140694 -0.019656 -0.103214 -0.159284 0.338881 -0.145438 -0.094190 0.335763 -0.133942 -0.859007 -0.217081 0.056007 0.489697 0.231097 0.693950 -0.181025 0.108761 -0.530957 -0.030968 0.502302 0.036926 0.012339 -0.250988 -0.813368 -0.155896 -0.092964 0.105332 -0.145366 0.141017 -0.188715 -0.030257 0.085481 -0.554674 -0.280031 -0.053879 -0.053075 0.112130 0.352105 -0.084889 0.069898 -0.300108 0.346878 0.055557 0.004277 -0.240426 0.185309 -0.353890 -0.225129 0.238077 -0.030866 0.193239 -0.156571 0.203662 -0.369260 0.124652 0.220100 -0.241547 -0.163906 -0.427621 -0.764497 -0.127526 0.030655 0.192726 -0.607628 -0.008606 0.320153 -0.191957 0.119642 0.483893 -0.037926 0.610977 0.196911 -0.263861 0.350971 0.134216 0.402712 -0.330579 0.199161 0.364242 -0.034924 0.128323 0.039142 0.629919 0.187508 0.648961 0.206598 0.333073 0.372991 -0.182179 0.236664 -0.395357 0.270593 -0.057140 0.024058 -0.183648 -0.519443 0.232844 0.037493 0.185563 -0.055406 0.229659 0.422206 0.560465 -0.206203 0.486181 0.019338 0.408124 -0.239456 -0.210261 -0.183383 -0.169034 -0.040770 0.117543 0.154491 0.513344 -0.203738 0.088064 0.226102 -0.339866 -0.457235 -0.025814 -0.152316 -0.353804 0.195394 -0.252466 0.381903 0.298413 -0.177047 -0.429763 -0.075275 0.019686 -0.147661 0.207713 -0.094252 0.023623 -0.072590 -0.110055 0.619559 0.116203 -0.422360 0.242579 0.107168 -0.073986 -0.572727 -0.640922 0.111430 -0.480580 -0.073181 -0.056147 -0.112086 -0.275972 0.384755 0.085451 -0.247737 0.191793 -0.299589 -0.023236 0.049441 0.223219 -0.013911 -0.119025 -0.169460 0.684832 -0.083976 -0.094406 0.192689 -0.109117 0.200048 -0.360559 -0.375514 0.036827 -0.394801 -0.095854 -0.152091 0.043106 0.183116 0.306964 -0.467666 0.512825 0.023682 -0.034872 0.320051 -0.173071 -0.198820 0.460083 -0.089394 0.015311 0.266633 -0.161300 0.169908 -0.244730 -0.126069 -0.043194 0.033287 0.593042 -0.163798 0.487818 0.285779 0.297183 0.360183 -0.577980 0.202699 0.149490 0.088523
год 0.401673 -0.167576 -0.174688 0.024570 0.126134 -0.681653 0.120989 0.373256 0.353380 0.088454 0.254277 -0.403736 0.215730 -0.316804 -0.361706 0.102419 -0.267612 -0.254914 0.005641 -0.247363 0.281224 0.324326 -0.100119 0.092838 -0.177396 -0.405303 0.647149 0.572418 -0.073648 -0.146585 0.052041 -0.288716 0.103920 0.168685 0.351364 -0.184348 -0.381840 -0.135467 -0.073241 -0.121534 -0.051073 0.067944 -0.445702 0.458684 0.102689 -0.302732 -0.012492 -0.288531 0.140343 0.294070 0.072778 -0.034326 0.386206 -0.405801 0.248182 0.147316 -0.330420 -0.230730 -0.251474 -0.020694 0.231448 -0.074501 0.098987 -0.018370 0.032645 -0.094037 0.515567 -0.003205 -0.198315 0.250015 -0.186666 -0.053752 0.320558 0.062795 -0.180848 -0.191569 0.146011 -0.064410 -0.133883 0.151195 0.137295 0.105328 0.357807 -0.412147 0.240976 0.318868 -0.051913 0.095317 0.055119 0.047681 0.164970 -0.163851 0.035828 0.381535 -0.157493 -0.454365 0.243920 0.178577 -0.064897 0.153508 0.147960 -0.424878 0.198954 0.232157 -0.182283 -0.512771 -0.106943 0.095358 0.600775 -0.084669 -0.208064 -0.397761 -0.173654 -0.416145 -0.001162 0.208555 0.025107 0.181014 -0.206466 -0.108169 0.028344 0.087767 -0.222140 0.323251 0.418887 -0.223210 -0.055993 -0.337481 0.147273 -0.313815 -0.394048 0.184655 0.454058 0.486254 -0.574931 0.088164 -0.239576 -0.026566 0.734118 -0.106659 0.027828 -0.132438 -0.234451 -0.292087 0.370337 -0.323954 -0.336478 -0.064271 0.331960 0.123235 0.236949 0.425391 -0.236759 0.168327 0.044592 -0.627424 0.538050 0.480825 0.626646 -0.483516 0.135054 0.350622 -0.446306 -0.187438 0.311563 0.512753 0.249468 0.575736 -0.568422 -0.096024 0.060921 0.277820 -0.274356 0.190010 -0.116833 0.171020 0.099896 -0.276151 0.396680 0.306676 0.303042 0.391983 -0.048771 0.035322 -0.096570 0.231720 -0.150141 0.537428 0.095307 0.106156 0.169664 -0.121215 0.416806 -0.254600 -0.180071 -0.087751 -0.099482 0.401405 0.713780 -0.303040 0.424145 0.556163 0.690092 -0.162834 -0.171575 -0.178099 0.079433 -0.092173 0.043419 0.059471 0.224819 -0.152990 0.121224 0.250699 -0.016943 -0.638119 -0.061649 -0.340506 -0.590881 0.671400 -0.104978 0.084715 0.012520 -0.085479 -0.125754 -0.390226 -0.024281 0.340250 -0.065810 0.420830 -0.003595 0.069747 -0.010342 -0.002919 0.122569 -0.256756 0.308202 -0.243795 -0.323481 -0.573819 -0.247916 -0.032105 -0.281379 0.022728 0.459388 -0.214783 0.489345 0.286240 -0.061239 -0.092576 0.575484 -0.192520 -0.058955 -0.102283 -0.264638 -0.030086 0.171005 -0.422755 0.480952 -0.190386 -0.493984 -0.244390 0.104486 0.078096 0.069720 -0.159485 0.560780 -0.359752 0.188995 0.023232 -0.263244 -0.307537 -0.230124 -0.553806 0.440924 -0.151809 -0.243290 0.401756 0.079690 -0.031897 0.312514 -0.018014 -0.619047 -0.070833 0.183731 0.500801 0.009943 0.119833 -0.195657 0.372836 0.640722 0.151266 0.189903 -0.186288 0.052186 -0.415140 -0.418468 -0.089224 0.034906 -0.208795
ставка 0.943194 0.137574 0.123045 0.028351 -0.359137 -0.758240 0.118341 -0.378400 0.167653 0.059689 0.062731 -0.490404 0.162950 -0.428161 -0.097129 -0.591285 -0.119416 0.164848 0.098249 -0.023471 0.066202 -0.685143 -0.503272 0.351926 0.292448 -0.137563 0.231137 0.477111 -0.187513 0.020545 -0.372071 0.477213 -0.018614 0.015552 -0.214011 -0.163850 -0.100782 -0.441795 0.069359 0.062031 0.114512 0.152552 -0.192358 0.607651 -0.004002 0.102433 -0.237097 -0.487413 -0.107370 0.291854 0.144190 0.113882 0.083519 -0.251691 0.169229 0.081699 0.257704 -0.067260 -0.133825 -0.228577 -0.048631 0.271507 -0.263120 0.972054 0.235449 -0.623914 -0.265176 -0.054964 -0.013489 -0.295991 0.084107 -0.044757 0.369998 -0.053884 -0.004385 0.465759 0.242578 -0.201351 -0.029241 -0.318510 0.376791 -0.519182 -0.269900 0.111774 0.221467 -0.121037 0.097608 0.151905 0.442961 0.008189 0.313457 -0.088241 -0.236251 -0.023614 -0.180088 -0.376841 0.437699 -0.171811 -0.322104 -0.343675 -0.061376 0.238070 -0.052646 0.038817 -0.197173 -0.240431 -0.120545 0.004062 0.136121 0.271916 0.801424 0.248722 0.003582 -0.320212 0.110411 0.291637 0.182585 0.034162 0.269987 -0.100584 -0.545431 -0.355242 0.035237 -0.498336 0.428537 -0.396152 -0.327894 -0.832036 -0.394452 -0.023902 -0.255681 -0.009907 0.385287 -0.250411 0.064703 0.061305 -0.121772 0.459635 0.552947 -0.456857 -0.109112 0.004121 -0.064880 0.064645 0.092313 0.470180 -0.244963 -0.128933 -0.171109 -0.256587 -0.068504 0.270503 -0.393869 -0.374003 0.260253 -0.391508 -0.484359 -0.387096 -0.069002 -0.103836 0.070739 -0.132538 -0.312266 -0.069737 0.091859 -0.386465 0.130404 0.521375 -0.333497 0.374544 -0.322317 -0.092372 -0.391270 -0.110408 0.183260 0.313065 0.566216 -0.024333 0.608489 0.178763 0.275192 -0.043671 0.330359 0.308776 -0.083902 0.309328 -0.136431 0.394080 0.052920 -0.236332 -0.128739 -0.235538 0.125473 0.151875 0.228588 -0.381066 -0.120713 -0.046024 0.115559 0.287792 0.550781 0.033380 -0.032165 -0.494462 -0.543641 -0.022111 -0.246814 0.033400 0.025143 -0.115404 -0.034720 0.148577 0.046302 0.067720 -0.189796 0.146457 -0.332261 0.043504 -0.101171 0.122229 0.013053 0.110272 0.141991 -0.355293 0.205477 -0.011798 -0.135460 -0.095096 -0.311797 -0.136043 0.735165 0.043987 -0.224426 0.418964 0.080741 -0.142412 -0.410410 0.250984 0.133082 -0.930153 -0.083884 -0.380438 -0.485576 -0.002330 -0.008232 0.114077 -0.116376 0.130360 0.466922 -0.026739 -0.095746 -0.400711 -0.602092 0.267901 0.424974 0.128994 0.452143 -0.529393 0.771588 0.223343 -0.424280 0.076300 0.008147 0.119320 0.012099 -0.204832 -0.255934 0.062691 -0.023741 -0.051467 0.329120 -0.792692 0.314544 -0.254511 0.439941 -0.047255 0.105081 0.490090 0.091769 -0.569434 0.052234 0.224702 0.708199 0.239723 -0.169206 0.154013 -0.539217 -0.268573 -0.116468 -0.128196 0.300597 -0.041483 0.545968 0.017781 0.045261 0.254338 -0.656557 0.279878 -0.128375 -0.345229
по 0.306334 0.047519 -0.420239 0.120389 -0.546355 -0.508451 -0.202167 -0.083538 0.613449 0.464814 -0.016985 -0.420208 0.303739 -0.278539 0.053943 -0.553279 -0.138405 -0.193214 0.124202 0.247249 -0.058234 0.173479 -0.208269 0.458273 0.068853 -0.218796 0.261142 0.092604 -0.202995 -0.225825 -0.250822 0.293491 -0.212323 0.275443 -0.430752 -0.197960 0.047636 0.244778 0.173955 0.014253 0.142805 0.035667 -0.146922 0.594097 -0.286287 0.213521 -0.481138 -0.130258 -0.033724 0.509058 0.237760 -0.057716 -0.064259 -0.469398 0.050141 0.133585 0.176037 -0.138936 -0.247565 -0.279376 0.238447 -0.046950 0.029396 0.581000 -0.042570 -0.215340 0.011097 -0.191435 -0.069740 0.200875 -0.407827 -0.053351 0.292074 0.073764 -0.290837 -0.000652 0.067381 -0.570452 0.265990 0.085760 0.646461 -0.410452 0.438057 0.155544 0.156041 -0.194838 -0.581302 0.156564 0.479636 -0.058671 -0.051807 -0.156332 0.091192 0.663640 0.011907 -0.662871 0.072179 0.308348 -0.638866 -0.068479 -0.141737 -0.228957 0.107996 0.125410 -0.657873 -0.761960 -0.199051 0.404123 0.377087 0.177814 0.089581 -0.308361 -0.259691 -0.409067 0.091930 0.238298 0.267507 0.284118 0.101297 -0.196540 -0.374001 0.161017 0.627125 -0.309036 0.753605 -0.437008 0.353280 -0.378707 -0.354623 0.046166 -0.467159 -0.342874 0.187077 0.032857 0.188045 0.097094 0.064330 0.108792 0.559249 -0.150737 0.365901 -0.177331 0.116292 0.077446 0.378344 0.185020 0.205559 -0.211432 -0.062889 -0.065728 0.590825 0.260157 -0.143287 0.113762 -0.430231 -0.226894 -0.050690 0.227011 -0.250784 -0.384924 0.149733 0.107756 -0.127404 -0.215328 0.342806 -0.304530 0.412930 0.031334 -0.416810 0.312829 0.093323 0.401873 -0.340519 0.103935 0.343751 -0.349145 0.035021 -0.089917 0.173468 -0.239017 0.053006 0.475586 0.285617 0.257431 -0.148373 0.022774 -0.430146 0.110639 -0.393180 -0.147750 -0.051379 -0.212598 0.337580 0.099572 -0.056319 -0.076507 -0.549379 0.574012 0.048030 0.010392 0.354541 0.086055 -0.250122 -0.524743 -0.060817 -0.142910 -0.183827 0.000626 -0.128476 -0.202330 0.309007 0.050295 -0.151392 0.272622 0.024042 -0.257409 -0.242514 -0.104775 -0.363044 0.227759 0.330845 0.026320 0.116341 -0.096213 -0.054888 -0.102480 0.204157 0.326729 0.009424 -0.047223 0.054109 -0.156218 0.168652 0.435842 0.158153 -0.278883 0.012699 -0.127316 0.252121 -0.707866 -0.236568 0.033237 -0.179121 0.337621 0.145847 -0.218353 -0.145305 -0.129873 0.193008 -0.356379 0.200373 -0.097097 -0.493882 -0.060692 -0.090295 0.183446 -0.032024 -0.244397 0.451281 -0.301649 -0.136490 0.501419 -0.097961 0.051880 0.620185 -0.228448 0.215408 -0.239569 0.029277 -0.466793 0.291474 -0.749373 0.495572 -0.252350 0.402147 -0.102070 -0.033196 -0.144079 0.143590 -0.676252 0.106148 -0.103706 0.658362 0.531677 -0.280491 0.695809 0.010571 0.109669 -0.234401 -0.103958 -0.212297 -0.000803 0.708112 -0.003777 -0.118732 -0.117338 -0.407817 0.386075 0.161278 0.296161
с 0.533809 0.251363 -0.070492 -0.391646 0.268947 -0.185812 0.093912 0.185186 0.110198 0.007147 -0.275352 -0.516273 -0.351425 -0.501334 -0.361820 -0.066670 -0.464229 -0.147218 -0.471056 0.066070 0.186572 -0.016631 -0.104498 0.166172 -0.292723 -0.024579 0.230338 0.761245 -0.014090 0.176469 -0.141502 0.069499 0.315675 -0.323870 -0.072600 -0.342177 -0.517581 -0.324785 0.024403 -0.239107 -0.363874 0.303285 0.234042 0.419891 0.502321 -0.502274 -0.077963 -0.152736 -0.410210 -0.024902 0.321350 0.048462 -0.146784 -0.437717 0.382762 -0.152644 -0.243117 -0.219608 -0.164629 0.016749 -0.155616 0.439459 -0.283430 0.103196 0.015860 -0.134373 0.198466 0.154512 -0.126376 -0.163370 -0.476291 -0.098220 0.360648 0.068831 -0.537180 -0.066827 0.334133 -0.114164 -0.562668 -0.214911 0.143602 -0.251901 -0.137935 -0.151384 0.427477 0.305912 -0.199914 0.143796 -0.192539 -0.300674 0.117134 -0.486362 -0.001022 0.109070 -0.197491 -0.171964 -0.327569 -0.353118 -0.055181 -0.434066 -0.425354 -0.361898 -0.357979 0.076087 -0.584212 -0.359049 -0.103404 0.392930 -0.068028 -0.004149 -0.150519 -0.528585 -0.043426 -0.775180 -0.058472 0.399876 -0.370904 -0.204286 0.077700 0.297042 -0.078982 -0.303544 0.148565 -0.410196 0.159197 -0.148957 -0.069776 -0.501767 -0.176732 -0.113491 -0.708737 0.200155 0.201370 -0.227393 0.010318 -0.446777 -0.598358 0.237900 0.323873 0.159122 0.244463 0.261366 -0.111036 0.147419 0.341221 -0.169241 0.273518 -0.109249 0.579485 0.039839 0.011993 0.403411 0.210328 -0.057169 -0.331133 -0.216370 -0.157291 0.121194 -0.470867 -0.679163 0.485269 -0.082793 -0.038052 0.005100 0.472776 0.223055 0.242372 -0.377525 -0.560520 -0.099204 -0.230047 0.473986 -0.255011 0.500414 0.155229 0.169136 0.255890 0.314232 0.478057 0.640572 0.322035 0.091547 -0.186664 0.444088 0.063993 0.379121 -0.366378 0.407252 -0.229295 0.164229 0.238570 -0.224049 0.705086 0.091139 -0.544114 -0.028163 0.461329 0.643874 0.023718 0.137467 0.762168 -0.187027 0.561115 -0.095048 -0.144474 0.089224 -0.831160 0.165647 -0.094590 -0.258542 0.428673 0.009356 0.330930 0.196906 0.234240 -0.321068 -0.340498 -0.221401 -0.153516 0.494834 -0.040318 -0.158449 -0.098536 -0.415365 0.029255 -0.238678 -0.241167 0.112462 -0.127501 -0.131840 0.333609 0.112876 -0.310719 0.210670 -0.084227 -0.223424 -0.048330 0.289362 0.065267 -0.491056 -0.091611 -0.144973 -0.468596 -0.340350 -0.078456 -0.142577 -0.354420 0.447497 0.118226 -0.573386 -0.106803 -0.282266 -0.134131 0.145791 0.210653 0.030807 0.142563 -0.300017 -0.241563 0.059739 0.123120 0.612723 0.344485 0.146986 -0.136105 -0.385514 0.666021 0.346963 -0.224663 -0.082102 -0.343318 -0.251840 0.084984 -0.265915 0.346487 -0.108509 -0.169786 -0.167069 0.204821 -0.175539 -0.070177 0.154934 0.161472 0.122820 -0.398712 0.080961 -0.166561 0.374416 0.397840 0.435061 0.069530 -0.556588 -0.022542 0.698587 -0.340857 -0.271451 -0.383303 -0.046971 -0.087737 -0.058754
инфляция -0.286925 -0.573688 -0.353771 -0.026642 0.438140 -0.387289 -0.502951 0.078375 0.412991 0.055358 -0.226628 -0.440142 0.043700 0.113437 0.010123 -0.095720 -0.154831 -0.074201 0.106542 -0.321372 0.669517 0.320127 -0.045875 0.302638 -0.401645 -0.665200 0.559903 0.443032 0.168095 -0.597262 -0.185055 0.049028 0.038858 0.534338 -0.236788 -0.133376 -0.352743 -0.204482 0.041991 0.088543 -0.094588 0.111249 0.057460 0.315616 -0.240418 0.410695 0.161908 0.096257 0.002341 0.204548 0.271959 -0.234438 0.279993 -0.440919 0.850318 0.043574 -0.017163 0.016209 0.343295 -0.341805 0.115438 0.030418 -0.123603 -0.033635 -0.017497 0.068884 0.020679 0.081349 0.253299 0.300692 -0.301408 0.055066 0.382421 0.085512 0.057835 -0.333471 -0.169552 -0.140592 0.027591 -0.434494 0.213468 0.400697 0.173546 -0.473351 0.088048 -0.156660 -0.186966 0.394695 -0.468211 0.180021 0.023777 -0.002718 -0.203724 0.307241 0.112058 0.164852 0.150869 0.116375 0.061013 -0.266534 0.112097 0.103473 -0.176456 0.696082 -0.071259 -0.582905 0.432475 0.123743 0.252580 -0.117659 -0.003428 -0.038508 -0.456759 -0.264182 0.147011 0.383236 0.026882 0.046646 -0.101731 0.122998 -0.330480 0.389102 -0.272361 -0.012132 0.222680 0.245755 0.242687 -0.278148 -0.097029 -0.104540 -0.166698 -0.127278 -0.019280 0.531001 -0.036266 -0.125062 -0.563394 -0.254844 0.342437 -0.043582 0.045668 -0.256336 -0.073781 -0.120090 0.075298 -0.113242 0.317069 0.295046 -0.161768 0.079571 0.093360 -0.162934 0.144986 0.290826 -0.203611 -0.669081 0.317424 0.059178 0.206748 -0.269841 -0.030593 0.298790 -0.160733 -0.027799 1.038133 -0.120747 -0.257550 -0.030161 -0.092282 0.086480 0.504354 0.142529 -0.091498 0.610645 0.432153 0.250126 0.316967 0.172640 0.551753 -0.164142 0.234140 0.247642 -0.280889 -0.153320 -0.133067 0.220295 -0.271974 0.619956 -0.181678 -0.207410 0.308865 0.602521 0.260469 -0.177384 -0.382314 -0.127170 -0.113821 0.226742 0.194120 -0.074684 0.450011 0.384663 0.410196 -0.142339 -0.515266 -0.203777 -0.481768 -0.029495 0.242832 -0.321363 0.199472 -0.203966 -0.308602 0.237046 0.298294 0.128747 -0.087743 -0.163672 -0.293277 0.392951 0.070404 -0.042368 -0.001053 -0.208832 0.204529 -0.135452 0.248639 -0.110700 0.118467 0.430095 0.237655 0.497553 0.228607 0.199780 -0.067424 -0.278031 0.143177 -0.114879 0.218678 -0.252057 -0.018724 -0.044812 -0.748029 0.164825 0.407433 -0.158855 0.157203 0.606063 -0.341196 -0.530177 0.204498 -0.544704 0.145862 -0.065638 -0.052331 -0.098655 0.226765 -0.341267 0.016567 -0.006617 -0.015594 0.106086 0.408541 0.318066 0.034550 -0.226421 0.101239 -0.469148 -0.123055 -0.369986 -0.112516 0.439003 0.015344 0.035310 0.360550 -0.003253 -0.044692 0.191811 -0.327150 -0.041145 -0.125088 -0.144675 -0.166089 0.069798 0.166832 0.739374 0.002841 0.227410 -0.149879 0.275204 0.629035 -0.294965 0.254044 -0.486536 0.218022 -0.627047 0.085392 0.230808 0.075071 -0.215895
рост 0.231000 -0.058627 -0.201739 -0.106765 -0.118035 0.114737 0.028606 -0.226401 0.510312 0.390051 0.030775 -0.164624 0.093499 0.186865 -0.030667 -0.118649 0.376476 -0.364709 -0.001191 -0.175490 -0.230996 -0.182415 0.045494 0.403454 -0.155868 -0.254984 0.263574 0.236645 -0.390145 -0.232771 -0.126130 -0.148904 -0.053616 0.102685 -0.227754 -0.437604 0.070055 -0.155719 -0.107546 -0.044178 -0.146073 0.261586 -0.411300 -0.098448 0.061644 0.152249 0.231101 -0.062905 0.301058 0.179977 0.087504 0.632092 -0.172764 -0.303953 -0.034838 0.077415 0.006983 -0.141307 -0.253849 0.151175 -0.022990 0.230056 -0.221768 0.024424 -0.087618 0.408771 0.044882 -0.320269 -0.201157 0.334748 -0.020994 -0.237657 0.155384 0.327863 -0.145183 0.004446 0.497038 0.125828 -0.216548 0.198859 0.290042 0.309885 0.398048 0.248262 0.077715 0.029229 0.037692 -0.019384 0.124964 0.160583 -0.012266 -0.085667 0.309370 0.152484 0.164477 0.135702 0.157949 0.164709 0.235095 0.036489 0.056564 0.127876 0.156240 -0.040241 0.121182 -0.526776 -0.143881 0.433695 0.224435 -0.203006 -0.216985 -0.307173 0.179822 -0.579460 0.353381 -0.236868 0.142645 0.445634 0.329406 0.350346 -0.153283 0.114583 0.209114 0.007740 0.312919 0.213538 -0.130020 -0.129944 -0.026550 -0.114190 -0.491008 0.054170 -0.127583 0.232260 0.093374 -0.147498 -0.518765 0.058807 0.278830 0.284739 0.008386 0.077809 0.202612 -0.199971 0.167365 0.241932 -0.301330 0.083128 0.196701 0.196010 0.340721 0.153296 -0.142085 0.273017 -0.063017 -0.214713 0.580265 0.087366 0.300168 -0.427699 0.452643 -0.073620 -0.216632 0.645596 0.970273 -0.278240 0.118117 -0.372890 -0.259022 0.154628 0.000603 0.147840 -0.187839 0.044405 0.414941 -0.353486 0.137988 -0.074918 -0.281764 -0.241718 -0.053922 -0.230754 -0.015270 0.394846 0.360968 0.097763 -0.250403 0.207263 0.179370 -0.183104 -0.072247 0.184607 0.158510 -0.059668 0.072885 -0.222918 0.238011 -0.009815 0.391564 0.292232 0.405901 -0.156476 0.192079 0.279428 0.023002 0.286247 -0.135920 -0.068580 0.045127 0.100910 -0.023376 -0.042965 0.225580 0.441628 0.525524 -0.486603 -0.328920 -0.129689 -0.391266 0.013461 0.011644 -0.237460 0.346455 0.138929 0.278962 0.321206 0.024068 0.090225 0.271935 -0.236206 -0.014401 0.031376 -0.001642 -0.227532 0.010891 0.097887 0.247640 0.134812 0.025561 -0.436460 0.124287 -0.008928 -0.639003 0.479220 0.120383 0.255180 0.122936 0.137741 0.405179 0.087617 -0.132249 -0.068922 -0.012861 -0.388149 0.045156 0.225615 0.047717 -0.516909 -0.636538 -0.143436 0.265081 -0.329414 -0.098138 -0.042151 -0.380361 -0.238710 0.366649 -0.153818 0.168237 -0.291642 -0.264902 -0.161745 0.089795 -0.543257 -0.309044 -0.642652 0.221609 0.354411 -0.185745 -0.159755 0.044699 0.171830 -0.008370 -0.255376 0.556586 0.254904 0.263390 0.457402 0.015816 0.249833 -0.030830 -0.062435 -0.047966 0.309068 -0.134185 0.135160 -0.242261 0.059687 -0.136411 0.218402
ключевой 0.810547 -0.366448 -0.208131 0.173983 -0.172862 -1.144468 -0.236341 -0.195228 0.335269 -0.037262 -0.003177 -0.425879 0.137302 -0.566460 -0.143143 -0.552501 -0.532674 0.255087 -0.016346 -0.024964 0.264369 -0.695554 -0.388065 0.239925 0.106778 -0.214583 0.545253 0.593691 -0.210990 -0.200638 -0.298170 0.353575 0.021526 0.143702 -0.007091 -0.045799 -0.265997 -0.637884 -0.222924 0.059171 0.082982 0.028851 -0.036630 0.436466 -0.207772 -0.028442 -0.402219 -0.460570 -0.114170 0.290192 0.054638 0.022142 0.133581 -0.181228 0.347350 0.199032 0.239307 -0.206038 -0.180180 -0.344419 -0.105422 -0.149914 0.218160 0.963043 0.389861 -0.691243 -0.166198 0.211735 0.054823 -0.077169 0.084504 0.235133 0.520158 0.169913 0.115719 0.357415 0.305503 -0.126653 -0.093843 -0.579945 0.286889 -0.155225 0.107860 -0.085870 0.341621 -0.133157 0.094812 0.029383 0.329789 -0.148832 0.253126 0.024034 -0.236142 0.186227 -0.111850 -0.248988 0.779329 -0.233235 -0.185253 -0.258682 -0.093187 0.412620 -0.153040 -0.234962 -0.225797 -0.187375 0.146655 0.050537 0.097930 0.070199 0.387994 0.260457 -0.225619 -0.335145 -0.104427 0.428661 0.261674 -0.045454 -0.056088 -0.341692 -0.444081 -0.142263 -0.170671 -0.278248 0.089671 -0.420013 -0.176931 -0.807928 -0.002213 -0.224838 0.053764 -0.224880 0.558576 -0.196970 0.100593 0.173923 -0.127158 0.453869 0.438444 -0.438782 -0.132758 0.097518 -0.040291 0.006525 0.243482 0.044703 -0.288091 -0.160227 -0.454242 -0.431098 0.077207 0.117965 -0.115447 -0.470489 0.183840 -0.616362 -0.456695 -0.160463 0.145129 -0.023291 0.072482 0.059591 -0.515586 -0.155534 0.360144 -0.208317 0.055096 0.690338 -0.207279 0.220483 -0.389665 -0.022961 -0.331904 0.038907 0.099040 0.387205 0.860281 -0.026367 0.578541 0.234128 0.410712 0.149932 0.097640 0.078948 -0.016463 0.240903 -0.138952 0.527859 0.070098 -0.174167 0.005376 -0.196898 0.074696 0.009797 0.049795 -0.155309 -0.134261 0.171229 0.350802 0.055634 0.310555 0.057094 -0.111597 -0.380273 -0.494406 -0.013074 -0.326827 0.088182 0.175921 0.319206 0.103810 0.051935 -0.126348 0.117161 -0.168474 -0.254439 -0.216066 -0.022137 -0.309829 0.157022 -0.132833 -0.058896 -0.223993 -0.163945 0.167226 -0.016804 -0.157141 -0.305574 -0.129990 0.224947 0.665711 0.032375 -0.064804 0.107826 0.132216 -0.219295 -0.132775 0.177750 -0.003130 -0.550370 -0.015098 -0.204785 -0.572109 -0.147414 0.132526 -0.132911 -0.217180 0.410470 0.465756 0.024028 0.170653 -0.494578 -0.732626 0.158696 0.306306 0.183460 0.287094 -0.382951 0.681463 0.199368 -0.221734 -0.071559 -0.021885 0.260377 -0.166865 -0.112790 -0.089814 -0.099100 0.104232 0.102524 0.083704 -0.663806 0.450286 -0.291991 0.391920 -0.040338 0.112191 0.450697 -0.064352 -0.411215 0.172810 0.067587 0.463703 0.462314 -0.081369 0.046708 -0.363827 -0.292828 -0.250977 0.169507 0.304006 -0.184941 0.728268 -0.155829 0.243388 -0.037238 -0.675558 0.053327 -0.062906 -0.316466
риск 0.088393 0.173326 -0.170402 -0.119827 0.243933 -0.020903 -0.187177 -0.013536 -0.151102 0.173467 -0.201563 0.230724 -0.224660 0.031672 -0.228363 -0.077004 -0.127060 -0.068725 -0.243886 -0.292402 0.219493 -0.145410 -0.386799 0.345155 0.082181 -0.619016 0.186235 1.026955 0.184539 -0.195061 -0.173958 -0.256635 0.205993 -0.131183 -0.371185 -0.273781 -0.138970 -0.264870 0.354336 0.034389 -0.347085 0.205736 0.152358 -0.016884 0.047783 -0.005655 0.201299 -0.026790 0.184730 -0.221599 0.016334 0.022161 -0.100112 -0.303360 0.008261 0.060101 0.096564 -0.013573 0.379845 -0.482989 -0.132886 -0.385706 0.285226 0.465060 -0.138533 0.148554 0.190385 0.083092 0.034463 0.007404 -0.547500 -0.039340 0.029369 0.098694 -0.283501 -0.486185 0.409194 -0.209495 0.065014 -0.413159 -0.005297 0.166000 0.277395 0.252933 -0.079340 -0.005273 0.231185 0.628849 0.121678 0.145357 0.364516 0.116253 -0.790506 0.179415 0.267196 -0.245052 0.019229 0.142694 0.196951 -0.130766 0.235498 0.136653 -0.170503 0.701726 -0.379521 -0.323889 0.227712 0.269237 0.026727 -0.568198 -0.524931 -0.003479 0.153877 -0.729713 0.115796 0.227618 -0.128536 0.068406 -0.310586 -0.115371 -0.503871 0.310457 -0.143208 -0.219792 -0.138549 0.350190 0.055716 0.055656 -0.410561 0.311271 -0.316798 0.098193 0.097414 -0.202855 0.213278 -0.183697 -0.070894 0.089129 0.067795 0.023079 0.080046 -0.092404 -0.120697 -0.013569 0.598173 0.024606 0.199279 0.282214 0.011788 0.304576 -0.279398 -0.290904 0.199495 0.212676 -0.276533 -0.623729 0.149434 -0.271855 0.056811 -0.232713 0.463330 0.162901 -0.221732 0.240982 0.622529 0.287099 0.400468 -0.112316 -0.398351 0.378045 0.011469 0.072281 -0.437110 0.527460 0.891344 -0.133309 0.401613 -0.448785 0.633477 0.466568 -0.166322 0.139239 0.342193 0.410549 0.000679 0.026996 -0.306290 0.168747 0.068820 -0.297289 0.143743 0.266043 -0.289680 0.125001 -0.102219 0.157626 0.261031 0.486416 -0.411217 0.079857 0.643195 0.017633 0.260957 0.538815 -0.260138 0.083797 -0.584866 0.026810 0.098725 -0.106516 0.241577 0.125053 -0.101819 0.065691 0.251575 -0.051603 -0.152896 0.081644 -0.359607 0.231611 -0.330746 -0.080351 -0.534443 -0.156624 -0.012521 -0.274282 -0.149427 0.250188 0.178057 0.029480 1.100868 0.002885 -0.158991 0.145479 0.196918 -0.010697 -0.079523 0.188174 0.021112 -0.347065 0.110858 0.099948 -0.346410 0.394114 -0.228614 0.047269 -0.011898 0.293481 -0.167878 -0.183612 0.172646 0.041205 -0.039689 -0.325798 -0.315452 -0.029118 -0.080310 -0.318534 -0.314529 -0.084632 0.074985 0.106153 -0.129435 -0.321423 -0.078806 0.061331 0.744205 0.140144 0.046618 -0.631665 -0.133748 0.140487 0.337747 0.105274 -0.152406 -0.206147 -0.353587 -0.107701 -0.034184 -0.396758 0.756251 -0.010565 -0.256129 -0.017456 0.091923 0.154915 0.763354 -0.033998 -0.199484 0.379288 0.559827 -0.433109 0.135324 -0.204080 -0.083489 -0.308329 -0.436779 -0.214530 0.262674 0.205670
цена -0.436819 -0.338404 -0.380402 -0.463954 0.234288 -0.035383 -0.457980 0.427450 0.371248 0.500292 -0.458010 0.133805 0.108359 -0.094276 -0.030090 -0.284096 0.003641 -0.208612 0.116598 -0.233002 0.699405 0.009251 0.090605 0.250670 -0.358670 -0.229718 0.409036 0.010000 0.149958 -0.430235 -0.168569 -0.118100 -0.026189 -0.414341 -0.082550 -0.478000 -0.196148 0.339209 0.136102 0.030320 -0.498087 0.218239 -0.016542 -0.057348 -0.053815 0.101313 -0.037202 -0.162794 0.019870 0.101097 0.229816 -0.097342 -0.095672 -0.452667 0.288121 -0.055125 -0.392428 -0.018846 0.191762 -0.023071 0.360368 -0.094144 -0.061165 -0.065256 0.112056 0.252110 0.194224 -0.215719 -0.307862 0.367366 -0.023924 0.162006 0.485536 -0.086784 0.203821 -0.257573 0.233917 -0.048975 -0.264778 0.128692 0.311895 0.180608 0.038201 -0.138022 -0.196359 0.077153 -0.235305 0.283347 -0.110552 -0.330341 -0.249315 -0.174976 0.436046 0.382910 -0.076832 -0.086538 0.033737 0.226363 0.332595 0.081132 -0.271514 -0.122536 0.290522 0.361755 0.070413 -0.376858 0.098247 0.511874 -0.194494 0.187698 -0.135681 -0.725810 -0.524411 -0.240663 0.011500 -0.026667 0.028987 0.360157 -0.295967 0.406617 -0.127637 0.209357 -0.154996 0.093500 0.070592 0.322739 0.052499 -0.294913 0.187373 0.214396 -0.150790 -0.109846 0.145060 0.209812 -0.213618 -0.070755 -0.330095 -0.116691 0.260429 -0.388722 -0.078002 0.074403 -0.112646 0.187654 0.279284 -0.060801 -0.105742 0.283319 0.174749 -0.189362 0.025417 0.052981 0.139378 -0.035719 0.004186 -0.286465 0.693717 -0.033476 0.096985 -0.446935 0.257835 -0.122857 0.144973 0.134721 0.638902 -0.061580 -0.208076 -0.226381 -0.270694 -0.076063 0.119776 0.235554 -0.231983 0.344631 0.231841 0.236919 0.138362 -0.050340 -0.169190 -0.176834 -0.096050 0.265540 -0.435294 -0.253479 -0.239831 0.020955 -0.144948 0.167651 0.014675 0.072822 0.312489 0.448233 0.201462 -0.068220 0.136336 -0.124154 -0.146830 0.416874 -0.099751 0.222430 0.449323 0.222071 0.267768 -0.252533 0.049450 0.297490 -0.154496 -0.088939 -0.060882 -0.067802 0.202752 0.070248 -0.090758 0.279045 0.391789 0.029092 -0.536191 -0.632804 -0.402624 -0.186047 0.059417 -0.300703 0.136722 0.167224 0.180656 0.316603 0.140360 -0.232072 0.203746 -0.052610 0.130084 0.192485 -0.115638 -0.192389 -0.160496 0.209710 0.341970 0.118899 0.054926 -0.255525 0.061238 0.271657 -0.606164 0.140360 0.042224 0.030893 0.120772 0.670840 0.562866 -0.235545 -0.064339 0.126585 0.565073 -0.323205 -0.383210 -0.063118 0.360708 -0.185908 0.045117 -0.263159 0.023901 0.061702 0.148482 0.059274 -0.179111 -0.557023 0.284346 -0.333179 -0.096190 -0.219823 -0.356189 0.230526 -0.377278 -0.321606 0.184415 -0.097683 0.355418 0.030785 -0.202971 0.286842 -0.206202 -0.035164 -0.493550 -0.184852 0.342750 0.574942 0.184259 0.530533 -0.085383 0.256348 0.195748 -0.167564 0.172773 0.514772 0.147298 -0.342268 -0.265845 -0.080516 0.016525 -0.199142
условие 0.095014 0.075469 0.109539 -0.154003 -0.065887 -0.295408 0.077553 0.004254 0.142385 0.177211 -0.041314 0.052586 0.206860 0.255885 -0.069157 0.025705 -0.131191 -0.091087 0.060129 0.079480 -0.300422 -0.192405 0.141200 0.354956 -0.140432 -0.135589 0.002629 0.470340 0.230807 0.054125 -0.285456 0.365424 0.257392 -0.203415 -0.463287 -0.560295 -0.206640 0.020819 -0.170062 -0.068985 -0.080582 0.477784 -0.139497 0.215488 0.112626 0.372464 -0.580023 -0.128889 -0.338577 -0.427101 0.151501 -0.073264 0.044385 -0.248498 -0.074886 -0.012134 0.392500 -0.305670 0.117285 -0.094584 -0.117769 -0.119675 0.154477 0.296766 0.244701 0.152985 -0.003393 -0.266657 0.269130 0.216057 0.036330 0.020591 -0.012315 0.424351 -0.263931 -0.020498 -0.046864 -0.137417 0.138771 0.371723 0.192528 -0.069731 0.095995 0.221586 0.161325 0.228196 0.382136 0.407706 -0.019633 0.323051 0.136814 -0.024127 -0.394053 0.210100 0.192945 0.374192 0.301551 0.012159 -0.355710 -0.197677 0.444296 -0.142808 -0.076148 0.412881 0.160369 0.006892 -0.345594 -0.205368 0.559340 0.037831 0.128469 0.121944 0.086296 -0.090662 0.365327 -0.262867 -0.069434 0.222806 -0.243841 0.103797 -0.440989 0.009274 0.090661 -0.094030 0.069403 0.125379 -0.216248 -0.295018 -0.312162 0.026402 -0.450337 -0.194227 -0.272046 0.078285 0.006737 -0.265020 -0.053507 -0.017317 -0.016787 -0.059655 -0.241482 -0.339922 -0.242099 0.410962 0.022315 0.175125 -0.082384 0.391763 0.176173 0.346058 -0.499208 -0.416144 0.086549 0.303356 0.016138 -0.075754 0.208099 -0.234594 -0.245063 -0.302811 0.550869 0.103523 -0.258220 0.411112 0.394087 0.120064 -0.061572 -0.332698 -0.418842 -0.117788 0.304447 0.190674 -0.532090 0.255418 0.456006 0.147720 0.046759 0.107818 0.428244 -0.261650 0.026196 0.210802 -0.045446 0.211788 0.076888 0.539407 0.182913 -0.005553 0.122462 -0.232291 0.015063 -0.007413 0.117924 0.164077 0.356081 0.035468 0.518480 0.222574 0.250207 -0.023146 0.367054 0.010179 0.242497 0.130359 -0.641448 -0.077439 -0.419937 0.143949 0.043475 -0.135881 0.207613 -0.101819 -0.040982 -0.011645 0.214268 -0.090826 -0.435551 0.491469 -0.867454 0.127075 -0.341179 0.199401 -0.246007 -0.487361 -0.368966 0.063337 -0.270405 -0.045798 0.390982 0.109594 0.315873 -0.103569 -0.080282 0.159604 -0.075523 -0.262740 0.161646 0.188582 -0.152239 0.036640 0.162266 0.025999 -0.240145 -0.041761 0.134922 0.369541 0.161009 0.177970 0.085771 -0.315970 0.142339 0.136108 0.232798 0.049486 0.158275 0.221978 -0.110918 -0.298377 -0.270951 -0.129216 -0.489497 0.283489 -0.197796 -0.017182 -0.024051 -0.346554 0.228990 -0.069528 0.181864 -0.467775 0.137287 -0.177449 -0.168910 -0.066230 -0.132840 -0.186179 0.314834 0.109225 0.063107 -0.760154 0.216010 0.129271 -0.219176 -0.019017 0.233162 0.340085 0.195893 0.351068 0.018570 0.144970 0.456663 -0.415645 -0.068974 -0.389780 -0.096262 -0.027993 0.156509 -0.134158 -0.288733 0.262761
быть 0.253791 -0.432286 -0.435210 0.226345 -0.348841 -0.467087 -0.340513 0.330701 0.120548 0.500821 -0.024446 -0.091684 0.282914 -0.443922 -0.368381 -0.207644 -0.348457 0.219710 0.155199 -0.360065 0.295817 -0.228603 -0.187743 0.417698 0.047234 -0.294797 0.238131 0.547203 0.196192 0.033577 -0.049378 -0.352698 0.354748 -0.161155 0.007220 -0.226822 0.143333 -0.083078 -0.176970 0.064967 0.248171 0.116739 -0.021607 0.343953 0.071482 -0.051326 -0.042298 -0.246854 -0.058094 0.219284 0.166125 -0.296614 0.824540 0.120964 0.138417 0.258545 0.082495 -0.095383 0.032838 -0.053533 -0.216462 -0.308915 0.166240 0.067262 0.453565 -0.162862 0.423996 0.072870 -0.033982 -0.069684 -0.019118 0.086432 -0.003481 0.424951 0.267465 -0.108771 0.556314 0.090424 0.099765 -0.267059 0.308778 0.291864 0.075534 0.027857 0.072600 0.258067 0.118925 0.377151 -0.162597 -0.335697 -0.142201 0.075615 -0.201165 0.424064 0.198158 0.188718 0.442641 0.035073 0.209062 -0.142944 0.246032 -0.140301 0.062653 0.137651 -0.130459 -0.194697 0.166523 0.135138 -0.164040 0.131137 -0.236126 0.375146 -0.064816 -0.130522 0.238380 0.208283 0.108620 -0.029016 -0.364278 -0.212486 -0.292978 0.185019 -0.227978 0.515318 -0.054777 -0.106372 0.090423 -0.417430 0.097726 -0.264786 -0.427199 0.025872 -0.139856 -0.079472 0.063567 0.186665 0.016441 0.147047 0.411500 -0.129401 -0.540586 -0.142370 -0.166384 0.163613 0.786114 -0.140971 -0.127490 0.347827 0.192903 0.274928 0.056338 0.201450 -0.166293 -0.132943 -0.005727 -0.601638 0.337735 0.075468 0.289585 -0.503792 0.349536 0.360734 -0.639238 0.065013 0.407562 -0.141808 0.206298 -0.005226 -0.264756 0.319440 -0.088343 0.080308 -0.894923 0.460491 -0.169049 0.023783 0.565259 0.229012 0.431711 0.025982 -0.163772 0.259617 -0.119443 0.174114 -0.081126 0.239258 -0.371772 0.278798 -0.187426 -0.209677 -0.084239 -0.002035 0.143387 -0.142513 0.296647 -0.041280 0.220599 -0.024597 0.271498 0.179911 -0.030415 -0.075277 0.540253 -0.305731 -0.484005 -0.033297 -0.237983 0.161175 -0.038705 0.387473 0.455863 0.086117 0.169471 -0.147537 0.024396 -0.658001 -0.312247 -0.063757 -0.229753 0.067608 -0.230188 0.005631 0.350991 -0.138612 -0.402878 0.009197 -0.272747 -0.179816 0.236723 0.481302 0.235494 -0.176806 0.221660 -0.038360 -0.142466 -0.451551 0.076314 -0.244407 0.039581 -0.273186 0.168228 -0.109441 -0.220974 -0.419131 -0.217906 0.129162 0.072592 0.240615 0.297434 -0.115648 -0.275809 -0.135144 -0.347863 -0.048978 0.227989 -0.127101 -0.128300 -0.335246 0.297784 0.236138 -0.199898 -0.426786 -0.413040 -0.081702 -0.410756 -0.211299 0.142689 -0.486933 0.036364 -0.120617 -0.519072 -0.049253 0.034335 -0.319626 0.306732 0.028848 -0.006054 0.572315 -0.060660 0.070360 -0.101610 -0.306931 -0.165362 0.521443 0.354129 0.441435 0.117671 0.108750 0.128819 0.556408 0.419509 0.113068 0.054937 -0.344037 0.174440 -0.212417 -0.459822 0.411665 0.061619 -0.172727
к -0.029139 0.578807 -0.003181 -0.540022 0.028234 -0.195055 0.447309 -0.084636 0.437714 -0.087013 0.395324 -0.352272 0.335439 -0.527440 -0.177276 0.022219 0.147266 0.072754 0.055029 0.148044 0.314101 0.250239 0.343512 0.363365 0.153541 -0.288995 0.467624 0.319385 -0.289788 -0.191972 -0.383363 0.363582 0.058726 0.275206 0.206973 -0.438414 -0.256791 -0.453993 0.086133 -0.111827 -0.481877 0.101386 0.074692 -0.261480 0.401185 0.331766 0.109459 -0.347684 -0.005776 -0.149195 0.481531 -0.441589 -0.513187 -0.103084 0.380625 0.290039 0.303045 -0.128796 0.622121 0.019023 0.045697 0.103310 -0.424015 -0.059826 0.187183 0.185682 0.244366 0.230420 0.058329 -0.100997 -0.092486 0.189306 0.056369 0.319869 -0.587560 0.075660 0.596747 -0.154172 -0.279244 -0.092835 0.507352 0.300147 0.100936 -0.118117 -0.242038 -0.114599 0.056932 0.448363 -0.403682 0.267091 0.550913 -0.410561 -0.141263 0.386430 0.615925 -0.289572 0.119121 0.185009 0.032931 -0.703192 0.583208 0.318258 0.073686 -0.336570 0.045983 -0.480904 -0.001136 -0.067592 0.728979 0.016594 0.555322 -0.107951 -0.275438 -0.282802 -0.128862 -0.370004 -0.313347 0.080809 -0.117989 0.314496 -0.106249 -0.400972 0.174051 -0.025934 0.159195 -0.210117 0.243658 -0.079944 0.030227 -0.222981 -0.199858 -0.105497 0.321943 -0.305211 -0.002794 -0.004100 -0.350870 -0.352253 -0.020604 -0.239446 0.278619 -0.108933 -0.562633 -0.378968 -0.152797 -0.027141 -0.312733 0.106383 -0.381577 -0.039848 0.103489 0.051108 -0.002616 0.327346 -0.756134 -0.354243 0.318201 0.076538 -0.370215 -0.308648 0.195082 0.173585 -0.419250 0.245507 0.648619 0.173400 -0.229976 0.284622 -0.009621 -0.100817 0.131953 0.302991 -0.267406 0.176674 0.462924 0.080410 0.592871 -0.157902 0.196761 -0.349392 0.212004 0.361726 0.080795 -0.014816 0.135004 -0.068462 -0.435853 0.060299 0.137278 -0.076619 0.056514 -0.809692 0.090267 0.117491 0.376040 -0.101334 0.269717 0.307913 0.599431 0.052296 0.291180 0.667310 0.049854 -0.208897 -0.123995 0.163522 -0.502505 -0.152468 -0.199220 -0.429582 0.670816 -0.016820 -0.375724 0.214987 0.152212 0.319011 -0.501001 0.199830 -0.258847 -0.062947 -0.162442 0.277848 0.017258 -0.009127 0.262138 0.249511 -0.092038 -0.061205 0.289599 0.188398 0.493025 0.239102 -0.154452 0.226783 0.048014 -0.192761 -0.217624 0.100650 -0.042781 -0.071805 -0.087664 -0.219461 -0.415412 0.521119 0.390190 0.134077 0.052948 0.131096 -0.020567 -0.088951 -0.203739 0.205786 -0.107798 0.120289 0.268703 0.487883 -0.388224 -0.824843 0.269878 -0.196975 -0.468792 -0.162179 0.204969 0.660327 0.095550 0.036916 0.046333 -0.011999 -0.055091 -0.367387 0.605253 -0.040131 -0.086822 -0.061278 -0.051605 -0.123829 0.158529 0.442423 0.122869 -0.409085 0.592077 0.186155 0.189007 0.153661 0.533392 0.488186 -0.054778 0.377385 -0.041055 -0.004053 0.242032 -0.286819 0.035112 0.309126 -0.129288 0.384237 -0.630112 -0.095653 -0.333970 -0.284204
инфляционный 0.055444 -0.166186 -0.168158 -0.466002 0.186746 -0.097434 -0.407367 0.011908 0.113580 0.265229 -0.103272 -0.053963 -0.043840 -0.017929 0.048782 -0.271130 -0.057935 -0.100156 -0.369881 -0.185452 0.234930 -0.000554 0.050762 0.233922 0.035377 -0.687604 0.515461 0.780481 -0.076284 -0.456464 -0.394991 0.294324 0.314182 -0.183533 0.151334 0.260551 -0.138359 -0.136517 0.313050 -0.185328 -0.337273 0.226770 0.027425 -0.283646 0.006597 0.194552 0.065703 -0.360228 0.028250 -0.105205 -0.145041 0.017667 -0.166015 -0.327971 0.150414 -0.022162 -0.086727 -0.119610 0.157358 -0.152046 -0.110349 -0.430347 0.011799 0.355832 -0.260120 0.335414 0.157605 -0.152780 0.008413 0.243543 -0.295682 -0.071805 0.201957 0.529906 0.147820 -0.407784 0.368795 0.033600 -0.119506 -0.300465 0.098123 0.217179 0.208769 0.313850 0.091071 0.010222 0.008669 0.114556 0.123348 -0.095900 0.371877 0.001608 -0.221106 0.532717 0.280708 -0.363695 0.177167 -0.139973 0.359497 -0.080758 0.099689 0.274744 0.135414 -0.157838 -0.098392 -0.127520 0.169314 0.302817 0.114816 0.065307 -0.181907 -0.122294 -0.415669 -0.400339 0.321676 0.385842 0.127618 0.408831 -0.318512 -0.044094 -0.517606 0.315147 -0.227139 0.015718 -0.038980 0.213921 -0.041762 -0.268100 0.239796 -0.109974 -0.017206 -0.046231 0.111470 0.021998 0.290334 0.079300 0.002686 0.074942 0.275758 0.274009 0.368049 0.228919 -0.285630 -0.109923 0.078020 -0.154011 -0.071686 0.180766 0.088401 0.062096 -0.274094 -0.166402 0.011787 0.097112 -0.226015 -0.645101 0.275481 -0.135130 -0.158067 -0.097127 0.531948 0.179657 -0.329523 -0.062748 0.161755 -0.043442 0.057713 -0.089517 -0.124062 0.263054 0.057924 -0.078783 0.153161 0.219566 0.187613 -0.401575 0.501304 -0.369731 0.234882 0.024830 -0.197450 0.200065 -0.078179 0.286228 0.198650 0.400459 -0.489600 0.115047 0.337341 -0.257760 -0.134315 0.073855 0.351315 0.178641 -0.280893 0.183439 -0.128216 0.310751 0.138759 0.108033 0.459846 0.436307 0.250786 0.153977 -0.190679 0.312612 -0.321426 0.013310 0.073152 -0.130505 -0.226218 0.279821 -0.089694 -0.152310 -0.061618 -0.251520 -0.070080 -0.388887 -0.258906 0.328990 -0.155311 -0.415397 -0.105159 0.188180 -0.335504 0.399742 0.153767 -0.132528 0.133474 0.270000 0.711281 0.025412 0.034797 -0.161291 0.087378 -0.051366 0.463303 -0.183753 0.204603 -0.115988 -0.233623 0.060942 -0.297164 0.633072 -0.045965 -0.218659 -0.197155 0.412732 0.136079 -0.334446 -0.106928 0.259505 -0.149530 -0.211139 -0.282426 0.078728 -0.244002 -0.196187 -0.043416 -0.215590 -0.177943 0.012743 0.147889 -0.121456 -0.117262 0.046843 0.594782 -0.045537 -0.217563 -0.239176 -0.334208 0.009404 0.309213 -0.222272 -0.242951 -0.454113 -0.254119 -0.248066 -0.002945 -0.121569 0.328052 -0.021409 -0.212893 0.117496 -0.098202 0.134359 0.616480 0.236913 0.031791 -0.274597 0.202901 -0.161894 0.282404 0.338330 -0.013955 -0.242640 -0.339721 -0.255804 -0.142276 0.075912
годовой 0.116872 -0.167922 -0.197187 -0.243782 0.205444 -0.324942 -0.341926 0.151099 0.761719 0.237962 -0.254126 -0.234696 0.262483 0.004669 0.174213 -0.377140 0.224176 -0.078778 0.040195 -0.098504 0.060526 0.054252 -0.217964 -0.159788 -0.358129 -0.545682 0.199886 -0.119974 -0.300229 -0.745668 0.060104 0.508474 -0.114912 0.155193 0.009782 -0.409299 -0.205015 -0.196883 -0.042907 -0.250094 0.157226 0.094878 -0.124335 0.074508 -0.237313 -0.019481 -0.046791 -0.137769 0.225395 0.068411 0.156749 -0.413394 0.170997 -0.232323 0.339996 0.040106 -0.101334 0.068447 0.171337 -0.087538 0.185660 0.260900 -0.122178 -0.069949 -0.069979 0.095422 0.294733 0.021083 -0.118175 0.259197 0.154914 -0.110860 0.380311 -0.145604 -0.039111 -0.096328 -0.010641 -0.279082 -0.076959 -0.145901 0.462078 0.126716 -0.104469 -0.412398 0.251671 -0.045137 -0.216006 0.199484 0.118383 0.258884 0.067237 -0.112475 0.228860 0.388142 -0.002830 0.127533 0.030239 0.007627 -0.440659 -0.128680 -0.040386 0.003096 0.135906 0.452137 0.229584 -0.616786 -0.026038 0.067683 0.466062 0.236649 0.321865 -0.404215 0.012673 -0.494804 0.272772 0.366176 0.094851 0.072469 0.047525 -0.003805 -0.109434 0.271742 -0.205599 0.040447 0.463893 -0.106512 -0.037496 -0.321183 -0.260417 -0.450072 -0.526968 -0.010990 0.278483 0.765333 -0.200153 0.026541 -0.520889 0.064376 0.230989 0.145020 -0.023915 -0.138894 -0.210508 -0.227154 0.130622 0.202077 0.161087 -0.077613 0.028113 -0.166453 0.280814 0.111290 -0.228301 -0.067297 -0.125221 -0.684156 0.350487 0.254387 0.096969 -0.351748 0.174536 0.184741 -0.043245 0.087140 0.610230 -0.270010 0.288812 0.036314 -0.193410 -0.061003 0.504546 0.178442 0.099874 0.235113 0.167429 -0.065133 0.001957 -0.021822 0.324617 -0.200380 0.690034 0.134867 -0.116890 0.050541 -0.168143 0.316669 -0.128730 0.451199 -0.199778 -0.059768 0.084976 0.214107 0.399797 0.140223 -0.276809 0.005527 -0.084585 0.436976 0.297643 0.025099 0.508215 0.047722 0.107480 -0.376249 -0.260348 0.029806 -0.287107 0.020190 0.292820 -0.418807 0.008055 -0.181883 -0.143848 0.266953 -0.223413 0.105749 0.145560 -0.033165 -0.238398 0.206495 0.087896 0.076390 0.248952 -0.120196 -0.153393 -0.025800 0.147844 0.043454 0.310988 0.063373 0.192081 0.444794 0.188550 0.297007 -0.082818 -0.129677 0.303664 0.067666 0.172254 -0.559888 -0.301624 0.143039 -0.696423 0.295316 0.345451 -0.352214 0.385683 0.591116 0.288941 -0.300060 -0.075610 -0.418852 0.417448 0.049137 -0.100371 -0.159806 -0.153665 0.029258 0.217769 -0.131438 -0.104781 0.275965 0.164044 0.020978 0.199137 -0.568517 -0.327079 -0.365970 0.319351 -0.183310 0.301105 0.044390 -0.259287 -0.266889 0.476281 -0.152661 -0.241982 0.340039 -0.239585 0.010667 -0.086366 0.241618 -0.186175 0.034715 0.091117 0.561402 -0.208564 0.348865 0.002825 -0.053322 0.535927 -0.187761 0.306308 -0.197830 0.218118 -0.414275 -0.261296 0.155241 -0.061012 -0.150450
динамика 0.314843 -0.624995 -0.280782 -0.004846 -0.282150 -0.182323 -0.708755 -0.189335 0.340773 0.528530 -0.137658 -0.701985 -0.186307 0.117986 -0.141988 -0.137521 -0.321066 -0.041063 -0.003002 -0.585886 0.334302 0.108453 -0.087765 0.761914 0.026898 -0.191245 0.360678 0.579267 0.186692 0.283314 -0.254567 -0.373900 0.221141 0.166613 -0.412113 -0.131483 0.052367 -0.151180 -0.004385 0.387041 -0.246176 0.483318 -0.068124 0.484335 0.043252 0.462307 -0.026930 0.139850 -0.323323 0.133319 -0.006894 -0.193771 0.259454 -0.313286 0.440270 -0.082322 -0.056285 -0.111591 0.248196 -0.071801 -0.283967 -0.010291 -0.465022 0.146477 -0.095655 -0.228301 -0.099975 -0.031367 0.074298 0.349633 -0.173538 0.184169 0.045210 0.127444 0.264409 -0.180865 -0.228576 -0.366513 0.282236 -0.155848 0.224787 0.252345 -0.060168 0.065395 -0.251057 -0.204074 0.058348 0.168942 -0.074666 0.058219 0.077546 0.042042 -0.127017 0.214395 0.063181 0.075130 0.261775 0.548233 0.070022 -0.438638 0.328622 0.045222 0.165512 0.567846 -0.135240 -0.462867 0.085485 0.654303 0.135714 0.241328 -0.192065 0.332706 -0.154844 -0.112334 0.491617 0.349867 0.004114 0.270701 -0.204419 -0.254643 -0.177904 -0.098918 -0.031249 -0.192970 0.039593 0.206705 -0.195719 -0.146876 0.003096 0.211724 0.045153 -0.230484 -0.319185 0.359125 0.145295 -0.079273 -0.336684 -0.057434 0.104126 -0.235327 -0.050241 -0.089297 -0.183759 0.138687 0.494422 -0.014198 0.244896 0.331754 0.207028 0.461825 0.297961 -0.393789 0.110428 0.044516 -0.071025 -0.274496 0.329737 -0.037559 0.137315 -0.487743 0.116173 0.059994 -0.336401 0.196898 0.941534 -0.249002 0.034961 -0.289878 -0.603108 0.436066 0.070175 0.051405 -0.684378 0.438291 0.192980 -0.166345 0.346084 0.143047 0.258115 -0.024019 -0.121999 -0.136567 -0.279423 -0.128229 -0.208572 0.138946 -0.034423 0.216627 -0.056913 -0.322138 -0.050408 0.589127 0.129783 -0.414977 -0.025188 -0.572101 -0.022216 0.026110 -0.001202 0.278672 0.380687 0.226993 0.442301 -0.042518 -0.141067 0.104905 -0.160505 -0.073322 0.084564 -0.447872 0.381484 -0.076813 -0.316118 -0.018928 0.519183 -0.102936 -0.260442 0.156406 0.091287 0.238765 0.200907 -0.142604 0.112910 -0.093147 0.088967 0.316750 0.135761 -0.243928 -0.067424 -0.387317 -0.032192 0.033416 0.232261 0.401235 0.141722 -0.161332 -0.188488 0.314356 0.287593 -0.306041 -0.167944 0.156251 -0.554021 -0.137340 -0.233755 0.392416 -0.044385 0.425837 0.034330 -0.583278 -0.072999 -0.252241 -0.164764 -0.346863 0.176741 0.042331 0.544629 -0.028515 0.196548 -0.131006 0.264340 0.032438 0.079620 -0.076340 -0.152327 -0.239008 0.169501 -0.311281 -0.450726 -0.370333 -0.214191 0.286752 0.010754 0.180818 0.283479 -0.207161 0.060552 -0.007252 0.081826 0.350540 -0.256385 -0.087597 0.151547 0.106697 0.261268 0.704860 0.116208 0.040775 0.313755 0.537611 0.613105 -0.395904 0.100864 0.084618 0.035433 0.216890 -0.018880 0.384029 0.230713 -0.285920
кредитный 0.374449 0.288298 0.298810 -0.115119 -0.056780 -0.253847 -0.010011 -0.102846 0.267065 -0.067856 -0.243317 0.000023 0.299002 0.222654 0.005665 -0.226747 -0.138871 -0.340206 0.207522 0.091955 -0.385350 -0.171563 0.019276 0.395684 -0.253785 -0.097646 -0.050682 0.233997 -0.114773 0.012502 -0.156599 0.621948 0.156541 0.373528 -0.259463 -0.390495 -0.392670 -0.224490 -0.038055 -0.113976 0.025921 0.299463 -0.041935 0.530378 -0.054487 0.125398 -0.150464 0.074817 -0.107777 -0.205949 0.356711 0.240664 0.390082 -0.071870 0.264412 -0.158067 0.211236 -0.248647 0.265824 -0.108078 0.152145 0.088501 -0.087059 0.097551 0.186255 0.202753 -0.077969 -0.093228 0.220662 -0.168481 -0.482385 -0.056933 0.389253 0.098644 -0.232198 -0.111675 0.006149 -0.040066 0.227747 0.365883 0.007858 -0.178340 -0.165267 0.173740 0.447675 0.333992 0.005857 0.570856 -0.480769 0.264667 0.127892 -0.106658 -0.578102 0.391863 0.234651 0.182525 0.219009 -0.214384 -0.329146 0.080149 0.012872 -0.171202 -0.026173 0.212913 0.142619 -0.157431 -0.260552 -0.365414 0.400410 -0.169296 0.602121 0.170200 -0.008099 -0.275481 0.413910 -0.172445 -0.426372 0.015832 -0.121141 0.141704 -0.441707 -0.033880 0.016061 0.066071 0.213932 -0.106553 -0.098977 -0.401408 -0.499065 -0.048818 -0.648362 -0.095575 -0.144851 -0.152223 0.048716 -0.412939 -0.179155 0.067508 0.350765 -0.302036 -0.208713 -0.698230 -0.016528 0.165174 -0.046002 0.339803 -0.178494 0.373300 0.080434 0.033671 -0.337871 0.251886 0.023315 0.566535 0.101831 -0.201778 0.198405 -0.100151 -0.025388 -0.182727 0.431018 -0.163153 0.071684 0.289619 0.081498 -0.171114 -0.318809 -0.034485 0.024045 0.228438 0.324460 0.333229 -0.271585 0.390315 0.067763 0.304525 0.040389 0.494896 0.575521 -0.292408 0.238226 -0.128792 0.087784 0.297030 -0.021459 0.476676 -0.267774 0.250503 -0.009172 -0.423680 0.059204 -0.250645 0.164649 0.135315 0.087590 0.240553 0.122725 0.202960 0.698086 -0.214374 0.376930 -0.180025 0.402358 -0.001059 -0.705837 -0.657063 -0.337773 0.338836 -0.167946 -0.224882 -0.072778 0.153532 0.096733 0.515615 -0.081191 0.268790 -0.198748 -0.043290 -0.967646 0.324362 -0.113571 0.305754 0.132448 -0.561093 -0.311979 0.085188 -0.305903 0.208595 0.136701 0.293487 0.544899 0.153311 0.010368 0.216834 -0.249519 -0.382757 -0.023006 -0.232207 0.069712 -0.183967 0.313753 -0.285445 -0.518826 0.017327 0.293740 0.289504 0.199250 0.134717 -0.192234 0.059849 0.121349 -0.367803 0.110232 -0.092396 0.405659 0.040433 -0.062206 -0.758468 0.343721 0.139741 -0.837008 -0.059274 -0.033718 -0.102090 -0.101482 -0.382034 -0.181030 -0.014316 0.108509 -0.331792 -0.004771 -0.228297 0.216545 -0.376523 0.141530 -0.125422 0.125636 0.518087 -0.062241 -0.632341 -0.322708 -0.023969 -0.044620 0.009445 -0.038712 0.491610 -0.032948 0.386832 0.036060 -0.188068 0.582542 -0.252916 -0.278061 -0.365530 0.101633 -0.041825 -0.293889 0.126417 -0.235272 0.054496
уровень 0.130591 0.149587 -0.500275 -0.399253 0.338551 -0.462575 -0.247554 0.000159 0.726635 -0.021629 0.331913 -0.329188 0.002803 -0.326003 -0.066774 -0.138579 -0.281063 0.488914 0.304678 0.091922 0.207590 -0.314419 0.164931 0.099452 0.331742 -0.567969 0.520566 0.327441 -0.100218 -0.071366 0.026932 0.248395 0.243823 -0.130298 0.479910 -0.222402 -0.268127 -0.076342 -0.049983 0.084696 0.303435 -0.254758 0.077941 0.059806 -0.416401 -0.092598 0.058748 -0.378649 -0.011970 0.172779 0.329900 0.230549 0.377472 0.087215 0.213483 0.224608 0.040659 -0.227197 -0.274188 -0.056017 0.094290 -0.017312 -0.453611 0.047369 -0.108784 -0.112161 0.519506 -0.187602 0.180005 -0.043655 0.477659 -0.214365 -0.204978 -0.080115 -0.204322 0.043339 0.471712 0.109595 -0.225102 -0.014726 0.261323 0.143013 0.389887 0.126530 -0.171539 0.050277 0.104502 0.568138 0.371415 0.117885 0.061845 0.189674 -0.084537 0.173686 0.033349 -0.350158 0.447377 -0.014809 0.125989 -0.370438 0.454473 0.260226 0.068077 -0.067501 0.036100 -0.254710 -0.153677 -0.283054 0.163283 0.458805 0.104988 0.100996 -0.365164 -0.449584 0.410974 0.420810 0.063128 -0.123540 -0.190985 0.048771 -0.393156 0.231907 -0.039136 0.188614 0.136476 0.206550 -0.084890 -0.391984 0.292942 -0.218243 -0.347611 -0.136215 0.495034 0.161738 -0.041698 -0.119644 0.059011 0.114295 0.321595 -0.371677 -0.561453 -0.161172 0.189015 -0.453074 0.157202 -0.312663 -0.515382 0.333311 -0.153341 0.045945 -0.344844 0.271846 -0.470913 0.179257 0.083524 -0.618276 0.254063 -0.091059 -0.171794 -0.023659 0.249221 0.442095 -0.506321 0.378116 0.246406 -0.035664 0.007842 0.174568 -0.345959 -0.048235 0.059975 0.070975 -0.055682 0.443913 -0.370398 0.092173 0.563141 -0.378273 0.361704 0.090493 0.364984 0.212144 -0.210110 0.378679 -0.176085 0.036549 -0.252086 0.378236 0.118294 -0.050325 0.006449 -0.343993 0.005639 0.107770 0.116811 -0.030691 0.073283 -0.248591 0.157160 0.136685 0.468365 0.685419 0.157610 -0.433078 0.096883 0.081651 0.133339 -0.038219 0.340059 -0.032067 0.042764 0.345723 -0.071322 0.162069 0.126881 -0.207133 -0.244539 -0.169141 -0.193720 0.368951 -0.165399 0.114383 -0.237406 0.024595 -0.067879 0.490618 -0.035993 -0.155446 0.024626 0.284842 0.692812 0.217927 -0.160882 -0.074875 -0.013998 0.226522 0.077773 -0.157216 0.415451 -0.306917 -0.068132 -0.095224 -0.180169 0.196509 0.101986 -0.416799 -0.116238 0.185822 0.421228 -0.335295 0.177503 0.098440 -0.378693 0.298722 -0.106051 0.064003 -0.000123 -0.118227 0.025035 -0.206960 -0.342648 0.287334 0.076340 0.337596 0.001226 -0.356380 -0.089469 -0.387522 0.381144 -0.398609 0.088291 -0.010502 -0.024301 -0.363998 0.525909 -0.106447 -0.449837 0.361161 -0.104552 -0.230533 0.185970 -0.221698 0.207946 -0.018798 0.576739 0.325613 0.077771 -0.092583 0.779192 0.286808 0.370277 0.362278 0.181638 -0.005267 -0.034616 0.030400 -0.469522 0.088458 -0.245980 0.098093
экономика 0.017328 -0.195307 -0.220510 0.320107 0.168909 -0.022465 -0.043395 -0.278512 0.465114 0.113608 0.061986 -0.159420 -0.074363 0.336002 -0.204126 0.050133 -0.324526 0.108958 -0.123993 -0.157086 0.205386 0.067910 0.077816 0.376221 -0.076935 -0.442196 0.243950 0.627490 0.346322 -0.276036 -0.291617 -0.612910 -0.000453 0.303520 -0.346420 -0.174194 -0.072912 -0.561578 -0.383736 0.008244 0.063704 0.141482 -0.042537 0.185954 -0.138279 0.239392 -0.075148 0.086050 0.155626 0.014723 0.046479 0.405728 -0.024095 -0.685008 0.081554 0.000611 0.148136 -0.123233 -0.144669 -0.132975 -0.023896 -0.169448 -0.001381 0.226646 -0.323158 0.160001 -0.331757 -0.226071 0.410371 0.297312 -0.226886 0.015575 -0.070566 0.411354 -0.271415 0.032458 0.187602 -0.046566 -0.362923 -0.010186 0.178518 0.376888 0.377503 0.041620 0.358960 -0.065944 0.204984 0.228938 -0.055831 -0.299139 0.036299 0.026469 -0.225496 0.043083 0.008064 0.132555 0.365138 0.204393 0.235115 -0.302084 0.196669 0.250600 -0.379824 0.468153 -0.146596 -0.088418 0.200410 0.430088 0.114796 -0.462903 -0.314288 -0.055545 -0.297933 -0.454200 0.032582 0.076751 0.042791 0.268809 -0.081730 -0.113178 -0.121959 0.260880 0.290920 0.020538 0.150028 0.234891 0.027156 -0.043904 -0.436813 0.189558 -0.032380 -0.019337 -0.049902 0.069127 0.071525 -0.301235 -0.172475 -0.112697 0.081345 -0.349692 0.088378 -0.166222 0.195854 0.041929 -0.040708 -0.300483 0.308499 0.411488 0.110206 -0.070071 -0.001052 -0.014533 0.304828 0.325111 -0.171045 -0.213287 0.087350 -0.222915 0.235399 -0.216493 -0.014276 0.142488 -0.176378 0.386273 0.949319 0.012689 -0.142398 -0.076620 -0.298590 0.116721 -0.177812 0.615478 -0.280921 -0.075003 0.432362 0.099419 0.509167 0.166026 -0.048291 -0.216957 0.030345 -0.027443 0.098349 0.269160 0.063112 0.258382 -0.094178 0.077464 -0.113806 -0.354801 0.092018 -0.132101 -0.413629 -0.173178 0.133717 -0.545406 0.066779 -0.024840 0.610620 -0.063477 0.470537 0.198319 0.471624 0.186001 -0.381411 0.049575 -0.222211 0.393827 0.141120 0.252988 0.105932 -0.471247 -0.242370 0.329289 0.532850 -0.290336 -0.199201 -0.026688 -0.497455 0.056530 -0.341858 -0.033363 0.030763 -0.136026 0.194545 -0.189325 0.156456 0.205001 0.023619 0.349987 0.010507 0.249216 0.003553 -0.197626 0.066728 0.025784 -0.032757 0.259179 0.084199 0.017507 0.246779 -0.127831 -0.481315 0.113273 0.006075 0.110550 -0.191724 0.185792 -0.265027 -0.227035 0.607080 -0.149979 0.035880 0.219641 0.276877 0.119470 0.379291 -0.481277 -0.273104 -0.096878 0.284649 -0.090596 0.130629 0.375193 -0.215244 0.138122 0.409888 -0.087830 0.059952 -0.364282 0.036484 0.100754 0.180745 -0.319585 0.152862 -0.273739 0.191477 0.057216 0.033691 -0.236242 0.152258 0.041584 -0.202676 -0.190833 0.384458 -0.130407 0.133960 0.041541 -0.069649 0.586010 0.060998 -0.187966 0.086730 -0.220870 -0.083598 0.031942 -0.099983 -0.058964 -0.325202 0.245525
рынок 0.419724 0.245189 0.283248 -0.035594 0.048384 0.127394 -0.200980 -0.123787 -0.068265 0.315909 -0.504074 -0.120066 0.486720 -0.032303 -0.074460 -0.496528 0.103330 -0.077411 0.198416 -0.032521 -0.203159 -0.203608 -0.363660 0.029585 0.027407 0.365340 0.114061 0.186428 -0.009244 -0.246123 -0.062150 -0.267889 0.026508 0.024727 -0.542586 -0.508154 -0.181858 -0.058458 0.271837 0.431892 -0.451917 0.037946 -0.126451 -0.023205 -0.068237 -0.058543 -0.333150 0.091618 -0.097232 -0.007458 0.302616 0.342061 -0.084099 -0.290253 0.032769 0.083039 0.101733 -0.063610 0.333463 -0.434620 0.640088 0.151183 0.049248 0.462208 -0.198401 -0.106701 -0.073747 0.029421 0.074376 0.079540 -0.133914 0.121551 0.444438 0.216338 -0.210860 -0.193151 0.370160 -0.127515 -0.068471 0.345679 0.012950 -0.137365 -0.104087 -0.129415 -0.190736 -0.303957 0.117928 0.433781 0.135415 -0.069167 0.311186 -0.208555 -0.378988 0.006748 0.126638 0.060783 0.032297 -0.032976 0.348166 -0.182353 -0.044589 -0.001873 0.132351 0.278263 0.196263 -0.128763 -0.120474 0.056546 -0.016850 0.392031 0.168210 -0.301890 -0.255308 -0.416075 0.381529 0.092992 -0.182624 0.028017 -0.079537 0.038427 -0.237298 0.274536 -0.029631 -0.457939 -0.228364 0.325284 0.260835 -0.326942 -0.245936 0.214692 -0.236363 0.065902 -0.134081 0.174767 0.104033 -0.653144 -0.149671 0.099855 0.220233 -0.283379 -0.078434 -0.252525 -0.268645 0.338648 0.306674 0.262356 0.085155 0.304527 0.031602 -0.119323 -0.328907 -0.038957 0.092966 0.002863 0.189638 0.051161 -0.022458 -0.551507 -0.114830 0.226559 0.549969 -0.069759 0.037840 0.428864 0.670077 -0.140477 -0.385632 -0.259058 -0.044417 0.201088 -0.311364 0.297986 0.016362 0.351613 0.416156 0.144771 -0.000034 -0.233386 -0.028803 0.099320 -0.231599 0.236463 -0.151777 0.055299 -0.319117 -0.092844 -0.239262 0.113160 0.037147 -0.364302 0.064941 0.285794 0.153556 0.527454 0.597493 -0.041516 0.050084 0.317268 0.036910 0.296636 0.247653 0.168269 -0.126265 0.068929 -0.488882 0.355530 -0.150086 0.310781 0.044939 -0.062535 0.203531 -0.191557 0.178415 0.343282 0.059160 0.040279 -0.629887 -0.255613 -0.578320 -0.021052 -0.065432 -0.006739 -0.301102 -0.041373 -0.146334 0.146032 -0.092877 -0.070148 0.036499 -0.329153 0.430246 0.051347 -0.546134 0.027905 -0.105336 0.203200 -0.145471 0.278475 -0.029783 -0.160844 -0.068549 -0.123517 -0.457897 0.046181 -0.308794 0.455643 -0.430710 -0.071536 0.436255 -0.045870 -0.071376 -0.015089 0.276497 -0.018194 -0.516057 0.117929 0.435179 -0.220787 -0.045836 0.356536 0.308474 0.376781 -0.176278 -0.099920 -0.275609 -0.091994 0.408300 0.189277 -0.216384 -0.307424 0.208601 -0.137113 0.104723 -0.266872 0.212057 -0.380446 0.264578 0.289175 -0.097538 -0.154176 -0.077634 0.335537 -0.363538 -0.026136 0.128300 0.029101 -0.088998 0.075117 -0.085762 0.229050 0.141620 -0.348117 0.347308 0.274799 -0.010143 -0.018966 -0.492750 -0.161641 0.015612 0.161014
до 0.192584 -0.016724 -0.222512 0.059631 -0.002557 -0.727728 -0.321240 0.337788 0.289109 -0.001795 -0.335178 0.083819 0.241384 -0.215405 0.154984 -0.634847 0.384657 -0.088008 0.278859 -0.117816 0.141677 -0.237232 -0.363949 0.099738 -0.070102 -0.549797 0.275138 0.121648 -0.347524 -0.744053 -0.249183 0.460490 -0.402645 0.088508 -0.049689 -0.379333 -0.057079 -0.356469 -0.141023 -0.060701 -0.178806 -0.271966 0.029206 0.269083 -0.224803 -0.153234 -0.149979 -0.386107 0.192957 0.234634 0.495074 0.176702 0.060984 -0.337366 0.639999 -0.052971 -0.397003 -0.269893 -0.238785 -0.090469 0.417175 0.225311 -0.017738 0.527041 0.179755 -0.138270 -0.020447 -0.148859 -0.191147 0.084568 -0.189924 0.107007 0.560183 -0.308817 -0.007081 0.272962 0.366408 0.093330 -0.248416 0.115733 0.329799 -0.352494 -0.008143 -0.297288 0.231939 -0.161268 -0.278764 0.100593 0.366905 0.039492 -0.013767 0.100811 0.119363 0.196569 0.000447 -0.571759 0.005173 -0.282912 -0.361170 0.361878 -0.423969 0.070988 0.235362 0.382701 -0.113434 -0.371706 0.147046 -0.002861 0.264796 0.365322 0.563179 -0.511842 -0.052595 -0.484301 0.045043 0.533668 0.118763 -0.114488 0.249385 0.337367 -0.066223 0.080450 -0.393650 -0.083845 0.506313 -0.225226 0.382230 -0.753344 0.117426 -0.015252 -0.352232 -0.091772 0.671128 0.315720 -0.025796 -0.034151 -0.487718 0.115140 0.492375 -0.362466 0.137304 -0.162191 0.324722 -0.125603 0.262253 0.275904 -0.090518 -0.229240 -0.037614 -0.176349 0.229104 0.285903 -0.105566 -0.411373 0.233960 -0.558040 0.121676 -0.057791 0.246311 -0.148739 0.184263 -0.031087 0.111617 0.051241 0.433617 -0.160387 0.016925 0.323138 -0.182819 0.050345 0.048687 0.016590 0.343190 0.076255 0.504173 0.451181 0.327301 -0.233169 0.288696 0.226091 0.429244 0.107698 -0.061298 0.063140 -0.113685 -0.164375 -0.010054 0.280784 -0.058508 0.023325 0.335734 -0.271284 0.286461 0.001734 -0.078443 -0.096255 -0.399975 0.503455 0.124598 -0.070950 0.394047 0.221134 -0.189862 -0.273160 -0.117910 -0.151980 -0.118639 -0.080275 -0.018094 -0.099388 -0.384040 0.349965 -0.114829 0.450406 0.014629 -0.095483 -0.152743 -0.495553 -0.137656 0.176105 0.168546 -0.050093 0.065882 -0.317671 0.383750 -0.180282 -0.103939 0.342076 -0.516171 0.089748 0.524153 0.315352 0.099011 -0.027550 0.092336 0.107791 0.011812 0.168820 -0.034750 -0.458953 0.246273 -0.182163 -0.544743 0.215299 0.237502 -0.568473 -0.035065 0.248127 0.453125 0.099259 0.001218 -0.174206 0.074308 -0.049065 -0.342350 -0.318008 0.040056 -0.260783 0.388543 0.032936 -0.159373 -0.064261 0.040988 0.123809 0.335536 -0.258472 -0.114284 -0.182113 0.233953 -0.141293 0.283139 -0.653937 0.271030 -0.262133 0.582635 -0.043501 -0.229141 0.344898 -0.123696 -0.210954 -0.131929 0.247804 -0.109124 -0.167670 0.250971 0.179033 -0.272143 0.007989 -0.521162 -0.052204 0.252758 -0.014706 0.854460 0.095261 0.275683 -0.533428 -0.466701 0.420105 0.201546 -0.181253
темп -0.009939 -0.095157 -0.522395 -0.282428 0.049556 0.059447 -0.088920 -0.021271 0.660423 0.640221 -0.018411 -0.055830 0.123580 0.144987 0.019036 -0.300577 0.338087 -0.097940 0.073426 -0.119766 0.161804 -0.110812 0.109344 0.212120 -0.339923 -0.242213 0.297670 -0.223938 -0.154797 -0.403534 -0.083727 0.050065 -0.249696 -0.206129 -0.008815 -0.445297 -0.141990 0.094968 -0.235453 -0.349149 -0.191901 0.154124 -0.236445 0.018867 0.005034 -0.209202 0.148732 -0.319817 0.485220 0.077314 -0.050077 0.079188 -0.078574 -0.412633 0.142052 0.121532 -0.253856 -0.007225 -0.227869 0.087597 0.106512 -0.119195 -0.134269 -0.020885 0.094801 0.396522 -0.241155 -0.159319 -0.180396 0.342467 0.225686 0.027408 0.369822 0.303026 -0.126747 0.004618 0.448995 0.015883 -0.403567 0.101956 0.282161 0.230214 0.396153 -0.071930 0.218131 0.168863 -0.044615 -0.092300 0.257701 -0.002978 -0.442584 -0.121789 0.187478 0.212642 0.129628 0.103900 0.234564 0.190545 -0.148288 0.094645 0.112315 -0.020737 0.237323 -0.042605 0.076764 -0.356252 0.013823 0.544992 0.060584 -0.089652 -0.168002 -0.710815 0.106766 -0.542318 0.145613 -0.126857 0.435501 0.340079 0.191568 0.491520 -0.032619 0.210191 0.406804 0.532163 0.346726 0.048709 0.103140 -0.158591 0.034121 -0.260687 -0.474560 0.076744 0.462867 0.202339 -0.376245 0.118149 -0.297455 0.025953 0.060290 0.006166 0.050039 0.172990 0.152150 0.026419 0.011975 -0.010869 -0.174285 0.070731 -0.077153 0.092959 0.375597 0.215969 -0.025117 -0.096716 -0.147725 -0.292987 0.686075 0.248371 0.136269 -0.437629 0.067916 -0.057953 0.038261 0.527843 0.693039 -0.125551 0.119983 -0.051404 -0.302454 -0.318662 0.148681 0.419329 -0.280757 -0.052959 0.394483 -0.029623 0.084714 -0.067983 -0.138419 -0.447036 0.400301 -0.023201 -0.248296 -0.041156 0.089501 0.205917 -0.108841 0.225783 0.038897 0.109384 0.186117 -0.135951 0.226886 -0.063551 0.052854 -0.254152 -0.122810 0.302912 0.561660 0.354048 0.309047 -0.010087 0.212170 -0.131031 0.138348 0.375758 -0.271098 0.160153 0.024319 0.100192 0.132695 0.149547 0.231088 0.223340 0.231056 -0.441029 -0.024218 -0.261597 -0.329358 -0.151668 -0.052718 -0.007412 0.432810 0.114788 0.013675 0.142070 -0.077883 0.256977 -0.037091 0.323422 -0.121560 0.230384 0.179113 -0.314404 0.160565 -0.323333 0.292884 0.279772 -0.016411 -0.302696 0.050103 0.412307 -0.451486 0.280418 0.108443 -0.264717 0.185372 0.351155 0.493033 -0.032504 -0.116206 -0.032368 0.482285 -0.177250 -0.082048 0.160927 -0.200975 -0.057050 -0.131316 -0.200456 -0.040169 -0.076090 0.086720 0.228809 0.124566 -0.454731 -0.155515 -0.406798 0.200589 -0.426321 -0.059597 0.065785 -0.288750 -0.595272 -0.087983 -0.407680 0.069143 0.078902 -0.223972 0.039790 -0.089623 0.269392 -0.102475 -0.039348 0.651332 0.127285 0.049478 0.701860 0.266451 0.114166 0.287649 0.058289 0.180228 0.317034 0.008400 0.051124 -0.281046 0.070668 -0.099452 0.243512
ожидание -0.113349 -0.224826 0.158837 -0.632672 -0.000907 -0.186656 -0.281108 0.050557 0.126746 0.180951 -0.160730 -0.496956 0.033264 0.204513 -0.128280 -0.019130 -0.188265 -0.141993 -0.186772 0.154757 0.190050 0.265709 0.210877 0.482944 0.050468 -0.616572 0.418068 0.433615 -0.082309 -0.331721 -0.497068 0.415937 0.233414 -0.013052 0.172695 0.319359 0.001308 0.046130 0.435229 -0.134867 0.061543 0.120189 0.067474 -0.114010 -0.129933 0.217242 0.042545 -0.348122 -0.510936 -0.171157 -0.033546 -0.055892 -0.060349 -0.520308 0.315095 -0.006000 -0.084242 0.034064 0.026674 -0.333737 -0.203156 -0.186932 -0.159167 -0.004131 -0.476134 0.218587 0.218197 -0.206544 0.249710 0.116467 0.171519 0.009750 0.309493 0.577080 0.189654 -0.523369 0.225586 0.104456 -0.161682 -0.302411 0.325497 0.121633 -0.120004 0.020886 0.232659 -0.141284 -0.119618 0.029843 -0.214716 -0.017441 0.300142 -0.075988 0.077534 0.574179 0.116198 -0.372674 0.052427 -0.353925 0.429462 -0.477478 0.044627 0.166697 -0.053919 -0.059649 -0.040826 -0.190908 -0.015228 0.134762 0.165835 0.510665 0.036961 -0.009170 -0.704925 -0.405947 0.536296 0.248126 -0.085310 0.537711 -0.244646 -0.177782 -0.403287 0.063441 -0.272892 0.094922 0.130015 0.148533 0.024796 -0.279109 0.275605 -0.040285 0.006228 -0.122555 0.099022 0.339795 0.165083 -0.022643 -0.200286 0.000022 0.390602 0.126908 0.551586 0.045861 -0.157947 0.022103 -0.162391 -0.263400 0.059711 0.031310 0.125481 0.049139 -0.452758 -0.251510 0.006941 0.117224 -0.003149 -0.338984 0.199616 -0.223565 -0.135332 -0.278490 0.482720 0.267815 -0.284510 -0.018596 0.196720 -0.038177 -0.284612 -0.269312 -0.155904 0.342046 -0.002995 0.244596 0.517715 0.394344 -0.059913 -0.291954 0.322836 -0.375939 0.271279 -0.134033 -0.246236 0.160211 -0.211970 0.255577 0.023180 0.427061 -0.512243 0.203765 0.406626 -0.089437 -0.426278 -0.041749 0.607162 -0.023902 -0.418793 0.167232 -0.022868 0.013052 0.175442 0.029571 0.197613 0.508898 0.171331 -0.014298 -0.160541 0.239571 -0.436946 0.001459 -0.068544 -0.119507 -0.323442 0.211787 -0.179354 -0.166970 0.232282 -0.076504 -0.153844 -0.694374 -0.230458 0.274030 0.018522 -0.294045 0.256482 0.247465 -0.306464 0.761237 0.221083 -0.413748 -0.174429 0.032634 0.855727 0.017242 -0.114584 -0.042113 -0.060638 -0.161169 0.600817 -0.316217 0.327931 0.052182 -0.408076 0.164404 -0.201804 0.542089 0.053248 0.232626 -0.328011 0.074426 -0.167657 -0.338914 -0.045901 0.305730 -0.087773 -0.039166 -0.281227 0.000085 -0.174878 -0.342396 -0.002732 -0.293013 -0.116921 0.122319 0.280901 0.140094 -0.222092 -0.061314 0.567927 -0.141738 -0.249194 -0.351458 -0.432820 0.096243 0.286493 -0.177926 -0.056222 -0.488888 -0.146780 -0.208122 -0.189142 -0.001556 0.107401 -0.053263 -0.442624 0.115096 -0.148822 0.162242 0.558012 0.233037 0.103115 -0.305722 -0.093474 -0.285320 0.226342 0.717321 0.047693 -0.247907 -0.133497 -0.064354 -0.113033 0.243290
снижение 0.280656 -0.147314 -0.039746 -0.208631 0.166145 -0.408560 0.103767 -0.060060 0.415486 0.251496 0.073320 -0.128400 0.005579 -0.084307 -0.013484 0.112825 -0.333103 -0.068655 0.121078 -0.206152 0.172960 -0.376034 -0.044472 0.325558 0.045341 -0.184934 0.293543 0.419496 0.062551 -0.360889 -0.046623 0.234201 0.361953 -0.070559 -0.283985 -0.370897 -0.180587 -0.035001 0.074297 0.071336 0.016675 0.321725 -0.349724 0.337789 -0.190271 0.116794 -0.205703 -0.480392 -0.158778 0.092729 0.060203 -0.054038 0.004221 -0.560110 -0.022058 0.246079 0.387009 -0.006598 0.122003 0.207240 -0.342545 -0.035156 0.080968 0.182724 0.148921 0.442527 0.409729 -0.317161 -0.086152 0.014982 0.156012 0.143231 0.555502 0.122267 0.079846 0.025477 0.276100 -0.010379 -0.001287 -0.469896 0.163548 0.064551 0.054485 -0.106932 -0.080164 0.254735 0.118617 0.233926 -0.107216 -0.256737 0.040980 -0.019853 0.110098 0.161963 0.313720 0.296248 0.379755 0.214946 0.140729 0.173808 -0.220825 0.116547 0.087753 0.200777 0.117298 -0.163255 0.031237 0.247815 0.180843 -0.100835 0.412702 0.393538 0.180276 -0.167148 0.195030 -0.045537 0.167332 0.424275 0.116900 -0.056899 -0.353714 -0.191357 0.094402 -0.117231 -0.017822 -0.047197 -0.360352 -0.323080 -0.229703 0.045229 -0.313875 -0.074260 0.009887 0.082521 0.068016 -0.062512 -0.424275 0.362211 0.089892 -0.032446 -0.208835 -0.296317 -0.145503 0.090106 -0.087808 -0.160906 -0.144321 0.188028 0.174349 -0.210829 -0.041565 -0.119914 -0.108220 0.109826 -0.198099 -0.474447 0.237973 -0.320357 0.340853 -0.108781 0.122399 0.119668 -0.404771 0.082818 0.353861 0.029912 -0.101663 0.066895 -0.314133 0.251326 0.153644 -0.181054 -0.039884 -0.050428 0.538714 0.380340 0.432327 0.261874 0.209314 -0.158073 0.141718 0.066028 -0.161554 0.096952 0.268059 0.417215 -0.203690 0.193312 0.231628 -0.331313 -0.008603 0.450645 0.172739 -0.120837 -0.020902 0.131774 0.083171 -0.103648 0.102881 0.191745 0.233116 -0.293532 0.266418 -0.150541 -0.334938 0.045634 -0.564763 -0.236438 0.001934 0.104295 -0.011558 -0.108873 0.050973 -0.211394 0.274692 0.227177 -0.389325 0.025545 -0.498219 0.088938 0.123477 -0.198193 0.064861 -0.025986 0.131503 0.197120 -0.122894 -0.374671 0.303473 -0.056362 0.302182 -0.123971 -0.352162 -0.084479 -0.235818 0.053755 0.192694 0.192905 -0.182732 -0.642628 0.158043 0.085446 -0.440771 0.390984 0.370570 0.106291 0.232911 0.409921 0.457522 -0.108101 -0.320841 -0.197672 -0.046034 -0.187792 0.232086 0.204119 0.052156 -0.310302 -0.020630 0.195627 -0.127852 -0.329431 0.211075 -0.159216 -0.286559 -0.094647 0.661788 -0.483738 -0.209951 -0.034847 0.036164 -0.235610 0.295247 -0.268551 -0.308995 -0.475353 0.622628 0.429449 -0.274448 -0.314022 0.109974 0.136491 0.054917 0.337194 0.212505 0.522190 -0.134679 0.529923 -0.105060 -0.054175 0.398282 -0.336095 0.010982 -0.152270 -0.048567 0.226765 -0.108347 -0.221636 -0.328759 -0.308162
решение 0.967107 -0.231099 -0.461396 0.206282 -0.209229 -0.801663 -0.273580 0.198691 0.472611 -0.026064 0.211560 -0.128235 0.093815 -0.079591 0.083967 -0.396070 -0.551780 0.122743 -0.415706 -0.068070 -0.012663 -0.750060 -0.333718 0.312080 0.100818 -0.261060 0.435019 0.520161 -0.161823 -0.088618 0.134752 0.119431 0.064972 0.070574 -0.075854 -0.008230 -0.230804 -0.629866 0.042871 0.018634 0.117508 0.329617 0.096643 0.623173 -0.300309 -0.118554 -0.336712 -0.219976 0.105579 0.018628 -0.499499 0.064343 0.335647 -0.121396 0.139747 0.002776 -0.173313 -0.240262 -0.125398 -0.167480 -0.138976 -0.378763 0.799896 0.656026 -0.243254 -0.422382 0.111713 0.109532 0.035025 -0.007598 0.014588 0.269835 0.407743 -0.069084 0.113704 -0.171494 -0.175664 -0.210903 0.085844 -0.464675 0.267724 -0.028586 0.374837 0.209363 0.316790 -0.085588 -0.018831 0.223057 0.285398 0.084673 -0.073291 0.167233 -0.193939 0.433342 -0.103633 -0.474915 0.675180 0.408079 -0.226882 0.102109 -0.229160 0.169534 0.120571 -0.101624 -0.013923 -0.187916 0.016015 0.139081 0.053685 -0.134538 0.018503 0.184210 -0.303944 -0.231778 0.098175 0.271117 0.250889 0.101391 -0.377988 -0.497735 -0.449422 0.113170 -0.136632 0.032431 0.039056 -0.183820 -0.645374 -0.397513 -0.276215 -0.259382 0.098163 -0.364698 0.642574 -0.206694 0.147495 0.267397 -0.066481 0.294532 0.096931 0.046968 -0.083691 0.114908 -0.243870 -0.198009 0.187542 -0.186828 -0.078617 -0.428068 -0.124032 -0.459412 0.098874 -0.028658 -0.171955 -0.072869 0.007563 -0.159560 0.057894 0.146610 0.342254 0.007653 -0.134819 0.359850 -0.310234 0.038607 0.050234 0.131142 0.557784 0.743423 -0.286219 0.249464 -0.088817 0.124175 -0.303581 0.182520 -0.257349 0.318829 0.465341 -0.021791 0.759131 0.525525 0.295878 -0.304822 -0.032562 0.071400 -0.084088 0.566660 -0.152040 0.369663 0.014044 -0.074497 -0.001139 -0.133227 -0.146565 -0.152750 -0.492265 -0.141069 -0.130424 0.264272 0.246796 -0.139325 0.285676 0.310993 0.033651 -0.266299 -0.384163 -0.097218 0.156897 0.056380 -0.042783 -0.157273 0.382942 0.006930 -0.231002 0.258771 -0.249242 -0.024584 0.031705 -0.200921 -0.306266 -0.014240 0.046741 0.284408 -0.484028 -0.026671 -0.007303 -0.090654 0.054183 -0.036981 0.075019 0.343984 0.235766 -0.244826 0.128906 0.450350 0.381153 -0.105051 0.090416 -0.159971 0.140158 -0.450512 -0.330677 0.125385 -0.674272 -0.197745 -0.083060 -0.054220 -0.046525 0.360381 0.059924 -0.036824 0.647902 -0.566441 -0.513730 -0.343863 0.361974 0.150237 0.053991 -0.047712 0.914724 0.019225 -0.375908 -0.276605 -0.074000 -0.242243 0.185406 -0.041521 -0.389023 -0.349084 0.217170 0.427115 -0.099581 -0.193879 0.330686 -0.138856 0.170085 0.267077 -0.204122 0.177152 -0.105251 -0.143077 0.318355 -0.092712 0.337130 0.432275 -0.193532 0.070524 -0.231692 -0.435803 0.023958 0.248110 0.367114 -0.102873 0.102487 -0.185755 0.186482 0.090455 -0.733789 0.090230 -0.182198 -0.216086
потребительский -0.442950 -0.123848 -0.256556 -0.390746 0.123965 0.109832 -0.086966 0.414518 0.500601 0.777421 -0.189352 0.019129 0.075406 0.024499 0.325093 -0.083288 0.138185 -0.254616 -0.072306 -0.133780 -0.241024 0.093614 0.118285 0.276262 -0.317708 -0.201578 0.064446 0.162901 -0.111124 -0.496321 0.078862 0.184106 0.094372 -0.418158 -0.341932 -0.289970 0.320165 0.288962 0.234722 0.023666 -0.312126 0.266933 0.093080 0.273212 0.038899 0.160003 -0.039077 -0.319020 0.075562 0.156472 0.313691 -0.210982 0.212780 -0.354836 0.197006 -0.557725 -0.268424 0.080027 -0.300559 -0.111949 -0.003284 0.023429 -0.082113 -0.185407 0.491190 0.625462 0.152940 -0.290254 -0.150925 0.156271 0.290611 0.013333 0.045990 0.089197 0.029365 0.008185 0.202997 -0.066864 -0.034774 0.106553 0.644402 -0.040080 0.359419 0.037342 -0.150194 0.344230 0.052020 0.075547 0.037217 0.056350 -0.593749 -0.034884 0.436893 0.037855 0.193076 0.203624 0.030980 0.663538 -0.066408 0.274194 -0.032686 -0.207908 0.335305 0.291926 -0.014402 -0.264202 -0.071271 0.277856 0.147031 0.203000 -0.099510 -0.550952 -0.292434 -0.287917 0.050674 0.181042 -0.094950 0.751339 -0.233430 0.634452 -0.230465 0.122136 0.072352 0.232423 0.300579 0.221991 -0.105681 -0.274894 0.238902 0.167126 -0.444903 0.051822 0.141842 0.312644 -0.034731 -0.003657 -0.304050 0.096739 -0.335600 -0.104955 -0.230037 -0.068996 0.301560 0.115632 0.135937 -0.018411 0.046954 0.022333 0.273344 0.074433 -0.029627 0.210968 -0.193861 0.252282 0.009707 -0.288649 0.693646 0.045176 0.060534 -0.423408 0.200976 -0.005871 -0.223718 0.461212 0.571173 -0.163276 0.231785 -0.296329 -0.344804 0.053349 0.265822 -0.121929 -0.453122 0.207619 0.422194 0.002383 0.067209 0.004532 -0.011160 -0.190896 -0.030664 -0.131461 -0.189852 -0.116214 0.046957 0.155767 -0.103291 0.019321 -0.008894 -0.019255 -0.065687 0.276901 0.489130 -0.282059 -0.105796 0.109063 0.194619 0.164070 -0.020567 0.296386 0.205900 -0.033081 0.493145 -0.170640 -0.007090 -0.029753 -0.354191 -0.314416 -0.333140 -0.208318 0.116946 0.157072 -0.151120 0.180526 0.461773 -0.063171 -0.111471 -0.051757 -0.337417 -0.324393 0.022257 0.227917 0.326050 -0.108019 0.362966 0.142302 0.079516 0.177400 0.541515 -0.068453 0.192113 0.272853 -0.044317 0.112930 -0.112036 -0.138412 0.418175 -0.072499 0.162327 -0.568266 -0.285652 0.368186 -0.395865 0.022552 0.157040 0.035703 0.060441 0.196197 0.248268 -0.385736 -0.378320 0.030593 0.393316 -0.414105 -0.067148 0.176487 0.075754 0.076723 0.122234 0.209219 -0.039453 -0.199154 -0.118339 -0.076608 -0.048163 -0.452524 0.034357 -0.624090 -0.067399 -0.261767 -0.078623 0.075219 -0.232731 0.178019 -0.244538 0.064118 0.024039 0.100626 -0.008233 -0.004692 0.069440 -0.130474 -0.318251 -0.111527 0.549537 0.614748 0.006000 0.794833 0.080169 0.089909 0.454944 -0.086610 0.169485 0.332397 -0.223775 -0.137024 -0.333819 0.430479 -0.189190 -0.149625
денежный 0.273113 0.134083 -0.136060 -0.116836 -0.137086 -0.304744 -0.147032 0.068839 0.260397 -0.021661 -0.157541 0.040405 0.378582 0.156738 0.062588 -0.117580 -0.194512 -0.210975 0.055097 0.141070 -0.299025 -0.067895 0.112638 0.330254 -0.360192 -0.032425 0.062707 0.188969 -0.099525 0.064854 -0.010572 0.566393 0.077713 0.278217 -0.102421 -0.369079 -0.409860 -0.134380 -0.186226 -0.085456 0.083541 0.337446 0.072812 0.447562 0.002508 0.078854 -0.270460 0.128459 -0.020084 -0.276296 0.279144 0.080936 0.375916 -0.022276 0.314674 -0.008313 0.019084 -0.315571 0.254111 0.013868 0.208532 -0.004527 0.101194 -0.059556 0.166301 0.118718 -0.078010 0.030166 0.197362 0.079926 -0.575265 -0.186195 0.333447 0.255649 -0.210052 -0.111883 -0.003069 -0.094095 0.217168 0.328341 -0.040693 -0.005253 -0.068135 0.188216 0.501710 0.409728 0.011062 0.454596 -0.464100 0.144020 0.088666 -0.075589 -0.450281 0.516961 0.257280 0.201061 0.361537 -0.241075 -0.443554 0.043684 0.078234 -0.227426 -0.184259 0.007029 0.160723 -0.161614 -0.301554 -0.254457 0.410651 -0.262349 0.467442 0.036032 -0.062181 -0.120030 0.280117 -0.127687 -0.354885 -0.232928 -0.265640 0.093731 -0.266041 0.119001 -0.002609 0.384842 0.117151 -0.186156 0.005201 -0.363327 -0.362089 -0.186548 -0.417456 -0.137708 -0.129042 -0.109594 -0.074383 -0.217246 -0.263416 -0.024749 0.213849 -0.208489 -0.133254 -0.465529 -0.199150 0.052858 -0.007071 0.197385 -0.215571 0.320766 0.116175 0.176648 -0.166135 0.195472 0.143392 0.401453 -0.093803 -0.091680 0.220477 0.085876 -0.117571 -0.239313 0.421160 -0.146681 0.095726 0.274274 0.057755 -0.130388 -0.241917 -0.114835 0.066381 -0.063418 0.416705 0.430224 -0.256385 0.491051 -0.043384 0.335681 -0.017258 0.533932 0.481598 -0.234207 0.237617 -0.066549 -0.124329 0.133645 -0.029588 0.445642 -0.284859 0.274560 -0.070199 -0.214739 0.226915 -0.352416 0.268083 0.032667 0.085924 0.231459 0.114086 0.377749 0.714470 -0.265994 0.240269 -0.071447 0.383400 -0.018717 -0.608591 -0.484938 -0.196989 0.412246 -0.101044 -0.207698 0.103978 0.238036 0.226693 0.404139 -0.177601 0.005088 -0.132640 -0.065514 -0.825580 0.379705 -0.098105 0.166555 0.059588 -0.467867 -0.531008 0.096004 -0.275787 0.183761 0.165932 0.501380 0.219800 0.140155 0.226770 0.078467 -0.130769 -0.455220 0.138289 -0.257184 0.072388 0.135577 0.264644 -0.176153 -0.471208 -0.080507 0.191663 0.060002 0.176113 0.159115 -0.125667 -0.009181 0.254209 -0.263395 0.219844 -0.082282 0.358045 -0.069971 -0.286541 -0.607076 0.221851 0.072080 -0.725791 0.026661 0.001631 -0.090054 -0.086792 -0.468383 -0.211232 -0.066349 0.075254 -0.217790 -0.168415 -0.026419 0.079370 -0.376792 0.161841 0.017330 0.046374 0.374100 -0.134337 -0.460444 -0.435351 -0.028808 -0.080698 0.171502 -0.039034 0.410067 0.043556 0.390444 0.156927 -0.074651 0.581521 -0.199816 -0.311748 -0.364055 0.073920 -0.145029 -0.195765 0.069428 -0.122635 0.155424
также 0.031702 -0.327482 -0.291875 -0.166810 -0.250234 0.048925 -0.020725 0.311361 -0.242756 0.332913 -0.111730 -0.252896 -0.003333 0.062836 -0.122164 -0.120046 -0.124558 -0.195395 -0.154721 -0.101134 0.243180 -0.110551 -0.171355 0.068517 -0.069037 -0.134612 0.543472 0.528342 0.124983 -0.568631 -0.366442 -0.274739 -0.005695 -0.451358 0.067278 0.113725 -0.230565 -0.067576 0.187833 0.280956 -0.080133 0.382719 -0.205882 -0.017919 0.253760 0.229409 -0.338433 0.199198 -0.023710 0.200684 0.027996 -0.207699 -0.181390 -0.741668 -0.079651 0.007215 -0.465409 0.224406 0.216567 -0.525513 -0.007626 -0.009726 0.382890 0.343927 -0.454434 0.036763 -0.197351 -0.107796 0.296677 0.036581 -0.244091 0.117080 0.166681 0.639160 0.192662 0.027230 0.357302 -0.180313 -0.282114 -0.228657 0.038193 0.244979 -0.172796 0.096073 0.001529 -0.063628 0.592082 -0.099423 0.069568 -0.216352 -0.088497 -0.049897 -0.150449 0.302934 -0.073124 0.137121 -0.008238 -0.001655 0.300203 -0.118540 0.188467 0.207974 -0.241224 0.334937 -0.085865 -0.154275 -0.242018 0.280323 -0.002759 -0.144141 -0.251889 -0.081272 -0.101319 -0.035950 0.119412 0.286607 -0.103636 0.236430 -0.151166 -0.088981 -0.136113 0.301433 -0.074961 0.072119 0.090866 -0.194455 0.048118 -0.447438 -0.061239 0.326169 -0.089208 0.105496 -0.234745 -0.012196 0.134335 -0.171258 -0.190347 -0.151353 0.071272 -0.141949 -0.035124 -0.169100 0.233976 0.128609 0.202310 -0.079729 0.462207 -0.015174 0.326607 -0.111466 -0.153471 -0.254763 0.254884 0.135619 -0.038033 0.157424 -0.145134 -0.202089 0.128376 -0.188538 0.066420 0.438901 -0.328770 0.224107 0.418316 0.222043 0.035053 -0.030725 -0.307468 -0.144648 -0.274406 0.209238 -0.474266 -0.118637 0.185170 -0.305573 0.525843 0.083488 0.249147 -0.094520 -0.315898 0.109887 -0.064672 0.097176 -0.015926 0.363157 -0.066830 0.143714 0.002648 0.152308 0.257014 -0.146589 -0.149267 0.214798 -0.176589 -0.081495 0.124525 -0.109138 -0.068466 0.138793 0.262450 0.078524 0.121140 0.217134 -0.443423 0.359724 0.138061 0.229514 0.274840 0.163293 0.276252 -0.040049 0.016392 -0.476765 0.357665 -0.327402 -0.360077 -0.263331 -0.142047 -0.362908 -0.063107 -0.234478 0.193627 -0.060831 0.446717 0.008870 -0.033871 0.145724 0.187674 0.468281 0.322066 -0.115468 0.081430 0.112921 0.196991 0.071111 0.086524 0.462198 -0.040004 0.131386 0.076011 -0.206319 -0.549576 0.097909 -0.439581 0.178126 -0.015208 0.159019 -0.186411 -0.350710 0.302615 0.609412 0.034018 -0.344281 -0.026622 -0.070403 0.029373 -0.477596 -0.106415 -0.323428 0.189287 -0.029717 -0.186847 -0.070477 -0.277763 -0.046539 0.240794 -0.031258 -0.238750 0.031781 0.196296 0.282535 0.042488 0.164871 -0.218084 -0.096683 0.134747 -0.150420 0.098051 -0.054927 0.323156 0.033354 -0.241723 -0.118768 0.325066 0.217929 0.345096 0.025667 -0.044360 0.127130 0.415008 -0.348617 -0.247678 0.168810 -0.285155 -0.057195 -0.284575 -0.220224 -0.013346 0.053415
директор 0.899571 -0.277220 -0.083243 0.109849 -0.141930 -0.927241 -0.367956 -0.251828 0.360409 -0.090431 0.238192 -0.527594 0.623008 -0.325629 -0.332573 0.082345 -0.532713 -0.014347 -0.034608 0.040660 -0.261735 -0.449615 -0.199997 -0.030582 0.281418 0.058276 0.386731 0.276857 -0.127322 -0.051105 0.176698 0.256379 -0.016184 0.262835 0.018219 0.053159 -0.381809 -0.049594 0.229468 0.252114 0.485427 0.122717 -0.343120 0.494258 -0.488457 -0.129005 -0.626507 0.098639 0.116831 0.298565 0.004103 0.005864 0.502731 -0.059020 -0.095546 0.144627 0.394782 -0.222964 -0.190224 -0.402184 0.149551 -0.475856 0.661652 0.538840 -0.004448 -0.747240 0.097269 0.047749 -0.141239 0.164490 0.089853 -0.111607 0.162488 0.011121 -0.252522 -0.090950 -0.317491 -0.352396 0.288236 -0.196594 0.239183 -0.326654 0.133418 -0.121852 -0.122652 0.070492 0.097462 0.228435 0.696545 0.368197 0.442657 -0.020415 -0.175769 0.235793 -0.175129 -0.410337 0.541052 0.318072 -0.322933 0.032419 0.336379 -0.051763 0.095024 0.009603 0.087360 -0.250647 -0.209218 -0.227610 0.377742 0.327737 0.175819 -0.166552 -0.316072 -0.351857 -0.024215 0.346669 0.292207 0.148356 -0.492962 -0.653573 -0.383525 0.415233 -0.037806 -0.138089 -0.044106 0.076020 -0.116770 -0.073968 -0.209205 -0.380958 0.087450 -0.084688 0.382123 0.276243 -0.342075 -0.009738 0.149303 0.457104 0.289765 0.135891 -0.301101 -0.013171 -0.410698 -0.141439 0.157885 0.080890 -0.027733 0.000672 -0.318607 -0.012265 -0.242895 0.130206 -0.521083 -0.207038 0.045860 -0.442476 0.051600 0.078794 0.276711 -0.013404 0.006296 0.261486 -0.169035 -0.024874 0.058555 -0.110526 0.350087 0.563258 -0.323895 0.195998 0.173491 0.252044 -0.075122 0.126042 -0.110415 0.152311 -0.148952 -0.396439 0.625369 0.256733 0.379508 0.071595 0.320687 0.074725 -0.439323 0.401643 -0.007565 0.364051 0.031655 -0.100603 -0.137896 -0.133478 0.176634 -0.023582 -0.016032 0.107127 -0.100037 0.309769 0.627382 -0.270770 0.130252 0.445118 0.039377 -0.245829 -0.377830 -0.439520 0.052724 -0.006564 0.237613 0.044858 0.363107 0.002750 0.071437 0.374603 -0.534401 -0.342690 -0.058961 -0.192603 -0.715391 0.379854 -0.268687 0.391731 -0.426274 0.118145 -0.645238 -0.268304 0.092725 -0.181334 0.215784 0.003381 0.166452 -0.225302 -0.177732 0.453278 0.262165 -0.349852 0.168257 -0.126168 -0.137901 -0.435362 -0.656313 0.108084 -0.311690 -0.267407 0.152618 -0.015102 -0.094075 0.072085 0.249470 -0.113986 0.485342 -0.419134 -0.041241 0.045432 -0.107976 0.245151 0.341021 0.217326 0.670370 0.184489 -0.412897 0.444960 -0.337076 0.205891 -0.018130 -0.362964 -0.062010 -0.272992 0.261006 0.118278 -0.114529 0.015277 0.084739 -0.410222 0.514822 0.120792 -0.106052 0.009751 -0.063542 -0.356876 0.419307 -0.116697 0.059028 0.165822 -0.366776 0.057118 -0.327511 -0.378927 0.172706 0.176988 0.653857 -0.004560 0.741532 -0.457277 0.223220 0.049281 -0.600677 -0.086273 -0.082762 0.147388
совет 0.990788 -0.221597 -0.060990 0.173947 -0.124909 -1.032642 -0.375589 -0.249636 0.397567 -0.070514 0.266465 -0.515484 0.669385 -0.319279 -0.343563 0.023507 -0.623562 -0.067026 -0.055679 0.063036 -0.315016 -0.484593 -0.225901 -0.037365 0.281874 0.071898 0.351355 0.313528 -0.139884 -0.054546 0.184270 0.178317 -0.019215 0.256863 -0.056568 0.027519 -0.426748 -0.019718 0.259685 0.231538 0.393523 0.161574 -0.399671 0.583237 -0.504862 -0.194009 -0.730125 0.097424 0.127904 0.287310 0.017423 0.060320 0.442647 -0.079517 -0.127798 0.159442 0.462857 -0.208098 -0.248427 -0.415522 0.194576 -0.516833 0.720524 0.603863 -0.033628 -0.785848 0.100154 0.089847 -0.072197 0.140444 0.057368 -0.111374 0.171394 0.035544 -0.350158 -0.116863 -0.375397 -0.412392 0.254790 -0.166944 0.207844 -0.295011 0.219209 -0.099243 -0.051480 0.074775 0.129813 0.215095 0.740479 0.266566 0.474267 -0.025345 -0.296812 0.183220 -0.165258 -0.369711 0.509081 0.311455 -0.387433 0.054066 0.278480 -0.111078 0.062990 0.003638 0.073728 -0.304668 -0.262779 -0.224603 0.363420 0.281539 0.112102 -0.194892 -0.311172 -0.456712 -0.030851 0.355227 0.332762 0.163197 -0.502403 -0.682286 -0.400317 0.447648 0.014953 -0.139904 -0.089903 0.090507 -0.128492 -0.091736 -0.286448 -0.331864 0.038091 -0.040154 0.392645 0.243106 -0.385881 -0.101959 0.211679 0.494942 0.289629 0.136463 -0.275173 -0.027202 -0.480290 -0.066717 0.206139 0.030526 0.000354 -0.027006 -0.358183 -0.015895 -0.274828 0.163041 -0.431255 -0.185961 0.045123 -0.427193 0.050584 0.044068 0.226184 0.017182 0.018050 0.286061 -0.171971 0.008619 0.094879 -0.026500 0.351484 0.538689 -0.423889 0.190546 0.139086 0.369552 -0.105674 0.124515 -0.083224 0.155321 -0.188261 -0.401428 0.650910 0.252051 0.391843 0.117665 0.319819 0.011167 -0.462396 0.424998 -0.040568 0.406321 -0.061692 -0.070216 -0.159638 -0.155417 0.189624 0.043547 -0.071101 0.079788 -0.175765 0.368818 0.707261 -0.271538 0.075979 0.376650 0.057344 -0.210726 -0.479915 -0.442346 0.033371 0.060363 0.298375 0.089358 0.481890 -0.088963 0.159916 0.395643 -0.566159 -0.387052 -0.086657 -0.211112 -0.840619 0.411837 -0.330379 0.394100 -0.551780 0.098522 -0.706070 -0.295350 0.029564 -0.076527 0.202914 -0.025058 0.150234 -0.253941 -0.223749 0.449420 0.283884 -0.388361 0.202260 -0.060848 -0.129903 -0.438354 -0.669932 0.178953 -0.337760 -0.342362 0.157091 -0.003756 -0.157559 -0.004830 0.242158 -0.094136 0.571433 -0.426691 -0.074996 0.037046 -0.123675 0.329777 0.354304 0.231271 0.703652 0.237405 -0.412353 0.548048 -0.318469 0.166004 0.028359 -0.397496 -0.011032 -0.224181 0.270970 0.117302 -0.126221 -0.007743 0.062942 -0.548617 0.536513 0.101509 -0.116486 -0.007837 -0.061547 -0.448029 0.431326 -0.113781 0.065190 0.249685 -0.465509 0.035504 -0.331486 -0.378031 0.226838 0.267707 0.630677 -0.060691 0.748875 -0.481917 0.209992 0.004641 -0.678790 -0.146768 -0.116618 0.152595
спрос -0.385103 -0.153397 -0.258918 0.079827 0.417762 0.100830 -0.148073 0.540107 0.285624 0.490229 -0.097322 -0.206178 0.058102 -0.014180 0.412903 -0.050042 0.294773 0.146805 -0.072688 0.017341 -0.129000 0.261237 0.120296 0.078969 -0.110823 0.060316 -0.130454 0.373872 0.041683 -0.083189 -0.143148 0.203429 0.135070 -0.499970 -0.271237 -0.076409 0.401530 0.034208 -0.114721 0.211713 0.202650 0.172944 -0.207450 -0.265320 -0.081597 0.660893 -0.069877 -0.130138 -0.115801 -0.210815 0.403769 -0.117786 0.216037 -0.307462 0.084679 -0.410644 -0.164709 0.014851 -0.573442 0.095791 0.389581 0.070684 -0.115455 -0.237956 0.552097 0.253843 0.603741 -0.560999 0.209608 0.093249 -0.184470 -0.128756 -0.493839 0.490098 -0.385941 0.128108 0.038881 -0.134330 -0.183791 -0.065671 0.358774 0.335938 0.543485 0.192388 0.111448 0.633269 0.252077 0.048574 -0.120513 -0.567741 -0.043119 0.241788 0.337656 0.047586 -0.028148 0.318307 0.015231 0.470475 0.003644 0.151959 -0.047754 -0.190547 0.100438 0.031145 0.132159 -0.366977 -0.105197 0.144642 0.459727 0.117016 -0.283597 -0.122666 -0.552584 0.002395 -0.007489 0.291972 -0.013228 0.606200 -0.100500 0.370410 -0.204721 0.313785 0.105053 -0.042500 0.377722 0.260244 -0.101592 -0.339486 -0.077945 0.475979 -0.103094 -0.354734 -0.439848 0.134389 0.105601 -0.301360 -0.204084 0.046740 0.076467 0.028496 -0.634725 -0.088553 0.082356 0.063583 0.434408 -0.195190 0.071670 0.120038 0.206872 0.533062 -0.038851 -0.191215 -0.009415 0.451076 -0.148751 -0.388687 0.191853 -0.223128 -0.370725 -0.330268 0.282442 0.127745 -0.051544 0.296027 0.619431 -0.512864 -0.159922 -0.547289 -0.370478 -0.197615 0.082137 -0.238455 -0.600425 0.381292 -0.066023 -0.244576 0.415269 0.378080 -0.432705 -0.169665 -0.493135 0.193648 -0.000452 0.124332 0.158089 -0.029293 -0.259893 -0.021517 -0.009473 -0.151164 -0.343196 0.020623 0.247728 0.157657 0.390913 -0.108086 0.318886 0.129890 0.228476 0.201447 0.350375 -0.151740 0.188415 0.202904 0.025242 0.027725 0.085194 -0.010973 0.164811 0.082336 0.365402 0.060524 -0.159543 -0.060488 0.225754 -0.470518 -0.277527 0.303568 -0.447355 -0.107724 -0.052048 -0.049110 0.112712 -0.222655 0.172303 0.242735 0.149101 0.495117 0.453156 -0.122406 0.166187 -0.098954 -0.185599 -0.050520 -0.451433 -0.099059 0.366812 0.160547 0.478355 0.093736 0.005490 0.039213 -0.138758 0.073951 -0.055000 -0.017926 -0.164175 0.143251 0.067212 -0.404735 -0.080214 0.285664 -0.269315 0.121649 0.125670 0.306221 0.272256 -0.219653 -0.306669 0.311833 0.201129 0.165405 0.033472 -0.058338 -0.359098 0.088332 0.378909 -0.204867 0.148764 -0.291663 0.092369 -0.342995 -0.083545 0.103002 -0.206272 -0.092717 -0.087138 0.161447 -0.367390 -0.303856 0.255438 -0.197369 -0.041754 0.078578 0.331972 0.368951 0.336873 0.134324 0.156115 0.399762 0.027436 0.171873 -0.131609 0.150771 -0.115812 -0.027584 0.096653 0.227812 -0.232761 -0.046513
