в 0.048484 0.057179 0.278777 0.204503 -0.164361 0.208742 -0.056798 -0.251344 -0.476544 -0.086819 0.131787 0.359327 0.149012 0.224625 0.241038 0.358161 0.155262 -0.463070 -0.553610 0.196670 0.219015 -0.126568 -0.584024 -0.620536 0.195910 0.509459 0.098944 0.232756 0.321102 0.055235 0.498811 0.015885 0.083730 0.333327 0.160672 -0.423488 -0.848575 -0.364084 -0.054935 0.608151 -0.238943 -0.463735 -0.550448 0.261600 -0.665883 -0.190184 -0.015466 0.123075 -0.273535 -0.185133 -0.199480 -0.080928 0.403668 -0.142914 -0.379826 0.245112 -0.273357 0.090845 0.000526 0.144683 -0.196220 -0.039194 0.050839 -0.088777 0.210378 0.001279 0.344226 -0.160286 -0.233336 0.323630 0.311509 0.045934 0.229310 -0.509853 -0.146901 -0.156000 -0.440299 0.247452 0.443667 -0.226683 -0.595796 -0.525508 0.102774 0.062018 0.261197 -0.506170 0.353620 -0.504795 -0.108550 0.257441 -0.583094 -0.016372 -0.138974 -0.433533 -0.328236 0.093815 0.380615 -0.060465 0.413609 0.310661 -0.049696 0.167651 -0.411913 -0.130084 -0.348512 -0.235171 -0.172138 0.244619 0.351193 -0.155708 -0.331083 -0.406431 -0.011625 0.118397 -0.203182 0.033665 0.097876 0.048611 0.072037 0.172081 0.310485 -0.225343 0.037706 -0.209494 0.278572 0.093975 -0.197587 -0.575849 0.119459 0.160315 0.211918 -0.652496 0.100117 0.121456 0.070365 -0.289715 0.132466 0.571880 0.114253 -0.277137 0.550699 -0.172800 0.683436 -0.467863 0.239556 -0.405963 -0.710687 0.329274 0.193034 -0.336343 0.115328 0.531839 0.012836 0.284300 -0.502237 0.181745 0.168639 0.036178 0.185493 -0.556326 -0.130421 -0.373665 0.039208 0.883163 -0.014903 0.300097 0.180345 0.064251 0.521119 0.052211 -0.365287 -0.302388 -0.168628 -0.206377 -0.280258 -0.088701 -0.205458 -0.127948 -0.034061 -0.219399 -0.105661 0.306328 -0.135901 0.737987 -0.294776 -0.007483 0.192727 -0.596224 -0.035330 -0.478840 -0.242219 0.048223 0.174348 -0.317461 -0.232569 -0.834361 0.367736 -0.271317 0.150740 -0.293673 0.102995 -0.397384 -0.317787 -0.024431 -0.312368 0.560203 0.115861 0.284637 -0.172501 -0.223825 -0.400315 -0.071679 0.249818 0.122959 0.762504 0.059280 -0.534199 -0.251511 0.191600 0.041824 -0.003461 0.124497 0.046004 0.591733 -0.191557 0.229049 0.619775 0.131464 0.173124 -0.085107 0.015460 0.163892 0.541657 -0.138935 -0.015678 0.369405 -0.211351 -0.317984 -0.023601 0.380295 -0.000315 -0.104760 -0.570654 -0.627348 0.248611 -0.089521 0.223153 -0.418485 0.456507 0.646541 0.345312 0.080476 0.004375 0.059233 0.487371 -0.000839 -0.452354 0.295732 0.023415 0.386470 -0.143912 -0.357712 0.024240 -0.035628 0.185614 0.422347 -0.075886 0.110196 0.598422 -0.427240 0.352350 0.209007 -0.205917 -0.641103 -0.093943 -0.076014 0.113249 -0.201098 -0.247033 0.174562 0.149288 -0.243331 -0.151720 -0.175054 0.087146 -0.258652 -0.104244 -0.257429 -0.025352 -0.635389 0.038185 -0.217775 -0.347488 0.088136 -0.335668 -0.207972 -0.163762 0.517725 0.072470 -0.245406
на -0.269224 0.081813 0.383526 0.141272 -0.440408 -0.196914 0.588976 -0.606959 -0.629408 -0.279504 0.361758 0.208037 -0.353578 -0.413678 0.058004 0.268632 -0.161170 -0.285601 -0.507939 0.269781 0.031943 0.280378 -0.262470 -0.547447 0.899603 0.282675 0.175652 -0.036109 -0.143441 -0.085445 0.214701 -0.118552 -0.078329 0.314871 0.423091 -0.021169 0.173919 -0.255021 0.395250 -0.101230 -0.452444 0.249436 -0.240840 0.132679 -0.368101 -0.016083 0.133856 -0.015720 -0.096282 0.208312 -0.005831 -0.397687 0.540272 -0.455390 -0.531356 -0.044072 -0.294030 0.110137 -0.301836 -0.145109 -0.477225 0.054361 0.293436 0.206399 0.084246 0.245420 -0.393368 -0.332014 0.273729 -0.306812 -0.138317 0.415599 0.065898 -0.288175 0.333683 0.081576 -0.306027 -0.391175 -0.131724 -0.134346 -0.316890 -0.260515 -0.264033 0.171343 -0.023091 -0.391300 0.539435 -0.135242 -0.096228 0.133690 -0.382718 0.163726 -0.186510 -0.263228 -0.437488 0.120300 -0.282863 -0.136647 0.363415 0.013719 -0.408466 0.110297 -0.029072 0.000025 -0.304119 0.324121 -0.003593 0.201194 0.200688 -0.057663 -0.582679 -0.431625 0.248629 0.408185 -0.160932 0.089514 -0.138508 0.179194 -0.082294 -0.050415 0.125595 -0.340286 -0.509391 0.220881 0.635166 0.026594 -0.153266 -0.068959 -0.564686 0.313678 -0.052983 -0.119362 0.447584 0.207444 -0.078550 -0.232398 0.209600 0.370584 0.164851 -0.299141 0.156918 0.456608 0.540539 -0.039110 0.333148 0.122028 -0.164070 0.717605 0.717929 -0.607201 -0.079623 -0.228266 -0.986440 -0.127376 -0.057883 -0.253761 0.293237 0.163709 0.373833 -0.358909 0.031386 -0.270639 0.178797 -0.091529 0.048618 0.540512 0.181365 -0.116155 0.097114 -0.332676 0.229222 0.477895 -0.037154 -0.368556 0.395782 1.020385 0.111751 0.140859 -0.118685 -0.134167 -0.376849 0.412174 -0.131746 -0.138802 -0.381626 -0.222793 -0.731139 0.023569 0.170778 -0.355620 -0.230296 -0.211028 0.585991 -0.286332 0.056343 -0.521434 -0.187469 -0.014170 0.047076 0.183389 -0.307201 0.044083 0.357642 -0.337454 0.043685 -0.206497 -0.473660 0.110319 0.338813 0.179394 0.076066 0.321112 -0.010403 0.175672 0.396507 -0.222108 -0.558823 -0.504287 0.042637 0.178648 0.123901 0.104614 -0.614078 0.349281 -0.259062 -0.362254 -0.136347 0.151711 0.095670 0.438716 0.012204 0.232638 -0.060198 0.128514 -0.399891 0.222265 -0.367074 -0.095988 0.362678 0.096613 -0.396370 -0.244616 -0.073269 -0.308572 -0.067192 0.073936 -0.092825 -0.179697 0.437049 0.122376 -0.198293 0.019131 0.017264 -0.268901 0.097292 -0.091963 -0.166977 -0.401134 0.249259 0.300401 0.132625 0.258449 0.317693 -0.378468 -0.174870 -0.265905 -0.306310 0.404406 -0.132304 -0.506733 0.156373 -0.552908 -0.550264 0.069199 -0.470653 0.137895 -0.067966 0.126359 -0.216660 -0.192132 0.032201 -0.449560 -0.259409 0.352156 0.034253 -0.507541 0.079045 -0.441105 0.271812 -0.079211 -0.288867 -0.029128 0.128466 0.187359 0.058593 0.363797 0.218972 -0.344268 0.152042 -0.003039
и -0.239672 -0.029972 0.211440 0.082339 0.099552 0.230482 0.444018 -0.069481 -0.223882 0.404894 -0.007998 0.290869 -0.726903 -0.024497 -0.344024 0.270423 0.282522 -0.092332 0.094002 0.120402 0.155421 -0.094848 -0.555350 -0.428960 0.328393 0.376050 -0.391801 0.540226 -0.024790 -0.290833 -0.039360 -0.458176 0.677232 0.429942 0.046672 -0.286523 -0.610210 -0.524592 -0.186731 0.119696 -0.140553 -0.046412 -0.373834 0.200812 -0.736260 -0.249741 -0.136661 0.145443 0.208291 -0.057291 0.079185 -0.259047 0.184877 -0.314152 -0.555978 -0.007176 0.413988 0.136508 -0.218548 0.216489 -0.116223 -0.139051 0.168962 -0.372193 -0.035094 0.141968 0.281079 -0.506944 -0.153262 0.110620 0.203105 0.338129 -0.441056 -0.320729 0.088367 -0.305705 0.044632 0.067784 -0.106389 -0.383558 -0.652882 -0.487386 0.053026 0.263259 -0.193662 -0.327399 0.130619 -0.157414 0.250686 -0.289636 -0.705957 -0.174767 0.022308 0.070158 0.100920 0.307279 0.159404 0.019738 0.025860 -0.088070 -0.000881 -0.562656 0.003663 0.024778 -0.149732 -0.290929 0.124076 -0.092114 -0.272702 0.025810 0.223060 0.050218 0.119855 0.616264 0.137246 -0.051970 0.210276 0.417060 0.023295 -0.188464 -0.294650 -0.454184 0.345107 -0.187957 0.199007 0.048469 0.022205 0.328697 0.126208 0.710254 0.466115 -0.138773 -0.065654 -0.231199 -0.281278 -0.127178 0.961447 0.003186 0.192250 -0.013103 -0.140852 -0.027321 0.124225 -0.574693 0.017831 0.225014 -0.550784 0.459664 0.462582 -0.323403 -0.095235 0.251029 -0.377854 -0.189725 -0.322339 -0.005103 0.479547 0.005714 -0.486532 -0.602381 0.601388 -0.083795 0.015103 0.188468 -0.203924 0.075771 -0.270777 0.360969 -0.625532 0.060110 -0.057585 -0.049162 -0.070702 0.075804 0.295185 0.012106 0.057152 -0.276968 -0.426648 0.080723 -0.709968 -0.101543 -0.175260 -0.045849 -0.330525 -0.035689 0.143356 0.094799 0.426523 -0.172459 0.270115 0.018261 0.265256 -0.334952 0.375255 -0.574971 0.096126 -0.164593 0.124624 -0.459769 -0.318630 -0.349290 -0.067634 -0.163668 -0.127356 0.042884 -0.067047 0.125415 0.422893 0.488594 -0.233401 0.659640 -0.077589 0.255012 0.512764 0.210156 0.300560 -0.262630 0.066316 0.134344 -0.158102 0.370237 -0.018553 0.196555 0.099387 0.160843 -0.457503 0.216877 -0.356500 0.211848 0.006559 0.210058 -0.117830 0.203421 0.060856 0.747599 -0.466976 -0.215965 0.023324 0.346142 -0.040467 -0.188708 -0.157557 -0.268959 0.151947 -0.061110 0.331496 -0.505725 0.414855 -0.139014 -0.195932 0.280239 -0.126923 0.004868 0.172784 0.456740 -0.457525 0.169665 0.037561 0.168003 -0.429234 0.170419 0.175756 0.122523 -0.000986 -0.033957 -0.047104 -0.154871 0.803359 -0.174461 -0.094530 0.439180 0.010429 0.117971 -0.539315 -0.085370 0.079161 0.072122 0.303887 -0.082540 -0.086309 -0.514015 -0.363989 0.095776 0.275641 0.318545 -0.034611 -0.395409 -0.363500 -0.087493 0.147819 0.202190 -0.272735 0.379657 -0.303489 0.055912 -0.270338 0.020941 0.155387 0.640574
банк -0.235970 0.043599 0.802153 0.052783 0.010485 -0.067082 0.502513 -0.215978 -0.054278 -0.101060 -0.079582 0.044747 -0.511354 -0.233198 -0.503895 -0.243123 0.217223 -0.208798 0.080789 0.312968 -0.519144 -0.241539 -0.703751 -0.380137 0.259595 0.731867 0.190811 -0.062157 0.361511 -0.088636 -0.035274 -0.208873 -0.122187 0.321629 0.088858 -0.221404 -0.074858 0.276785 0.525914 -0.079888 -0.002494 -0.334473 -0.591016 0.155684 -0.434958 0.017827 -0.277289 0.248233 0.028963 -0.291180 -0.217415 -0.054201 0.240852 -0.080032 -0.379179 0.160449 0.160799 0.248720 -0.430114 0.048848 -0.123079 0.059884 -0.018002 0.456821 -0.125728 -0.197008 0.290942 -0.181547 0.045084 0.334303 -0.479452 0.232441 0.300946 -0.283032 0.171117 -0.265792 0.045364 -0.263921 -0.195144 -0.248592 -0.515307 -0.113085 -0.221726 0.327521 0.315778 0.214435 0.108524 -0.317165 0.470655 0.484225 -0.570325 -0.310348 -0.437552 -0.247628 -0.097070 0.240766 0.053349 0.047456 0.674140 -0.217242 -0.410504 0.094044 0.325180 0.334267 0.270244 -0.019360 0.416666 0.024862 -0.096924 -0.106639 -0.626543 -0.142988 0.052613 -0.157577 0.269473 -0.489801 0.099117 0.354488 -0.234265 0.188868 -0.043996 -0.022256 -0.560742 0.180037 0.475556 0.098035 -0.041507 -0.046363 0.154906 0.338111 0.171765 -0.557435 -0.277064 -0.296728 -0.195355 0.241032 0.346031 0.088397 -0.012935 -0.092618 -0.048235 0.076199 0.154605 0.255649 0.288623 0.162629 -0.016460 0.358858 -0.348722 -0.669133 -0.092848 0.092635 0.078951 -0.440633 -0.419598 -0.292956 0.040641 0.173963 0.063679 -0.313347 -0.444565 -0.243769 0.167496 0.389089 -0.014833 -0.005924 -0.153735 0.019973 -0.106675 -0.585802 -0.421443 -0.074860 0.116086 0.580719 -0.379126 0.270995 0.186880 -0.181498 -0.544722 0.034303 -0.416016 0.060455 0.318040 -0.058166 -0.070146 -0.205774 0.356080 -0.220883 -0.200477 0.418322 0.184376 -0.293633 0.273940 -0.067276 0.104204 -0.641173 0.019594 0.109824 0.183103 0.011446 -0.013800 0.142844 0.035732 -0.229495 0.025010 0.022680 0.127294 0.064911 0.154437 -0.188418 0.132662 0.514603 -0.391096 0.149349 -0.096915 0.365199 -0.485484 0.137365 0.094713 -0.084042 0.506866 -0.091406 -0.101581 0.383153 0.001259 -0.273887 -0.030327 -0.076592 -0.048265 0.836978 -0.093932 0.012170 0.215934 0.327295 -0.182455 0.274608 -0.076927 -0.054391 -0.236477 -0.431610 -0.164982 -0.195155 0.058571 -0.021964 0.148147 0.182934 0.040781 -0.575569 0.633675 0.226817 -0.067392 0.219314 0.137065 0.141413 0.200414 -0.069062 -0.157391 0.092487 0.076193 -0.064643 -0.555196 -0.086402 0.300182 0.229180 0.551360 -0.090066 -0.062674 0.150717 -0.027706 -0.818688 -0.462302 -0.199836 0.124185 -0.184824 -0.047619 0.020929 -0.117835 -0.224114 -0.186492 0.183749 0.105032 -0.109787 -0.154393 0.439913 -0.178439 -0.237771 -0.356872 -0.258143 0.521878 0.453005 -0.342008 0.051355 0.106289 -0.110561 -0.180606 -0.031175 -0.188137 -0.217926 -0.030122 0.313623
россия -0.205677 -0.035085 0.847332 0.006580 0.074134 -0.068860 0.434224 -0.243517 -0.155948 -0.201575 0.008199 0.016655 -0.515411 -0.297768 -0.429549 -0.322324 0.423694 -0.177153 -0.049807 0.384864 -0.412263 -0.110046 -0.671274 -0.247469 0.272623 0.670013 0.207075 0.047844 0.457328 -0.075228 0.094772 -0.029422 -0.205909 0.426348 0.098480 -0.160424 -0.110447 0.328153 0.528100 -0.100288 0.061367 -0.259225 -0.529609 0.239620 -0.450687 0.056831 -0.337207 0.222936 0.132113 -0.325836 -0.334480 -0.146459 0.228228 -0.140030 -0.392063 0.149422 0.105087 0.193887 -0.492528 0.055146 -0.149454 0.031007 -0.108613 0.487233 -0.223419 -0.138616 0.377031 -0.062285 0.112651 0.246333 -0.343142 0.161274 0.286333 -0.332092 0.166543 -0.242680 -0.101510 -0.284832 -0.212981 -0.270887 -0.461773 -0.217630 -0.260270 0.261401 0.268385 0.303600 0.090238 -0.349284 0.417709 0.601990 -0.556801 -0.377250 -0.435165 -0.379784 -0.112796 0.340064 0.133614 0.039827 0.707191 -0.239389 -0.332458 0.238178 0.333227 0.338405 0.407910 -0.069433 0.468691 0.058323 -0.072444 -0.195061 -0.601444 -0.080666 0.101900 -0.080737 0.243428 -0.430645 0.123937 0.325520 -0.189716 0.177491 -0.016102 -0.000890 -0.604414 0.167424 0.494289 0.115339 -0.049616 -0.139215 0.121622 0.424085 0.126677 -0.638168 -0.218676 -0.404100 -0.230610 0.230863 0.306182 0.126837 -0.006824 -0.292109 -0.016570 0.116535 0.148547 0.267121 0.373368 0.169876 -0.035362 0.390791 -0.464240 -0.636272 -0.065516 0.050615 0.181862 -0.305852 -0.390291 -0.207396 0.049035 0.234760 0.152198 -0.370228 -0.429406 -0.341955 0.159702 0.521218 0.080459 -0.005672 -0.148849 0.021999 -0.050856 -0.556839 -0.503652 -0.112000 0.001329 0.704816 -0.403644 0.335803 0.194610 -0.267317 -0.608160 0.089564 -0.460324 0.118038 0.268655 -0.040540 -0.173951 -0.228844 0.318459 -0.234928 -0.339321 0.405297 0.232461 -0.290138 0.168883 -0.044811 -0.049272 -0.811017 0.100809 0.024827 0.136587 0.119155 -0.022232 0.201750 0.011511 -0.287045 0.087803 -0.069165 0.164996 -0.001683 0.026646 -0.156769 0.081775 0.455633 -0.389353 0.184732 -0.138200 0.533450 -0.509058 0.141143 0.140164 -0.102557 0.619443 -0.078006 -0.215701 0.393820 -0.148837 -0.271119 -0.071092 -0.004699 -0.198264 0.742608 -0.083873 -0.051692 0.226640 0.420103 -0.144089 0.229550 -0.066321 -0.006529 -0.365655 -0.484287 -0.120038 -0.205826 0.091647 0.014033 0.156454 0.218996 0.124953 -0.641896 0.666149 0.252601 -0.064490 0.217893 0.281126 0.278977 0.136219 -0.143965 -0.159302 0.258563 0.061669 0.020429 -0.655102 -0.021326 0.428675 0.184786 0.539137 -0.069156 -0.005392 0.145186 -0.042757 -0.932508 -0.521130 -0.308089 0.035758 -0.439505 0.032623 0.056431 -0.005131 -0.268228 -0.185320 0.257944 0.149835 -0.029980 -0.184551 0.365274 -0.052959 -0.309761 -0.355668 -0.297176 0.508882 0.552475 -0.375601 -0.082759 0.014648 -0.158457 -0.245986 0.014547 -0.146198 -0.206459 -0.097543 0.148416
год 0.183051 0.349760 0.195826 0.113050 0.048538 0.138243 -0.107248 0.131088 -0.567806 -0.067563 -0.042725 -0.110920 -0.418860 -0.271435 -0.507885 -0.119535 0.140533 -0.312661 -0.030218 0.192596 -0.122060 -0.253712 -0.599108 -0.720554 0.692389 0.153350 0.440836 0.699645 0.183360 0.271728 0.115764 -0.121304 0.213805 -0.138751 0.022183 0.334340 -0.239488 0.128960 0.004649 -0.275170 0.431906 -0.140200 -0.139570 0.133151 -0.365519 -0.429845 -0.514636 0.295143 0.237494 0.356000 -0.070547 0.107854 0.393749 0.062411 -0.286564 -0.168945 -0.118815 0.044397 -0.072031 0.278881 -0.622591 -0.249305 0.080131 -0.446447 0.032387 0.199042 0.340893 -0.381259 -0.380068 0.103641 0.078858 0.157195 0.548479 -0.413529 0.355617 0.001360 -0.356173 0.115974 0.184454 -0.346999 -0.537980 -0.073019 -0.398880 0.429319 0.033849 -0.151129 0.361552 -0.468180 0.010380 0.286506 -0.513447 0.057011 0.022805 0.215325 -0.283379 0.071364 0.231723 -0.348168 0.289166 0.286917 -0.357934 0.325697 0.266079 -0.135712 0.083845 0.099149 0.115683 0.039305 0.194001 -0.244734 -0.051378 -0.496807 0.058716 0.079845 0.065839 0.167379 0.350064 -0.323854 -0.061729 0.006116 0.254401 -0.013281 -0.272277 0.167873 0.762489 0.235748 -0.021098 -0.416733 0.274224 0.293102 0.072075 -0.643274 0.138293 0.346004 -0.593592 0.095208 0.039472 0.133352 0.243907 0.007799 0.386358 0.282655 0.373107 -0.058054 0.030685 0.459086 -0.712226 0.455440 0.131196 -0.841992 0.155386 0.389758 -0.037437 0.023223 -0.429230 -0.209433 0.064751 0.044016 0.193482 -0.525638 -0.104687 -0.487020 0.202420 0.443648 -0.052162 0.361815 0.160145 -0.015733 0.354857 -0.159317 -0.055011 -0.241703 -0.433007 -0.093638 -0.149605 0.296274 -0.361232 0.339450 -0.174391 0.064497 -0.484278 0.421268 0.240147 -0.177905 -0.253105 -0.223111 0.328604 -0.037509 -0.254472 0.224269 0.251702 0.201165 -0.278515 -0.011399 -0.218364 -0.786873 -0.026598 0.049426 0.213698 -0.136193 -0.133765 -0.256393 0.222187 0.019893 -0.112249 0.252236 0.193238 0.349202 0.322553 0.039757 -0.182421 0.064833 -0.099700 0.119676 0.316728 0.096152 -0.350858 -0.159157 0.139858 0.246699 -0.004045 -0.018038 -0.338994 0.350135 -0.071617 0.241861 0.015010 -0.214061 0.229836 0.955392 -0.016918 0.271809 0.014097 0.706486 -0.524872 0.305591 -0.181269 0.228250 0.299458 -0.113286 -0.146505 -0.373896 -0.325837 -0.174271 0.062432 -0.076598 -0.093352 -0.549007 0.658266 -0.019058 -0.246265 0.493283 0.183420 -0.198919 0.320727 -0.174258 -0.298132 0.259872 0.158118 0.232517 -0.255686 0.073077 -0.078326 0.050776 0.368911 0.148513 0.041517 -0.038913 0.289459 -0.324763 -0.001317 -0.242472 -0.241370 -0.238324 -0.207797 -0.387774 -0.248508 -0.119315 -0.825728 -0.004840 0.265038 0.306553 -0.418811 0.174755 0.441982 -0.080012 0.165395 -0.193247 0.332552 -0.140668 -0.304824 -0.339508 0.311539 0.193052 -0.265286 0.019168 0.162952 0.023149 -0.146060 -0.234035
ставка -0.031702 -0.011376 0.632951 -0.239926 -0.015510 -0.152630 0.304438 -0.112198 -0.470284 -0.585190 0.058254 0.263296 -0.291349 -0.439953 0.155789 -0.580486 0.376083 -0.439517 0.337329 0.443344 -0.572603 0.281837 -0.437141 -0.377176 0.463786 0.811454 0.260226 -0.276589 -0.131800 0.049546 0.013021 0.236486 -0.474362 0.470677 -0.285157 0.069929 -0.244368 -0.529846 0.487754 0.059850 -0.005827 0.124792 0.084520 -0.121840 -0.629024 -0.148349 -0.254225 -0.031147 0.271225 0.044592 0.151046 -0.019574 -0.004527 0.346681 -0.279031 0.206173 0.058696 0.503856 -0.499184 -0.368304 -0.164001 -0.212303 -0.127968 0.524986 -0.135435 -0.340910 -0.351709 -0.030610 0.528559 0.213560 -0.436334 0.216542 0.106145 0.017593 0.250519 -0.392586 -0.243429 0.061962 -0.408356 0.004572 -0.126915 0.146848 0.123714 0.223708 0.364426 0.023608 0.198287 -0.230860 0.552571 0.408535 -0.031766 -0.272223 -0.164761 -0.178957 0.013472 0.125010 -0.675317 0.053150 0.312394 0.101205 -0.759394 -0.305186 0.245756 0.449957 0.280392 0.155466 0.494716 0.504998 -0.262635 -0.216429 -0.255764 0.181112 -0.051246 0.064848 -0.213407 -0.358711 0.004457 0.032547 -0.158808 0.127802 -0.023547 -0.343130 -0.198388 0.042884 0.290266 -0.371947 -0.359642 0.276135 0.340197 0.227877 0.183066 -0.410856 -0.129813 -0.148874 0.080102 -0.114450 0.861851 -0.069227 -0.136535 -0.080777 0.153784 0.040426 0.320076 0.160119 0.359757 0.506707 -0.245974 -0.133191 -0.231790 -0.272621 -0.090257 0.101483 -0.120529 0.153384 0.108089 -0.517374 0.204707 0.226245 0.325837 -0.237541 -0.601209 0.172106 0.332916 -0.392979 0.154566 0.093217 -0.071575 -0.199385 0.152861 -0.598852 -0.446551 0.315206 0.294197 -0.260163 0.041920 0.363030 0.462410 0.171535 -0.107153 -0.094188 -0.594480 0.146184 -0.180764 -0.191032 -0.648233 -0.524700 -0.070900 0.178427 0.044783 -0.234461 0.041244 -0.717505 0.141069 0.074246 -0.046576 -0.906707 0.307585 0.463502 0.108781 0.556385 -0.460623 0.119375 -0.535851 -0.359421 -0.154204 -0.001048 0.114942 -0.411288 -0.394528 0.010207 0.410026 0.378109 -0.584434 0.184086 0.231350 -0.745595 -0.026379 -0.191872 0.097361 0.413514 0.496974 0.274314 -0.247079 0.362309 0.177264 -0.108850 -0.270127 -0.309254 0.474851 0.457463 -0.086194 -0.254958 0.181068 0.137022 -0.092839 0.337107 -0.338163 0.088065 -0.216385 -0.302384 -0.007918 -0.105017 -0.005323 -0.140986 -0.085410 0.036481 -0.089682 -0.797283 0.391103 0.268066 0.394467 0.404689 0.417258 0.313687 0.435857 0.084827 0.269454 -0.029117 -0.206690 0.356234 0.279798 -0.140748 0.588410 0.092415 0.120320 0.014070 -0.176331 0.539372 -0.094441 -0.062217 -0.392691 0.058201 -0.109916 0.262979 0.045224 -0.081922 0.395497 -0.165222 -0.343275 0.076398 0.217759 0.017730 -0.465238 -0.096234 0.196324 -0.312614 0.176056 -0.064223 0.065980 -0.269484 -0.091683 -0.043098 -0.179636 -0.232821 0.005703 -0.348926 0.093316 -0.370800 0.056162 0.474389
по -0.009545 -0.080903 0.764911 0.168390 -0.538088 -0.164747 0.520715 0.479258 -0.078102 -0.187727 -0.083698 -0.016313 -0.273768 -0.047562 -0.194049 -0.173387 0.145919 -0.481636 0.228126 0.385396 -0.114926 -0.560701 -0.366881 -0.157318 0.814752 1.005138 0.201143 -0.052774 0.287392 0.289479 -0.139667 -0.262643 -0.218659 0.165027 0.264092 -0.334025 -0.317925 -0.148392 0.310118 -0.213687 -0.384307 -0.061297 -0.274577 0.353313 -0.635129 0.042748 -0.261870 0.397921 -0.126616 0.042713 -0.003801 0.012279 0.331024 0.091536 -0.411701 0.157391 0.137151 0.370250 -0.411670 -0.300719 -0.171349 0.117095 0.501957 0.398421 0.597305 -0.554938 0.382105 -0.393339 -0.119691 0.254576 -0.136749 -0.010006 0.251580 -0.349874 0.342376 -0.244579 0.055219 -0.090057 -0.396684 0.113800 -0.230551 -0.620525 -0.210642 0.441129 0.452812 0.108720 0.253674 -0.164829 0.428551 0.663553 -0.486613 -0.269368 -0.736043 0.467846 -0.147997 0.168786 0.019340 -0.223010 0.601274 -0.054127 0.001265 -0.051568 0.444773 0.188755 -0.167781 0.506742 0.506777 0.177769 -0.246957 -0.238262 0.081814 -0.125475 -0.071852 -0.218249 -0.096921 -0.428521 -0.359461 -0.025926 -0.324895 -0.126759 -0.076841 -0.399286 -0.190798 -0.021598 0.306176 0.259637 -0.104272 -0.128323 0.303874 0.229304 0.064916 -0.756943 0.131867 -0.281665 -0.148128 -0.310759 0.826542 0.008170 0.126464 -0.058021 -0.381706 -0.011145 0.676260 0.303368 -0.001482 -0.050609 -0.469494 -0.231884 -0.058390 -0.382599 0.160595 -0.432183 0.296786 0.075921 -0.239213 -0.417894 0.214009 0.256308 0.100818 -0.091952 0.236039 0.088486 0.223687 0.050810 -0.000097 0.076103 -0.070921 -0.176720 0.083848 -0.204311 -0.559016 0.319619 0.234863 0.238582 -0.156678 -0.106330 0.058901 0.097866 -0.458603 -0.092216 -0.265402 -0.265957 -0.365174 -0.533367 -0.466694 -0.515206 -0.062730 -0.005408 0.078138 0.259355 0.103162 -0.209919 0.047949 -0.003888 0.013770 -0.644312 -0.223051 0.124305 -0.023338 -0.175200 -0.322875 -0.415177 -0.216378 0.342305 -0.783130 -0.105795 -0.233461 0.121619 0.059909 -0.191215 0.242954 0.397622 0.087236 0.057588 0.159731 -0.044288 0.139087 -0.282775 0.132979 0.035811 0.071498 0.482947 0.245627 0.563963 -0.186118 -0.058666 -0.129481 -0.288842 0.310131 0.706200 -0.025708 0.208296 0.645883 0.199793 -0.023945 0.072236 -0.090246 -0.046516 -0.289461 -0.144982 0.160730 -0.261523 -0.178867 -0.528202 0.147002 0.208970 -0.065345 -0.416138 0.371421 0.373895 -0.111315 0.627521 0.259517 0.095501 -0.019096 0.114499 0.132820 0.052955 -0.093776 0.217559 -0.413609 0.095604 0.009012 0.366180 0.382079 0.108880 0.124457 0.307395 -0.161767 -0.462185 0.007220 -0.184428 0.489987 0.106413 -0.394049 -0.293002 0.167012 0.061810 0.031268 -0.214682 0.108642 -0.182755 -0.081645 -0.087365 -0.152584 0.240466 0.154784 -0.287561 0.056511 -0.254590 -0.288234 0.037029 0.105769 -0.063986 -0.004449 -0.140366 -0.133041 0.100229 0.185297 0.088760
с 0.195614 0.163618 0.267747 -0.102308 0.008986 0.216150 0.322484 -0.504783 -0.639086 -0.251315 0.217701 0.381261 -0.173306 -0.379030 0.011847 -0.096316 0.461370 -0.139291 -0.362800 0.272584 0.025000 -0.201377 -0.457356 -0.323461 1.058228 0.909818 0.356598 0.484046 0.268709 -0.184957 0.097892 0.023089 0.239837 0.504081 0.917740 -0.342149 -0.989198 -0.023721 0.005400 -0.145891 -0.170378 0.008022 -0.205681 -0.330736 -0.115308 -0.332443 -0.712717 0.406287 -0.271823 0.007144 -0.223076 -0.283968 0.520968 -0.422742 -0.261728 -0.077105 -0.230840 0.980390 0.160521 0.008519 0.160833 -0.598924 0.025409 0.217412 0.252014 0.372192 0.250651 -0.040690 0.032178 0.046344 0.230731 -0.389466 -0.228783 -0.128521 0.217199 -0.234578 -0.263989 -0.309104 0.124179 0.227668 -0.347168 -0.329089 -0.086209 0.190762 0.488750 -0.459432 0.329051 -0.265654 0.380705 0.555083 -0.376607 -0.280616 -0.146406 -0.065744 -0.243131 0.187083 0.330491 -0.359942 0.349266 0.101174 0.104257 -0.214170 0.158398 0.407192 -0.172925 -0.026392 -0.030417 0.761889 -0.122970 -0.593917 0.229022 0.312138 0.033014 0.072380 -0.199568 0.041380 0.144148 0.091209 -0.272918 0.442530 0.106478 0.065511 -0.656907 -0.058610 0.330852 0.414653 0.388091 -0.219236 0.181669 0.116945 0.348587 -0.490948 0.175865 -0.200455 -0.010030 0.056111 0.636014 0.154873 0.141123 -0.344682 0.247493 0.168571 -0.127984 0.205579 0.186542 0.308503 -0.103323 0.213858 -0.107260 -0.184053 0.416998 0.121682 0.075927 0.288018 -0.607010 -0.445040 0.254854 0.270312 0.314010 -0.593624 -0.282572 -0.203499 0.209850 0.395842 0.201386 0.185225 -0.268970 0.390273 -0.015697 -0.055434 0.096835 -0.330879 0.393494 -0.326581 0.111630 -0.220868 0.006853 -0.159925 -0.245594 -0.342470 -0.746232 -0.315259 0.295119 0.255078 -0.217097 0.207667 -0.408625 -0.348447 0.055111 -0.412367 0.123804 -0.293262 -0.113534 -0.266711 -0.205140 -0.661759 -0.107845 0.028135 0.154524 0.322982 0.011031 -0.231678 0.518324 -0.116140 -0.174555 0.152449 0.138469 -0.350055 -0.170883 0.027294 0.019755 0.195178 -0.143864 -0.010863 0.029637 0.170654 -0.230322 -0.133444 0.437745 0.015912 0.302105 0.046832 -0.227799 0.099268 -0.067115 -0.086407 0.025487 -0.053088 -0.264443 0.009537 0.138979 -0.215657 -0.485998 -0.080594 -0.395008 0.063972 -0.351694 -0.622230 0.110900 0.314335 -0.299650 -0.216628 0.241507 -0.054271 -0.138111 0.098012 0.128628 -0.141365 0.275412 -0.335037 -0.083112 0.007597 0.365390 -0.247812 0.463178 -0.374967 0.371227 0.112337 -0.319062 -0.023855 -0.031498 0.233780 0.493837 0.219646 0.165125 0.196491 0.301149 0.230615 0.288687 -0.164388 -0.405609 0.491911 -0.272032 -0.116209 -0.579849 -0.289595 0.173528 0.125260 -0.288224 0.290946 -0.154227 0.044179 -0.345842 -0.188464 -0.048443 -0.266927 0.269960 -0.038633 0.180391 0.112495 -0.195074 0.101649 -0.259257 0.507537 -0.038477 0.237650 0.237900 -0.086309 -0.261884 0.252210
инфляция 0.058481 0.029289 0.313015 -0.225428 0.217220 -0.116695 0.278994 0.347625 -0.567349 0.161734 -0.002221 -0.123707 0.067523 -0.567126 -0.472852 -0.619389 0.192786 -0.455830 -0.286487 0.089555 -0.161471 -0.228708 -0.080739 -0.454192 0.223326 0.245784 0.159751 0.318840 -0.012620 -0.190836 0.184052 -0.179299 0.336738 0.126339 0.209087 -0.302929 -0.536582 0.304943 -0.085477 -0.298188 -0.439128 0.093338 -0.230843 0.430618 -0.177748 -0.182976 -0.122982 0.133167 0.362895 0.502781 0.142755 0.102462 0.558309 -0.649681 -0.358370 0.127173 -0.254512 0.055538 -0.371291 0.220917 -0.219985 -0.313009 0.307538 -0.623699 0.150068 0.216967 -0.177942 -0.110570 -0.021404 0.015253 0.213386 0.111489 0.316583 -0.107777 0.280748 0.347989 -0.058259 0.048954 -0.246620 -0.618003 -0.404379 -0.195662 0.065492 0.112628 -0.149235 -0.075893 0.214930 -0.073249 0.064064 -0.013401 -0.309517 -0.146476 0.139121 0.084164 -0.182151 0.170190 0.202036 0.232087 0.545892 -0.086452 -0.148982 0.437563 -0.015258 -0.220421 0.189806 -0.556145 -0.076837 0.079196 -0.110705 0.295328 0.031573 -0.348116 -0.105324 -0.036818 0.336767 0.028263 0.247891 -0.073431 0.135333 -0.109340 -0.154072 -0.456636 -0.072278 -0.309992 0.466105 0.175871 0.171393 -0.116590 -0.377889 0.202994 -0.018911 -0.374730 -0.116606 0.421325 -0.371008 0.006949 0.502134 0.380167 -0.030787 -0.240012 0.259366 0.325294 0.426217 -0.209526 0.007006 -0.169783 -0.243226 0.191466 -0.286593 -0.545502 0.331987 -0.043978 -0.398497 0.242991 -0.283150 0.002449 0.603561 0.404746 -0.242953 -0.569636 0.456681 -0.461742 0.369811 -0.082442 -0.128098 0.103364 -0.044675 0.050059 0.334767 -0.211080 -0.411322 -0.381215 -0.134071 0.161086 -0.274605 -0.016182 -0.161337 -0.021589 -0.446734 0.403335 -0.558154 0.128503 0.172969 -0.204007 0.305495 -0.016166 0.182074 0.101153 0.012673 0.175031 0.176104 0.064958 -0.340767 -0.260768 -0.145204 -0.499515 0.012108 -0.057635 0.109759 0.248940 -0.367239 -0.154867 0.074623 -0.022716 -0.244624 0.142806 0.043363 0.394897 0.087622 -0.077846 0.164525 0.289099 0.001612 -0.233507 0.364093 0.457315 -0.357059 -0.540013 0.272452 0.029402 -0.019763 -0.128225 -0.082569 -0.280933 -0.397031 0.414195 -0.143095 0.059134 -0.171614 0.535566 0.040974 -0.233392 -0.000586 0.200028 -0.120245 -0.223846 -0.531704 -0.201920 -0.915515 0.196786 -0.256588 -0.049376 -0.075123 -0.474393 0.252887 0.005634 0.299664 -0.399083 0.509087 -0.024542 -0.035192 0.115405 -0.042029 -0.499893 0.333126 0.082732 -0.124761 0.423297 -0.041404 0.282614 -0.119161 0.086149 0.109468 0.020103 -0.265606 -0.125631 0.021609 0.152374 0.382298 -0.094459 -0.281261 0.209088 0.123025 0.055486 -0.237139 0.047439 0.021055 -0.366832 0.185680 -0.054258 0.579231 0.226478 -0.169021 -0.074406 0.277001 0.100425 0.157081 -0.416527 0.189762 -0.139358 0.003241 -0.349365 0.277716 0.355900 -0.287796 0.051378 0.024557 0.624487 -0.064427 -0.375891
рост -0.179361 0.103389 -0.027986 -0.086406 -0.010646 -0.205558 0.339186 -0.217412 -0.534147 0.065815 0.028019 0.223112 0.137445 -0.320880 -0.022689 0.098313 0.476467 0.068123 -0.426258 -0.031820 0.504991 0.237865 -0.445869 -0.482133 0.222640 0.300944 -0.234337 0.420046 0.073090 0.198867 0.382343 -0.257864 -0.087838 0.092689 -0.040971 -0.392390 -0.132165 -0.007480 -0.180125 0.213991 -0.290825 0.259983 0.123730 0.061367 -0.511959 0.121826 0.381639 0.267974 -0.269156 -0.047468 0.110853 0.044638 0.495157 -0.019486 -0.118776 0.107562 0.212809 0.010000 0.031815 0.259323 -0.665238 -0.059926 0.177613 0.079802 0.292361 -0.225216 0.020432 -0.754137 0.021994 -0.151922 0.176756 -0.058597 0.276874 -0.217744 0.347986 0.219881 0.261878 0.026155 0.090309 0.305419 -0.114515 -0.546742 0.128079 0.169389 0.134171 -0.854332 0.224990 0.222710 0.376321 0.306995 -0.090166 0.048572 -0.515792 -0.348889 -0.112835 -0.045521 -0.170227 -0.011171 0.285291 0.011387 0.069327 0.104752 0.137401 0.040912 -0.459387 -0.203965 0.085055 0.027550 0.033005 0.275554 -0.055222 -0.386782 0.209257 -0.075233 -0.241078 0.084610 0.244519 0.005374 0.400233 -0.066210 -0.299259 -0.025497 -0.003895 -0.196273 0.184229 0.410231 0.301813 -0.076272 -0.169751 0.072721 0.284305 -0.153655 0.023097 -0.002648 0.013293 -0.081797 0.121207 0.021815 0.023843 -0.030405 -0.040778 -0.209767 0.525107 -0.099589 -0.194518 0.250695 -0.283701 0.400743 0.332989 -0.138936 -0.011451 -0.217001 0.063913 0.154154 -0.424294 0.047701 -0.058050 0.269567 0.429911 -0.096185 0.242892 -0.342378 0.305083 0.126868 0.079269 0.311963 0.266574 0.791582 0.014848 0.216893 0.239441 0.081356 -0.045781 -0.274066 -0.229235 -0.174595 0.010205 -0.367673 -0.011732 -0.563148 -0.239152 0.397348 0.483241 -0.151593 0.353456 -0.264747 -0.555618 -0.049850 -0.260661 -0.179898 -0.086581 -0.205299 -0.025595 -0.258949 -0.100892 -0.390267 -0.145110 0.092567 0.252920 -0.094750 0.071149 -0.084077 0.324086 -0.161721 -0.440740 0.134845 0.230720 0.234863 0.495924 -0.206611 0.132805 -0.144709 -0.275340 0.008981 0.245684 -0.074614 0.075864 -0.230118 0.032424 0.124394 0.349283 0.548693 -0.228427 0.530590 -0.284820 0.752601 0.184534 0.060604 -0.096915 -0.000327 -0.389825 0.179114 0.029118 -0.118315 -0.073813 0.486009 0.125656 -0.135601 0.415866 0.240653 0.222216 0.128701 -0.182172 -0.662179 0.356586 -0.067156 0.451574 -0.282720 0.293648 0.366472 -0.540395 0.304099 -0.276628 -0.396674 0.181382 0.004760 -0.388566 -0.204341 0.028281 0.191491 -0.236326 -0.465999 0.140999 0.244280 0.005008 0.115912 -0.202315 0.202944 -0.084450 -0.001010 0.228994 0.017503 0.329361 -0.065837 -0.590209 -0.042256 0.143714 -0.385825 -0.329190 -0.082222 -0.094565 -0.459710 -0.226006 0.309307 0.009770 -0.018295 -0.171182 0.195541 0.476527 0.002853 -0.013270 -0.276865 0.067425 -0.309904 0.110405 0.183244 0.104934 0.325207 0.027738 0.361994
ключевой -0.115492 -0.060365 0.471573 -0.182056 0.169944 -0.078308 0.386509 -0.107153 -0.358732 -0.516404 -0.026612 0.293270 -0.328327 -0.373881 -0.201227 -0.567368 0.236224 -0.660976 -0.013617 0.375001 -0.633360 -0.080564 -0.586773 -0.131593 0.194499 0.513857 0.229554 -0.120406 -0.208139 0.238637 0.216128 0.140482 -0.352476 0.378351 -0.377373 0.417599 -0.106388 -0.327399 0.642149 -0.065127 0.047264 0.105712 0.105838 0.323402 -0.570582 -0.071689 0.016156 0.317502 0.210142 0.122770 0.177232 -0.036109 -0.018907 0.193543 -0.371406 0.101096 -0.173717 0.286699 -0.406689 0.014532 -0.383668 -0.425845 0.171475 0.107537 -0.227390 -0.369338 -0.262635 -0.088493 0.341173 0.197159 -0.420706 0.145842 -0.038996 0.306652 0.153372 -0.264858 -0.243372 -0.050676 -0.222873 -0.330005 -0.424206 0.055978 0.056477 0.235023 0.230659 0.111404 0.155211 -0.127184 0.079453 0.434647 -0.029999 -0.086813 0.076484 -0.133801 -0.228690 0.211965 -0.384828 -0.165068 0.371450 0.244650 -0.738861 -0.154481 0.429336 0.336141 0.429434 -0.054313 0.443796 0.149351 -0.348818 -0.386938 -0.339573 0.165342 -0.097631 0.129041 -0.113443 -0.535897 0.317713 0.151377 0.176433 0.013970 -0.014620 -0.271703 -0.454536 -0.154392 0.233515 -0.297635 -0.088976 0.400382 0.391000 0.456771 0.076613 -0.356636 0.107003 0.032975 -0.020427 0.018903 0.800085 0.296470 0.005728 -0.208035 -0.020206 0.037076 0.235087 0.147627 0.386106 0.607186 -0.373670 0.040199 -0.415462 -0.373676 -0.054671 0.167382 -0.209513 -0.060908 -0.138425 -0.686451 0.035835 -0.001238 0.009618 -0.419907 -0.309686 -0.245922 0.301530 -0.206637 0.113181 0.247510 -0.136967 0.076007 0.175958 -0.617205 -0.663623 0.102862 -0.175913 -0.306463 -0.134534 0.399158 0.436102 0.234660 -0.382654 0.212651 -0.369417 0.167215 -0.307038 -0.199644 -0.618686 -0.527093 0.158497 0.028314 0.115541 0.054391 0.006363 -0.363701 -0.273416 -0.122199 -0.234976 -0.762616 0.194236 0.334576 0.079476 0.461978 -0.506543 -0.065955 -0.091829 -0.459610 0.163973 -0.345248 0.117344 -0.320317 -0.171626 0.142216 0.143170 0.366866 -0.611022 0.308104 0.300873 -0.737754 -0.249286 -0.133179 0.119474 0.296485 0.191161 0.286358 -0.406015 -0.190354 0.016874 -0.123626 -0.226732 -0.132786 0.471859 0.446399 0.329283 -0.117115 0.127698 0.377388 -0.001066 -0.022733 -0.531194 -0.066582 -0.454897 -0.625654 -0.074578 -0.048637 -0.158550 -0.122266 -0.175735 -0.139657 -0.238303 -0.566013 0.513326 0.195072 0.252291 0.236243 0.495475 0.187800 0.178225 0.160465 0.106390 0.208233 -0.276765 0.306023 0.442077 0.028201 0.381092 0.094125 0.187826 0.212670 -0.097806 0.382574 -0.074531 -0.345959 -0.398730 -0.027113 0.037578 0.122404 0.017364 -0.023442 0.135032 -0.160449 -0.224696 -0.073184 0.458789 0.017399 -0.361703 0.149353 0.355664 -0.258699 0.234676 -0.306172 0.506737 -0.030740 -0.464020 -0.246015 -0.246013 -0.083786 -0.056446 -0.187794 0.143820 -0.384654 -0.016281 0.291488
риск 0.002830 0.269530 -0.085360 -0.204372 0.104078 -0.034332 0.056122 -0.313753 -0.707770 0.217855 -0.066958 0.335986 0.029824 -0.206656 -0.566043 -0.195450 -0.314277 -0.247861 -0.407625 0.079857 0.200911 -0.111582 -0.657786 -0.165743 0.254167 0.404312 -0.367985 0.336318 -0.340577 0.492798 0.036698 -0.208217 0.039893 -0.266273 0.184485 0.004624 -0.541538 -0.351464 0.143207 -0.267597 -0.716939 -0.103645 0.120313 0.270094 -0.506780 -0.376759 -0.390202 0.358840 -0.336031 -0.107959 -0.131493 -0.412447 0.630022 -0.374060 -0.512986 0.184079 0.166413 0.450462 0.188433 0.341464 -0.110351 0.123834 0.264205 -0.108118 0.252342 0.101717 0.348424 -0.146277 0.020071 -0.100809 0.041364 0.320282 0.171404 0.247499 0.153591 -0.256179 0.208890 0.054496 -0.058653 -0.794721 -0.415860 -0.145110 0.399696 0.310860 0.261445 -0.308037 0.097071 -0.046506 0.508491 0.051966 0.080013 -0.384505 -0.147875 -0.012658 -0.158436 -0.253668 0.024556 0.257002 0.351097 0.084528 -0.107929 -0.114465 0.160365 0.230237 -0.285801 -0.177232 0.196273 0.160554 -0.020280 0.308855 -0.170127 -0.333886 0.066170 -0.080181 -0.044211 0.114525 0.241562 0.705167 -0.031630 0.220750 0.100980 -0.450542 0.097782 -0.334735 -0.105812 0.022882 0.222393 -0.116188 -0.458998 0.177495 0.489882 -0.263082 -0.592373 0.124464 -0.078180 0.562966 0.417124 -0.338878 0.190566 -0.307945 -0.013579 -0.082826 0.462601 -0.127165 -0.196012 0.202969 0.111028 0.203778 -0.106864 -0.666928 0.056392 -0.517640 -0.422005 0.193219 -0.449194 -0.119522 -0.107450 -0.191063 0.161381 -0.775108 0.048871 0.145209 0.192346 0.462203 0.083430 0.166256 -0.099992 -0.168279 -0.071377 -0.026233 0.148073 -0.546774 0.101481 -0.077986 -0.436311 -0.057331 -0.112828 -0.208968 -0.023405 0.158854 -0.401891 0.270948 -0.007800 -0.191558 0.101736 0.218127 0.231396 -0.324731 0.276655 -0.285249 -0.327843 0.333028 -0.140412 -0.350804 0.545476 -0.162850 0.211804 -0.079723 0.367836 -0.159927 -0.163485 -0.087437 0.504069 -0.123960 0.166976 -0.022442 0.748332 -0.387471 0.006646 -0.236859 0.046307 -0.142230 -0.260395 0.192614 0.245953 0.017273 -0.469556 -0.167144 0.192233 -0.043778 0.334337 0.335992 0.081680 0.063778 -0.528024 0.056887 0.157860 0.273268 -0.222845 0.562971 0.346341 0.043092 0.092064 -0.454212 -0.588319 0.436152 -0.318450 -0.156608 -0.304940 0.659104 -0.543453 -0.461386 -0.058983 -0.179207 -0.244646 -0.233166 0.121251 0.040366 -0.042332 -0.278351 0.100381 0.023731 -0.267802 -0.104975 -0.095492 0.195826 0.163684 0.382254 0.305135 -0.218878 0.057327 -0.111790 0.683483 0.216311 0.141049 0.210467 0.123718 0.443747 0.283394 -0.240918 -0.734883 -0.314540 -0.045569 -0.117912 -0.280383 -0.052798 0.330399 0.058192 0.156381 -0.019521 -0.006474 -0.342122 0.022775 0.077199 -0.213837 -0.158501 -0.061161 -0.497287 0.363801 0.083611 -0.014673 -0.165811 0.038906 0.297018 -0.348818 0.001377 -0.201223 0.228401 -0.214446 -0.096010
цена -0.091717 -0.142637 -0.059247 0.091865 -0.037254 -0.071869 0.249913 -0.065908 -0.159551 -0.284074 0.104570 -0.062921 0.187504 -0.342008 -0.033661 -0.110821 0.279241 -0.095524 -0.136922 -0.164078 0.220188 0.145082 -0.270561 -0.296039 0.504644 -0.360217 0.129779 0.147179 -0.180082 0.172031 0.394984 -0.384308 0.515128 0.263625 0.286341 -0.521636 -0.150616 0.209703 -0.178609 0.003050 0.032727 -0.036394 -0.147537 0.194016 0.047373 -0.183324 0.306401 -0.000499 -0.066660 0.355527 0.128634 0.346602 0.411910 -0.865398 -0.028175 0.096535 -0.071316 -0.148468 0.054748 0.039118 -0.487024 -0.552666 0.565210 -0.607249 0.305432 0.058787 -0.342678 -0.204499 0.048230 0.069390 0.256704 0.125143 0.278880 -0.213016 0.453604 0.121552 -0.085593 0.066215 0.066306 -0.276699 -0.134735 -0.187867 -0.280885 -0.091318 -0.021890 -0.386354 0.526091 -0.223609 -0.253444 0.049348 -0.366652 -0.182877 0.095442 0.042500 -0.151048 0.148162 0.179135 0.062049 0.309011 -0.025265 -0.119963 0.081675 -0.246805 -0.288561 -0.451871 -0.086390 -0.048616 0.089156 0.287970 -0.027662 -0.049022 -0.274193 -0.156672 0.160555 -0.034750 0.239232 0.217362 -0.237301 0.264468 -0.024155 -0.345497 -0.552323 -0.477723 0.166615 0.112588 0.293999 0.038622 -0.002355 -0.367612 0.128768 -0.105069 -0.197337 0.474313 0.022501 -0.471987 0.019082 0.177523 0.233861 0.329673 0.021351 -0.025869 0.255094 0.329683 -0.135985 -0.246456 -0.302540 -0.205682 0.592854 0.039706 -0.341864 -0.012754 -0.033690 -0.542900 -0.054122 -0.385546 0.033020 0.134402 0.272713 0.130434 -0.617997 0.353363 -0.036690 0.347068 0.136608 -0.096816 0.480210 -0.069583 0.512668 0.244243 0.264228 -0.039332 0.050136 -0.142429 -0.446567 0.271267 0.232627 -0.007153 -0.166281 -0.154868 -0.101093 -0.464984 -0.093725 0.017844 0.235127 0.134853 -0.101990 -0.315439 0.008240 -0.208723 -0.256537 0.145506 -0.026165 0.111963 0.126144 0.229270 -0.480145 -0.179459 -0.116474 -0.198226 0.387320 -0.107676 -0.194788 0.234537 0.187948 -0.217823 0.231495 -0.042930 0.450310 0.247274 -0.068376 -0.032849 0.075016 0.114926 -0.253319 0.382780 0.217470 -0.673030 -0.211671 0.444747 -0.257599 -0.121870 0.187546 -0.057941 -0.048893 -0.110386 0.410311 0.160425 0.101964 -0.139960 0.546291 -0.287921 -0.052162 0.079636 0.117572 0.124355 -0.063063 -0.222865 -0.251340 0.521936 0.326025 -0.073894 -0.281919 -0.275435 -0.654113 0.309020 0.196813 0.328077 0.154825 0.534768 0.074860 -0.295932 0.165749 -0.080725 -0.579526 0.048565 -0.319633 0.061217 -0.127593 0.020698 -0.047706 -0.001974 -0.141027 0.027572 -0.347916 -0.101213 0.217325 -0.017299 0.130118 0.501673 -0.256066 -0.212860 0.402715 0.263948 0.195341 -0.589645 -0.126211 -0.236838 0.289335 -0.101925 -0.147808 0.144419 -0.537367 0.085344 -0.036590 -0.044792 -0.111641 0.090253 -0.512562 0.098230 -0.161691 -0.095210 -0.214753 0.343494 0.179244 -0.056666 0.359301 -0.173665 0.126065 -0.236126 0.029064
быть 0.081374 -0.159428 0.051461 0.270158 -0.218932 -0.067133 0.212929 -0.194332 -0.425769 0.066032 0.075617 0.004939 -0.294107 -0.423313 -0.157052 -0.146432 0.078024 0.004135 -0.480023 0.021372 -0.370506 0.204898 -0.789243 0.015506 0.437087 0.424920 -0.135388 0.318155 0.009721 0.453131 0.169617 -0.115566 0.180357 0.127073 -0.291958 0.041608 -0.254581 -0.055743 0.356219 -0.444067 0.116320 0.253324 -0.631814 0.205173 -0.523501 -0.491771 0.093538 0.209412 0.044047 -0.100818 -0.012852 -0.037389 0.240713 -0.077818 0.146906 0.007651 0.142920 0.317442 -0.362533 0.452036 -0.273961 -0.171607 0.057588 -0.015159 -0.235012 0.140485 -0.070636 -0.247870 0.002535 -0.701522 0.159441 0.220473 -0.198696 0.181838 0.383245 0.056347 -0.147279 -0.180174 -0.286450 -0.819571 -0.153782 0.002729 -0.087572 0.025062 0.038591 -0.165475 -0.174347 -0.114238 -0.017482 -0.183720 0.016331 0.001832 -0.111868 -0.061999 -0.177616 -0.071465 0.349164 -0.226860 0.243308 0.559939 -0.042603 -0.329509 0.078621 -0.143051 -0.042851 -0.229227 0.385896 -0.175455 -0.037872 -0.309868 -0.672662 -0.315039 0.129856 0.208807 0.136744 -0.160144 0.240170 -0.043269 0.362034 -0.218258 0.227830 -0.242906 -0.392996 0.028872 -0.114456 -0.376326 0.081597 0.003345 0.142720 0.228769 -0.045522 -0.121721 0.546419 0.162778 -0.320108 -0.383150 0.105615 -0.045700 -0.102281 -0.398360 0.482357 0.536432 -0.039381 -0.182380 -0.087600 0.371647 -0.486709 0.633498 -0.329175 -0.628791 0.127777 0.303246 -0.211530 -0.189400 -0.066965 -0.312924 -0.029922 -0.550130 0.505735 -0.414413 0.154986 -0.114673 0.410695 0.124922 -0.004217 0.177301 0.085952 0.033315 -0.160922 -0.091344 -0.669867 0.057161 -0.451523 0.210268 -0.277322 -0.218949 0.126425 -0.047166 -0.246593 -0.105848 -0.650461 0.198569 -0.323942 -0.073145 0.179053 0.036948 0.113248 0.017807 -0.352966 0.140923 0.078781 -0.209462 0.002336 -0.220806 -0.202492 -0.635856 0.051170 0.104241 0.310020 0.159236 -0.503234 -0.026566 0.364477 -0.437972 -0.014283 -0.103130 0.345655 -0.055633 -0.002933 -0.027090 -0.121771 0.231470 -0.418617 0.177604 0.238187 0.308605 -0.048326 0.286137 0.159591 0.296234 -0.078071 0.301629 -0.359233 -0.064774 -0.236373 0.071951 -0.030273 0.157640 -0.116911 0.475593 -0.262763 0.257037 -0.083489 0.330332 -0.223767 0.097893 -0.462851 -0.251724 -0.465127 -0.386265 0.070091 0.172617 -0.235099 -0.011841 0.075212 -0.060437 0.134596 -0.195149 0.467272 0.187699 -0.491826 0.424798 0.436350 0.165347 -0.000028 -0.250572 -0.328362 0.567575 -0.122805 0.336081 -0.487453 -0.409319 0.107473 0.002553 0.035970 -0.234942 -0.252418 0.499166 0.382153 -0.165274 -0.192228 -0.184404 -0.077330 -0.476600 -0.005934 -0.064485 -0.227964 -0.071688 -0.089184 -0.131709 0.289056 -0.059847 -0.228282 0.139664 0.364878 -0.337802 -0.198753 -0.163467 0.033378 -0.114649 -0.159777 -0.131133 -0.157602 0.068660 -0.302408 0.147148 -0.313532 -0.199234 -0.107003 0.129005
условие -0.129062 -0.092478 0.563577 0.047466 -0.245612 0.142682 0.283299 -0.155186 -0.379588 0.476141 0.117431 0.102437 -0.080032 -0.001963 0.008880 -0.013554 0.035485 0.152044 -0.487414 0.311171 0.112118 0.183453 -0.423370 -0.483930 0.017444 0.308580 0.108439 0.076916 -0.140996 0.001665 0.055749 -0.194420 0.549652 0.282605 0.116754 -0.413235 -0.778871 0.018629 -0.172076 -0.046838 -0.694950 -0.263944 -0.274525 0.117561 -0.497976 -0.216102 0.017764 0.324910 -0.025477 -0.159252 -0.200658 0.159295 0.168657 0.299298 0.180661 0.051447 -0.128359 -0.260320 -0.152142 0.310390 0.294163 0.252787 -0.363017 0.292660 -0.043183 0.348214 0.213684 -0.163839 -0.045484 -0.024763 -0.008388 0.333106 0.078627 0.228224 0.117816 -0.298470 0.192524 0.134644 -0.303457 -0.183848 -0.305476 -0.444947 0.459386 0.289752 0.347442 -0.399819 0.203171 -0.120224 0.351987 0.114497 -0.031073 -0.218014 -0.363285 -0.163635 0.159796 0.061841 -0.000417 -0.325806 -0.156686 0.459961 -0.371859 -0.148492 -0.153425 0.097506 -0.106505 -0.070106 0.253700 0.010731 -0.143626 0.231646 -0.161808 -0.366928 0.073991 0.182311 -0.360138 -0.114115 0.383221 0.502330 0.091866 -0.014138 -0.045712 -0.345850 -0.027146 -0.081291 0.293874 0.223087 0.041273 -0.075040 -0.227445 0.335325 0.185979 0.003623 -0.088984 0.066851 0.373977 -0.302111 0.285606 -0.212720 0.242552 0.048672 0.032199 0.252418 0.343951 0.072065 0.003622 0.027625 -0.135648 0.329977 -0.174157 -0.212219 -0.223101 0.048556 -0.415502 -0.046936 -0.210380 0.024078 0.063200 0.002406 0.129078 -0.306570 0.430091 0.025175 0.133111 0.021255 -0.370021 -0.063934 0.438009 -0.056580 0.057184 -0.163495 0.219804 -0.096346 0.282357 -0.150657 -0.393275 -0.506017 -0.189330 0.104327 -0.186350 0.193191 -0.309907 0.647981 -0.268967 -0.055964 0.426496 0.235633 0.396905 -0.222982 0.044737 0.280779 -0.202284 0.055065 0.142013 -0.034875 -0.023377 -0.665215 -0.010613 0.281949 0.422352 -0.092013 -0.154617 0.144638 -0.164403 -0.224562 -0.102055 0.306999 0.359027 0.490963 -0.098409 -0.206183 0.022084 -0.023269 -0.267360 0.249825 0.094965 0.021393 0.087535 -0.408158 0.203519 0.187880 -0.044663 0.193194 -0.305441 0.101260 0.210680 0.043259 -0.322305 0.069189 -0.240581 0.019824 0.029532 0.238811 -0.350818 -0.401102 0.216629 0.414520 -0.226941 0.144325 0.077735 0.366588 0.048535 -0.460436 -0.301530 -0.041117 -0.040519 -0.089195 0.288250 -0.115679 0.324236 0.315321 -0.046550 -0.186263 -0.275910 -0.031436 0.168768 -0.079922 0.013214 0.118513 -0.051505 0.165667 -0.086558 -0.196220 0.336470 -0.129890 0.035723 -0.085402 -0.010672 0.195604 0.197760 -0.147948 -0.321456 0.168816 0.186619 -0.237149 -0.187998 0.301099 0.249057 0.094272 -0.040555 0.116174 -0.032921 -0.373310 0.050395 -0.201217 -0.223604 -0.459965 0.075750 -0.223478 -0.143356 -0.517736 0.131302 0.196044 -0.099629 -0.305421 -0.246615 -0.330016 0.050281 -0.164144 0.272092 0.276396
к -0.156057 0.282019 0.141697 -0.330494 0.174353 -0.416084 0.405207 0.131735 -0.193298 0.420583 -0.058670 -0.162797 0.387054 -0.182891 -0.347938 0.178685 0.423319 -0.554275 -0.027446 -0.048126 0.093518 -0.023458 -0.989181 -0.365077 -0.162893 0.425044 0.582190 0.106725 -0.263053 -0.417959 0.382280 -0.219480 0.324668 0.253437 -0.089854 0.241672 -0.339331 -0.190465 0.551229 0.119651 -0.106020 -0.141248 -0.532138 -0.093351 -0.476757 -0.073495 -0.016219 -0.346390 -0.011266 0.382575 -0.206133 0.458446 -0.033524 -0.289284 -0.465547 0.092994 -0.497653 -0.245895 -0.576118 -0.077250 0.413226 -0.035020 0.378608 0.254751 0.000167 -0.427725 0.447057 -0.288819 -0.082770 0.361615 -0.143333 0.158092 -0.204736 -0.221505 -0.210951 0.220223 -0.088518 -0.260394 0.145240 0.186038 -0.346215 -0.261074 -0.073520 0.213983 0.099877 -0.372187 -0.189102 -0.197126 0.942362 0.239609 -0.539852 -0.302030 -0.160329 -0.064711 0.439019 0.117402 -0.080471 0.088442 0.336513 0.128538 -0.525893 -0.166368 0.042066 0.428400 0.093408 -0.320231 -0.359094 -0.009499 -0.222188 0.182846 -0.071100 -0.478842 -0.258048 -0.400390 -0.180232 0.044538 0.282803 0.403444 -0.005749 0.185688 -0.092167 -0.324381 0.250624 -0.120144 -0.049179 0.176253 -0.489664 -0.214581 0.211277 0.495259 0.260377 -0.496239 -0.134882 -0.025166 0.617123 0.096508 0.345625 0.681121 0.135172 0.259557 0.394528 -0.102926 0.472189 0.759645 0.403946 0.450466 -0.175947 0.373099 -0.232480 -0.055569 -0.142356 0.539378 -0.012877 -0.327679 -0.487012 -0.459656 0.573804 0.228232 0.278015 -0.084034 -0.331939 0.038514 0.293233 0.087711 0.079183 0.318932 0.044787 0.000346 0.147681 0.168525 -0.290828 -0.171521 -0.017454 -0.092882 -0.148998 -0.225465 -0.254968 -0.345444 -0.528007 -0.280582 -0.597726 0.128903 0.105673 -0.317862 0.038869 -0.247746 0.313116 0.191141 -0.377264 -0.094648 -0.076384 -0.060779 0.174301 -0.137274 0.066862 -0.307973 -0.121177 0.287743 0.494457 -0.227142 -0.235360 0.192348 -0.432273 -0.378673 -0.322157 0.770844 0.178914 0.299246 -0.008738 0.013007 0.113645 0.068531 -0.421086 0.060258 0.319033 0.124684 -0.646890 -0.023802 0.161217 -0.236480 0.369295 0.167435 -0.115265 0.143610 0.118843 0.192158 -0.028649 0.670969 -0.022488 0.186602 0.134427 0.003756 -0.009422 0.185116 -0.132448 0.273796 0.033397 0.141650 0.071487 0.389407 -0.229791 -0.125281 -0.239558 -0.212738 -0.183442 0.159362 0.315222 -0.168761 0.640112 0.389068 0.047398 -0.137928 -0.075275 0.018908 0.230645 -0.048120 -0.130240 -0.164209 0.340177 0.172245 0.132545 -0.437514 0.080560 -0.134386 0.268777 0.033191 -0.367507 -0.436896 0.513283 0.175215 0.063836 0.275421 0.156145 0.558944 -0.453872 0.034788 0.100104 -0.015395 -0.050852 0.359732 0.126384 -0.581311 -0.409916 0.194336 0.082956 -0.175599 -0.046713 -0.125412 0.453354 0.287763 0.335513 -0.038895 0.135150 0.341986 -0.442572 -0.187962 0.308870 0.415634 0.299562 0.080924
инфляционный -0.119508 -0.055136 -0.092484 -0.515264 -0.162775 -0.019894 0.338143 -0.228314 -0.692634 -0.209467 -0.312962 0.127677 -0.022092 -0.150064 -0.406311 -0.140199 0.171778 0.012203 -0.252738 0.263180 -0.179776 -0.061182 -0.926367 0.151120 0.139745 0.076402 -0.163144 0.334982 -0.545211 0.173445 0.421090 -0.241844 0.049067 -0.417849 0.166116 0.030797 -0.118799 0.289988 -0.015060 0.215815 -0.243622 0.159241 0.220921 0.433502 -0.469600 -0.158837 -0.107399 0.173558 -0.259428 -0.184444 0.045219 0.151470 0.443039 -0.248798 -0.384354 0.268759 -0.007948 0.186445 0.323398 0.555460 -0.193111 -0.196797 0.431901 -0.143465 0.179591 -0.364491 0.243949 -0.142737 -0.053717 -0.049378 -0.323105 0.327307 0.060379 -0.175480 0.397837 -0.086246 0.084877 -0.473820 -0.082781 -0.080764 -0.390877 -0.330931 0.025977 0.317803 0.084759 -0.009640 -0.036596 0.002156 -0.515466 0.310173 0.069636 -0.144612 -0.087696 0.229666 -0.074354 -0.014172 0.004481 0.375610 0.452154 0.228356 0.200246 -0.016793 0.435543 0.182632 -0.218046 -0.108104 0.192776 0.290084 -0.104912 0.165876 0.247647 -0.332967 0.052004 -0.172076 -0.071933 0.186330 0.344400 0.356863 0.091539 0.119116 -0.222751 -0.623392 -0.111354 -0.209490 -0.040377 0.051983 0.108470 -0.340661 -0.051412 0.163754 0.337590 -0.318854 -0.296441 0.068833 0.045926 0.479063 0.222476 -0.040641 0.320476 -0.157567 0.197692 -0.425590 0.407472 -0.064245 0.105956 -0.094506 -0.029154 0.310121 0.169869 -0.327806 -0.110112 0.083389 -0.108650 0.304344 -0.642046 -0.282783 0.159173 -0.016403 -0.019256 -0.511393 0.193596 0.005553 0.007853 0.073385 -0.036566 0.381976 -0.144979 0.463300 -0.262509 0.022707 0.218121 0.044607 0.000327 -0.067787 -0.070520 0.181016 0.024478 -0.157739 -0.234832 0.163616 -0.129488 0.080849 -0.075338 -0.411707 0.031328 0.035809 -0.058351 -0.100704 -0.165892 -0.049055 0.067888 0.145049 0.233640 -0.050461 0.061203 -0.037007 0.103587 -0.026924 0.089775 -0.018960 -0.070007 -0.249999 0.264129 -0.056167 0.000210 0.039070 0.419735 -0.271371 0.135769 -0.088920 -0.152951 -0.145158 -0.063727 0.446237 0.160870 -0.041827 -0.357075 0.110467 -0.050270 0.173512 -0.048659 0.201765 -0.034560 0.072498 -0.287823 0.201723 0.068295 0.291372 -0.282303 0.589235 0.023071 0.019884 0.029875 -0.105050 -0.348646 0.486894 -0.395979 -0.087306 -0.041597 0.423103 0.002999 -0.186772 -0.501254 0.102382 -0.074531 -0.145645 -0.127865 0.008800 0.422497 0.121202 0.053813 0.117650 -0.318945 -0.350217 -0.224695 0.216738 0.181141 -0.036692 0.012140 0.088516 0.255896 -0.363024 0.035062 -0.280551 -0.092318 0.306238 0.238705 0.356483 0.457881 -0.220500 0.020046 -0.156774 -0.050681 0.246799 -0.008841 -0.067710 -0.140995 0.094136 0.284949 -0.128781 0.059275 -0.584295 -0.177789 0.217738 -0.126223 -0.068461 -0.022963 -0.415723 0.123104 -0.217847 -0.198444 -0.222228 0.502214 0.318980 -0.305231 0.211206 -0.195415 -0.227906 -0.128662 0.078527
годовой 0.231701 -0.069103 0.213493 -0.243238 0.085578 -0.323644 0.222929 0.153559 -0.047520 -0.357169 0.123209 0.000875 -0.137933 -0.378002 -0.197599 -0.750116 0.652883 -0.037633 -0.165607 0.166817 -0.159007 -0.201342 -0.027547 -0.415729 0.474550 0.214004 0.324719 0.101357 0.438099 0.030366 -0.041027 -0.052356 0.254089 0.118508 0.166164 -0.591363 -0.161243 0.508158 0.101457 -0.094737 0.028495 0.067834 -0.230760 0.430812 -0.067565 -0.075628 -0.186484 -0.160040 0.466380 0.422219 0.159192 0.356557 0.429422 -0.367327 0.222091 0.169631 -0.023575 -0.033108 -0.498060 0.217167 -0.280254 -0.293881 0.255372 -0.008001 0.223151 0.207985 -0.055073 -0.343218 -0.215240 0.287735 -0.044415 0.169208 0.936613 -0.539547 0.384925 0.198996 -0.254436 -0.143503 -0.330246 -0.108499 -0.119023 -0.181250 -0.494519 0.198403 0.083762 -0.368467 0.347653 -0.067098 0.240574 0.433330 -0.324057 -0.556050 -0.131038 0.120763 -0.239600 0.277409 0.294511 -0.088198 0.630259 -0.115943 0.028190 0.674653 0.002975 -0.171321 0.253707 -0.114267 0.239337 -0.006324 0.248713 0.240362 -0.045469 -0.459071 -0.154451 -0.160802 -0.013746 0.097900 0.435511 -0.201451 -0.065426 -0.023563 -0.204931 -0.313412 -0.511002 -0.080028 0.610579 0.397592 0.196704 -0.295172 -0.318294 0.226900 -0.088514 -0.567371 -0.022417 -0.135533 0.057961 0.249057 0.317548 0.172738 0.228408 -0.121441 0.172708 0.001778 0.565172 0.167520 0.433881 -0.203997 -0.427579 -0.012579 -0.262231 -0.372651 0.181978 0.164269 0.030523 0.149507 -0.411087 -0.200817 0.395725 0.593745 0.275098 -0.124516 0.147675 -0.590400 0.461608 -0.073171 -0.226479 -0.053280 0.078493 0.185089 0.387659 -0.248476 -0.202429 0.068266 0.005825 0.371449 -0.350716 -0.011726 -0.060318 0.023580 -0.363676 0.257707 -0.472466 -0.009539 0.173998 -0.286622 0.274968 -0.247727 0.065333 0.065233 -0.274024 0.116164 0.267766 -0.180842 -0.025202 -0.042124 -0.237315 -0.843450 -0.191413 0.197123 -0.054222 0.402839 0.116436 -0.036658 0.028141 0.104603 -0.263499 -0.008978 -0.129322 0.192463 0.052737 -0.121838 0.141633 0.499682 -0.066323 -0.189302 0.104783 0.297120 -0.474793 -0.604269 0.038722 0.012813 0.292471 -0.354986 -0.361533 0.310886 -0.356925 0.335944 -0.211196 -0.164197 -0.082659 0.678506 -0.034779 -0.414434 0.015910 0.219520 0.038806 0.168975 -0.160069 0.009517 -0.407518 -0.251237 -0.250866 -0.215132 -0.108846 -0.556325 0.159282 0.005717 0.122592 -0.499391 0.525575 0.227470 0.031276 0.160563 0.058454 -0.193397 0.239465 -0.115482 0.073355 0.188267 -0.174681 -0.115714 -0.465169 -0.037436 0.172975 0.051649 -0.078437 -0.005866 0.098615 0.317728 0.001621 -0.193664 -0.373401 0.080613 0.144561 -0.011404 -0.043287 0.071824 -0.228834 -0.300182 -0.229416 0.012917 0.577632 0.334167 -0.159144 0.197771 -0.061921 -0.181412 0.094470 -0.352313 0.336414 0.074318 -0.266343 -0.053837 0.250733 -0.175351 0.033042 -0.101329 0.012912 0.079240 0.181153 -0.228493
динамика -0.228033 0.050324 0.362785 0.277355 0.061530 -0.066317 0.446062 0.116743 -0.627713 0.049255 -0.118546 0.273051 -0.230798 -0.150763 -0.185780 -0.323858 0.089706 -0.108491 -0.271240 0.094852 -0.038334 0.101907 -0.771230 -0.327517 0.157806 0.191112 -0.220215 0.183163 0.164588 -0.220383 0.127523 0.039496 0.311668 0.220743 0.354322 -0.305299 -0.336136 -0.267242 0.001214 0.103161 -0.458280 0.228262 -0.194084 0.142122 -0.306008 0.090439 -0.031611 0.429593 -0.178201 0.099781 0.084028 -0.296881 0.563468 -0.504148 -0.428503 0.216658 0.083796 0.092843 -0.518969 0.202947 -0.396731 -0.338616 -0.055474 -0.155983 0.494941 0.163244 -0.285642 -0.177965 0.458672 -0.274708 0.119771 0.134328 0.077932 -0.093349 0.543608 0.295485 0.170941 0.090811 -0.502640 -0.503661 -0.492593 -0.339410 0.148736 -0.310948 -0.044117 -0.053632 0.048349 0.032982 0.365669 -0.317079 -0.106023 -0.034532 -0.216568 0.080036 -0.112556 0.233040 0.074153 0.100071 0.236731 -0.069936 0.085921 -0.162923 -0.072835 0.045500 -0.166245 -0.563342 0.076121 0.419807 -0.012069 0.294384 -0.020887 0.104656 -0.076643 0.071134 0.142448 0.210775 -0.160342 0.068419 0.251844 -0.114927 -0.337602 -0.239675 -0.190406 -0.345918 -0.052156 0.088861 0.122612 -0.151244 -0.072789 0.362743 0.408046 -0.469299 0.142273 0.122519 -0.379705 -0.074413 0.497852 0.357844 -0.317167 -0.328715 0.084086 0.491746 0.172249 -0.706746 -0.259258 -0.196913 -0.037765 0.628547 -0.008516 -0.418852 0.166072 -0.301929 -0.292796 0.197730 0.068994 -0.152788 0.321155 0.291585 -0.171123 -0.365909 0.441099 0.080797 0.268875 0.086909 0.121289 0.178913 0.140140 0.012487 0.161745 -0.178957 -0.381706 -0.282733 -0.236045 0.273042 -0.095908 -0.020585 -0.145506 -0.116113 -0.124921 0.275667 -0.718951 0.007936 -0.318048 0.305320 0.259437 0.006496 -0.154615 -0.011778 0.012611 0.201112 -0.009965 -0.370777 0.189727 0.113463 0.085463 -0.434204 0.049088 0.070469 0.003350 0.067348 -0.735187 -0.244998 -0.096259 -0.304010 -0.406501 0.014464 0.148952 -0.016870 0.013310 -0.233304 0.386852 0.251883 0.137841 -0.039678 0.137253 0.252502 -0.050056 -0.295747 0.204635 0.027796 -0.268549 0.350296 0.183844 -0.175762 -0.376790 0.052813 -0.046939 0.093988 -0.111449 0.409930 -0.374549 -0.113939 0.130344 0.088655 -0.069863 0.129238 -0.155706 -0.271428 -0.681885 0.233094 -0.165897 0.129738 -0.335664 -0.472857 0.313051 -0.254309 0.395205 -0.078186 0.265939 0.175468 0.024536 0.399590 0.368969 -0.271569 -0.042707 -0.065506 -0.458379 -0.019581 0.104711 0.579644 -0.409260 -0.108558 0.417536 -0.064228 -0.036962 -0.312074 -0.158824 0.339110 0.247973 -0.428350 -0.101199 -0.045343 -0.007511 -0.150572 -0.235065 0.163556 0.127062 -0.199167 0.038907 -0.188441 0.067042 0.108599 0.022217 -0.018755 0.126500 0.062091 -0.106264 -0.010449 0.001356 -0.178842 -0.003807 -0.292987 -0.151970 0.165921 -0.046695 0.334509 -0.154807 0.494482 -0.318576 0.274698
уровень -0.083322 0.012658 0.050358 -0.237426 -0.431426 -0.143943 0.085838 -0.100434 -0.570025 -0.119875 0.309154 0.155594 -0.156827 -0.500590 -0.076025 0.044255 0.242395 -0.262750 0.006535 -0.006166 -0.640288 0.299694 -0.638526 0.066857 -0.076607 0.717002 0.203284 0.187794 -0.205326 0.137118 0.455927 -0.131428 0.055261 0.096666 -0.072423 -0.201014 -0.194008 -0.089140 0.119859 -0.144574 0.217081 0.406664 -0.237630 0.140778 -0.568310 -0.599249 0.050421 -0.330069 0.086646 0.453243 0.282606 0.338736 -0.014050 0.080518 -0.698769 0.145757 -0.197396 -0.178798 -0.450995 -0.040782 -0.196008 -0.350031 0.323121 -0.182463 0.016894 0.155434 0.186493 -0.387347 0.007726 -0.203683 -0.330946 0.283846 -0.163378 -0.436571 0.046497 0.416191 -0.042638 -0.372541 0.105833 -0.111307 -0.204638 -0.323568 -0.466769 -0.002987 0.265234 0.048060 0.164455 0.010241 -0.244097 -0.094979 -0.114793 0.257346 -0.136070 0.391017 -0.170172 -0.158196 -0.084399 0.382389 0.186703 0.305721 0.006721 -0.116038 0.075582 -0.147279 -0.035260 0.094961 0.174336 -0.006915 0.093404 -0.148142 -0.715626 -0.440250 -0.035365 0.171016 0.237602 0.111514 0.323678 0.509947 -0.068557 0.090460 0.141033 -0.450147 -0.111541 0.277083 0.591940 -0.280898 -0.015434 -0.083189 0.202547 0.123368 0.058275 -0.502203 -0.011958 -0.353382 0.075226 0.208662 0.222202 0.351526 0.391881 -0.034774 0.005346 0.218179 0.588049 0.093683 0.384791 0.282254 -0.302321 0.300924 -0.076609 -0.521519 -0.349414 0.652925 0.108089 0.265329 -0.289614 -0.020355 -0.047090 0.004514 0.284963 -0.272617 0.233793 -0.200524 0.013058 0.019851 0.004715 0.149923 0.023982 0.234381 0.163770 -0.196940 0.116176 0.061237 -0.140937 -0.013357 -0.402472 0.242381 0.166124 0.100421 -0.268880 0.056029 -0.401175 0.223495 -0.112573 -0.214444 -0.185472 -0.424899 -0.251434 0.058827 -0.079565 -0.100700 -0.124833 -0.008460 0.130305 -0.140002 -0.182209 -0.578466 -0.152766 0.258171 0.481477 0.095422 0.235445 0.377129 -0.348039 -0.494596 -0.037009 0.240120 0.387411 -0.014456 0.262947 -0.038413 0.337805 -0.120832 0.005656 0.216935 0.270309 -0.220822 -0.414769 -0.189864 0.391429 0.615751 0.103879 0.103107 -0.492648 0.162315 -0.235357 0.165488 -0.366096 -0.012234 -0.127652 0.168723 0.141682 -0.223712 -0.074543 0.261847 -0.115051 0.098611 -0.409999 0.238522 0.105096 0.419594 0.228814 -0.169128 -0.308069 -0.212972 0.160016 0.081885 0.207376 -0.257975 0.257793 -0.102904 0.138736 0.041453 0.416769 0.358369 0.001121 0.063793 -0.286215 0.216596 -0.005216 0.007660 0.090360 -0.079616 0.152697 0.243678 0.190949 0.114716 -0.358831 0.615258 0.319462 0.004182 0.036692 -0.212080 -0.428192 0.147351 0.140500 -0.190831 -0.382242 -0.321199 -0.334838 0.304027 0.471150 -0.019198 0.042240 0.174312 0.043218 -0.144869 -0.286700 -0.156818 0.132926 0.156583 -0.006650 -0.099320 0.211366 -0.186627 -0.192342 -0.268119 0.129921 -0.122005 0.149195 0.061308
кредитный 0.310609 0.253191 0.703178 -0.339118 0.149782 -0.074292 0.069823 -0.039276 -0.365844 0.180210 -0.057690 -0.195167 -0.195018 -0.351791 0.150027 -0.164582 0.442789 0.265904 0.022364 0.240429 -0.267792 0.092969 -0.065463 -0.566014 0.466587 0.503290 0.092388 -0.150544 0.003989 -0.039969 -0.094397 -0.174156 0.302853 0.072380 0.238811 -0.459311 -0.694905 0.125848 -0.173943 -0.060130 -0.517451 -0.189752 0.053889 -0.236228 -0.547412 -0.472448 -0.124332 0.036254 0.290316 0.217470 -0.204681 0.301841 0.266434 0.036224 -0.051615 -0.071464 0.107159 -0.034075 -0.192169 -0.078583 -0.058516 0.078875 -0.023758 0.405855 -0.173195 0.154778 0.050865 0.009181 -0.270451 -0.012946 -0.033664 0.253536 0.116646 0.122042 -0.040856 -0.388131 -0.031609 0.275753 -0.401796 0.053040 -0.156913 -0.141092 0.468761 0.550222 0.407668 -0.420502 -0.240830 -0.009661 0.257730 0.229853 0.120652 -0.171813 -0.119017 0.118895 0.095199 0.011278 -0.079940 -0.317807 0.450017 0.287650 -0.435403 0.030506 -0.024362 0.060443 0.215411 -0.169616 0.295070 0.207116 -0.481842 0.025331 -0.081618 -0.275766 0.079809 0.198136 -0.289212 -0.067826 0.477875 0.076285 -0.167319 0.019816 -0.094183 -0.278700 -0.064339 0.020696 0.086847 -0.197316 0.075258 0.045633 -0.349831 -0.081125 0.040546 0.020006 -0.018154 0.284623 0.292573 -0.699428 0.403462 -0.321623 -0.095882 -0.089059 0.562770 -0.067374 0.196452 0.041912 0.297943 0.211868 -0.297893 0.107156 -0.153330 -0.441691 0.019854 -0.049490 -0.384651 0.154606 -0.243777 -0.016752 0.557401 0.216399 0.250846 -0.248635 0.059810 0.176183 0.346346 0.017134 -0.349199 -0.202730 0.233573 -0.060692 0.196395 -0.369807 0.034994 -0.196009 0.539673 -0.160040 -0.125191 -0.390358 -0.006792 0.273878 -0.336912 0.204429 -0.338659 0.657298 0.229598 -0.444403 0.139078 0.013966 0.345060 0.134394 -0.074413 0.161866 -0.080325 0.028988 -0.026224 -0.334685 0.078132 -0.402121 -0.049476 0.015701 0.439709 0.304829 0.025056 0.158293 0.108747 -0.443418 -0.009255 0.320962 0.190725 0.364045 -0.282893 -0.093213 0.056895 0.216536 -0.264240 0.105530 0.124112 0.135057 0.055349 -0.065570 0.091771 0.104825 -0.000779 -0.113761 -0.507142 0.402770 0.492524 0.205244 -0.356227 -0.208082 0.019748 0.015974 -0.169422 0.058836 -0.254339 0.171279 0.015979 0.219507 -0.360070 0.077842 -0.096093 -0.019072 0.022591 -0.137515 -0.048942 0.044498 -0.081556 0.352740 0.290738 -0.661574 0.738864 0.503612 -0.192583 -0.186389 -0.314826 0.163609 0.514005 -0.037368 -0.083035 0.150946 -0.199761 0.266056 -0.216235 -0.184880 0.267492 0.125415 -0.023203 -0.336808 -0.123793 0.111636 0.138879 -0.036442 -0.369995 0.284348 0.170936 -0.085365 0.036227 0.345085 0.248668 -0.332087 0.158049 0.160171 0.294393 -0.031767 -0.556213 -0.225296 -0.051705 -0.341603 0.175968 -0.089474 -0.439669 -0.301449 0.024051 0.338422 -0.062220 0.093254 -0.415685 -0.299477 0.133756 0.081335 0.403997 0.212186
экономика 0.075768 -0.137190 0.403067 -0.032448 0.056462 0.133825 0.265567 0.194805 -0.770598 0.073062 0.152465 0.045727 -0.012577 -0.172544 -0.212577 0.255762 -0.013951 -0.551165 -0.478045 0.049757 0.616080 -0.234323 -0.299469 -0.381274 0.071841 0.456733 -0.099373 -0.014204 -0.111149 -0.449588 0.411615 -0.262464 -0.221837 -0.218555 0.175423 -0.145111 -0.173982 -0.220774 -0.162818 0.088752 -0.533307 -0.216821 0.063002 0.399195 -0.306189 0.130989 0.290264 0.362957 0.007982 0.047419 -0.114047 -0.483433 0.580714 -0.253170 -0.443176 -0.390588 -0.004979 0.123597 -0.177110 0.368024 -0.335748 0.386213 -0.000704 -0.001430 0.102042 0.429426 0.388247 -0.470550 0.151755 -0.191794 0.150146 0.129200 0.049617 0.097670 -0.112821 0.076054 0.039768 -0.122371 0.083833 -0.270056 -0.505494 -0.302736 0.277642 0.317395 -0.136009 -0.374903 0.369713 -0.261453 -0.043753 0.062914 0.123899 -0.155867 -0.256294 -0.237186 -0.076864 -0.085590 -0.331448 -0.084925 0.155323 -0.275101 -0.391589 -0.063693 0.125530 0.266136 0.005691 -0.414169 0.022930 -0.206826 -0.025223 -0.082321 -0.357804 -0.341205 0.030219 0.022499 0.040425 -0.119727 0.112505 -0.017266 0.239981 0.101650 -0.032644 0.100442 0.272561 -0.091737 0.567687 0.258256 -0.051936 -0.028976 -0.366762 -0.050838 0.153622 -0.166438 -0.262321 0.312317 -0.417223 0.002675 0.041193 0.141346 -0.097644 0.039120 0.139870 0.168965 0.378290 0.119888 -0.146569 0.202274 -0.046892 0.177675 -0.146113 -0.209851 0.135383 -0.495761 -0.528927 0.022539 -0.262951 -0.269369 0.161189 -0.050728 -0.269817 -0.413474 0.185437 -0.189791 -0.066098 0.234213 0.326968 0.411190 -0.018261 0.140292 0.042501 -0.238528 0.160543 -0.371907 0.086453 -0.116954 -0.165611 -0.157791 -0.179736 -0.168348 -0.268215 -0.175417 -0.117243 0.454620 -0.024870 -0.012305 -0.047103 0.059638 -0.183393 -0.058520 0.049446 0.354787 -0.197373 0.267896 -0.182942 -0.086443 0.144586 -0.400403 0.031046 -0.185016 0.163806 -0.331277 -0.300431 0.094884 0.153501 -0.363837 0.061427 -0.029838 0.242448 -0.004986 0.261663 -0.023585 0.117959 -0.226349 -0.373100 0.255724 0.461720 -0.209689 0.148402 -0.419253 0.300361 0.171591 0.264695 0.410554 -0.419823 -0.177465 -0.253555 0.008759 -0.067575 0.520579 -0.181858 -0.045336 0.135773 0.313165 -0.029131 -0.180123 -0.004305 -0.255581 -0.007079 -0.076488 -0.157671 0.253191 -0.055572 -0.001791 -0.059246 -0.427825 0.264569 -0.061868 0.252638 -0.337715 0.309629 -0.066269 -0.193278 -0.197522 0.200220 -0.434502 0.228305 0.320636 -0.614342 0.306255 -0.160328 0.233484 0.218176 -0.282064 0.352365 0.196531 -0.100479 0.140434 0.056473 0.041371 -0.068388 -0.190778 -0.309724 0.009566 0.019908 -0.243574 -0.466980 0.072302 0.286868 -0.454533 0.008908 -0.166635 -0.231516 -0.043911 -0.140700 0.319023 0.302987 -0.160244 0.119904 -0.136181 0.171918 0.162624 0.228961 -0.365470 0.035077 -0.020463 -0.236037 0.146786 0.275440 0.568063 -0.068475 0.217378
рынок -0.313475 0.097578 0.375464 -0.043996 -0.135662 -0.180882 0.426964 -0.277090 -0.383646 0.071516 -0.001426 0.195584 0.038377 -0.048950 -0.085983 0.029632 -0.121369 -0.068633 -0.386007 0.074506 0.115171 -0.037870 -0.009891 -0.164345 0.245594 0.106271 -0.012076 -0.389759 -0.471749 -0.065654 0.398996 0.140265 -0.074902 0.011290 0.425600 -0.411462 -0.023864 -0.221665 0.198805 0.095610 -0.985181 -0.056821 0.257816 -0.084910 -0.459195 -0.082813 0.252608 -0.019580 -0.143043 0.054173 -0.252853 -0.093570 0.225545 -0.256919 -0.190720 -0.199686 -0.015246 0.179164 -0.079311 -0.333133 -0.272622 -0.236395 0.089659 0.248657 -0.112254 -0.011763 -0.375331 -0.261830 0.371751 0.209228 -0.208125 0.295907 -0.080031 0.176307 0.209486 -0.121711 -0.169698 -0.069948 -0.382103 -0.316398 -0.053795 -0.201314 0.419898 -0.145372 0.625691 -0.571489 -0.161167 -0.163000 0.292770 0.083384 -0.125562 -0.216351 -0.541477 -0.431896 0.120177 0.128083 -0.231214 0.180414 -0.040520 0.131688 -0.307955 -0.300933 0.091897 -0.099373 -0.486884 0.099904 0.133649 0.144367 -0.166183 0.148840 0.068747 0.168422 -0.147734 0.028194 -0.224000 -0.045312 0.171671 0.196025 0.089230 -0.124366 0.235479 -0.250372 -0.132164 0.077970 0.277332 0.403147 -0.037547 0.320571 -0.621148 -0.170091 0.006678 -0.108241 0.294154 0.016391 0.021178 -0.375983 0.248093 -0.053998 0.106912 0.036160 0.025321 0.264349 0.145993 0.087405 0.028945 -0.248975 -0.005915 0.029502 0.390205 0.023613 -0.089667 -0.252604 -0.698796 -0.196082 -0.019479 -0.043376 0.015180 0.171340 0.159093 -0.627589 0.049924 -0.196347 0.180517 0.371484 0.068139 0.103687 -0.183147 -0.171188 -0.147190 -0.420532 0.153467 -0.274143 0.258858 -0.278776 0.397327 0.319240 -0.068856 0.037034 0.151906 -0.136703 -0.624368 0.356287 -0.086913 0.250075 -0.027978 -0.455762 -0.127779 -0.230132 0.335785 -0.728087 -0.478597 -0.005703 -0.071228 -0.168222 0.439506 -0.433393 -0.125575 0.195853 0.067850 0.371964 -0.179304 0.170701 0.162087 -0.212943 -0.194482 0.300533 -0.152914 0.097371 0.086295 -0.149881 0.121681 0.662798 -0.410272 0.048540 0.010813 -0.113731 -0.486810 -0.047354 0.771075 0.103379 0.188307 0.339257 -0.068016 0.387614 -0.086346 0.252284 -0.045019 0.230062 0.190849 0.213440 0.132579 -0.455379 -0.015366 -0.052312 -0.086814 0.077353 0.245022 -0.130359 0.110426 0.358281 -0.220153 -0.382695 0.068786 -0.494568 0.072589 0.138630 0.352767 -0.177098 0.100496 -0.161479 -0.089877 -0.371334 -0.364169 0.080530 0.160138 -0.188787 0.263528 -0.324652 0.031889 0.136320 -0.098418 0.061740 0.442400 -0.096822 -0.136794 -0.313348 0.179620 0.583629 0.412747 -0.299026 -0.356574 -0.009845 -0.170412 0.428667 -0.442926 -0.118937 0.331470 -0.148478 -0.014668 -0.375397 0.365435 -0.447063 -0.036678 0.087797 -0.197685 -0.229755 0.087700 -0.864561 0.019772 0.068181 -0.179494 0.345946 0.048325 -0.329363 -0.207911 -0.152839 -0.226387 -0.227188 0.228354 0.014428
до 0.329179 0.134747 0.150083 -0.236908 0.297430 -0.303480 0.040865 -0.201725 -0.286437 -0.352362 0.189255 -0.021002 -0.175433 -0.438058 0.052536 -0.816749 0.368700 -0.416994 0.307979 0.127648 -0.353213 -0.110588 0.503110 -0.481760 0.471107 0.251601 0.174758 -0.085736 -0.041613 0.280118 0.089032 0.010174 -0.371079 0.372550 0.033466 -0.177608 0.081347 -0.112233 0.247920 -0.303238 -0.118452 0.054689 0.309879 0.123801 -0.147215 -0.109567 -0.196326 0.039148 0.436093 0.417489 0.195991 0.530892 -0.189297 -0.161094 -0.039579 -0.044180 -0.226440 0.087215 -0.464289 -0.357850 -0.582843 -0.414518 0.488736 -0.112694 0.127001 -0.093347 -0.214850 -0.270920 -0.038074 0.387766 -0.032331 0.332764 0.520939 -0.040300 0.215474 0.105696 -0.296938 0.063596 0.029647 -0.126540 0.151803 0.203078 -0.117478 0.241404 0.260517 0.064090 0.418558 -0.127720 -0.123277 0.551099 -0.389419 -0.272439 0.189024 0.378589 -0.150528 0.035386 -0.335313 -0.057934 0.632462 -0.005121 -0.261840 0.409064 0.016706 -0.196179 0.263742 0.309438 0.305194 -0.029594 -0.083677 -0.412187 -0.054818 -0.118704 0.328083 0.154564 0.103980 -0.114916 0.220269 -0.319343 -0.027775 -0.151657 -0.031329 -0.665371 -0.282780 0.172316 0.409195 0.247362 -0.080389 0.038202 -0.369343 0.061218 -0.442391 -0.187863 0.119919 -0.403219 -0.167602 0.087105 0.525736 -0.115402 0.333481 0.059483 0.221789 -0.059174 0.717858 0.184820 0.294087 0.257952 -0.666319 -0.214251 -0.004432 -0.330987 0.129083 0.022013 -0.176538 0.340850 -0.693440 -0.332271 0.360865 0.229276 0.414143 -0.256184 -0.211549 -0.244274 0.433938 0.171928 -0.126818 0.243471 -0.318669 0.050723 0.589346 -0.168799 -0.084406 0.092326 0.020228 -0.465227 -0.150686 0.473228 0.415694 0.166876 -0.285734 -0.198825 -0.018648 0.086181 0.026402 -0.206595 -0.721638 -0.718620 0.033157 0.276542 -0.064700 -0.439468 -0.068559 -0.309322 -0.265286 -0.162646 -0.055770 -0.613791 -0.031693 0.039683 -0.362154 0.516879 0.081574 -0.093183 -0.011151 0.168824 -0.227446 -0.011701 -0.004636 -0.049180 -0.290295 0.026497 0.356802 0.337006 -0.026631 -0.247840 0.403044 -0.123452 -0.585937 -0.484821 0.122097 0.239934 0.211925 0.202406 -0.165107 0.382921 -0.254276 0.321752 0.112522 -0.456942 0.518886 0.552218 -0.090094 -0.264931 0.304365 0.334337 -0.121805 0.166400 -0.323539 -0.022198 0.138673 -0.312855 -0.147640 -0.272755 0.077861 -0.558288 0.258648 0.084987 -0.018550 -0.291932 0.492559 -0.065815 0.422807 0.430266 0.066848 0.129440 0.064342 0.165381 0.268608 -0.132972 -0.278060 -0.165047 0.259380 0.038183 0.111512 0.128554 0.164209 0.544245 0.228015 0.300692 -0.010473 0.166619 -0.447105 -0.019164 0.301306 0.038674 -0.178104 -0.399531 -0.316573 -0.316296 -0.239032 -0.057295 0.549114 0.114525 -0.315391 -0.072648 -0.030082 -0.280642 0.147661 -0.296043 0.310959 -0.219978 -0.251664 -0.064515 0.162148 0.108309 0.177919 -0.344482 -0.208826 -0.050232 0.327561 -0.271528
темп 0.011462 -0.193302 -0.129644 0.005652 -0.154546 -0.052250 0.327578 0.029392 -0.135634 -0.142909 0.049760 0.028354 0.121891 -0.372077 -0.037302 0.121124 0.244550 -0.084437 -0.194610 -0.175450 0.404177 0.146080 -0.242786 -0.290640 0.284580 0.235081 0.139091 0.254035 0.116518 0.099362 0.172766 -0.431002 0.179039 0.202128 -0.084322 -0.412950 0.006596 0.267953 -0.208453 0.127490 0.065393 0.048983 -0.068577 0.124857 -0.034134 -0.010239 0.494953 0.184527 -0.158826 0.139473 0.256297 0.477432 0.428858 -0.342739 0.069452 -0.105288 -0.008750 0.005716 -0.031174 0.157623 -0.553661 -0.213284 0.347814 -0.087684 0.405294 0.056345 0.080658 -0.569901 -0.247449 0.030986 0.344967 0.221133 0.587115 -0.203624 0.289968 0.093539 0.257349 0.029652 0.183384 0.144896 0.018098 -0.142398 -0.025918 0.237782 0.153550 -0.620892 0.510634 0.219591 -0.049840 0.457467 -0.376448 -0.000169 -0.323616 -0.069032 -0.158720 -0.083307 0.075500 -0.130100 0.228186 0.004752 -0.066245 0.256845 0.126899 0.006677 -0.243365 0.051784 0.090134 -0.139622 0.354886 0.008720 -0.153092 -0.582086 -0.018242 -0.031732 -0.065660 0.049141 0.187079 -0.376417 0.313662 0.043300 -0.292489 -0.069251 -0.239906 0.072561 0.260977 0.556935 0.288602 -0.233597 -0.197059 -0.019797 0.107526 -0.468992 0.226641 0.114121 -0.072426 -0.001740 0.145107 0.350705 0.215749 0.187553 0.338784 0.106942 0.447469 0.259778 -0.106555 -0.120128 -0.134869 0.441733 -0.182526 -0.117971 0.037932 0.354369 -0.013243 0.257927 -0.280417 -0.218222 0.015575 0.287381 0.383405 -0.110762 0.231928 -0.442454 0.277019 -0.152134 0.055398 0.461292 0.316005 0.597331 0.293438 0.102788 -0.089385 0.360090 -0.029236 -0.091958 -0.442556 -0.156591 -0.008419 -0.239885 -0.253647 -0.191410 -0.210491 0.072266 0.218865 -0.078442 0.387668 -0.300072 -0.288924 -0.024324 -0.529918 0.024475 0.251816 -0.208578 -0.076988 -0.071022 -0.198229 -0.418017 -0.247852 0.029827 0.236772 0.181149 0.375509 -0.052199 0.392298 -0.066250 -0.426952 0.147719 -0.096181 0.239179 0.302248 -0.145313 0.054358 -0.323181 -0.170083 -0.074406 0.240709 -0.046207 -0.293821 -0.110391 0.072551 -0.124949 0.300259 0.312458 -0.455881 0.138840 -0.148738 0.545943 -0.018990 -0.068162 -0.202547 0.246741 -0.399386 0.136730 0.208731 0.078072 0.183472 0.081948 0.134651 -0.137450 0.478764 0.097683 0.179902 0.004545 -0.221822 -0.487900 0.359972 -0.054669 0.244565 -0.219133 0.555721 0.326481 -0.330621 0.215861 -0.038833 -0.512368 0.131881 -0.225622 -0.104734 -0.085539 -0.388998 -0.316245 -0.206496 -0.409634 -0.044651 0.051495 -0.017002 0.497394 -0.132734 0.257220 0.126521 0.057517 0.033264 0.186294 0.471121 -0.073970 -0.123154 -0.123383 -0.388607 -0.215857 -0.415042 -0.061020 0.184884 -0.389958 -0.123006 0.257659 -0.154744 -0.102920 -0.174720 0.195881 0.451740 0.042655 -0.095227 -0.420427 0.257323 -0.297493 0.002766 0.091561 0.198876 -0.010408 0.002139 -0.054941
снижение -0.110081 -0.033556 0.106309 -0.272532 0.126617 0.014571 0.321939 -0.208865 -0.187279 -0.168912 0.098658 0.202673 0.374322 -0.381779 -0.201757 -0.335617 0.383528 -0.055267 -0.190517 0.166488 0.137525 0.331787 -0.446497 -0.484155 -0.074134 -0.044127 0.051860 0.287655 -0.187513 0.215540 0.423430 0.062084 0.090327 0.424690 -0.051724 -0.013263 -0.474073 0.223087 -0.016364 0.255053 0.047708 -0.332597 -0.082091 0.173241 -0.566023 -0.141930 0.096267 0.283171 0.154316 -0.037005 -0.080357 0.028263 0.198876 0.089825 0.082723 0.367960 0.107458 -0.018964 0.140690 0.260346 -0.359661 -0.517579 -0.394323 -0.030958 -0.142301 -0.303594 -0.264752 -0.186814 -0.161855 0.002632 0.046905 0.068238 0.067576 -0.197645 0.348141 -0.274293 -0.071612 0.033880 -0.200920 -0.130887 -0.406284 -0.404493 -0.008299 0.174018 -0.003513 -0.371772 -0.006330 -0.080096 0.001775 0.062745 0.006889 -0.464728 -0.084376 -0.528453 0.103885 0.176083 -0.016809 0.085735 0.165374 0.542671 -0.208589 -0.168329 -0.072780 0.136605 0.093235 -0.209113 0.187450 0.067509 -0.131636 0.077160 -0.067237 -0.024931 0.048462 0.136577 -0.433233 -0.079993 0.571376 -0.095456 0.039402 -0.156622 -0.411445 -0.090596 -0.046791 -0.351105 0.033287 -0.121173 0.159441 0.002141 0.105845 0.423562 0.009056 -0.356819 -0.035562 -0.036592 -0.177760 -0.177450 0.465053 0.057618 -0.135793 -0.190507 -0.003232 -0.172518 0.336389 -0.344518 0.139951 0.215443 -0.190230 0.053691 0.079597 -0.058189 -0.235383 -0.051063 -0.076670 0.089815 -0.053689 0.179496 0.374557 0.215446 0.078431 -0.233013 0.274513 -0.166033 0.231573 0.083264 -0.209126 0.219986 -0.018660 0.296492 -0.107696 0.161804 -0.238696 0.132853 -0.066241 -0.294408 0.023389 0.001064 0.214766 -0.381105 -0.165882 -0.165236 -0.658028 0.236557 -0.221570 0.062351 0.069498 -0.064738 0.370779 -0.011313 -0.353234 0.109147 0.027436 0.180192 -0.009612 -0.092246 -0.177797 -0.772471 0.098841 0.110842 0.160854 0.191337 -0.408328 -0.009570 -0.259058 -0.149366 -0.119959 -0.011582 0.477077 0.437216 0.162306 0.183048 -0.131665 0.197571 -0.459394 0.158124 0.315160 -0.315744 0.156324 0.128453 0.264709 0.197799 0.043862 0.222056 -0.265262 0.184289 0.157897 0.353082 0.068419 0.305721 -0.395167 0.110702 -0.218657 -0.057414 -0.045274 -0.016009 0.241917 0.266111 0.059294 0.102148 -0.271231 -0.078641 0.198752 -0.086053 0.034580 -0.357401 0.057945 0.141563 0.314549 -0.373914 0.493975 0.468340 -0.008642 0.185389 -0.332448 -0.176194 0.259013 0.204072 0.083527 0.343875 0.048025 0.464560 0.026566 -0.161134 0.210244 0.140121 -0.189492 0.156108 -0.069842 0.221795 -0.128490 -0.167861 -0.225906 0.389631 0.106249 0.069746 -0.202383 0.013448 0.458366 -0.007110 -0.268324 0.068777 0.124163 -0.536514 0.082446 -0.153402 0.383189 -0.337628 0.042757 -0.196159 0.120398 -0.117127 -0.055143 -0.278350 -0.061920 0.009585 -0.233457 -0.058051 0.002118 -0.139468 0.119513 0.458020
ожидание -0.198027 -0.360358 0.105252 -0.348852 -0.101853 0.160246 0.511947 -0.261153 -0.947439 -0.032050 -0.330583 0.079801 -0.051305 -0.243924 -0.378653 -0.104099 0.185430 0.048908 -0.257952 0.517023 -0.253421 0.026699 -0.663904 0.117007 0.252194 0.184931 -0.029693 -0.025714 -0.291535 -0.162423 0.555344 -0.364992 -0.033949 -0.391100 0.439714 -0.196163 -0.131832 0.589228 0.100626 0.270866 -0.306479 0.100808 -0.105196 0.239295 -0.337646 -0.030330 -0.156662 0.183771 0.022465 -0.099041 0.125810 0.052378 0.412029 -0.035654 -0.480563 0.132272 -0.101778 0.043998 0.107051 0.319029 0.011144 -0.387192 0.468585 -0.178055 0.068561 -0.271857 0.163750 0.027848 0.174169 0.063338 -0.195394 0.249591 -0.202827 -0.210147 0.492047 0.094343 0.150784 -0.507913 -0.159774 0.158819 -0.655765 -0.504722 0.063335 0.289856 -0.139248 0.068631 -0.055826 -0.034555 -0.545685 0.305033 -0.087309 0.194861 -0.176826 0.302303 -0.016718 0.213454 0.073661 0.385474 0.676037 0.019833 0.341064 -0.192527 0.318935 0.117685 0.033610 -0.169307 0.034713 0.491956 -0.311846 -0.037255 0.409780 -0.137525 0.051247 0.002849 0.141007 0.241818 0.264931 0.132386 0.020937 -0.121782 -0.375132 -0.352809 -0.060250 -0.085736 0.326636 0.014374 -0.070451 -0.515067 -0.083033 0.141544 0.261429 -0.071593 -0.272121 -0.134594 -0.108573 0.192633 0.130289 0.094925 0.045587 -0.232184 0.237686 -0.249820 0.355772 -0.182191 0.229921 -0.315934 -0.130968 0.312744 0.040804 -0.185540 -0.087630 0.443328 -0.005605 0.065135 -0.801831 -0.245314 0.365207 0.258284 -0.230386 -0.379243 0.389682 -0.056733 0.076695 0.235833 -0.045631 0.341023 -0.466296 0.551966 -0.165900 0.071081 0.243718 0.015540 -0.004132 -0.124690 0.265622 0.413528 -0.020747 -0.124945 -0.474862 -0.203990 -0.099477 0.186592 -0.076211 -0.176495 0.186055 -0.043488 -0.239112 0.050228 -0.191237 0.044550 0.016309 0.309329 0.249731 -0.222149 0.218825 -0.010292 -0.189228 0.064738 0.070649 0.238756 0.059770 -0.360510 0.084193 -0.060285 -0.030577 0.279770 -0.018651 0.161191 0.169673 -0.002007 -0.043143 0.059438 0.009703 0.266042 0.130839 0.208255 -0.267394 0.125239 0.210869 0.547245 -0.424772 0.077725 -0.124272 0.039409 -0.047731 0.063402 -0.184854 0.234679 -0.266349 0.489286 -0.247336 0.061807 0.062535 -0.116726 -0.367280 0.282956 -0.394647 -0.077879 -0.121448 0.677014 -0.099078 -0.241675 -0.591106 0.108637 -0.063441 0.130435 0.091980 0.243755 0.609843 -0.226352 0.184810 -0.314369 -0.432492 -0.175333 -0.174127 0.317830 -0.127970 -0.187899 0.207929 0.376933 0.103036 -0.023088 -0.387922 -0.164902 -0.099692 0.211584 0.224151 0.287834 0.450040 -0.157703 0.407554 -0.136312 -0.217177 0.423235 0.099052 -0.165760 0.005326 -0.297575 0.176332 0.002274 -0.103759 -0.339721 -0.197277 0.052959 -0.120054 -0.060299 0.128929 -0.336169 -0.102513 -0.321231 -0.233381 0.259280 0.386121 0.456551 -0.350215 0.258080 -0.356472 -0.173908 0.077196 0.331879
решение 0.255048 -0.040505 0.227848 0.212037 0.396726 0.174691 0.015881 0.021173 -0.275641 -0.499542 -0.223377 0.186334 -0.553937 0.047451 -0.345027 -0.390245 0.302546 -0.360401 0.286318 0.066235 -0.607345 -0.348351 -0.690042 -0.228479 0.180704 0.333255 0.239549 -0.260678 0.098014 0.506666 -0.025400 0.011503 -0.166152 -0.016787 -0.255210 0.358417 -0.299146 -0.191041 0.357908 0.035863 0.419715 0.018229 0.089797 0.260777 -0.441041 -0.040139 -0.097600 0.599436 0.293590 -0.075679 0.197998 -0.054311 0.067404 -0.188077 -0.487412 0.263781 0.237267 -0.013505 -0.114605 0.133818 -0.448834 -0.070093 0.254585 -0.099892 -0.068916 -0.251588 -0.036711 -0.220446 0.137196 0.121282 -0.453405 0.388340 0.298530 -0.067760 0.242464 0.080865 0.056767 0.029646 -0.269246 -0.390899 -0.532152 -0.271154 -0.264879 0.657159 0.185346 -0.143409 0.293606 -0.393291 -0.001139 0.194262 0.086506 -0.139722 0.250855 0.136121 -0.356575 -0.118806 0.127119 -0.364342 0.738134 -0.072002 -0.516395 -0.310299 0.388483 0.138829 0.269096 -0.357738 0.437434 -0.031149 -0.105332 -0.203398 -0.372425 0.148148 -0.264267 0.051107 -0.146278 -0.136538 0.220568 0.136628 0.065437 0.121367 0.228664 -0.181680 -0.646485 -0.063994 0.192895 -0.500491 0.017105 0.061304 0.282467 0.294234 0.225013 -0.735090 -0.008861 -0.104578 -0.245499 0.069678 0.475487 0.343118 -0.045030 -0.250766 -0.161315 -0.277940 0.133171 -0.120889 0.109428 0.209187 -0.488439 0.133254 -0.438159 -0.535396 0.015682 -0.193353 0.188375 -0.013582 -0.175149 -0.610775 -0.201207 -0.046865 -0.136246 -0.303621 -0.043594 0.144463 0.204421 0.260153 0.174732 -0.337364 -0.043027 -0.142168 0.001821 -0.532864 -0.416971 -0.293942 0.030297 0.188726 -0.592839 0.318049 0.131132 0.506109 -0.296019 0.543532 -0.217237 -0.049692 -0.021949 0.016909 -0.056583 -0.248447 0.282363 -0.327008 0.077243 0.135668 0.100107 -0.201208 -0.064918 0.122310 0.043132 -0.704085 0.189906 0.196517 0.124367 0.276568 -0.456334 -0.205761 -0.437383 -0.067579 0.294496 -0.511533 0.056593 -0.438579 0.087871 0.142471 -0.036155 0.235084 -0.398772 0.556032 0.184552 -0.487507 0.005596 -0.132671 -0.150523 0.050033 0.046213 0.290983 -0.167278 0.129562 0.154724 -0.217829 -0.195760 -0.236028 0.443137 0.500972 0.497298 -0.090560 0.292383 0.599947 0.083770 -0.117471 -0.521152 0.016540 -0.135932 -0.794815 0.035519 -0.070312 -0.586698 0.088566 -0.299336 -0.114460 -0.523841 -0.540121 0.278592 0.304528 0.267151 0.530262 0.395598 0.383218 0.011237 -0.009033 -0.301018 0.628694 -0.308534 0.258580 0.169901 -0.020758 0.331540 0.128304 0.528498 0.278504 -0.150038 0.510755 -0.205992 -0.491151 -0.440383 -0.263200 0.001161 -0.176734 0.364502 0.206993 0.111557 0.002108 0.048139 -0.149305 0.416227 0.436974 -0.354066 0.469107 0.187544 -0.040162 0.174370 -0.221907 0.281799 -0.080377 -0.637079 -0.162670 -0.237624 -0.007988 -0.097878 -0.091983 0.191266 -0.086047 -0.211058 0.502868
потребительский -0.017411 -0.084478 -0.192729 -0.091336 -0.164270 -0.010744 0.459200 0.045697 -0.164326 -0.064960 -0.579905 0.305170 0.072040 -0.205407 -0.033492 -0.137072 0.280415 0.276919 -0.073264 -0.222983 -0.111723 0.596099 -0.232872 -0.344871 0.349061 0.065136 0.157970 0.236021 0.068321 0.050554 -0.155369 -0.424086 0.344000 0.614582 0.073559 -0.222686 -0.225391 0.067515 -0.163198 -0.222447 0.186295 0.119120 -0.447866 -0.145742 0.045333 0.154359 0.334597 0.111263 -0.102689 0.188774 0.277733 0.327981 0.249704 -0.455410 0.448522 0.048055 0.073013 0.129581 -0.274820 0.210505 -0.437462 -0.044073 0.406403 -0.271959 0.542734 -0.278482 0.021396 -0.434346 -0.315316 -0.026674 0.334176 0.232968 0.220716 -0.461106 0.639453 -0.069566 0.334814 0.197232 0.235741 -0.233479 0.107694 -0.448814 0.078164 0.048891 0.314679 -0.482053 0.150135 -0.075231 0.260841 -0.066182 -0.433243 -0.191537 0.176913 0.120635 -0.116938 -0.003395 0.264567 -0.207480 0.241404 0.055641 0.540167 0.076630 -0.625943 -0.121205 -0.597077 0.286370 -0.157811 -0.106508 0.357560 0.447926 0.066553 -0.138416 0.006718 0.096237 -0.179015 0.099534 0.383157 -0.120150 -0.013735 0.038418 -0.448027 -0.164503 -0.216290 -0.030845 0.206765 0.088381 0.301475 -0.276404 -0.163604 0.156919 0.094853 -0.386732 0.043453 0.064596 -0.063795 -0.134343 0.284991 0.025898 0.308018 -0.068765 0.034425 0.055613 0.367780 -0.397847 -0.083002 -0.595232 -0.024131 0.527447 0.041791 -0.009482 0.060042 0.212413 -0.080321 0.072684 -0.526839 0.155897 0.322149 0.189696 0.211306 -0.059723 0.606590 -0.271106 0.220051 0.131928 -0.255240 0.097098 0.296705 0.206983 0.154630 0.435287 0.046653 0.318919 -0.164610 -0.072139 -0.354257 -0.297090 -0.041282 -0.301289 0.109042 -0.230969 -0.467541 0.099206 0.016702 0.149564 0.434266 -0.229171 -0.204264 -0.352103 -0.598684 0.141244 0.405072 -0.169732 0.253121 0.029590 0.220743 -0.572411 -0.370471 0.061413 -0.013207 0.262887 -0.283335 0.115404 0.205682 -0.014757 -0.426314 0.339059 0.321015 0.612264 0.010056 0.267471 0.195641 0.105806 -0.060565 -0.091249 0.054083 0.502176 -0.177731 -0.476741 0.248007 0.127844 -0.314047 0.017377 0.188625 0.120939 -0.089894 0.435711 0.153838 -0.067162 -0.256291 0.378630 -0.220519 0.275371 0.160326 0.159189 0.138527 0.403329 -0.226661 -0.175747 0.301093 0.054665 -0.023062 0.157175 -0.148262 -0.551016 0.103061 0.280021 0.410673 -0.099914 0.354307 0.051410 -0.102432 0.327274 -0.072432 -0.052989 0.061054 -0.141703 0.001326 0.104863 -0.040458 0.121466 -0.478916 -0.207807 0.008645 -0.233087 0.256176 0.085745 -0.348837 0.331017 0.186979 0.011161 -0.272465 0.076122 0.295198 -0.245406 -0.045369 -0.123165 -0.236209 0.100627 -0.189607 0.281199 -0.070617 -0.352146 -0.263810 -0.092731 -0.008052 -0.090101 -0.074039 -0.001088 0.361803 -0.269216 -0.202568 -0.309208 0.325763 0.070666 0.037963 0.116649 0.011332 0.096481 -0.266797 0.559183
денежный 0.368925 0.194697 0.712708 -0.207061 0.129092 -0.105889 0.060723 0.074255 -0.167478 0.272025 -0.091328 -0.444053 -0.212678 -0.308692 0.093485 -0.155578 0.557499 0.335239 -0.000511 0.083538 -0.205136 -0.168842 -0.061190 -0.446139 0.493580 0.497145 0.187826 -0.085658 0.134663 0.013792 -0.048794 -0.240448 0.613835 0.015720 0.354284 -0.505344 -0.818188 0.348477 -0.238771 -0.248022 -0.432345 -0.139280 0.051708 -0.225612 -0.322176 -0.585934 -0.084184 0.232380 0.255628 0.256333 -0.331291 0.596621 0.154604 -0.041802 -0.112709 -0.154741 0.106010 -0.251717 -0.130289 -0.025342 0.129672 -0.038145 0.049653 0.312746 -0.242770 0.351915 0.156239 -0.045999 -0.387216 -0.115431 0.068918 0.236613 0.092560 0.234940 -0.028759 -0.261418 -0.001697 0.122898 -0.443526 0.087213 -0.151193 -0.134387 0.283689 0.640989 0.510551 -0.287013 -0.190913 0.053304 0.097501 0.363571 0.019540 -0.058912 -0.175641 0.289076 0.115905 0.035430 0.176547 -0.393028 0.496148 0.400378 -0.411294 0.092004 0.143633 -0.048104 0.239283 -0.248473 0.355210 0.079000 -0.552530 -0.154562 -0.145336 -0.366511 0.085881 0.092141 -0.174793 -0.068794 0.413303 0.015475 -0.044304 0.102845 -0.059703 -0.277405 -0.348376 0.061694 0.123779 -0.008458 0.187565 0.005765 -0.295016 -0.087342 -0.049389 -0.039384 0.206114 0.307938 0.279661 -0.674994 0.273933 -0.212506 0.046494 -0.035939 0.600248 0.112119 0.035433 0.323464 0.277904 0.243022 -0.278903 0.218312 -0.446708 -0.578471 0.064983 -0.015064 -0.287694 0.198821 -0.219298 -0.077366 0.374162 0.137306 0.318046 -0.152373 0.124534 0.092095 0.311109 -0.014760 -0.376628 -0.219465 0.268640 -0.005473 0.233197 -0.329207 -0.107508 -0.336343 0.471757 0.032398 -0.201942 -0.655376 -0.110417 0.372859 -0.491525 0.364137 -0.245522 0.539869 0.245601 -0.502698 0.347985 0.144279 0.473818 0.155956 -0.169616 0.248535 -0.026982 -0.004105 -0.116871 -0.255168 -0.162516 -0.303424 -0.169065 0.042505 0.493916 0.330442 0.134961 0.140001 0.307616 -0.381704 0.017187 0.246351 0.131842 0.253466 -0.225082 -0.146394 0.163335 0.048472 -0.099297 0.140700 -0.028409 0.396168 0.019511 0.079817 -0.021184 -0.148673 -0.064640 -0.109078 -0.547903 0.181590 0.454212 0.141711 -0.540837 -0.231597 -0.012160 -0.070084 -0.123918 -0.018105 -0.399471 0.331615 0.118580 -0.007550 -0.392252 -0.010566 -0.049862 -0.117995 0.135906 -0.180517 -0.192445 0.181783 -0.030218 0.356256 0.236217 -0.534838 0.716959 0.544209 -0.421591 -0.258712 -0.186007 0.077708 0.497375 -0.304189 -0.113737 0.175595 -0.325858 -0.000890 -0.379709 -0.213634 0.084023 0.017602 0.035600 -0.266757 -0.034675 0.076094 0.330956 -0.140054 -0.388776 0.317260 0.336378 -0.219968 -0.016919 0.435302 -0.078155 -0.230652 0.264561 0.034335 0.389559 -0.002504 -0.494530 -0.197027 -0.120944 -0.290077 0.217786 -0.077601 -0.328952 -0.197893 -0.064948 0.344659 0.027851 0.128896 -0.397976 -0.273144 0.149377 0.126301 0.335821 0.065152
также 0.113073 -0.322035 -0.338266 0.237090 0.131678 0.323480 0.410228 0.039095 -0.458389 0.101967 -0.109792 0.060052 -0.196415 -0.121864 -0.159894 0.367232 0.020319 -0.391032 -0.286635 0.023768 0.364475 -0.074581 -0.352956 -0.154923 0.194492 0.315175 -0.359850 -0.027530 -0.375231 -0.260793 0.348901 -0.029253 -0.188542 -0.200050 0.121139 -0.093628 -0.007751 -0.400423 -0.154364 -0.093563 -0.393918 0.038148 0.058702 0.196141 0.039384 0.002867 0.004298 0.449256 0.153218 0.014971 -0.286235 -0.263252 0.256938 -0.255431 0.077990 -0.380420 0.197900 0.201966 0.076015 0.497340 0.113402 -0.194451 0.009685 0.037006 0.198416 0.373280 -0.058661 -0.082039 -0.018865 -0.046306 0.125285 0.386187 -0.144923 -0.277911 0.251140 -0.241741 0.193369 -0.273012 0.064006 -0.593664 -0.411078 -0.444356 0.048363 0.011455 -0.251393 -0.493370 0.286254 -0.259987 0.142469 0.247026 -0.379819 -0.475616 -0.048106 -0.103192 -0.186067 -0.006803 0.033072 0.291300 0.584564 0.066169 -0.340677 -0.392164 0.268202 0.049236 -0.472700 -0.050770 -0.124139 -0.311814 0.127180 -0.121928 0.150281 -0.117660 0.213267 0.075656 -0.316281 -0.224957 0.031641 0.308938 0.640481 -0.216959 -0.155840 -0.082194 -0.087146 -0.065125 0.003629 0.223524 -0.339723 -0.190605 -0.525270 0.239171 0.176696 -0.096287 -0.079026 0.421349 -0.046478 0.060665 -0.008296 0.023909 0.052866 -0.020913 -0.098308 0.002770 0.025257 -0.349194 -0.346963 0.239192 0.137880 0.630805 0.106697 -0.494420 0.183571 -0.314555 -0.588605 -0.060899 -0.306693 0.183909 0.030167 0.059535 -0.123573 -0.447699 0.179169 0.118295 -0.316813 0.084572 0.263501 0.475992 -0.336998 0.105654 -0.214232 -0.146648 -0.323671 -0.086967 -0.129040 -0.063829 -0.078910 0.059087 -0.148557 -0.042794 0.080697 -0.009002 -0.010307 -0.089298 0.017904 0.120837 0.194790 0.127678 -0.002777 0.010742 -0.115830 -0.005633 -0.238030 -0.293444 0.323127 -0.071325 0.435090 -0.575252 -0.071990 0.017037 0.215344 0.228525 -0.343341 -0.535218 0.291575 -0.050077 0.134774 -0.247448 0.088419 -0.211588 0.144912 -0.038089 0.291147 0.032921 -0.239512 0.351445 0.460772 0.390440 -0.116967 -0.144537 0.066936 0.075469 -0.154407 0.535374 -0.197810 -0.207746 -0.210728 0.132433 -0.247339 0.479605 -0.490648 0.208342 0.086378 0.082895 -0.136043 0.013578 -0.086928 0.275161 -0.172621 -0.156752 -0.105869 0.271527 -0.003477 -0.315222 -0.119101 0.319583 0.361686 -0.074330 -0.142401 -0.185340 -0.027269 -0.286500 -0.124755 -0.004256 -0.070992 0.075440 -0.127872 0.026206 -0.127022 0.118311 -0.015243 0.254588 -0.035066 -0.085836 0.327633 -0.298363 0.138019 0.210937 0.264164 0.020508 0.582668 -0.174401 -0.053129 0.210205 -0.100066 -0.139379 -0.262297 -0.236593 -0.205248 -0.000569 0.509520 -0.212825 -0.420652 -0.222047 -0.041517 0.353258 -0.019029 -0.238350 -0.002200 -0.375138 0.151267 -0.159415 0.062071 0.066842 0.268685 0.081234 -0.156088 0.105000 0.562338 0.221105 0.125639 0.245313
директор -0.251110 0.242229 0.889361 0.087981 -0.224635 0.156063 0.105476 0.010212 -0.197426 -0.155281 -0.143129 -0.113057 -0.771577 0.074150 -0.549053 -0.176215 -0.072107 0.000428 0.153119 0.578635 -0.726699 -0.487263 -0.513670 -0.259651 0.149269 0.359754 0.338361 0.039542 -0.028032 0.260047 -0.069688 -0.069251 -0.016124 0.020158 -0.204835 0.237333 -0.037363 0.261072 0.320086 -0.089037 0.131818 -0.132859 0.013548 0.231000 -0.478439 -0.078149 -0.269614 0.358009 0.170380 -0.395173 0.153217 0.162486 0.120782 0.272173 -0.502165 0.294635 0.146725 -0.103901 -0.197593 -0.097828 -0.312941 0.163417 0.160081 0.220962 -0.263411 -0.143566 -0.014361 -0.086732 0.144192 0.433487 -0.588688 0.254848 0.407927 -0.120007 0.200768 -0.132186 0.074596 -0.146329 -0.250865 -0.432552 -0.553498 -0.167476 0.037905 0.325187 0.402899 0.316875 0.204939 -0.219293 0.032229 0.272623 -0.251207 -0.095300 -0.369433 0.148632 -0.155692 0.122517 0.017835 -0.185155 0.015209 0.048903 -0.343379 0.257222 0.383585 -0.124744 0.273892 0.342079 0.529265 -0.037195 -0.072072 0.072867 -0.454510 -0.054258 -0.172230 0.143662 0.217597 -0.402611 0.271564 0.318211 -0.265686 0.236479 0.183763 -0.077043 -0.783408 0.150902 0.580822 -0.251784 -0.018048 0.369586 0.189494 0.184613 0.116577 -0.590827 0.002029 -0.061099 -0.292652 -0.258018 0.261168 0.253864 0.265154 -0.019191 -0.581963 0.321524 0.269237 -0.152600 0.168494 0.044438 -0.139742 0.181931 -0.369177 -0.577102 -0.124216 0.131773 0.178622 -0.219743 0.074616 -0.219547 -0.307103 0.220685 -0.055203 -0.605386 -0.203874 -0.480564 0.048904 0.122650 -0.087813 -0.288818 -0.006867 -0.463598 -0.067710 -1.046519 -0.187667 -0.160791 -0.001640 0.356073 -0.493079 0.472018 0.015996 0.574291 -0.245456 0.679438 -0.195791 0.444497 -0.045158 0.035613 -0.163127 -0.469998 0.377780 -0.188348 0.133317 0.481942 0.309850 0.054410 -0.321721 0.078700 -0.142298 -0.655159 0.006305 0.298024 0.247750 -0.048441 -0.236903 0.198678 -0.157911 -0.207278 0.090356 -0.120299 -0.131496 0.165098 0.416983 -0.241767 -0.213019 0.439737 -0.325673 0.484348 -0.413616 -0.333071 -0.174216 -0.104609 0.370286 0.249951 0.269994 -0.095340 -0.325116 0.486933 0.308484 -0.154814 -0.384511 -0.527717 0.398877 0.906930 0.467144 -0.112482 0.151338 0.443440 -0.144575 0.096268 -0.204593 0.358754 -0.150764 -0.602791 0.071745 -0.337086 -0.352098 0.228899 -0.265772 -0.015606 -0.075282 -0.594217 0.263569 0.192330 -0.033132 0.264925 0.356683 0.262595 -0.012233 -0.214284 0.105446 0.132963 -0.034710 0.130530 -0.109647 0.333282 0.265427 0.028620 0.304774 -0.325979 -0.195666 0.525197 -0.241356 -0.992804 -0.478720 -0.772662 -0.178455 0.129155 0.192853 0.126875 0.164385 -0.211212 -0.317941 -0.006418 0.779984 0.295225 -0.145004 0.219321 -0.000780 -0.020559 -0.143441 -0.388726 0.221010 0.233449 -0.451951 -0.148221 0.253981 -0.421219 -0.263801 -0.114311 0.153931 -0.579503 -0.082421 0.019740
совет -0.246768 0.228108 0.907888 0.116654 -0.241001 0.185030 0.156547 0.002915 -0.189210 -0.178231 -0.177777 -0.166292 -0.772056 0.107970 -0.550225 -0.146990 -0.149825 -0.019738 0.072500 0.561722 -0.719037 -0.482169 -0.562837 -0.251038 0.134283 0.442485 0.346652 -0.016154 -0.094056 0.263739 -0.046647 -0.033114 -0.119858 -0.003332 -0.118158 0.258029 -0.087384 0.289398 0.319115 -0.151891 0.048921 -0.176922 -0.003928 0.207570 -0.436371 -0.054844 -0.231773 0.465163 0.107837 -0.416578 0.150526 0.124927 0.138366 0.308719 -0.483987 0.171728 0.179837 -0.075609 -0.245927 -0.102405 -0.310945 0.096351 0.062788 0.271915 -0.203605 -0.087997 -0.006178 -0.116919 0.206433 0.378375 -0.594385 0.333676 0.453273 -0.015719 0.195852 -0.120245 0.096137 -0.202707 -0.286865 -0.484942 -0.585889 -0.215922 0.001816 0.367141 0.532003 0.268451 0.210270 -0.206880 -0.019619 0.281275 -0.190758 -0.073651 -0.429906 0.133830 -0.147058 0.060787 0.040542 -0.208750 -0.045510 0.169304 -0.408196 0.193688 0.386083 -0.112281 0.271872 0.282078 0.546177 -0.018101 -0.151765 0.058173 -0.494727 -0.034853 -0.171550 0.145134 0.171750 -0.427389 0.267237 0.324813 -0.263353 0.268869 0.222811 0.038832 -0.874111 0.138351 0.612802 -0.251366 0.001838 0.360393 0.167940 0.119488 0.035205 -0.625151 0.054262 -0.032237 -0.269039 -0.311629 0.217284 0.256788 0.258521 0.017618 -0.559163 0.338120 0.219809 -0.100960 0.136585 0.035784 -0.119241 0.162341 -0.448706 -0.556624 -0.154077 0.110679 0.127877 -0.193607 0.139872 -0.328066 -0.378372 0.119998 -0.061207 -0.575565 -0.164572 -0.569232 0.027180 0.147724 0.009032 -0.336736 0.069611 -0.512213 -0.073052 -1.106634 -0.137943 -0.221413 0.012666 0.289831 -0.540981 0.418438 0.065481 0.577045 -0.214398 0.685865 -0.260996 0.505717 -0.010877 0.026728 -0.088608 -0.471429 0.392805 -0.179570 0.194279 0.545598 0.331508 0.134306 -0.353016 0.055728 -0.143209 -0.652597 -0.037585 0.294866 0.226685 -0.026896 -0.214009 0.235240 -0.094462 -0.225585 0.099091 -0.210635 -0.182087 0.131668 0.429545 -0.217386 -0.166623 0.432035 -0.371170 0.481270 -0.463710 -0.457085 -0.071824 -0.064194 0.451463 0.245207 0.256138 -0.113812 -0.424856 0.445197 0.342405 -0.197895 -0.449194 -0.509928 0.369753 0.910308 0.521666 -0.154883 0.120448 0.486157 -0.155621 0.022054 -0.176804 0.419326 -0.145628 -0.643023 0.045454 -0.420226 -0.331888 0.264653 -0.328866 0.007260 -0.128618 -0.625574 0.167111 0.140664 -0.053808 0.247117 0.371943 0.310564 -0.004337 -0.202044 0.119311 0.231824 -0.022099 0.159591 -0.074775 0.359367 0.303150 0.024934 0.294208 -0.355158 -0.127863 0.579613 -0.245658 -0.986586 -0.469758 -0.790073 -0.191735 0.115415 0.179330 0.098852 0.158000 -0.279576 -0.373602 -0.028727 0.798192 0.277361 -0.161573 0.256909 0.043781 -0.000169 -0.130577 -0.392799 0.260025 0.288605 -0.535773 -0.113217 0.219894 -0.450235 -0.273128 -0.160117 0.206158 -0.666182 -0.055585 0.052458
