в -0.284328 0.060972 1.398474 0.013454 -0.301614 0.040061 -0.532431 -0.479432 0.454613 0.183784 1.020852 -0.179980 -0.172306 -1.093016 -0.455724 -0.310918 0.524360 -0.397626 -0.602459 0.638730 1.096981 0.002851 1.351474 0.484037 0.114953 -1.202299 -0.126086 -0.586044 -0.612604 -0.776788 -0.268360 -0.148859 0.455494 -1.383307 -0.650222 0.457545 0.603880 -0.766213 0.046843 0.265335 -0.055187 -1.677359 -0.503784 0.202538 -0.132376 1.699506 -0.737244 0.722994 0.041259 0.799928
на -0.208114 0.620267 0.904215 -0.418008 0.649355 0.457866 -0.342790 0.040714 2.319645 -0.392844 0.686490 0.389916 -1.202373 -0.641695 -0.361531 0.183586 1.296253 -0.696627 0.225989 -0.573824 0.436199 -0.547113 -0.081155 0.706486 -0.390293 -0.493775 0.136423 -0.426812 0.661474 -0.055476 -0.758350 -0.610021 1.014880 -1.107207 -0.027250 0.512384 -0.395937 0.034383 0.140972 -0.804787 0.859045 0.499037 -0.349332 -0.015065 -0.111469 -0.399928 -1.395617 -0.541257 0.176500 1.275670
и 1.267235 1.082055 1.189954 -0.178302 -0.119372 -0.712713 1.552233 -0.017670 0.341074 0.038835 0.330644 -0.454558 -0.634171 -1.411151 -0.982991 -0.789718 1.622939 0.166601 0.529979 -0.445824 -1.041079 0.088434 0.102010 0.329635 -0.785208 -0.396541 0.087021 -1.221587 -0.288862 -1.229110 -0.285943 -0.200223 0.222458 -0.742939 -0.243305 0.134171 0.117563 -0.555772 0.031254 0.095134 -0.282662 0.166179 -0.412657 -0.658574 0.017373 0.840823 0.356641 0.178104 0.521053 0.542623
банк 0.202787 -0.125980 0.960205 0.328777 0.462726 0.450674 1.126004 0.747827 0.037966 -0.402619 -0.037514 1.880588 -0.947571 -0.410074 -0.645060 -1.289829 1.312987 -0.808109 -0.319871 -0.459104 0.461909 0.051685 -0.054288 -0.242905 0.613039 -0.713405 -0.652724 0.468314 0.266958 -0.005369 -0.657122 0.446945 1.737714 -0.129703 0.072423 0.115258 0.162932 -0.481843 1.038901 -0.245559 -0.527760 -0.716017 -0.170162 -0.364572 0.818852 0.307522 -0.634482 0.112991 1.272434 1.273058
россия -0.039262 -0.261815 1.260681 0.398879 0.448227 0.465771 1.005870 0.571685 -0.098298 -0.318046 -0.225865 1.724082 -0.826290 -0.435662 -0.502340 -1.106926 1.183340 -0.983019 -0.496807 -0.473090 0.488909 -0.115201 -0.050055 -0.216998 0.630632 -0.832995 -0.513222 0.283361 0.297820 -0.019808 -0.720159 0.530091 1.509093 -0.238796 -0.079517 0.299540 0.115954 -0.386100 1.001882 0.059672 -0.563245 -0.571068 -0.161051 -0.246896 0.930414 0.295965 -0.976550 -0.048096 1.500534 1.067778
год 0.235225 0.384335 1.146287 -0.108574 1.126365 -0.953084 0.440055 0.428483 0.242660 0.080461 0.272664 0.209885 -1.945549 -0.381471 -0.174131 -0.963114 0.330324 -0.697406 -0.895045 -0.590853 0.702145 -0.186061 1.393878 -0.529199 -0.712497 -1.708703 -0.440131 -0.367168 0.276873 -0.414155 -0.492784 -1.588904 0.543641 -0.766374 0.031337 0.724916 -0.133935 -0.380149 0.172382 -0.601064 -0.594599 -0.358719 0.053795 0.365596 1.005928 0.261124 -1.129177 0.002683 0.131499 0.438354
ставка -0.007488 -0.770428 0.512834 -0.217992 1.006816 -0.368032 0.717788 -0.595805 0.549324 -1.813901 -0.807234 1.622987 -0.206395 -0.160547 0.151289 -1.279446 0.702717 -0.493130 -0.266740 -0.741995 0.400466 -0.254945 -0.364659 0.642701 -0.628191 -0.831521 0.226351 0.492086 0.299317 0.127110 0.674890 0.443150 1.735187 -0.496739 0.301325 -0.430059 0.671929 -0.287861 -0.708337 -0.342925 0.855564 0.206342 -2.079581 -0.940642 0.466195 -0.144398 -0.711538 0.240776 0.920742 0.218546
по 0.319325 -0.334250 0.171480 0.058027 0.999902 -0.943374 1.044396 0.557320 0.124758 -0.385813 0.641710 0.339062 -1.006484 -1.169930 0.653470 -0.931394 1.329877 -0.354292 -0.297324 -0.593684 1.567409 -0.492964 -0.381548 0.604479 -0.253369 -0.475626 -1.130382 0.386731 -0.119875 -0.104824 -0.294417 0.302995 0.946367 -0.493098 -0.280373 -0.090508 0.375810 0.277791 0.680667 -0.703323 0.969308 -1.192959 -0.660037 -1.229436 0.790428 0.222535 0.380465 0.236935 0.129164 1.153550
с -1.481703 -0.219675 1.449578 0.308305 0.225724 -1.379220 0.495204 0.860690 0.617745 0.361142 0.032465 0.198047 -0.652045 -0.118370 -0.923588 -0.920583 1.324517 0.573687 0.793593 -0.742862 0.732997 0.310413 0.038188 0.725489 -0.931263 -0.443613 0.565699 -0.300645 -0.896560 -0.215413 -0.440664 -0.417589 0.514616 -0.568516 -0.345387 -0.094134 0.338624 -1.474970 -0.063275 0.597637 0.456993 -0.654295 -0.073832 0.117818 0.277204 -0.737459 -1.163987 0.592281 1.490231 0.317270
инфляция 0.254903 0.474315 1.069933 -0.498425 0.110276 0.324498 0.681625 0.464613 -0.251675 0.715590 0.340288 0.462549 -1.901167 0.151533 0.427048 -0.464209 0.517516 -1.321513 -0.099917 0.518842 0.667596 0.109962 0.047566 0.702256 -1.055908 -0.088806 0.009441 -1.016705 -0.588353 -1.093122 0.061504 -0.836459 0.098531 -1.226001 -0.595111 -0.323202 0.193467 -0.835263 0.506136 0.401675 -0.985370 0.128293 -0.968743 -0.317072 1.056562 -0.015686 0.000118 0.272427 0.123158 1.224490
рост 0.518487 -0.387711 0.408946 -0.579006 0.631975 -0.215956 0.630959 0.316858 0.678502 -0.052429 0.938484 -0.037087 -0.391459 -1.077793 -0.537706 -0.217186 0.908063 -0.993420 0.376851 0.459163 0.359805 -0.122526 0.151809 1.356299 -0.094080 -0.432657 0.574115 0.127911 0.926157 0.384269 -0.092028 -0.263099 -1.029563 -1.202459 -0.417441 0.112051 0.795902 -0.339730 -0.138484 -0.714420 -0.299723 -0.501219 0.631900 0.424155 0.034471 0.399185 0.033982 0.283379 -0.140435 0.355204
ключевой 0.289968 -1.014815 1.132187 -0.232168 0.656093 0.123738 0.431250 -0.094223 -0.008890 -1.230232 -0.358837 1.444870 -0.608380 -0.236105 0.351409 -0.622051 0.244515 -0.551314 -0.304779 -1.080228 0.168460 -0.812376 -0.639941 0.317802 -0.527668 -0.831635 0.095043 0.261346 0.628982 -0.564569 0.391759 0.006327 1.612276 -0.379199 -0.257513 0.147362 -0.133228 -0.407308 -0.690410 -0.270269 -0.167910 -0.012285 -1.623687 -0.868056 0.847066 -0.142018 -1.277745 0.102210 0.666077 -0.256383
риск 0.006942 0.335137 0.670002 -0.952018 -0.222764 -0.582211 1.293508 0.124060 0.295305 -0.043566 0.106495 0.265191 -0.380521 -0.583338 -1.107647 -0.162919 0.107643 -0.420883 0.377958 0.957259 0.017930 -0.976201 -0.807562 0.265523 0.471076 -0.675082 0.923847 -0.588462 0.090233 -1.013606 -0.439621 -0.735137 0.431084 -0.607380 -0.679153 -0.141370 -1.012858 -1.605694 0.159167 -0.419876 0.127514 -0.750681 -0.333213 0.820271 0.254504 -0.598244 0.228820 1.495645 1.045468 1.330240
цена 0.266923 0.369668 0.994905 0.179888 0.049927 0.247608 -0.550388 -0.464927 0.223850 0.600728 1.312049 -0.410932 -1.562755 -0.628610 -0.138051 0.013611 1.337322 -0.770905 -0.054697 0.293965 0.047012 0.112326 0.238567 0.654111 -0.730909 -0.011355 0.539276 -0.571952 0.197407 0.173752 0.178555 -0.408801 -0.500520 -0.507373 -0.389291 0.276731 -0.022169 -0.069129 0.477166 0.210667 0.098059 0.022857 0.253964 -0.093163 0.140696 -0.970471 -0.839818 0.277848 -0.462243 0.905753
условие -0.238026 0.345127 0.658292 -0.391411 1.020488 0.068696 -0.157010 0.417573 0.603255 -0.281163 -0.464800 0.299818 -0.224698 -0.016690 0.123234 -0.485008 1.012866 -0.026866 0.216990 0.949380 -0.529273 -0.125335 0.174694 0.323064 -0.566119 -0.017399 0.936520 -0.879787 0.583255 -0.496160 -0.888722 0.182777 0.200418 0.057717 -0.114070 -0.280482 0.513668 -1.080710 -0.193080 -0.499573 0.579804 -0.222747 -0.258224 0.065410 0.750583 1.872613 0.434859 1.132378 0.370581 1.264442
быть 0.387816 -0.004782 1.042252 0.230678 0.498877 0.225027 0.364808 0.778561 -0.403056 -0.547874 0.741628 0.481178 -0.600603 -0.134646 0.320894 -0.209266 0.960900 -0.731216 -1.308949 -0.461011 0.320728 -1.017984 -0.225790 -0.530779 -0.927609 -0.118746 0.272366 -0.789069 0.845957 -0.513974 -0.145158 -0.070125 0.404384 -0.958090 -0.322701 0.462090 0.270518 -0.341621 -0.359362 -0.146048 -0.535437 0.584057 -0.604395 1.153379 -0.108614 0.020935 -0.670858 0.487156 1.267269 0.679035
к 0.347159 -0.063479 0.711078 -0.249067 0.223478 -0.174939 -0.417774 -0.389091 1.176111 -0.507390 0.309699 2.193997 -0.306774 -1.248082 -0.170878 -1.089654 0.934224 0.078660 0.657633 -0.737088 0.532168 0.919747 0.966014 0.241952 0.392237 -0.143802 0.584902 -1.258628 0.901550 -0.870935 0.073452 0.369853 0.242921 -0.588661 0.402640 -0.503139 0.390557 -0.899635 -0.512710 0.467196 -1.281524 -0.935576 0.437558 -0.227777 0.539668 0.378167 0.200397 0.424906 -0.216592 1.002957
инфляционный 1.186832 -0.363749 0.533529 -0.519521 0.042769 -0.427402 0.113667 0.139329 0.402328 0.059271 0.420870 0.859713 -0.842844 -0.880486 -0.828791 -0.066795 0.459069 -0.411655 0.667955 0.377207 -0.329582 -1.463184 0.244448 0.613424 -0.208464 -0.716006 0.250556 -0.424124 -0.030873 0.398374 -0.979169 -0.508955 0.164947 -0.577192 -0.670328 0.378649 -0.669231 -0.015911 -0.369489 0.842827 -0.237112 -0.291003 -0.523278 0.590039 0.843526 -0.952272 0.056245 1.248654 -0.011524 1.087421
годовой -0.311727 -0.407581 0.362827 0.063584 1.053989 0.747388 0.442695 -0.118333 -0.059876 0.366725 0.117359 0.402955 -2.043979 0.157622 0.476344 -1.154922 0.890125 -1.147245 -0.163255 0.176500 0.922969 0.496172 0.651882 0.920483 0.063030 -0.856299 0.121083 0.001581 -0.276529 0.031213 -0.018779 -0.501435 0.331069 -0.193790 -0.622239 0.107853 0.527333 -0.418431 0.825658 0.345173 -0.288559 0.175103 -0.091355 -0.472335 1.443578 -0.260495 -0.229446 0.159216 0.464949 0.811534
динамика 0.038995 0.677524 1.267808 0.932036 -0.200355 -0.404041 0.529510 -0.339696 -0.375611 -0.272387 0.865973 0.235891 -0.518450 -0.185370 -0.834253 0.078686 0.835964 -1.535558 -0.539153 0.451154 0.220035 -0.780312 -0.704085 1.160582 -1.017553 -0.013618 -0.490618 -0.974506 -0.212409 -1.030920 -0.078988 0.086918 0.339979 -1.530095 -0.135368 -0.761945 0.330884 -0.153808 0.746624 -0.064305 -0.007688 0.492091 -0.656934 0.014208 0.200852 0.038459 0.484124 0.121471 0.476501 1.313676
кредитный -0.202206 -0.153243 0.692945 -0.952046 0.800687 0.122711 0.991377 0.450840 0.688790 -0.477239 -1.234471 0.469989 -0.796024 0.380567 0.786750 -0.611911 1.068304 0.047609 0.101463 0.131218 -0.193512 -0.250720 1.183157 0.028384 -1.298691 0.089024 0.286626 -0.483199 -0.050922 0.200976 0.235534 0.495779 0.229377 -0.388418 0.058787 0.513837 1.420219 -1.465028 -0.115704 -0.085869 -0.012760 -0.258914 -0.474122 -0.140413 0.208320 1.353967 0.562608 0.720679 0.401192 1.091082
уровень 0.295441 0.058372 0.780111 -0.556386 1.373112 0.680162 0.373567 -0.445019 0.276519 -0.010809 0.682551 1.776621 -1.665250 -1.488945 0.226873 -0.811218 -0.345464 0.368138 -0.252572 -0.090389 0.162205 -0.070802 0.911327 -0.165812 0.224207 -0.231414 0.225213 -0.045367 0.532787 0.450820 -0.681198 -0.545170 0.907495 -1.126609 -0.663771 -0.473667 -0.219991 -0.307324 -0.403954 0.522648 0.148698 0.904257 -0.523279 0.459324 -0.169842 0.148205 -0.722465 -0.062262 -0.090580 0.223551
экономика 0.271028 0.360613 1.040389 -1.078064 0.033717 -0.113385 0.446716 0.934260 0.921415 0.826913 0.044571 -0.213552 -0.208117 -0.822568 0.001188 0.500536 -0.016590 -0.905011 0.559292 0.252141 0.356439 -0.027314 -0.541609 0.635901 -0.031555 -0.561873 -0.194958 -0.416576 0.863497 -0.384586 -0.423886 -0.036557 0.162436 -1.446594 -0.246455 -0.822648 0.224012 -1.261233 -0.262273 -0.775666 -0.718866 -0.355491 -0.434897 0.241095 0.290277 0.870971 -0.263533 0.131375 0.589572 0.216343
рынок -0.322713 0.632042 0.435331 -0.651129 0.719959 0.817291 -0.028222 -0.510016 1.796715 -0.227160 0.414585 0.023866 -0.384020 -0.566444 -0.468406 -0.522402 0.776962 -0.313756 0.883919 0.608868 -0.130017 -0.640425 -0.722566 0.180438 -0.467623 0.427385 0.656126 0.477820 0.094143 -0.807270 0.639282 1.067790 0.170001 -1.081543 0.505359 0.521331 -0.151853 -0.660364 0.243426 -0.296867 1.083651 -0.095072 -0.209215 -0.052802 0.254616 -0.036334 -0.343522 0.404979 0.559534 0.901472
до 0.437365 -0.328880 0.199647 -1.160236 0.549159 0.230172 0.910573 -1.111412 0.684373 -0.282056 0.334471 0.466497 -1.752906 -0.078733 1.116070 -1.512024 0.647067 -0.347869 -0.613292 -0.403461 1.296203 0.223805 0.057156 0.674167 -0.992461 -1.276398 0.349382 0.626462 0.276000 -0.140723 0.306161 -0.832644 0.632965 -0.370969 -0.212930 0.693014 0.762087 -0.371626 0.251799 0.319070 0.503700 -0.809070 -0.738460 -0.620157 0.592874 -1.051801 -1.102623 -0.431527 -0.232975 -0.503958
темп -0.021226 -0.318404 0.578676 0.065650 0.929887 0.503898 -0.176555 0.150414 0.249066 0.635545 0.772800 -0.213884 -1.174992 -0.780337 0.147935 -0.016222 1.269989 -0.509885 -0.325933 0.411468 0.904769 0.126340 0.648440 1.083975 -0.422378 -0.639852 0.257028 0.004857 1.312528 1.100037 0.242423 -0.454557 -0.548005 -0.799238 -0.416848 -0.073669 0.365646 -0.255554 0.463961 -0.530954 -0.574903 -0.552334 0.690220 0.348073 0.874475 -0.278777 -0.426277 0.447570 -0.370504 -0.086893
ожидание 1.419423 0.220771 0.182707 -0.238275 0.093224 -0.238160 0.219548 0.167102 1.205872 0.179078 0.340752 1.242414 -0.823519 -0.316773 -0.951570 0.468420 0.720182 -0.276677 0.623897 -0.000045 -0.476824 -1.196357 0.716788 1.032992 -0.751680 0.085002 -0.467301 -0.159706 -0.562238 0.089989 -1.291478 0.099721 0.043466 -0.388938 -0.902358 0.020330 -0.198874 0.039335 -0.060597 1.417595 -0.112298 -0.146175 -0.753838 0.270854 0.826336 -0.491444 -0.141805 0.879698 -0.335303 0.405234
снижение 0.624226 0.262831 1.324963 0.246671 0.958309 -0.063442 0.399649 -0.050845 -0.371410 -0.920187 -0.218646 0.237524 -0.337514 -1.252908 -0.212138 -0.474905 0.622244 -0.930328 -0.236695 0.383958 -0.082930 -0.161434 -0.366136 1.105791 -0.280418 -0.107852 0.873884 -0.485455 -0.200341 0.187559 0.181643 0.626215 -0.317467 -0.267360 -0.171722 0.610013 0.485022 -1.019175 -1.039392 0.103686 -0.717351 -0.205090 -0.249953 -0.327353 0.519095 0.797909 -0.883250 0.799807 -0.046811 0.586493
решение -0.084970 -0.876824 1.200260 0.342443 0.158544 0.177488 0.884839 0.100204 -0.370086 -0.687471 -0.245003 0.851937 -1.012757 -0.303567 -0.206989 -0.097866 -0.595907 -1.021609 -0.343729 -0.993437 0.051442 -1.010175 -0.459681 -0.470821 -0.125546 -1.650379 -0.942433 -0.162168 0.244710 -0.204281 0.404989 -0.608275 1.681174 0.422802 -0.501270 0.389543 0.433054 -0.497106 0.429906 -0.340588 -0.176856 0.282649 -1.454944 -0.169034 0.744407 0.446372 -0.388689 0.601235 0.229410 0.078153
потребительский 0.206988 0.402726 0.282116 0.999062 -0.372143 0.014966 0.725556 0.015050 0.154567 -0.010204 1.230012 0.214705 -1.270876 -0.675679 -0.287622 -0.541959 1.742901 -0.641239 -0.777373 0.828132 0.605756 0.380196 -0.057948 0.552222 -0.270423 -0.346743 0.355381 -0.203536 0.207430 0.619542 -0.374941 -0.476335 -0.954271 -0.392164 -0.227450 0.063088 1.049133 -0.311151 0.006424 0.183072 0.278823 0.347756 0.624280 0.071852 0.184376 0.812951 0.089487 1.054780 -0.537704 0.336261
денежный -0.284361 -0.412389 0.770193 -0.666632 0.931625 0.324732 0.481164 0.929342 0.271124 -0.054045 -0.876357 0.492115 -1.039723 0.571403 0.991438 -0.553431 0.887497 0.333982 0.002379 -0.126702 -0.110212 -0.433054 1.012823 -0.236271 -1.348304 0.285644 0.084300 -0.805901 0.280585 0.217937 0.058186 0.145205 0.322869 -0.108343 0.167993 0.573467 0.919899 -1.426648 0.334263 0.040613 -0.418389 -0.451981 0.002575 0.111688 0.496906 0.886457 0.656122 0.612742 0.313866 1.066628
также 1.121772 0.672584 0.743353 -0.092149 -0.287589 0.142238 0.355212 0.153079 0.756528 0.694852 0.607933 -0.676894 0.020632 -0.977793 -0.378135 0.815423 1.440352 -0.284844 0.960710 -0.426693 0.492006 -0.811704 -0.709412 0.273132 -0.104755 -0.642676 0.606854 -0.548748 0.607473 -0.541979 0.239552 -0.888766 0.398258 0.105237 0.009954 -0.215752 -0.458742 -0.354231 0.036352 0.346152 -0.460495 0.276851 -0.781047 0.323817 0.127164 0.379917 0.387190 0.638516 0.820351 0.638741
директор -0.153102 -0.250087 0.883875 -0.329028 1.142253 0.407606 0.726938 0.793642 -0.158271 -0.591052 -0.609937 1.979395 -1.216305 -0.432659 -0.172050 -0.629108 -0.090287 -0.813889 -0.511363 0.256538 -0.245936 -0.590520 0.166682 -1.472926 -0.033968 -0.884564 -0.983077 1.047173 0.061986 -0.256056 -0.243457 0.091153 1.886329 0.073453 0.058790 0.671521 -0.642619 0.114769 0.705374 -0.863702 0.645749 0.533679 -0.688155 -0.525713 1.604493 0.732723 -0.659712 0.076051 0.700456 0.722898
совет -0.369044 -0.171043 0.906947 -0.342160 1.392104 0.331628 0.677905 0.850505 -0.013967 -0.548645 -0.724712 1.901546 -1.267553 -0.448867 -0.254533 -0.613013 -0.050584 -0.802937 -0.391230 0.302783 -0.296373 -0.577753 0.140530 -1.577137 -0.199908 -0.843620 -1.086186 1.041657 0.032382 -0.222421 -0.137150 0.194571 1.839005 0.177667 -0.031117 0.701759 -0.873347 -0.087360 0.741637 -1.124096 0.570212 0.456045 -0.770491 -0.693437 1.675084 0.898655 -0.734449 -0.023138 0.806894 0.686164
спрос 0.441877 0.232081 0.057884 0.671925 0.255559 0.139371 -0.092014 1.300630 -0.012520 0.260107 1.517274 -0.249667 -0.443730 -0.790768 0.081005 -0.704705 1.173165 0.558306 0.145339 0.841096 0.058464 -0.351062 -0.148701 0.440718 0.185823 0.311635 0.239238 -0.661715 0.564679 -0.364745 -0.890531 -0.219828 -0.676413 -0.922722 -0.718009 -0.103543 0.765356 -0.456842 -0.782655 -0.554297 0.227202 0.609018 -0.824570 0.216957 -1.111275 0.668933 0.336203 0.379284 0.010874 0.615826
влияние -0.418958 1.736511 1.262779 0.683358 0.347727 0.605458 0.085821 -0.174616 0.470451 -0.003796 -0.047142 -0.261988 -0.129516 0.006164 -0.203022 0.487012 0.302949 -0.739764 0.299390 -0.830960 0.169568 -1.098239 0.109162 0.486770 -0.088816 -0.132279 -0.768723 -0.959195 0.745587 -0.964213 -0.446105 0.063139 -0.442943 -0.784163 -0.581796 0.321799 1.327710 -0.442459 -0.364798 0.388505 0.410322 0.107988 0.119539 0.990143 -0.242001 -0.383670 -0.523840 0.945687 0.016103 1.593607
при 0.182946 0.561386 0.782654 0.587619 0.951844 0.734942 0.461533 0.564644 0.571359 0.221220 0.791867 0.556187 -1.240509 -0.286091 -0.555848 -1.100667 0.223428 0.884756 -0.565152 0.089621 0.495215 -0.975335 -0.685544 0.555606 0.258603 -1.099699 0.005656 0.832590 -0.416617 0.464257 -0.881112 -0.365982 1.530467 -0.159180 1.185354 0.247213 -0.215381 -0.647882 -0.829447 -0.514184 0.560600 -0.746922 0.062845 0.353973 -0.002698 0.730699 -0.212444 0.245377 0.106428 0.252311
операция -0.599295 -1.012384 -0.559130 -0.720499 0.717675 0.773678 0.910970 -0.761760 0.135889 -1.388026 -0.246536 1.237043 0.757073 -0.823864 1.325784 -1.014079 -0.337287 0.144784 -0.369273 -1.091140 1.532021 0.770927 -0.733618 0.069673 0.782346 0.273715 -0.231728 1.361101 0.126983 0.392279 0.138384 0.974238 1.476812 0.174201 0.531295 0.065285 0.297832 0.445735 0.281443 0.150869 1.268949 -0.324022 -0.521211 -1.154750 -0.062887 -0.963049 -0.807460 -1.012087 0.753974 -0.548960
прогноз 0.322418 0.121734 0.867256 0.099027 0.218260 0.485540 1.059587 1.421743 -0.157112 0.334736 0.316333 0.940294 -0.565629 -0.219062 -0.409648 -0.097054 0.887973 -0.540781 -0.634901 -0.004526 1.168501 0.585467 -0.344149 -0.436522 -0.393201 -0.467394 -0.464528 0.361661 -0.057888 -0.446860 0.524710 0.136869 1.050918 0.302785 -0.614867 0.249690 -0.488316 -0.672948 0.480744 0.398066 -0.362012 -0.500344 -0.670665 0.476615 1.745578 0.341677 -0.280238 -0.047388 1.085964 0.292094
процентный -0.494606 -0.537496 -0.065507 -0.274796 1.221979 -0.209226 0.802957 -1.029241 0.257686 -1.668285 -0.286560 1.035391 0.431377 -0.667449 0.532668 -1.065631 0.469254 0.090269 0.189964 -0.550607 0.606600 0.405473 -0.120174 0.970591 -0.016491 -0.694874 0.167805 0.233909 0.996190 0.495262 0.789279 0.839923 0.838390 -0.309195 0.996271 0.309868 0.874157 0.024988 0.512092 -0.714136 1.727974 -0.525920 -1.009269 -0.793492 0.227976 -0.426572 0.418873 -0.129408 0.221502 0.637305
это 0.415925 0.378069 0.696233 0.042260 0.795749 0.106637 0.615956 0.761242 0.381094 0.541057 0.209924 0.273291 -0.689985 -0.324033 -0.358986 -0.318367 0.059106 -0.168747 0.029390 0.673466 0.651213 -0.784103 0.459015 0.666158 0.106319 -0.553559 0.686940 0.328450 -0.797710 0.306713 -0.377352 -0.205135 0.265018 -0.895310 0.620039 -0.244257 0.585290 -0.382328 -0.521621 0.465304 0.203480 -0.412821 0.133743 0.082541 -1.055053 -0.165518 0.130809 0.717140 0.812020 0.570064
дальнейший 0.216813 -0.406365 1.031269 0.596727 0.712051 0.101845 -0.102672 0.118127 0.165671 -0.575294 0.056751 -0.135231 -0.685353 0.030008 -0.008391 -0.833982 0.638523 -0.426247 -0.430167 -0.531528 -0.169803 -0.793157 -1.018411 0.619618 -0.997338 -0.091180 0.848649 -1.231760 0.167780 -0.093269 0.015251 0.578683 0.713307 -0.613586 -0.279077 0.852678 -0.255451 -0.956574 -0.570863 0.128057 -1.010862 -0.548979 -0.421321 0.678440 0.930078 0.973570 -0.487599 0.323808 0.431592 0.642652
политика -0.531151 -1.041773 0.844102 -0.845028 -0.180705 0.848659 0.839466 0.710602 0.052025 0.098789 -0.408488 0.410572 -0.936549 0.326220 0.351289 -0.240173 0.688720 0.085026 0.107868 -0.289825 0.366039 -0.372304 1.208809 -0.272816 -0.595795 -0.358191 -0.255358 -0.801562 -0.125950 -0.563036 0.779726 0.060701 0.673503 -0.343583 0.026243 0.912569 0.634952 -1.334944 0.303193 -0.185153 -0.797978 -0.051087 0.309465 -0.156096 -0.135426 0.482101 0.907759 -0.033535 0.373734 1.097745
оставаться -0.494758 0.280676 0.090175 -0.241313 0.542099 0.033000 1.194524 0.161398 0.678114 -0.157697 -0.005377 0.408560 -1.483617 -0.481165 -0.602052 -0.167990 0.524729 0.395214 -0.276222 1.422385 -0.154792 -0.629354 0.162707 0.577044 -0.141528 0.086749 -0.115682 -0.219113 -0.082419 0.687233 -0.704161 -0.265249 0.200127 -0.600591 -1.218196 -0.540054 0.120008 -0.660438 0.182649 -0.437727 0.467665 -0.247918 -0.194993 1.027048 -0.188576 0.717784 0.189164 0.671666 -0.379079 0.381170
мочь 1.034221 0.574902 0.149751 -0.825048 -0.307196 0.002065 -0.218977 0.566831 1.179531 -0.089836 -0.081350 -0.050948 0.603129 -0.824852 0.281986 0.228624 0.483106 -0.302670 0.474979 0.305424 0.139458 -0.492942 0.613246 -0.291830 -0.108763 0.053789 0.216340 -1.011497 0.231844 -0.724242 0.258536 -0.297846 -0.899022 -0.484994 0.827416 0.072317 0.858332 0.103346 -0.237425 0.021738 -0.628254 -0.640171 0.609489 0.385468 -0.770510 -0.505277 0.380982 0.466502 0.407427 2.022787
активность 0.392901 1.244411 0.125026 0.450907 0.637262 -0.442760 0.905134 0.480780 0.493014 0.046879 -0.057309 -0.377279 -0.131120 -0.935478 -0.767374 0.128025 1.208750 -0.549643 0.007636 0.493569 0.809694 0.114698 0.464822 0.319578 -0.220142 -0.441326 -0.257860 0.003051 0.322057 1.044840 -0.404997 0.298632 -0.273815 -1.049264 0.137944 -0.553541 0.856062 -0.606438 -0.460135 -0.324810 -0.033062 0.728004 0.021946 0.536656 -0.190969 1.708795 0.251827 0.371807 0.135924 0.242471
а 0.905088 0.649472 0.907488 -0.082731 -0.173903 0.074360 0.261885 -0.299703 0.927360 0.972272 0.436232 -0.713750 0.032808 -1.387424 -0.357888 0.810163 1.677983 0.335693 1.290741 -0.448213 0.808060 -0.550901 -1.102740 0.310795 -0.191239 -0.575015 0.601943 -0.025183 1.026196 -0.069559 0.562820 -0.760098 0.666498 0.194172 0.126967 -0.822314 -0.642524 -0.557045 0.144472 0.505285 -0.261922 0.520769 -0.644108 -0.357691 0.162819 0.709477 0.706415 0.284431 0.402058 0.295716
принимать -0.053722 -0.848262 1.556458 0.375453 0.358193 0.383223 0.847942 0.046993 -0.312939 -0.307997 -0.781664 0.413368 -1.322507 0.214679 -0.041756 -0.531872 -0.158837 -1.221408 -0.513050 -0.441140 -0.020762 -1.161782 -0.629025 -0.599652 -0.566313 -1.705106 -0.622561 -0.212140 0.586649 -0.270881 0.170052 -0.625356 1.505527 0.223483 -0.190314 -0.252707 0.672259 -0.578865 0.312436 -0.273936 -0.193336 0.205743 -0.869708 -0.163075 0.800649 -0.168476 -0.264702 0.928563 0.590817 -0.013758
экономический 0.122459 0.567198 0.548050 0.365910 0.758142 -0.582653 0.664089 0.542318 0.211424 -0.008130 -0.213419 0.036895 0.072350 -1.010702 -0.827587 0.367974 0.723079 -0.571329 0.024311 0.149908 0.872734 -0.105076 -0.281232 0.478638 -0.249817 -0.350790 -0.365286 -0.369537 0.712950 1.203811 -0.394564 0.433143 -0.129976 -1.057777 -0.091824 -0.563205 0.082468 -0.380709 -0.626890 -0.519797 -0.386068 -0.226369 0.631055 1.175771 0.496002 1.260388 0.533888 0.083729 0.139729 0.293692
время -0.331492 0.090602 0.285847 0.090641 0.813610 -0.614996 0.479599 1.106639 -0.512977 -0.531608 0.197865 1.334531 -0.958482 -0.485770 0.188696 -0.717046 -0.858835 -0.456542 -0.076425 -0.427543 -0.206313 -0.074319 0.317515 -1.025167 0.992659 -0.862474 -0.840138 0.288848 0.032106 0.952980 -0.223236 -0.443042 0.087637 -0.679577 0.289053 0.985343 0.058146 0.673724 0.267535 -0.840051 1.196300 -0.374080 -0.529409 0.027705 0.614798 0.285076 -0.426732 0.083490 -0.164000 1.363959
внешний -0.195240 0.993804 0.304198 0.256503 0.747519 -0.094638 -0.627809 0.644017 0.643710 0.376781 -0.233683 -0.817229 0.049820 -0.344236 -0.456023 -0.203331 0.695351 -0.304655 1.023078 0.458697 -0.500644 0.050440 -0.772481 -0.006598 0.522785 -0.453998 0.571753 -0.809824 0.856525 -1.752350 -0.896013 -0.166874 0.488944 -0.389550 -0.194675 0.106525 -0.193819 -0.158036 -0.275263 -0.857284 0.958183 0.237531 -0.356704 0.335356 0.696044 1.009055 0.045087 0.306226 1.120266 0.744605
от 0.387371 -0.812587 0.180053 -1.591761 -0.226060 0.152505 1.258194 -0.331843 0.634755 -0.534395 0.178860 0.118968 0.195482 0.259758 0.874940 -0.279288 0.149871 -0.453014 0.162452 -0.540273 0.742849 -0.094370 -0.720152 0.600083 -0.739022 -0.262967 0.313246 -0.478021 1.524202 -1.146700 0.634757 -0.029917 0.272119 -0.728798 0.251533 -0.712591 0.915021 -0.729182 0.433800 0.064304 0.078067 -1.507260 -0.991203 -0.112362 -0.734358 -0.793580 0.458441 0.016560 0.571905 -1.107100
финансовый 0.171443 0.885303 0.300091 -0.682395 0.338746 0.697872 -0.270458 0.123227 1.583723 -0.041913 -0.439922 -0.279976 -0.214001 -0.534218 -0.643803 -0.329172 0.825943 -0.143045 1.053074 0.571022 -0.907627 -0.467186 -0.944203 -0.310144 0.045536 0.075010 0.280195 0.155383 -0.101444 -1.325818 0.183922 1.487121 0.432926 -0.867842 0.173800 0.593089 -0.573212 -0.044776 -0.266181 -0.770561 0.801261 -0.175638 -0.026027 -0.501035 0.779019 0.493420 -0.056742 -0.165769 0.701376 0.976597
для -0.099755 -0.148514 0.884049 -0.805395 -0.358294 -0.251818 0.659505 0.811555 0.308677 -0.755313 -0.872645 0.774659 -0.922994 -0.608121 -0.254446 -0.258611 0.182786 -0.111508 0.374272 0.362284 -0.903819 0.213152 -0.966558 0.263637 0.471790 0.118606 0.098984 -0.915151 -0.588214 -0.243606 -0.075838 0.359248 0.018160 0.440348 -0.704463 -0.016990 0.066434 -0.882580 -0.816910 -0.402987 -0.382345 -1.036698 0.329998 -0.413190 0.755931 0.275091 0.881777 0.313459 -0.573271 1.466705
сторона -0.058283 1.000203 0.525485 -0.308000 0.933258 0.106244 -0.515258 0.434188 0.145252 0.167911 0.708439 -0.342969 -0.165312 -1.128449 0.017375 -0.422056 0.232721 -0.245699 0.880177 0.870117 0.454508 -0.677668 -0.868909 -0.006983 0.896518 0.459571 0.769808 -0.476294 0.047838 -1.797662 -0.416829 -0.699705 0.760477 0.008326 -0.519507 -0.819574 -0.903756 -0.751064 0.205904 -0.358255 0.596718 0.179846 -0.711700 0.136303 -0.212442 0.163244 0.849359 1.075544 1.075448 1.452996
оценка 0.262863 0.401657 0.597124 0.021084 0.558763 -0.347953 0.622375 -0.277786 -0.533790 0.483349 0.744740 0.540477 -1.028658 -0.572107 -0.347352 0.134977 0.930989 -1.514363 -0.178853 0.197829 0.873979 -0.210266 0.190312 0.721150 0.002648 -0.347033 -0.281037 0.506488 0.112738 0.129795 -0.456989 -0.421277 0.448811 -0.824811 -0.028411 -0.439049 -0.711921 0.053873 1.580080 0.119525 -0.397688 -0.184090 0.272243 -0.127383 0.978695 0.208309 0.047613 0.174129 0.241083 0.550318
высокий 0.081965 0.249554 -0.717210 -0.311218 0.143184 0.297815 0.584849 0.606610 0.621339 -0.503395 0.962726 0.165586 -1.076329 -0.173677 -0.984078 -0.530905 0.939917 0.218581 0.432573 0.362257 0.139058 0.422743 0.989087 0.903370 0.328592 -0.243581 0.192901 -0.205169 -0.469185 0.173088 0.285322 -0.232507 0.344040 -0.519238 -0.740244 -1.009618 0.340367 0.026528 -0.823564 -0.051016 -0.062594 0.631575 -0.939853 1.261803 -0.019840 0.187787 0.824731 0.541105 0.544967 -0.231238
кредит -0.093998 -0.338638 -0.976834 -0.105179 0.334554 -1.118299 -0.607231 -0.781391 -0.410653 -0.769261 0.505198 0.386021 0.292964 -0.502914 1.706730 -1.156914 0.810329 1.258791 -0.322466 -0.486795 0.518876 0.037415 -0.192310 -0.191108 -0.063710 0.027390 -0.313573 0.482434 1.563632 0.209510 0.167592 -0.015287 -0.032649 -0.336123 0.245532 -1.006318 0.358573 0.230754 0.066808 -0.283230 1.501608 -1.073647 -0.342849 -1.659249 -1.308605 -1.382005 -0.194688 -0.328091 -0.393998 0.363558
фактор -0.259646 1.227614 0.173971 -0.099573 0.814064 -0.077741 0.370110 -0.000011 0.105766 0.208782 -0.050220 -0.621308 -0.163846 -0.576534 0.387505 -0.225122 -0.028763 -0.672472 0.545142 -0.561926 0.504373 -0.627620 0.019791 0.557571 0.215366 0.338099 0.061114 -0.380332 -0.492609 -0.979131 -0.391208 -0.514119 -0.872517 -0.399074 -0.555540 0.125198 0.579784 -0.464733 0.051530 0.099418 0.008145 -0.197826 0.813489 0.976463 0.004655 -0.796317 -0.236218 0.691397 0.520481 2.098772
внутренний 0.049423 0.486994 -0.002850 0.333101 0.375191 0.161755 -0.246825 1.233756 0.157302 0.550251 0.727258 -0.669452 0.075354 -0.299552 -0.058164 -0.618675 1.061973 -0.285604 0.686786 1.059388 0.058691 -0.438167 -0.619203 0.555605 0.508020 0.183947 0.473017 -0.471642 0.771175 -1.039519 -0.589010 0.002289 0.083962 -0.732649 -0.580552 0.313010 -0.508442 -0.337983 -0.325152 -0.892558 0.555911 1.059895 -1.050214 -0.128232 0.133526 0.619262 0.768485 0.203059 0.973321 0.960448
заседание -0.234330 -0.472139 0.710853 -0.673569 1.066256 -0.133177 0.146643 1.253971 -0.194653 -0.662981 -0.384123 1.535032 -0.263854 -0.197312 0.079323 -0.463698 0.597528 0.008956 -0.560972 0.083083 -0.083156 -0.592585 -0.119599 -1.377246 -1.032047 0.418022 -0.586610 0.681943 -0.035723 -1.090862 0.302302 0.647951 1.491868 0.025833 -0.193559 0.568848 -1.314323 -0.424733 0.203006 -1.093519 0.110268 -0.111664 -0.802034 -0.338368 1.319243 0.674264 -0.878258 -0.019377 1.319638 0.624753
тот -0.598712 0.468950 0.911152 -0.090080 0.033853 -0.225669 -0.320263 0.406089 0.267196 0.208794 1.067803 0.072452 0.193256 -0.315854 -0.405672 0.822499 -0.032669 -0.089991 1.171498 -0.248220 -0.230671 -0.391762 0.675153 0.179536 0.683821 -0.797405 -0.120478 0.457211 -0.389007 0.190700 0.161857 0.101132 -0.655201 -1.229118 -0.587307 1.205933 1.159468 -0.100224 0.780655 -0.093134 0.640047 -0.467498 -1.207199 0.535189 -0.150400 1.116328 -0.294505 0.935568 0.280715 1.067040
учет -0.633018 -0.546475 1.528961 0.020342 0.464740 -0.498940 0.491864 0.810152 0.368443 0.332838 -0.396621 -0.204145 -0.771451 0.228148 0.007760 -0.037060 0.976235 0.133655 0.155381 -0.816883 0.645366 -0.078944 -0.112658 0.651788 -1.885341 0.046389 -0.044412 -0.861760 -0.615551 -0.748569 -0.018445 -0.087449 1.222488 -0.141608 -0.333074 -0.630426 0.336937 -1.223509 0.944266 0.284748 -0.437242 -0.073706 -0.893557 -0.054211 1.029548 -0.326583 0.536608 0.052511 1.171883 0.489342
что 0.550480 0.523042 0.687812 -0.244733 0.859959 -0.255240 -0.004642 1.008771 0.342344 0.041388 0.020482 0.586092 -0.043498 -1.117639 -0.669187 -0.054721 -0.205723 -0.984089 -0.466683 0.894497 0.804644 0.446607 0.727702 0.111350 -0.298050 -0.563931 -0.014700 -0.560501 -0.338944 -0.038626 0.252760 0.777607 -0.895795 -0.719207 -0.518001 0.680530 1.106067 -0.160796 0.137820 0.489951 -0.381358 0.800568 -0.544711 0.765163 0.626906 -0.983313 0.198476 0.208782 0.608801 0.437170
проинфляционный 0.146185 0.997348 -0.198287 -0.760941 -0.148328 -0.630328 0.651109 -0.138733 0.340767 -0.535497 -0.035301 -0.457110 0.363295 -0.408915 -0.218484 -0.530594 -0.043803 -0.146744 0.070572 0.208165 0.276222 -0.750988 0.097185 0.246918 0.441625 -0.301819 0.590031 -0.698031 -0.253318 -1.401390 -0.408920 -1.140623 -0.050215 -0.047206 -0.528200 0.268981 -0.346992 -0.564592 -0.101719 0.066115 0.639416 -1.134818 0.345505 1.157577 -0.525116 -0.501315 0.224581 0.810062 0.960800 1.674067
российский 0.529355 0.471062 1.050170 -1.342586 0.195105 0.176247 0.520252 1.350390 0.772829 0.183641 0.058497 -0.493875 -0.395823 -1.502882 -0.735490 0.208965 -0.344341 -0.612969 0.428773 0.178702 -0.365530 0.453816 -0.701260 0.525689 0.481287 -0.470929 -0.417751 -0.514567 0.725639 -0.790908 -0.775576 0.322563 -0.495638 -1.178562 -0.975590 -0.263275 0.695316 -0.109329 -0.536277 -1.261704 -0.670380 -0.691673 0.026099 0.606287 0.107557 0.352126 -0.286609 -0.473226 0.349588 -0.654198
оказывать -0.117445 1.153105 0.977745 0.438330 -1.004491 0.474376 0.091626 0.079701 0.780323 -0.111453 -0.063969 -0.262452 -0.068079 -0.476735 -0.231742 0.265156 0.611625 -0.490529 0.091129 -0.380106 0.023843 -1.496526 0.085906 0.415133 0.086981 -0.454903 -0.811740 -0.916595 0.348786 -0.210260 -0.713539 0.013451 -0.759865 -1.278292 -0.068440 0.275651 1.098375 0.166652 -0.974763 -0.019909 -0.732963 0.790647 0.397581 0.402319 -0.432710 0.091301 -0.033357 0.739093 0.376230 1.197730
замедление 0.285450 0.144766 0.272160 0.451461 0.478424 0.042640 0.548658 0.305958 0.352572 0.317715 0.326481 -0.182138 -1.044385 0.072196 -0.173754 -0.602215 0.273337 -1.224646 0.461544 0.499370 0.230940 0.133927 -0.633721 1.347010 -0.266155 -0.680177 0.470136 -0.168626 -0.133056 0.187374 -0.408928 -0.057266 -0.626030 -0.739031 0.126687 -0.160892 0.890949 -1.002332 -0.283272 0.022565 -0.165907 0.128374 0.333789 -0.085030 0.741896 -0.043098 -0.199047 0.571278 -0.566744 0.693248
день -0.048566 -0.623166 -0.603629 -1.189857 0.069558 -0.118973 0.209594 -1.869235 0.625986 -1.203871 0.028334 0.115952 0.496073 -0.054887 1.358206 -0.697112 -0.444297 0.180765 -0.376164 -0.716270 0.978902 0.504672 -0.353014 0.276737 -0.607858 -0.257971 0.425793 0.566473 0.673384 -0.372199 0.662758 -0.080271 0.498963 -0.365257 0.212964 0.040027 0.321719 0.394543 -0.044104 0.085580 1.158733 -0.892767 -0.832392 -1.131442 -0.436012 -0.933779 -0.583103 -0.819825 -0.161027 -1.171191
происходить 0.403491 0.614639 0.380767 0.735148 0.969782 -0.591620 -0.307189 -0.275170 0.173269 0.677852 0.078128 -0.342999 -0.379621 0.042425 -0.165807 -0.349600 0.989306 -0.547717 0.581207 0.218319 -0.085314 -0.082112 0.739958 0.414071 -0.519906 -0.265455 0.657700 0.052061 0.240344 -0.038016 -0.315477 -0.102873 -0.206926 -0.389734 0.677726 -0.466757 0.647967 -0.733395 -1.280290 0.131908 0.420782 0.172511 -0.544654 -0.639270 -0.258295 0.497435 -1.987963 0.953961 0.062443 0.393559
снижаться 0.290121 0.697276 0.514004 -0.341960 0.498592 0.162997 0.697841 -0.242308 0.726943 0.486644 -0.105669 0.450910 -1.278439 0.061237 0.168402 -0.606518 1.148432 0.325704 -0.592302 0.847247 0.829158 -0.079836 0.942697 0.838205 -0.706379 -0.305919 0.197408 0.570824 -0.647838 -0.141443 -0.621972 -0.237031 -0.084412 -0.361421 -1.077223 0.783902 0.335305 -0.501560 0.397907 0.587692 0.039327 -0.357268 -0.154945 -0.266233 0.834882 0.102641 -0.116598 0.565863 0.276935 0.204610
население 1.026530 0.494641 0.530782 -0.076282 -0.214648 -0.352466 0.176641 -0.089140 1.053608 -0.138292 0.289692 1.148132 -0.591387 -0.505875 -0.784544 0.236386 1.547519 0.466163 0.290877 0.554931 -0.316259 -0.265207 0.925364 0.807309 0.016324 -0.269860 0.385981 -0.019833 -0.515294 0.615212 -0.513470 -0.036809 -0.373029 0.554777 -0.394272 0.110016 0.416467 0.614366 -0.626384 1.006683 0.082086 -0.233618 -0.524835 -0.915851 0.289715 0.511266 0.838982 1.180708 -0.726050 -0.025074
среднесрочный 0.518573 -0.361751 -0.048073 -0.993477 -0.693781 -0.429444 1.401645 0.474793 0.592157 -0.485751 0.206113 1.195248 -0.055516 -0.756009 -0.404056 0.323633 0.080425 -1.047456 -0.331239 -0.517097 0.729186 -0.571160 -0.223491 -0.276517 -0.527802 -0.363593 -1.162736 -0.087613 -0.102139 -0.658985 -0.065406 -0.565785 0.743084 -0.041122 -0.940613 0.603143 -1.185846 -0.147035 0.054572 0.002683 0.711896 -0.260151 0.239796 0.599000 0.592823 0.285925 0.307049 -0.376639 0.153280 1.108929
со -0.073484 1.282628 0.811003 0.412145 0.949907 -0.084020 -0.419180 0.362728 -0.040240 0.779409 0.490415 -0.700242 -0.287241 -0.690279 -0.113074 -0.204195 0.476611 -0.437552 1.117250 0.657502 0.313841 -0.920131 -1.078896 -0.175633 0.910687 0.081006 0.752928 -0.504838 0.391849 -1.252926 -0.189925 -0.715449 0.611788 -0.274186 -0.201475 -0.660916 -1.133864 -0.773807 0.256917 -0.219656 0.460067 0.588040 -0.467627 -0.062867 -0.122743 0.355199 0.824134 0.952650 1.078462 1.250109
о 0.159473 -0.298640 0.340460 0.784265 0.990931 -0.623891 1.148639 0.236419 -0.450138 -1.480702 -0.384687 1.192698 -0.100057 -1.591041 -0.264584 -0.172554 -0.909877 -1.017399 -0.214620 -0.887193 -0.018810 0.084382 -0.514989 -0.662997 0.475643 -0.986300 -0.629827 0.262328 -0.294938 1.346361 0.033301 0.338054 0.955932 0.501954 0.001626 0.471203 0.498492 0.137798 -0.118598 -0.217509 0.515139 0.941734 -1.138214 -0.920683 0.711241 0.799375 -0.930115 -0.003281 -0.169400 -0.225939
продолжать 0.237001 0.112905 0.436369 -0.173118 0.252362 0.681528 0.282216 0.232591 0.070517 -0.070589 0.041395 0.539533 -0.165668 -0.139221 0.344208 -0.300122 1.330324 0.222286 -0.737940 0.446724 0.612769 -1.243236 0.890457 1.124207 -0.364730 0.632155 -0.037335 0.248452 0.014190 0.051907 -1.342106 0.582944 -0.158463 -0.827674 -0.892709 0.761110 0.522720 0.446336 -0.515518 -0.039767 -0.838184 -0.042927 0.021019 -0.189330 -0.064893 0.117702 0.455242 0.852129 0.878450 0.012366
мера -0.085887 -0.063563 1.204691 0.297032 -0.625699 0.095677 0.921500 0.662967 -0.576060 0.618666 -0.386472 -0.718061 0.111073 -0.669549 -0.283786 0.930210 0.412233 0.035508 0.158873 -0.302614 0.708813 -1.061458 -0.688521 -1.024255 -0.087458 -0.933232 -0.734776 -0.010476 0.190672 0.198535 -0.144523 0.049958 0.083915 -0.394647 0.572492 -0.134466 0.866440 -0.376587 0.097079 -0.233002 -0.323944 -0.632733 0.413859 -0.153207 -0.648633 -0.810551 -0.065065 0.684053 0.491882 0.513988
не 0.246082 -0.140584 -0.072690 0.148988 -0.879802 -0.777658 0.629432 -0.537315 0.855458 -0.172305 -0.593916 1.772441 -0.016509 -0.697926 0.221896 -1.201027 0.012108 0.170122 -0.690679 1.010709 -0.080231 -0.373030 -0.876073 -0.633851 -0.914232 -0.369744 0.573575 -0.044898 0.647120 0.795860 -0.222293 -0.933682 -0.442928 -0.531235 -0.401739 -0.526607 0.648420 -0.558290 0.141014 0.314990 0.220331 0.082646 0.048665 0.641906 -0.713542 0.226059 -0.781302 0.751186 -0.028483 1.429336
повышение 0.575732 -0.118043 0.414249 0.540605 0.255261 -0.507608 -0.417371 -0.316120 -0.182823 -0.879659 0.140797 0.523687 0.289220 0.063953 0.354786 -0.176052 1.343628 -0.270011 -0.362961 -1.083447 -0.046223 -0.445154 -0.017395 0.437226 -0.446063 -0.460328 1.021580 0.027624 0.506920 -0.084091 0.114603 -0.111282 -0.148157 -0.121201 0.117372 1.201141 0.354238 0.266295 -0.426415 -0.246394 -1.154107 -0.516253 -0.698668 -0.037245 0.923770 0.363048 -1.284313 0.943583 0.551898 0.497207
кредитование -0.315532 0.064430 -0.122187 0.201698 0.031990 0.183740 0.530170 -0.242490 0.379860 -0.513954 -0.080612 0.196543 -0.132441 0.266067 -0.561240 -0.386203 1.330674 -0.212827 -0.001983 0.036543 -0.118264 -0.387965 0.198354 0.488808 -0.186183 -0.484665 0.086562 0.737240 0.941324 0.076945 -0.179010 0.351145 -0.391871 -0.183816 -0.496168 -0.626943 1.619785 0.077953 -0.095497 -0.678779 -0.263473 0.482951 0.990601 -0.171983 -0.444119 1.123026 0.747230 1.035937 0.074224 -0.400488
товар 0.366949 0.281169 1.571976 0.112845 0.681967 0.393148 -0.680916 0.637955 0.447064 0.227684 1.405998 -0.494787 -0.964933 -1.514376 -0.486342 -0.742805 0.606853 0.297664 0.242327 0.145181 -0.195916 0.266588 -0.911424 0.509159 -0.178925 0.596373 0.532117 -0.027374 -0.264370 -0.679682 -0.409411 -0.091244 -0.616403 -0.344324 -0.717401 0.452775 1.184964 1.104510 0.447478 -0.689984 0.835971 0.065362 0.154431 -0.175831 -0.750177 -0.888024 -0.109456 -0.054228 -0.100102 0.333798
бюджетный -0.270305 -1.395157 0.305878 -0.017939 -1.789373 0.399711 0.515549 0.474354 0.061205 0.256729 0.562370 -0.235332 0.089833 -0.023905 -0.686718 -0.005594 0.686444 -0.267292 0.010750 -0.181694 0.757747 -0.824401 0.878668 -0.651977 0.011827 -0.853876 -0.459554 -0.763927 -0.212961 -0.737571 0.727840 -0.586990 0.460149 0.125270 -0.325468 1.349651 -0.007741 -0.523528 0.153803 -0.244499 -0.567153 0.415236 0.404905 0.383892 -1.476985 0.974193 0.955882 0.116481 0.184425 1.062235
прирост -0.174115 -0.116590 0.431030 0.503449 0.785854 0.226059 -0.176297 -0.086154 -0.258215 0.362960 0.965607 0.126193 -1.544141 -0.472097 0.237270 -0.441189 1.528378 -0.500369 -1.188124 0.671927 1.194353 0.673543 0.963332 0.544354 -0.545227 -0.845862 0.197367 0.284359 0.695142 1.209138 0.335179 -0.445225 -0.314973 -0.037827 -0.211632 0.273734 0.133844 0.025083 1.160236 -0.111048 -0.027689 -0.468056 0.636262 0.038563 1.226757 -0.203190 -0.385216 0.290517 -0.274267 0.065328
более 0.264181 -0.060133 -0.317503 0.075351 -0.404144 -0.486689 -0.072188 2.282518 0.215192 0.537254 0.495316 0.291174 -0.062691 -0.313819 0.902182 -0.218791 0.083590 -0.531034 0.595429 0.252074 -0.102254 -0.161595 0.135850 0.168860 0.254604 0.152825 -0.594767 -1.644028 -0.143066 0.347860 -0.042082 -0.448975 -0.638739 -0.529293 0.969307 -0.134410 0.463711 -1.195205 -0.679382 0.116188 -0.000159 -1.156728 0.039041 -0.247071 -0.484555 -0.550430 -0.274672 0.568001 -0.040856 1.604826
число -0.646323 0.606117 1.087790 0.056067 0.315581 0.110559 -0.412186 0.003064 0.125687 0.383731 1.247589 -0.016474 0.385589 -0.060107 -0.368417 1.328053 0.161623 0.076115 1.443799 -0.552045 -0.306982 -0.730270 0.665562 0.166976 0.697444 -0.446703 -0.182800 0.594158 -0.128493 0.108996 0.285554 0.178339 -0.326825 -0.832710 -0.498798 1.026477 1.063490 -0.454755 1.309019 0.317836 0.347713 -0.316445 -1.355028 0.803247 -0.234291 1.082210 -0.491429 0.797025 0.457234 0.662012
базовый -0.289308 -0.376935 0.620012 -0.306110 -0.993794 0.485444 0.457607 1.064670 0.027861 -0.031202 0.882310 0.174938 -0.909639 -0.530571 -0.491444 -0.222958 0.784874 -0.266993 -0.578953 0.791513 0.983233 0.760478 -0.820386 0.303516 0.137909 -0.178603 -0.159795 0.108144 -1.460103 -0.530107 0.993017 0.119902 0.464291 0.108049 -0.259762 0.502114 -0.817986 -1.378295 -0.362573 -0.216687 -0.756216 -1.321714 0.050931 0.200802 0.817272 -0.611178 -1.193221 -0.457455 0.065667 1.127896
вблизи 0.367189 0.275468 -0.369793 -0.567090 0.402732 0.513346 0.097653 -0.166863 0.548320 -0.209810 0.049540 0.602411 -1.493040 0.746353 0.926252 -0.668069 0.203220 0.036395 -1.072557 -0.314229 -0.020699 -0.513932 0.126685 0.050468 -1.171108 0.711347 -0.722481 -1.235839 -0.021115 0.089677 -0.642906 -0.044095 0.727995 -0.661483 -0.638567 0.153748 -0.960222 -0.756120 0.403676 0.557193 -0.820990 -0.598952 -0.319777 1.340025 0.608102 0.963326 0.027701 -1.020700 -0.558986 0.989133
за 0.404805 0.227204 -0.349874 -0.192698 1.151121 -1.348724 -0.322015 -0.554991 -0.212816 -0.508550 0.976406 0.029265 0.143550 -0.327948 -0.976042 -0.228044 0.942518 0.159897 0.727294 0.435561 -0.237864 0.522901 1.380412 0.493675 -0.137887 0.224640 0.940946 0.740329 -0.841011 -0.070054 1.340596 -0.618829 -0.299563 -0.461228 -0.512292 0.522234 -0.228269 -0.840474 0.359014 -0.546979 -0.553400 -0.729526 -1.105963 0.789805 -0.785294 0.736844 -1.325953 0.308544 -0.061632 0.249747
пресс -0.016364 0.656323 0.530476 0.872899 0.829426 0.049425 -0.316368 0.250879 0.210241 -0.568925 0.201905 1.023619 -1.167275 -0.504794 -0.984694 0.203755 -0.808547 -0.933880 -0.199715 -0.791686 -0.579346 -0.948672 -0.519274 -1.010687 1.100741 -1.258718 -1.380911 0.744175 0.635029 0.999037 -0.668366 0.188826 1.380310 0.039726 0.562658 0.187772 -0.726064 0.809368 0.610325 -1.030652 0.588723 0.418882 -0.366428 0.119330 1.041996 0.218085 -0.945233 -0.483727 -0.469558 0.291803
цель 0.135428 0.003617 0.966082 -0.698923 -0.726285 -0.261131 0.540646 0.414330 0.340796 0.616828 -0.404055 0.183957 -0.606798 0.300644 0.947469 -0.065009 -0.068128 -0.442026 0.065001 -0.448288 0.454437 0.100209 -0.872941 0.256929 -0.450924 -0.181097 -0.174816 -1.677972 0.512089 -1.548266 -0.243815 -0.755397 1.180619 -0.625377 0.025154 -1.237805 -0.520346 -1.273985 0.109015 -0.121987 -1.184799 -0.587891 -1.093846 -0.622016 0.632492 0.591005 0.973404 -0.237940 0.506071 0.412417
текущий -0.114919 -0.267110 0.389589 0.045858 1.063126 -0.697692 -0.405610 -0.038155 -0.167452 -0.105048 0.326527 -0.160309 -1.704203 0.094404 0.301163 -0.858876 0.545215 -0.086274 0.273779 0.006097 -0.205000 -0.356280 0.998302 0.922135 -0.411744 -0.664265 0.767161 0.034571 -0.067021 1.356787 0.073865 -0.832164 0.094650 -1.048425 -0.430923 0.230974 -0.387306 -0.101036 -0.088639 -0.020924 -0.236675 -0.084913 -0.419585 -0.082308 0.536854 0.564956 -0.077592 0.113004 -0.274638 0.227307
сохраняться -0.271317 1.352314 0.600114 -0.346549 0.427282 -0.058094 -0.125077 -0.498162 0.822102 -0.361416 0.364657 -0.073024 -0.897955 -0.487234 -0.424912 -0.101137 -0.454634 0.083267 0.330141 0.456406 0.097423 -0.429789 -0.266556 1.152282 0.378238 -0.272525 0.331035 -0.801675 -0.378672 0.286907 -0.249043 -0.704963 0.499212 -0.995900 -0.255039 -0.604796 -0.682979 -0.422792 -0.619814 -0.050890 0.383576 0.055397 -0.316753 0.677927 -0.260151 0.321156 0.764047 0.033386 -0.685691 0.566701
этот -0.232559 -0.699008 0.229666 -0.132778 -0.204137 -0.272618 -0.032574 0.170348 0.698843 0.371447 0.044130 0.534087 -0.376061 -0.116323 0.106916 -0.194495 0.088358 0.404885 -0.104570 0.333611 -0.289770 -0.486966 -0.151896 0.326080 -0.785819 0.045063 0.485643 -0.356375 -0.266574 -0.311606 -1.036873 -0.369737 0.156253 -0.267035 0.249602 0.046691 0.291685 -0.684576 0.812931 -0.489831 -0.012767 -0.695713 0.274127 -0.172403 -0.380191 0.242672 -0.411727 0.558068 0.080977 1.135536
составлять -0.321987 0.567799 0.623530 -0.143225 0.503958 -0.003487 0.240021 0.027822 -0.302406 0.701102 0.648445 -0.043092 -2.021233 -0.179255 0.710942 -0.546205 0.598936 -0.299437 -1.159956 0.004730 1.036246 0.998643 1.195996 0.112149 -1.026177 -0.381311 -0.320139 0.016339 -1.003589 0.238648 -0.006883 -0.947482 0.021975 -0.613540 0.338127 0.483463 -0.069967 -0.299191 1.269194 0.091935 -0.594794 -0.174291 0.824087 -0.256013 1.145246 0.010306 -0.450440 -0.707022 -0.565863 0.635364
сохранение -0.205144 -0.268620 0.298773 0.065469 1.063934 0.623326 0.215314 0.872797 0.148898 -0.516369 0.757593 -0.076081 -1.313048 -0.604072 -0.751146 0.136986 -0.179093 0.584593 0.846912 -0.184491 -0.445763 -0.184085 0.122554 0.523937 0.035801 0.166086 0.291351 -1.240912 -0.409431 0.608268 -0.229543 -0.211576 0.522731 0.524510 -0.126583 -0.224270 0.518665 -0.830252 -0.483755 -0.213061 -0.145568 0.314461 -0.681424 1.319348 0.067733 -0.333315 0.443600 0.797221 -0.418039 -0.187549
который 0.237108 -0.051150 0.184227 -0.676469 0.713693 0.646961 0.138401 0.817990 -0.212855 -0.698906 0.116729 1.763168 -0.239418 -0.439051 0.315091 -0.242281 0.434972 -0.141676 -0.805082 0.003654 -0.710859 -0.509187 0.229291 -1.309147 -0.007695 0.322943 -0.052372 0.321215 1.013978 -0.298445 -0.488514 0.306132 0.457581 -0.647036 0.221191 -0.216883 0.078296 0.472594 -0.327081 -0.724752 0.306609 0.825379 -0.129798 0.083364 -0.304131 -0.368256 -0.967325 -0.130595 0.942585 0.490285
то -0.226745 0.543198 0.915357 -0.106929 0.241905 -1.198353 0.545477 0.226722 0.161025 -0.633174 -0.350630 -0.050238 -0.543128 -1.433985 -0.776598 -0.435905 -0.670336 -0.355745 -0.004131 0.879189 -0.027798 0.133670 -0.338879 0.144234 -0.951269 -0.151834 -0.084611 -0.239325 -0.682788 0.442649 -0.097695 0.191469 -0.659233 -1.340211 -0.653015 -0.001837 0.753993 -0.805881 -0.547553 -0.299095 0.292260 0.842444 0.039259 0.379606 -0.211751 -0.632108 -0.108622 -0.253746 -0.209241 0.289711
ограничение -0.127602 0.504811 0.990543 -0.729731 0.849868 0.174670 -0.986290 0.412036 0.497366 0.431937 -0.212588 -0.607508 -0.226317 -1.110590 0.245621 0.187713 -0.625008 0.276840 1.088691 -0.238706 -0.246003 -0.319771 -0.286031 -0.565395 0.421230 0.082612 0.630647 -0.321351 -0.216492 -1.682866 0.073017 -0.565257 0.173367 -0.449889 -0.010303 -0.084828 0.010546 -0.284078 -0.325615 -0.961430 -0.654410 -0.249826 0.003802 0.118035 -0.212330 0.165908 -0.621730 0.229890 0.395251 1.183041
относительно -0.060807 0.647830 1.166453 0.245490 0.056854 0.294100 0.458411 0.760313 0.520734 0.313794 -0.259188 -0.235682 -0.434259 0.036866 -0.325036 0.905616 0.350613 -0.561954 0.499480 -0.591964 0.337138 -0.519831 -1.344213 0.717088 -0.794599 0.164032 -0.690131 -1.300147 0.071036 -0.508100 -0.151884 0.292809 1.623487 -0.557640 -0.406707 -1.333358 -0.891307 -0.716669 -0.170857 -0.046182 -0.402517 0.865122 -1.556302 0.287324 1.280977 1.079106 1.164671 -0.159642 0.548688 0.073569
квартал 0.284445 0.216490 -0.010622 0.514990 1.452936 -1.218076 -0.294777 0.590276 -0.013209 0.065999 0.433412 -0.032617 -0.236692 -0.348271 -0.188938 -0.494063 0.442923 -0.653769 -0.672657 0.217019 1.118278 0.593111 0.677154 0.519570 -0.752220 -0.299075 -0.026696 0.214773 0.114057 0.536850 -0.029461 -0.348560 -0.221241 -0.984163 -0.382483 0.042410 -0.181900 -0.471211 0.038020 -0.397478 -0.644026 -0.075196 -0.647798 0.776498 0.502986 0.726087 -1.048152 -0.567743 0.133354 -0.246910
во 0.819731 -0.678536 0.371628 0.510444 0.763588 -1.278970 -0.107592 0.395498 -0.270803 0.883537 0.625565 -0.008984 -0.345081 0.403311 0.111974 -1.390713 -0.261539 -1.880140 -0.304557 0.244718 0.286971 -0.773201 -0.315358 -0.740941 -0.816946 -0.294120 0.303782 -0.022059 0.856060 -0.027940 0.771134 -0.394087 -0.681241 -1.017856 0.414756 0.056021 -0.273561 -0.311087 -0.344824 -0.089610 0.154927 -0.030382 0.146083 0.094837 -0.520082 0.039775 -0.079747 0.260758 0.274991 -0.024252
депозитный -0.274573 -0.224217 -0.044847 -1.009780 0.764152 -0.064996 1.342562 -1.190651 0.730875 -1.376826 -1.144897 0.429278 0.167498 -0.137103 0.752969 -0.956903 0.147826 -0.224798 0.130613 -0.207354 0.457000 0.218065 -0.240340 0.888492 -0.784003 0.028419 0.759022 0.628883 -0.391974 0.218048 0.554280 0.357142 0.240931 0.020680 0.002550 0.566644 1.283416 -0.693720 -0.250531 0.190748 1.406407 0.008210 -1.057857 -0.741455 -0.061673 -0.091834 -0.563026 0.233723 0.400463 -0.026576
основной -1.252217 -0.506997 0.265730 0.640293 0.297408 0.069529 0.968978 -0.046874 -0.705025 -0.518029 0.299542 -0.168751 0.030261 -0.959299 -0.969464 -1.071369 0.264552 -0.463325 -0.000124 -0.086950 1.003425 0.177049 -0.184839 1.058637 0.857778 -0.058477 0.579235 -0.507289 -0.863309 -0.207798 -0.248048 0.311312 0.370944 -0.331735 -0.471315 1.116047 -0.320930 0.370646 -0.176351 -0.587261 0.597409 0.086535 0.832589 0.374246 -0.621771 -0.475484 0.455798 -0.211122 1.102764 0.622445
повышенный 0.491882 0.343590 -0.195815 -0.356965 0.562079 -0.432342 -0.079589 -0.021725 0.481525 -0.041514 0.591833 1.184822 -0.996905 -0.768278 -0.815375 -0.504183 0.681814 0.818874 0.688023 0.003218 -0.417651 -0.745320 0.620098 0.476593 0.010651 0.447999 0.135485 -0.083140 0.075727 0.321018 -1.051622 -0.329380 0.215246 -0.394805 -0.884615 -0.709034 -0.447008 -0.284797 -0.507728 0.527941 0.082420 0.403644 -0.283430 0.616826 -0.602942 -0.500946 0.011094 0.650893 -0.301642 0.198943
из -0.663624 -0.763752 0.151184 0.149471 0.495872 0.264812 -0.025092 0.179527 -0.805154 -0.635240 0.748989 0.711048 -0.028076 -0.213223 -1.319035 0.515509 0.343374 -0.962867 0.706799 0.046885 0.094292 -0.585474 0.912546 -0.118819 0.267407 0.347346 -0.551050 0.732252 -1.280595 -0.917007 1.939019 0.249286 0.609362 -0.203942 -0.715332 0.098640 -0.564838 -0.408253 0.476003 -0.817429 -0.920563 0.284164 -0.455350 0.582801 -0.448732 0.287159 -0.755945 0.489019 0.237041 0.833314
оценивать 0.676044 0.129897 0.263377 0.548704 0.202959 0.023301 -0.199737 0.466186 -0.456634 0.185695 0.081530 0.123888 0.678058 0.106639 0.397206 0.195339 0.750707 -0.834155 -0.103576 0.162810 0.156180 -1.145416 -2.258447 -0.322904 0.044836 -0.157719 1.047895 -0.340791 1.070678 -1.097854 0.011749 0.047108 1.209302 0.246573 0.119747 -0.399552 -1.500897 -0.884716 -0.462531 0.248479 -0.172551 0.115731 -1.556254 0.330183 1.225434 -0.098256 -0.693823 1.059026 1.601785 0.824512
рубль -0.385883 0.890081 0.747165 0.916221 0.381861 -1.063348 -1.097212 -0.156910 -0.816279 0.162925 0.607129 -0.203466 -0.928369 0.121456 -0.461429 -0.242181 1.051726 -0.017664 0.503754 -0.355346 -0.332517 -0.429288 0.753172 0.765561 -0.668945 0.071772 0.252477 -0.639611 -0.098884 -1.279300 -0.768785 -0.467167 -0.733506 -0.292341 0.308198 -0.996748 0.429648 -0.239219 -1.467047 0.068599 -0.335107 0.132085 0.287117 -0.747293 0.115234 -1.031471 -1.120376 1.179443 -0.577331 0.360858
низкий 0.186584 0.327565 0.033606 0.547817 1.425953 1.033377 0.282558 0.515238 0.186163 0.234549 0.539387 0.307824 -1.040934 -0.921936 -0.071733 0.021629 0.106778 0.448924 0.311571 -0.047845 0.481236 0.619605 -0.318161 0.320498 0.009300 0.211491 0.363906 -0.420209 0.327361 1.570267 0.682758 -0.751127 0.035869 0.105400 0.032431 -0.955656 0.497332 -0.254577 0.381244 0.147994 -0.371944 0.672446 -0.395607 1.416203 -0.282430 0.045217 -0.357261 0.073445 -0.234184 0.262273
обеспечивать 0.359156 -0.749642 -0.977404 -1.231372 0.040750 -0.561938 -0.088065 -0.743143 0.073159 -1.083016 -0.132042 0.367822 0.005347 -0.152971 1.331521 -0.644252 0.683894 1.108211 -0.193211 -0.281904 0.043092 -0.188176 0.196359 -0.099285 -0.601453 0.249732 0.079362 0.062524 1.455301 -0.018325 0.459400 0.295218 -0.186996 -0.420001 -0.046040 -0.534430 0.208937 -0.123161 -0.367787 -0.251268 0.475154 -0.668008 -0.395426 -1.378187 -1.192627 -0.569847 0.310623 -0.484891 -0.866494 -0.273658
об -0.046345 -0.581451 0.370290 -0.534414 1.052949 0.886324 0.289365 0.701107 -0.645104 -0.597610 0.473355 1.560610 0.035596 -0.911495 0.404537 0.350092 -0.880539 -0.080959 -0.273581 -1.082306 0.053453 -0.359334 0.382079 -1.496915 0.886861 -0.227543 -0.115541 1.058642 0.216001 -0.005746 0.182976 -0.169259 1.271307 -0.462132 0.038158 0.174451 0.087958 0.712671 -0.462810 0.072529 0.198919 1.050462 -1.237313 0.254085 -0.528796 0.179241 -1.479382 -0.090497 1.332702 -0.267143
мировой 0.495435 0.514053 0.496046 -0.787952 -0.443419 0.791580 -0.025436 0.208456 1.489571 0.994058 0.392077 -0.542551 0.104688 -0.522229 -0.748600 0.769054 0.324291 -1.275956 1.235380 0.193487 -0.739460 -0.249359 -0.720825 0.257693 0.169437 0.277973 -0.032409 0.003771 0.032635 -0.237896 -0.379793 0.768563 -0.347364 -0.833455 0.417203 -0.060244 -0.184768 -0.957663 0.191600 -0.024249 -0.046829 -0.645005 1.061129 0.549214 0.558390 -0.031614 -1.003459 -0.019788 0.133894 0.980788
развитие -0.139212 0.259618 1.180219 0.235275 -0.524382 0.078458 0.140868 0.488424 0.713767 0.489853 0.484307 -0.137182 -0.452126 -0.026627 -0.311733 0.073153 -0.106535 0.242455 -0.416732 -0.093835 0.267577 0.176988 -2.347335 0.848284 -0.372157 -0.593760 0.208199 -0.688550 -0.084233 -0.629284 -0.385878 -0.249733 1.838494 -0.521961 0.397638 -0.888520 -1.141295 -1.117567 -0.132103 -0.694121 -0.385233 -0.596203 -0.922646 0.416323 0.776543 1.412820 0.040194 -0.755714 0.363141 -0.128614
аукцион -0.076074 -0.618830 -0.095042 -1.125200 0.274634 -0.068164 0.713525 -0.486275 0.184605 -0.851936 -0.402615 0.016722 0.427056 0.602919 0.938871 0.095950 0.421072 0.103693 -0.146390 -0.186289 0.520220 -0.201764 -0.692695 1.089175 -1.446752 0.617010 0.121362 0.624537 0.711903 -0.199759 0.223582 0.914579 -0.047059 -0.889930 0.216726 -0.292702 0.684416 -0.332888 0.236173 -0.446414 0.795780 -0.842134 -0.994044 -0.824845 -0.263267 -0.740344 -0.146170 -0.269418 0.151988 -1.187591
горизонт 0.019969 0.950095 0.001595 -0.745216 -0.494466 -0.645953 0.472821 0.293782 1.158546 -0.246070 0.109722 -0.172574 0.465868 -0.008795 0.084824 1.228386 0.346360 -0.583288 0.139584 -0.440786 0.998057 -0.741501 -1.249435 1.033333 -0.148797 -0.280462 -0.074612 -0.442408 0.549540 -0.890506 -0.567495 -1.107142 0.902901 0.216557 -0.216467 -0.504128 -1.552794 -0.848811 -0.053101 0.026293 0.876942 -0.161200 -0.577505 0.536235 1.108452 -0.480608 0.588583 0.153696 0.582745 1.400904
устойчивый 0.186861 0.146318 0.322705 -0.063338 -0.139701 -0.433087 0.093352 0.265755 -1.254052 -0.269631 0.953407 0.827599 -0.163008 -0.723792 1.076782 0.043081 -0.630231 -0.545677 0.780262 -0.083555 -0.188965 0.027762 -0.184737 1.410774 1.322858 0.173326 0.672885 -0.435037 -0.574543 0.517945 -0.825896 -0.733683 -0.747865 -1.146820 -0.111347 0.127718 -0.095374 0.222353 0.796953 0.939309 -0.991195 -0.194444 -0.842243 -0.305386 0.891882 -0.201632 0.670749 0.379836 0.213900 0.843049
близкий -0.263182 -0.294302 0.465907 0.108048 0.902769 -0.432525 -0.771038 0.741766 -0.190146 -1.149243 0.467223 1.074206 -0.069452 -0.176884 -0.069258 0.191640 1.173709 -0.085178 -0.545329 -0.411476 0.519704 -0.758454 -0.063687 0.304694 -1.081007 0.548964 -0.564951 0.280854 0.434021 -0.282131 0.368500 0.861908 0.647457 -0.274458 -0.309254 0.314771 -0.649531 -0.697404 -0.239861 -0.998088 -0.840033 -0.888743 -1.225818 0.143493 0.906627 -0.057392 -1.277888 0.254801 0.249766 0.519927
ввп 0.352630 -0.005212 0.524029 0.370728 0.965126 -0.463511 -0.221239 0.501299 -0.476262 0.396204 0.720349 0.093079 -0.048474 -0.979140 -0.230491 0.203764 0.500260 -0.792276 -1.565008 0.957303 1.192189 0.488400 0.607823 0.141120 -0.207977 -1.019660 -0.215307 0.310542 0.770248 0.815439 0.025804 -0.367525 -0.033048 -0.198916 0.050512 0.132350 -0.414375 0.187010 0.720984 -0.769616 -0.444953 -0.665454 0.447438 0.687768 1.165123 0.200791 -0.693647 -0.044829 0.204769 -0.197135
они 0.115086 0.899901 -0.350880 -0.207837 0.660353 0.266738 -0.323257 0.179713 1.114122 0.173367 -0.120937 0.671555 -0.566067 0.176871 -0.275787 -0.741839 0.857634 -0.582890 0.593714 0.863442 -0.489666 -0.378531 -0.748881 -0.518030 -0.090237 0.085993 0.529499 0.126340 0.622290 -1.274184 -0.087387 0.347910 0.464523 -0.427994 -0.171664 0.203410 -1.465788 -0.041973 0.122894 -0.285743 1.196724 0.283281 -0.178427 -0.190774 1.161056 0.592376 0.043051 0.115713 0.764928 0.600215
действие -0.184931 0.500875 -0.788760 -0.347674 0.978056 -0.528011 0.933538 -0.644100 -0.720050 -1.030584 -0.333322 -0.243076 0.899130 -0.311047 1.549028 -1.013132 -0.235966 -0.193992 0.049206 -1.328425 1.485786 -0.027749 -0.424200 0.218818 0.329451 -0.074238 0.064138 0.315209 -0.002888 -0.798336 -0.156503 -0.499046 0.051829 0.445168 0.071908 0.111551 0.872185 -0.272213 0.195521 0.532303 1.295900 -0.462798 -0.036718 0.059145 -0.328043 -1.615240 -0.512610 0.462927 0.965272 1.178631
месяц 0.359873 -0.263504 -0.303891 -0.784632 0.354643 -0.605124 -0.217834 -0.174566 -0.193484 -0.573246 0.336302 0.240520 -0.122452 0.363762 0.588750 0.433008 0.975232 0.268971 -0.423294 0.038346 0.666907 -0.767775 0.361647 0.968902 -1.609982 0.559837 -0.574508 0.630211 0.492194 0.044552 -0.054311 0.569992 -0.286534 -0.882900 -0.203407 0.091524 0.250541 -0.430531 0.186387 -0.233623 0.337152 -1.477513 -1.452780 -0.443815 0.009707 -0.723593 -1.142454 0.269958 -0.487507 -0.545455
давление 0.829355 -0.264771 -0.184010 -0.284159 -0.030380 -0.174463 -0.969257 -0.061743 0.331315 -0.015603 0.202639 0.335084 -0.580255 -0.628913 0.656582 -0.193391 0.333643 -0.086207 0.527333 0.559264 0.109988 -1.474773 0.223075 -0.253959 0.100499 -0.129979 0.677556 -0.469995 0.281464 0.908270 -0.104901 -0.977929 -0.417486 -0.512079 -0.270067 0.221758 -0.777485 0.170888 -0.220566 0.827853 -0.494188 0.298577 -0.109997 0.316560 -0.225597 -0.429392 0.469435 0.666414 -0.030046 1.746998
изменение -0.254251 -0.587225 1.397755 0.311158 -0.725475 0.022998 -0.509066 -0.375992 -0.072760 0.157066 0.652799 0.831225 0.347280 -0.189890 -0.457635 0.583953 0.551728 0.006869 0.065851 0.388115 -0.551772 -0.028393 -0.250507 0.161552 0.211855 -0.266844 0.896955 -0.889223 0.611141 -0.948664 -0.441127 -0.667896 -0.107988 0.492753 0.344638 0.033454 0.333770 0.065834 1.317980 0.445600 0.503336 -0.420742 -0.048781 -0.135676 0.218748 -0.003105 0.555446 1.483611 0.399956 0.690915
итог -0.102841 0.067083 0.231265 -0.239700 1.255286 -0.328481 0.120937 1.230476 -0.317619 0.333162 0.114651 0.283003 -1.048833 -0.503665 0.709768 -1.049126 0.833862 -0.064317 -0.646531 0.569108 1.046253 0.243705 0.427278 -0.762825 -0.536297 -0.226656 -0.833235 0.561888 -0.586757 -0.817355 -0.110689 0.095981 0.659743 -0.127598 0.228563 0.567553 -0.869436 0.089067 0.601490 -0.994749 0.420770 -0.473612 0.288783 -0.935398 1.601592 0.308362 -0.553700 -0.456468 0.563798 0.976397
продолжаться 0.248431 -0.329911 0.787045 -0.071289 0.722779 -0.405393 0.005367 -0.097859 0.593880 0.516451 -0.048772 -0.083715 -0.184987 -0.264282 -0.062328 -0.262674 0.499601 -0.541965 0.614257 0.135667 -0.221485 0.749109 -0.084969 0.967755 -0.174147 -0.425002 0.790796 0.286570 -0.144005 0.754679 -0.200937 0.000397 -0.166001 -0.618943 0.196866 0.021708 0.711713 -0.136261 0.239912 -0.214851 -0.087273 0.348198 -0.399107 -0.738207 0.590310 1.639793 0.135961 0.043870 -0.085748 -0.133653
увеличение 0.361668 -0.619535 0.285059 -0.079231 0.004785 -0.322182 -0.195331 -0.111797 -0.073893 -0.042768 0.430283 -0.341721 -0.039209 -1.072191 -0.011269 -0.342953 0.610725 -0.118479 0.189657 -0.003582 0.060100 -0.236776 0.518446 0.499536 -0.277994 -0.812504 0.949798 -0.106520 0.374597 0.636753 0.061891 -0.242291 -0.604677 -0.614278 -0.434611 1.220575 0.277499 -0.079439 -0.544389 -0.190947 0.137866 0.953918 -0.429976 -0.288536 0.093370 0.478879 -0.396067 0.504543 -0.024324 0.117754
восстановление 0.853784 0.296579 0.419653 0.624638 0.042530 -0.102714 -0.188094 1.264570 0.001220 1.045492 0.690540 -0.438778 0.762767 -0.771995 -0.455344 0.332114 0.892060 -0.353952 0.581468 0.230454 -0.244669 0.179343 -0.425355 -0.067509 0.116085 -0.213908 -0.252037 -0.017404 0.728222 0.925598 -0.617915 0.475602 -0.190403 -0.608094 0.388578 -0.434374 0.704967 -0.577885 -0.499640 0.027204 -0.162782 0.061944 -0.051136 0.484822 0.025836 1.397941 -0.461339 -0.087950 0.055682 0.386654
чем 0.682252 0.222712 -0.258743 0.817448 -0.095982 0.964995 0.008013 1.696973 -0.182225 1.121184 0.103391 0.135581 -0.151563 -0.122185 0.176544 0.051196 0.529355 -0.966393 -0.442039 1.627228 0.573810 0.832273 0.851894 0.215581 0.535311 -0.528448 -0.863357 -0.784030 0.166746 0.469211 0.030015 0.543874 -0.037478 -0.106341 0.795158 -0.681724 0.564330 -0.875388 -1.184930 0.131003 0.117311 -0.085713 -0.744006 -0.136334 0.465528 -0.489517 -1.651767 0.481299 0.275444 0.917156
способствовать 0.075790 -0.275954 1.278506 0.630878 0.961848 0.475808 -0.282565 0.744513 -0.270212 -0.275949 0.541965 0.179568 -0.958193 -0.413092 -0.340899 -0.091803 0.758810 -0.140817 0.091359 0.270076 -0.356967 -0.281565 -0.558877 0.184577 -0.817910 0.268489 0.972990 -0.730710 0.071273 0.280035 0.024620 0.232012 -0.135802 0.150550 0.188331 -0.022366 1.030470 -0.396195 0.134555 0.333030 -0.413690 0.681133 -0.343582 0.278236 0.187311 -0.046063 0.512595 1.106041 0.001040 0.335735
труд 0.048296 0.094638 -0.308631 -0.630545 0.651017 0.310625 -0.461183 -1.328683 1.246675 -0.159253 0.517846 0.326766 0.428614 -0.306500 0.388027 -0.546209 -0.002203 0.386614 0.182012 1.098980 0.132317 -0.893828 -0.733896 -0.221927 -0.150082 0.716515 0.927300 0.361961 1.515204 0.339609 0.106721 0.441030 -0.240980 -1.075043 0.902367 -0.854010 -0.357581 -0.046030 0.402539 -0.419174 0.759166 -0.694596 0.131564 0.377828 -0.945707 -0.087910 0.682237 0.165611 0.082599 -0.014712
проводить -0.565612 -0.254739 0.726715 -0.735579 0.354163 0.473982 0.631142 0.947520 0.376265 0.330894 -1.012302 0.108293 -0.930174 0.701727 0.724356 -0.495770 0.818939 0.374251 -0.078562 -0.564237 0.421044 0.388678 1.170549 -0.487579 -1.088218 0.085122 -0.478738 -0.518530 -0.360573 -0.810925 0.090154 0.093471 0.868167 0.325494 0.135634 0.092494 0.939744 -0.899069 1.161250 0.377551 -0.512378 -0.564073 0.287660 -0.162833 0.599015 0.290691 0.855272 0.006697 0.884431 0.734343
дезинфляционный 0.043380 0.859759 -0.338536 -0.601578 -0.516409 -0.004504 0.674747 0.556688 0.626297 -0.123631 0.030751 -0.647884 -0.321154 0.248182 -0.020433 -0.011322 0.168701 -0.635791 0.099159 0.393051 0.237721 -0.430864 -0.308136 0.561484 0.404269 -0.019884 -0.269682 -0.421539 -0.282377 -1.072528 -0.125320 -0.626158 -0.750287 -0.176834 -0.686167 0.261065 0.060790 -0.848686 -0.858640 -0.292817 0.399423 -0.492992 0.597061 0.625645 0.151932 -0.679113 0.310811 0.547517 0.030713 1.451200
связанный -0.067124 0.000247 0.218448 0.472811 0.114112 -0.671974 0.447130 0.757096 0.132817 1.095767 0.583081 0.137154 -0.011451 0.315717 -1.376357 -0.341442 0.345784 -0.823945 0.503862 0.660942 0.228896 -0.185085 0.104806 0.189191 0.365513 -0.319368 0.841213 0.145127 -0.135797 -0.588122 0.043157 0.061825 -0.493471 -0.871875 -0.054615 0.013821 -0.179537 -0.715610 -0.228205 0.532056 0.294316 -0.709458 0.426431 0.783830 -0.512825 -1.448715 -0.747118 1.069581 1.718571 0.099655
начало -0.423605 -0.128297 0.513107 0.063073 -0.033164 -1.217828 -0.005934 -0.027422 -0.009597 0.577923 -0.352409 -0.210151 -1.193975 0.174826 -0.248749 -0.554968 0.390373 -0.178176 0.316588 -0.704636 0.345597 0.012564 1.340429 0.269015 -0.874406 -0.867732 -0.118425 -0.032114 -0.446225 0.454334 -0.493767 -0.864284 -0.239794 -0.470639 0.230560 0.045435 0.470670 -0.950229 -0.925340 0.453393 -0.284348 -0.107077 0.632812 -0.654621 0.014973 0.140005 -0.956735 0.446242 -0.521363 -0.276587
услуга 0.755382 0.091792 1.351603 0.178762 0.682122 0.220150 -0.350157 0.827001 0.345354 1.021755 0.702468 -0.212420 -1.099534 -1.499329 -0.479145 -0.078040 0.483725 0.944100 0.867041 0.342758 -0.142917 0.257202 -0.547437 -0.204733 -0.440238 0.263144 0.354177 0.302861 -0.740675 0.536468 0.376830 -0.363279 -0.352280 0.201867 0.072907 0.034879 0.614987 0.857608 0.357887 -0.191181 0.065567 0.453851 -0.197715 -0.723088 -0.677734 -0.455102 0.182776 -0.392309 -0.596573 0.326662
конец 0.220745 0.285404 0.477368 -0.203448 0.467023 -0.330769 0.276750 -0.434419 -0.024559 0.077505 0.435369 0.423166 -1.553535 -0.293224 0.404930 -1.240719 -0.161594 0.031769 -0.808666 -0.381334 0.664935 0.455424 0.742637 -0.022024 -0.406456 -0.918105 0.255847 -0.405399 0.201722 -0.254608 -0.197431 -1.254872 0.239048 -0.253679 -0.402964 0.205319 0.111731 -0.837892 -0.448720 0.431211 -0.444594 -0.122121 -0.056734 0.381357 0.394809 -0.134690 -0.760442 0.255263 -0.488403 -0.262417
ожидать 0.099183 0.013329 1.244436 0.551002 0.089564 -0.400409 0.474032 0.665677 -0.352531 0.404287 0.342480 -0.414329 0.022130 -0.229092 -0.211481 0.577896 0.277542 -0.821993 0.111799 -0.713889 0.630858 0.151659 -0.919107 0.943567 -0.909151 -0.252359 -0.356490 -0.953419 0.188480 -1.088251 0.350544 0.104629 1.127293 -0.547613 0.443249 -1.371429 -0.164781 -0.764248 0.302681 -0.095271 -0.462113 0.643729 -1.445385 -0.444901 0.670321 -0.718479 0.166116 -0.325162 1.016180 -0.222246
значение -0.109684 -0.646328 -0.456725 0.730678 0.266495 -0.821573 0.216165 -0.539388 0.423602 -0.716686 -0.349264 1.535303 0.156424 0.242081 -0.109263 -1.208653 -0.278055 0.587952 -0.185530 -0.757568 0.333516 0.914928 -0.356723 -0.172504 -0.499629 -0.210679 0.593109 0.391090 0.223379 1.603842 0.482930 -0.472798 0.748454 0.394521 0.519365 -0.765386 -0.115798 -0.394396 0.395080 0.569080 -0.443782 -0.260645 -0.629513 0.858584 -0.173411 -0.471484 -1.080196 -0.453696 0.203034 -0.379430
значительный -0.142273 0.125314 0.086567 -0.020218 -0.430666 0.217813 0.788764 0.258953 -0.156652 0.138481 0.155264 -0.377294 -0.269180 -0.679538 0.160084 0.094033 -0.289961 -0.522816 0.085371 0.544846 0.268438 -0.123283 -0.195094 0.202498 0.441573 -0.416878 -0.283203 -0.886068 0.287518 0.205190 -0.152945 -0.054701 -0.340187 -0.758716 0.405914 -0.353271 0.692854 -0.746514 -0.455783 0.006377 0.024451 -0.766739 0.136351 -0.280082 -0.880391 -0.660778 -0.528874 0.572623 -0.396403 -0.022113
сценарий -0.579074 -0.508011 0.355518 -0.201026 -0.853241 0.422595 0.597538 0.908418 -0.067459 -0.085146 0.494799 0.055369 -0.702513 -0.529078 -1.038019 0.207717 0.416211 -0.481477 -0.147812 0.789585 0.602956 0.696999 -0.010414 0.079003 0.551281 -0.038108 -0.524720 -0.293092 -1.119460 -0.383316 0.993777 0.329250 0.370103 0.512408 -0.328984 0.169498 -0.525690 -1.297528 -0.383812 -0.431105 -0.578797 -0.823059 0.446335 0.616963 0.200013 -0.949947 -0.664457 -0.242105 -0.068941 1.086308
предложение 0.364464 0.879838 0.829129 -0.203164 0.747723 0.202670 -1.187030 0.029545 0.732414 0.137144 0.731637 -0.731958 0.035050 -1.540933 -0.030700 -0.247594 0.462830 0.401865 0.573463 0.296926 0.322640 0.079824 -0.449634 0.113712 0.581219 0.941822 1.412843 -0.035334 -0.258040 -0.929648 0.076756 -0.440661 -0.617209 -0.044285 -0.676299 0.214451 -0.375657 0.162252 -0.173060 -0.306712 -0.155107 0.067930 0.233739 -0.109314 -0.938408 0.192568 -0.012454 0.436420 0.205492 0.725814
сбережение 0.279889 0.234563 -0.005457 0.000791 0.284599 -0.467427 -0.362279 0.093005 0.362001 -1.072226 0.033996 1.261869 0.168421 -0.515009 -0.178249 0.314198 0.834855 0.824538 0.781508 -0.359466 0.011454 0.263310 0.497400 0.542950 0.529494 -0.232031 0.683095 -0.671323 0.796454 0.520529 0.197764 0.073729 -0.523707 0.817785 -0.012470 -0.863272 0.651269 -0.322788 -1.375976 0.715845 -0.318042 -0.251308 -0.292712 -0.085493 0.088455 0.040500 0.866583 1.253234 -1.003756 -0.032329
расширение 0.132540 -0.967385 0.313102 0.150435 -0.270138 -0.107605 -0.159234 0.885266 0.281267 0.331404 0.553331 -0.901325 0.224429 -0.998052 0.281258 -1.036072 0.351636 0.998789 0.324304 0.109565 -0.070681 -0.354191 -0.645061 0.619459 0.312170 0.356496 0.955376 -0.069961 -0.765690 0.115122 -0.236193 -0.744047 -0.511934 -0.090968 -1.241492 1.238199 0.343085 -0.138765 -0.295353 -0.631889 -0.416241 -0.191206 -0.228948 -0.236012 -1.396507 1.298678 0.631233 -0.035750 0.224822 0.690544
запланировать -0.086638 -0.367721 0.570577 -0.332714 0.714234 0.174481 -0.034528 -0.453656 -0.190598 -0.189352 0.063563 0.649712 -0.264648 -0.631554 -0.175161 0.090303 -0.453322 0.076144 -0.418358 -0.730766 0.202550 -0.639664 0.022708 -0.986181 0.029956 -0.895722 -0.405618 1.116263 0.677200 0.438003 0.133468 -0.410612 1.137144 -0.443312 0.423257 0.190518 -0.722033 0.760075 -0.234402 -0.704030 0.860855 0.695026 -0.510708 -0.385827 -0.071885 -0.804052 -1.561052 -0.375516 0.265143 -0.607038
март -0.134183 0.464252 0.920311 0.118231 0.562020 -0.213490 0.009556 -0.452804 0.027469 0.132754 -0.017197 0.812015 -1.477038 0.001717 -0.288833 -0.631249 0.256389 -0.493176 -0.507743 0.060944 0.085211 -0.207127 0.978266 -0.376207 -0.329098 -0.924621 -0.234967 0.684488 -0.320301 -0.127584 -0.590631 -0.713101 0.448400 -0.377722 0.053555 0.102680 0.107742 0.386330 -0.047482 0.055382 0.426960 0.186272 0.171090 -0.992378 0.860982 -0.156629 -0.972127 0.472707 -0.197819 0.013881
ситуация -0.469232 0.412022 0.731432 0.365944 -0.641268 0.532285 -0.126924 0.039464 1.308849 0.145893 0.681634 0.017946 -0.132190 0.348543 -0.946544 -0.078272 0.215667 0.236233 -0.697984 0.134141 0.291338 0.114517 -1.747653 0.307606 -0.712517 0.135346 0.271811 -0.048522 -0.559276 -0.242096 -0.288640 0.848615 0.977948 -0.883803 0.497781 0.124501 -0.902388 -0.966025 -0.444538 0.089789 -0.204400 -0.986879 -0.003402 1.467535 0.670133 0.896213 -0.918701 -0.784366 0.450918 -0.433086
ослабление 0.078282 0.518429 0.627031 0.877061 0.341266 -0.826064 -0.933120 -0.292709 -0.634616 0.287296 0.652622 -0.187613 -0.514713 -0.320169 -0.372052 -0.351787 0.849885 0.025398 0.327605 -0.483633 0.121478 -0.607161 0.789276 0.054313 -0.074877 -0.561782 0.189568 -0.245312 0.409191 -1.024493 -0.768089 -0.625530 -0.192713 -0.176936 0.196707 -0.309500 0.332248 -0.250198 -1.339575 -0.039975 -0.152709 -0.033501 0.091249 -0.541853 -0.140659 -0.682190 -1.546083 1.281819 -0.335235 0.383204
эффект 0.488564 0.706696 -0.723674 0.136269 0.499777 -0.357559 -0.213117 -0.158062 -0.137863 -0.155996 0.201404 -0.806833 -0.167088 0.717351 -0.087011 0.372319 0.300286 -0.371119 0.143027 -0.597249 0.085548 -0.305784 1.277182 -0.428916 -0.543302 -0.377463 0.370754 -0.527424 -0.050251 -0.798149 0.783338 -1.720226 -0.515840 0.193379 -0.203954 -0.601850 0.513105 -0.066206 -0.074795 0.397194 -0.442605 0.016671 -0.293165 1.810877 -0.191639 -0.029503 -0.506202 1.128383 0.636555 0.962976
апрель 0.071860 0.303395 0.643370 0.295894 0.473903 -0.344439 0.207922 -0.301150 -0.155487 0.151129 -0.022184 0.745253 -1.248213 -0.170199 -0.325825 -0.404484 0.284286 -0.718255 -0.557800 0.075948 0.269523 -0.278539 0.806156 -0.126002 -0.317242 -1.113221 -0.275911 0.694442 -0.276186 0.087374 -0.617080 -0.779846 0.405322 -0.181843 -0.053648 0.186724 -0.073348 0.325537 0.057525 0.144673 0.347819 0.156475 -0.191587 -0.858428 0.960345 -0.163316 -1.380054 0.459807 -0.156592 -0.052097
ликвидность -0.620815 -0.616822 -0.256192 -0.079098 0.775001 0.555581 0.204675 -0.220658 0.386497 -0.403639 -0.154091 0.008815 0.360116 0.660562 0.506298 -0.513626 0.079108 0.790063 0.106000 -1.180509 1.287991 -0.037691 -1.205915 0.806022 0.353606 -0.028696 0.058271 1.452201 0.013313 0.033348 -0.271464 0.211682 1.352122 0.756130 1.150165 -0.528829 -0.152285 0.026912 0.112634 -0.123267 1.116161 -0.533704 0.244783 -0.527996 -0.013338 -1.099441 -0.574169 -0.757354 0.522613 -0.911920
находиться 0.229385 0.306362 -0.095511 -0.378780 -0.058102 0.782114 0.268378 -0.706931 -0.006219 -0.034900 0.461131 0.466816 -1.005749 0.727471 0.802198 -0.497082 0.546122 0.289165 -1.294453 0.093537 0.085974 -0.437457 0.620539 0.108250 -0.684034 0.701927 -0.290021 -0.606852 -0.188506 0.191252 -0.860879 0.124636 0.949563 -0.919263 -0.436237 0.045350 -0.542856 -0.199897 0.902061 0.860780 -1.125891 0.039470 -0.321166 0.924629 0.001553 1.126708 0.535485 -0.708673 0.210935 0.251190
предприятие 0.756201 0.254834 -0.749960 -0.014807 0.075103 -1.230831 0.178724 -0.094197 0.631402 0.535675 -0.080524 1.019929 -0.238396 -0.661875 -0.522289 0.267230 0.182729 0.622134 0.487121 0.691548 -0.258929 -0.613419 0.424010 0.122963 -0.083918 0.701164 -0.278581 0.407730 -0.873030 0.604018 -1.733764 0.284359 -0.237019 -0.119843 -0.645045 -0.141137 -0.801227 0.023558 0.263625 0.867940 0.442164 -0.211556 -0.056226 -0.728015 -0.462199 0.124608 0.168245 0.311379 -0.361992 -0.116292
существенный -0.167740 0.245513 0.409573 0.494297 -0.345085 -0.202644 0.625048 0.554816 0.056099 -0.374520 -0.484036 0.186006 -0.288517 -0.132485 -0.231606 -0.079272 -0.202688 -0.621994 -0.044390 0.646682 -0.037510 -0.319931 -0.271866 0.972464 0.480366 -0.937080 0.431129 -1.205327 0.171110 0.312912 -0.879398 -0.751867 -0.354807 0.088061 0.346841 0.045876 0.484417 -0.745718 -0.798275 -0.230317 0.122255 -0.333441 -0.180345 -0.225400 0.025895 -0.461614 -0.488895 1.134643 -0.452706 0.486612
фон -0.215025 -0.138676 -0.072216 0.293302 -0.299232 -0.055111 -0.574242 -0.059546 1.195862 0.154651 0.334382 0.081706 -0.309790 0.336665 -0.516793 0.478333 1.048015 0.216549 0.408039 -0.037676 -0.669939 -0.208960 -0.115896 1.076228 -0.665580 -0.019371 0.651792 -0.302278 0.161959 0.602021 -1.376650 0.130281 -0.160063 -0.029949 0.476842 0.216764 0.341206 -0.326264 -0.268608 -0.414849 0.220957 0.257206 0.043525 -0.386904 0.040226 0.499754 -0.715518 0.312807 -0.690642 0.107774
краткосрочный 0.543720 1.176640 -0.287566 -0.930862 -0.284479 -0.798381 0.646414 -0.502671 0.899456 -0.412874 -0.275808 -0.114108 0.942755 0.173264 -0.134583 0.609706 0.202083 -0.185550 0.075890 -0.347447 0.328336 -0.329698 0.224624 0.753559 0.183834 -0.464222 0.672822 0.256995 -0.156711 -0.748184 -0.504231 -0.992966 -0.143343 -0.010929 -0.167369 0.123951 -0.281965 -0.287324 -0.727098 0.341081 0.630644 -0.974282 0.041904 0.811624 0.712303 -0.640301 -0.831197 0.814067 0.941244 0.929200
следующий -0.055749 -0.218805 0.559136 -1.002311 0.958694 0.556354 0.293380 0.337281 -0.082557 -0.112203 -0.095296 1.041132 -0.348929 -0.003201 -0.210585 -0.384559 0.228605 -1.106395 -0.123298 0.603146 -0.090500 -0.490018 0.121459 -1.058837 -0.470957 0.462074 -0.604174 0.858920 0.216604 -1.466813 1.148912 0.770704 1.185370 -1.212609 -0.178775 -0.008576 -1.238495 -0.255130 0.553387 -1.109727 -0.143154 0.772925 -0.397342 0.050317 0.776268 0.411029 -0.569308 -0.584915 1.363191 0.283849
дополнительный 0.296259 -0.625435 0.065455 0.072442 -0.772228 -0.095736 0.291432 -0.137205 0.305802 0.178554 -0.680020 -0.848172 0.011469 -0.579226 0.068540 0.394229 0.313788 -0.089717 0.290833 -0.414743 0.074480 -1.475866 0.078964 -0.257451 -0.501094 0.121912 0.120184 -0.423311 -0.890123 0.358562 -0.115312 -0.591009 -0.521184 0.433017 -0.453302 0.945945 0.250090 -0.018172 -0.340926 0.159626 -0.632767 -0.026865 0.899261 -0.115260 -1.211244 0.438553 0.659755 0.382803 -0.139012 2.090542
ожидаться 0.282819 0.011365 0.130491 0.827100 0.250362 0.364433 -0.710032 1.418654 -0.434951 0.758436 0.597064 -0.544026 -0.468338 -0.652639 -0.072336 -0.036684 0.047541 -0.705040 -0.279032 1.165533 0.305158 0.583793 0.702489 0.194994 0.242002 -0.595409 -0.848214 -1.097274 0.078799 0.083671 0.123241 0.481447 -0.408875 -0.155514 0.326839 0.146749 0.118389 -0.845701 -1.041444 -0.535908 -0.416658 -0.315353 -0.123072 -0.061804 0.895369 -0.182765 -1.456251 -0.042436 -0.605453 0.712469
возможность 0.048238 -1.147350 0.728350 0.970447 0.415398 0.029490 -0.797027 1.486859 -0.725639 -0.522959 0.397918 -0.268998 0.400332 -0.507605 0.608809 -1.519305 0.472299 1.006410 -0.619766 -0.400489 -0.048779 -0.235982 -1.523066 0.703325 0.259173 0.672909 1.243865 -0.007494 -0.446834 -0.116041 -0.588783 0.299881 0.137216 0.206466 -1.272394 1.755747 -0.244220 0.233928 -0.647622 -0.774127 -0.894935 -0.245217 -0.907017 -0.302022 0.365733 0.925599 -0.090493 -0.496190 0.921769 -0.243389
использование -0.195106 0.312523 -0.093162 0.295084 1.071226 1.153672 0.207268 0.749830 0.628134 0.191138 -0.037654 0.755937 -1.272763 0.118523 -0.268420 -0.639347 -0.258411 0.561094 -0.722871 0.168408 0.278347 -0.740518 -0.669907 -0.619819 0.558359 -0.563782 -0.774899 1.535231 0.082824 1.181498 -1.125356 -0.279020 1.345460 0.547933 0.812662 -0.036848 -0.589515 0.424154 0.369656 -0.799945 0.787942 0.055025 0.668245 0.601697 0.538853 0.061990 -0.588937 -0.410968 0.123672 -0.396465
рефинансирование -0.033863 -0.584440 -0.642719 0.529058 0.415581 -0.740242 0.402990 -0.469310 0.363263 -0.919850 -0.401837 1.447233 0.103447 -0.059618 -0.028800 -1.150713 -0.021909 0.169365 -0.581669 0.016520 0.358250 0.792443 -0.447988 -0.097246 -0.426914 -0.280513 0.507276 0.919191 0.060052 1.812441 0.248481 -0.025627 0.397717 0.450440 0.603645 -0.123551 0.425327 0.078199 0.414793 0.170156 0.395899 -0.174195 -0.382487 0.225681 0.114927 -0.472886 -0.912713 -0.195534 0.027192 -0.217288
актив 0.743316 -0.279847 -0.542002 -1.261587 0.194508 -0.162059 -0.813702 -0.968167 0.415312 -0.578672 -0.008155 -0.251228 -0.057752 -0.228868 0.882635 -0.252281 0.640222 0.821932 0.015442 -0.009426 -0.323429 -0.087493 -0.350451 0.401342 -0.709308 0.339126 0.204115 0.471274 1.209310 -0.203985 0.230594 1.079570 -0.189542 -0.954853 -0.087298 -0.401693 -0.097924 0.245223 -0.148602 -0.414569 0.387610 -1.297043 -0.901057 -1.600355 -0.307827 0.139940 -0.250261 -0.714045 -1.142476 -1.356643
реальный 0.342010 -0.334338 0.098631 0.304364 0.455554 0.249056 0.820837 -0.412696 -0.142301 -0.947542 0.383631 0.279392 0.536120 -0.214760 -0.605039 -0.409962 0.965968 -0.065579 -0.511684 0.726869 -0.320537 0.175294 0.215369 1.788595 0.193797 -0.705187 1.476631 -0.695943 1.230090 1.032761 -0.347869 0.196726 -0.109682 -0.258886 1.096112 -0.248709 1.278746 0.402816 0.102020 -0.668417 0.325738 0.054095 -0.298789 -0.078553 -0.523608 0.533698 1.106603 0.490260 0.186745 -0.322634
траектория 0.156780 -1.836861 0.014361 -0.958263 -0.961493 -0.365470 1.500861 0.646491 0.597703 -0.305458 0.154906 0.157536 0.376976 -0.332845 -0.736464 0.610424 0.131758 -1.060497 0.656769 -0.865046 0.845509 -0.585158 0.086846 0.420267 -0.364500 -0.800156 -1.167770 -0.167513 0.812684 -0.495944 1.055926 0.243488 0.334628 -0.492934 -0.458565 0.226433 -0.147225 -0.772918 -0.108963 -0.525887 -0.362752 -0.294708 -0.192340 0.204264 -0.413034 0.608967 0.465912 -0.456595 0.076534 -0.481522
увеличиваться 0.359543 0.208805 0.134498 -0.809244 -0.184377 -0.074969 0.307083 -0.468556 0.180390 0.332057 0.584434 0.065327 -0.625790 0.201258 0.417511 0.240771 0.874694 -0.363919 -0.174798 0.443145 0.590882 0.078552 0.936163 0.746373 -0.564502 -0.229503 0.316902 0.878114 -0.772310 0.218166 0.055673 -0.650298 -0.407557 -0.482326 -0.503241 0.489640 0.143501 0.207261 0.424929 0.698941 0.137044 -0.423806 -0.391582 -0.646808 0.623675 -0.205727 -0.793214 0.596507 0.203260 -0.154925
приводить 0.457838 0.242433 -0.309795 -0.170473 -0.205857 -0.018217 -0.373476 -0.288643 0.912747 -0.148986 -0.219680 0.573850 0.425278 -0.840909 0.064048 -1.044317 0.272800 -0.043814 0.555377 -0.268903 -0.135713 0.169869 0.259009 -0.209543 0.230695 -0.035874 0.806893 -0.853226 1.117792 -1.180828 0.199004 0.019598 -0.772946 -0.850483 0.520938 -0.410982 0.681815 -0.297764 -0.834836 -0.099455 -0.959115 -0.507175 1.068560 0.293359 -0.612030 -0.776560 -0.430759 0.374432 0.152344 1.185770
реакция 0.486707 1.295077 0.248572 -0.258202 0.762752 0.613268 -0.489490 0.312454 0.797189 0.484348 -0.113849 -0.136877 -0.477265 -0.204081 -0.267779 -0.107448 1.267519 -0.515084 0.694934 0.676020 -0.806507 -0.508960 -1.068864 -0.604570 -0.033129 0.334679 0.610528 0.054048 0.715881 -1.571536 -0.819008 0.223644 0.777940 -0.074789 -0.001402 0.046894 -1.472275 0.165585 0.396044 -0.568570 0.974432 0.913121 -0.119294 -0.535972 1.465231 0.961322 0.110842 0.288458 1.109071 0.840921
служба -0.004293 0.418721 0.626367 0.504830 0.412767 1.059480 -0.339805 0.155378 0.586361 0.079058 -0.236863 0.900600 -1.261231 0.257053 -0.841693 0.059078 -0.164508 -0.735505 -0.109514 -0.074763 -0.498432 -0.909068 -0.568819 -0.748947 0.647993 -0.737531 -0.889698 0.808740 0.565356 0.576887 -0.625980 0.342149 1.497958 0.460704 0.751293 -0.113907 -0.808117 0.149267 0.680110 -0.666991 -0.058225 0.180502 0.168808 0.262224 1.230913 -0.097857 -0.802143 -0.263559 -0.063638 0.088808
материал -0.213481 0.557248 0.081782 0.393607 0.817336 1.398657 -0.119956 0.564835 0.662628 0.503986 0.047292 0.403425 -1.387106 0.115596 -0.386426 -0.168437 -0.274571 0.028843 -0.388394 0.543216 0.051288 -0.807402 -0.919220 -0.170675 0.671954 -0.383836 -0.712879 0.971538 0.098961 1.022606 -1.188592 -0.041851 1.224354 0.480067 0.618617 -0.300137 -0.642261 0.129315 0.586698 -0.666572 0.408885 0.092683 0.597929 0.715370 0.879791 0.052617 -0.344735 -0.258087 -0.058817 -0.110486
обязательный -0.034730 0.072800 0.744178 0.135000 0.548409 1.185667 -0.008232 0.187904 0.308701 0.126635 -0.602027 1.199999 -1.505286 0.462122 -0.645226 -0.167287 -0.112302 -0.627445 -0.511176 -0.003232 -0.503237 -0.820027 -0.057039 -1.463720 0.113760 -0.851106 -0.915385 0.974995 0.390516 0.278610 -0.292922 0.225272 1.771640 0.575621 0.613703 0.242032 -0.906166 0.192845 0.753039 -0.468296 -0.311999 0.456152 0.199609 -0.104067 1.391824 0.007585 -1.063211 -0.427625 0.255083 -0.245928
релиз 0.123789 -0.138659 0.194342 0.781581 0.546852 -0.815695 0.309856 0.116060 -0.600966 -1.160851 -0.060238 1.153603 -0.517597 -0.626477 -0.572290 0.130859 -1.034871 -0.890966 -0.428484 -1.062362 -0.498550 -0.627625 -0.071816 -1.473593 0.499729 -1.280934 -1.299005 0.274441 0.500621 0.784300 0.050188 -0.061690 1.019466 0.157452 0.036809 0.377548 -0.366494 0.859862 0.309748 -0.709140 0.350174 0.741781 -1.017498 -0.336096 0.640818 0.418989 -0.456838 -0.353235 -0.576921 0.092485
связывать -0.907330 0.494443 0.219393 0.531535 -0.239516 -0.893679 0.253442 0.638131 -0.041336 0.394101 0.340390 0.175490 0.343646 -0.109057 -1.056120 0.431829 0.604968 0.103977 1.232482 -0.004615 0.565324 -0.097152 -0.269445 0.434002 0.532729 -0.113236 0.729682 -0.596412 -0.347643 -0.459239 -0.079877 -0.245220 -0.312334 0.361426 -0.345359 -0.103978 -0.548885 -0.565340 0.133483 0.744562 0.688860 -0.384383 0.093456 0.545379 -0.520801 -0.691064 0.460039 0.766099 0.985602 0.352217
ссылка -0.171199 0.587581 0.240595 0.319385 0.676439 1.407337 -0.304598 0.360060 0.809790 0.404224 -0.032582 0.390211 -1.295483 0.108840 -0.500447 0.112595 -0.191332 -0.256224 -0.083635 0.393806 -0.183231 -0.869090 -0.934710 -0.316319 0.726421 -0.360868 -0.689356 0.795974 0.263736 0.851111 -0.995756 0.142773 1.288114 0.546735 0.591649 -0.279098 -0.662900 0.133093 0.740958 -0.604778 0.264683 0.329362 0.477701 0.576125 0.979666 -0.051986 -0.404381 -0.249256 -0.057511 0.072684
ценовый 0.633626 0.494529 0.191634 -0.201775 -0.085001 -0.477988 0.293735 -0.590490 -0.036239 0.488096 0.439674 1.006470 -0.861427 -0.281681 -0.209159 0.197725 0.439744 0.015478 0.548509 0.499399 -0.814324 -0.489180 0.078805 1.156483 -0.019125 0.891819 -0.022777 0.294311 -1.014218 -0.050655 -1.871707 0.117656 0.324721 -0.653693 -0.287735 -0.720803 -0.851280 0.220575 0.923575 1.120124 -0.212212 -0.081303 -0.164136 -0.962973 0.608222 0.414862 0.638902 0.271480 -0.143091 0.033654
сдерживать -0.457054 1.115935 0.496570 0.479014 0.069181 0.865649 0.254997 -0.006756 0.373181 -0.143980 -0.413302 -0.447535 -0.171275 0.190156 0.203033 0.496069 0.714856 -0.524093 -0.468539 -0.276176 0.016491 -1.083010 0.274554 0.323170 -0.214011 0.256351 -0.874796 -0.682020 0.895636 0.338652 -0.878126 -0.097203 -0.914277 -0.485068 -0.522018 0.149343 1.441399 0.385505 -0.263934 -0.545266 -0.079504 0.525961 0.485169 0.788096 -0.368576 0.694363 0.270841 0.584013 -0.251576 1.121310
создавать 0.715870 -0.483086 -0.088360 -0.653521 -0.393219 0.255759 0.221157 -0.376228 0.579675 -0.530615 -0.760772 0.959758 -0.562187 -0.405221 0.546973 -0.644327 -0.314002 -0.769001 -0.143932 1.433884 -0.787655 -0.246000 -0.698998 -0.185275 -0.131924 -0.278286 1.125973 -0.516362 -0.095809 0.621585 0.267671 -0.153546 -0.839095 0.380495 -0.216358 0.181819 0.380396 -0.790428 -0.612185 0.672047 0.111909 -0.314422 0.337072 -0.409561 0.469525 0.148948 0.512431 0.982989 -0.623354 1.936825
жесткий -0.325941 -0.384785 0.370168 -0.300099 0.105814 0.944068 0.426710 1.037744 0.613684 -0.108205 -0.652288 0.351408 -1.049390 0.619491 0.896481 -0.203986 0.304870 0.819011 0.252940 -0.513262 -0.413139 -0.707109 0.451248 -0.336732 -0.564934 0.585333 -0.457951 -1.887967 0.588296 0.639880 -0.475882 -0.000475 0.730959 0.356935 0.469818 -0.065337 0.856220 -1.410771 -0.102204 0.256007 -0.846308 -0.090931 -0.456006 0.301286 -0.211344 0.862698 1.236100 0.580961 -0.192146 0.436091
московский -0.177085 -0.176841 -0.302919 0.271191 0.379862 -0.389413 1.030345 1.092345 -0.560259 -0.427363 0.042364 0.734707 -0.033252 -0.422895 -0.011780 -0.280026 -0.214151 -0.251304 -0.227455 -0.053174 0.180142 -0.301964 -0.476854 -0.657062 0.761550 -0.660612 -1.410820 0.766840 0.220974 0.771837 -0.179689 0.278074 0.540664 0.019156 0.202578 0.533431 -0.170882 0.519529 0.867817 -0.912809 1.149699 -0.627006 -0.313008 -0.309246 0.622089 0.478779 0.765558 -0.050726 0.181928 0.893998
перспектива 0.747200 -0.147199 -0.799462 -1.134120 -0.350546 0.144394 0.865331 0.340046 0.869026 -0.043721 0.286365 0.399887 -0.111030 -0.179065 -0.135279 0.283151 -0.160159 -1.685624 -0.115355 -0.410895 0.518370 -0.389398 -0.279433 0.106608 -0.506847 0.136901 -0.861949 -0.337098 0.587477 -0.221855 -0.586770 -0.172279 0.342109 -0.529523 -0.795381 0.043287 -1.067370 -0.043923 0.009004 0.261489 0.093810 -0.546065 0.792919 1.785553 0.960473 0.923341 0.172731 -0.815393 0.150945 0.501409
вопрос 0.010878 -0.305868 0.211558 -0.235554 1.430223 1.253235 -0.250645 0.450206 -0.098369 -0.684494 -0.301678 1.516179 -0.643047 -0.002056 0.651198 -0.226675 -0.371795 0.325681 -0.938725 -1.150564 -0.610061 -0.735507 0.563310 -1.994668 -0.255284 0.304715 -0.011030 0.670839 0.867071 0.317697 0.064137 -0.065581 1.194418 -0.071799 0.145285 0.336872 -0.148712 0.605294 -0.533868 -0.220155 0.216595 1.625119 -0.659885 0.593366 -0.337318 -0.017789 -1.240038 -0.308181 0.855953 -0.241760
заработный 0.603594 -0.374446 0.151200 0.287309 -0.125138 -0.614232 0.896417 -0.999156 -0.344517 -0.760994 0.937355 0.679064 1.197729 -0.587476 -1.127784 -0.318016 0.951584 -0.645645 -0.144003 0.816456 -0.418150 0.138221 -0.424287 1.332201 0.192153 -0.198682 1.765014 -0.133153 1.339204 0.266240 0.099656 0.123725 -0.824361 -0.570652 0.686159 -0.739858 0.711234 0.089193 1.038039 -0.090468 -0.057002 -0.362156 0.325791 0.326848 -0.820107 -0.227104 0.688483 0.949236 0.733538 -0.067702
плата 0.681707 -0.260761 0.242147 0.217964 -0.188847 -0.507069 0.810342 -0.753927 -0.431738 -0.589917 0.919894 0.757030 1.096026 -0.696622 -1.113550 -0.328648 0.875306 -0.461954 -0.275917 0.837693 -0.513878 0.132007 -0.590379 0.906155 0.512912 -0.201834 1.732130 -0.124973 1.306881 0.133888 -0.111916 -0.013888 -0.804764 -0.392585 0.488689 -0.586257 0.570541 0.171885 1.078591 -0.026895 -0.146603 -0.326196 0.419197 0.469252 -0.739370 -0.119076 0.615666 1.112438 0.851078 -0.044761
публикация 0.052992 0.063464 0.100893 0.592717 0.548284 -0.785344 -0.327309 -0.100985 -0.559296 -0.744604 0.286358 0.739790 -0.532757 -0.193120 -0.241684 0.190311 -1.085902 -1.016573 -0.435943 -0.800836 -0.426194 -0.433043 0.272286 -1.149937 0.454403 -1.174246 -0.928752 0.337780 0.587092 0.743914 0.232865 -0.391833 0.232421 -0.371813 0.080137 0.317617 -0.295013 0.881846 0.129524 -0.651283 0.337923 0.558849 -0.890883 -0.087940 0.423797 0.017045 -0.892982 -0.225983 -0.783855 0.052067
структурный -0.085087 -0.403522 0.673446 -0.183797 0.310921 -0.172025 -0.341146 -0.229278 -0.281277 1.089527 -0.555366 -0.973279 0.989658 -0.127808 0.796766 0.843662 -0.808748 -0.372808 0.983406 -1.236667 0.035644 -0.912418 -0.856922 0.021027 0.362572 0.169686 -0.093496 -0.391792 0.640258 -0.418204 -0.136551 -0.371833 0.479983 -0.607134 0.328736 -0.692930 -0.529177 0.225635 -0.038154 -0.516434 -0.600950 -0.116137 -0.143442 0.134268 0.475900 0.300382 0.658124 0.278871 0.502440 0.676469
тенденция -0.044480 0.889486 0.301689 0.056575 0.319786 0.415858 0.198522 -0.389469 -0.305687 -0.877817 -0.641049 0.648209 -0.320862 -0.096772 0.420550 -0.426199 -1.618288 -0.172899 0.197285 0.006393 -0.534297 0.143526 -0.164093 1.363159 0.514777 -0.088905 0.001989 -0.597793 -0.602345 0.719361 -0.085272 0.113724 0.304679 -0.696149 0.455535 -0.518791 0.002540 -0.737484 -0.610697 0.663993 -0.504258 -0.349051 0.148828 0.079337 0.508330 0.280923 0.625374 -0.392218 -0.762401 1.012006
целое -0.302810 -0.765884 0.008456 0.185465 -0.662382 -0.246214 0.586051 0.205364 0.167365 -0.032080 -0.278355 0.465641 -0.392926 -0.185519 -0.823377 -0.169848 0.347020 0.617370 -0.648158 1.049921 -0.080769 -0.689805 1.037912 -0.070217 -0.628989 -0.063772 -0.427818 -0.023985 -0.950712 0.638179 -0.230472 0.018370 0.324133 0.047856 -1.007438 0.616609 -0.135917 -0.399456 0.221912 -0.382228 -0.131765 -0.222266 -0.065055 0.284306 -0.607772 1.560324 0.570909 0.421176 -0.268231 0.568117
июль 0.012967 0.045128 0.887567 0.313053 0.240315 -0.195216 0.038791 -0.306793 -0.188654 0.068729 0.131901 0.259806 -0.963534 -0.203856 -0.281361 -0.197393 0.355103 -0.483526 -0.346256 -0.312458 0.264575 -0.015334 0.321343 0.016922 -0.344752 -0.886923 -0.375594 0.770786 -0.500017 -0.014369 -0.374869 -0.433110 0.478623 -0.144633 0.073320 0.477830 0.073221 0.453272 0.224842 0.054267 0.225330 0.506463 -0.206464 -1.139458 0.737832 0.205789 -1.280995 -0.241620 -0.109254 -0.238916
октябрь 0.049242 0.191485 0.511713 -0.087219 0.527075 -0.049894 0.336512 -0.236152 0.076840 -0.062392 0.193410 0.652780 -1.195655 -0.269692 -0.205665 -0.415901 0.325387 -0.954303 -0.685316 -0.027796 0.546909 0.041231 0.747425 -0.167694 -0.239669 -1.141221 -0.364399 0.820581 -0.392491 0.228268 -0.110030 -0.746442 0.427953 -0.410875 0.090496 0.644447 -0.160692 0.273305 0.507688 0.000413 0.392032 0.016729 0.126382 -0.653038 0.907463 0.048508 -1.221875 0.010741 0.001477 0.062779
после 0.153541 0.561393 0.425247 -0.323177 0.075734 -0.362797 0.094534 -0.714511 0.035074 0.860705 -0.005285 -0.509403 -0.821461 0.116927 0.335567 -0.239114 0.408132 -0.396878 -0.446113 0.347429 0.891995 0.029936 0.499229 0.121230 -0.884659 -0.738534 -0.116745 0.789522 -0.716993 0.103254 -0.398902 -0.876121 -0.478181 -0.235517 -0.165278 0.644163 0.109859 0.189469 0.369341 0.557690 0.373614 -0.500335 0.284447 -1.108950 0.737572 -0.080498 -1.008393 0.124474 -0.670986 -0.358631
под -0.397972 1.277534 0.698232 0.075732 1.313999 0.965710 -0.539748 -0.236653 0.192293 0.555887 0.128227 0.186461 -0.278281 0.374781 0.601737 0.006829 -0.562632 -0.200374 1.087481 -0.415073 -0.471209 -0.266697 0.739437 -0.160242 0.399717 0.200241 -0.061880 -0.126376 0.307524 -0.798896 0.221034 0.276144 -0.599869 -0.274359 -0.463681 0.483619 1.586452 -0.637007 0.290979 0.825348 0.742426 0.289956 -0.897390 0.508256 -0.011733 -0.330603 -0.655281 1.256256 0.050924 0.869591
отдельный -0.122770 -0.144732 1.076367 0.244486 -0.047172 0.538324 -0.988402 -0.276489 0.672790 0.497690 1.114487 -0.914926 -0.376310 -0.561597 -0.610321 -0.394867 0.749282 -0.006321 0.097276 0.374722 0.060935 -0.128826 -0.761920 0.273479 -0.523355 0.590370 0.514810 0.296146 -0.357763 -0.847904 0.177314 0.446289 -0.209198 -0.410327 -0.073084 0.254072 0.602875 0.460756 0.790135 -0.475005 0.786495 0.073459 1.132212 -0.278702 -0.858170 -0.573903 0.412173 0.244506 -0.043616 0.365035
процесс 0.160272 -0.578734 0.696723 -0.079831 -1.004685 -0.335073 0.318790 0.159149 -0.768835 0.978181 0.187512 -0.361818 0.014618 0.092378 1.034328 0.766842 -0.255305 -0.866724 0.695691 -0.359230 -0.053581 -0.302291 -1.177284 1.208567 0.099824 0.336877 -0.170064 -0.469368 -0.270259 -0.275974 -0.924411 -0.350637 0.624306 -0.659724 0.340519 -0.946759 -0.550432 -0.063715 1.005359 0.305399 -0.909585 0.201197 -0.364854 -1.307452 1.083365 0.935141 1.510698 -0.399590 0.312432 0.241772
валютный -0.490823 0.540190 0.135693 -0.424432 -0.281018 -0.682537 -0.438512 -1.190007 -0.249890 -1.230920 0.278994 0.131663 0.503012 -0.113342 0.739429 0.516519 -0.399417 0.079901 0.051268 -0.582923 -0.234748 -0.096968 -0.229608 0.112219 -0.651846 0.386914 -1.177774 -0.191081 0.534235 -0.927785 0.390977 0.674377 0.208322 -0.686100 0.071996 -0.615724 0.215420 0.467100 0.200694 -0.201910 1.204092 -0.503558 -0.918757 -1.292455 -0.128794 -1.309170 0.414008 -0.884805 -0.468913 0.072778
однако 0.377023 0.871270 0.094369 -0.057523 0.593995 -0.219597 0.405639 0.045167 0.279920 -0.029895 -0.080017 -0.315904 -0.467754 -0.379237 0.111796 -0.225556 0.613078 -0.221291 -0.621237 0.663973 0.646205 -0.197729 -0.052310 0.851492 -0.388999 0.152862 -0.174028 0.135688 -0.287584 -0.004407 -0.826046 0.090044 -0.691799 -0.620779 -1.092805 0.413489 0.081010 -0.286277 -0.243415 -0.056169 0.367243 -0.225223 0.024505 0.040657 0.349391 0.417924 -0.562412 0.215408 -0.083939 -0.002760
сентябрь -0.108841 0.010113 0.759209 0.267732 0.820953 -0.024785 0.127398 -0.321584 -0.200616 0.054866 0.096646 0.236730 -1.369797 -0.155985 -0.011767 -0.689150 0.482359 -0.848242 -0.640393 -0.213017 0.373172 -0.079929 0.730381 -0.191168 -0.202013 -1.158954 -0.032399 0.565548 -0.030647 0.287699 -0.281926 -0.758652 0.420200 -0.260778 0.214847 0.803155 -0.094248 0.284809 0.285809 -0.241821 0.199323 0.252482 0.101970 -0.869466 1.055245 0.402431 -1.182764 0.195310 0.084170 -0.039059
усиление 0.257742 0.120962 0.201488 -0.101432 0.334701 -0.633645 -0.723498 -0.516302 1.197849 0.432129 -0.460016 -0.440221 0.698734 0.373449 -1.075503 -0.504909 -0.480366 -0.425966 1.553179 -0.929312 -1.250166 -0.772378 0.257344 -0.263574 0.496136 -0.280270 0.582431 -0.673972 0.191039 -1.432483 0.110498 0.291733 0.108981 -0.937988 0.311526 0.861138 -0.593187 -0.793114 -0.591409 0.049605 -0.602296 -1.095236 0.413367 1.123869 0.063966 -0.142985 -0.597718 0.396170 0.660466 0.892360
целевой 0.663829 -0.333269 -0.071493 -1.161707 -0.293175 0.232773 0.815225 -0.559608 -0.113471 0.141177 0.369505 1.162280 -1.567764 -0.381164 0.650339 -1.198406 -0.771187 0.071732 -1.147724 0.362936 0.636425 0.330436 0.730835 -0.430446 -0.596603 -0.359272 -0.255526 -0.316630 -0.235365 -0.137615 -0.039433 -0.913426 0.577843 -0.304617 -1.004558 0.161545 -0.462413 -0.780577 -0.043262 0.801172 -0.676346 -0.029767 -0.275795 0.616357 0.117826 0.005178 0.135857 -0.414633 -0.648891 -0.360806
первый 0.059826 -0.369978 -0.094297 0.508293 0.697812 -1.140081 -0.161851 0.027692 -0.039136 0.898805 -0.147762 0.446366 -0.394586 1.107104 -0.428766 -1.401542 0.012694 -1.438488 -0.122157 0.856424 0.313381 -0.254157 1.001056 -0.574806 0.228112 -0.797949 -0.353467 0.003526 0.579078 -1.316662 0.903808 0.100701 -0.551045 -1.229277 -0.243689 0.300885 -0.686811 -0.876471 -0.589091 -0.178026 -0.364079 -0.875604 0.345551 -0.099328 0.348688 -0.050959 -0.294457 0.793717 0.443598 0.036469
рассматриваться 0.324734 -0.067918 0.231263 -0.083289 1.388129 0.926290 -0.004997 0.467198 -0.326307 -0.791011 0.377746 1.475943 -0.368999 -0.356693 0.391922 -0.383377 0.054777 -0.002513 -1.197023 -0.911804 -0.228116 -0.751011 -0.167468 -1.833216 -0.062984 0.338299 -0.119740 0.734978 1.057661 0.022986 -0.234435 0.134885 1.136995 -0.332005 0.082880 0.192702 -0.411882 1.021375 -0.238496 -0.451446 0.345820 1.602237 -0.556064 0.566798 -0.229810 -0.427143 -1.406399 -0.365217 1.146952 -0.147584
вклад -0.677725 -0.424304 -0.116529 0.661452 -0.184103 0.419193 -0.218515 -0.187250 -0.326485 -0.422401 0.550269 -0.376952 -0.239668 0.007047 -0.294586 -0.449991 0.201958 -0.476635 -0.731582 0.628456 0.560243 -0.031016 0.919451 1.714198 0.062214 -0.562543 0.310236 -0.982132 -0.545907 -0.552365 -0.580253 -0.436759 0.079129 0.028309 -0.053896 0.712039 0.558037 0.337685 -0.384895 -0.916012 -0.286958 0.075880 -0.009237 0.114507 -0.281597 -0.501712 -0.032713 -0.030690 -0.548341 0.628023
существенно 0.170411 -0.033587 -0.074073 -0.303774 -1.163751 -0.402216 1.105119 -0.247962 0.676676 0.216793 -0.480793 1.492984 -0.054241 0.026202 0.154643 -0.460426 0.441615 0.229437 -1.007717 1.660762 -0.296411 -0.065228 -0.226686 -0.336572 -0.776206 -0.030262 0.750512 0.179942 -0.335165 0.014286 -0.716310 -0.718478 -0.330832 0.279533 -0.633089 0.200917 0.200516 -0.297291 0.810486 0.440836 0.669337 0.081510 -0.356379 -0.150368 0.170379 0.625381 -0.506855 1.089914 0.704369 0.889343
февраль -0.192821 0.106972 0.893220 0.160630 0.326272 -0.096748 -0.052368 -0.367982 0.052104 0.184925 0.163141 0.751880 -1.438535 -0.108772 -0.449357 -0.665010 0.536584 -0.599718 -0.596019 -0.028608 0.428659 0.095063 0.929070 -0.357264 -0.246445 -1.148841 -0.419250 0.771423 -0.234203 -0.090825 -0.354224 -0.589342 0.393162 -0.250182 -0.139585 0.125237 0.043992 0.465933 0.089187 -0.017612 0.365941 0.204623 0.257145 -1.075465 0.969561 0.012285 -0.983033 0.134508 -0.315106 -0.176399
продовольственный 0.049145 -0.056518 1.269616 0.210803 0.348225 0.470340 -0.638298 -0.332269 0.347033 0.419348 1.504622 -0.559228 -1.008140 -0.142863 -0.391714 -0.592278 0.600796 -0.742510 -0.176456 0.086868 -0.024151 0.110472 -0.872298 0.334878 -0.879461 0.541479 1.094174 -0.076944 -0.030260 -1.108638 0.679909 -0.073524 -0.508258 -0.512388 -0.212311 0.131083 0.476975 0.438645 1.020226 -0.350770 0.436072 0.203563 0.387732 0.143660 -0.315011 -1.235893 -0.185451 0.218290 0.222155 0.135253
часть -0.617193 0.053644 -0.151991 -0.213571 0.158148 -0.319364 -0.653696 -0.917783 -0.242552 -1.123910 0.512477 0.514066 0.682552 -0.544940 0.713687 0.722329 -0.544913 0.343245 0.141281 -0.437537 0.082176 0.187627 0.131923 -0.008804 0.513384 -0.300587 -0.567423 0.094962 0.667997 0.125997 0.365694 0.240902 0.560138 -0.153505 0.002044 -0.002264 -0.165755 0.859058 0.184966 -0.280989 0.909883 -0.645878 -1.230122 -0.754216 0.504413 -0.121975 0.394933 -0.307410 -0.457689 0.150031
неделя -0.097004 -0.543290 -0.210438 -1.248273 0.462458 0.050521 0.727757 -1.070883 0.247821 -0.965210 -0.420395 0.107115 0.329266 0.581503 1.134196 -0.298693 -0.364980 -0.238154 -0.346236 -0.916412 0.998007 -0.211475 -0.766701 0.600318 -1.176041 0.120376 0.174336 0.808503 0.171611 -0.689363 0.462275 0.029246 0.692146 -0.236310 0.211296 0.232446 0.152720 -0.010082 0.130645 0.010787 0.765561 -0.485704 -0.903494 -0.381892 0.147984 -0.999629 -0.922373 -0.399295 0.446558 -1.158037
доходность 0.592490 -0.232646 -0.262856 -1.353223 -0.172091 -0.152195 1.018745 -1.041045 0.876914 -0.602150 -1.292185 0.662797 0.568133 0.246264 0.448221 0.130745 -0.020689 -0.133546 -0.021938 0.199794 -0.646481 -0.038516 -0.176086 0.307882 -0.732564 0.024291 1.125414 0.860284 -0.298939 0.184399 0.157554 -0.081447 -0.031657 0.459461 0.006501 0.803234 0.030164 -0.186489 0.152426 0.488872 0.650751 0.105216 -0.157096 -0.547426 1.231827 0.684013 -0.525587 0.279526 0.688959 0.143135
июнь -0.198535 0.095358 1.028663 0.320032 0.601355 -0.083462 0.227377 -0.238765 -0.205479 0.109650 0.043678 0.382978 -1.474092 -0.093307 -0.305878 -0.416696 0.282253 -0.575805 -0.732610 -0.138598 0.268775 -0.144634 0.447150 -0.128350 -0.666369 -1.050505 -0.435061 0.594647 -0.413526 0.555848 -0.464300 -0.587689 0.546448 -0.352385 0.201531 0.382378 0.244618 0.511652 0.232054 -0.004542 0.407195 0.400710 -0.000906 -0.918744 0.683372 0.043926 -1.136122 0.015297 -0.316405 -0.307980
