в -0.565885 0.156169 -0.067207 -0.285919 0.658167 0.425290 -0.144280 -0.252185 0.309829 0.036841 -0.014299 -0.058204 0.236523 -0.435993 0.483622 0.273906 -0.004939 -0.243547 -0.148336 -0.629762 0.015399 0.495662 -0.121481 0.331466 0.009583 -0.120338 0.263117 0.035763 0.101184 0.294763 -0.175395 -0.522768 -0.208850 0.295667 -0.243391 -0.255872 -0.127727 -0.429332 0.357671 0.178589 0.102367 -0.429458 0.749776 -0.729839 0.182661 -0.123096 0.275582 0.377017 -0.363711 0.081780 -0.521940 -0.445849 0.420970 0.405435 -0.033614 0.884023 -0.495506 -0.393388 0.101091 0.549862 0.004220 -0.041792 0.801228 -0.459533 -0.195202 -0.292582 -0.490933 0.688335 0.425455 -0.417123 -0.297233 -0.331878 0.691632 -0.399868 -0.292780 -0.181633 -0.449377 -0.468505 -0.862713 0.748437 0.472819 -0.218851 -0.053196 0.021564 -0.061589 -0.144867 -0.175693 -0.428616 0.014923 -0.172458 -0.026907 0.505240 0.287678 -0.278692 0.440125 0.443155 -0.323289 -0.178232 -0.624161 0.874701 -0.573724 0.454631 -0.411263 0.422005 -0.085332 0.030897 -0.053299 -0.159909 -0.184954 0.149463 0.642179 0.412950 0.366331 -0.466593 -0.370571 0.412093 0.183204 -0.005333 -0.555299 0.386530 -0.640950 -0.088359 0.343697 -0.035214 0.059497 0.065667 0.252281 0.306857 -0.291136 0.128095 -0.104554 0.130871 0.494141 -0.023170 0.569955 -0.091448 -0.275713 -0.323241 -0.166022 0.121751 0.306462 0.149476 -0.037066 -0.157562 -0.009155 0.583137 -0.312434 -0.189939 0.400578 -0.257298 0.138942 -0.472989 0.781949 -0.063430 -0.602886 0.301508 1.003809 0.544145 0.451689 -0.402347 0.215886 0.340615 -0.513152 -0.474383 0.242866 -0.444433 0.199936 0.001233 0.168319 0.138431 -0.003377 -0.268055 -0.004516 -0.398292 0.334618 -0.840973 0.214900 0.280314 0.142886 0.485097 0.924891 0.290186 0.125578 0.123603 -0.097961 -0.365199 -0.190997 0.254904 1.107292 -0.495029 0.637579 0.079336 -0.065589 0.265140 -0.386261 0.083679 -0.003453 -0.007795 -0.361617 0.433068
на -0.620062 -0.323516 -0.516573 -0.470224 0.107015 -0.004275 -0.255000 -0.139873 0.272693 0.002619 -0.108537 -0.375174 -0.281127 -0.732592 0.384732 -0.313601 0.360297 -0.026636 -0.842030 0.394828 0.201276 0.124723 0.268003 0.034263 0.112845 0.025496 0.470352 -0.055229 0.073398 0.295058 0.227043 0.667297 0.048270 0.267340 0.132302 0.046325 -0.213112 -0.450557 0.079448 0.081542 -0.184401 0.180334 -0.009760 0.114042 -0.321980 0.015649 -0.380269 -0.094501 -0.418190 1.205073 0.135318 -0.628784 -0.364854 -0.214539 0.142737 0.457717 -0.898622 -0.305005 0.604106 0.162999 0.275127 0.062046 0.237465 0.075781 0.641255 -0.515247 -0.480227 0.241785 -0.400443 -0.683481 -0.987146 0.024763 -0.316038 -0.051406 0.499933 0.324659 -0.312034 -1.338405 0.153116 -0.247355 -0.302033 0.168893 -0.181975 -0.328138 0.173274 -0.197637 0.457293 -0.248460 -0.086253 0.214726 0.674071 0.231483 -0.175602 0.221294 -0.756556 0.302637 -0.419717 0.354114 -0.247860 0.602632 -0.356012 0.476463 0.488333 -0.202782 0.026284 -0.002770 0.711891 -0.288902 -0.064119 0.101923 -0.319350 0.573784 -0.279575 -0.213557 -0.233666 0.167344 0.342792 0.084070 -0.237719 0.103116 -0.298338 -0.268202 0.363335 -0.272539 0.169500 -0.222227 0.155690 0.572904 -0.060881 -0.411875 -0.095443 0.593587 0.403670 0.714440 0.639541 0.048380 0.095090 0.104628 0.146285 0.492227 -0.245431 0.101463 -0.324813 -0.518679 -0.053211 -0.028585 0.000932 -0.142931 -0.255852 -0.445054 0.200049 -0.817354 0.256359 0.301738 -0.311455 0.299416 0.347879 0.680081 0.007911 -0.413596 0.854821 -0.356963 -0.134212 -0.093729 0.057286 0.634099 0.076349 0.110820 0.159944 -0.719354 0.251795 0.540892 -0.285995 -0.271841 0.041988 -0.743281 0.002516 0.483767 0.289806 0.758334 0.343522 0.108464 -0.184329 0.148613 0.226991 0.507207 0.108423 -0.348830 0.404301 -0.314113 -0.008274 0.229579 -0.038428 0.012362 0.022836 -0.141981 -0.323949 0.172589 0.033147 0.540300
и -0.195883 -0.744194 -0.622155 -0.386960 0.165515 0.649542 0.171137 -0.492949 0.423909 -0.144485 -0.018239 -0.287319 0.601022 0.368978 0.572151 -0.061394 0.401733 0.339640 -0.689797 0.129626 0.042637 -0.157992 0.196931 -0.134090 0.123666 0.182411 0.145764 0.198523 0.601780 0.066728 0.639375 0.220253 0.301699 -0.085685 -0.270071 -0.525463 -0.065963 -0.232937 -0.157294 -0.039613 0.306709 -0.148765 0.058153 -0.883244 -0.068181 0.294889 0.097248 0.111283 -0.113723 0.118229 -0.299126 0.508273 0.494857 -0.059773 0.111475 -0.305502 -0.126372 -0.163346 0.129929 0.127410 0.154353 0.543923 0.668109 0.527633 0.547299 -0.304761 -0.260490 0.692724 -0.069946 -0.688513 -0.680618 -0.367126 -0.265190 -0.340662 -0.003415 0.189018 -0.033783 -0.698421 -0.199770 0.136151 -0.018457 0.145702 -0.361990 -0.056850 -0.323191 0.307438 -0.175856 -0.263353 -0.035872 0.093996 0.100940 0.320725 0.378879 0.200649 0.484569 0.178370 0.104788 -0.538990 -0.802356 0.098521 -0.059632 0.221995 -0.683284 0.520350 0.038229 -0.361541 -0.268470 0.291231 -0.390169 0.049273 -0.130561 0.536644 0.250336 0.047400 -0.146989 0.372644 0.197569 -0.135449 -0.047829 0.352420 0.025355 -0.101625 -0.081925 -0.576898 -0.551192 0.083682 0.760338 0.623162 -0.106830 -0.618960 -0.177874 0.117818 0.420795 0.734417 -0.340768 -0.213035 0.227989 0.165763 -0.066894 0.363541 -0.323084 0.403963 -0.717845 -0.272273 -0.604698 0.343559 0.044990 0.174594 0.633395 -0.232933 -0.132330 -0.464760 0.334202 0.223894 -0.379758 -0.067440 0.607968 -0.387575 0.720829 -0.403144 0.195560 -0.358874 -0.257908 -0.046494 -0.011821 -0.153323 0.175034 -0.096858 -0.446192 -0.472454 -0.219647 0.201626 0.039515 -0.488838 0.071349 0.171978 -0.588690 -0.472791 -0.597525 0.152960 0.040510 0.041851 0.046797 0.111688 -0.530823 0.571605 -0.742052 0.154169 0.768148 -0.330456 0.759413 0.329939 0.042630 0.368956 -0.268805 -0.697961 0.441404 0.046860 -0.095843 0.116626
банк -0.307253 -0.241610 0.235311 -0.450530 0.271988 0.369036 -0.273449 -0.315522 0.116623 -0.360017 -0.233531 0.282492 -0.533237 -0.115284 -0.036763 -0.125211 0.159116 -0.196448 -0.393474 -0.387668 0.175414 -0.405250 0.019746 -0.607259 0.061819 0.080240 -0.060374 -0.884653 0.067366 0.396248 0.736331 -0.527761 0.210641 0.145884 0.506450 0.583027 0.090689 0.016583 0.102289 0.384202 -0.481805 0.369630 -0.411810 -0.072044 0.074824 -0.003964 0.234710 0.062528 -0.762603 0.493589 -0.031861 -0.772842 0.223718 0.239069 -0.284471 0.449092 -0.329868 -0.429284 0.368197 0.493813 0.063490 0.074200 0.708345 0.289946 0.358363 -0.755028 -0.401573 0.726603 -0.402671 -0.695961 -0.747343 -0.049222 -0.270119 -0.576884 0.207442 -0.136686 0.105394 -0.628670 -0.077260 0.198233 0.016231 0.527108 -0.410543 -0.037193 -0.473288 -0.129337 0.262342 -0.214632 -1.064189 -0.566086 0.672585 0.395111 0.187296 -0.160119 0.072944 0.628947 -0.582344 -0.243904 -0.365304 0.024401 -0.117887 0.488781 0.289711 0.572968 -0.278688 -0.177534 0.211182 -0.051716 -0.314316 0.132772 -0.246491 0.113974 0.204309 -0.377275 -0.545477 0.246940 -0.036348 0.039918 -0.689968 0.196283 -0.130874 0.266262 0.104616 -0.446250 0.309162 0.002614 0.803553 -0.667561 -0.223246 0.121324 -0.109418 -0.057040 -0.217549 0.086376 0.033750 -0.101232 0.313255 0.484566 -0.225792 0.261289 0.260012 -0.061115 -0.600985 -0.505856 -0.219609 -0.199697 0.160644 0.344209 -0.335398 -0.263684 -0.182837 0.153137 -0.725138 0.829246 -0.021065 0.501102 -0.099251 0.263225 0.169641 -0.243221 -0.257006 -0.789035 -0.372959 -0.312740 0.174432 -0.226684 -0.198914 0.155259 0.207756 0.200605 -0.315447 -0.183101 0.135297 -0.036484 0.324910 0.549113 0.538241 0.419088 -0.108701 0.199235 -0.265763 0.506710 -0.136422 0.096799 -0.260419 -0.276568 -0.514303 -0.139336 0.019996 -0.346031 0.072696 0.502343 0.000209 0.081634 -0.642515 -0.158143 0.288957 0.182599 0.616730 0.830722
россия -0.239385 -0.323626 0.361786 -0.266262 0.295410 0.363651 -0.165860 -0.349630 0.106353 -0.360707 -0.133379 0.206460 -0.640225 -0.111705 -0.111841 -0.131392 0.140638 -0.162971 -0.357855 -0.432040 0.218479 -0.327726 -0.053302 -0.673181 -0.059526 0.194449 0.040828 -0.922576 -0.017514 0.516142 0.634797 -0.439709 0.262021 0.270720 0.646507 0.708961 0.034569 0.022587 -0.029177 0.552566 -0.452312 0.448430 -0.131808 -0.182528 0.120187 0.036091 0.126510 0.080819 -0.877609 0.278155 0.056626 -0.710894 0.192917 0.117061 -0.549690 0.503216 -0.348320 -0.483540 0.302132 0.589995 -0.079308 0.147853 0.787677 0.315637 0.419554 -0.758603 -0.332666 0.582843 -0.379879 -0.636763 -0.784273 -0.014035 -0.119233 -0.520239 0.254404 -0.144143 0.037278 -0.606295 -0.128293 0.318393 0.032272 0.263259 -0.348714 -0.024378 -0.332438 -0.012070 0.169053 -0.162497 -0.804246 -0.421404 0.616649 0.434360 0.064289 -0.174132 -0.040152 0.542039 -0.541213 -0.165913 -0.428107 0.084025 -0.236708 0.538507 0.407408 0.520081 -0.388506 -0.125344 0.327010 -0.020751 -0.297251 0.071108 -0.081411 0.408793 0.169225 -0.311947 -0.521422 0.232462 0.084975 0.154034 -0.733685 0.263640 -0.232777 0.161345 0.166925 -0.276791 0.343253 0.102661 0.649727 -0.704705 -0.058475 0.040571 -0.082161 0.052923 -0.172198 0.077325 0.105060 -0.060533 0.324510 0.349050 -0.265364 0.157233 0.159379 -0.023350 -0.485262 -0.464640 -0.268830 -0.097474 0.224220 0.462276 -0.387068 -0.331806 -0.194651 0.257867 -0.709895 0.770260 -0.238447 0.502136 0.140403 0.363429 0.128162 -0.249927 -0.161579 -0.552842 -0.384047 -0.311958 0.202124 -0.280082 -0.294285 0.222060 0.241734 0.306008 -0.132833 -0.169388 0.150699 0.126094 0.139043 0.487255 0.667958 0.329076 -0.023255 0.187944 -0.121150 0.666829 -0.064949 0.184533 -0.200933 -0.352768 -0.439899 -0.203928 0.051779 -0.330581 0.077114 0.589450 0.085651 0.059293 -0.626128 -0.001665 0.145737 0.163899 0.697745 0.702187
год -0.868313 -0.247979 0.086450 -0.498294 0.038780 0.937597 -0.218955 -0.356401 0.060228 -0.468166 -0.094938 -0.332053 -0.548859 -0.455403 0.237739 -0.291635 0.166733 -0.274104 -0.584576 -0.320350 -0.481246 0.561779 0.016231 0.370566 -0.196236 0.235500 0.092176 -0.611142 -0.270496 0.099036 0.195738 -0.086337 0.720923 -0.017096 -0.187692 0.375183 -0.050422 -0.367682 0.113383 0.001642 0.261318 0.323798 0.285638 0.236010 -0.077952 0.057465 0.510271 0.572783 -0.344262 0.638777 -0.158857 -0.599139 0.025826 0.105439 -0.115393 0.581848 0.013086 -0.258273 0.475703 0.193597 0.146680 0.340816 0.772329 -0.025735 0.215626 -0.444344 -0.466669 0.412602 -0.057663 -0.461943 -0.685280 0.109287 0.720418 -0.286373 0.096789 0.055719 0.411924 -0.894412 -0.183572 -0.107698 0.249180 0.020773 0.085019 -0.202270 -0.221940 0.103959 -0.250327 -0.129677 -0.082068 0.049450 0.360888 0.555797 -0.088079 0.094257 -0.524039 0.082266 -0.577226 -0.435313 -0.633486 0.518978 -0.044139 0.793546 0.204096 0.306183 -0.150505 0.000510 0.105087 0.581898 0.344391 -0.015610 0.339365 -0.128394 -0.188608 -0.243933 0.145093 0.215502 -0.082198 0.277351 -0.459699 0.630219 -0.442698 -0.523594 0.471265 -0.340253 -0.057535 0.117845 -0.055893 0.592550 -0.340622 -0.115976 0.280214 -0.164430 0.302185 0.553819 0.372042 0.118869 0.194777 0.062718 0.380074 0.340977 0.897876 0.515643 -0.276882 -0.166878 -0.102147 0.419180 0.100210 -0.179580 -0.187977 -0.076372 -0.121177 -0.138261 0.391130 0.377036 -0.177394 0.361890 0.231951 0.350492 0.229337 -0.654535 -0.022724 -0.130015 0.027388 -0.423670 -0.290554 -0.211184 0.037165 -0.392285 0.272665 0.360819 -0.723149 -0.358104 -0.004735 -0.180617 -0.171111 0.077108 -0.094517 0.279790 0.225866 0.413046 0.408699 0.484462 -0.056256 0.656992 -0.160177 0.370735 -0.710752 0.503085 0.339204 0.109626 0.179389 0.288542 0.381464 -0.130603 -0.430865 -0.122582 0.162311 0.319890 0.885446 0.460124
ставка 0.326525 -0.137250 -0.293442 -0.118901 0.449396 0.033170 -0.236600 -0.364498 -0.443254 0.097825 -0.051573 0.206937 -0.711265 0.059528 0.102925 0.024787 0.171003 0.257675 -0.398633 -0.139182 -0.216221 -0.380063 -0.404640 -0.495871 -0.377109 0.255351 -0.006507 -0.477900 0.166135 0.831740 0.609570 -0.388405 0.653310 -0.024481 0.729134 0.168656 0.008349 -0.134256 0.236923 0.400470 -0.511283 0.039156 -0.016936 -0.145094 -0.023654 0.422445 0.269946 0.087132 -0.217956 0.923077 -0.069039 -0.286603 0.355378 -0.003051 0.258491 0.481064 -0.371521 0.101554 0.583082 0.411746 0.578447 0.120728 0.230061 -0.256847 -0.122922 -0.453546 -0.409473 -0.069117 -0.599081 -0.009883 -0.606836 0.009378 -0.499303 -0.922945 0.014361 0.172172 0.280269 -0.302529 0.261082 0.638131 -0.223527 0.112577 -0.392618 -0.691669 0.062825 -0.228543 0.309896 -0.218444 -1.024393 -0.197690 0.277826 0.531656 0.212816 -0.787695 -0.029640 0.772425 -0.298372 0.041209 -0.245992 -0.234458 -0.095304 0.522487 0.314953 -0.232958 -0.233639 0.064409 -0.202491 -0.151584 -0.254618 -0.223464 -0.411288 0.129328 -0.126511 0.025422 -0.176332 -0.762358 0.557808 0.144725 -0.165078 0.006231 0.241977 -0.102959 0.035139 -0.267847 0.123974 0.439701 0.646153 -0.242271 -0.124487 -0.455655 -0.234501 0.269334 0.267808 -0.110741 -0.022046 0.558199 0.804460 0.337390 -0.689218 0.265813 0.069225 0.134557 -0.356653 -0.545572 -0.565242 0.318010 0.699373 0.041035 -0.439093 -0.300365 0.267730 0.323486 0.105312 0.671085 0.336251 0.412759 -0.246416 0.586789 -0.176135 -0.006330 0.503740 0.109324 -0.315877 -0.340924 0.330186 0.649777 -0.186332 -0.165499 0.721531 -0.231719 0.236480 -0.141108 0.026487 0.373976 0.204089 0.016174 0.266192 0.505988 0.180773 0.231936 -0.246273 -0.244793 0.294128 -0.141107 -0.244056 0.335740 -0.138233 -0.578199 0.317456 -0.180090 0.695579 0.042222 0.065680 0.261426 0.145983 -0.031141 -0.347778 -0.269059 0.140861 0.331253
по -0.019334 -0.306819 -0.239349 -0.485741 0.169107 0.248977 0.156149 -0.119800 0.064550 0.054426 0.332104 -0.308211 -0.059652 0.043884 0.716851 0.326864 0.269233 -0.071538 -0.849350 -0.047494 -0.423389 -0.331382 -0.315282 -0.262618 -0.557330 0.102295 0.786653 -0.151486 0.393672 -0.096220 0.460995 -0.470449 0.154195 0.433023 0.201360 0.121870 -0.063944 0.049873 0.043249 -0.197882 -0.572386 -0.297698 -0.039482 0.034058 0.357597 0.364317 -0.018465 -0.229582 -0.677005 0.256294 -0.089114 -0.499573 -0.323528 -0.184081 -0.025476 0.324634 -0.410544 -0.131739 0.887970 0.327139 0.362594 -0.697109 0.756238 0.343289 -0.025475 0.203949 -0.453313 0.326226 -0.454213 -0.276457 -0.843873 0.144286 0.115594 -0.392168 -0.627631 -0.021314 0.577727 -0.594722 0.155467 0.396064 0.363261 0.167691 -0.174731 -0.412923 -0.347369 -0.043662 -0.047856 -0.406900 -0.456524 -0.252891 0.412773 0.665953 0.065003 0.096327 0.338278 0.490174 -0.364169 -0.302524 -0.886120 0.128172 0.127853 0.055026 -0.328310 0.283608 0.462878 -0.660996 0.095026 -0.086530 -0.227528 -0.465299 0.230155 -0.186320 0.094600 -0.048794 -0.250517 -0.337005 -0.292283 0.420521 -0.170335 0.058070 -0.331819 0.012301 -0.048321 -0.395171 0.354047 -0.014094 0.652177 -0.629403 -0.403370 0.155032 -0.071701 -0.394018 0.211572 0.324594 0.477788 0.147508 0.523598 0.409608 -0.270186 0.355006 0.530698 0.572467 -0.457379 -0.065918 -0.585761 0.242425 0.107704 -0.010445 -0.155589 0.275468 -0.183857 -0.219383 0.034236 0.625418 0.488725 0.548864 0.055218 0.334539 0.099830 -0.363425 0.521676 -0.336319 -0.119233 -0.038823 0.273502 0.102544 0.185634 0.144049 0.561266 0.362611 0.228385 -0.269905 0.357203 -0.024129 0.796813 0.577790 0.363132 0.092642 0.184812 0.389852 -0.231673 -0.563150 -0.070439 -0.159070 -0.125156 -0.150614 -0.147666 -0.632753 -0.165212 -0.127883 0.505751 0.253016 0.185497 0.519091 0.006792 -0.125656 0.062422 -0.285590 0.291130 0.302798
с -0.599601 -0.352262 -0.500759 0.089615 0.774772 0.309297 0.276378 -0.323997 0.431479 0.586954 -0.097228 0.217325 0.310534 -0.477607 -0.037351 -0.189261 0.267635 0.479142 -0.258782 -0.260399 0.299836 -0.134263 0.021803 -0.081179 -0.383761 0.123949 0.173245 -0.060925 0.301840 0.685163 -0.053139 -0.444131 0.375532 0.453469 0.177100 -0.075170 0.549277 -0.614682 0.626453 0.439962 -0.008194 -0.260332 0.538646 -0.456518 -0.418573 0.726886 -0.076625 0.567150 -0.716342 0.617700 0.075042 -0.289710 0.171651 -0.439418 0.270484 0.290048 -0.131123 -0.491811 0.263070 0.354104 -0.515206 0.873019 0.635747 0.623072 0.119899 -0.177173 -0.586171 -0.111318 -0.491322 0.001672 -0.633383 -0.569818 0.254977 0.181553 -0.594529 -0.329802 0.549913 -1.210250 -0.477788 0.066619 -0.133480 -0.522807 -0.397234 -0.330465 -0.106439 0.353601 -0.238559 -0.062603 0.297748 -0.628971 0.517546 0.442730 -0.087430 0.342490 -0.167587 0.275571 -0.236835 -0.314247 -0.519622 -0.092850 0.281933 0.570297 -0.186207 -0.412827 -0.783527 -0.016895 0.474886 -0.376690 -0.475153 0.089590 -0.358906 -0.051716 0.025623 -0.656151 -0.630747 -0.045364 0.752621 0.561655 -0.447543 0.441618 -0.391775 -0.291887 0.062770 -0.099054 0.005401 0.043611 0.238679 0.070542 -0.078066 0.054249 0.416522 -0.317518 -0.122241 -0.000422 -0.148968 -0.023252 0.118544 0.558577 0.119702 -0.049345 -0.185631 0.212789 -0.243808 -0.070137 -0.739468 -0.185797 0.293688 -0.392269 -0.282673 -0.618950 0.659545 -0.255888 0.279413 -0.041540 0.039951 0.232757 0.282066 -0.173058 0.492062 -0.025695 -0.075134 0.318766 -0.425956 -0.340872 -0.159699 0.200302 -0.261353 0.176074 0.450360 0.010396 -0.030461 0.065698 0.647623 -0.152915 0.176269 -0.337916 0.298347 -0.239763 -0.347630 0.189713 0.409176 0.188307 0.337974 -0.191504 0.067379 0.073423 -0.400002 -0.292024 0.584199 -0.262507 0.441676 0.734200 -0.270607 -0.087720 -0.435526 0.533833 0.162290 0.143322 0.285369 0.134896
инфляция -0.610871 -0.564278 -0.040720 -0.222121 0.655609 0.805989 0.475617 -0.563443 0.061391 -0.247642 -0.000502 -0.496569 -0.333896 0.271252 0.138839 0.103951 0.019173 -0.067496 0.187250 0.105029 0.092005 0.505805 0.297389 0.167367 0.039923 -0.102481 -0.037729 -0.349943 0.365961 -0.030152 0.141652 -0.008220 0.377885 -0.514138 0.085563 -0.213679 -0.390301 -0.580751 -0.093482 0.165650 0.395800 -0.448616 0.539677 -0.363373 0.013843 0.134551 0.269824 0.032410 -0.607166 -0.164293 0.102245 -0.154165 -0.237861 -0.200756 -0.565104 -0.023609 -0.221831 -0.277432 0.505586 0.555488 -0.143148 0.202050 -0.109555 0.831378 0.588559 -0.359271 -0.571747 0.330252 0.100625 -0.680420 -0.498791 0.012677 0.304278 -0.193935 0.201115 -0.197991 0.422481 -0.448841 0.584552 -0.279968 -0.544898 0.206338 0.404182 0.203529 0.003758 0.300090 -0.448669 -0.154225 -0.017823 0.447893 0.263506 0.794420 0.042106 -0.199805 -0.204773 0.216170 -0.428228 -0.262618 -0.486598 0.697640 -0.022600 0.478525 -0.561230 0.277033 0.123454 0.370799 -0.513540 0.422477 -0.166367 -0.318245 0.159262 0.080850 -0.365923 -0.601516 0.066139 0.515418 0.370942 -0.014166 -0.510673 -0.186768 -0.602170 -0.005335 0.037781 -0.465577 -0.166475 0.252148 0.394850 0.473103 -0.075124 -0.056673 0.006100 -0.515931 0.375178 -0.073929 0.318693 -0.193785 0.265781 -0.198814 -0.077518 0.791374 -0.158328 0.119202 -0.017907 -0.489433 -0.545303 0.374754 0.200107 -0.328187 -0.553183 -0.106170 -0.205191 -0.063038 0.180469 0.120133 -0.218026 0.174956 -0.017760 -0.194579 0.366447 -0.654536 0.243227 -0.542055 0.225522 0.101843 0.507277 -0.432293 -0.069952 0.137359 0.181801 0.480036 -0.167743 0.332114 0.211010 0.007683 0.345410 -0.076786 -0.296258 0.306127 -0.226680 0.168937 0.312286 0.198281 0.341501 0.122336 -0.291551 -0.093024 -0.268253 0.346420 0.324746 0.426153 0.139015 0.266111 0.015959 -0.098837 -0.276495 0.070846 0.424312 -0.114315 0.370936 0.728087
рост -0.173519 -0.403082 -0.550016 -0.165643 0.239963 0.144735 0.170993 0.354888 0.849803 0.098661 0.297994 -0.843567 0.481002 -0.298854 0.085391 -0.154239 0.127300 0.216362 -0.406537 0.383839 -0.108078 -0.286364 -0.328581 -0.219970 0.297267 -0.551125 0.845820 -0.009462 0.461948 0.146514 0.080931 0.359289 0.138719 0.426065 -0.498790 -0.263473 -0.076913 0.314002 0.208990 -0.186144 0.677391 -0.072579 -0.050934 -0.093204 -0.042813 0.066390 0.427229 0.252770 -0.544670 0.476103 0.014557 -0.323780 0.254538 0.036831 -0.154020 0.226499 -0.537697 -0.309007 0.463440 -0.040913 -0.181295 0.171184 0.989658 0.009902 0.274457 -0.012433 -0.431650 -0.253607 -0.476416 0.091147 -0.418156 0.051330 -0.100776 0.116490 0.437108 -0.174396 -0.237554 -0.494746 -0.212762 -0.317761 0.222306 -0.118565 -0.025796 -0.274698 0.191558 0.053705 -0.209958 -0.130260 -0.388696 0.260164 -0.162500 0.299818 0.358190 -0.276661 0.193870 -0.424410 -0.468053 0.255173 -0.558814 0.559276 0.147745 0.292353 -0.120253 -0.183295 -0.016214 -0.093109 0.164100 0.073513 -0.180161 -0.315844 0.023793 -0.055062 -0.070884 -0.498713 0.152816 -0.058120 0.237834 0.076542 -0.197873 -0.392581 -0.092751 0.093819 -0.386617 -0.488888 0.497896 0.103450 -0.097043 0.572563 0.072046 0.206445 -0.214328 -0.368464 0.783909 0.152347 0.470707 0.093625 -0.138481 -0.238891 -0.092983 0.319822 0.233701 -0.025168 0.181468 0.001515 0.304137 0.069894 -0.380548 -0.137316 -0.116221 -0.493361 -0.389454 -0.350117 0.388090 0.057497 -0.150751 0.649559 0.286210 0.232163 0.389791 0.362057 -0.262828 -0.060729 -0.581567 -0.480981 0.449324 -0.141788 -0.067407 0.129260 0.155928 0.240306 0.013271 -0.238901 -0.492554 -0.682820 0.505527 0.274812 -0.111011 -0.008506 0.025922 -0.168994 0.391154 0.387098 0.306616 0.367984 0.032014 0.213915 0.081115 -0.054197 0.423566 -0.443509 -0.153487 -0.016986 -0.056837 -0.132599 -0.362484 -0.295767 -0.055840 -0.014422 0.113682 -0.009819
ключевой 0.397044 -0.161165 0.058748 -0.197737 0.204783 0.404763 -0.214481 -0.532025 -0.260282 -0.206245 0.270268 -0.074603 -0.881584 0.036039 -0.046475 0.288325 0.020712 0.284790 -0.583281 -0.372853 -0.077910 -0.093394 -0.241525 -0.668142 -0.504009 0.441715 -0.218183 -0.521874 0.327348 0.430056 0.406690 -0.168549 0.615951 -0.288572 0.455152 -0.027228 -0.136454 -0.133900 0.322170 0.280837 -0.539459 0.050820 0.178475 -0.320344 -0.000695 0.396335 0.254420 0.042557 -0.427434 0.711899 -0.212518 0.027845 0.176959 -0.111111 0.137941 0.229537 0.032293 -0.069504 0.193804 0.278064 0.098469 0.267629 0.361938 -0.125054 0.169081 -0.480854 -0.419449 0.246135 -0.043851 -0.079604 -0.556400 -0.093198 -0.317363 -0.905442 -0.060434 0.383918 0.304039 -0.412345 0.316983 0.356770 -0.472249 0.273713 -0.193299 -0.611513 0.165148 -0.415199 -0.122873 0.017577 -0.847758 0.179799 0.202253 0.393802 -0.072650 -0.514332 -0.193638 0.645696 -0.258900 -0.090478 -0.376082 -0.382970 -0.322552 0.922011 0.265585 0.031036 -0.042814 0.064258 -0.146852 0.251850 0.083199 -0.012967 -0.366295 0.169906 0.178874 -0.032755 -0.163549 -0.684829 0.485689 0.146591 -0.606325 0.288695 0.195706 -0.415979 0.385385 -0.102191 0.196259 0.420646 0.699272 0.092848 -0.124664 -0.620777 0.051177 0.307962 0.222474 0.270191 -0.003605 0.630541 0.526608 0.079188 -0.341349 0.124771 0.289864 0.464211 -0.353169 -0.545604 -0.581182 0.203818 0.518314 0.176189 -0.721668 -0.271493 0.027596 0.388032 -0.242472 0.581239 -0.121086 0.545730 -0.189354 0.340367 -0.096808 0.001928 0.473637 -0.309840 -0.238659 -0.363292 0.111954 0.541852 -0.144393 -0.059341 0.599408 0.049454 -0.121063 0.153407 0.112032 0.312549 0.226635 -0.083548 0.106461 0.838890 0.319272 0.051294 -0.355252 -0.008961 0.146784 0.082857 -0.286974 0.044369 -0.050478 -0.283896 0.408084 0.068082 0.546987 0.104828 0.246450 0.040492 0.236462 -0.129461 -0.387404 -0.225890 0.538778 0.487354
риск -0.399506 -0.286367 0.052307 -0.457849 0.761078 -0.043653 -0.120037 0.012378 0.576507 0.151047 -0.125634 -0.343867 0.170334 0.158476 0.280567 -0.088874 -0.149084 0.046105 -0.154737 -0.209974 0.830395 0.147140 0.214852 0.176650 -0.301295 -0.159302 0.100065 0.008849 0.533889 0.243470 0.123385 -0.403365 -0.310139 -0.028557 -0.646218 -0.027642 0.361760 -0.042760 0.451152 0.586288 -0.183648 0.122455 -0.688995 -0.108387 -0.527279 0.208083 -0.120079 -0.094523 -0.090697 -0.116176 0.016894 0.421310 -0.115576 -0.092949 -0.286148 -0.265433 0.080809 0.046319 -0.222265 0.082327 -0.591272 0.459526 0.122075 -0.072113 0.434283 -0.634549 -0.804512 0.089533 -0.309997 -0.044572 -0.317638 -0.356177 0.328535 -0.240848 0.332186 -0.289281 -0.046378 -0.564597 0.360931 0.267709 -0.044858 -0.145300 0.537901 -0.188733 -0.179574 -0.436345 -0.952784 0.066838 -0.149571 -0.399065 0.198297 0.432569 0.558902 0.041740 -0.430930 0.072644 -0.626563 0.406714 -0.666610 0.051439 -0.102296 0.414428 -0.942208 0.167663 0.280165 -0.308483 0.300263 -0.261761 -0.211752 -0.296757 0.159703 -0.023405 -0.299061 -0.016963 -0.182730 0.527421 0.534998 0.276354 -0.942383 0.258566 -0.686103 0.109616 0.385973 -0.820547 -0.313875 0.314816 0.452166 0.594380 -0.254202 -0.055916 -0.218673 -0.233405 -0.126585 0.293608 0.154097 -0.289985 0.201688 -0.319521 -0.033076 0.622163 0.117045 0.477358 -0.041060 -0.102275 0.101904 0.241613 0.570540 -0.397846 -0.063623 -0.608559 0.227039 -0.632481 -0.144371 0.296528 -0.323560 0.217948 0.119394 -0.497615 0.098889 0.298201 0.200896 -0.211229 0.080235 -0.404142 0.311049 0.241704 -0.365739 -0.183517 0.144059 -0.149240 -0.315068 -0.132862 0.241708 -0.640911 -0.003574 0.179787 -0.204692 0.033460 -0.606939 0.350338 0.084153 0.032161 0.050441 -0.248047 -0.276465 -0.082028 -0.140007 -0.106502 0.371791 -0.576052 -0.190690 0.223571 -0.267210 0.020669 -0.735850 -0.289196 0.006388 -0.212108 0.511767 0.507024
цена -0.815501 -0.449394 -0.642828 -0.331489 0.479236 0.265206 0.618504 0.481184 0.054825 -0.227840 -0.146742 -0.775576 0.234237 -0.150796 0.336294 0.282877 0.400805 0.044022 0.076089 0.003936 0.022425 0.089818 0.305763 -0.050615 0.321799 -0.245731 0.683868 -0.047242 0.231639 -0.326939 -0.261789 0.061337 0.301011 -0.334513 0.021907 -0.153139 -0.176469 -0.453133 -0.135343 -0.073171 0.483374 -0.131720 0.268844 -0.485000 -0.111344 0.549830 0.235786 0.024103 -0.525707 0.412105 0.196369 -0.675227 -0.229487 -0.196536 -0.276192 0.014017 -0.383627 -0.416265 0.067879 0.009682 0.469351 0.414971 0.402580 0.406606 0.037080 0.159401 -0.507823 0.230079 0.221081 -0.210840 -0.121995 0.026196 -0.165613 0.351398 -0.179444 0.470676 -0.084954 -0.702534 -0.181477 -0.569382 -0.664191 -0.320631 0.027219 -0.133576 -0.144173 0.071330 -0.057577 -0.295686 0.207369 0.231121 0.686331 -0.072334 0.250594 0.124297 -0.281659 0.242915 -0.100923 -0.308787 0.036005 0.485280 -0.253449 0.414121 -0.502336 -0.138900 0.050382 -0.298831 -0.022488 0.086158 -0.054230 0.272872 0.001216 0.166712 -0.144797 -0.139572 0.140011 0.170079 0.186593 -0.182783 0.089196 -0.031258 -1.016004 -0.248153 0.159497 0.234848 -0.104326 -0.348292 0.211847 0.624806 -0.013926 -0.012199 -0.109184 -0.124738 0.524448 0.239906 0.292198 -0.140214 -0.201477 -0.246981 0.729272 0.357647 -0.043262 -0.053470 0.032780 -0.354182 -0.128737 0.108740 -0.527920 -0.424314 -0.157639 -0.024338 -0.142807 -0.382284 0.285323 0.140321 -0.740468 0.245531 0.317233 0.193253 0.653270 -0.564894 -0.160501 -0.430991 0.021220 -0.179305 0.377927 -0.280641 -0.159732 -0.156245 0.250380 0.036383 -0.238821 0.373923 -0.351872 -0.510877 0.366100 -0.384689 -0.011700 -0.107446 0.012861 0.211217 0.425831 0.008892 0.102791 0.333147 0.140906 0.626973 0.463505 -0.087195 0.352747 0.026954 0.171134 0.480719 0.219296 -0.204161 -0.068456 0.009547 0.336875 0.092560 0.110450 0.181613
быть 0.420724 0.062350 0.590318 -0.097352 0.131493 0.670839 -0.590169 0.117610 -0.032820 -0.198524 0.037921 -0.456666 -0.351764 -0.083485 -0.091462 -0.275339 0.105674 0.602481 -0.259486 -0.094476 -0.149349 0.335290 0.393203 -0.191037 -0.132295 0.368999 0.093071 -0.230285 -0.223851 0.244151 0.872002 0.333601 0.548181 0.423013 -0.185564 -0.591398 -0.068933 -0.314197 -0.188605 0.200327 0.152608 0.118854 0.906455 -0.189951 -0.013893 0.114359 0.298496 -0.001813 -0.588255 0.507773 0.012103 -0.064744 0.548203 -0.178528 -0.262271 0.518113 -0.089997 -0.345434 -0.004461 0.138062 -0.094417 0.521413 0.854097 -0.262622 0.201366 -0.622088 -0.551760 0.568466 0.122935 -0.442559 -0.411093 0.084507 -0.288805 -0.461128 0.398632 0.199703 0.256268 -0.689928 -0.448890 0.234879 -0.291987 -0.528594 0.599842 -0.565963 0.117101 -0.266582 -0.700546 0.329626 -0.104447 0.272574 0.422789 0.474603 0.223252 0.047894 -0.344811 -0.114216 0.004348 -0.420519 -0.323842 0.233508 -0.331398 0.521695 0.334203 0.136506 -0.195894 0.011262 0.357087 0.022148 -0.397314 -0.133912 0.146898 0.202130 -0.170566 0.014617 -0.075008 0.274957 0.245854 -0.250929 -0.535556 0.135483 0.427864 0.500208 0.749810 -0.315243 -0.512395 0.368810 0.227297 -0.012721 0.104224 -0.021064 0.264645 -0.157522 0.204580 0.435046 0.170652 -0.281595 0.090215 -0.166571 0.394990 0.252622 0.012505 0.002415 -0.136787 -0.561068 -0.258679 -0.060705 0.433907 0.247626 -0.133971 -0.161473 -0.177885 0.350856 -0.367278 0.009526 -0.784478 0.396175 0.155847 -0.014124 -0.141070 -0.252726 0.271670 -0.291040 0.059993 -0.396289 0.228785 0.034436 -0.292009 -0.346249 -0.027917 0.116126 -0.099137 0.230170 -0.394071 0.353751 0.867263 0.462238 -0.191355 0.225943 -0.115428 0.317826 0.231600 -0.038120 -0.226277 0.490472 -0.048570 0.159804 -0.033069 -0.380954 0.094749 -0.278064 0.195646 0.401991 0.065055 -0.234010 -0.354939 -0.349601 0.202111 -0.062997 0.639484 0.515896
условие -0.037169 0.024279 0.400157 -0.158217 0.596732 0.077098 -0.004344 -0.420381 0.580463 0.002724 0.087712 -0.828060 -0.112597 -0.394025 0.506835 -0.293736 0.731997 0.395286 -0.331238 -0.192031 0.487489 0.359544 0.222279 -0.245865 0.127321 -0.089042 0.037817 0.173638 0.033554 0.267832 0.069605 -0.071653 -0.248631 0.200519 0.135603 -0.223335 0.294510 -0.473261 0.196351 0.564324 0.259655 0.406566 -0.134171 -0.179846 -0.243517 -0.021088 0.138887 0.687062 0.005002 -0.071288 0.132105 -0.133563 -0.047511 0.399203 -0.061248 -0.158941 -0.444416 -0.005609 0.463498 0.009127 -0.025488 0.217251 0.724664 0.173120 -0.139442 -0.324209 -0.591261 0.422501 -0.092961 -0.059619 0.099831 -0.238927 -0.209843 -0.113050 0.342588 0.018746 -0.355995 -0.230692 0.162320 0.336338 0.020198 -0.063704 -0.149574 -0.140681 0.088508 0.417944 -0.319106 0.083147 -0.318536 -0.213153 -0.115100 0.491175 0.309615 -0.290734 0.018959 -0.125732 0.247624 0.114557 -0.180692 0.199187 -0.176089 0.045601 -0.413747 0.046869 0.183380 -0.404168 -0.231434 -0.041447 -0.379354 -0.403665 0.071248 -0.073919 0.058009 -0.212296 -0.077540 0.722536 0.249887 -0.353549 -0.773576 0.071695 0.085110 0.070187 0.355951 -0.633195 -0.323006 0.200892 0.136796 -0.044615 -0.302339 -0.135705 -0.140591 0.071053 0.331168 -0.677579 0.358235 0.034253 0.286243 -0.120155 0.085539 0.060030 -0.321429 -0.143390 -0.172728 -0.161234 -0.192371 -0.091476 0.332044 -0.097979 0.212797 -0.204540 -0.118944 -0.037940 0.179409 0.872915 0.148655 0.512609 0.491261 0.221975 0.239990 0.186778 0.383183 0.029324 -0.316027 -0.563527 -0.068244 0.240535 0.369481 0.439660 0.192196 -0.197034 -0.108246 -0.076411 -0.194040 -0.021498 0.276281 -0.051730 -0.467592 -0.306531 0.200362 0.002705 0.317130 -0.452407 -0.019533 -0.227197 0.158610 0.161382 -0.147176 0.189443 0.358385 0.040912 0.195090 -0.042147 -0.307067 0.256657 -0.605028 -0.046284 0.540972 0.066280 -0.591821 0.426019
к -0.134084 0.072628 -0.501752 -0.562547 0.249601 0.392984 -0.360854 -0.174548 0.808272 0.236622 0.234947 0.452489 -0.231048 0.171764 0.037373 -0.028277 0.453499 0.274229 0.158655 -0.050335 -0.043431 0.247248 0.164867 0.037830 0.317850 -0.402118 -0.140306 -0.156095 0.295910 0.208633 0.190393 -0.063713 -0.049906 -0.229878 0.954243 -0.157765 0.121622 -0.574899 0.350591 -0.008212 0.908720 -0.034776 -0.187982 -0.385518 0.079110 0.440666 0.293399 0.321675 -0.585675 0.558857 -0.174356 -0.721694 0.423676 0.374748 0.067404 0.721077 -0.054568 -0.119737 0.315685 -0.132888 -0.035938 0.304742 1.340210 0.140117 0.371784 -0.096111 -0.566674 0.067594 0.227009 0.030571 -0.338299 -0.545244 0.345892 -0.001150 0.573724 0.251619 -0.156334 0.038140 -0.232422 0.144904 -0.233454 0.564338 -0.014185 0.407941 0.351882 0.426230 -0.062289 -0.463921 -0.825834 -0.448185 -0.196253 -0.078394 0.532470 -0.726989 0.427475 0.090302 0.402449 -0.296277 -0.481073 0.514286 -0.104156 0.289082 -0.944643 0.299294 -0.103818 0.104605 -0.079281 -0.209495 0.014502 -0.597251 -0.590452 0.036764 0.048421 -0.474291 -0.397961 0.277038 -0.037477 0.411969 -0.577639 0.366773 0.355273 -0.585228 -0.270619 -0.226079 0.077593 0.065938 0.801011 0.013271 0.189300 -0.000423 -0.390217 -0.158656 0.460925 -0.259626 0.174733 -0.059245 0.132919 0.199583 -0.191053 0.161482 0.173383 -0.008034 -0.096550 -0.569628 0.093867 -0.331914 0.599524 0.365757 0.129969 0.123860 -0.120702 -0.473275 0.234152 0.539664 0.511939 -0.068779 -0.094152 -0.139389 0.433703 -0.525203 -0.049013 -0.858333 -0.313255 -0.453473 0.476378 0.563290 0.258960 -0.444179 0.312240 -0.395991 -0.618636 -0.545544 0.399500 -0.669018 0.115569 -0.348344 0.354304 0.432581 -0.190696 0.203240 -0.061756 0.085938 0.111659 0.273116 0.328121 -0.168587 -0.336678 0.048826 0.407111 0.270239 -0.229022 0.096760 0.233601 0.240918 0.124574 0.012963 0.077789 -0.331531 0.124584 0.565074
инфляционный 0.024135 -0.388046 -0.229367 -0.526796 0.266722 0.205998 -0.100020 0.208802 0.324824 -0.301729 0.059157 -0.319536 0.047190 0.166249 0.251534 0.434490 0.280558 0.396789 -0.425214 -0.138595 0.521836 -0.181457 0.005200 -0.109182 -0.041178 -0.405272 0.151207 -0.139508 0.838727 -0.494046 0.225726 -0.138542 0.200621 -0.427721 -0.290681 -0.339118 0.172543 0.315129 0.183471 0.533130 0.491286 0.237596 -0.482159 -0.123430 0.007272 0.486940 -0.385026 -0.367203 -0.247675 0.031098 -0.295699 -0.480688 -0.063123 -0.030599 -0.001724 -0.072754 0.057515 -0.060257 0.183817 0.025220 -0.299337 0.490768 0.793188 0.202645 0.413633 -0.156328 -0.080772 0.415415 0.042708 -0.177832 -0.133790 0.005666 0.439307 0.247714 0.254325 -0.100606 -0.042199 -0.494437 0.117974 0.092644 -0.048894 -0.231136 0.222825 0.304899 -0.463639 -0.805703 -0.270121 -0.046578 -0.456926 0.178719 0.520629 0.297931 0.092577 -0.025617 -0.431338 0.002919 -0.237386 0.047275 -0.529519 -0.355666 0.016214 0.584578 -0.930396 0.079342 -0.006815 0.080734 0.499938 0.069754 0.008701 -0.200992 0.008267 -0.242588 -0.160041 -0.274619 0.276039 0.373932 0.370808 0.132530 -0.619500 0.352647 -0.419770 -0.172785 0.198016 -0.049008 -0.107181 0.013950 -0.397805 0.393410 -0.153786 0.369577 0.092903 0.188368 0.541066 0.029054 0.423238 -0.277984 0.212665 0.243778 0.302846 0.015435 0.106465 0.349841 -0.118410 -0.185708 0.065852 0.052637 -0.278989 0.217685 -0.102673 -0.679719 -0.128221 -0.607116 0.073288 0.440908 -0.518742 0.355547 0.320717 -0.248069 0.308216 -0.375304 0.468282 0.033905 -0.417427 -0.169550 0.278322 0.432951 -0.182274 -0.403011 0.044074 -0.020072 -0.044187 -0.014175 0.130293 -0.243520 -0.096940 0.019349 -0.009483 -0.079375 -0.770031 0.499433 -0.070110 0.139590 0.066913 -0.130464 -0.209625 -0.253670 0.182899 -0.081444 0.285008 -0.093441 0.165774 0.165907 0.350798 -0.298654 -0.104747 -0.256776 -0.267546 -0.346461 0.472764 0.530339
годовой -0.499714 -0.969464 -0.203920 -0.107477 0.309848 0.452937 0.397454 -0.382238 -0.027828 -0.187160 -0.376872 -0.552351 -0.393840 0.324926 0.214422 0.322756 0.296434 -0.127239 0.050485 0.023631 -0.130491 0.240260 -0.174873 -0.331245 0.103128 -0.124255 0.256415 -0.635957 0.517833 0.067461 -0.152219 -0.137053 0.376770 0.204627 0.530117 0.207293 0.179768 -0.479593 -0.257901 0.356180 0.211548 0.011871 0.121317 -0.021980 -0.053708 -0.146815 0.373802 0.038061 -0.821727 0.331354 0.054335 -0.861355 -0.208688 -0.001281 -0.616089 0.433732 -0.619763 -0.202133 0.703882 0.571350 0.153483 0.037628 0.409562 0.840085 -0.009255 -0.025524 -0.436329 0.506775 -0.401554 -0.333934 -0.425313 0.318128 0.076766 -0.193055 0.072519 -0.044635 0.626236 -0.321187 0.291112 -0.243037 -0.221340 0.011946 -0.147039 -0.212138 0.182428 0.371858 -0.028883 -0.329754 -0.438392 -0.113619 0.329715 0.525892 0.206167 -0.046466 -0.582007 0.302179 -0.322012 -0.371548 -0.452836 0.921358 0.135639 0.588501 0.080857 0.036903 -0.153742 -0.077646 -0.448043 0.497727 0.057736 0.039600 0.102111 -0.021475 -0.091402 -0.575071 0.226785 -0.185496 0.118619 0.290744 -0.651460 0.151767 -0.860218 0.149849 -0.194220 -0.093862 0.453895 0.109267 -0.116248 -0.334274 0.196976 0.155971 0.020474 -0.306337 0.270401 -0.332877 0.601672 0.109324 0.149462 -0.331596 -0.119742 0.427156 0.065726 0.025666 -0.320882 -0.485632 -0.287113 0.496893 -0.150079 -0.526600 -0.421879 -0.098845 -0.174474 0.491420 -0.020938 0.576062 -0.028455 0.256666 0.241964 0.335646 0.246971 -0.484539 0.080910 -0.607927 0.009829 -0.063709 0.000184 -0.228085 0.051456 0.156702 0.285092 0.612914 -0.117911 0.002359 0.209015 -0.061505 0.339073 -0.276357 0.322957 0.259483 -0.011402 0.004499 -0.021272 0.279939 -0.513674 0.351936 -0.239436 -0.228868 -0.299341 0.162374 0.014858 0.473647 0.190552 0.178159 0.182172 -0.283097 -0.373388 0.440756 0.398125 0.049794 0.523598 0.564672
динамика -0.255843 -0.103841 -0.096520 -0.254423 0.495608 0.505995 0.410415 -0.150142 0.118370 -0.237812 0.306514 -0.470662 -0.230098 0.376034 0.605437 -0.039712 0.169719 0.214013 -0.361819 0.347942 0.276441 -0.048894 0.110196 0.379478 0.522859 -0.264741 0.355471 0.005699 -0.077045 0.005047 0.647563 -0.270539 0.504148 -0.397735 -0.371707 -0.381240 -0.358973 -0.167656 0.203849 0.176864 0.162905 -0.008774 0.601404 -0.517846 -0.382897 0.141870 -0.034054 -0.142200 -0.423817 0.091991 0.537259 -0.128407 0.526293 -0.525082 -0.435844 0.100685 -0.182712 -0.390066 0.156247 0.755807 0.165638 0.002028 0.258688 0.507301 0.421405 -0.317042 -0.714905 0.523683 -0.125646 -0.393108 -0.472770 -0.014198 -0.175803 -0.161326 0.186064 -0.356066 0.154869 -0.385428 -0.038807 -0.145766 -0.482964 0.332379 0.297035 -0.316625 0.078238 -0.463168 -0.330062 -0.164190 -0.150746 0.452250 0.674988 0.186986 0.119356 -0.205184 0.006926 0.020396 -0.402996 -0.024640 -0.336800 0.249164 -0.041829 0.201113 -0.322653 0.348798 -0.194073 0.086384 0.163036 0.039176 -0.407259 -0.019642 -0.030891 0.599389 -0.299828 -0.138629 -0.276192 0.273144 0.064531 -0.393674 -0.254456 -0.779153 -0.085940 0.261620 0.188165 -0.678695 -0.762563 -0.036733 0.510224 0.110090 -0.421896 0.208648 -0.068796 -0.381676 0.060445 0.215711 0.048910 -0.041713 0.242917 -0.002846 -0.216837 0.627097 -0.296766 0.166735 0.111122 -0.714824 -0.721387 0.500015 0.512866 -0.031600 -0.128757 -0.042327 0.025467 -0.116203 0.352437 0.081093 -0.557767 0.639968 0.358375 -0.139237 0.461251 -0.333694 0.218347 0.091720 0.044258 0.286367 0.954338 -0.065485 0.035363 0.541568 0.298990 -0.017366 0.483782 0.231313 -0.016694 -0.036822 0.412806 0.150672 -0.007684 -0.154332 -0.298981 0.046717 0.810371 0.051240 0.540013 0.448207 -0.153114 0.256789 -0.020146 -0.224088 0.495269 -0.854923 0.181666 0.412208 -0.209289 0.097871 -0.428315 -0.445434 0.372853 0.025180 -0.419285 0.376346
уровень -0.405728 -0.514163 0.163982 -0.034885 0.193638 0.062823 -0.538088 -0.176815 -0.468088 0.183485 0.136229 0.178506 0.245779 0.046301 0.154508 0.335976 0.843481 0.198531 -0.246778 -0.019554 -0.324720 -0.040024 -0.119598 -0.108488 0.143908 -0.179004 0.044821 -0.160983 0.022664 -0.176928 0.064242 0.458834 0.324533 -0.321346 0.077908 -0.019731 0.617689 0.197332 -0.215735 0.312085 0.327433 0.255298 0.096665 -0.108298 -0.278592 0.085683 0.113395 -0.065608 -0.368245 0.176451 -0.324232 -0.518551 0.638685 0.029853 -0.155387 0.581257 -0.739305 0.072851 0.783396 0.319139 0.179582 0.169279 0.650402 -0.441193 0.260508 -0.418805 -0.445641 0.459090 0.147916 -0.341517 -0.436018 -0.323905 0.125503 -0.632217 0.761556 0.381607 0.359007 -0.720638 -0.044657 0.351416 -0.481699 -0.026601 -0.076446 -0.438507 0.005222 -0.182338 -0.312602 -0.140279 -0.724456 0.006609 0.281569 0.462310 -0.161084 -0.306075 -0.305028 -0.506480 0.032316 -0.314938 -0.175996 0.514059 -0.171440 0.557081 0.137871 -0.086320 0.131756 0.061251 -0.235541 -0.167689 0.200876 -0.441558 0.276171 0.092292 -0.043750 -0.700743 -0.241795 -0.076741 0.283380 0.324148 -0.611661 -0.050748 0.077806 -0.064781 0.546242 0.028394 0.226451 0.069921 0.052841 -0.205316 0.319748 -0.252995 0.500213 0.842662 0.779115 0.112792 0.438480 -0.150033 -0.012482 0.328688 -0.503740 0.523366 0.005721 0.182844 -0.220735 -0.233891 -0.075140 0.319650 0.103098 0.450919 -0.441631 -0.099825 -0.006484 -0.246116 0.081996 0.075177 -0.451996 -0.096712 -0.023637 0.210027 0.341213 -0.300697 0.336071 -0.245332 0.105443 -0.580633 0.376570 0.395874 0.072593 -0.700696 0.220981 -0.008189 -0.581323 -0.228307 0.109844 -0.240706 0.166986 -0.541243 -0.041096 0.071722 0.287444 0.576991 -0.414232 0.404046 0.368001 0.062680 -0.640572 0.280763 -0.199578 0.383703 0.238499 0.357557 -0.020968 0.152306 0.170265 -0.492910 -0.416874 -0.116991 -0.107978 0.126174 0.449501 0.378110
кредитный 0.086853 -0.155497 0.374272 0.127078 0.616294 0.297656 0.065568 -0.126094 0.146292 -0.063447 -0.355287 -0.462701 -0.209609 -0.306095 0.155616 -0.419553 0.192474 0.290757 0.091002 -0.194307 -0.112879 0.078440 0.412390 -0.127609 0.092430 0.079354 -0.109727 -0.520055 0.430560 0.424201 0.060039 -0.129479 0.022529 0.223747 0.231721 -0.231360 0.050715 -0.639701 0.113581 0.247471 0.387029 -0.192414 0.277113 -0.016240 0.316093 0.285112 0.348376 0.621087 -0.481588 0.310964 0.077005 -0.199387 0.098563 0.731169 -0.066473 -0.126790 -0.729378 0.103057 0.681342 0.501640 0.175089 0.518045 0.545932 -0.000423 0.086374 -0.539919 -0.313971 0.362087 -0.530333 -0.453572 -0.028782 -0.154701 -0.022095 -0.189530 0.190425 -0.148326 -0.237170 -0.232554 0.771873 0.467905 0.059572 -0.039584 -0.074900 -0.279941 0.191138 0.724951 -0.249301 -0.114120 -0.207875 -0.353357 -0.017048 1.265781 0.554318 -0.393977 0.122344 0.176513 0.150126 -0.260869 -0.570452 0.056684 0.008269 0.268206 0.075860 0.227901 -0.257727 -0.136012 -0.020147 0.215464 -0.650081 -0.559686 -0.126269 -0.421968 -0.218273 -0.302128 -0.017136 0.431230 0.324276 -0.229709 -0.421585 0.329861 -0.058657 0.027508 -0.112278 -0.315981 -0.045156 0.795333 0.006792 0.029015 -0.193870 -0.291525 0.043106 -0.122429 0.214263 -0.628124 -0.124040 -0.428746 0.476546 0.099473 -0.267491 0.120678 0.088005 -0.408650 -0.445136 0.126499 0.098042 0.064128 0.684711 -0.200020 -0.115911 -0.613681 -0.207530 0.167369 0.149554 0.797764 0.501868 0.243302 -0.385193 0.127293 0.048789 -0.257353 0.403605 -0.136296 -0.522591 -0.362458 -0.224385 0.326540 0.212631 0.100596 0.148699 -0.338196 0.409892 -0.009800 -0.564276 0.210522 0.312925 -0.020352 -0.416026 0.049275 -0.021997 0.285500 0.462018 -0.063826 0.076071 -0.266623 -0.002525 0.242236 -0.563220 0.387499 0.264483 0.349772 0.420116 0.354012 0.029839 -0.131679 -0.057223 -0.166402 0.369268 0.005058 -0.168821 0.238543
экономика -0.080206 -0.120244 -0.123495 -0.337765 0.293265 0.162178 -0.272540 -0.421213 0.362127 -0.329191 0.794568 -0.794409 0.323591 -0.375543 0.083860 -0.116439 -0.130150 0.181770 -0.371707 0.039289 0.343723 0.210409 0.402549 0.128973 -0.067618 -0.208454 0.068009 0.092921 0.153400 0.596501 0.378214 0.044937 -0.310830 -0.010653 -0.145902 -0.130650 -0.413210 -0.408968 0.222551 0.118890 -0.004740 0.014378 0.159335 -0.024819 -0.324969 0.197918 0.299325 -0.068633 -0.032886 -0.075901 0.129751 0.196607 0.139653 0.003073 -0.435474 0.218890 -0.335450 -0.594802 0.374491 0.079935 -0.256512 -0.114237 0.228097 0.210146 -0.038533 0.034214 -0.588390 -0.212066 -0.140856 -0.445533 -0.431229 0.013610 0.075524 -0.309197 0.116769 0.138327 -0.294794 -0.814330 -0.093465 0.329218 0.429681 0.265948 0.018193 0.178440 0.594301 0.227887 -0.169380 -0.379166 0.120361 0.174808 -0.107536 0.056336 0.227021 -0.374354 -0.068486 -0.366829 -0.625481 0.459832 -0.221127 -0.110586 -0.189874 0.228398 -0.424206 0.221437 0.198837 0.118467 0.339439 0.001368 -0.303053 -0.034197 0.020787 0.501070 0.070500 -0.484327 -0.287868 0.380692 0.474481 -0.203743 -0.372639 -0.277659 -0.526468 -0.439053 0.189796 -0.442394 0.303610 0.300865 0.483630 0.526798 -0.159519 -0.526459 -0.300392 -0.206161 0.630422 0.474641 0.045075 -0.151951 0.124887 0.176293 -0.093617 0.383005 0.016183 0.422414 0.254047 -0.358049 0.055925 -0.080111 0.533500 0.038463 -0.567706 -0.709990 -0.340046 -0.577182 0.146802 0.122994 -0.004524 0.354196 0.198660 -0.271926 0.072623 0.015596 0.087226 -0.318114 -0.122999 -0.577501 0.272716 -0.278853 0.286962 0.316839 0.403444 0.480014 -0.154812 0.063783 0.256856 -0.065997 0.105843 0.092277 -0.638413 0.036110 0.089147 -0.338378 0.190780 0.519676 0.139089 0.031100 -0.175545 -0.145078 -0.056217 0.100972 0.653731 0.032846 -0.342544 0.150150 -0.311789 0.112352 0.030906 -0.250675 0.175298 0.179944 0.057594 0.126603
рынок 0.300274 -0.147831 -0.476466 0.061133 0.656041 -0.739025 0.133990 0.182666 0.055332 0.617707 0.162882 -0.266336 0.141199 -0.034317 0.124577 -0.151978 -0.027756 0.181951 0.034147 0.063402 0.539854 -0.094717 0.568945 -0.166635 0.154865 0.187448 0.225940 -0.014910 0.573964 0.226253 -0.087968 -0.435988 0.041766 0.032629 -0.077482 -0.173297 -0.124051 -0.154516 0.191806 0.076777 -0.104376 -0.310220 -0.202433 -0.330514 -0.483402 0.308330 0.002774 0.098604 -0.257240 0.472900 0.233586 0.040971 -0.198115 -0.289909 -0.222442 -0.310330 -0.664476 -0.506719 0.486241 0.150379 0.189262 -0.116139 0.142443 -0.056750 0.210562 -0.468272 -0.685024 0.194772 -0.169602 -0.347093 -0.640446 -0.527261 -0.322609 -0.034491 -0.135424 0.302855 -0.552898 -0.405160 0.229451 -0.487103 -0.613216 -0.135532 -0.112078 -0.485181 0.302006 0.078143 0.285553 -0.636942 -0.313529 0.110805 0.298962 0.083074 0.290143 0.131058 -0.183668 0.523061 0.117396 0.396541 -0.259196 0.520090 -0.550329 0.038741 0.092785 -0.557005 0.307442 -0.150349 -0.128272 -0.449418 -0.518409 -0.387684 0.051559 0.129837 -0.355294 0.069903 -0.134077 0.474404 0.469472 0.258801 -0.046735 -0.106544 -0.364365 0.063592 0.322142 0.131524 0.138992 -0.093946 0.552986 0.373209 -0.220755 -0.324203 -0.377718 0.319665 0.245519 0.098291 0.228276 -0.005464 0.249924 -0.091889 0.504296 0.435762 0.042150 -0.400841 -0.189831 -0.470986 0.338344 -0.309249 0.405495 -0.132940 0.055084 -0.631514 0.041632 -0.147140 -0.035843 0.693095 0.137934 -0.053343 0.288807 0.541182 -0.261936 -0.011460 0.021106 -0.026755 -0.162972 -0.461511 0.117571 0.596220 0.124764 0.035797 0.152541 -0.112232 0.254496 0.017414 -0.129175 -0.235389 -0.106725 -0.084498 -0.047451 -0.229846 -0.252101 -0.100412 0.137718 -0.381024 0.004421 -0.281398 -0.210146 0.221999 0.219073 -0.104839 0.496320 -0.349435 -0.019557 0.712713 -0.101476 0.255203 0.031474 -0.030828 -0.109469 -0.110751 -0.086252 0.299420
до -0.548351 -0.660662 -0.368109 0.122777 0.680346 0.047565 0.237051 0.016368 -0.035949 0.109617 -0.208319 -0.309715 -0.414142 -0.270581 0.225068 0.412838 0.071322 -0.272500 -0.004828 0.092872 -0.504406 -0.320708 -0.170202 -0.351876 -0.502605 0.100236 0.007527 -0.277916 0.603914 0.162251 -0.291100 -0.089586 0.466554 -0.032069 0.184395 0.433353 0.111895 0.005206 0.028038 -0.132318 -0.300923 -0.356628 0.303336 -0.335209 -0.265189 0.291995 0.384137 -0.074737 -0.474267 0.745070 -0.226612 -0.703851 -0.170575 0.154976 -0.073376 0.318411 -0.272905 0.070477 0.296043 0.221660 0.562906 -0.087437 -0.046071 -0.000425 0.180493 -0.046593 -0.211998 0.125922 -0.199488 0.084271 -0.535860 0.114356 0.186590 -0.577623 -0.162237 0.433893 0.353437 -0.204403 0.409046 0.269904 -0.334072 -0.294330 -0.214668 -0.837899 0.326484 0.025724 0.040123 -0.552048 -0.537209 -0.211911 0.282608 0.529228 0.229364 0.011314 -0.086074 0.716696 -0.615020 -0.323761 -0.116711 0.488927 0.159231 0.585311 0.436815 -0.360407 0.077615 -0.130417 -0.133139 0.628246 0.268387 -0.303662 -0.039152 -0.001265 -0.491796 0.039136 0.230459 -0.584156 0.401196 0.098923 -0.371336 0.661414 -0.888984 -0.791714 0.084953 0.257347 0.529020 0.214027 0.071617 0.250914 0.186872 -0.423001 -0.212484 -0.045117 0.435792 0.150625 0.581539 0.265768 0.416554 -0.247856 -0.243785 0.545663 0.713682 0.409034 -0.339827 -0.190672 -0.140851 0.372591 0.099139 -0.570785 -0.464239 0.072231 0.044618 0.216382 0.121138 0.276702 0.137215 0.102803 -0.027978 0.751329 -0.081938 -0.261592 0.363896 -0.270375 0.143752 -0.195852 0.001041 0.031181 -0.133982 -0.694513 0.570429 0.217803 -0.106248 0.064899 -0.176120 -0.249559 0.222694 -0.077318 0.098651 0.564889 0.338181 0.160054 -0.121236 0.062813 0.008012 -0.048404 -0.186833 -0.314324 0.122020 -0.155755 -0.037498 0.554515 0.677716 0.128089 0.595679 0.139367 0.157546 0.193933 -0.117361 -0.305502 0.462074 0.534940
темп -0.326651 -0.657055 -0.282674 -0.172901 0.308948 0.197977 0.265654 0.383318 0.453193 -0.150459 0.056144 -0.887972 0.207194 -0.133492 -0.080780 0.275767 0.125290 0.079295 -0.138813 0.190774 -0.648183 -0.095510 -0.273070 -0.295023 0.220925 -0.180638 0.730847 -0.094589 -0.043086 -0.007131 -0.304148 0.397790 0.017408 0.638459 -0.101237 -0.077448 0.035373 -0.094447 0.155247 0.033778 0.605059 0.074050 0.336306 -0.105190 -0.024948 0.158538 0.346601 0.063557 -0.398582 0.515516 -0.201162 -0.862774 -0.099599 0.197949 -0.237607 0.476844 -0.471010 -0.446225 0.357375 -0.161515 -0.011663 0.097669 0.824103 0.245274 -0.086995 0.362118 -0.359812 -0.128390 -0.122714 0.147911 -0.169566 0.305560 0.168562 0.184920 0.219588 0.278168 0.255240 -0.493977 -0.440008 -0.399622 0.032384 -0.192632 -0.247510 0.177932 0.422149 0.235112 -0.180141 -0.340763 -0.534360 -0.105462 0.339911 0.326599 0.499883 -0.246982 -0.114297 -0.333902 -0.008855 -0.335078 -0.123157 0.349607 0.106761 0.597722 -0.133925 0.225677 0.022640 -0.007363 0.200109 0.436511 0.223888 0.036564 0.051532 -0.215758 0.039878 -0.354182 0.100213 -0.315535 0.029009 0.027899 -0.183924 -0.343536 -0.684913 -0.288007 -0.184950 0.067327 0.488587 -0.257747 -0.229707 0.422481 -0.085182 0.214705 -0.091859 -0.264056 0.533548 0.009924 0.524732 0.027849 -0.129405 -0.236125 0.157205 0.144758 0.139380 0.026821 0.005124 -0.189161 0.142016 -0.088258 -0.346015 -0.420133 -0.335209 -0.524954 -0.297136 -0.103572 0.031772 0.341522 -0.195289 0.670424 0.083761 0.080756 0.681813 -0.049625 -0.145409 -0.259387 -0.276692 -0.761812 0.524443 -0.276416 -0.087360 0.125599 0.303365 0.707511 -0.224638 0.003244 -0.212780 -0.277489 0.689741 -0.077855 0.232932 0.087951 0.425779 -0.072830 0.231184 0.491874 -0.282506 0.344398 0.195022 0.001564 0.410981 0.161963 0.119026 -0.046875 -0.229293 0.203527 0.343323 -0.162737 -0.505197 0.126542 0.263612 0.118242 0.214984 0.173966
снижение 0.391268 -0.072915 -0.197993 -0.511747 0.445025 0.508199 -0.183302 -0.177445 0.108386 -0.100115 -0.123682 -0.228902 -0.027115 0.183956 0.044018 -0.396417 0.236404 0.444917 -0.054526 -0.190089 0.097478 0.166453 -0.087352 -0.458307 0.203632 0.019726 0.209057 -0.326148 0.225428 0.127647 0.391931 -0.458187 0.220057 -0.337601 0.249545 0.025965 -0.306937 -0.386764 0.116959 0.006370 0.628216 0.361894 0.300235 -0.552481 0.426707 0.140722 0.490143 0.250989 -0.211943 0.192507 0.090731 -0.222615 0.207390 0.204715 0.305336 -0.262269 -0.219051 0.119596 0.265848 0.662139 -0.421025 0.498538 0.769661 0.177590 0.243323 -0.205024 -0.347751 0.201285 0.187937 -0.107481 -0.130107 -0.191362 -0.546378 -0.047147 0.180216 0.067266 -0.211926 -0.112068 0.154375 0.169248 0.040757 -0.105666 -0.314207 -0.157678 0.019239 0.241251 -0.092925 0.165258 -0.190481 0.105156 -0.023035 0.057712 0.158404 -0.449928 -0.084877 0.380496 0.092420 0.143037 -0.553387 0.107742 -0.111748 0.413317 -0.425725 -0.139379 -0.090543 -0.380673 -0.485268 0.030324 -0.018678 0.122405 0.011559 0.235781 -0.226758 -0.339712 0.117168 -0.264536 0.617741 -0.241959 -0.576410 -0.239394 0.093191 0.069358 -0.169457 -0.303002 -0.317071 0.566956 0.441667 0.621882 0.181758 -0.198695 -0.068142 -0.038174 0.657965 0.052711 0.165253 0.309303 0.209448 -0.546258 0.040213 0.063187 -0.030746 -0.033901 -0.043531 -0.060007 -0.004376 0.274620 -0.217477 0.010489 -0.062539 -0.354967 -0.589349 0.088861 0.251331 0.474359 -0.296845 0.679670 0.389216 0.095868 0.253271 -0.112302 -0.161384 0.247328 -0.595395 -0.420848 0.201518 -0.180762 0.077196 -0.063364 0.157622 0.183360 -0.197139 0.097676 -0.241194 -0.012826 0.385876 0.240725 0.147139 0.219043 -0.021979 0.196112 -0.078823 0.053467 0.123035 0.094140 0.103951 0.326302 0.158043 -0.423322 0.801711 -0.295027 0.437492 -0.015669 -0.034852 0.129201 -0.045505 -0.184979 -0.136630 -0.024880 0.233052 0.462552
ожидание 0.052076 -0.279936 -0.177587 -0.638396 0.169084 0.366270 -0.002500 0.122285 0.081587 -0.008381 0.227218 -0.287744 0.187877 -0.231023 0.218546 0.249896 0.406839 0.356894 -0.183654 0.006464 0.494844 -0.291723 0.294885 -0.059555 0.340572 -0.440688 0.108147 -0.120762 0.917638 -0.247899 0.262755 -0.166952 0.338693 -0.715761 -0.224749 -0.496363 0.147608 0.082047 0.188487 0.235853 0.764283 -0.048464 -0.071265 -0.099916 0.062601 0.507586 -0.442195 -0.387806 -0.239914 0.027387 -0.162234 -0.546110 -0.035551 -0.005695 0.115265 -0.138043 -0.096670 -0.052346 0.506154 -0.174600 0.092993 0.257521 0.525007 0.148902 0.512711 0.115572 0.279699 0.577528 -0.122336 -0.522424 -0.674049 -0.197458 0.270236 0.253520 -0.027586 -0.230558 -0.376871 -0.386648 0.226711 0.059079 -0.233661 -0.381375 -0.074991 0.477469 -0.646927 -0.569451 0.084911 0.036372 -0.211660 0.139120 0.492301 0.004774 -0.059687 0.262531 -0.197040 0.097651 -0.213975 -0.232886 -0.336709 -0.237334 0.062598 0.317326 -0.458247 -0.093657 -0.097618 0.490668 0.377114 0.026741 -0.235268 -0.293358 0.220837 -0.036964 -0.354251 -0.328689 0.097956 0.481914 0.079802 -0.008135 -0.382658 0.238281 -0.323010 -0.275428 -0.051437 -0.104195 -0.238801 -0.238206 -0.379464 0.175149 0.016769 0.381241 0.228015 0.537799 0.626186 -0.326109 0.553311 -0.350453 0.368876 0.428277 0.195799 0.143154 0.184506 0.293898 -0.080685 -0.069435 -0.150420 0.025227 -0.226447 0.579501 -0.116377 -0.485363 0.034537 -0.596966 0.112058 0.411398 -0.481208 0.169157 0.373229 -0.334363 0.459679 -0.592005 0.389862 0.142776 -0.420894 -0.072467 0.194851 0.253638 0.289712 -0.224066 0.253476 -0.270929 0.086914 0.133237 0.028694 -0.037557 -0.058660 0.120688 0.021902 0.043501 -0.808432 0.259498 0.098520 0.233396 0.407593 -0.080977 -0.185053 -0.257386 0.233439 0.175512 0.315150 0.221345 0.451265 0.019374 0.605983 -0.202634 0.119069 -0.077950 -0.031299 -0.139081 0.315763 0.570522
решение 0.508361 -0.139765 0.464445 -0.503838 -0.155662 0.714105 -0.316113 -0.537603 -0.228148 -0.649202 0.314227 0.213317 -0.791468 0.422406 0.372751 0.515666 0.012544 0.062441 -0.445767 -0.672860 0.116917 -0.069580 -0.288719 -0.157482 -0.103265 0.320078 -0.188041 -0.845251 0.103784 0.060676 0.269225 -0.629204 0.864014 0.097717 -0.073676 -0.056913 0.026862 0.168059 0.296947 0.277531 -0.705729 0.088543 -0.420097 0.137389 0.175768 0.063526 0.212340 -0.179890 -0.553366 0.173838 0.320110 0.153307 0.345873 -0.039520 -0.064154 0.239694 -0.233019 0.044322 0.343494 0.882728 -0.028202 0.089113 0.186950 0.086270 0.101971 -0.339793 -0.448750 0.494325 0.246197 -0.358400 -0.416399 -0.091850 -0.000833 -0.867694 -0.288900 -0.086463 -0.084628 -0.557805 0.434709 0.153258 -0.083436 0.379593 0.196718 -0.373433 -0.239057 -0.646130 -0.622490 0.029151 -0.217897 -0.142357 0.453222 0.427625 -0.045876 -0.522792 -0.279778 0.255850 -0.625309 -0.341106 -0.469806 -0.780311 -0.321523 1.035888 0.209229 0.443416 -0.316810 -0.277226 0.341049 0.307813 0.331520 0.300321 -0.202052 -0.021716 0.430826 0.007980 -0.107547 -0.495868 0.036344 0.252109 -0.464477 0.400294 -0.111594 -0.194482 0.407222 -0.282433 0.195416 0.473118 0.395406 -0.193542 -0.292682 -0.685288 0.343284 0.094142 -0.181920 0.534949 -0.125590 0.560754 0.196865 0.295717 -0.232975 -0.266073 0.494332 0.354451 -0.201682 -0.490446 -0.269137 0.722331 0.049379 -0.064947 -0.551041 0.038983 0.078416 0.520093 -0.467896 0.773967 -0.101135 0.684750 -0.086699 -0.035586 -0.155788 0.100352 0.351036 -0.384684 0.152540 -0.311495 0.321123 0.668368 0.104735 -0.134292 0.392485 0.086954 -0.140125 0.031093 -0.069391 0.264576 0.252674 -0.018605 0.160986 0.291624 0.731591 0.168565 0.052834 0.058499 -0.105968 0.356307 -0.433168 -0.044247 -0.299865 0.323944 0.304057 -0.151929 0.372887 -0.016958 0.331087 -0.236912 0.032732 -0.425138 0.203430 0.162345 0.497946 0.295185
потребительский -0.275390 -0.417575 -0.428279 0.024117 0.459083 0.173252 0.303766 0.358168 0.489281 -0.007606 -0.355330 -0.596757 0.102209 0.046027 0.754402 -0.079005 0.400307 -0.004837 -0.246837 0.317304 0.037418 0.083693 -0.436030 -0.124364 0.374181 -0.355922 0.371509 -0.216260 -0.001520 -0.139696 0.039523 -0.020606 -0.130802 -0.118689 -0.381839 -0.234671 0.209463 -0.459959 -0.249640 -0.126989 0.561339 0.081150 0.332393 -0.538870 -0.049773 0.106865 0.230810 0.028127 -0.648630 0.009686 0.126079 -0.614100 0.346374 0.190695 0.031311 0.551606 -0.227222 -0.119448 0.187088 0.169997 0.181028 0.343619 0.500982 0.578923 0.089449 0.592987 -0.282953 0.208058 0.034765 -0.272881 -0.413125 0.016007 -0.444385 0.315807 0.153494 -0.215664 -0.308837 -0.272088 -0.112480 -0.098629 0.031030 -0.618827 0.019092 0.001951 -0.077657 0.166563 -0.300823 -0.347276 -0.361788 -0.049235 0.239175 0.407876 0.390745 -0.142957 -0.004218 -0.198530 0.012504 -0.291407 0.141934 0.321509 0.247771 0.421144 -0.182242 -0.389360 -0.210716 -0.525851 0.082780 0.067629 0.034943 0.280702 0.005970 0.139525 -0.292653 -0.274696 0.142836 -0.000188 -0.305464 -0.007599 -0.134781 -0.067874 -0.232339 -0.041814 -0.087923 -0.458516 -0.198218 -0.317625 -0.091578 0.036757 -0.289603 0.128580 0.162498 -0.413699 0.169659 0.125767 -0.025805 -0.145458 -0.293329 -0.809476 0.020816 0.077759 -0.035066 -0.078567 -0.112831 -0.373187 0.456735 0.025659 -0.414095 -0.348471 0.127096 0.088330 -0.462806 0.080678 0.179032 0.353170 -0.543232 0.087823 0.349577 0.084120 0.700829 -0.314740 0.155488 -0.108460 -0.310166 -0.030031 0.282520 -0.401654 -0.101909 -0.250745 0.360821 -0.007810 -0.304944 0.395978 -0.334107 -0.711491 0.725097 0.210328 -0.084969 -0.303868 0.314720 -0.127235 0.276696 -0.043429 -0.130957 0.816907 -0.061982 -0.043792 0.401418 -0.000624 -0.035909 -0.097105 0.517640 0.083014 0.071061 0.309635 -0.710521 0.198756 0.558864 0.452946 0.021426 0.139116
денежный 0.009876 -0.067881 0.599519 0.191214 0.471682 0.468775 0.114533 0.002417 0.217015 -0.220531 -0.121369 -0.524632 -0.366603 -0.364875 0.063295 -0.266435 0.386488 0.365289 0.162513 -0.215721 -0.219476 0.071517 0.542567 -0.095613 0.080727 0.174080 -0.144552 -0.461731 0.280976 0.195880 -0.072169 -0.036590 0.132923 0.435598 0.256600 -0.233345 0.085756 -0.421854 0.122473 0.256242 0.384464 -0.225570 0.311163 -0.016169 0.349906 0.311160 0.284581 0.650685 -0.616248 0.179126 0.187882 -0.314108 -0.034532 0.549490 -0.270278 -0.165910 -0.598533 -0.077937 0.602199 0.380667 0.027843 0.475373 0.632079 0.095734 0.030369 -0.507526 -0.226167 0.396014 -0.218883 -0.339813 0.243549 -0.161894 0.221807 -0.032978 0.143438 0.099258 0.008119 -0.165510 0.595442 0.286052 -0.041887 0.137164 0.074447 -0.235402 0.138376 0.820130 -0.439734 -0.040132 -0.025614 -0.285496 0.107171 1.193310 0.553843 -0.249936 0.117498 -0.036602 0.255926 -0.524368 -0.398029 -0.046285 0.041514 0.254190 0.046743 0.437502 -0.197814 -0.144315 0.042021 0.329778 -0.569289 -0.599707 -0.247508 -0.527442 -0.065054 -0.280845 -0.093327 0.554698 0.313894 -0.150740 -0.486480 0.337500 -0.106805 -0.029446 -0.064541 -0.088690 -0.093055 0.686824 -0.007666 -0.199358 -0.131510 -0.211223 0.221575 -0.252735 0.174075 -0.641498 -0.112366 -0.508703 0.372957 0.287269 -0.000508 0.036140 0.011940 -0.374599 -0.364585 0.138797 -0.052979 -0.171576 0.686766 -0.167644 -0.169283 -0.401216 -0.278650 0.185300 -0.089186 0.678371 0.380757 0.340235 -0.498924 0.034483 0.132430 -0.297303 0.296036 -0.435794 -0.369776 -0.364468 -0.284273 0.310386 0.153079 0.250742 0.070031 -0.178123 0.323321 -0.128976 -0.523993 0.329756 0.417426 -0.066653 -0.380141 -0.055807 0.119512 0.261850 0.547975 -0.017301 -0.099498 -0.268246 0.243755 0.126594 -0.622282 0.459628 0.126141 0.606813 0.214117 0.480687 0.124981 -0.258292 -0.226488 -0.146078 0.564064 -0.081225 -0.068194 0.327152
также -0.045440 -0.194597 -0.122331 -0.166723 0.335276 0.311166 -0.208597 0.149493 0.523567 -0.189092 0.438673 -0.586033 0.035681 -0.304678 -0.070687 -0.304263 0.038517 0.311676 -0.118249 0.371632 0.055885 0.079040 0.068968 0.333426 -0.108221 0.026646 0.248976 -0.075188 0.399784 0.133602 0.402801 -0.521652 0.012571 0.072834 -0.256022 -0.173390 -0.374015 0.142033 0.052187 0.327521 0.112030 0.011079 -0.573475 -0.552252 0.004385 0.456838 -0.070700 -0.093551 0.015227 -0.291842 0.304961 -0.094020 0.116231 -0.492822 0.320987 -0.080402 -0.317608 -0.361104 0.063046 -0.074086 -0.278936 0.361794 0.159845 0.302351 0.117873 -0.079296 -0.489699 0.124171 -0.069241 -0.473132 -0.716841 -0.375888 0.134634 0.104058 -0.053720 -0.023392 -0.336423 -0.610773 -0.611461 -0.139142 0.273391 0.058507 0.390012 -0.077799 -0.329904 -0.156949 -0.536710 -0.202621 -0.134017 0.356387 0.224756 -0.371448 0.326226 0.069301 -0.151458 0.058953 -0.139226 0.271989 -0.032954 0.169023 -0.356566 0.181503 -0.485736 0.120220 0.561588 0.331234 0.545225 -0.425761 -0.203601 0.418640 -0.257433 0.181710 -0.149107 0.153640 0.169135 0.082060 0.446241 -0.539357 0.018460 0.347066 -0.191789 -0.333535 -0.019539 -0.283279 -0.169077 -0.069784 -0.011599 0.131768 -0.158713 -0.723785 -0.397506 -0.010065 0.260173 0.233859 -0.023635 -0.222746 0.312161 -0.073155 0.271253 0.040110 -0.655753 0.497516 0.039694 -0.697239 -0.415102 -0.067308 0.392263 0.016417 0.182111 -0.390885 0.267019 -0.528286 -0.196112 0.229363 -0.915677 0.500108 0.037284 -0.154399 0.555153 0.097797 0.148246 -0.698714 -0.012145 -0.085770 -0.027857 -0.090500 -0.095761 0.106536 0.020117 0.022028 -0.011651 0.307243 -0.077378 -0.274308 -0.149474 -0.128502 -0.662753 -0.144344 0.182824 -0.042252 0.570399 -0.064699 -0.414352 0.031851 -0.232257 -0.020157 0.074908 -0.037561 0.540301 -0.379465 0.114704 -0.047887 0.196378 0.336556 -0.261531 -0.237800 0.400066 0.099793 0.209538 0.351126
директор -0.034309 -0.298227 0.522986 -0.305594 0.114541 0.226967 -0.170243 -0.767336 -0.720847 -0.390716 0.052786 0.195668 -0.819875 0.077457 0.130940 -0.054847 0.234468 -0.020055 -0.882807 -0.704519 0.165473 0.096257 0.028065 -0.379615 -0.298255 0.723908 -0.078178 -1.020144 -0.243243 -0.032920 0.123566 -0.297556 0.522868 0.031441 0.212932 0.477446 0.091612 0.208647 0.223939 0.616490 -0.715959 0.493041 -0.439622 0.398686 -0.106586 -0.095131 -0.051176 0.075259 -0.180562 0.181649 0.373602 -0.024144 0.008626 -0.030222 -0.056511 0.036953 -0.234450 -0.065203 0.915851 0.332222 0.139768 -0.237154 0.240482 -0.044968 0.116315 -0.825699 -0.359675 0.782520 -0.253089 -0.519403 -0.697433 -0.062972 0.196105 -0.806695 0.198612 0.193332 0.036681 -0.587975 0.756513 -0.228772 -0.296354 0.344271 -0.188642 -0.191724 -0.636511 -0.421583 0.310427 -0.150736 -0.598387 -0.088672 0.511404 0.649847 -0.281783 -0.307158 -0.404463 0.473434 -0.096549 0.046344 -0.274387 0.066616 -0.441134 0.616296 0.660544 0.401126 -0.119222 -0.196277 -0.178479 0.244551 0.143951 -0.237178 0.230763 -0.145210 0.220094 -0.043147 -0.224966 0.350311 -0.178009 0.295113 -0.809055 -0.092012 0.046469 0.290706 0.709762 -0.295025 0.424227 0.166595 0.470661 -0.538737 -0.568193 -0.262696 0.223560 0.524518 -0.125015 0.142118 0.150202 0.450626 0.178487 0.407858 0.060280 0.097355 0.391063 0.106689 -0.516216 -0.216634 0.028160 0.251411 0.068829 0.092445 -0.249746 -0.278435 -0.300893 0.696536 -0.504538 1.085668 0.430745 0.280635 -0.173596 0.385332 -0.366052 -0.133301 0.079575 -0.179294 -0.127367 -0.275202 0.025146 0.236438 -0.083235 0.199506 0.065438 0.307198 -0.298267 -0.220436 0.021389 0.126237 0.045648 0.288299 0.135383 0.191491 0.506385 0.298313 -0.239890 -0.038994 0.121765 0.188599 -0.340145 0.160888 -0.463105 0.333174 -0.192155 -0.333188 -0.130409 0.261622 0.175862 0.019373 -0.418045 -0.143862 0.070251 0.390738 0.665360 0.242166
совет 0.018643 -0.216222 0.582300 -0.359177 0.078144 0.298168 -0.222379 -0.775580 -0.734347 -0.391240 0.167819 0.130833 -0.789681 0.054125 0.149749 0.017626 0.270150 0.000446 -1.020006 -0.767901 0.230692 0.206023 0.046300 -0.392772 -0.304262 0.869765 -0.062530 -1.009724 -0.248391 -0.027116 0.097774 -0.366364 0.564330 0.120440 0.140176 0.453014 0.031889 0.201461 0.306685 0.539859 -0.762383 0.445583 -0.426106 0.423790 -0.084531 -0.156275 0.009364 0.069649 -0.143832 0.215549 0.433877 0.031990 -0.105553 -0.092990 0.041024 -0.018321 -0.235596 -0.065301 0.941230 0.304565 0.142039 -0.240487 0.272982 0.112933 0.064283 -0.788988 -0.382427 0.756171 -0.268292 -0.532052 -0.716540 -0.132936 0.195912 -0.802652 0.104027 0.222237 -0.056375 -0.736678 0.844761 -0.303579 -0.232454 0.461768 -0.232250 -0.201761 -0.689889 -0.425938 0.250932 -0.054726 -0.476914 -0.053724 0.560651 0.681209 -0.326597 -0.368473 -0.456750 0.429609 -0.116437 -0.044939 -0.357681 -0.038662 -0.481937 0.656011 0.593724 0.415539 -0.101643 -0.227565 -0.165114 0.255993 0.175747 -0.222953 0.231037 -0.165422 0.200495 -0.119596 -0.236194 0.409257 -0.216958 0.346806 -0.825390 -0.087725 0.037757 0.219651 0.667435 -0.294400 0.418051 0.172673 0.571717 -0.472984 -0.669732 -0.352959 0.340724 0.524239 -0.062778 0.281952 0.206816 0.482071 0.214377 0.429737 0.075855 0.098490 0.378744 0.206117 -0.489829 -0.148756 -0.035697 0.238758 0.078970 0.071482 -0.352909 -0.250029 -0.356700 0.756700 -0.541007 1.103927 0.455003 0.353728 -0.233643 0.312635 -0.353668 -0.156578 0.107946 -0.084064 -0.095813 -0.330605 0.074072 0.396424 -0.016330 0.270786 0.077939 0.351341 -0.315651 -0.189895 0.094300 0.174225 0.091816 0.188837 0.010024 0.199986 0.625414 0.205610 -0.223147 -0.063385 0.100076 0.145317 -0.318522 0.223764 -0.500333 0.415013 -0.154775 -0.360447 -0.138328 0.327004 0.185461 -0.023573 -0.425716 -0.120076 0.089238 0.339935 0.587711 0.247457
спрос 0.044257 0.296175 -0.260873 -0.140651 0.473379 0.335255 -0.238261 0.398118 0.166119 0.269493 0.141957 -0.713278 0.192254 -0.266517 0.314061 0.058610 0.502390 0.008511 -0.722682 0.224794 0.406358 0.294696 0.002691 -0.237963 -0.116128 -0.412579 -0.126348 0.455608 0.205928 -0.198559 0.220073 0.654295 -0.423689 0.119116 -0.265085 -0.167017 0.074780 0.097327 -0.271719 -0.136358 0.102368 0.040815 -0.020333 -0.596827 0.162594 -0.238936 0.315642 0.075213 -0.595989 0.193746 -0.132176 -0.375329 0.520033 0.080641 0.020472 0.273361 -0.380867 -0.142599 -0.165410 -0.015416 0.104577 0.021264 0.625886 0.628871 0.237279 0.100622 -0.615841 0.060457 0.127200 -0.125887 -0.237355 -0.243425 -0.787695 0.619558 0.212896 -0.327503 -0.077886 -1.074011 -0.154743 0.212489 0.270476 -0.274503 0.022990 -0.392626 0.233321 0.018886 -0.353175 0.295490 -0.177222 0.094378 -0.013495 0.447595 -0.221240 -0.201342 0.235312 -0.728754 -0.271564 0.123441 -0.397562 0.434933 0.126089 0.028510 -0.269713 -0.601749 0.130728 -0.224717 -0.006351 -0.319188 -0.508874 -0.257454 -0.088322 -0.129751 -0.115462 -0.423099 -0.100981 0.200307 0.331829 -0.142929 -0.077649 -0.011741 0.634856 0.004251 0.154339 -0.406844 -0.560576 -0.496475 -0.155400 0.006879 -0.652870 0.055748 0.289894 -0.291532 0.361014 0.309249 -0.053932 -0.627241 -0.171033 -0.199848 0.157231 0.415371 -0.220019 0.312042 0.215047 -0.287119 0.217383 0.065627 -0.401268 0.251801 0.090473 0.208099 -0.779143 -0.295482 0.277559 -0.098491 -0.810081 -0.067990 0.256387 0.129340 0.358333 -0.131952 0.384643 -0.571635 -0.206776 0.205418 -0.079665 -0.030511 0.177454 -0.071637 0.369002 0.099227 -0.124360 0.517545 0.010484 -0.159580 0.530052 0.114204 -0.489918 0.090626 0.155838 -0.082295 -0.197735 -0.228184 -0.049706 0.232758 0.010849 -0.100000 0.166123 -0.173630 0.311644 0.099278 -0.071159 0.258865 -0.634510 0.467023 -0.517822 0.197602 0.496980 0.150342 -0.465456 0.252008
влияние 0.409282 0.136012 0.039087 -0.321008 0.057127 0.659440 -0.270658 -0.064620 0.399056 -0.175944 0.072304 -0.529932 0.007488 0.001208 0.226523 -0.571024 0.612997 0.549766 0.187812 -0.108288 0.095023 -0.050250 -0.082464 0.394959 0.262976 -0.428398 -0.030987 0.041720 0.123638 0.278024 0.030967 0.387037 0.436516 0.224729 -0.277959 0.351005 -0.084947 -0.359616 -0.134413 -0.237377 0.398330 0.049764 0.400940 -0.528628 0.082092 0.201074 0.058010 0.045416 -0.726267 0.063311 0.378063 -0.356318 0.054181 -0.291365 -0.306002 0.513346 -0.643108 -0.062315 -0.175131 0.835943 -0.088138 0.323471 0.522593 0.228820 0.233178 0.119990 -0.793176 0.513100 0.220552 -0.143530 0.112996 -0.333373 -0.123751 0.525455 0.533111 -0.431349 -0.373867 -0.710967 0.401419 -0.127850 -0.025584 0.140743 0.192475 0.145355 0.247583 0.036490 -0.179281 -0.102362 0.703520 0.234139 0.102783 0.460350 -0.177103 0.014029 -0.337999 -0.285277 -0.334320 0.008827 0.008467 -0.097203 -0.428000 0.290268 -0.087448 0.377034 -0.085301 -0.221103 0.675024 -0.311295 -0.318989 -0.317883 -0.157238 0.426306 -0.064634 0.086485 -0.189242 0.215681 0.242229 -0.276189 0.206562 -0.332394 -0.139279 -0.147274 0.408534 -0.564457 -0.940001 -0.143636 -0.207512 0.400223 -0.049051 -0.049148 -0.085130 0.119675 0.021490 0.262276 0.501383 -0.197803 -0.013906 0.180014 0.411330 0.264950 -0.175316 -0.133876 0.303402 -0.132478 -0.299304 0.054024 0.278008 -0.366128 0.262154 -0.195017 0.311460 -0.156927 0.025959 0.208290 -0.248009 0.246250 0.967074 -0.141159 -0.226097 0.005237 0.534375 -0.318499 0.200218 -0.488944 0.490853 0.430925 0.504472 0.110138 0.070530 -0.478120 0.498159 0.167777 -0.019600 -0.134445 -0.107487 0.116511 0.436787 -0.215788 -0.311054 0.114239 0.664899 -0.407856 0.153362 0.268552 0.130529 0.281218 0.433360 0.102695 0.546679 -0.307988 0.009790 0.451360 -0.017723 0.093637 0.097829 0.047449 0.074013 0.345089 -0.120302 0.363965
при 0.432759 0.034731 -0.410583 0.041950 0.593257 -0.434184 -0.224534 -0.540925 0.579755 -0.332399 -0.136187 0.268577 -0.694641 -0.242221 0.700798 -0.203869 0.390610 -0.242595 -0.804200 0.414774 0.239431 -0.636435 0.042371 0.148455 -0.222847 -0.113980 -0.306025 -0.091164 -0.390977 -0.236200 -0.054196 0.015317 0.017709 0.040068 -0.645013 0.626787 -0.054302 0.169477 0.445260 0.009273 -0.487570 0.293655 -0.251369 -0.127034 -0.200404 -0.095022 -0.011766 -0.032210 -0.259284 0.251191 0.091008 -0.700278 0.445164 0.104785 0.473636 0.213774 -0.223496 0.211777 0.683882 0.378642 -0.290222 -0.552237 0.365477 -0.352633 0.211610 -0.220593 -0.297562 0.628413 0.523656 -0.362243 -0.399120 -0.203404 -0.091293 -0.349777 0.029462 0.386023 0.315008 -0.517746 0.081413 0.156224 -0.010911 -0.108773 -0.413119 -0.782805 0.042134 -0.224531 0.032243 -0.365309 -0.576247 -0.773840 0.449849 0.569326 -0.139251 -0.229320 -0.212492 0.167149 -0.464707 -0.344552 -0.040420 -0.043688 0.651462 0.358197 0.321805 -0.369354 0.056924 -0.211501 0.232693 -0.229174 0.153319 0.252955 -0.115206 -0.363281 -0.148752 -0.351264 0.106000 -0.298865 0.379909 -0.209763 -0.821663 -0.244053 -0.219161 -0.174129 1.038652 -0.043304 0.162505 -0.066043 0.072646 0.254605 -0.409265 0.037485 -0.155408 0.216147 -0.203870 0.153417 -0.422862 0.115981 -0.129730 0.155073 0.394592 -0.287763 0.071536 0.303745 -0.299792 -0.000086 0.084473 -0.347621 0.112573 -0.168480 -0.002211 -0.218847 -0.378717 -0.123116 0.137719 0.323165 0.267428 0.247191 -0.061218 0.096472 0.139202 -0.409003 0.052638 -0.268612 -0.597970 -0.327077 -0.273693 -0.305300 0.629821 -0.404260 0.023052 0.203792 -0.234621 -0.027300 0.174201 -0.082370 0.367953 0.169653 -0.327207 -0.100650 0.303109 0.450464 -0.060884 0.135684 -0.250103 -0.096609 -0.227275 -0.374534 -0.211227 -0.300476 0.011483 0.290659 0.211460 0.401945 -0.362025 0.247892 -0.690572 -0.377525 0.125780 0.249341 0.112601 0.847443
операция 0.145294 -0.149865 0.069616 0.232383 0.119143 -0.639879 -0.290701 0.029701 -0.564625 0.519217 -0.196421 0.737416 0.006278 0.041130 -0.311127 0.500059 0.031234 0.048734 0.119452 -0.113478 -0.355008 -0.583592 -0.268552 -0.518937 -0.294857 0.368459 0.144710 -0.366960 0.186082 0.499409 0.177131 -0.190044 0.230376 0.507028 0.929383 0.708339 0.097740 0.578882 -0.053754 -0.163353 -1.112092 -0.356060 0.046357 0.341646 -0.070090 0.038087 -0.216131 -0.461387 -0.299624 0.343699 0.040995 -0.046061 -0.006231 0.025044 -0.053614 0.310130 -0.204503 0.078276 0.174514 0.327626 0.157707 -0.623490 -0.301461 -0.445271 -0.199721 0.014630 -0.146966 -0.204718 -0.320853 0.166071 -0.367811 -0.002351 -0.326174 -0.986034 -0.305564 0.517632 0.283287 0.015600 0.124937 0.381738 -0.270921 0.195051 -0.504100 -0.692512 0.270655 -0.181545 0.502486 -0.322361 -0.475035 -0.385448 0.189514 -0.117172 -0.135041 -0.142941 0.097200 0.658477 -0.083318 0.134196 0.204353 0.259362 -0.084349 -0.109343 0.601123 -0.352167 0.217198 -0.140811 -0.215153 -0.534016 0.061781 -0.360719 -0.185655 0.037379 -0.093808 0.539251 -0.451861 -0.867438 0.294352 0.454237 0.059275 -0.063345 0.094302 0.073046 -0.042459 0.291536 0.829459 0.136718 0.580098 -1.082320 0.437806 -0.407775 -0.249609 0.514046 0.074394 -0.065061 0.376731 0.307084 0.395643 0.379075 -0.586950 0.254207 0.103054 0.134092 -0.533892 -0.073991 -0.298893 -0.082001 0.153317 0.216070 -0.302113 0.535351 0.413200 0.388265 -0.658086 0.048186 0.552506 0.026712 -0.501910 0.725033 -0.676915 0.084164 0.120815 -0.255637 0.182579 -0.113466 0.317448 0.127626 -0.134843 -0.283878 0.066099 0.196832 0.326947 -0.235253 0.253314 0.145239 0.323708 0.097185 0.685980 0.301640 0.460804 -0.010872 -0.770725 -0.175368 0.157095 -0.492453 -0.167792 -0.414226 -0.166607 -1.006005 -0.654472 -0.025605 0.286483 -0.012448 0.172514 0.120267 0.468408 0.205939 -0.805784 -0.327367 0.482121 0.158221
прогноз 0.044221 -0.330619 0.362123 -0.163674 0.343916 0.378360 -0.261397 -0.487674 -0.309054 -0.227745 -0.067562 -0.092020 -0.084263 -0.163415 -0.133301 0.051884 -0.152049 0.287809 -0.210244 -0.367017 0.192059 -0.029659 0.126007 -0.033172 -0.007051 0.322367 -0.203236 -0.655898 0.029330 0.509849 0.063997 -0.612596 0.440190 0.370273 -0.161701 0.334136 0.041010 0.182460 0.385133 0.054820 -0.483666 -0.211121 0.090771 -0.365297 -0.079021 0.166727 -0.058239 -0.457002 -0.513232 -0.128823 0.067689 -0.058568 0.022689 -0.549073 -0.232396 0.117085 0.068689 -0.670697 0.550353 -0.107587 -0.659388 -0.171730 0.509468 0.271523 -0.007638 -0.030097 -0.278964 0.576564 -0.061136 -0.520961 -0.540887 -0.176874 0.321286 -0.606509 -0.075163 0.074328 0.240168 -0.381275 -0.040080 -0.408461 0.095515 -0.171020 -0.318782 0.148863 -0.308706 0.052368 -0.002978 -0.209536 -0.256551 -0.252352 0.207540 0.371694 0.371260 -0.097198 0.053831 0.217560 -0.080270 -0.314390 0.231052 0.000048 0.184446 0.292169 -0.070609 0.523644 -0.336786 -0.102184 0.022083 -0.006763 -0.047067 0.103140 0.025508 -0.169973 0.092777 -0.351786 -0.057912 0.579394 0.411908 0.092426 -0.815229 -0.057948 -0.415327 0.118311 -0.167011 -0.022849 0.312242 0.143521 0.504868 -0.422982 -0.001858 -0.169866 0.143726 -0.216246 -0.024278 0.149291 -0.015705 0.226774 0.019407 0.153855 -0.101461 0.277533 0.053176 0.239570 -0.341575 -0.440678 -0.300760 -0.386161 0.018417 0.022929 -0.065756 -0.572431 -0.166811 0.704823 -0.776999 0.159501 -0.047823 0.512567 -0.144559 -0.115102 0.266237 -0.357616 -0.090328 -0.502763 0.119145 -0.566152 0.265786 -0.377272 0.023921 0.341828 -0.201552 0.698764 -0.342398 0.144389 0.111441 0.043264 0.812241 0.178399 -0.107836 0.200339 0.373484 -0.206824 0.301383 0.386126 -0.139509 0.259551 -0.536653 -0.242833 -0.402454 0.161838 0.214435 -0.044028 0.010422 0.602807 0.204754 0.485005 -0.538179 0.274547 0.333373 0.066883 0.862908 0.720108
процентный 0.209971 0.011172 -0.356703 -0.002374 0.365066 -0.300586 0.053490 0.084803 -0.027354 0.418674 -0.197356 -0.026448 -0.303140 0.026146 0.242080 -0.089250 0.186913 0.157709 -0.215146 0.014974 -0.517956 -0.378671 -0.381861 -0.024564 -0.182996 -0.017627 0.343871 -0.324115 0.442515 0.521372 0.303378 -0.145766 0.468856 0.330498 0.860687 0.390030 0.033337 0.258358 -0.147373 0.151550 -0.561922 0.039504 -0.663433 0.046020 0.080219 0.114223 0.282607 0.069231 -0.209974 0.690979 0.155783 -0.243638 0.226555 0.261408 0.060196 0.261666 -0.612310 0.322939 0.619835 0.329463 0.504967 -0.304968 0.171285 -0.449928 -0.410390 -0.279804 -0.450259 -0.389842 -0.454469 0.243687 -0.418171 0.128315 -0.257614 -0.768720 -0.095912 0.214156 0.326498 -0.036772 0.223935 0.401712 -0.213335 -0.084693 -0.353350 -0.746283 0.099673 -0.105240 0.252228 -0.401310 -0.782949 -0.230442 0.421483 0.419071 0.301959 -0.440728 0.152540 0.281464 0.002468 0.260451 -0.293514 -0.002612 0.014237 -0.015417 0.112399 -0.074843 0.119309 -0.382269 -0.363181 -0.318765 -0.339194 -0.380683 -0.059149 0.037328 -0.099428 0.373861 -0.102716 -0.368653 0.237848 0.459404 0.024109 -0.073036 0.103421 -0.115339 -0.464866 -0.185733 0.358786 0.335298 0.579979 -0.575000 0.213536 -0.368316 -0.636844 0.253963 0.492258 -0.338046 0.413905 0.409685 0.634002 0.409888 -0.741836 0.088187 -0.060548 0.145682 -0.363810 -0.425009 -0.302039 0.247459 0.569064 -0.519633 0.056601 0.502011 0.209964 0.466482 0.278598 0.743395 0.736287 0.292315 -0.428577 1.034647 -0.726298 0.215156 0.214407 -0.092300 -0.247350 -0.150541 0.392358 0.317799 -0.085301 -0.293779 0.525282 -0.117715 0.469040 -0.509006 0.089634 -0.013960 0.009331 0.096194 0.467111 -0.145931 0.417213 0.301091 -0.098390 -0.452678 0.125312 -0.138830 0.039385 0.234564 -0.192176 -0.718053 -0.032378 -0.438831 0.327187 -0.190172 0.149946 0.233171 -0.016728 -0.188670 -0.443198 -0.372367 -0.002497 -0.070601
это -0.039727 -0.166912 -0.472584 0.124747 0.511197 -0.297413 -0.149176 0.197300 0.165704 -0.125803 -0.320920 0.088073 0.236083 -0.261073 0.290918 -0.246919 0.291212 0.244880 -0.257471 0.321498 0.144140 -0.264815 0.071204 -0.004925 -0.139561 -0.631725 0.032582 0.183365 0.022761 -0.405969 0.108573 -0.051381 0.223119 -0.276910 -0.342514 0.119191 0.000924 -0.013856 0.204794 0.107426 0.130458 -0.044963 -0.119327 -0.512117 0.150876 0.128247 0.169148 0.223689 -0.231794 -0.013580 0.169960 -0.416295 0.690468 0.305413 0.123415 0.117114 -0.461018 -0.110837 0.289085 0.568979 -0.331348 0.024090 0.275743 -0.239003 0.287736 -0.148915 -0.491099 0.386233 -0.020286 -0.209902 -0.316856 0.051204 0.069098 0.146053 0.198126 -0.143680 0.420170 -0.308321 -0.026343 0.297230 0.266394 -0.265370 0.072490 -0.547234 0.012007 -0.043243 -0.093624 -0.503938 -0.374634 -0.316722 0.008359 0.453945 0.233511 0.101440 -0.206904 0.065798 -0.300498 0.175417 -0.301775 0.167709 0.434986 0.185534 0.163198 -0.301962 -0.235893 0.179544 0.152200 -0.449484 -0.480615 -0.082712 0.228361 -0.340482 -0.325580 -0.475076 0.082423 -0.176491 0.619818 -0.338874 -0.250353 -0.219090 -0.191996 0.249066 0.475308 0.072177 -0.094040 0.440796 -0.523252 0.108677 -0.134226 0.320549 -0.281585 -0.207624 0.040429 -0.149323 -0.099844 -0.398289 -0.045798 0.081008 0.126600 0.167266 0.100554 -0.034379 -0.123789 -0.012220 0.004046 0.090259 0.073408 -0.058733 -0.063604 -0.540731 -0.090358 -0.491534 0.111508 0.117961 -0.160036 0.060324 0.113362 -0.166142 -0.012462 -0.010086 -0.024417 -0.065148 -0.408763 -0.398486 -0.094898 -0.507414 0.092278 -0.388964 0.140610 0.388951 0.224427 -0.144743 -0.038246 -0.326152 0.102767 0.138420 0.102764 -0.061132 -0.189894 0.563275 0.148492 0.201298 0.214723 -0.232487 -0.018049 -0.123005 0.100050 -0.056365 0.288612 0.082635 0.149230 0.316088 -0.413757 0.142141 -0.437670 -0.422706 0.088837 0.370946 0.116198 0.341518
дальнейший 0.552349 0.120769 0.215129 -0.313324 0.211759 0.268966 -0.215538 -0.315008 0.440015 -0.152026 0.313659 -0.334315 -0.526128 0.132920 0.305162 0.074461 -0.146409 0.215170 -0.013054 -0.014209 0.204046 0.103700 0.349525 -0.256586 -0.070974 0.140595 0.148347 -0.021323 0.030687 0.180213 0.519282 -0.583790 0.155369 0.166836 -0.087330 -0.419613 -0.103282 -0.341539 0.153750 0.137600 0.343283 0.013188 0.475844 -0.303027 -0.012429 0.397289 0.335125 0.107365 -0.394750 0.358477 -0.028885 -0.295986 -0.158418 -0.219192 -0.115696 -0.162463 -0.088277 -0.320542 0.337042 0.340115 -0.332539 0.255091 1.193977 0.100376 0.334905 -0.422887 -0.195370 0.336037 0.449864 -0.391180 -0.101488 -0.111000 -0.243753 -0.395408 -0.083094 0.246685 0.071457 -0.031641 -0.372676 0.182425 -0.184260 -0.193393 0.017908 -0.380486 0.310312 0.236622 -0.510881 0.180476 -0.069118 -0.069956 0.172387 0.106114 0.323415 0.020958 -0.115806 0.271922 0.013258 -0.377522 -0.606806 -0.202583 -0.152893 0.437354 -0.290761 0.128595 -0.002903 -0.361009 -0.065037 0.265459 0.038828 0.118865 -0.078223 0.363729 -0.185558 -0.305000 -0.083707 0.083931 0.248054 0.025400 -0.806889 0.358275 -0.100159 0.097465 0.251391 -0.024592 -0.327110 0.479934 0.685321 0.601100 0.329149 -0.023037 0.230809 -0.177273 0.346926 0.279951 0.172599 0.218253 0.232260 -0.328919 0.229352 -0.158243 0.127245 -0.239610 -0.196275 -0.423254 -0.277453 -0.256070 0.388107 0.194274 -0.226074 -0.371730 -0.462102 0.293277 0.118739 0.080521 -0.530160 0.559498 0.381196 0.167959 0.359422 -0.150527 0.024784 0.191093 -0.322422 -0.411979 0.101555 0.471785 0.046521 -0.080736 -0.052626 -0.081340 -0.228067 -0.069546 -0.069935 0.595557 0.471574 0.078652 -0.054980 0.038239 -0.050393 0.229966 0.126578 -0.085211 -0.369811 -0.120679 -0.163382 0.005681 -0.238470 -0.348258 0.595398 0.131218 0.284081 0.196554 -0.013503 -0.147887 -0.207315 -0.187137 0.074241 -0.496746 -0.094903 0.792157
оставаться 0.114688 -0.405966 0.063188 -0.150177 0.127580 -0.174742 0.063403 -0.224703 -0.178541 0.184923 -0.175705 -0.599532 0.477130 0.111855 0.436552 0.272619 0.336463 -0.302079 -0.073432 0.079765 0.272912 0.190670 -0.087839 -0.021056 0.115602 -0.368945 0.103006 0.129687 0.182317 0.007872 0.156158 0.040105 -0.394120 0.330265 -0.586277 -0.319379 0.620818 -0.193549 0.276024 0.168118 0.291637 0.239999 0.002495 0.347699 -0.260140 -0.166385 -0.142271 -0.396031 -0.355145 0.113072 -0.257014 -0.076602 0.000228 0.334691 -0.326279 0.235927 -0.516295 0.266514 0.510233 0.076189 0.042826 0.136625 0.188858 -0.040280 0.299299 -0.076125 -0.132013 0.255683 -0.362588 -0.371623 -0.366883 -0.120273 -0.177452 -0.204724 0.572486 -0.229161 -0.238038 -0.510631 0.485095 0.359710 0.018108 -0.613003 -0.592979 -0.176726 0.018325 0.085792 -0.385730 0.343883 -0.199900 -0.753398 0.660313 0.670647 0.102453 -0.279124 -0.129029 -0.426729 -0.264903 -0.253849 -0.256066 -0.051083 0.256202 0.089365 -0.555906 -0.093422 0.084798 -0.125047 0.039934 -0.080231 -0.114834 -0.276181 0.399393 -0.296611 -0.285520 -0.494290 0.053183 0.149981 0.186021 -0.079560 -0.714623 -0.305997 -0.294170 0.123484 0.282660 -0.658453 0.145087 -0.173713 -0.130879 0.083886 -0.367013 0.183887 0.556736 0.138327 -0.041221 -0.358696 0.193508 -0.484425 0.049563 -0.031207 -0.305731 0.329974 -0.206385 -0.009834 -0.166483 0.148496 0.317217 0.113083 0.113415 0.008018 -0.263960 -0.530392 0.016063 -0.328499 0.337153 0.297608 -0.220582 0.397396 0.103828 -0.094364 0.457759 -0.403740 0.137723 0.440687 -0.311117 -0.328553 0.349448 0.129295 0.388235 -0.287869 0.115052 -0.206208 0.081420 0.247170 -0.209574 -0.328451 0.547312 -0.187930 -0.393237 -0.250664 -0.087953 0.002695 -0.100324 0.302475 0.123903 -0.108748 -0.439008 0.312497 -0.186455 0.262867 0.124193 -0.062612 0.268063 0.182249 -0.157084 -0.178553 -0.656426 -0.300892 0.404050 0.340239 -0.192569 0.469612
политика 0.083314 0.006786 0.280635 -0.089198 0.539019 0.488182 -0.062316 -0.205691 0.126685 -0.034991 -0.118187 0.133359 -0.234249 -0.031054 -0.177290 0.041152 -0.147689 0.155316 0.095737 -0.055371 -0.064986 0.079672 0.526859 0.015136 0.093344 0.084512 -0.260564 -0.743185 0.418259 0.156228 -0.348363 -0.196353 0.048626 0.353940 0.223754 -0.202871 -0.107589 -0.371171 0.027182 0.013658 -0.076810 -0.479967 0.075360 -0.172204 0.607061 0.022680 0.275911 0.269500 -0.948891 0.354133 0.264094 -0.089285 0.235778 0.444305 -0.211330 0.021955 -0.381080 -0.174377 0.437787 0.514467 -0.211191 0.415448 0.262083 0.386265 0.124122 -0.819546 -0.276949 0.371719 -0.107115 -0.304392 0.133824 -0.160857 0.349295 -0.128575 0.128294 -0.215350 0.118339 -0.277493 0.565373 0.084618 -0.036873 0.539860 0.530279 -0.181744 0.018515 0.650842 -0.465640 -0.101101 0.060862 -0.089877 0.091863 0.912793 0.411493 -0.045151 0.306297 0.161140 -0.035971 -0.376024 -0.885298 0.349243 -0.179139 0.440046 0.282456 0.470529 -0.336403 -0.049952 0.275727 0.184205 -0.677825 -0.113363 -0.384507 -0.210397 0.072553 -0.353209 -0.239500 0.251473 0.306379 0.131083 -0.486386 0.412812 -0.086165 -0.113036 -0.164586 0.036043 0.292349 0.625484 -0.041685 -0.028172 0.082537 -0.493959 0.151813 -0.429392 -0.135693 0.007975 -0.331087 -0.525696 -0.085224 0.021460 -0.288722 0.178886 0.291038 -0.013057 -0.102232 0.037628 0.127508 0.249318 0.473769 -0.430174 -0.152646 -0.157534 -0.262678 0.030246 0.148764 0.248167 0.328793 -0.046670 -0.720740 -0.201637 0.064978 -0.407858 0.142783 -0.801525 -0.132396 0.203373 -0.164606 0.136164 -0.061880 0.200695 -0.074373 -0.086079 0.492303 -0.189409 -0.469236 -0.233449 0.337940 -0.351887 -0.278548 0.355053 0.066753 0.238432 0.622542 0.271231 -0.254383 0.078990 0.009377 -0.242689 -0.724988 0.665280 0.250815 0.068109 -0.126380 0.406668 -0.120882 -0.145976 -0.125756 -0.259970 0.398901 -0.002586 0.262441 0.151890
мочь 0.158634 -0.022418 -0.478124 -0.251022 -0.002959 0.388878 -0.214199 0.560728 0.796147 -0.218042 -0.097557 -0.286445 0.122126 -0.372168 -0.062112 -0.462256 -0.060972 0.355933 -0.074069 -0.097141 -0.005305 0.228509 0.236987 0.627198 -0.245869 -0.316823 0.231747 0.219521 0.474157 -0.212564 0.323495 0.154697 0.047220 0.398912 -0.106996 -0.179146 -0.329146 -0.110725 -0.262193 0.046848 0.358299 -0.120597 -0.290935 -0.169948 0.258756 0.371768 -0.003324 0.053033 -0.072478 0.012736 -0.135242 -0.135968 0.111993 0.086104 -0.211947 0.324578 -0.486304 -0.163474 -0.198704 0.125573 -0.114695 0.450783 0.470051 -0.229945 -0.098053 -0.155493 -0.162723 0.144932 0.024771 -0.128169 0.113711 0.126071 0.409404 0.762167 0.553839 -0.125934 -0.343570 -0.189721 -0.040912 -0.055938 0.313097 0.190572 0.403475 0.168301 -0.033958 0.002311 -0.084756 -0.278813 0.145097 0.289785 -0.304896 0.250207 0.324426 -0.051291 0.129453 -0.008279 -0.074498 0.471748 -0.212801 0.550843 -0.320452 -0.136426 -0.764157 0.176562 -0.177474 0.107787 0.164088 -0.662887 -0.615659 -0.389029 -0.369137 0.082951 -0.270413 0.036042 0.223325 0.812171 0.188235 -0.245803 0.412095 0.069141 0.304977 0.155106 -0.262352 -0.175522 0.033572 0.094310 -0.125409 0.236217 -0.090346 -0.067559 -0.734855 -0.541241 0.333464 0.125030 0.061490 -0.630377 0.392311 0.180066 0.358921 0.216338 -0.168356 -0.049300 0.069923 -0.027639 0.254904 -0.168185 0.219610 0.026930 0.386426 -0.419178 -0.352536 -0.546250 -0.206793 0.027802 -0.186080 0.254338 0.201984 0.091628 -0.433474 -0.118969 0.399362 -0.528787 -0.268931 -0.157187 -0.244863 0.135139 -0.507987 -0.295639 -0.093126 -0.147985 0.315145 -0.313889 -0.291792 -0.740599 0.126509 -0.168879 -0.196946 -0.039859 -0.652177 0.359214 0.320210 -0.086300 0.086072 -0.112578 0.529855 0.336101 0.137566 -0.044814 0.484908 0.162306 -0.043229 0.385835 -0.159361 0.387442 0.371204 -0.269952 -0.343273 -0.211617 -0.086611 0.221778
активность 0.214359 -0.139315 -0.131968 -0.149896 0.114800 0.054607 -0.289016 0.211249 0.299271 -0.042138 -0.209445 -0.544187 0.636496 -0.227959 0.332914 -0.500088 0.292346 0.067128 -0.525882 0.514805 -0.163465 0.130699 -0.096369 0.208575 0.362409 -0.150896 0.343996 -0.070235 -0.122368 0.322760 0.577918 -0.075885 -0.182313 0.127864 -0.274035 0.145858 -0.212599 -0.324942 -0.088034 -0.231135 0.675796 0.271511 0.062714 -0.111957 0.095076 -0.153525 0.303651 0.155495 -0.038966 -0.169811 0.015012 -0.438250 0.310577 0.358767 0.400237 0.508552 -0.516061 -0.073015 0.455469 0.222009 -0.149133 -0.226456 0.418957 0.433053 0.044338 0.403936 -0.380215 0.072991 -0.648212 -0.641698 -0.546367 0.041461 -0.333581 0.189762 0.238179 -0.247226 -0.224957 -0.533503 -0.295156 0.358932 0.808743 -0.226251 -0.232033 0.169283 0.071129 0.341414 0.134394 -0.229510 -0.248616 -0.038387 -0.101372 0.394347 0.361691 -0.578124 -0.120865 -0.436875 -0.088191 0.088970 -0.184815 -0.018972 0.247050 0.064361 0.072710 -0.030946 0.040421 -0.158408 0.439273 -0.074538 -0.220015 -0.049202 0.472954 -0.020952 -0.430042 -0.416763 0.113781 0.068607 -0.118305 -0.219631 0.061149 -0.456277 0.156555 0.032831 -0.305456 -0.583047 -0.291880 0.140983 -0.163827 0.230135 -0.438507 0.022739 -0.349177 -0.106136 0.049056 0.396706 -0.059353 -0.171834 0.140918 -0.203914 -0.290515 0.034886 0.002776 0.063671 -0.363354 -0.236264 0.476555 0.123388 0.258430 0.064631 0.357185 -0.371192 -0.346470 -0.343873 0.284981 0.398167 -0.149089 0.251908 0.368765 -0.125337 0.503716 -0.165941 0.155009 0.464765 -0.258798 -0.336276 0.270156 -0.227337 0.414406 -0.023477 0.059834 0.208857 -0.052410 0.211205 -0.134583 0.020879 0.051371 0.363976 -0.514239 -0.304198 0.086000 -0.122310 0.317266 0.179118 -0.099076 0.422247 -0.254305 0.274187 -0.235742 0.183544 0.198752 -0.455116 0.154544 0.063155 -0.041220 0.464208 -0.520898 -0.172062 0.229542 0.406533 -0.154750 -0.006348
а -0.124543 -0.295323 -0.044752 0.167101 0.188869 -0.107217 -0.204387 -0.080420 0.645767 0.048780 0.619129 -0.569784 0.241163 -0.109571 0.077962 -0.137452 0.194226 0.212493 -0.195416 0.687344 -0.173195 0.038646 0.033154 0.193560 0.059805 0.295149 0.385253 0.044330 0.414757 0.132605 0.394170 -0.503045 -0.232041 -0.019586 -0.154583 -0.296475 -0.353028 -0.022707 0.120735 0.358313 0.206290 -0.068417 -0.749171 -0.671257 -0.077047 0.401187 -0.103395 -0.220309 0.129885 -0.294897 0.246203 0.008324 0.125438 -0.408274 0.438845 0.046456 -0.450850 -0.223899 0.354328 -0.246820 -0.356669 0.055619 0.105220 0.606686 0.068170 0.048777 -0.502475 -0.072611 -0.077351 -0.341339 -0.848735 -0.497531 0.014536 -0.038895 -0.286724 0.087030 -0.274510 -0.465101 -0.682583 -0.177205 0.369165 0.390710 0.132821 -0.056564 -0.233290 -0.021479 -0.430355 -0.521237 -0.418108 0.320411 0.374988 -0.216855 0.431900 -0.174257 -0.061687 0.043658 0.251730 0.155019 0.053025 0.131621 -0.287088 0.087487 -0.727693 0.128133 0.843895 0.511877 0.429529 -0.384850 0.021493 0.401485 -0.274325 0.071171 -0.052852 0.042329 0.245832 -0.229392 0.362679 -0.463283 0.085425 0.232364 -0.322442 -0.588904 -0.030060 -0.223815 0.093499 -0.079437 0.074057 -0.083609 -0.104230 -0.992930 -0.472225 0.010885 0.270556 0.315390 -0.133768 -0.160919 0.261826 -0.100911 -0.024002 -0.177457 -0.912768 0.477101 -0.099796 -0.803471 -0.342351 -0.258659 0.583505 -0.095875 0.222780 -0.270222 0.365592 -0.702111 -0.048528 0.519478 -0.396958 0.430541 -0.251614 -0.187244 0.862955 -0.021486 0.337618 -0.748154 0.125600 -0.281801 0.086414 0.084594 0.004349 0.292240 0.040413 0.177129 -0.128255 0.417778 -0.064257 -0.189312 -0.383351 -0.498864 -0.899998 -0.330359 0.458013 -0.138618 0.467850 -0.138900 -0.616927 -0.105324 -0.283965 0.096265 -0.066916 -0.028104 0.344492 -0.367298 0.003220 -0.074204 0.220808 0.477110 -0.225553 -0.306659 0.495382 0.108570 0.177168 0.336883
принимать 0.415891 -0.362548 0.397394 -0.302940 -0.229129 0.484581 -0.216652 -0.536097 -0.057337 -0.623588 0.211597 -0.011112 -0.726096 0.397195 0.259531 0.267821 0.060076 0.085380 -0.137049 -0.556942 -0.030953 -0.168899 -0.197804 -0.429097 -0.326197 0.175161 -0.222485 -0.414868 0.167076 0.075235 0.469751 -0.516108 0.756802 0.052685 -0.190693 -0.221404 0.018080 -0.354864 0.046324 0.496856 -0.496923 0.430449 -0.071088 0.053564 -0.057146 0.003275 0.204124 0.020137 -0.420157 0.346234 0.175210 0.013015 0.212390 0.103652 -0.430965 0.304835 -0.308095 -0.018943 0.088385 0.898124 0.031564 0.274291 -0.085404 0.184601 0.079390 -0.469426 -0.569771 0.353017 0.146462 -0.379395 -0.313579 0.260552 -0.033609 -0.637105 -0.243376 -0.232163 0.158493 -0.263251 0.280572 0.302294 -0.039567 0.327637 0.233828 -0.245493 -0.012983 -0.359152 -0.677745 -0.069617 -0.356726 -0.217538 0.418674 0.373252 0.276244 -0.045585 -0.521862 0.387827 -0.701667 -0.386039 -0.514892 -0.733276 -0.247502 0.873778 0.293232 0.328838 -0.370471 -0.072152 0.515705 0.580028 0.144041 0.334546 -0.117004 0.128745 0.186174 -0.144533 -0.058403 -0.579623 0.012938 -0.043672 -0.379085 0.442508 -0.311106 -0.167008 0.573014 -0.178432 0.115322 0.459917 0.192618 -0.007382 -0.250481 -0.492482 -0.038491 -0.343802 -0.395633 0.513965 -0.153057 0.243364 0.455166 0.227099 -0.008194 -0.143964 0.612298 0.042309 -0.292621 -0.553969 -0.205018 0.781784 0.450636 -0.150784 -0.720243 -0.205282 0.190172 0.344424 -0.403027 0.905036 -0.017327 0.739135 0.073039 -0.149167 -0.164744 0.033067 0.437241 -0.114223 0.349753 -0.565241 0.013318 0.356952 -0.220534 -0.093124 0.541958 0.278827 -0.126554 0.129982 0.044676 0.377888 0.061461 0.150476 0.086592 0.210264 0.197491 0.023830 -0.020096 0.060823 -0.346315 0.099861 -0.385722 0.029940 0.030655 0.255545 0.294251 0.080068 0.501263 0.138411 0.097780 -0.120731 0.020765 -0.390622 0.517246 0.203467 0.474340 0.455189
экономический 0.376288 0.157282 0.299475 -0.196396 0.145399 -0.087688 -0.354342 0.033313 0.645018 0.077654 0.193468 -0.379689 0.397679 -0.195255 -0.017452 -0.343288 0.218983 0.238551 -0.435500 0.338220 -0.214921 -0.106789 0.064349 -0.023858 0.365739 -0.100040 0.448348 -0.023476 -0.243456 0.354370 0.536400 -0.222200 -0.154898 0.249797 -0.183967 0.251424 -0.218890 -0.026243 0.172631 -0.284028 0.673494 0.480532 0.096387 0.127325 0.053598 -0.050193 0.142650 -0.025941 -0.120515 -0.077448 0.118267 -0.531236 -0.042075 0.276718 0.219748 0.309353 -0.217657 0.005576 0.462608 0.074239 -0.528324 -0.268569 0.762137 0.417773 0.204771 0.217770 -0.375236 -0.042102 -0.414357 -0.408042 -0.181888 0.051885 -0.020660 0.108550 0.497697 -0.156473 -0.261214 -0.306089 -0.245035 0.279332 0.662216 -0.096618 -0.075603 0.306334 0.063546 0.401061 -0.061434 0.032010 -0.128350 -0.013943 0.059230 0.159794 0.353591 -0.464553 -0.141794 -0.455250 -0.093395 -0.020808 -0.256824 -0.164275 0.157887 0.101241 -0.043749 0.132127 0.148040 -0.343945 0.724130 0.007768 -0.043793 -0.255218 0.370810 0.079567 -0.399233 -0.436965 0.107616 0.100319 -0.133352 -0.095787 -0.471275 -0.554152 0.119771 -0.237098 -0.217590 -0.494486 -0.009447 0.212377 0.051205 0.396068 -0.202097 0.228016 -0.354539 -0.167489 -0.015617 0.356735 0.324094 0.062995 0.150576 -0.134370 -0.319963 -0.080246 0.174663 0.120317 -0.275857 -0.209830 0.353893 0.007496 0.451046 0.058872 0.019551 -0.291005 -0.244806 -0.434906 0.083998 0.405052 -0.068289 0.574603 0.166713 -0.102219 0.505194 -0.100096 -0.019253 0.705489 -0.161034 -0.476157 0.524606 -0.003314 0.435747 0.120993 -0.132427 0.380100 -0.149333 -0.112160 -0.024910 0.149618 0.026895 0.374932 -0.375819 -0.214961 0.227137 -0.169641 0.313813 0.390491 0.011360 0.170490 -0.147951 -0.004261 -0.155853 -0.012797 0.093641 -0.759850 -0.212329 0.012659 -0.036585 0.288427 -0.542168 -0.198440 -0.035066 0.093928 0.090271 0.261185
внешний 0.271052 0.023766 -0.007861 -0.311775 0.186614 0.039283 -0.080938 -0.519334 0.264368 -0.020435 0.282628 -0.760375 -0.126668 -0.239392 0.429904 -0.200985 0.347976 0.254547 -0.648805 -0.135394 0.831329 0.402303 0.227817 0.036428 -0.425473 -0.046119 -0.344902 0.393553 0.197209 0.212671 0.089847 0.050728 -0.322136 0.372360 -0.021624 0.189020 0.107430 -0.191297 0.057291 0.468548 -0.370282 0.241035 -0.436056 -0.159275 -0.567136 0.006573 0.019704 0.407594 0.003359 -0.149231 0.274182 0.129690 -0.134676 -0.484570 -0.055850 0.048517 -0.185129 -0.380164 0.014950 -0.265135 -0.106381 -0.104423 0.518134 0.643145 -0.047210 -0.106197 -0.622854 0.440871 -0.190976 -0.060253 -0.290505 -0.237618 -0.220608 0.223206 0.143029 0.065108 -0.119170 -0.594992 -0.149530 -0.161261 -0.003391 -0.066747 -0.190082 -0.145943 0.314980 0.175499 -0.096905 0.087874 0.113398 -0.042885 -0.289757 -0.074494 -0.043984 0.113105 -0.311997 -0.204583 -0.139523 0.327265 -0.084533 0.202340 -0.433355 0.134170 -0.398364 0.103502 0.143310 -0.334494 0.039442 -0.071264 -0.348781 -0.139936 0.021877 0.425989 0.017681 0.008870 -0.091193 0.554886 0.356255 0.032024 -0.627180 0.097313 0.280651 -0.011106 0.390606 -0.575402 -0.461671 -0.228530 0.348310 0.171587 -0.589322 -0.256279 -0.205710 -0.007328 -0.182581 0.263661 0.298148 0.257405 0.173571 -0.133420 0.527528 0.178014 -0.351954 0.223148 -0.104610 -0.448024 -0.198754 -0.122261 0.405176 -0.036069 0.475827 -0.066590 -0.147529 0.235219 -0.016325 0.175895 -0.262948 0.228943 1.084686 0.180054 0.012672 0.492844 0.305679 -0.256430 -0.021853 -0.256600 -0.241164 0.249261 0.341987 0.314504 0.015150 -0.166249 -0.205002 0.121149 0.485400 -0.080461 -0.315649 -0.201341 -0.448346 -0.288421 0.112213 -0.292621 0.047061 -0.516395 -0.377579 -0.041301 -0.242967 0.277446 -0.123735 -0.024545 0.323014 -0.095220 -0.153292 0.147308 -0.379656 0.729806 -0.462526 0.095560 0.245922 0.093821 -0.462352 0.327255
время 0.025237 0.069111 0.085658 -0.305532 -0.004641 0.232728 -0.172522 -0.046860 -0.507534 -0.294812 -0.026762 0.219308 -0.440543 0.059840 0.399560 -0.052184 0.393021 -0.085944 -0.742964 -0.510012 -0.113373 0.035057 -0.360967 0.116666 -0.434453 -0.296832 0.182997 -0.701910 -0.264500 -0.143316 0.078742 0.132529 0.480130 0.156198 0.328580 0.578539 0.034002 0.562318 -0.073002 0.036098 -0.631730 0.334712 -0.534540 0.632166 0.268718 -0.011323 0.296664 -0.056879 -0.244818 -0.030895 0.148967 -0.109363 0.181688 0.357603 -0.007091 0.388538 -0.405337 -0.033581 0.782497 0.290360 0.363566 -0.164917 0.605542 -0.395028 -0.285926 -0.240218 -0.193796 0.363202 0.243490 -0.378416 -0.181907 0.038345 0.290854 -0.327201 0.047942 0.013787 0.279078 -0.759130 0.412386 0.171778 0.237826 0.116207 -0.101129 -0.042991 -0.537869 -0.382896 0.192940 0.110033 0.023882 -0.073234 0.146901 0.794786 -0.416434 -0.336531 -0.277873 -0.128758 -0.477642 0.230079 0.044129 -0.003011 -0.134568 0.304670 0.041686 0.244055 -0.021489 -0.378974 -0.096404 -0.450807 0.107875 -0.219887 0.386472 -0.317966 0.541365 -0.178365 0.084590 0.443610 0.036990 0.580862 -0.080691 -0.271544 -0.189824 0.498191 0.391920 -0.379770 0.389832 0.178264 0.259185 -0.496403 -0.195745 0.121532 0.361526 0.268909 0.337051 -0.010806 0.283243 0.387773 -0.026732 0.845774 -0.023535 -0.029582 0.301009 0.212137 -0.181129 0.313369 0.189961 0.149994 -0.298775 -0.254535 -0.034845 0.066808 -0.454114 0.265340 0.116927 0.402554 0.314597 0.117596 -0.146994 0.325687 -0.770855 -0.107587 -0.296247 -0.118016 -0.575836 -0.293223 0.296102 -0.310365 0.351856 -0.310323 0.011885 0.305578 -0.192196 -0.469558 0.171931 -0.081930 0.128057 -0.034332 0.312938 -0.001012 0.486970 0.766633 -0.436011 -0.139817 -0.046490 0.461375 -0.017508 0.095960 -0.305301 -0.138890 -0.081660 -0.128602 -0.308957 0.217740 0.024355 -0.494195 -0.171336 -0.090185 -0.222960 0.442739 0.552006 -0.087171
от 0.181458 0.027809 -0.143272 0.272234 0.284768 0.116432 0.326796 0.326387 0.832597 0.022363 0.289434 -0.512396 -0.018144 -0.347922 -0.254090 0.143949 -0.385080 0.226898 0.203357 0.066928 -0.134593 -0.217913 0.219734 -0.076493 -0.219704 -0.170575 -0.175925 0.272797 0.923468 0.525278 0.136362 0.386971 0.195136 0.155311 0.186960 -0.186746 -0.127755 0.198730 0.212854 -0.337026 -0.446998 -0.689050 0.015768 -0.212281 -0.159884 0.133656 0.372432 -0.092677 -0.439286 0.409409 -0.276722 0.379828 0.110149 0.073240 -0.455951 0.100017 0.006589 -0.071253 -0.403409 -0.126869 0.109136 -0.043660 -0.430643 -0.246978 0.172918 -0.106894 -0.397632 -0.437715 -0.224951 0.283424 -0.366527 0.105121 0.028214 -0.523537 -0.027605 0.306791 0.021265 0.160360 0.158159 0.324298 -0.181894 -0.059349 0.210981 -0.681873 0.791840 -0.097892 -0.510173 -0.064674 -0.169100 0.065205 -0.147770 0.129435 0.496752 -0.058957 0.625953 0.019363 -0.460549 0.016576 -0.082015 -0.110488 -0.007865 0.056239 -0.023366 -0.016066 0.212394 0.120048 0.119497 0.219115 -0.565476 -0.598182 -0.200129 0.199723 -0.145653 0.409021 -0.036742 -0.091518 0.408082 0.002193 -0.224587 0.424215 -0.143979 -0.682322 -0.284154 -0.010340 0.327164 0.373574 0.461901 0.076938 0.116547 -0.433007 -0.810696 -0.328192 0.091622 0.056070 0.133152 0.007226 0.393353 0.146371 -0.374618 0.384458 0.140982 0.456698 -0.281440 -0.351572 -0.412153 0.106373 0.766989 -0.293659 -0.539164 0.277073 0.485036 -0.035246 -0.347129 0.098064 0.089831 0.287473 -0.355386 0.199935 -0.614272 0.490931 0.375548 -0.571662 0.181062 -0.110174 0.268239 0.038309 -0.007888 -0.236075 0.417944 0.102019 0.241751 0.164767 -0.108285 -0.320442 0.330528 0.082945 -0.110544 0.436728 0.083411 -0.435964 0.102700 0.271834 0.292194 -0.081354 0.185126 -0.339080 0.174955 -0.261102 0.223456 0.210665 0.373940 -0.058349 0.277980 0.101221 0.319947 -0.234608 -0.230159 -0.550959 0.159243 0.386429
