в 0.321417 0.640774 -0.886067 0.004329 -0.281632 -0.469004 0.344559 0.001719 0.912395 -1.103843 0.207669 0.766191 0.823317 0.707032 0.840879 0.066434 -0.840208 0.178687 0.278374 0.373224 0.173990 -0.335534 0.375014 -0.443119 0.041135 1.685016 0.224766 0.144770 -0.408091 -0.490207 0.022747 -1.183097 0.341307 0.671355 0.332278 -0.713413 -0.624221 -0.151288 0.049339 0.184856 0.238356 0.641849 -0.560304 0.128832 0.009048 -0.139346 -0.314524 0.414296 -0.555735 0.824724 0.667089 0.491500 0.846984 -0.417694 0.490208 -0.352071 -0.174589 -0.236246 0.279574 -0.066219 0.754308 1.038514 -0.000820 0.692842 0.049948 -1.370762 0.740529 -0.847581 0.449095 0.247773 0.222618 0.494872 -0.282664 -0.269259 0.261112 0.420080 0.485640 0.078477 -0.604650 -0.271708 0.237553 -0.998504 0.625713 0.388989 -0.779791 0.189830 0.407620 0.246910 -0.427249 -0.262855 -0.825103 -0.093851 0.326735 -0.275209 -0.066957 -0.262451 0.136274 0.900303 0.659570 0.500826
на 0.598157 0.164332 0.529827 0.438574 0.132468 -0.374100 0.390377 -0.678120 -0.316540 -0.601588 0.499606 -0.634106 0.223661 -0.337044 0.543549 0.258519 0.153960 0.236840 -0.195020 0.788892 0.632241 -0.790728 0.502586 0.296345 0.904963 0.994070 0.418736 -0.398801 0.972485 -0.854104 -0.816723 -1.122503 0.286234 1.263978 0.387901 -0.562476 -0.165370 -0.686480 0.148220 -0.026710 -0.769344 0.612747 0.697844 -0.738953 0.957791 -0.321028 -0.520107 0.536920 -0.242000 1.052982 0.577283 -0.067540 -0.743363 -0.113014 -1.006937 0.070685 -0.110833 -0.022530 -0.054685 0.560702 0.374491 1.330452 0.688752 -0.075775 0.168778 -0.209278 0.176315 0.285756 0.332269 -0.501392 0.124798 -0.074358 0.147275 -0.048591 0.057139 -0.016751 0.413989 0.063443 -0.091524 -0.451750 -0.047885 0.171370 0.238616 0.686298 0.216614 0.616234 -1.105603 0.141225 -0.131958 0.290836 -0.091681 -0.858643 -0.203082 -0.520081 -0.379703 -0.034684 -0.101553 0.666533 -0.398046 -0.393970
и 0.774666 0.515097 0.323888 0.394939 -0.592384 0.085800 -0.085644 -0.504476 0.274895 -0.507123 0.462632 0.263922 0.436457 0.969367 -0.411948 -0.097972 -0.826726 -0.425237 -0.230375 0.176288 -0.888986 0.485174 -0.436058 -0.101021 1.363577 0.708355 -0.550662 0.092416 0.222138 -0.416872 0.252351 -0.424979 0.593146 0.524550 -0.599021 -0.006495 0.411942 0.537088 -1.222142 -0.167744 -0.448503 0.721567 0.174152 -0.664506 0.481070 -0.660552 0.166143 -0.322581 -0.510452 0.524670 0.025969 0.096329 0.723537 -0.354659 0.101068 -0.248165 0.033769 0.505020 0.289856 0.049649 0.544551 0.514080 0.311634 -0.693247 -0.001116 -0.246038 0.498736 0.661547 0.597354 -0.285321 0.316285 0.655013 0.064170 0.078227 -0.791925 0.289691 0.017843 0.566435 0.646213 0.052538 0.086701 -0.844151 0.739077 0.947677 -0.533731 0.129106 -0.604556 -0.156178 -0.526971 0.416464 -0.150976 -0.394326 0.426949 0.242312 0.364429 -0.369040 -0.235952 0.935515 0.266006 -0.208630
банк 0.477187 0.207417 -0.129495 0.336653 -0.091422 -0.961806 0.619319 -0.592748 -0.298647 -0.775448 0.147758 -0.408438 0.771783 -0.024712 -0.286595 0.719266 -0.337934 -0.142130 0.293041 0.384381 -0.405840 -0.064798 -0.405488 0.198222 -0.360080 -0.089270 0.752420 0.576836 0.212953 -0.833462 0.204506 -0.969591 -0.128110 0.511950 -0.077217 0.276538 0.757339 -0.075557 -0.344765 -0.246906 -0.375792 0.252582 -0.489954 -0.413544 -0.252192 0.846324 -0.680822 0.541404 0.084823 1.200964 0.016597 0.363676 0.699420 -0.652320 0.657785 0.054512 -0.120405 0.516555 0.014728 -0.264765 0.623350 0.383813 1.199828 0.499962 0.414151 -0.462498 0.459510 -0.290878 0.438460 -0.314450 -0.235858 0.989385 0.456215 -0.552708 -0.342081 -0.733186 0.872627 -0.531476 0.655846 0.210705 -0.727692 0.505428 0.642382 0.420083 -0.388792 -0.098409 -0.892655 -0.343102 -0.224930 0.895529 0.564148 -0.472061 -0.430488 -0.227037 -0.222537 -0.177887 0.337031 0.992524 0.070226 -0.177433
россия 0.296490 -0.185112 -0.226623 0.108973 -0.104588 -1.116192 0.578077 -0.466926 -0.204669 -0.888856 0.053625 -0.615765 0.702688 -0.271353 -0.285249 0.928681 -0.284211 -0.109379 0.194957 0.554439 -0.370173 -0.013956 -0.235270 0.189317 -0.522128 0.029569 0.596151 0.554899 0.359507 -0.498288 0.228439 -0.721536 -0.206663 0.590335 -0.025201 0.362378 0.869793 -0.118710 -0.376180 -0.455633 -0.405816 0.288421 -0.722535 -0.258602 -0.167493 0.892863 -0.736447 0.681016 -0.024418 1.195034 0.082832 0.255549 0.676149 -0.535433 0.814167 0.141219 -0.053525 0.331239 0.028056 -0.108032 0.681023 0.375880 1.247100 0.551519 0.499527 -0.638666 0.522147 -0.041640 0.457001 -0.342945 -0.149606 0.980946 0.523569 -0.666386 -0.192269 -0.566695 0.899743 -0.653601 0.709841 0.023268 -0.600946 0.401124 0.733143 0.542781 -0.423644 -0.201667 -0.682221 -0.305923 -0.183729 0.938131 0.446231 -0.472056 -0.608025 -0.349798 -0.284405 0.069514 0.423314 1.003737 0.135837 0.045357
год -0.764860 0.025601 0.138976 0.771691 -0.381387 0.093231 0.747467 -0.514163 0.011925 -1.413526 1.258504 0.092874 1.419942 0.105743 0.313392 0.029628 -0.483275 0.004353 0.892514 0.309090 -0.053632 -0.968479 0.109094 0.328775 0.521177 0.569505 -0.094141 0.310250 -0.288124 0.029455 0.124832 -0.237301 -0.470352 0.572625 0.078035 0.463409 0.634157 -0.086506 0.220296 -0.061092 0.066749 0.257939 0.059709 -0.204203 0.154676 -0.029310 -0.752822 0.759270 -0.884048 1.182243 0.339651 0.139365 0.595465 -0.137619 -0.309718 0.006603 -0.076466 0.144862 -0.170077 0.328480 0.160514 0.762830 -0.081194 0.676819 -0.384699 -0.957431 0.217682 0.101052 0.148151 0.264362 0.442435 0.071606 0.342018 -0.397988 -0.384122 0.027150 1.082293 -0.165920 0.455275 -0.057037 0.076057 0.285409 0.855205 0.410326 0.089636 0.617898 0.245358 -0.460488 -0.885705 -0.068473 0.581122 -0.590813 -0.106764 -0.370604 -0.244454 0.241196 0.155740 0.918509 0.503367 -0.067051
ставка -0.441837 0.247432 -0.728927 0.633944 0.329533 -0.364954 0.705795 0.364475 -0.185078 -0.660061 0.033845 -0.323271 -0.268555 -0.049243 -0.917617 0.629693 -0.414543 -0.073232 -0.381691 0.231538 -0.071997 0.548740 -0.234707 0.177648 0.328440 -0.192338 0.060052 0.297744 -0.046955 -0.987207 -0.593034 -0.162633 0.258788 -0.128860 -0.194836 -0.761956 0.348898 -0.778256 -0.816544 0.330329 -1.318412 0.827825 0.169112 0.334520 0.059341 0.587687 -1.287641 0.826097 -0.070503 0.358794 0.715063 0.759438 -0.052698 0.442949 -0.231776 1.062925 0.380682 0.449770 -0.011320 -0.348090 0.568982 0.260193 0.457426 -0.034814 0.416947 -0.960164 -0.441985 -0.305073 0.544777 -0.984276 -0.489117 0.629719 0.480791 -0.289780 0.093315 -0.169750 0.642540 -0.800757 0.178647 0.673341 -0.687207 0.685443 0.377023 0.703539 0.226083 0.122287 -0.830675 0.305879 0.011602 0.659465 -0.158539 -0.534695 0.666590 -0.757926 -0.567924 0.435875 0.258927 0.472982 -0.817054 -0.467486
по -0.333879 0.503304 0.128622 1.149289 0.074338 -0.669960 0.050912 -0.504636 0.316064 -0.501240 0.799969 0.333135 0.588190 0.059877 -0.309517 1.122763 -1.039829 -0.057801 -0.294981 0.860980 -0.512515 -0.275473 0.108789 0.583981 0.748662 -0.120104 -0.153433 0.327431 -0.445429 -0.812037 -0.193794 -0.868289 0.409069 -0.426840 -0.009419 -0.589110 0.516780 -0.793826 -0.076816 0.091377 0.142954 0.283711 -0.036522 -0.271666 -0.307608 -0.429275 -0.118253 0.609478 -0.135234 0.464120 0.411804 0.897260 1.370952 0.277062 0.639431 0.556831 -1.099226 0.054630 -0.124190 -0.580617 0.127945 0.274298 0.478440 -0.123670 1.161999 -0.426352 0.011448 -0.210043 0.406234 -0.450490 -0.317231 0.140361 0.642295 0.231988 0.277555 -0.905386 0.916536 -0.351227 0.394665 0.096769 0.161551 0.546509 0.193645 0.609003 -0.521455 -0.081971 -0.761206 -0.103374 -0.011351 0.454424 -0.393399 -0.310693 -0.467492 -0.564022 -0.228084 -0.088777 0.058959 0.968983 -0.722958 0.084647
с -0.192283 -0.223270 -0.696247 -0.128966 -0.496713 -0.101713 0.504699 -0.263799 0.260724 -1.151137 0.568956 0.238701 0.073473 0.533291 0.056225 0.184359 -0.153987 -0.141933 -0.203800 0.109850 0.169326 0.408550 -0.082261 0.544697 -0.276779 0.022067 -0.167610 -0.572362 -0.018926 0.230889 0.039905 -0.283556 -0.115051 0.055143 -0.218621 -0.344068 1.015331 -0.902363 -0.055163 -0.012354 -0.567018 0.442046 -0.269258 -1.309344 0.582352 -0.086089 -0.895640 0.212268 -0.780039 1.439610 1.177132 0.367314 0.405481 -0.369734 -0.200286 -0.184764 0.503354 -0.990277 0.698804 -0.668857 0.025029 0.122126 1.295120 0.158511 0.483660 -0.015959 -0.015088 0.152626 0.480080 0.410122 0.230543 1.495805 -0.223161 0.601368 -0.471224 0.677317 0.749853 0.131716 -0.153389 0.693473 0.308016 0.030000 0.397108 0.110193 -0.438911 0.351886 -0.477647 0.367689 -0.371687 -0.290961 -0.739251 -0.886058 0.033631 -0.256118 -0.052416 -0.733204 -0.158252 1.554682 -0.591739 0.281502
инфляция -0.349877 0.287815 0.602976 0.391303 0.691575 -0.460509 1.254591 -0.384840 0.232994 -0.554383 0.084955 0.199844 0.438077 0.094428 0.234120 -0.620822 -1.350511 0.021515 0.515323 -0.159584 -0.764832 0.350996 0.625935 0.319801 0.416335 0.372401 -0.521447 -0.236884 -0.085276 0.239187 -0.229934 -0.715408 0.107739 0.374926 0.524997 0.198959 1.118373 -0.191108 -0.129266 0.446516 -0.128825 -0.338228 -0.150668 -0.268693 0.033554 -0.103622 -0.816208 -0.456633 -0.992469 1.344186 -0.366208 -0.196228 0.886891 -0.434582 -0.095187 -0.356758 -0.289569 0.370441 0.694913 0.503776 0.105524 0.496511 -0.378876 0.097823 0.436526 -0.437289 0.137232 0.374204 0.666772 0.202436 1.173569 0.287571 0.368251 0.269264 -0.089346 0.253534 0.132323 -0.248736 -0.019037 -0.509672 0.474694 0.263083 0.917364 0.183800 -0.216794 -0.395959 -0.809833 -0.158345 -0.263509 0.274478 -0.059697 0.096499 0.056333 -0.396366 -0.701495 -0.317654 0.276932 0.653864 0.575788 -0.121200
рост 0.211293 0.787006 0.250106 -0.169163 0.120593 -0.165913 1.096801 -0.239259 0.245524 0.094732 0.498549 0.873180 0.483368 0.061682 0.305141 -0.037427 0.018345 0.393365 -0.335601 0.362039 0.381585 -0.514153 0.249169 0.345867 0.147195 0.593187 0.028676 -0.073376 0.225289 -0.969911 -0.277795 -0.098526 0.836605 -0.080765 0.676225 -0.375707 -0.586626 0.426501 0.041654 0.145226 -0.110210 0.380648 -0.068896 0.159251 -0.411857 -0.190423 -0.583032 -0.182929 -0.481132 0.597738 0.835657 -0.134973 -0.023884 -0.224348 -0.233042 -0.225760 -0.243052 0.073314 0.408677 -0.294761 0.058924 0.155342 0.160471 0.110626 0.958429 -0.014450 0.403069 0.496068 0.027685 -0.057635 0.399050 0.348317 0.334333 0.058474 -0.416328 -0.346261 0.585029 0.828755 0.706519 0.298599 -0.170758 -0.087684 -0.673281 0.609105 0.150124 0.458883 0.112943 0.516827 -0.235518 -0.748788 -0.132020 -0.077858 -0.100202 -0.169180 0.153104 -0.158483 0.226662 1.349765 1.052536 -0.016191
ключевой -0.644056 -0.090740 0.083200 0.559012 0.026456 -0.297371 0.425860 0.377357 0.171554 -1.104274 -0.186747 -0.502419 -0.105832 -0.210955 -0.601837 0.321621 -0.212759 -0.207913 -0.055143 0.512139 -0.710239 0.408242 -0.590650 0.223073 0.852055 -0.152560 -0.244886 0.414916 0.103017 -0.679623 -0.356022 -0.547649 -0.017118 0.224506 -0.107686 -0.255232 0.447730 -0.786486 -0.603882 0.256893 -0.931493 0.397198 -0.593094 -0.100384 -0.088627 0.797870 -1.231753 0.605393 -0.265296 0.564929 0.525486 0.339430 -0.024627 0.297839 -0.629204 0.871400 0.349952 0.211363 0.011148 0.009446 0.353029 0.609030 -0.078517 -0.209423 0.631874 -1.244652 -0.182582 -0.431312 0.377106 -1.073879 0.181360 0.674462 0.759095 -0.343150 0.238766 0.188285 0.558781 -0.924426 0.163440 0.583829 -0.710664 0.629835 0.279856 0.372765 0.357583 0.439986 -0.703992 -0.415626 -0.601976 0.848854 0.198673 -0.486936 0.589237 -1.051526 -0.684864 0.310616 -0.046874 0.411444 -0.417693 -0.373964
риск 0.112822 0.262366 -0.069153 0.996236 -0.575517 -0.278162 0.590917 -1.050259 0.497505 -0.501803 -0.011856 0.011777 0.568487 -0.201499 0.252034 -0.300521 -0.888868 0.811718 0.045420 0.719433 -0.676724 0.198177 0.252030 -0.724711 -0.191577 0.757936 -0.460539 0.302498 0.086163 -0.053475 -0.185814 -0.617697 0.278165 0.030615 0.435259 0.973744 0.435799 -0.292091 -0.305330 -0.288949 -0.012267 -0.790109 0.463971 -0.164350 0.678847 0.887213 -0.419931 -0.672259 0.065988 0.299538 0.468002 0.200718 0.091987 -1.125191 -0.690035 -0.348813 0.484374 0.271043 0.208449 -0.112550 -0.046636 0.001558 0.320753 -0.588273 1.065579 -0.340437 -0.464814 -0.523542 0.380531 -0.479099 0.580447 0.828656 -0.036055 -0.273882 -0.403772 0.285777 0.654278 0.512179 -0.412767 0.204557 0.356383 -0.702348 -0.004614 0.368916 -0.512660 -0.262890 -0.427908 0.335128 -0.318692 -0.264484 0.152502 -0.495667 -0.132466 0.471557 -0.323697 -0.349355 -0.321811 1.331888 0.148412 -0.242109
цена 0.098708 -0.265323 0.368960 0.154417 0.412817 -0.065359 0.343719 -0.046803 0.403788 -0.444858 0.479586 0.561465 0.302513 0.375239 0.184577 -0.141169 0.216020 0.573427 0.140980 0.346667 0.000847 -0.653466 0.639256 0.090615 0.949719 0.533978 -0.047826 -1.011464 0.190949 -0.394362 -0.232596 -1.145480 0.473126 0.683884 0.674573 0.063304 0.292722 -0.515630 0.143030 -0.359211 -0.022284 0.264889 0.489704 -0.410230 0.109155 -0.385572 -0.381024 0.109073 -0.547916 1.171670 0.102905 -0.350304 0.691111 0.097734 -0.316457 -0.325917 -0.430237 -0.103882 0.577977 -0.024084 -0.066813 0.426252 0.001230 0.148794 -0.079804 -0.087551 0.765572 0.354490 0.438905 0.521537 1.011107 0.438728 0.040492 -0.169556 0.195970 0.377201 -0.626082 0.199247 0.420065 -0.291803 -0.033570 0.095371 0.102362 0.072702 -0.308715 -0.140877 -1.049214 -0.073146 -0.321285 -1.016288 0.123219 -0.511376 -0.274377 0.021717 0.018948 -0.068970 -1.037200 0.339427 0.818457 -0.438047
быть -0.005621 -0.102851 0.215017 -0.233409 0.759120 -0.261433 0.872389 0.052743 0.058679 -0.336613 0.125402 -0.180730 0.571565 -0.106607 -0.099755 -0.240270 -0.335535 -0.236550 -0.087404 0.913029 -0.460688 -0.378854 -0.460950 0.285732 1.077924 -0.451027 -0.447474 -0.050931 0.330458 -0.189497 0.188929 -0.754180 -0.532443 0.174436 0.475764 0.094494 0.118820 -0.091649 -0.140770 -0.988294 -1.227374 -0.035681 -0.172532 -0.238156 -0.171608 0.643156 -0.325489 0.281347 -0.506843 0.536263 0.748307 -0.493251 0.530131 -0.606206 -0.618020 0.070057 0.371074 0.806809 -0.117544 0.483502 -0.256377 0.702333 0.537353 0.190515 0.285113 -0.304356 0.570386 -0.122851 0.392167 -0.475942 -0.020957 0.389739 0.514172 -0.430482 -0.488454 0.399297 0.946396 -0.965240 0.218427 0.334242 0.529448 -0.559685 1.131454 0.929297 0.059350 0.281492 0.144638 -0.098027 -0.519331 -0.417091 -0.120873 -0.110282 0.294140 -0.230660 -0.534433 0.011908 0.036715 0.592530 0.793046 0.181733
условие 1.461027 0.281739 -0.038442 0.788464 0.398560 -0.129677 0.264509 -0.049219 0.392582 0.064832 0.670934 0.278096 0.267959 0.217340 -0.318840 -0.341412 -0.506511 -0.027367 -0.150683 -0.126719 -0.333944 0.202636 0.113864 0.259993 -0.410754 1.155740 0.511683 0.240831 0.607811 -0.508076 -0.211736 -0.644102 0.339667 -0.077251 -0.003907 -0.058158 -0.130928 -0.216733 -0.475613 0.166684 -0.452707 0.127658 0.513890 0.252181 -0.202175 0.311234 -0.384145 -0.598060 -0.434748 0.347149 1.089496 -0.451131 0.479534 -0.469087 -0.260343 -0.220662 0.375035 0.313518 -0.334691 0.007972 -0.167845 0.070537 -0.554617 0.628899 0.128683 -0.205263 -0.104068 -0.284638 0.834565 -0.273469 -0.140146 0.819239 0.245543 0.537638 -0.667669 0.175316 0.703489 -0.135377 -0.078705 -0.292707 0.126716 -0.798572 0.379093 0.682861 -0.579329 0.309908 -0.321763 0.297439 0.290799 -0.177590 0.376666 -0.656950 0.278643 0.018776 -0.260902 -0.514611 0.538434 0.238945 -0.101890 0.554890
к 1.110021 1.025871 -0.694310 0.712497 0.408841 0.694138 -0.012770 -0.418236 0.167533 -1.140871 0.253235 0.446213 0.937379 -0.080602 -0.910830 0.529117 -0.242012 0.348419 0.761144 0.030836 0.008468 0.446039 -0.229933 0.636612 0.274712 -0.079730 0.050897 0.004294 0.153270 -0.397338 0.073066 -0.407539 0.751166 0.493374 0.570614 -0.638438 -0.247027 -0.800563 -0.390416 1.431961 -0.116227 -0.355354 -0.087029 0.300500 0.285218 0.445281 -0.505929 -1.269825 -0.605460 1.059214 -0.514368 0.603199 0.809261 -0.529943 0.093426 -0.261971 0.524533 0.210563 0.535019 0.110390 0.026057 0.610587 0.507414 0.154398 -0.149245 -0.354043 0.484445 0.074832 0.957307 -0.161742 -0.155912 0.659031 0.188990 0.204206 -0.447795 -0.305007 0.256370 -0.341149 0.104562 0.221244 -1.032737 0.036117 -0.356282 -0.016814 -0.010839 0.529693 0.091777 0.139081 -0.805930 0.554529 -0.144990 -0.768420 -0.119513 -0.637617 0.118164 -0.112637 0.067583 0.569578 0.966779 -0.130402
инфляционный 0.779810 0.213650 -0.009875 0.728847 0.633382 0.309688 -0.155321 -0.597189 0.353091 -0.810031 -0.014160 0.079575 0.193943 -0.442675 0.342069 0.050934 0.009856 0.597235 0.091555 0.222628 -0.488022 -0.144521 0.532914 -0.234033 0.634422 0.702823 0.082448 0.283630 0.395651 -0.061342 -0.205797 -0.757777 0.134699 0.298515 -0.160744 0.401205 0.365912 -0.137023 -0.346882 -0.524029 -0.039344 0.252170 -0.304865 -0.151675 -0.300104 0.174619 -0.046506 -0.752147 -0.163566 0.341694 0.357129 0.532999 0.550616 -0.687318 -0.883428 -0.197748 0.490991 -0.338308 0.667740 -0.084908 0.074338 0.231537 -0.033173 -0.644914 0.599236 -0.293916 -0.332981 -0.418118 0.361538 -0.132286 0.589000 0.447546 -0.015336 -0.066410 0.164000 -0.584223 0.260428 -0.148015 0.362275 0.437026 0.557278 0.344781 -0.178514 0.113580 0.054203 -0.021646 -0.199191 -0.357289 -0.568990 -0.339190 -0.069138 -0.580457 -0.231013 0.304288 -0.528703 -0.198268 -0.776087 1.578500 0.808730 -0.371534
годовой -0.431600 0.813833 0.204232 0.167264 0.709486 0.016950 0.827167 -0.328392 -0.218516 -0.576859 0.657371 -0.515592 0.359237 0.133554 -0.354915 -0.137150 -0.579849 0.102879 0.328515 0.094691 -0.157466 -0.123325 0.533637 0.710540 -0.202544 0.062346 0.636518 0.104216 -0.070671 0.003012 -0.431834 -1.113261 0.160788 0.392517 0.632493 -0.190506 1.158646 -0.114971 0.335743 -0.011711 -0.153424 -0.017559 0.041978 -0.234039 -0.564275 -0.045286 -1.122842 0.767705 -0.695161 0.928718 0.055692 -0.259546 1.015007 -0.110638 0.036623 0.075141 -0.817269 -0.334506 0.695848 -0.222107 0.194747 0.277332 -0.180574 0.429222 0.143703 -0.743334 0.469199 0.315446 0.474689 0.413312 0.507753 0.632963 0.091468 -0.040641 0.051012 -0.412734 0.331921 -0.071277 0.557327 -0.489863 0.138538 0.825385 0.473730 -0.154668 -0.186209 -0.975906 -0.839921 -0.341867 0.015398 0.171295 0.217876 -0.436197 0.014828 -0.371755 -0.450328 -0.351653 0.814532 0.570636 0.741099 -0.210995
динамика 0.349629 0.056742 0.285728 -0.125950 0.372348 -0.619157 1.365328 -0.259431 0.168004 -0.181017 -0.468339 0.956705 0.226474 0.054629 0.217523 -0.346975 -0.942274 -0.073235 0.014816 -0.064454 -0.318818 0.542608 0.396111 -0.153909 1.258137 0.187281 0.008861 -0.014441 0.183034 -1.103761 0.288364 -0.777433 0.245909 0.351823 0.091298 -0.472298 0.311900 0.067716 -0.305937 -0.373002 -0.041737 0.037376 0.235950 -0.323415 0.457813 -0.175122 -0.371238 -0.015363 -0.198333 0.796482 -0.009173 -0.118658 0.872470 -0.443804 -0.522847 -0.303305 0.246602 0.849827 0.775290 0.295872 -0.021558 0.311217 0.651850 0.151618 0.788605 -0.121468 0.114977 0.067620 0.287798 -0.160716 0.732336 0.088729 0.865073 -0.094762 0.541460 0.540084 -0.318250 0.429942 0.635668 -0.106771 0.450868 -0.675715 1.177133 0.995863 -0.430149 -0.207461 -0.358540 0.127793 0.000998 -0.239567 -0.083176 -0.280038 -0.170577 -0.429148 -0.716246 -0.261387 0.497176 0.800256 -0.316816 0.296680
уровень -0.075381 0.447517 0.085530 0.264184 0.707100 0.473893 0.513291 -0.851912 0.183348 -0.626417 0.546162 -0.294911 0.648151 0.261112 0.244400 0.113984 -0.319659 0.767849 0.347440 0.160839 0.027834 -0.201851 0.512860 0.347711 1.027201 0.312802 0.204174 0.147165 0.386627 -0.068543 0.083935 -0.439735 0.041086 0.458721 0.168305 -0.129880 0.110022 -0.649371 -0.605469 0.277107 -0.620942 0.172460 -0.567296 -0.545046 -0.795228 0.327778 0.123447 0.877876 0.282756 0.798901 0.182796 0.058493 0.122168 -1.129446 -0.275990 0.406264 0.211073 0.128154 0.226818 0.241167 0.291590 0.665955 -0.112771 0.527908 -0.695907 -0.492342 -0.299820 -0.096963 0.166068 -0.887664 0.245013 0.287388 0.353987 -0.639602 -0.269600 -0.563459 0.668828 -0.443969 0.103261 0.019578 -0.034544 0.493370 0.290299 -0.229142 -0.159860 -0.225391 -0.248159 0.859597 -0.874316 0.262505 -0.174781 -0.886172 1.148563 -0.658462 -0.152088 0.398321 0.191318 0.648705 0.623020 -0.070172
кредитный 0.874187 0.166446 -0.593776 0.712373 0.459724 -0.485286 0.900932 0.011247 -0.250467 0.112113 1.205034 -0.170756 0.310901 0.476430 -0.895185 -0.440729 -0.947480 -0.104284 0.206831 -0.143098 0.166529 0.079303 0.126880 0.716966 -0.397224 0.757530 -0.211937 0.268239 0.851875 -0.337946 -0.531820 0.009647 0.391007 0.333915 -0.084004 0.138870 0.716803 0.061631 -0.488864 -0.023449 -1.027694 0.027154 0.163096 0.174953 -0.508338 0.433559 -0.795628 -0.372755 -0.644902 0.358087 0.851667 0.358978 0.650525 0.259590 0.257017 0.136101 0.184896 0.480365 -0.030411 -0.116320 0.196868 0.088316 -0.433490 0.480276 0.008403 -0.005388 0.442805 -0.035783 1.130743 0.079241 -0.086710 0.094398 -0.302671 0.507701 -0.707915 0.283165 0.848661 -0.487617 -0.129562 0.179007 -0.067904 -0.048045 0.311169 0.355649 -0.306951 0.050767 -0.001599 -0.037287 -0.199561 0.357892 -0.103366 0.172329 0.591617 -0.087007 -0.631260 -0.262129 0.456417 0.518439 -0.194182 -0.157090
экономика 0.135275 0.315007 0.391954 0.359743 -0.961102 -0.709347 0.948732 -0.217855 0.299423 -0.049703 -0.122122 0.674303 0.500664 0.344407 1.243403 -0.168853 -0.112879 -0.403778 -0.070440 0.001032 -0.210285 0.564119 0.203031 0.008237 -0.161118 0.651865 -0.295878 0.437200 0.531623 -0.285403 0.138186 -0.035142 0.274326 0.484613 0.894829 0.111352 -0.338088 -0.231779 -0.341619 0.200848 -0.244760 -0.446256 0.122575 -0.158982 0.302688 -0.260382 -0.437833 -0.474248 -0.302029 0.917378 0.698662 0.313108 -0.141431 -0.357415 -0.508681 -0.140218 -0.161539 0.130379 0.510197 0.341830 -0.136473 0.626089 -0.517054 0.129829 0.544605 0.103600 0.116880 -0.289228 0.604363 -0.911890 0.441304 0.129251 0.507116 0.003375 -0.889173 0.103760 0.722834 0.071749 0.395066 0.155854 -0.143039 -0.164634 0.158543 0.792920 0.080263 0.113190 -0.418612 0.197434 0.124222 0.648590 -0.224716 0.013857 -0.391980 -0.372278 0.100240 -0.071126 -0.454524 0.479074 0.234987 0.097968
рынок 0.441277 0.268407 -0.224778 1.280066 -0.169127 -0.557000 0.679293 0.161127 -0.150988 -0.241503 0.106605 -0.482377 -0.205734 0.240390 0.109224 0.330767 0.068994 1.102317 -0.490840 0.065356 0.002322 0.180792 -0.467841 -0.045123 0.196397 0.578611 0.459501 -0.435881 0.931401 -1.104663 -0.737082 -0.231770 0.562360 0.163584 1.164130 -0.553780 -0.137060 -0.181516 0.001859 0.604862 -0.772695 0.234217 -0.085102 -0.647884 0.940965 0.254393 -0.446731 -0.187605 0.459552 0.556189 0.707537 -0.300958 0.566356 0.204891 -0.416853 0.363766 0.319317 0.181176 -0.072652 -0.134727 0.231502 -0.153651 0.326623 -0.033744 0.499582 0.093030 0.021053 0.851692 0.668572 0.011854 0.545106 -0.033187 -0.182713 -0.097144 -0.021351 0.162492 0.490235 0.572705 -0.720705 -0.309920 -0.067860 -0.255183 -0.232959 0.510265 -0.571724 0.037486 -1.214630 0.156040 0.112597 0.103568 0.219688 -0.482031 0.155672 0.522509 -0.104717 0.119732 -0.465638 0.317048 -0.036771 0.260155
до -1.261170 0.315605 -0.505597 0.581498 0.188335 -0.130055 0.026067 -0.048703 -0.010135 -0.740306 0.595304 -0.166795 -0.065812 0.158578 -0.344779 0.221235 -0.873243 0.936820 -0.050479 0.737647 0.418396 -0.588151 -0.187957 0.357240 -0.527132 0.221012 -0.219747 -0.101477 0.030826 -0.222155 -1.156998 -0.627498 -0.140437 0.224834 0.511290 0.146143 0.203272 -0.846726 0.285543 0.194882 -0.505265 0.096646 0.026604 0.258257 -0.307986 -0.368139 -0.746849 0.726383 -0.727161 0.811501 0.577127 0.669707 0.688284 0.669361 0.091132 0.855154 -0.612637 -0.211888 0.433499 -0.200699 0.363781 0.733226 -0.327086 0.209538 0.172845 -0.990387 0.130992 0.359109 0.054439 -0.242911 0.873024 0.472732 0.074907 -0.135521 0.041644 -0.096734 0.245733 0.004943 0.326981 0.018141 -0.170213 0.827023 0.040531 -0.284991 0.276943 -0.505852 -1.347525 -0.697266 -0.312006 -0.035346 0.248695 -0.581063 0.951076 -0.686566 -0.455268 0.654522 -0.246408 0.223718 -0.012515 -0.602229
темп 0.081924 0.151322 0.309697 -0.503179 0.368582 0.424216 0.595624 -0.222580 0.152729 -0.194515 0.993500 0.542340 0.487848 -0.052906 0.430241 -0.085451 0.345100 0.566480 -0.127633 0.062717 0.327693 -0.622812 -0.042190 0.488745 0.426429 -0.002942 0.269312 -0.121461 0.301027 -0.483880 -0.298497 -0.751863 0.661651 0.074462 0.965338 0.068244 -0.075663 -0.496792 0.527629 -0.210380 0.539146 0.209094 0.406825 -0.245732 -0.503862 -0.078029 -0.642849 0.063930 -0.602227 0.835415 0.248700 -0.298314 0.344743 0.045637 -0.106293 -0.080565 -1.006630 -0.188157 0.436923 -0.276660 -0.229522 0.361682 -0.372576 0.824670 0.311146 -0.261779 0.770802 -0.035312 0.480340 0.236203 0.366094 0.614749 0.544872 0.218148 -0.261558 -0.214811 0.456898 -0.020504 0.583249 0.217060 -0.352460 0.462171 -0.318924 0.448496 -0.018220 -0.194698 0.176871 0.357693 -0.096494 -0.624923 -0.124196 0.080344 -0.284070 -0.571060 0.197936 0.051334 -0.276385 0.824686 1.026533 -0.122396
снижение 0.261714 0.448375 -0.158570 0.513494 0.224120 -0.445633 0.495993 0.632641 0.780499 -0.453335 0.374790 -0.057409 0.317466 0.213213 -0.484992 0.099347 0.214438 -0.262115 0.073062 0.348768 -0.643729 0.424613 -0.269776 -0.136417 0.182196 0.564622 -0.199984 -0.202110 -0.371506 -0.843085 -0.020188 -0.700761 0.389370 0.632019 0.144364 0.139876 0.506644 -0.032371 -0.388545 0.062069 -0.547897 0.901011 0.029803 0.488344 -0.495969 0.594425 -1.053075 -0.419158 -0.257889 0.690680 0.672607 -0.215036 -0.092694 -0.286333 0.161632 0.043612 0.799355 0.391726 0.027528 -0.032201 -0.010422 0.285181 -0.619781 -0.196923 0.327255 -0.450756 0.130588 0.609974 0.485384 0.234397 0.382052 0.373337 0.109840 -0.190439 0.253342 0.275971 0.187391 0.086516 0.844063 0.250979 0.044086 -0.077522 -0.006583 0.666305 0.038601 0.130804 -0.234898 0.075921 0.247051 -0.437494 -0.259602 -0.112937 0.196163 -0.579544 -0.102777 -0.196802 0.099657 0.831302 0.880029 0.165696
ожидание 0.485840 0.182763 -0.447794 0.486929 0.551513 -0.009939 -0.099600 -0.425049 0.200050 -0.518369 -0.221281 0.274107 0.118175 -0.158108 0.637362 -0.161648 -0.023003 0.529016 0.023457 -0.027778 -0.225622 -0.152213 0.425581 0.148353 0.741938 0.708673 0.263034 0.158144 0.609141 -0.253361 -0.468132 -0.467383 0.080283 0.561575 -0.622494 0.028162 0.260225 -0.466400 -0.255550 0.026890 0.013504 0.532026 -0.511578 -0.293877 -0.340999 -0.545170 0.409945 -1.010501 -0.122903 0.652408 0.283370 0.108777 0.527233 -0.622151 -0.723090 -0.082449 0.857376 -0.350694 0.223380 -0.171779 0.176676 0.101023 0.192020 -0.251631 0.294274 0.048078 -0.250647 0.248884 0.523264 0.334573 0.571049 -0.083912 -0.073416 0.110475 0.268612 -1.091866 -0.117496 -0.352146 0.335317 0.175225 0.593439 -0.039431 0.154086 0.111913 -0.007611 -0.227336 -0.399051 -0.546990 -0.870463 0.166679 -0.022258 -0.039656 -0.043749 -0.133144 -0.621119 -0.332291 -0.561108 1.483887 0.593323 -0.159416
решение -0.240072 0.353658 0.136353 0.389199 -0.872907 -0.049052 0.597524 0.470003 -0.171531 -1.035673 0.003010 -0.449643 0.150609 0.235411 -0.343043 0.074937 -0.817677 0.001028 0.388505 0.232356 -0.825463 -0.226481 0.278964 0.536397 0.635071 0.142337 -0.120266 0.771561 -0.159827 -0.664462 0.162010 -0.825312 -0.511689 0.285377 -0.179318 0.119123 1.023260 -0.156454 -0.421520 -0.595246 -0.095445 -0.016733 -0.905225 0.113168 -0.518599 0.987650 -0.334237 0.846167 -0.411845 0.041915 0.385556 0.042331 0.364781 -0.175692 -0.419810 0.850227 0.218253 -0.131814 0.151512 0.054050 0.601076 -0.123256 -0.000492 -0.587448 0.532018 -0.974573 0.173018 -0.924154 0.155661 -0.937696 0.259512 0.288750 0.777525 -0.624744 0.506950 0.489922 0.523747 -0.820495 0.328240 0.757111 -0.351998 0.544653 0.592837 0.251732 -0.077180 -0.016569 -0.098159 -0.427686 -0.506089 0.772051 0.608779 -0.232124 -0.446311 -0.447433 -0.465063 0.158852 0.529502 0.329284 -0.695439 -0.533650
потребительский 0.350938 0.492899 -0.383129 -0.172547 0.748610 -0.237132 0.672714 0.005338 0.579243 -0.048136 0.662673 0.499450 0.875970 0.907854 0.030804 -0.087415 -0.485288 0.566980 -0.240083 -0.566391 0.184985 -0.332168 0.543924 -0.019270 0.821624 -0.053363 -0.497413 -0.326727 -0.087574 -0.659044 -0.405712 -1.453209 0.181594 0.162081 0.146445 0.214483 0.296085 -0.372779 0.414864 -0.670750 0.094544 0.509283 0.354495 0.413408 -0.433742 -0.147754 -0.091569 0.025315 -0.522939 0.630898 -0.155467 -0.613268 0.503547 -0.217770 0.123356 -0.334730 -0.311523 -0.453379 -0.118743 -0.404783 0.319023 0.284685 -0.016791 0.497334 0.447186 0.099567 0.767133 0.840299 0.153476 0.019583 -0.128177 0.673402 0.515801 0.389187 -0.201677 0.335382 -0.070871 0.463861 0.721542 -0.049154 0.503803 -0.411080 -0.188880 0.520295 -0.123574 -0.449615 -0.207604 0.031462 -0.137789 -0.938841 0.302221 -0.891550 -0.176536 -0.463608 0.413023 0.000925 -0.012365 0.324559 0.723968 -0.238719
денежный 1.056517 -0.345459 -0.301449 0.366321 0.558660 -0.103010 0.662517 -0.276075 -0.352199 -0.070537 1.355636 -0.205977 0.188054 0.238170 -0.864037 -0.395541 -0.927595 -0.311701 0.594334 0.040167 0.177146 -0.158408 0.018634 1.071079 -0.525301 0.626759 -0.222362 0.062075 1.124065 -0.111406 -0.133458 -0.051163 0.189645 0.179053 -0.004926 0.579831 0.807227 0.052540 -0.334017 -0.057046 -0.898161 -0.279633 -0.247134 -0.135444 -0.774035 0.589110 -0.660422 -0.467973 -0.777694 0.399844 0.830859 0.102807 0.993649 0.256990 0.365664 -0.045417 -0.131763 0.532062 0.131357 0.110961 0.158249 -0.071607 -0.566209 0.786588 -0.087613 0.149783 0.568991 -0.088791 1.116524 0.280695 0.078510 0.097393 -0.100521 0.670004 -0.785573 0.283481 0.864259 -0.707639 -0.117693 0.091035 -0.067680 0.112937 0.492230 -0.027368 -0.427559 0.125791 0.001793 -0.027163 -0.239939 0.226989 -0.070834 0.069988 0.288317 -0.156033 -0.720866 -0.332811 0.635865 0.395584 -0.173718 0.065298
также 0.322930 -0.186040 0.078702 0.152017 -0.123415 0.272115 0.224995 -0.848399 -0.135430 -0.173728 -0.203116 0.014259 -0.122124 -0.178875 0.802583 -0.198652 -0.524257 0.472031 -0.011896 0.298179 -0.504221 0.351116 -0.393941 0.018731 0.634839 0.379998 0.341134 0.117906 0.013742 -0.254221 -0.423088 -0.902022 0.065586 0.893559 0.633585 0.977207 0.083901 -0.034668 0.088941 -0.030470 -0.265398 0.373918 -0.446975 0.248498 1.244024 -0.180381 0.058429 -0.966666 -0.459237 0.161547 0.600329 -0.374865 0.350069 0.071427 -0.681355 -0.584100 -0.022536 -0.386933 -0.008930 0.455223 0.217732 -0.468120 -0.049302 -0.502197 0.361150 -0.124516 0.052361 0.130136 0.213068 -0.948486 -0.119549 0.650931 0.122512 -0.168494 -0.369922 0.171613 0.125371 0.390442 0.683426 0.321441 0.239229 -0.376509 0.268348 1.320610 -0.359123 0.456678 -0.433138 0.219630 -0.195059 0.157304 -0.510219 -0.158722 -0.298464 -0.159181 -0.001681 -0.550102 -0.361591 0.529755 0.039315 -0.064643
директор -0.162000 -0.241186 0.486184 1.230315 -0.114289 -0.566932 0.618355 -0.008550 -0.145470 -0.629486 0.580359 -0.953892 0.269021 -0.059308 -0.176880 0.482459 -0.357674 0.270671 0.264688 -0.204512 -0.566509 -0.229138 -0.282109 0.191026 0.301914 0.312091 0.498114 0.647447 0.423660 -0.539743 -0.318034 -0.566164 -0.261500 -0.074098 -0.275331 -0.258785 0.998379 0.166962 -0.269997 -0.282972 -0.155273 0.074495 -0.599615 -0.544407 -0.301244 0.975203 -0.349017 1.145788 0.087838 0.624415 0.232634 0.076227 0.085541 -0.496959 -0.048888 0.561654 0.157023 0.362920 -0.708587 0.005576 0.407475 0.088000 0.085616 0.273159 0.139462 -0.517863 -0.438096 -0.602771 -0.007852 -0.566363 0.112353 0.258213 0.565877 -0.154645 0.379465 -0.592184 1.181936 -0.493205 0.252529 -0.480269 -0.387893 0.764490 0.747172 0.183889 -0.107411 0.032455 -0.006656 -0.443193 0.053561 0.699670 1.068676 -0.439484 -0.270926 0.208834 -0.401795 0.034865 0.857864 -0.050661 -0.282978 -0.109636
совет -0.092506 -0.440685 0.630440 1.439938 -0.309082 -0.704983 0.731006 0.020870 -0.070164 -0.756078 0.830175 -1.117991 0.220862 0.001067 -0.143001 0.528581 -0.435600 0.109192 0.231096 -0.271028 -0.691720 -0.208967 -0.457535 0.322930 0.428410 0.359135 0.521383 0.764237 0.436671 -0.666218 -0.407049 -0.676477 -0.326130 -0.026150 -0.291774 -0.286681 1.158427 0.101305 -0.283591 -0.285684 -0.257338 0.091291 -0.729003 -0.732146 -0.350487 1.143183 -0.425502 1.292935 0.132235 0.691710 0.417498 -0.040407 0.085470 -0.557241 -0.107335 0.742994 0.104659 0.402175 -0.810757 0.016196 0.470690 0.094183 -0.006019 0.266756 0.203134 -0.611080 -0.486974 -0.731168 0.087040 -0.706966 0.159313 0.401297 0.706531 -0.234451 0.389473 -0.537470 1.383156 -0.625758 0.195094 -0.451830 -0.425509 0.854345 0.742650 0.294293 -0.139128 0.105593 -0.040545 -0.425823 0.046306 0.805021 1.191998 -0.498621 -0.376650 0.104568 -0.402767 -0.061477 0.915553 0.044772 -0.495678 -0.194372
спрос 0.786448 0.016362 0.228112 0.068863 0.933516 -0.406811 0.454080 -0.527203 0.716485 0.312136 0.309903 0.737914 0.603579 0.325478 0.225448 -0.232234 -0.446703 -0.439157 -0.632679 0.156870 0.427837 -0.420571 0.421315 0.116011 0.393005 -0.301059 -0.205756 -0.044435 -0.219513 -0.725000 0.767399 -0.372188 -0.334467 0.047881 0.319445 0.234241 -0.466912 -0.133034 -0.190837 0.121036 -0.493616 0.514268 0.097096 -0.135203 0.357822 -0.507692 0.514764 -0.216651 -0.196622 0.391016 0.442950 -0.422293 0.420676 -0.839475 0.195872 -0.581853 -0.040603 -0.433826 -0.403740 -0.339749 0.107666 0.290132 -0.850649 -0.124468 0.516687 0.530626 0.379749 0.605364 0.093299 -0.647162 -0.022271 0.262717 0.512489 0.073273 -0.407523 0.189960 0.240357 -0.164594 0.028137 -0.159341 0.745985 -0.614079 -0.584829 0.036860 0.125850 0.263105 -0.875623 0.639007 0.095729 -0.177871 -0.270420 -1.262596 -0.194789 -0.329910 -0.387542 -0.207556 0.126593 0.492310 0.389053 -0.170494
влияние 0.961947 -0.128616 -0.167118 -0.031086 -0.185180 -0.201307 0.695905 0.323617 0.035206 -0.358714 0.442741 0.228771 0.352658 0.123579 0.231804 -0.199458 -0.350360 0.255365 0.575143 0.421598 -0.065904 -0.336398 0.775317 1.122337 0.474762 0.362326 -0.263888 -0.184970 0.847720 -0.803081 0.311695 -0.725259 -0.579831 0.778618 0.566573 -0.581792 0.139930 -0.321129 -0.411671 -0.331403 -0.936489 0.175893 0.473299 0.153085 0.732119 0.069599 0.599144 -0.493525 -0.596966 0.415609 0.564795 -0.079257 0.031326 -0.438975 -0.593829 -0.220901 0.565176 -0.079595 0.185919 -0.099096 -0.601740 -0.255649 0.324840 -0.432777 0.154423 -0.016269 0.205646 0.479881 0.623184 0.322569 0.262210 -0.004358 0.134120 -0.341624 0.419421 0.576924 -0.099993 0.178024 -0.217744 -0.716731 0.664357 -0.944983 0.313396 0.983163 -0.201282 0.091895 0.071161 0.083664 -0.009348 -0.035201 -0.118841 -0.065810 -0.876466 -0.437333 -0.503338 0.597638 0.054998 0.563892 0.351660 0.520443
при 0.532001 0.426180 0.339779 0.487134 0.365908 -0.114913 0.020943 -0.082249 -0.389002 -0.950575 -0.103688 -0.566269 0.783354 0.847701 0.100263 0.166204 -0.126173 0.108988 0.455117 0.065496 -0.398549 -0.039376 -0.002333 -0.473718 0.001179 -0.002508 -0.387813 0.410800 0.281641 -1.039748 -0.120788 -0.988321 -0.655590 0.676142 0.056613 0.389202 -0.525983 -0.154031 0.659832 -0.708426 0.210762 0.270992 0.861776 -0.720708 -0.300913 0.415839 0.051119 0.028701 0.217593 0.540569 0.525406 0.680495 0.370738 -0.274158 0.672603 0.374015 0.077321 -0.256740 -0.606825 -0.193783 0.422485 0.006738 -0.153066 0.740904 -0.380646 -0.266954 -0.294267 0.391092 -0.137550 -0.658104 -0.032666 0.395910 0.619791 0.204030 0.410441 0.206603 1.276805 0.100255 0.079739 0.513768 0.261582 0.813568 0.079483 0.026443 0.020672 0.103318 -0.640649 0.221327 -0.233452 0.074482 0.205306 -0.827395 0.247265 -0.351360 0.246512 0.102012 0.328465 1.076834 -0.587823 0.393302
операция -0.743709 0.090660 -0.145917 0.036447 -0.049021 -0.612556 -0.641700 0.251556 -0.083395 -0.152460 -0.640052 -0.899510 -0.743818 -0.346747 -0.750490 1.073317 -0.052914 0.232540 -0.133153 0.824649 0.168316 0.321477 -0.408144 0.526476 -0.767404 -0.963205 0.223213 -0.079281 0.085149 -0.275828 -0.469622 -0.146728 0.032025 -0.563372 0.358665 -0.829991 -0.088902 -0.672928 -0.164287 0.506805 -0.496775 0.086186 -0.359724 0.114770 -0.269538 0.113529 -0.362212 1.150878 0.776710 -0.152466 0.456261 0.821008 -0.174339 0.132728 0.851103 1.476836 -0.598723 0.164916 0.119162 -0.123579 0.099454 0.322937 1.123565 -0.274716 0.025654 -0.306866 -0.282817 -0.027664 -0.210826 -0.856546 -0.364977 0.033112 -0.037159 -0.654377 0.371924 -0.777017 0.171489 -0.418466 -0.056584 0.297336 -0.855535 1.089531 -0.346847 -0.189562 -0.213544 -0.499375 -0.801145 -0.128519 0.523599 0.776573 -0.252602 -0.092287 0.756497 -0.365241 -0.100320 0.711740 0.157313 -0.579005 -0.619509 0.023162
прогноз -0.176664 -0.034784 0.388588 0.276215 -0.443772 -0.324579 0.529854 -0.132713 0.009033 -0.478685 -0.034863 -0.612652 0.321325 0.558422 0.607536 0.588986 -0.784895 -0.246823 0.179339 0.154917 -0.371635 0.441187 -1.019678 0.311267 0.295056 -0.426798 0.061478 0.450935 0.126719 -0.167550 -0.283660 -0.933046 -0.255125 -0.131937 0.406396 0.713555 0.898098 -0.197435 -0.384607 -0.150802 -0.065312 -0.025132 -1.011727 -0.846726 -0.085441 0.483116 -0.314595 0.021042 -0.486285 0.880558 0.171666 -0.193029 0.405484 -0.698850 0.053316 0.205679 -0.277072 0.099672 0.282108 -0.277021 0.205084 0.036346 0.627178 1.034553 0.251395 -0.402757 0.317818 -0.796174 0.188640 0.178503 0.129472 0.999997 0.331669 -0.079934 0.006981 -0.278887 1.056075 -0.041653 0.089248 0.014029 0.013465 0.706858 0.466237 0.550726 0.168709 -0.557014 -0.745772 -0.615750 -0.010560 0.236134 0.115081 0.412709 -0.397026 -0.322379 -0.310297 -0.395402 0.502787 0.513962 0.409065 0.379834
процентный -0.378553 0.356367 -0.681631 0.732186 0.100316 0.112252 0.146146 -0.150029 0.079021 -0.311695 0.403157 -0.554451 -0.074837 -0.469156 -1.376243 0.890758 -0.432317 0.231376 -0.135528 0.380581 0.343769 0.331763 0.089730 0.592849 -0.338450 -0.362211 0.575243 -0.048625 0.386321 -0.828765 -0.507745 0.001727 0.786826 -0.581133 0.356624 -0.775636 -0.137937 -0.679412 -0.611228 0.546319 -0.654812 0.593823 0.419085 0.765464 0.203633 0.023604 -0.582765 0.717273 0.232658 -0.322090 0.796035 0.768541 0.386795 0.427500 0.495377 1.116943 -0.103427 0.456302 -0.165752 -0.251564 0.791390 -0.045729 0.390299 -0.287343 0.485184 -0.701362 -0.346852 0.204904 0.200521 -1.044921 -0.232065 -0.034814 0.234093 -0.207845 0.298386 -0.467209 0.278567 -0.148818 0.077024 0.431445 -0.787529 0.742361 0.095937 0.436217 -0.540789 -0.067313 -0.551447 0.480937 0.899714 0.044820 -0.403490 -0.336412 0.468918 -0.376957 -0.056847 0.475061 0.875919 0.177868 -0.510524 -0.225562
это 0.265496 0.063785 0.101924 0.212591 0.662456 -0.279550 0.774877 -0.081416 -0.156302 -0.376122 -0.413969 0.145741 0.543308 0.805603 0.382983 -0.301041 -0.414450 0.463797 0.153494 0.232577 0.175808 0.013911 0.433265 -0.105240 -0.145627 0.126375 -0.125332 0.290278 0.302199 -0.555782 0.303103 -0.392410 -0.214942 0.418446 0.250838 0.325175 -0.122930 -0.110459 -0.170435 -0.421647 -0.658680 0.442586 0.618288 -0.369433 0.088061 0.262006 -0.014830 -0.362598 -0.059989 0.813789 0.586304 0.987195 0.100437 -0.132121 0.412616 -0.439092 -0.039468 -0.576430 0.202884 -0.560579 0.080587 -0.033771 0.019566 0.152674 0.182055 0.029247 -0.141790 0.477060 -0.212915 0.046914 -0.159602 -0.148768 -0.189936 0.150388 0.024002 0.051389 1.022034 0.250533 0.339793 0.154064 0.062301 0.103576 -0.080903 -0.102578 -0.228000 -0.119365 -0.079158 0.456695 -0.162494 -0.619999 -0.483790 -0.520473 0.661068 0.248775 -0.231437 -0.128645 -0.131233 1.193822 0.159349 0.260024
дальнейший 0.379486 0.770854 0.186959 0.361405 0.411781 -0.177351 0.174010 0.530792 0.239092 -1.044509 0.433311 -0.317021 0.034337 0.100197 -0.030265 0.191760 0.144992 -0.479746 -0.137784 0.841334 -0.719904 0.326133 -0.567442 -0.250433 0.553590 0.650236 -0.441002 -0.165496 0.148931 -0.331875 0.006228 -0.390343 0.076639 0.251082 0.315540 0.236198 -0.095603 -0.115979 0.233184 -0.160814 -0.571839 -0.178097 -0.366702 0.019457 -0.544980 0.737056 -0.804685 -0.473593 -0.336350 0.093704 0.639870 -0.612296 0.911047 -0.230674 -0.515572 0.051708 0.548178 0.489087 0.354587 0.230863 -0.025854 0.293798 0.010864 0.312983 0.342092 -0.537728 0.440059 0.232058 0.872436 0.341626 0.427920 0.479592 0.506537 0.102775 -0.207515 0.579393 0.574317 -0.348231 0.076553 0.939540 0.424677 -0.269320 0.853029 0.677303 0.180511 0.337874 -0.537137 -0.181687 -0.391918 -0.050041 -0.223829 -0.143377 0.265421 -0.677674 0.044572 -0.458985 0.326414 0.733927 0.026761 0.402697
оставаться 0.614467 0.845489 -0.006477 -0.007365 0.307915 -0.120864 0.315599 -0.535790 0.008879 0.581581 0.656769 -0.183055 0.766047 0.350066 0.286893 -0.561449 -0.592403 0.508507 -0.077900 -0.514975 0.117628 -0.314835 0.656354 -0.334071 0.482998 0.579952 -0.099001 0.190312 -0.010077 -0.295308 -0.277276 -0.449924 0.108984 -0.010125 -0.568855 0.041344 -0.170873 -0.487394 -0.213253 -0.579759 0.029132 -0.039148 0.730588 -0.829863 -0.701588 0.105531 -0.095054 0.217482 0.036469 0.133769 0.527799 -0.235167 -0.163628 -1.062428 -0.199446 0.245714 0.177827 0.024895 0.134470 -0.314398 0.096211 0.352846 -0.267673 0.600896 0.514967 0.197076 -0.429993 -0.027739 0.725770 -0.107330 0.587056 0.190280 0.055358 0.186262 -0.693291 -0.214205 0.545124 -0.006662 -0.311318 0.395003 0.530472 -0.276142 0.099412 0.232597 -0.526433 -0.763338 -0.464810 0.658655 -0.454118 0.138290 0.116036 0.095481 0.251538 -0.317853 -0.435348 -0.024202 0.014467 1.025492 0.078818 -0.117759
политика 0.388926 0.000703 -0.460866 0.327282 -0.087858 -0.427932 0.765645 -0.525892 -0.270555 -0.521595 0.632792 -0.383058 0.587163 0.189479 -0.586548 -0.106697 -1.309337 -0.364681 0.517094 0.069389 0.249448 0.071022 0.004997 0.690974 -0.149122 0.216660 -0.361961 0.111218 0.637567 -0.350624 -0.115774 -0.212669 -0.025309 0.609263 0.190655 0.526142 0.899684 0.501265 -0.027232 -0.026017 -0.490787 -0.408537 -0.535590 -0.182071 -0.140187 0.755669 -0.452531 -0.005615 -0.884323 0.559474 0.202034 0.106140 0.637315 0.186225 0.456686 -0.405636 -0.323223 0.337118 0.376351 0.188314 0.243341 0.432648 -0.229646 -0.271595 0.060519 0.155375 1.172605 -0.374895 0.430281 -0.214213 0.216109 -0.131347 -0.177818 0.378137 -0.287539 0.733031 0.527007 -0.300815 -0.150761 0.121827 -0.350971 0.403905 0.063154 -0.634542 -0.144914 0.136403 0.193739 0.244333 -0.335059 0.606300 -0.296467 0.197778 0.031297 0.323229 -0.969112 -0.493346 0.593778 0.354455 -0.121734 -0.243514
мочь 1.315674 -0.246138 -0.394168 0.631446 0.447158 0.141078 0.212019 -0.356186 -0.346169 0.069428 -0.132149 0.565548 0.393476 -0.214405 0.098212 -0.290968 -0.418020 0.162634 0.360762 0.684198 -0.002814 -0.251408 0.350064 -0.030657 0.080775 0.237034 -0.081686 -0.118176 0.576891 -0.230257 -0.293123 -0.276785 0.222718 0.067071 1.141135 0.248972 -0.125233 0.238405 -0.166480 -0.080022 -0.908357 0.238645 -0.044453 0.368291 0.812732 -0.404165 -0.104148 -0.621898 -0.635074 0.138874 0.200534 0.755878 0.009980 -0.096200 0.118334 -0.516615 -0.009444 0.446101 0.325548 0.238126 -0.130430 -0.201393 0.186830 -0.618036 0.671831 0.079932 0.234785 0.124764 0.448024 0.215276 -0.713193 -0.453312 -0.274568 -0.129663 -0.606677 -0.267127 0.099763 0.152659 -0.410079 -0.530475 0.257296 -0.340507 -0.356901 0.086053 -0.092126 1.145505 0.232157 -0.022512 -0.365580 -0.232203 -0.746030 0.107626 -0.466174 0.256731 -0.148018 -0.074180 -0.377610 0.546049 1.100283 0.314902
активность 0.777117 0.347385 -0.161834 0.233515 -0.019374 -0.317141 1.202295 0.137665 -0.071878 0.346222 0.891301 0.424051 0.967565 0.633786 0.760248 0.134207 -0.524725 -0.226109 -0.344989 -0.581411 0.333779 0.117188 0.265953 0.166205 0.476439 0.437439 0.116034 0.677424 -0.157075 -0.589547 -0.112823 -0.168393 0.227343 0.832502 0.115475 -0.087581 0.133232 -0.341897 -0.148558 -0.520690 -0.226705 0.652992 0.950041 0.328845 0.138179 -0.355084 0.064113 -0.377824 0.336783 0.290935 0.144779 -0.158965 -0.031555 -0.297637 0.411856 -0.270768 -0.109266 -0.040207 -0.016475 -0.169520 0.155881 0.442168 -0.045760 0.593988 0.095869 0.088692 0.193631 0.671072 0.390552 -0.196345 -0.651046 0.171349 0.060994 -0.235871 -0.493572 -0.328887 0.778703 0.406628 0.589886 0.229890 0.450490 -0.298843 -0.143098 1.280837 0.067323 -0.112007 0.519404 0.165676 0.323150 -0.246499 -0.302360 0.095950 -0.198937 -0.341310 0.223032 -0.165699 0.071667 0.734330 0.146408 -0.241981
а 0.425604 0.171806 0.187749 0.161873 -0.189530 0.459210 0.246122 -0.982099 -0.335496 0.218931 -0.047323 -0.095674 -0.279312 0.225357 0.743533 0.256809 -0.493004 0.653837 -0.274776 -0.152534 -0.536956 0.777992 -0.471900 0.357457 0.726176 0.348073 0.385737 0.176761 -0.077304 -0.130490 -0.477208 -0.876430 0.496452 1.018308 0.730137 0.735498 -0.021955 -0.155819 0.016469 0.408336 -0.020768 0.394973 -0.300165 0.173692 1.275738 -0.074195 0.226834 -1.028630 -0.160808 0.215401 0.335201 -0.511364 0.244982 0.489747 -0.631757 -0.383224 -0.418742 -0.562635 0.021594 0.887052 0.284396 -0.354687 -0.307494 -0.158316 0.136811 0.070708 -0.029277 -0.043834 0.269660 -1.271877 -0.218595 1.030952 0.370895 0.067693 -0.472994 0.344237 0.123837 0.388377 0.816161 0.415353 0.133309 -0.027050 0.141000 1.471804 -0.632346 0.320921 -0.543104 0.607342 -0.165971 0.122471 -0.760342 -0.109883 -0.028975 -0.500628 0.327207 -0.582863 -0.755897 0.302361 -0.346356 -0.083167
принимать -0.164293 0.402122 0.011801 0.254693 -0.659603 0.093481 0.860581 0.496547 -0.632585 -0.668446 -0.032318 -0.375238 0.163855 0.256711 -0.280446 -0.235071 -0.738595 0.135284 0.084678 0.394977 -0.990511 -0.332123 0.202669 0.359541 0.243512 0.224868 -0.015820 0.722060 -0.172307 -0.430912 0.293625 -0.608737 -0.702730 0.282495 0.128115 0.437564 0.939351 -0.236517 -0.228767 -0.807270 -0.352136 -0.101838 -0.153044 0.135061 -0.486368 0.820687 -0.639785 0.787817 -0.542323 0.457472 0.167159 0.110660 0.476600 0.360798 -0.611968 0.622102 0.237574 -0.042205 0.283607 0.313645 0.150204 -0.240519 -0.130476 -0.479511 0.655558 -0.872372 0.218374 -0.604754 0.246285 -0.478081 0.103379 0.192062 0.589240 -0.606239 -0.093987 0.679473 0.735354 -0.974964 0.406915 0.591464 -0.271322 0.458549 0.928980 0.198167 -0.131413 -0.203897 -0.225985 -0.487377 -0.184342 0.540050 0.646666 -0.194427 -0.312472 -0.444729 -0.366094 0.304513 -0.088928 0.521511 -0.672823 -0.489273
экономический 0.851916 0.153854 -0.047402 0.295617 -0.292625 -0.176276 0.812347 0.307541 0.172255 -0.063268 0.944499 0.260924 0.871295 -0.120660 0.757827 0.688443 -0.481972 -0.245674 -0.305242 -0.177991 0.121339 0.293855 0.004872 0.319169 0.180016 0.444662 0.220952 0.634380 -0.007424 -0.497562 -0.112866 -0.021111 0.004969 0.619573 0.185241 -0.058645 -0.268698 -0.448366 0.089591 -0.568035 0.333647 0.020216 0.660250 0.468190 -0.357364 0.063360 0.018173 -0.844099 0.374554 0.266108 0.264923 -0.478065 0.096572 -0.392098 0.214920 -0.257976 0.083458 0.369166 0.289546 0.100446 -0.319999 0.578014 0.176972 0.503565 0.273409 0.191394 -0.095201 0.407453 0.511396 -0.379441 -0.089811 0.303374 0.311872 -0.247675 -0.251533 -0.409111 1.048039 0.586413 0.717273 0.554321 0.307294 -0.107863 -0.379049 1.194085 0.122688 0.094282 0.686813 0.274956 0.339161 -0.422067 -0.185587 0.340535 -0.514198 -0.611503 0.133314 -0.206921 0.096911 0.907245 -0.072907 0.039710
внешний 0.958922 -0.097632 0.681379 0.975278 -0.152016 -0.167653 0.040403 0.046646 0.084534 -0.057718 0.171147 -0.202458 0.372946 0.487024 0.492736 0.010432 -0.287819 -0.468116 -0.559410 0.180846 -0.650015 0.185708 -0.126458 -0.233150 0.074839 0.652189 0.656440 0.172297 0.291098 -0.176784 0.240244 -0.398794 -0.243691 -0.039425 0.413971 -0.128772 -0.198834 -0.269254 -0.253442 0.135882 -0.481891 -0.255600 0.599043 -0.150025 1.150486 -0.181775 0.136364 -0.191100 -0.075927 0.008998 0.850444 -0.571174 0.031664 -0.916015 -0.576142 -0.369830 0.113899 -0.419489 -0.140060 0.130918 -0.629742 0.024749 -0.326016 -0.250850 0.489833 -0.230390 0.010045 0.013756 0.415860 -0.556361 0.051994 0.982006 0.295957 0.205238 -0.385369 0.079685 0.435242 0.453196 -0.387492 -0.624883 0.260928 -1.141756 0.319652 0.594805 -0.231578 0.630379 -0.787317 -0.234819 0.459552 0.297352 0.240032 -0.899846 -0.395885 -0.026590 0.177753 -0.450737 0.547177 -0.178997 -0.166461 0.321721
время -0.285969 0.312356 0.763043 0.895619 -0.006345 -0.140963 0.435004 -0.014798 0.322033 -0.774584 0.710296 -0.574126 0.856313 -0.062781 0.168465 0.412472 0.264863 -0.150342 0.313473 0.357199 -0.310209 -0.738208 1.038120 0.343267 0.236026 0.279208 -0.219369 0.218572 0.301241 -0.118595 0.243478 -0.359962 -0.037234 -0.338797 0.068226 -0.513148 0.398870 0.326480 -0.649937 -0.620793 0.086372 0.102795 -0.113813 -0.058439 -0.596538 0.471439 0.175769 1.141794 0.304697 0.275211 0.420792 0.809922 -0.158928 -0.709635 0.514932 0.847855 -0.517584 -0.013224 -0.836604 -0.409949 0.688498 -0.186217 0.102746 -0.123450 0.041759 -0.238203 -0.350571 -0.403763 0.033669 -0.072014 -0.024292 -0.369192 0.419719 -0.378459 0.419067 -0.967726 1.327615 -0.619807 -0.127738 0.107918 -0.338812 0.855849 0.137491 -0.097366 -0.285140 0.591092 0.152731 0.390865 0.116433 -0.035889 0.146390 -0.336389 -0.735336 0.266954 -0.043400 0.166985 0.600077 0.246328 0.327074 0.146467
от -0.560982 -0.209131 -0.147951 -0.176611 -0.699633 0.089016 0.184935 0.077752 -0.031777 0.078202 -0.699640 0.283488 -0.171487 -0.322583 -0.546295 -0.224544 -1.351257 0.175239 -0.016685 0.818712 0.184011 0.313932 -0.250203 0.555122 -0.535471 -0.532644 -0.354967 -0.011308 0.688746 -0.344642 -0.372682 -0.172727 0.348693 -0.516300 0.715877 -0.000703 -0.943514 -0.681164 -0.265925 0.510719 -0.550391 -0.606021 -0.227899 0.387767 0.174259 -0.443630 -0.491057 -0.714527 -0.892218 -0.067401 0.821169 0.525396 0.322017 0.572519 -0.106802 0.586006 -0.343094 0.433037 0.646213 0.154262 0.190636 0.051659 0.122739 -0.546545 1.146172 -0.563434 0.318638 0.609341 0.128466 -1.024979 0.481791 0.054754 0.135152 -0.239801 -0.790555 0.203964 0.074808 0.000096 -0.303140 0.551086 -0.672376 -0.008887 -0.364207 0.119584 -0.158101 0.012839 -0.747695 -0.529202 -0.199761 0.010805 0.068334 0.417194 0.673966 -0.678620 -0.343015 0.239941 -0.184279 0.207971 -0.149575 -0.272111
финансовый 0.852147 0.114093 0.221853 1.436877 -0.200923 -0.568661 0.106414 0.027058 -0.163892 -0.053517 -0.071269 -0.736837 -0.167647 0.740382 0.399411 0.477857 0.118307 0.394406 -0.646079 0.043337 -0.730260 0.437977 -0.679337 -0.547428 0.544562 1.096395 0.501855 -0.107342 0.950942 -0.856794 -0.669911 -0.018440 0.353186 -0.161119 0.314626 -0.309633 -0.260608 0.322317 -0.286540 0.431281 -0.723480 0.247125 -0.379629 -0.753998 0.631719 0.287189 -0.302471 -0.261601 0.461183 0.502767 0.255467 -0.079847 0.134040 -0.013545 -0.217793 0.009504 0.106520 0.296484 0.021514 -0.086111 -0.343809 -0.160212 0.136701 -0.214413 0.653902 0.027268 -0.209686 0.493072 0.495605 -0.042337 0.288522 0.188830 -0.217783 0.521221 -0.255812 -0.281546 0.587129 0.451544 -0.607373 -0.699317 -0.186706 -0.657853 0.049916 0.458781 -0.408147 0.918227 -1.026950 0.088673 0.337039 0.556796 0.113629 -0.116058 -0.231173 0.540598 0.157842 -0.096790 0.145774 -0.081735 -0.121013 0.401735
для 0.848205 1.013706 -0.091167 1.119638 0.060881 -0.320088 -0.034572 -0.114117 0.697689 0.065244 0.141508 -0.262725 0.598976 0.181199 -0.595067 0.314870 -0.593961 -0.122354 0.140132 0.397556 -0.713551 0.370344 0.365969 -0.173236 0.132898 0.720234 -0.418193 -0.047628 -0.117505 0.040208 -0.167477 -0.396477 0.455208 -0.024961 -0.467660 0.426008 0.528902 0.111104 -0.271910 0.137330 -0.029425 -0.046180 -0.178845 0.313396 -0.734620 0.618475 -0.566831 -0.839462 -0.636975 0.808262 -0.292106 0.381388 -0.452644 -0.465122 0.121830 -0.143408 0.605779 0.834158 0.289412 -0.399658 -0.470379 -0.101687 0.085839 -0.353346 0.519503 0.257262 -0.455768 -0.210685 0.435887 -0.011147 -0.083589 -0.014154 -0.166123 0.832714 -0.439663 0.362815 0.195287 -0.185057 0.077664 0.044828 -0.143093 -0.073811 -0.135408 -0.159569 -0.545024 0.514231 -0.526317 0.528526 -0.166628 0.347608 0.086532 0.061283 -0.629973 -0.182989 0.091909 -0.639242 0.155224 0.341563 -0.032312 0.351786
сторона 0.444740 0.214714 0.901953 1.197009 0.140205 0.008719 0.291715 -0.948208 0.166482 0.133916 -0.211821 0.200823 0.090839 -0.056536 0.451873 -0.095373 -0.534894 0.540982 -0.229151 1.001805 -0.724006 0.023815 0.112734 -0.313921 -0.108759 0.388728 0.605076 0.248804 -0.499290 -0.324750 0.440569 -0.374521 0.246952 0.263832 0.902382 0.463955 -0.155779 -0.294021 -0.369342 0.848204 -0.443324 -0.418435 0.175738 -0.294547 1.040185 0.190133 0.110839 -0.404876 -0.064574 0.123112 0.709499 -0.458342 0.477862 -1.189286 -0.633526 -0.525220 -0.022843 -0.038805 -0.227082 0.093606 -0.346809 -0.355869 -0.165041 -0.441099 0.359115 -0.163728 -0.374531 -0.113835 0.102317 -0.484517 -0.594905 0.558990 0.144359 -0.485571 -0.202159 0.460684 0.619697 0.352283 -0.345158 -0.608305 0.346599 -0.738758 0.562896 0.174194 -0.855175 -0.094126 -1.121403 0.718886 0.078972 -0.199321 -0.215720 -1.055912 0.039313 0.608792 -0.284726 -0.457482 -0.231000 0.405577 -0.298063 0.667129
кредит -0.318870 -0.946313 -0.612431 -0.042792 0.620673 0.162519 -0.623991 -0.435756 0.370227 0.376352 0.386131 0.737990 -0.043890 -0.465927 -1.099476 0.819380 -0.726907 0.454990 -0.431670 0.884002 0.666177 -0.525773 -0.320961 0.683765 -0.140699 -1.254042 -0.102069 -0.539937 -0.039535 0.030793 0.143281 -0.017100 0.357538 -0.956622 -0.199765 -1.047449 -0.889411 -1.068678 -0.232221 0.295831 -0.622201 0.379192 0.406923 0.208204 0.272904 -0.260153 0.175189 0.498834 0.047920 -0.286529 -0.281916 0.931313 0.090255 0.815662 0.437182 0.545416 -0.920939 0.309503 -0.079559 -0.317149 0.098942 0.326747 0.193894 0.071108 0.848939 -0.149677 -0.784021 0.142770 -0.295270 -0.693759 -0.384984 0.259967 0.115542 -0.030121 -0.221943 -0.307357 -0.323615 -0.278988 -0.422986 -0.321131 -0.563880 0.209871 -0.851970 -0.243851 -0.568517 0.187939 -0.496622 0.191358 0.110974 -0.514459 -0.377064 -0.526024 0.278947 -0.482851 -0.101837 0.699724 -0.305789 -0.265231 -0.453236 -0.323650
оценка -0.451903 -0.121050 0.512950 0.156560 -0.083527 -0.202880 0.721816 -0.865192 -0.082146 -0.278755 0.316162 0.384533 0.302363 -0.792193 0.498673 0.210008 -0.276192 0.488246 -0.209124 0.226277 -0.227634 0.090576 0.247302 -0.199774 0.337081 0.408944 0.753618 0.426553 0.167751 -0.472305 -0.414777 -0.744752 0.497873 0.477775 0.043753 0.241982 0.720490 -0.275449 0.162658 -0.111946 0.573042 -0.290589 0.099363 0.011329 -0.111062 -0.240600 -0.300361 0.445471 0.189567 0.907338 -0.076844 -0.130670 0.882480 -0.345213 0.002150 -0.399196 -0.582088 0.286797 0.306519 -0.128788 0.178001 0.270715 0.509948 0.485449 0.523788 -0.423255 0.369958 0.099384 0.171306 -0.035494 0.359300 0.520498 0.705540 -0.245552 0.410860 -0.750903 0.057417 0.522866 0.976906 -0.295770 0.143941 0.258982 0.637522 0.467646 -0.312798 -0.502111 -0.034180 -0.185225 -0.088942 -0.036636 0.248033 -0.103623 -0.252485 -0.064486 -0.196079 -0.315862 -0.157470 0.630455 0.185070 0.039893
фактор 0.120285 0.236957 0.305108 0.181315 0.471403 -0.435347 0.472898 -0.395691 0.001648 -0.138477 0.447028 0.445638 0.544855 0.018596 0.167393 0.006032 0.040496 0.239722 0.577882 0.802448 -0.654288 -0.444085 0.886156 0.610880 -0.408660 0.108647 -0.446479 -0.359427 -0.042370 -0.033137 0.024801 -0.398707 -0.083358 0.383860 0.839771 -0.324826 0.599743 -0.226049 0.010516 0.268725 -0.813978 -0.191396 0.347389 0.186140 0.437046 -0.409527 0.110665 -0.151254 -0.114450 0.208772 0.670652 -0.056957 0.127723 -0.705024 -0.457733 -0.013761 0.076215 -0.098194 0.470401 -0.126547 -0.740038 -0.584699 0.693463 -0.402033 0.255373 -0.175861 -0.096499 0.382409 0.230070 0.771169 -0.250868 0.072796 -0.149621 -0.205684 0.052333 0.112921 0.033412 0.958768 -0.087933 -0.691004 0.981425 -0.318638 0.251915 0.359231 -0.497929 0.140236 0.007409 0.437053 -0.463030 -0.113225 -0.467253 -0.086372 -0.542530 0.336524 -0.057435 0.004328 -0.021370 0.767470 0.690973 0.819437
внутренний 0.485836 0.163979 0.779920 0.618510 0.408610 -0.478141 0.525335 -0.567282 0.410729 0.423105 0.080911 0.340102 -0.191630 -0.037552 0.558046 -0.200429 -0.176536 -0.228254 -0.844184 0.219409 -0.077150 0.141156 -0.228863 -0.198975 0.292846 0.316284 0.332131 0.331931 -0.112827 -0.777341 0.585194 -0.128198 -0.048712 -0.221060 0.539382 0.296215 0.090514 0.293434 -0.426962 0.586149 -0.093843 0.186786 0.237480 -0.330682 1.199133 -0.008405 0.187546 -0.395628 -0.080117 0.263198 0.472340 -0.905410 0.636204 -0.870714 -0.290519 -0.597394 -0.280372 -0.083896 -0.441451 -0.213794 -0.082905 0.060433 -0.630714 -0.414727 0.537813 0.306830 0.310924 -0.020550 0.116917 -0.203514 -0.118097 0.534226 0.596932 0.080795 -0.155839 0.248585 0.618866 0.065545 -0.041795 -0.390967 0.363495 -0.696559 0.126541 0.620573 0.143865 0.087973 -0.886557 0.552816 0.698894 0.161625 0.066232 -1.169991 -0.185820 0.337024 -0.701982 -0.329476 0.376883 0.127498 -0.150996 0.203122
тот -0.017263 0.454229 0.072125 -0.039179 -0.198706 -0.437819 0.772883 0.307186 0.516069 -0.442954 0.255175 0.287896 0.695482 0.606260 0.354307 -0.099894 0.308857 0.291308 -0.435124 0.072246 0.122368 -0.351005 0.917079 0.267809 0.443588 0.491080 0.242949 -0.056979 0.544062 -0.190000 0.124554 -0.077420 0.252177 0.849184 0.146848 -0.654921 -0.039701 0.368987 -0.300113 -0.529589 -0.217986 0.162420 -0.386623 -0.031999 0.401910 0.213018 0.464698 -0.272993 0.020252 0.187697 1.060903 0.477859 0.118724 -0.224323 -0.047015 -0.100687 -0.125821 -1.036982 -0.529498 -0.748361 0.779584 -0.094298 -0.213112 -0.049795 0.367441 -0.052125 0.361074 -0.404041 0.684606 -0.252154 0.646578 -0.064421 0.010314 0.010109 0.819285 0.096721 0.492696 -0.276009 -0.858880 0.200357 0.284406 -0.824682 -0.018993 0.556932 -0.798649 0.332245 0.277870 0.105065 -0.122695 -0.066818 -0.857733 0.023347 -0.836894 0.680830 -0.255266 -0.306720 0.195458 0.234852 0.508457 0.171675
заседание -0.042577 -0.843111 0.447092 1.334737 0.133878 -0.955773 0.285690 0.040614 0.197751 -0.583700 0.657281 -0.951745 0.005108 -0.346023 -0.333338 0.582685 -0.443978 -0.386127 -0.020702 -0.126666 -0.709343 0.287860 -1.297958 0.150579 0.521399 -0.060790 -0.040355 0.253377 0.414389 -0.279376 -0.430557 -0.352377 -0.120430 -0.551086 -0.030777 -0.403242 0.956576 -0.064695 -0.267198 0.198440 -0.478055 -0.016134 -0.939144 -1.137126 -0.017205 1.009926 -0.669295 0.737343 -0.074397 0.490361 0.520469 -0.261116 0.190276 -0.474219 -0.208920 0.417469 0.292054 0.828082 -0.738679 0.031703 0.047392 0.222771 0.299497 0.432990 0.343234 -0.386341 -0.490912 -0.819751 0.368779 -0.367907 0.078680 0.704927 0.528607 0.122835 0.102688 -0.293895 1.232684 -0.549855 -0.381682 -0.321704 -0.222332 0.434366 0.666449 0.432214 0.012128 0.373112 -0.145548 -0.305599 -0.266275 0.780554 0.619198 -0.089897 -0.034989 0.066859 -0.451283 -0.364090 0.664818 -0.007704 -0.375935 0.228958
что -0.179404 0.290404 -0.387139 0.325875 0.400824 0.365591 0.950983 0.281635 0.353769 -0.128276 0.339823 0.342153 0.251101 0.324913 0.408930 0.405512 -0.372624 0.514584 -0.284837 0.648341 0.099100 0.027615 0.179604 -0.058020 0.493098 -0.337139 0.572845 0.203969 0.221798 -0.116920 -0.125065 0.282329 -0.254451 -0.121003 0.480646 0.098668 0.822993 -0.034851 -0.245200 -0.087019 -0.749167 0.531527 -0.426524 0.101579 0.286256 0.045586 -0.467015 -0.267347 -0.674741 1.100828 -0.038007 0.475066 -0.136134 -1.076181 -0.279006 -0.666692 0.677688 0.213496 0.872599 -0.289804 -0.055172 0.393170 0.300179 0.329841 0.001880 0.139640 0.268240 0.190931 -0.108886 0.103971 0.415854 -0.725613 -0.084674 0.227655 0.165202 -0.162681 0.484348 -0.306679 0.522697 -0.438965 0.258689 -0.087475 0.213333 0.379508 0.041060 -0.407481 0.309132 -0.320436 0.903110 -0.271033 -0.459077 -0.031305 -0.222057 0.508934 -0.102706 0.053180 0.767160 0.671001 1.419537 -0.027669
высокий 0.369370 0.823771 0.226232 -0.199679 -0.083277 0.648140 0.588131 -0.399224 -0.102809 0.337724 -0.145371 0.228552 0.449987 0.616680 0.379910 -0.549892 -0.228370 0.023082 -0.111061 -0.432306 0.428665 0.051241 0.221642 -0.306024 0.915643 -0.174546 0.319079 0.275020 -0.558664 -0.605009 -0.217795 -0.101511 0.367181 0.299069 -0.149581 0.149857 -0.184868 -0.146321 -0.392785 0.133591 -0.412230 0.420778 -0.026011 -0.865616 -0.463806 -0.433333 -0.146785 -0.265001 -0.401223 -0.020646 0.131861 -0.430571 0.496773 -1.208286 -0.394335 -0.189356 -0.057212 -0.198580 0.466639 -1.224231 -0.035589 -0.270733 0.129347 0.224523 -0.359057 -0.220852 0.170618 0.002798 0.336981 -0.065041 -0.532284 0.197318 -0.320186 -0.551702 -0.725237 -0.128918 0.210786 0.339648 -0.734833 0.687844 0.391865 -0.027616 -0.340102 0.298290 0.455923 -0.584025 -0.667828 0.334394 -0.387793 0.134004 -0.410479 -0.065114 0.381474 0.350169 -0.403235 0.103355 -0.155343 0.576671 0.448104 -0.419380
учет 0.286017 -0.121960 0.033653 0.074952 -0.371417 0.018272 0.649102 -0.236592 -0.600745 -0.262507 0.219839 0.322072 -0.469022 0.482335 -0.198402 -0.113870 -0.763275 -0.557397 0.101734 0.233415 -0.294622 0.506874 -0.287432 0.920510 0.104225 -0.102011 -0.086937 -0.025689 0.224899 0.228292 0.133679 -0.171668 0.017878 0.267762 0.055539 0.152026 1.188760 -0.468224 -0.393754 -0.034587 -0.253122 0.123572 -0.346495 -0.956506 0.055483 -0.330464 -0.994764 -0.130294 -0.820750 0.598318 0.669615 0.283107 0.989837 0.203108 -0.386516 0.014222 -0.005669 0.170618 1.105520 0.126529 -0.293983 0.076801 0.511947 0.499461 0.201491 -0.222212 0.362486 -0.553350 0.627722 -0.258187 0.357194 0.711803 0.023698 0.482712 -0.079856 0.684534 0.292957 -0.215632 0.178663 0.538749 0.349045 0.046250 1.141717 0.327097 -0.518059 -0.304221 -0.787146 -0.114927 -0.376802 0.539642 -0.370219 -0.085283 0.120906 -0.458600 -0.679262 -0.773841 0.361153 1.049400 -0.898925 0.163263
оказывать 1.389643 0.008052 -0.300193 -0.240170 0.127959 -0.433443 0.562903 -0.194217 0.193116 -0.180744 -0.078898 0.620297 0.463909 0.144319 0.523008 -0.519509 0.124226 0.239290 0.288926 -0.133996 -0.116219 -0.056843 0.921307 0.177763 0.784054 0.457166 -0.652459 0.362958 0.486066 -1.085763 0.176510 -0.358272 -0.481869 0.940233 0.398349 -0.051432 0.237727 0.092472 -0.310771 -0.085516 -0.740065 0.633097 0.162272 0.339075 0.621020 -0.068859 0.288754 -0.399668 -0.229466 0.520230 0.021253 -0.131367 0.200490 -0.423060 -0.267125 -0.374024 0.166793 -0.241777 0.498619 0.165211 -0.420796 0.250195 0.280148 -0.769564 0.279551 0.360470 0.743050 0.483628 0.459631 0.409659 -0.412629 -0.271504 0.331357 -0.553987 -0.472265 0.940970 -0.142645 -0.095511 0.290596 -0.093026 0.723256 -0.332076 -0.033931 1.163050 0.196739 0.753528 0.717538 0.224994 0.112881 0.637031 -0.250275 -0.164718 -0.852750 -0.034026 -0.590327 0.781824 -0.787291 0.405016 0.448232 0.331185
проинфляционный 0.378912 0.444090 0.055960 0.736554 -0.302988 -0.304127 -0.343312 -0.739384 0.029296 -0.154930 0.048407 0.138282 0.471833 -0.373984 -0.101995 -0.406046 -0.516966 0.543862 0.608077 1.227928 -0.114418 -0.361579 0.052711 -0.318733 -0.525603 0.576192 -0.640750 -0.110835 -0.233391 0.327729 -0.006525 -0.502429 0.061398 0.045297 0.540531 0.229465 -0.165475 -0.015207 -0.384988 -0.431871 -0.490379 -0.480571 0.771957 -0.032032 0.893865 -0.112153 0.057760 -0.278527 -0.708149 -0.489277 0.864198 0.464660 -0.049988 -0.940583 -0.348092 -0.147416 -0.016458 0.271455 -0.056082 -0.438462 -0.145611 -0.133238 0.663625 -0.923751 0.616327 -0.354593 -0.580899 -0.252601 0.237179 0.435295 -0.185528 0.393014 -0.583478 -0.473109 -0.274571 0.186377 0.349600 0.847675 -0.660639 -0.253762 0.760037 -0.879768 0.263251 0.330878 -0.491201 0.003837 -0.407129 -0.014681 -0.756419 -0.370183 -0.209708 -0.389805 0.019239 0.556364 -0.316207 0.007797 -0.318600 0.848598 0.250444 0.464953
российский 0.328900 0.301658 0.803638 0.155637 -1.103427 -0.476293 0.177228 0.211355 0.615785 0.078190 0.040371 0.318287 0.794947 0.628243 1.004541 0.122756 -0.059892 -0.199555 -0.232064 0.310981 -0.116459 -0.240868 -0.061558 -0.101931 -0.180552 0.522124 -0.040929 0.223111 0.098244 -0.181448 0.480929 0.383614 -0.040848 0.270400 0.488217 0.029013 -0.739245 0.062578 -0.297527 0.210822 -0.088682 0.136082 -0.095984 -0.142512 -0.175085 -0.561473 -0.390577 -0.172652 -0.503167 0.773827 0.589982 0.159526 -0.634828 -0.906495 -0.103714 0.018399 -0.136551 0.149085 0.730941 0.033845 -0.572475 0.934600 -0.317548 -0.274167 0.552754 0.120923 0.125621 0.506065 0.358209 -0.842222 0.998851 -0.453590 0.177652 -0.186220 -1.121164 0.035331 0.636599 0.232821 0.161373 0.148175 -0.265703 -0.599548 -0.198180 0.592372 -0.115879 0.351339 -0.466705 -0.062609 0.165463 0.650406 0.032510 0.151678 -0.617535 -0.218754 0.450286 0.299758 -0.176474 0.451542 0.866713 0.145372
день -1.285271 -0.104313 -0.388205 0.126365 -0.374322 0.084597 -0.686333 0.228133 0.064249 -0.093499 -0.367679 -0.103068 -0.902433 -0.189104 -0.759620 0.542410 -0.484374 0.739102 -0.340293 0.715244 0.598604 -0.011013 -0.519664 0.335329 -0.389591 -0.255262 -0.160252 -0.311587 0.126915 0.097914 -0.770398 0.261524 0.372922 -0.761482 0.172176 -0.913604 -0.718127 -0.871674 -0.156368 0.900134 -0.397858 -0.007758 -0.139169 0.521498 0.187273 -0.431096 -0.373096 0.723754 0.011705 -0.280320 0.408649 0.881343 -0.164843 1.162065 -0.027205 1.247341 -0.696578 0.073373 0.393166 0.179101 0.203261 0.593342 0.298248 -0.217716 0.414098 -0.756537 -0.364608 0.205708 -0.380122 -0.638339 0.272853 -0.052335 -0.041070 -0.230370 0.224119 -0.026484 -0.365059 0.023555 -0.262718 0.099025 -0.819233 0.403898 -0.279164 -0.178307 -0.184853 -0.112639 -0.739680 -0.381759 0.013969 0.003057 -0.081578 -0.001129 1.175467 -0.623737 -0.027011 0.815903 -0.280331 -0.713327 -0.772592 -0.348291
замедление 0.113490 0.921044 0.045659 0.168479 0.422823 -0.229465 0.913327 -0.087907 0.394198 -0.446836 0.329061 0.320377 0.306670 0.354038 0.426800 -0.472569 -0.003708 0.095412 0.161322 -0.242360 -0.241488 0.049907 0.600149 0.266725 -0.171153 0.588758 -0.419300 -0.148759 0.222376 -0.569705 -0.030736 -0.762433 0.425731 0.019939 0.701542 -0.179273 0.209841 -0.215736 0.281313 -0.089406 -0.006329 0.038639 0.281620 0.007780 -0.556255 0.076550 -0.452679 -0.316695 -0.255424 0.736164 0.180232 -0.068898 0.221849 0.137864 -0.427419 -0.038037 -0.091283 -0.079577 0.387992 -0.052722 -0.282559 -0.303663 -0.331686 -0.032652 0.726806 0.059444 -0.209846 0.738026 0.243764 0.490082 0.679202 0.232376 0.275300 0.423827 -0.184557 -0.236846 0.105411 0.248730 0.730513 0.094638 0.163276 0.026752 -0.140854 0.252915 0.027171 -0.266270 -0.369268 0.172066 0.472636 -0.596037 -0.029582 -0.289679 -0.228685 -0.396080 0.336652 -0.210164 0.419617 0.870638 0.302904 -0.243358
происходить 0.321961 -0.048908 -0.387489 0.456495 0.464160 -0.239250 0.621026 0.494592 0.046100 -0.493331 0.222764 0.501087 0.532804 0.539510 0.260630 -0.170916 0.245149 -0.680384 0.334411 -0.764370 -0.175076 -0.040245 0.032229 0.392182 -0.240448 0.477883 0.369331 -0.251679 -0.101481 -0.365907 0.346856 -0.355866 -0.149034 0.506482 0.339475 -0.427037 -0.098266 -0.499050 -0.152413 0.042192 -0.711186 0.593490 1.084868 0.066629 0.632420 -0.539722 -0.074239 -0.222954 -0.019628 0.546532 0.798034 0.095261 0.519092 0.507517 -0.172712 -0.118018 0.756056 -0.592191 -0.580744 0.295084 0.202362 -0.072544 -0.772892 0.141178 -0.045997 -0.478285 -0.332608 0.522612 0.631641 0.278653 0.339757 0.953443 -0.017744 -0.162029 -0.027827 -0.198887 0.174924 -0.253449 0.303649 -0.083062 0.041323 -0.164565 0.109291 0.264152 0.229972 0.406237 -0.358962 -0.135668 0.024905 -0.738753 0.190320 -0.751207 0.083223 -0.236837 0.055791 0.036592 -0.712033 0.565752 0.375205 -0.539648
снижаться -0.093876 0.514860 -0.719585 0.352281 0.455662 -0.347636 0.256091 -0.279186 -0.021371 0.109062 0.582922 -0.066177 0.317001 0.595770 -0.251313 -0.344378 -0.309296 1.005872 -0.082295 0.082295 -0.146314 -0.322973 -0.134157 0.051223 0.025459 0.393423 -0.057870 0.292421 -0.141782 0.019283 -0.907592 -0.416617 -0.116475 0.371784 -0.285764 0.153516 0.711667 -0.282369 0.230995 0.021107 0.171996 0.306275 0.488918 -0.385869 0.130811 -0.083037 -0.410574 -0.102934 -0.504455 0.908553 0.215895 0.193638 0.674358 0.051741 0.228862 -0.191458 -0.259159 -0.278537 -0.000925 -0.327884 0.133775 0.604991 -0.180673 0.822821 -0.122433 -0.128291 0.240062 0.217577 0.255047 0.501416 0.501533 0.374657 -0.124035 0.621146 0.487585 -0.259466 0.653489 -0.232836 0.128846 -0.319506 0.685137 -0.101234 0.305871 0.208585 -0.141528 -0.840052 -0.583286 -0.262905 -0.411165 0.283062 0.190921 -0.077640 0.372146 -0.174785 -0.706631 0.106557 -0.036042 0.835509 0.514024 -0.034559
население 0.620602 0.957028 -0.999463 0.341324 0.645540 0.418986 -0.063218 -0.214929 0.257459 0.190467 -0.246235 0.113817 0.428210 0.396651 -0.480441 0.143606 -0.127874 0.815433 -0.379574 -0.469197 -0.011935 0.163657 0.423527 0.000888 0.913299 0.344744 0.456775 0.410807 -0.100787 -0.436773 -0.888090 -0.615957 0.490488 0.467179 -1.008663 0.109849 0.096013 0.100126 -0.104455 0.177338 0.278161 1.024337 -0.071940 0.347166 -0.200255 -0.294006 0.228236 -1.149226 -0.708528 0.789985 -0.092042 0.363919 0.175258 0.183466 -0.158295 -0.479598 0.676924 -0.514665 -0.399837 -0.449785 0.448305 -0.003483 -0.098295 0.227278 -0.252658 0.199545 0.106873 0.258131 0.062701 -0.105659 -0.481350 0.229796 -0.103007 0.877972 0.478741 -0.431988 -0.056327 -0.477607 0.559682 -0.074234 0.429000 0.019245 -0.177044 0.263993 -0.151759 -0.143673 -0.181421 0.209747 -0.635032 -0.116887 0.003279 -0.253642 0.117030 -0.213658 -0.371375 -0.568536 -0.595379 0.931629 0.544781 -0.221427
со 0.345519 0.022498 0.984840 0.872325 0.112627 0.051695 0.637531 -0.842357 -0.130837 -0.007171 -0.162741 0.131815 0.068506 0.092696 0.600025 -0.059823 -0.354561 0.349131 -0.365785 0.736189 -0.803558 0.307825 0.198526 -0.293552 0.277372 0.423678 0.553932 0.444967 -0.309413 -0.242032 0.528644 -0.439139 0.069403 0.367380 0.894611 0.552596 0.270134 -0.105740 -0.412212 0.597170 -0.348783 -0.393495 0.527336 -0.135681 1.370246 0.345847 0.184855 -0.429711 0.402420 0.315228 0.550749 -0.665259 0.416199 -0.840840 -0.614205 -0.514519 -0.131878 -0.384414 -0.256901 0.305621 -0.225859 -0.460780 -0.222096 -0.323891 0.156541 0.024176 -0.218216 0.002434 0.161398 -0.283293 -0.501809 0.775083 0.336050 -0.336353 -0.053774 0.535908 0.609304 0.472673 0.124193 -0.575222 0.344181 -0.582856 0.654786 0.555353 -0.698925 -0.002277 -0.831398 0.752960 0.180166 -0.329806 -0.132126 -1.026169 -0.188489 0.388159 -0.280837 -0.537681 -0.350155 0.294098 -0.313483 0.485769
мера 0.206578 -0.366466 -0.095379 -0.184098 -0.310579 -0.176965 0.217124 -0.243263 0.035251 -0.158363 0.037855 -0.261176 0.496515 0.467575 0.399229 0.107621 -0.978942 0.040525 -0.168961 0.257154 -0.496575 -0.245681 -0.047911 0.705124 -0.254135 -0.106844 -0.115721 0.011676 -0.024402 -0.075065 0.548629 -0.598413 -0.578940 0.212352 0.228011 0.678701 0.254270 -0.402366 0.167332 -0.864610 -0.228576 0.041789 -0.068502 -0.026731 0.151419 0.591459 0.533424 -0.224389 -0.060797 0.423210 -0.162163 0.412425 0.224652 0.892199 0.277592 -0.389810 -0.334812 -0.541814 0.354527 0.575585 -0.317200 -0.140767 0.317559 -0.557094 1.211769 0.079898 -0.071124 0.001018 0.047859 -0.101755 -0.087371 -0.025028 -0.089780 -0.494230 -0.585085 0.631858 0.460098 -0.364527 -0.055213 0.404185 -0.083398 -0.426031 0.065137 0.472073 -0.746192 0.401161 0.611113 -0.214772 0.804598 -0.378090 -0.845365 0.719803 -0.791507 0.013116 0.342809 0.255722 -0.838588 0.450358 -0.204570 -0.063168
о -0.398825 0.364651 0.131564 0.650461 -0.766596 -0.145073 0.372020 0.824934 0.518565 -0.581076 0.417847 -0.463822 -0.080189 0.419883 -0.209059 0.652547 0.283717 -0.223385 0.128388 0.031715 -0.331637 -0.048961 0.420820 0.560236 0.544069 -0.003514 0.273125 0.491685 -0.583057 -0.634447 0.243337 -0.300893 -0.218785 0.041994 -0.755052 -0.202821 0.923638 -0.024321 -0.895957 -0.366998 -0.111826 0.851170 -0.660252 0.527926 -0.822760 0.683161 -0.123280 1.014757 0.644189 0.004942 0.379498 0.363629 -0.412609 -0.661761 0.326008 1.143426 0.169481 -0.182585 -0.237175 -0.335220 0.355341 0.012865 0.065401 -0.321793 -0.225552 -0.285708 -0.424742 -0.147635 -0.204677 -0.742645 -0.218006 0.115638 0.512572 -0.939789 0.485847 -0.762284 0.409097 -0.554454 1.298690 0.844953 -0.599247 0.606548 -0.023551 0.714731 0.151670 -0.022448 0.204451 -0.294389 0.528382 0.332883 0.251140 -0.395003 -0.208730 -0.540296 0.275410 0.361800 0.554665 -0.180106 -0.314435 -0.693857
среднесрочный 0.162838 0.297767 0.207592 0.835272 -0.304165 -0.782258 -0.261979 -0.719690 0.327952 -0.416450 0.286634 -0.377481 0.295464 -0.499272 0.325541 0.639850 -1.213405 0.357252 0.400587 0.553339 0.407844 0.018517 -0.541715 0.319978 0.521454 0.402684 -0.606273 0.177251 0.202199 0.000490 -0.467713 -0.821360 -0.198620 -0.033305 -0.258287 -0.042843 0.480256 0.229201 -0.218659 -0.323632 0.367357 -0.410636 -0.780085 -0.162994 0.125063 0.029808 0.519249 0.030257 -0.442307 0.071822 0.150533 0.047401 -0.296911 -0.833109 -0.556897 0.354891 0.005094 0.521552 0.067101 0.127817 0.312749 0.718463 0.882307 -0.719274 0.729454 0.069051 -0.317168 -1.022181 0.149713 0.043240 0.572160 -0.236281 0.229136 -0.107946 0.166546 -0.451030 0.870552 0.724539 0.367496 0.039989 -0.000582 0.482407 0.186775 0.310960 0.215640 -0.004135 0.160696 -0.428539 -0.754996 0.463536 0.248534 0.269701 -0.507203 -0.055926 -0.565900 -0.113324 0.342118 0.562595 -0.274357 0.138075
не 0.778175 0.195780 -1.057135 -0.055753 0.818679 -0.546899 0.267192 -0.029157 0.001230 -0.019152 0.368374 0.675991 0.110698 0.023089 -0.042719 0.349857 -0.629640 1.448901 -0.040874 -0.665450 0.389894 0.107504 0.338527 -0.195433 -0.470996 0.121618 -0.746589 -0.057645 0.007326 0.160257 -0.072055 -0.302211 -0.531237 -0.766537 0.179219 0.196985 0.434999 -0.521454 -0.548085 -0.289911 -0.602560 0.384960 -0.000064 0.788308 0.345781 0.645128 -0.067975 0.181853 -0.088724 0.411810 -0.195153 0.219437 -0.313332 -0.535962 -0.309055 0.185769 0.547700 0.147368 0.176308 0.429057 0.812523 0.684623 0.383051 0.367897 0.816463 0.330932 -0.760777 -0.477930 0.375831 0.033326 0.503041 0.341530 0.564655 0.017183 -0.895811 0.057398 0.349834 -0.082059 0.200979 0.270225 0.261746 0.082460 -0.216531 0.365244 -0.023275 0.063535 -0.043917 0.686504 -0.754692 -0.063014 0.534970 -1.075506 -0.022633 -0.551143 0.088220 0.904919 -0.273083 0.292473 0.235716 0.004773
продолжать 0.784633 -0.066599 -0.442917 -0.218430 0.904813 -0.854292 -0.076282 -0.398175 0.262535 0.295824 -0.043255 0.280788 0.140258 -0.043741 -0.526845 -0.246254 0.330107 0.393014 -0.336476 0.244503 -0.179787 -0.233667 0.331787 0.145326 -0.093885 0.011583 -0.235058 0.673394 0.066159 -0.980311 -0.459633 -0.139558 -0.309218 0.213339 -0.467929 -0.128826 -0.058548 0.129289 0.214363 0.242580 0.112943 0.314742 0.554578 -0.261797 0.092490 0.223679 -0.467456 -0.526551 0.069133 0.537057 0.611325 0.093703 1.118114 -0.285983 0.483369 -0.163606 -0.222158 -0.260628 0.255117 -0.316779 -0.446944 0.622030 -0.217947 0.147331 -0.032240 0.329553 0.728737 0.295723 0.511067 0.030267 -0.037224 0.064837 0.229265 0.154051 0.197582 -0.045636 0.620123 -0.779862 0.370186 0.044432 0.747998 0.073031 -0.078306 0.831669 0.113732 -0.213168 0.018233 -0.221920 -0.186032 0.746805 -0.139407 -0.014197 0.056776 0.110597 -1.338831 0.537236 -0.592356 0.590313 0.778055 0.077034
повышение -0.074595 -0.065945 -0.390072 -0.167871 0.732707 -0.354864 0.061849 0.322567 0.342195 -0.933024 0.267216 -0.110593 0.164738 -0.360717 -0.625398 -0.040428 0.926407 -0.420546 0.306450 0.213384 -0.551385 -0.011006 -0.413173 0.068670 0.393336 -0.192897 -0.222712 -0.232080 0.198058 -0.082946 -0.082334 -0.494251 0.143393 0.256625 0.203145 0.312577 0.149707 0.071652 0.088615 -0.144362 -0.415936 0.687548 -0.190580 0.541393 0.314134 0.536810 -0.947147 -0.250923 -0.323946 -0.118748 0.518034 -0.055130 0.234402 0.593052 -0.278078 -0.001014 0.023896 -0.148015 -0.541836 -0.058023 0.511629 0.193590 0.168554 -0.067476 0.392426 -0.843144 0.168824 0.081659 0.443764 0.246702 -0.058953 0.527292 0.155177 -0.192795 -0.093477 -0.078404 0.095272 -0.532014 0.204458 0.562141 -0.022216 -0.195494 0.086959 1.027441 0.309307 0.662277 0.262666 -0.542527 -0.395949 -0.233351 -0.172618 -0.169771 -0.119276 -0.531830 -0.162165 0.036323 -0.165885 0.368051 0.889354 -0.075575
товар 0.753927 0.041579 0.619626 0.229482 0.327782 -0.135938 -0.311337 0.237458 0.287713 0.136809 0.253961 0.111816 0.036812 0.431674 -0.013118 0.031557 0.361559 0.379162 -0.300347 0.516041 -0.420818 -0.883563 0.311036 0.422992 0.501329 -0.362684 0.309930 -0.757351 -0.244130 -0.044504 0.546246 -0.420799 0.149192 0.124231 0.857291 -0.278967 -0.069077 0.211327 0.193632 -0.093923 0.388794 0.898539 0.487857 -0.521091 0.175809 -0.998722 -0.417315 0.365440 -0.073979 0.665085 0.537854 0.030292 0.075198 -0.331778 0.177916 -0.002298 -0.026143 -0.031170 0.075383 -0.108215 -0.379966 0.572581 0.081840 -0.536041 -0.217479 0.629194 0.357532 0.898182 0.130186 -0.852644 1.245616 -0.529566 -0.120092 0.148909 -0.035151 0.238538 0.002961 -0.106658 0.091381 0.048923 0.078825 -0.491528 0.021011 0.051247 -1.098665 -0.058744 -1.189386 0.299868 -0.200871 -0.121753 -0.391253 -1.057831 -0.358907 0.147141 0.174713 -0.284144 -0.347286 0.581724 0.640582 -0.039378
прирост -0.398638 0.003008 0.025080 -0.265942 0.393089 0.318638 0.397931 -0.088281 0.200040 -0.274018 1.126171 0.153309 0.654334 0.196318 0.017156 0.246579 -0.048125 0.679852 -0.115475 -0.032720 0.550993 -0.615784 -0.152039 0.206212 0.485034 -0.330899 0.512587 -0.121653 0.053531 -0.151156 -0.313056 -0.909877 0.330185 -0.015444 0.316548 0.288731 0.370520 -0.521284 0.426202 -0.590079 0.573527 0.334795 0.267000 -0.194535 -0.573369 -0.024161 -0.636224 0.682683 -0.620122 0.890653 -0.027725 -0.326212 0.650447 0.218579 0.287165 -0.099334 -0.927768 -0.138143 0.212241 -0.534457 0.103637 0.485046 -0.284476 1.349974 0.048299 -0.368532 0.865086 -0.001425 0.190024 0.351504 0.296758 0.517127 0.422318 0.311039 0.102908 -0.135448 0.216866 0.069268 0.597842 -0.272095 -0.255046 0.515786 0.071335 0.057553 -0.121676 -0.719714 -0.062404 -0.143154 0.129620 -0.884144 0.251208 -0.271009 -0.142488 -0.326226 0.004298 0.011029 -0.013487 0.370058 0.889191 -0.156669
бюджетный 0.372378 0.444855 -0.516526 -0.164320 -0.102591 -0.688479 0.125666 -0.657299 -0.333219 -0.244133 -0.087890 -0.070140 0.657037 -0.045490 -0.126234 0.046729 -1.309129 -0.130000 0.197605 -0.095041 0.486721 -0.304082 -0.287843 0.022777 0.230097 0.146259 -0.274007 0.013989 -0.247272 -0.474455 -0.047085 -0.444027 -0.506613 0.456085 0.052388 0.561476 0.082482 1.170416 0.497392 -0.375338 0.168831 -0.282249 -0.665503 0.230937 0.758568 0.374996 0.697754 0.083054 -0.706890 -0.296592 -0.195177 -0.596005 0.635841 0.167135 0.364545 -0.528567 -0.197889 -0.131204 -0.118616 0.460372 0.770988 0.514791 0.304281 -1.115140 0.547343 0.162144 1.466863 -0.878604 -0.142386 0.053746 0.029184 -0.377500 -0.014139 -0.047879 -0.304983 1.072864 0.338771 0.029173 -0.310361 0.171939 -0.091669 -0.210166 -0.041692 -0.357973 0.064154 0.471674 0.772045 0.475623 -0.513925 0.393418 -0.151033 0.188002 -0.533696 0.737398 -0.801169 -0.404163 0.236850 0.266692 -0.205915 -0.043010
кредитование 0.834480 0.872204 -0.632004 -0.661140 0.118659 -0.007767 0.658871 -0.238290 -0.374008 0.571912 0.346833 0.600304 0.428149 0.364316 -0.726213 -0.689647 0.087910 0.472802 -0.627845 -0.768044 -0.130217 -0.048241 0.100101 0.348513 0.188266 -0.024739 0.008095 0.636152 -0.188657 -1.139825 -0.464867 -0.300184 0.338399 -0.283867 -0.213081 -0.609446 -0.283314 0.311289 0.102352 0.044515 -0.127685 0.221877 0.800758 0.355022 -0.321255 0.248781 -0.234865 0.267239 0.187287 0.034230 0.194808 -0.322795 0.133816 0.297730 -0.103082 -0.190086 -0.120567 -0.226926 0.049316 -0.456730 -0.172457 -0.345821 0.347746 0.146670 0.271954 0.274200 0.552310 0.020667 0.386569 0.053257 -0.679053 0.431141 0.493860 0.257397 -0.781441 0.207493 0.213148 -0.026950 0.342139 0.560950 -0.188762 -0.380656 -0.162517 0.910462 -0.202012 -0.034086 0.695407 0.504553 -0.120483 0.373556 0.365924 0.157679 0.101865 0.010972 0.255221 0.329009 -0.157251 0.362597 -0.124901 -0.259084
число -0.200278 0.296445 -0.032508 -0.426102 -0.478945 -0.241776 0.927498 0.347811 0.243531 -0.594250 0.149536 0.071555 0.546794 0.430895 0.192020 -0.185022 0.483220 0.271199 -0.484797 0.168416 0.054983 -0.191192 0.736647 0.509915 0.388959 0.110803 0.574177 -0.049677 0.916427 -0.106968 0.178409 0.092683 0.348244 1.261895 0.281918 -0.658786 0.024283 0.246156 -0.148262 -0.414147 -0.383072 -0.239677 -0.536326 -0.177153 0.479872 0.429910 0.715253 -0.521612 0.238761 0.112479 1.269357 0.076125 0.202536 0.005581 -0.306682 -0.052057 0.061576 -1.151871 -0.698331 -0.618224 0.898701 -0.361733 -0.190702 0.095378 0.118490 0.075898 0.680235 -0.316531 0.814834 -0.435380 0.719851 0.136434 0.082466 -0.139056 0.969459 0.254328 0.237428 -0.555094 -0.905669 0.200395 0.250113 -0.888284 0.080939 0.638961 -0.850767 0.090929 0.266169 -0.019529 -0.397517 -0.110241 -0.933987 0.291509 -0.767424 0.797174 -0.191332 -0.476648 -0.024169 0.076430 0.470064 0.101021
базовый -0.309336 0.347247 -0.182298 0.361546 -0.289822 -0.676714 0.221714 -0.268601 0.653585 -0.422969 -0.263925 -0.523721 0.545627 -0.085428 0.599431 0.475030 -0.647600 -0.453510 0.240452 0.651074 -0.054899 0.267584 -0.704323 -0.722540 -0.175956 -0.123582 -0.529741 -0.589236 -0.575812 -0.371516 -0.437386 -1.078488 -0.008156 0.458436 0.522772 0.707903 0.510078 -0.101031 0.608766 -0.180773 0.104889 0.225703 -0.634458 -1.047055 -0.033116 0.454673 -0.896184 0.021513 -0.832205 1.297564 -0.431632 0.237092 -0.098593 -0.317319 0.421001 -0.482161 0.050627 0.626818 0.334614 -0.464894 0.146436 0.329475 0.386633 0.471992 0.626355 -0.372534 0.005940 -0.508156 0.123464 0.587123 0.326288 0.594546 -0.182725 0.100729 0.221863 0.752692 0.193959 0.389485 -0.728642 -0.049345 0.188202 0.649035 -0.134232 -0.434643 0.087141 0.132406 -1.156658 0.143056 0.243696 0.138540 -0.352904 0.454229 -0.669809 -0.051885 -0.174258 -0.584640 -0.064792 0.404252 0.523956 0.260562
более 0.551475 0.042083 -0.297100 0.415266 0.101352 -0.165226 0.321816 -0.481340 0.626009 -0.340958 -0.093501 0.901853 0.224210 -0.471914 0.759838 -0.962420 0.080422 -1.091889 0.578447 0.649751 0.095834 -0.129072 0.687597 0.246872 -0.199515 0.453139 -1.001702 -0.248222 0.556664 0.130002 0.583263 -0.430296 0.386862 -0.168323 1.092914 0.262605 0.481391 -0.281287 -0.612196 0.082550 -0.343952 0.115242 0.074765 -0.110256 0.108797 -0.631718 0.068603 -0.470206 -0.492750 0.629081 0.237955 0.538895 0.098931 -0.249078 0.475227 0.005945 -0.211079 0.504606 -0.529024 -0.283694 0.304206 -0.428776 -0.354078 -0.895827 0.426133 0.491534 0.239937 -0.177270 0.540089 0.943874 -0.599512 -0.333524 -0.195413 0.156998 -0.775290 -0.278831 0.225753 -0.680917 -0.159686 -0.113286 -0.140787 0.350229 -0.274530 -0.618355 0.234182 0.545961 -0.012979 0.476891 0.195643 -0.438205 -0.561320 -0.269909 -0.487425 -0.225161 -0.095373 -0.649103 -0.484616 0.727583 0.254580 0.258596
вблизи 0.161798 0.370994 0.295010 0.293122 0.589374 -0.102784 -0.055738 -0.528503 -0.190156 -0.468536 0.938098 -0.367313 0.135761 -0.555170 0.163105 0.092861 -0.689632 0.073690 0.368196 0.681459 0.360167 -0.259834 -0.147630 -0.036764 0.114697 0.829406 -0.543590 -0.025000 0.567541 0.096435 -0.465061 0.060695 -0.128375 0.459562 -0.239944 0.227597 -0.196210 -0.306651 0.266773 0.269766 -0.300437 -0.812985 -0.600231 -0.176269 -0.904387 0.206202 0.124500 -0.351895 -0.288209 0.119816 -0.082992 -0.407805 0.933314 -0.573730 -0.336685 0.275356 0.004861 0.998082 0.104975 0.466273 0.344125 0.670450 -0.086456 1.114053 -0.254379 0.031141 0.116793 0.120843 0.782271 0.810270 0.399059 -0.334319 0.435964 -0.078738 -0.290460 -0.215302 0.217172 -0.405386 -0.404041 0.154897 0.850909 0.328047 0.990404 0.034238 0.237986 0.042354 -0.537183 -0.313383 -1.025159 0.552401 0.058068 0.545869 0.471921 -0.803559 -0.302393 -0.012001 0.253208 0.086342 -0.136518 0.462911
за -0.723031 0.045211 -0.152630 0.467637 -0.206503 -0.023056 0.663080 0.064053 0.084223 -0.388005 1.118975 0.517610 0.653872 -0.474539 -0.425084 -0.213477 0.220693 -0.176310 -0.581367 0.214035 0.341090 -0.342512 -0.304841 -0.663551 -0.066315 0.041598 0.364720 -0.244836 -1.045726 -0.297200 -0.448575 0.591814 0.764542 0.977907 -0.075125 -0.101822 -0.000759 0.027281 0.029469 0.165616 -0.189509 0.117831 0.736060 -0.167630 0.659720 -0.168731 -0.738010 0.156722 0.262486 0.015780 0.539544 0.011324 0.266043 -0.183725 0.080895 -0.563623 0.624255 -0.179203 -0.753096 -0.978392 1.016620 0.215244 -0.746592 0.375612 -0.297151 -0.409978 0.101258 -0.075211 0.895304 0.001609 0.613625 0.618975 -0.128945 -0.590196 0.429018 -0.084318 -0.195502 0.420646 -0.505132 0.533956 -0.139569 -0.538871 -0.341199 0.053423 0.141151 0.526875 -0.351191 -0.055381 -1.070251 -0.192500 -0.465517 -0.046893 0.212810 0.670427 -0.037181 -0.482749 -0.698721 0.629043 0.695101 -0.970125
пресс -0.179951 -0.262140 0.715546 0.885294 -0.511398 -0.220766 0.602598 0.134028 -0.284144 -0.712563 0.421652 -0.601636 0.517137 -0.236045 0.582330 0.680626 0.659773 0.169275 0.191850 0.233957 -0.468716 -0.890946 0.523175 0.025080 0.514808 0.137183 0.802721 0.667818 0.084553 -0.892945 0.238503 -0.609444 -0.503334 0.814773 -0.376487 -0.197962 0.118554 0.204586 0.136865 -0.975134 0.178770 0.238755 0.172893 -0.196142 0.022642 0.629677 0.238494 0.962201 0.869807 0.280247 0.102778 0.286289 -0.361397 -0.322168 -0.167920 0.589545 0.158858 0.008337 -0.987943 -0.062077 0.523014 -0.275244 -0.069896 -0.114744 -0.083987 -0.385790 -0.533804 -0.181830 -0.292309 -0.791261 0.042361 -0.356654 0.651943 -0.921121 0.895823 -0.863966 0.794170 -0.516043 0.501713 -0.025785 -0.313249 0.840610 0.269347 0.320444 0.059292 0.464583 -0.006518 -0.431405 0.167928 0.320479 0.926538 -0.522496 -1.149514 0.184221 -0.097922 0.393308 0.160235 0.129158 -0.456257 -0.404679
цель -0.091903 0.268739 0.494242 0.352913 -0.467351 -0.106121 0.514285 -0.769326 -0.090323 -0.295625 -0.628368 0.509489 0.033917 -0.015617 0.228178 -0.314630 -1.505363 -0.531635 0.561149 0.487697 -0.718182 0.917169 0.045918 0.120450 -0.189599 0.355658 -0.662825 0.562834 0.052303 0.397378 0.222137 -0.183722 0.066029 0.328935 0.414030 0.621332 0.257037 -0.552702 -0.206261 0.944827 0.120154 -1.085257 -0.126898 0.322748 0.596292 0.037008 -0.527899 -0.993188 -0.964394 0.538746 -0.307736 0.197042 0.703504 -0.100356 -0.274787 -0.056173 -0.306232 0.638296 0.564542 1.197790 -0.073764 0.456663 -0.137580 -0.058979 0.499331 -0.393722 0.187193 -0.366482 0.414962 -0.687325 -0.072303 0.297679 0.627899 0.306706 -0.636406 0.680313 0.248758 -0.342467 0.025356 -0.067954 -0.062960 0.089546 1.077708 0.294502 -0.024876 0.165442 -0.594660 -0.108708 -0.167814 0.972060 0.022904 -0.103491 0.078346 -0.998230 -0.299124 -0.371421 0.183328 0.059106 -0.871083 0.310753
сохраняться 0.516090 0.880970 0.496954 0.504189 -0.036471 0.460940 0.427679 -0.334789 0.008508 -0.161526 -0.059724 -0.036585 0.195373 0.324544 0.250113 -0.331018 -0.152394 0.508209 0.148884 0.472754 0.003156 0.334728 0.817311 -0.608485 0.556002 0.817377 -0.268710 0.261823 -0.071109 -0.471535 -0.288737 -0.057675 0.473929 0.969767 0.193526 -0.001133 -0.343121 -0.467431 -0.367589 0.249332 0.100114 -0.058552 0.773404 -0.132268 -0.064370 -0.256278 -0.002217 -0.527893 -0.011145 0.125144 0.107248 0.177875 -0.251125 -1.050855 -0.394117 0.025130 0.148237 0.007134 0.114250 -0.092182 -0.036107 0.262046 -0.297274 0.180327 -0.495677 0.001131 -0.468295 0.184063 0.386003 0.008866 0.002694 -0.167103 0.145957 -0.399588 0.424247 0.338545 0.027731 0.559668 -0.276955 0.134021 0.547479 0.200338 0.225524 0.211952 -0.049946 -0.032772 -0.476994 0.684439 -0.293468 -0.170064 -0.705464 -0.375889 0.384270 -0.415534 -0.373805 0.137246 -0.203942 0.628964 -0.320698 0.172761
этот 0.843572 -0.053526 -0.471396 0.026346 0.228718 -0.565590 0.224152 -0.403909 -0.142884 -0.078400 -0.214835 0.435724 0.175275 0.383010 -0.420565 -0.195185 -0.155117 0.090026 0.055437 0.183049 -0.230855 -0.279413 0.556432 -0.132525 -0.450616 0.669879 -0.184556 -0.249598 0.534225 0.172322 -0.105673 -0.371801 0.125952 -0.058874 0.075269 0.293166 0.080061 -0.224086 0.043216 -0.053092 0.128815 0.052722 0.355248 -0.157941 0.059277 0.022604 -0.592460 -0.109862 0.242652 0.280009 0.446541 0.431306 0.167038 0.056768 -0.015057 0.086200 0.174695 -0.032657 0.020036 0.753424 0.317019 0.477120 0.287407 0.295947 0.718706 -0.016574 0.132473 -0.368425 0.390222 0.070248 0.510781 0.143691 0.054835 0.368202 -0.178530 0.010719 0.158022 -0.125446 -0.494126 0.213905 0.236470 -0.012489 0.118880 -0.449014 -0.460320 0.329778 -0.459549 0.223448 -0.696475 -0.089093 0.157231 -0.439421 -0.166218 -0.310303 -0.326781 -0.454027 0.091333 0.708767 -0.154427 0.023863
текущий -0.232192 0.366145 0.920513 0.259471 0.831430 0.334786 0.602705 0.094234 -0.022978 -0.434616 0.970679 0.266411 0.145250 0.139208 -0.212514 0.156546 0.358632 0.034215 0.097770 -0.193809 0.584401 -0.281295 0.433292 -0.031156 0.397043 0.699198 0.252878 -0.070414 -0.048203 0.026988 0.201387 0.186464 0.480021 0.520696 -0.436217 0.154070 0.248907 0.171225 -0.109789 -0.116740 0.046302 0.218659 0.280532 -0.055984 -0.411582 0.021103 -0.712653 0.104345 -0.419688 0.181247 0.567830 0.201916 0.558360 0.318837 -0.377124 -0.084975 -0.398055 -0.481242 0.497352 -0.588913 0.179087 0.512032 -0.957762 0.778232 -0.220213 -0.612698 0.044519 -0.321890 0.325939 0.325602 0.347069 0.410475 0.261693 0.366549 0.283705 0.038256 0.271587 0.374892 0.470943 0.374443 -0.088287 0.673270 0.035441 0.033274 0.255334 0.418983 -0.314339 0.078450 -0.529478 -0.458166 -0.029627 -0.827097 0.391579 -0.258207 -0.405557 -0.000019 -0.237440 0.501485 0.013645 -0.065305
составлять -0.669109 -0.029362 0.468527 -0.016287 0.324624 0.448647 0.531693 -0.645029 -0.303801 -0.594644 1.198196 0.052570 0.540170 0.196446 0.111004 0.035701 -0.556140 0.204339 0.460352 0.015127 0.096690 -0.422456 0.228410 0.113529 0.165169 0.222046 -0.002888 -0.392280 0.076512 0.131445 -0.476359 -0.459166 0.251875 0.503031 0.056465 0.180783 0.993994 -0.255812 0.402842 0.016339 0.306044 -0.048585 0.153387 -0.509046 -0.468879 -0.474410 -0.626840 0.881879 -0.853245 1.131538 -0.650613 0.456387 0.825556 0.220969 0.532181 -0.147328 -0.923720 0.189891 0.490352 0.164622 0.101190 0.587677 0.078646 1.418126 -0.345564 -0.508239 0.462804 0.269375 0.220501 0.792467 0.480517 0.212765 0.181549 0.279505 0.102593 0.131289 0.055452 0.290337 0.096102 -0.580883 0.410658 0.685725 0.879799 -0.201520 -0.215076 -0.257416 0.013434 -0.315555 0.022683 -0.064296 -0.253773 0.041801 0.121966 -0.185241 0.254543 0.012146 0.348913 0.175653 0.503993 0.149552
сохранение 0.650834 0.084109 0.260844 0.103595 -0.129350 1.047194 0.347106 -0.127087 0.209876 -0.342042 0.309721 -0.301885 0.060201 0.435747 0.258971 -0.376853 -0.339956 -0.269372 0.284239 0.372024 0.116882 -0.345977 0.958370 0.058697 0.351105 0.017071 0.332093 0.008930 0.198615 -0.774599 0.146088 -0.154435 -0.015864 0.538674 -0.131583 0.995882 -0.031125 -0.401661 0.108553 -0.090344 -0.518027 0.103251 -0.320047 -0.521703 -1.060146 0.052400 -0.159988 -0.533000 -0.192224 -0.097991 0.611060 -0.394408 0.252991 -0.986662 -0.442673 -0.147014 0.633227 0.057163 0.415250 -0.556643 -0.305197 -0.793237 -0.523561 -0.041885 -0.658268 -0.033788 0.055888 0.438552 0.182897 -0.844866 0.117454 -0.061515 -0.203079 -0.125865 -0.358775 0.375396 0.071003 -0.030469 -0.068472 0.762877 0.221694 0.181750 -0.470366 -0.493342 -0.093558 -0.269240 -0.697890 0.348722 0.398870 -0.069963 -0.186872 -0.358689 0.007732 0.172092 0.062892 -0.455428 0.535538 0.866070 -0.061074 -0.447564
который 0.512515 -0.803304 0.330569 0.207731 0.711029 -0.408257 0.313075 -0.291634 0.047111 -0.087782 -0.080645 -0.477389 0.364268 -0.318679 -0.353420 0.099404 0.105256 0.029204 0.091494 0.029708 -0.323901 -0.290267 -0.338528 0.225892 0.749185 -0.526817 0.152159 0.024535 0.789837 -0.398483 -0.135369 -0.428608 -0.199575 -0.552372 0.234680 -0.369978 -0.032446 -0.037684 -0.426974 -0.288468 -1.110242 0.166298 -0.407607 -0.561405 -0.318590 0.555173 -0.114705 1.021208 0.308329 0.567470 0.254029 0.067411 -0.533839 -0.825825 -0.161921 0.411745 0.236286 0.627419 -0.437425 0.466362 -0.228365 0.497847 0.510961 0.172024 0.087103 0.072997 -0.239332 -0.312110 -0.146097 -1.033142 -0.273245 0.127951 0.502463 -0.321872 -0.365712 -0.759299 0.541920 -0.921224 -0.025637 -0.661102 -0.297753 0.150373 0.136975 0.004707 0.074762 0.534948 0.078971 0.037792 -0.094946 0.177489 0.340469 -0.380921 0.179257 0.049575 -0.182268 0.493445 0.191398 -0.109666 0.656300 -0.113239
относительно 0.514818 -0.036149 0.938376 0.257543 -0.610868 -0.040816 0.677527 -0.034203 -0.243245 -0.008361 -0.457152 -0.073695 -0.475975 0.374979 0.874634 -0.182399 -0.732096 -0.757541 -0.205434 -0.001937 -0.847575 1.104169 -0.083913 0.119792 1.081926 0.352644 -0.008417 0.805506 0.171056 -0.448410 -0.158811 -0.199795 -0.004551 0.841095 -0.077332 0.303963 0.260997 -0.515570 -0.268772 0.273108 0.017580 -0.414753 -0.380951 -0.500706 0.008292 0.101769 -0.065828 -0.955102 0.026361 0.220648 0.146472 -0.750640 0.591594 -0.584648 -0.772982 -0.007711 0.081657 0.346459 0.641135 0.603059 -0.403862 -0.014252 0.053924 0.228683 0.093355 0.075896 -0.011013 -0.364790 0.722892 -0.743862 -0.192659 0.309400 0.737943 -0.045269 -0.003330 0.422974 0.346187 -0.242668 0.148674 0.414969 0.464819 0.191776 0.875993 1.130949 0.227601 -0.273645 -0.661211 -0.117101 0.213725 0.817377 -0.309946 0.377986 -0.251452 -0.755873 -0.525432 -0.557762 0.193425 0.326192 -1.344983 0.148046
то 0.196140 0.251985 -0.311774 0.498205 0.074473 -0.159598 0.891595 0.136432 0.668427 0.243422 0.694517 0.460512 0.303228 0.609357 0.219754 0.266552 -0.329296 0.578323 -0.474485 0.092586 0.021937 -0.026951 0.274945 -0.199011 0.257966 0.388662 -0.307799 -0.218356 -0.717957 -0.238606 0.193719 0.779701 -0.135110 0.032425 -0.122216 -0.158862 0.802676 -0.315810 -0.524600 -0.095503 -0.258920 0.611009 0.168715 -0.025312 -0.023981 -0.128608 -0.381819 0.298390 0.210450 0.736057 0.105000 0.448372 -0.418905 -0.955345 -0.298073 0.100704 0.734724 0.141072 0.896939 0.158795 -0.552570 0.596423 -0.072298 -0.226780 0.270590 0.413903 -0.598015 0.525165 -0.076230 0.375038 0.895397 -0.496572 0.072248 -0.518747 -0.034825 0.485417 0.193445 0.363166 0.414276 0.588295 0.447108 -0.060294 0.097105 0.358641 -0.317931 0.115141 0.168627 0.302912 0.555398 -0.475483 -0.616629 -0.232052 -0.030861 -0.051942 0.119815 0.494810 0.188633 0.581144 -0.012663 -0.213818
ограничение 0.684499 -0.482310 0.765064 0.874322 -0.045939 -0.011533 0.326950 -0.158700 -0.172522 -0.440950 0.159614 -0.204284 0.518779 0.554126 0.027742 0.260447 -0.344119 -0.054354 0.161123 0.522543 -0.919586 -0.350930 0.284107 -0.140891 -0.093326 0.424577 0.404130 -0.224721 -0.156474 0.054236 0.183145 0.170934 -0.087888 0.563260 0.904585 0.167387 -0.078202 -0.007282 0.187005 0.713969 -0.706693 -0.316507 -0.165027 0.025853 0.702990 0.189889 -0.336407 -0.004496 0.080359 0.436385 0.423500 0.239140 -0.341256 -0.484149 -0.195408 -0.435363 0.138028 -0.479371 0.168297 0.806805 -0.796854 0.181911 -0.432638 -0.441507 0.129162 -0.264004 -0.235091 0.111912 0.393201 -0.796351 0.095838 0.028533 -0.102908 -0.158013 -0.062451 0.289307 0.195394 0.405520 -0.759225 -0.555795 0.108169 -0.500047 0.111568 -0.437545 -0.566657 1.150669 -0.353175 0.266797 -0.306915 0.385655 -0.675782 -0.270706 -0.566397 0.116351 0.284123 -0.184176 -0.070951 -0.083529 0.352315 0.164817
во -0.689142 0.357511 0.044655 0.260700 0.307472 0.120280 1.062339 0.633111 -0.679172 -0.476884 -0.234818 0.868363 0.366548 0.068589 0.147479 0.072161 -0.229510 -0.340857 -0.396427 0.733264 -0.152547 0.030870 0.000528 -0.353854 0.800710 -0.050965 -0.386165 0.272194 -0.206866 0.135984 0.595351 -0.036945 -0.404546 -0.758477 0.796346 -0.189149 -0.222015 0.502226 -0.230300 -0.538502 -0.223383 -0.675155 0.783980 0.409080 0.383586 -0.117017 -0.454014 0.278027 0.349575 0.571403 0.400154 0.133646 0.635629 0.332356 -0.307410 0.295051 0.359089 0.340413 -0.066876 0.309818 0.145865 0.134433 -0.399591 -0.136832 0.182852 -0.003499 0.634906 -0.107571 0.108297 0.445299 0.519062 -0.290376 0.365348 0.207136 -0.167944 -0.099360 1.192909 -0.118608 0.759940 0.098551 -0.484484 0.267726 0.170107 -0.279209 0.367944 0.278642 -0.054050 -0.117824 -0.506270 -1.110757 0.320237 -0.554771 0.142513 -0.031929 -0.489298 -0.177191 -0.134468 0.483010 0.255861 -0.075008
депозитный -0.618417 0.787536 -0.768568 0.635670 0.166378 -0.584586 0.111409 0.721061 -0.065259 0.192241 0.306473 -0.470844 -0.521155 0.307613 -1.168020 0.329488 -0.315957 0.461051 -0.131417 0.151671 0.097486 0.358216 -0.111540 0.460003 -0.758147 0.164332 -0.185038 -0.245960 0.117451 -0.300976 -0.980738 0.260233 0.374826 -0.266749 0.089840 -0.670747 0.506477 -0.537621 -0.654147 0.485607 -1.036272 0.579170 0.281736 0.646691 -0.201548 -0.306966 -0.809238 0.382815 -0.209252 -0.222787 1.121890 0.724148 -0.134588 0.535151 0.083707 1.211821 0.241601 0.001979 0.032035 -0.414105 0.422434 0.122016 0.230085 -0.276309 0.246741 -0.563387 -0.368070 0.454722 0.456348 -0.018653 0.000409 0.135364 -0.428117 -0.183019 -0.047637 -0.112982 0.361180 0.065177 -0.079440 0.507638 -0.220162 0.327135 -0.012169 0.402811 -0.216319 -0.396999 -0.703791 -0.148058 0.072723 0.286099 -0.207509 -0.109525 1.208927 -0.276871 -0.232438 0.568080 -0.007046 0.134209 -0.419802 -0.075273
квартал -0.669806 -0.172632 0.140573 0.150693 0.184542 -0.049749 0.896848 0.381356 0.105977 -0.308999 1.028978 0.749632 0.532084 -0.286042 0.704600 0.176172 0.191744 -0.558933 -0.256329 0.021163 0.523831 -0.128644 -0.202489 -0.076517 0.318162 -0.059492 0.157640 0.342042 -0.774561 0.038908 0.050194 0.304105 -0.191664 0.267596 0.294304 -0.208553 0.329241 -0.399844 0.132734 0.118261 0.168022 0.403295 0.292071 -0.190572 0.224263 -0.455433 -0.868768 0.389194 0.009557 0.608904 0.409608 -0.210935 0.215845 -0.344349 -0.035863 -0.252580 0.093914 0.281143 0.009718 -0.173553 0.047544 0.811820 -0.520149 1.084802 -0.363737 -0.278867 0.194554 0.075026 0.217959 0.311191 0.425094 0.287036 0.363078 -0.141708 -0.058727 -0.544408 0.690315 0.179180 0.566460 0.224830 0.272137 0.176314 0.205470 0.700668 0.566538 0.156852 0.242619 -0.188381 -0.268056 -0.094443 -0.174423 -0.094483 0.022478 -0.756168 -0.158593 -0.315530 0.284532 0.508564 0.453073 -0.137019
оценивать -0.138599 -0.404698 0.296419 0.594616 0.349520 -0.625295 0.333922 -0.192746 0.240864 -0.131898 -1.011548 -0.367577 -0.534576 -0.726480 0.740743 0.104947 0.084025 -0.308921 -0.256162 0.640036 -1.163410 1.076644 -0.932048 -0.624447 0.107652 -0.089309 -0.003385 0.300437 -0.069865 0.027045 0.165486 -0.830988 -0.305212 -0.120376 0.963485 0.989075 0.282269 -0.333928 -0.353275 -0.105892 -0.677121 -0.189461 -0.215458 0.116127 1.041795 0.976391 -0.463217 -0.690032 0.443488 -0.107129 0.541947 -0.512581 0.383062 -0.293076 -0.903563 0.018114 0.343808 0.458297 -0.528576 0.585513 -0.139531 -0.421332 -0.161150 -0.218143 0.745075 -0.604894 -0.565519 -0.762995 0.328531 -0.577585 -0.195866 1.401747 0.528507 -0.550742 -0.031596 0.008187 0.481998 -0.511302 0.253423 0.170069 0.186891 -0.285745 0.907130 1.197513 -0.001838 0.038038 -0.978442 -0.043589 0.463111 -0.151075 0.137056 -0.390121 -0.023391 -0.410252 -0.318925 -0.432323 -0.355840 0.095366 -0.139116 0.191523
повышенный 0.801908 0.248662 -0.110483 0.199230 0.749983 0.617009 -0.127847 -0.960901 0.098752 -0.197335 0.344312 0.212358 0.251771 -0.145334 0.078645 -0.194086 0.149868 0.643550 0.007102 -0.137588 0.177210 -0.341110 0.241850 0.072744 0.602790 0.065632 0.049473 0.087531 0.055539 -0.271011 0.105750 0.000602 0.275675 0.442027 -0.587284 -0.126233 -0.215220 -0.516677 -0.488554 0.314614 -0.279149 0.243822 0.153498 -0.817387 -0.201093 -0.225211 0.458512 -0.395906 0.241812 0.307461 0.092000 -0.050011 0.085634 -1.081868 -0.640307 -0.282370 0.566602 -0.366689 0.129956 -0.343456 0.133541 0.199894 0.042012 0.004441 -0.285402 0.334541 -0.555485 0.098607 0.273035 -0.212009 0.219342 0.383139 -0.087191 -0.184818 -0.330388 -0.635460 -0.007070 -0.169695 0.069662 0.383605 0.207435 0.130678 -0.238385 -0.184474 0.077971 -0.143111 -0.398551 0.459349 -0.771493 0.040153 -0.113899 -0.787136 0.387677 0.055284 -0.440012 -0.030391 -0.596735 1.211107 0.147092 -0.588549
