в -0.338158 0.338917 0.099214 -0.102997 0.211394 -0.082470 -0.352314 0.414233 0.464373 0.103478 0.074316 0.627794 -0.146331 -0.130305 0.275503 0.377971 0.746390 -0.273241 -0.539938 -0.092925 0.095630 0.410629 0.025132 -0.118488 -0.188815 -0.490781 -0.172852 -0.289612 0.322949 0.756258 -0.805084 0.388206 0.348849 -0.784617 0.222602 0.342086 -0.115273 -0.291891 -0.592939 0.034351 0.329310 0.375126 0.600391 -0.195894 -0.044348 -0.755562 -0.205039 -0.312494 0.234649 0.307735 -0.019828 -0.736384 0.359976 0.075056 -0.072938 0.032835 0.047027 0.235890 0.163001 -0.301934 -0.242284 -0.022080 0.128993 -0.445990 0.154384 -0.412193 -0.748752 -0.649127 -0.306939 0.181315 0.020528 0.051353 0.790785 -0.030226 0.375238 0.618297 0.080535 0.344483 0.274043 -0.259568 0.120493 0.016715 0.246472 1.136199 -0.413856 -0.132762 0.431239 0.253889 0.294415 -0.335764 -0.574846 -0.780611 -0.166840 0.204947 0.330544 0.235402 -0.065994 -0.565925 0.675264 0.262685 0.132399 -0.518848 0.082662 -0.101506 -0.288727 -0.104506 -0.292045 0.993930 -0.216165 0.462062 0.649466 0.366493 -0.199911 -0.033761 0.278569 -0.121748 -0.378055 -0.179444 -0.354557 0.083044 -0.211545 0.198939 -0.110624 -0.035028 0.050272 0.014959 0.783263 0.055024 0.526093 0.746616 0.168331 -0.754037 0.548453 -0.146712 -0.884232 -0.394012 0.211836 -0.596815 -0.284021 -0.138694 0.544252 -0.262692 -0.161155 -0.374889 0.275985 0.353917 0.133327 0.081686 0.347269 0.216063 -0.766836 0.020524 -0.178946 0.324845 0.175565 -0.421141 -0.078232 -0.011494 0.109849 -0.307310 -0.490414 0.167450 -0.060297 0.043869 -0.070372 0.289692 0.117170 0.210493 0.392449 0.048079 0.133574 0.100258 0.254064 0.220569 0.034883 0.114686 0.722213 0.259229 -0.791128 0.143870 0.605509 0.271492 0.594146 0.105301 -0.049259 0.789179 0.126593 0.317495 0.445171 0.182336 -0.159359 0.088621 -0.224858 0.466909 -0.192676 0.390025 -0.089813 -0.420763 0.217832 -0.258701
на -0.046413 0.057481 0.260938 -0.004121 0.410124 -0.321108 -0.342064 0.167355 0.623393 0.090814 0.011813 -0.175982 -0.586353 -0.342360 -0.067565 0.857096 0.315829 -0.289523 -0.597667 0.230824 -0.379764 0.012782 -0.065515 -0.040614 -0.222506 -0.683971 -0.511725 -0.407110 -0.325685 0.379106 -0.375380 0.406459 -0.214957 -0.552133 0.155128 0.109983 -0.125263 -0.122350 -0.080572 0.085579 0.354451 0.090054 -0.400160 -0.565394 0.326470 0.525147 0.026745 -0.241031 0.334163 0.029501 -0.209074 0.108864 0.111652 0.469235 0.178402 -0.036286 0.922513 -0.156704 0.084700 -0.136616 0.510603 -0.729909 0.213459 -0.196660 -0.197063 0.172133 -0.079353 0.191970 -0.436184 0.492177 0.266527 0.382654 0.498763 0.446247 0.011421 0.005010 -0.170647 0.738746 -0.250507 -0.231009 -0.336527 -0.573601 0.461876 0.279072 0.132245 0.286136 -0.137423 -0.370608 -0.437603 -0.486622 -0.300314 -0.286960 -0.062431 0.041371 -0.087149 -0.021251 -0.017480 0.026375 0.275615 -0.144738 -0.603108 0.267523 0.564007 0.026218 0.098452 0.096839 0.158177 0.130827 -0.028656 -0.148092 0.438696 0.275826 -0.164443 -0.150421 0.323646 0.246508 -0.120810 -0.151149 -0.297837 -0.550337 -0.324399 -0.216797 0.579471 -0.605906 0.087153 -0.265812 0.365163 0.294804 0.718436 -0.050593 0.334217 -0.786490 0.366812 0.276145 -0.103548 -1.036944 0.307991 -0.677792 -0.216469 0.192640 0.247878 -0.310573 -0.069494 0.303023 0.985773 -0.113478 -0.150692 0.083827 0.650834 0.462655 0.124040 0.448915 0.485870 -0.678741 -0.014906 -1.169007 -0.255387 -0.188626 -0.339272 0.065440 -0.038091 0.402789 0.037952 0.324112 -0.626459 -0.503438 -0.022094 -0.099752 -0.008282 -0.466154 -0.171764 0.613649 0.016518 0.097244 0.054355 -0.297452 0.878097 -0.335929 0.115882 -0.015593 0.000103 0.424142 0.221492 -0.477334 0.023300 -0.053526 0.552440 -0.556201 -0.039394 -0.616643 -0.306257 0.144345 0.229417 -0.777519 0.486132 -0.595297 -0.117070 0.068571 0.806153 -0.008186
и -0.120124 0.328153 0.618657 0.323538 0.187482 -0.143838 -0.377309 -0.112708 0.610716 -0.051808 0.309378 -0.473229 0.138839 0.341559 0.283636 -0.011422 0.463140 0.038556 -0.492860 -0.269834 -0.303616 -0.044496 -0.403570 -0.192178 0.051664 -0.285509 -0.283409 -0.002987 -0.252564 0.835056 0.243893 0.381680 0.304455 -0.199392 0.103113 0.435040 0.672073 -0.515139 -0.023811 -0.216471 -0.009537 -0.164533 -0.272446 -0.665827 -0.080027 -0.108911 -0.150516 -0.775936 0.437914 -0.005502 -0.233901 -0.426194 -0.185425 -0.251854 0.722819 -0.173222 0.388012 -0.526616 0.735111 -0.611195 0.095306 -0.058790 0.223587 -0.220588 -0.261813 -0.252783 -0.361564 0.033789 -0.389821 0.276095 0.234182 -0.092005 0.094852 0.266647 -0.110861 -0.393972 -0.214431 -0.194080 0.574140 -0.194168 -0.525919 0.164350 -0.193106 0.338023 -0.777129 -0.218631 0.573126 0.407106 0.090396 0.679246 -0.163385 -0.078503 0.380723 0.613639 0.579529 0.236025 0.088403 0.262197 0.346589 0.182022 -0.399571 -0.386574 0.616451 -0.021115 -0.001544 0.314633 0.027030 -0.015287 -0.349980 -0.236886 0.211822 0.543769 0.039020 -0.429418 0.640104 -0.476509 -0.621241 0.099762 -0.393970 -0.310258 -0.324322 0.434599 0.365500 -0.263254 -0.589022 0.414864 -0.121459 -0.164186 0.707998 0.393193 0.151847 -0.294859 -0.310249 0.015683 -0.300777 -0.227533 0.308451 -0.643925 -0.034419 -0.308458 -0.251592 -0.082131 -0.185305 0.228395 0.319845 0.368238 -1.036634 -0.177545 0.347221 0.113390 0.033931 0.011035 -0.439599 -0.189265 -0.472434 -0.339325 0.496090 0.226880 -0.277869 -0.242622 -0.711468 0.693111 -0.154825 0.451419 0.110708 0.010062 0.107124 0.136468 0.326543 0.248410 0.100835 0.705388 0.014694 0.283785 -0.144939 0.116739 0.285644 -0.123282 -0.504750 0.384180 0.157393 0.318166 0.036905 -0.074242 0.054251 0.336005 -0.298767 0.408087 -0.016073 0.025794 -0.285629 0.135023 0.827304 -0.393177 -0.675614 0.329000 -0.216600 -0.530749 0.229368 -0.517494
банк -0.627171 0.653680 0.143135 0.302933 -0.108235 0.618462 -0.318296 0.467968 0.041217 0.003389 -0.014295 -0.074133 -0.275488 0.107376 0.302593 -0.292987 0.142834 0.380434 -0.301887 -0.144150 -0.735294 0.358994 -0.046562 -0.339537 -0.557832 0.193502 -0.290304 0.022071 0.130048 0.218514 -0.122976 -0.214821 0.274753 -0.545505 -0.067474 -0.116002 0.581487 -0.470255 0.887314 -0.680842 0.531563 -0.182728 0.047453 -0.288589 0.125307 -0.192793 0.050877 -0.607814 -0.251217 0.167690 -0.321495 -0.512749 -0.099867 0.637195 -0.205911 -0.095974 0.732704 -0.048663 0.562950 0.044365 0.075710 -0.354623 -0.110706 0.132666 -0.024133 0.267551 0.179743 -0.861412 -1.059826 0.111106 -0.087315 0.454818 0.321517 -0.090156 -0.178456 -0.027773 0.135850 -0.335526 -0.245233 -0.256922 -0.533470 -0.186185 0.032967 0.218625 -0.136574 0.321807 0.353518 -0.619992 0.145176 -0.368235 -0.220136 0.108994 0.127512 0.543752 0.348561 0.617120 -0.115267 -0.002154 0.520808 0.035659 -0.293573 -0.058092 0.396978 -0.541369 0.013752 0.182934 -0.381589 0.179736 -0.083651 -0.109094 0.479296 0.172107 -0.534761 -0.169102 -0.261495 0.025005 -0.027087 0.223363 -0.293111 -0.428596 -0.207821 0.528694 0.387872 0.125218 0.215467 -0.161824 0.044963 -0.190694 -0.487651 -0.333164 -0.093590 -0.143967 0.655560 -0.134268 0.160725 -0.182732 0.073325 -0.365052 -0.159977 -0.127954 -0.064222 -0.047496 0.367346 -0.198498 0.623470 -0.312447 -0.304791 0.391290 0.146810 0.102436 -0.290268 0.094617 -0.295674 -0.638038 0.153223 -1.072550 0.223463 0.046929 0.015448 -0.409608 0.068631 0.443799 0.668492 0.363141 0.051707 0.117865 0.067310 -0.012383 -0.288467 -0.074380 0.207617 -0.045208 -0.300225 0.278064 -0.440889 0.002054 0.195661 -0.261449 -0.039597 -0.138209 0.128235 -0.010073 1.007301 -0.048658 0.048931 0.819692 0.420091 -0.524941 0.222839 -0.227950 0.053564 -0.020214 0.072196 -0.682363 -0.163217 -0.221277 -0.117046 0.023389 0.033484 -0.423521
россия -0.673985 0.496995 0.157029 0.225731 -0.102649 0.580663 -0.282316 0.371199 0.036369 0.063085 -0.112616 -0.030972 -0.403332 0.140800 0.246447 -0.446773 0.124957 0.410870 -0.181914 -0.080494 -0.578758 0.416827 -0.184274 -0.266040 -0.726084 -0.020332 -0.269082 0.003627 0.128559 0.109168 -0.332926 -0.256748 0.215447 -0.655816 -0.097126 -0.084810 0.571391 -0.469140 0.789568 -0.691359 0.441427 -0.176747 -0.030547 -0.177631 0.317672 -0.168253 0.122360 -0.440019 -0.300387 0.106353 -0.257980 -0.501024 0.039309 0.587931 -0.466510 -0.134545 0.708521 -0.128240 0.565560 0.135119 0.150815 -0.356056 -0.035394 -0.003123 -0.010108 0.202362 0.137568 -0.813117 -1.000271 0.016502 -0.071865 0.316302 0.269004 -0.204967 -0.189610 0.108879 0.258242 -0.430989 -0.161147 -0.175636 -0.536387 -0.192078 0.067155 0.092579 -0.114220 0.384927 0.390890 -0.650480 0.184098 -0.333028 -0.115861 0.190171 0.175618 0.465174 0.418677 0.637348 -0.144242 -0.122373 0.585305 -0.024421 -0.208216 -0.031180 0.300927 -0.442102 0.135618 0.143744 -0.324713 0.257805 0.008622 -0.139690 0.543937 0.063983 -0.597213 -0.155880 -0.160683 0.231228 0.090572 0.209498 -0.469832 -0.339477 -0.242846 0.661874 0.319437 0.013110 0.193449 -0.012718 0.129059 -0.124582 -0.439739 -0.296513 -0.065178 -0.213485 0.643738 -0.109974 0.035374 -0.259515 0.029551 -0.258472 -0.344929 -0.147061 -0.155021 -0.058861 0.425685 -0.200614 0.587558 -0.391942 -0.376559 0.449516 -0.031984 0.032674 -0.318927 -0.025795 -0.254988 -0.537831 0.184622 -0.975154 0.240154 0.031438 -0.153396 -0.406540 0.134149 0.256216 0.746426 0.374691 0.067684 0.289294 0.261987 -0.023839 -0.210099 -0.090555 0.284400 -0.014567 -0.351077 0.128876 -0.268743 -0.007051 0.063822 -0.294214 0.057842 -0.037231 0.025798 -0.245418 1.075315 -0.036796 0.001140 0.799100 0.527938 -0.461989 0.379501 -0.216384 0.009416 -0.015453 -0.144828 -0.635150 -0.267258 -0.114971 -0.130157 -0.114943 -0.002421 -0.374696
год -0.058694 0.130153 0.075842 -0.009616 0.068816 0.434001 -0.123504 0.734127 0.688289 0.155499 -0.268753 0.250872 -0.170312 0.400514 0.367387 0.364924 0.123449 0.299578 -0.305062 0.544510 0.346802 0.145211 -0.152077 -0.301561 -0.328507 -0.762989 -0.257597 0.177647 0.140817 0.493650 0.190371 -0.385200 0.243741 -0.830946 -0.083240 -0.248201 0.166527 -0.184359 0.159863 -0.133681 -0.073484 -0.200419 0.087431 -0.439587 -0.163185 0.005622 0.116356 -0.676096 -0.077512 -0.010347 -0.316833 -0.395104 -0.193205 0.234819 0.068418 -0.076165 0.534999 0.137390 0.153091 0.055129 0.570307 0.353248 -0.201847 0.089855 -0.026081 -0.231685 -0.348009 -0.192018 -0.488497 0.525780 0.019696 0.173947 0.148321 0.308380 0.189210 0.160141 0.156835 -0.445584 -0.009033 -0.142417 -0.230645 -0.206369 0.315726 0.351395 -0.120074 0.093689 -0.044567 -0.181935 0.360725 -0.711302 -0.056944 -0.226514 -0.112373 0.278249 0.068081 0.297755 -0.050475 0.428370 0.478175 0.144006 -0.252793 -0.583147 0.387271 0.367400 -0.401276 0.043204 -0.197931 0.575073 -0.176434 0.481317 0.790154 -0.172333 -0.604176 -0.148371 0.699847 -0.069555 -0.512846 -0.534371 -0.079960 -0.007725 0.175170 0.209396 -0.000376 0.001913 -0.142815 -0.246473 -0.524136 -0.339486 0.387491 -0.336112 0.146745 -1.056687 0.912861 -0.315314 -0.493569 0.005573 -0.092942 -0.437325 0.051341 -0.429851 -0.337663 -0.028193 -0.000033 0.050054 0.714280 0.066057 -0.189917 -0.081888 0.255805 0.854132 -0.131542 0.190956 0.365435 -0.510371 0.090827 -0.840334 0.060643 -0.223619 0.361739 -0.375619 0.048715 0.146136 0.630760 0.317128 -0.066256 0.297099 0.824499 0.298565 -0.702706 -0.381212 -0.123681 0.728499 0.293964 -0.297370 0.022047 0.466385 0.344926 0.098743 -0.099642 -0.225287 0.366192 0.275989 0.881248 -0.128905 -0.090444 0.410210 0.379006 -0.391483 0.261709 -0.147149 -0.142171 -0.097742 -0.236542 0.096081 -0.088629 -0.044932 0.192967 -0.441432 0.206544 -0.408026
ставка -0.112602 0.025731 0.157998 -0.001430 -0.127385 0.175986 -0.496173 0.054336 -0.213107 -0.108628 0.413270 0.004703 -0.629534 0.489325 0.162362 -0.445325 0.306515 0.152545 -0.493210 -0.045480 -0.523342 -0.194769 0.009542 -0.310461 -0.546008 -0.241381 -0.274252 0.156035 -0.282786 0.276647 -0.024704 0.088337 -0.463877 -0.475401 -0.028494 0.348475 0.040046 -0.556167 1.180656 0.051793 0.050304 -0.041970 -0.374069 0.183175 0.222027 -0.242673 -0.041651 -0.517281 -0.555029 -0.378897 -0.208608 -0.627105 0.202664 0.599178 0.157154 0.004033 0.380758 0.091548 0.714631 -0.391259 0.397941 -0.961471 -0.207247 0.238914 -0.181721 0.441940 -0.079399 -0.182325 -0.601482 -0.167084 -0.130941 0.660725 0.239237 0.394099 0.045373 0.090336 0.380397 0.026706 -0.572613 -0.902408 -0.429265 -0.143891 -0.268364 0.021971 0.128221 0.069035 0.417713 0.052048 -0.213645 0.156648 0.084266 0.006904 -0.324456 -0.489743 0.537623 0.180515 0.094578 -1.122845 0.328562 -0.856277 -0.692460 0.400794 0.350650 -0.476356 -0.425786 -0.123791 -0.230470 0.205138 -0.253474 -0.054440 0.598782 0.456067 -0.412977 0.152724 0.084704 0.365844 0.220624 0.191453 0.246163 -0.405745 -0.015085 0.114350 0.541034 0.129626 0.759001 -0.272463 -0.207856 0.394358 -0.436545 -0.376418 0.393656 -0.042110 0.076585 -0.562455 -0.031703 -0.217045 -0.257691 0.150133 -0.149881 -0.494071 0.352829 -0.003881 0.272244 0.015516 0.831569 -0.515661 -0.389464 0.313925 0.460040 -0.008672 0.192806 0.030732 -0.041235 -0.264958 -0.298049 -0.308728 -0.438401 0.192729 -0.617912 0.009967 -0.081567 0.243911 0.457310 0.350700 -0.544624 -0.505744 0.721989 0.425668 -0.281437 0.293032 -0.023647 -0.029421 -0.590223 0.248228 0.287348 -0.040624 0.158267 -0.555637 0.071052 -0.085576 0.632240 0.285106 0.561861 0.548636 0.454566 0.272604 -0.262908 -0.489410 -0.171155 0.266519 0.057408 -0.259313 0.047222 -0.564811 0.156087 0.023342 -0.866512 -0.359180 0.507836 -0.273788
по -0.321950 0.444022 -0.144056 0.845495 0.202021 0.112852 -0.708160 0.451185 -0.055317 -0.200019 -0.028623 0.391111 -0.592233 0.152731 -0.223921 -0.024214 -0.028524 0.047643 -0.496777 0.328960 -0.462694 0.399344 -0.090162 -0.415099 -0.159622 -0.405903 -0.030370 -0.347484 -0.203705 0.643583 0.150837 -0.044587 0.131284 -0.469136 0.117785 -0.500544 -0.119108 -0.409479 0.653789 -0.480448 0.309996 -0.073373 0.091945 -0.956891 0.383046 -0.055984 -0.377277 -0.323308 -0.038118 -0.252335 -0.642244 0.023330 -0.486704 0.055578 0.277753 -0.299277 0.310419 0.034549 0.649078 0.047633 -0.216530 -0.053966 -0.236874 0.428311 -0.038967 0.338835 -0.106667 -0.499671 -0.329185 -0.545178 0.011584 0.239674 0.279124 -0.093141 0.322202 0.138323 0.357985 -0.375819 0.338364 -0.311561 -0.623004 -0.364619 -0.268104 0.181530 -0.538526 -0.265435 0.184067 -0.166819 0.248499 -0.082812 -0.608189 -0.327378 0.069700 0.192884 0.498971 0.141626 0.372262 -0.596439 0.070294 -0.220248 -0.744146 0.113970 0.473144 -0.175604 -0.414387 -0.129944 -0.301325 0.888664 -0.716897 -0.124094 0.499913 0.551134 -0.312585 0.044928 0.268751 -0.032758 -0.217005 -0.034890 0.347747 -0.215911 0.128168 0.754093 0.435595 0.278989 0.242126 -0.082053 -0.294543 -0.346562 -0.647471 -0.188560 0.500067 -0.211200 0.270087 -0.177739 -0.145485 -0.059412 -0.020200 -0.046591 0.271787 0.025246 0.549862 0.094842 0.121948 -0.447968 -0.286047 0.025125 -0.235220 -0.150136 0.713050 0.453674 -0.400829 0.466603 -0.279786 -0.366863 0.030474 -0.470202 -0.296371 0.531780 0.237465 -0.419728 -0.171374 0.065402 0.237420 0.714316 -0.114068 -0.304639 -0.367921 0.513284 -0.326486 0.087688 -0.465173 0.533745 -0.473902 0.536812 0.012415 0.026650 0.534564 -0.170914 -0.123672 -0.466660 0.101244 0.099557 0.404032 0.547893 -0.199349 0.472615 -0.157332 -0.449147 -0.173617 -0.354015 0.537971 -0.046439 0.054194 -0.384500 -0.283964 -0.018353 -0.285301 0.309925 0.520391 -0.512058
с -0.079649 -0.047086 -0.298347 -0.402154 0.013197 -0.137495 -0.398606 0.069924 -0.064558 -0.478794 0.709714 0.220547 -0.228267 0.099507 -0.265457 -0.406713 0.322674 0.074508 0.095879 -0.195073 0.209885 0.222356 0.126195 0.304492 -0.590905 -0.588663 -0.168229 0.420184 -0.326091 0.444295 -0.462824 -0.025566 0.186620 -0.874142 0.035046 0.019554 -0.012111 -0.388876 0.279549 0.055914 0.628573 -0.375494 0.164841 -0.552339 -0.617658 0.350594 -0.068950 -0.398109 0.379531 -0.055526 0.037095 -0.654250 -0.224229 0.060246 -0.364455 0.491556 0.834088 -0.501057 -0.127464 -0.858786 -0.505306 -0.077875 -0.409447 -0.417343 0.180243 -0.284497 -0.244477 0.267453 -0.035712 -0.678604 0.129363 0.076798 0.409526 0.764284 0.166318 -0.276658 0.442428 -0.069708 0.380439 -0.174172 -0.587944 -0.220196 0.248594 -0.025034 -0.273718 0.155107 0.621845 0.004501 0.292665 -0.334491 -0.398706 -0.610757 -0.222798 -0.093547 0.258434 0.080512 -0.307468 -0.079707 0.558546 0.405886 -0.660844 0.148571 0.361669 -0.574233 -0.003236 0.253403 -0.753951 0.403010 -0.474162 0.565846 0.585956 -0.515482 -0.348939 -0.135122 -0.098447 0.414913 -0.327723 0.308580 -0.447603 -0.534998 -0.310397 0.076219 0.102341 -0.084908 0.243648 0.327744 -0.299320 -0.278083 -0.194254 -0.162866 0.269659 -0.505265 0.551354 -0.365133 -0.112286 -0.915323 0.079888 -0.672567 -0.321711 -0.556696 -0.064901 0.275848 -0.194813 -0.055520 0.075953 -0.616877 -0.860512 0.388370 0.285915 0.490090 0.024844 0.094189 0.221087 0.051538 -0.129251 -0.474744 -0.084314 0.679173 -0.206100 -0.193341 -0.121691 0.328853 0.207993 0.560176 0.098621 -0.087891 0.276011 0.126355 0.521651 -0.296290 -0.173816 0.851709 -0.506139 0.533233 0.363734 0.318628 0.204920 -0.185159 -0.040573 0.335956 0.002115 -0.013130 0.296253 0.227517 0.092054 -0.154702 0.845167 0.371743 0.681770 0.162416 0.257246 0.213662 0.375896 0.304171 -0.057727 -0.250661 -0.094610 -0.642969 0.332641 -0.450509
инфляция -0.785437 -0.176314 0.317160 -0.288604 0.139080 -0.333960 -0.627873 0.367751 0.423846 -0.140265 -0.106001 -0.224176 -0.613060 0.675639 -0.024455 0.435519 0.205025 0.227325 -0.012222 0.357969 -0.395976 0.344003 -0.014269 -0.019295 -0.223670 -0.039633 -0.039437 0.005769 0.018437 0.288788 -0.259847 -0.700421 0.463372 -0.467358 -0.026310 0.083035 0.555064 -0.371103 -0.076307 -0.133615 -0.068189 -0.352943 0.266360 -0.558326 -0.397365 0.140435 0.008666 -0.586934 0.542182 -0.601620 -0.408131 -0.344797 -0.700940 0.284280 -0.207591 -0.051919 0.419475 0.449056 0.120225 0.323433 0.186725 -0.038241 -0.084455 -0.090870 0.254967 0.322707 -0.452089 -0.485918 -0.736448 0.621621 -0.027687 -0.049622 0.064425 0.739442 -0.007025 0.093211 0.179525 -0.148732 0.573101 -0.051868 -0.583513 0.086367 -0.359025 0.731962 -0.117298 0.026176 0.269714 -0.319083 0.056740 0.097177 -0.116014 -0.752342 0.108445 0.381499 0.244475 0.188773 0.338176 0.318852 0.329274 0.194058 -0.182519 0.153043 0.218708 0.066251 -0.122087 -0.003122 0.123692 0.023864 0.295670 -0.114974 0.281908 0.469884 -0.388005 -0.244117 0.576022 0.201509 -0.355219 -0.502398 -0.331678 0.753041 -0.461858 0.063536 0.082751 -0.000460 -0.549055 0.165851 -0.132222 -0.070277 -0.215683 0.455598 -0.158392 -0.110969 0.472461 0.083203 -0.607235 -0.373847 -0.002612 -0.521418 0.290608 0.113804 -0.085342 0.031781 0.137220 -0.242026 0.674020 0.408189 -0.427325 -0.547733 0.248773 0.734365 -0.413186 0.087143 0.244688 -0.536060 0.101546 -0.087856 0.230693 0.435877 0.099153 -0.194732 -0.383741 -0.025844 0.444881 0.020530 0.040161 0.030820 0.610564 0.430281 0.049990 0.132997 0.301388 0.590485 0.157342 0.193351 0.349756 0.044296 0.468875 0.196931 -0.230826 0.062330 -0.117787 -0.014342 0.613068 0.200045 0.298176 -0.360498 0.386349 -0.126821 -0.390105 -0.313981 0.197662 -0.437599 0.056860 0.358047 -0.161126 0.150700 -0.363511 -0.732363 0.319522 -0.077625
рост -0.478746 0.254111 0.232479 0.059316 -0.388051 -0.433817 0.038891 0.215595 0.905445 -0.265882 0.021967 0.179651 -0.350758 -0.107807 -0.462115 0.358658 -0.042793 0.308690 -0.223312 -0.007394 -0.509483 0.251800 0.270646 0.013728 0.016740 -0.422069 -0.435088 -0.263202 0.259809 0.841827 -0.396135 -0.117183 -0.124463 -0.625536 0.064121 0.105972 0.029057 -0.002225 -0.201038 -0.062711 0.494716 0.205569 0.076680 -0.291484 -0.098632 -0.031117 -0.550808 0.318605 0.134185 1.010832 -0.236558 -0.013848 -0.011477 0.088341 0.179239 0.239769 0.143535 -0.098591 -0.107703 0.159678 -0.433144 -0.289742 -0.392289 0.322019 -0.409114 -0.218091 -0.292359 0.193074 -0.153616 -0.087639 0.184642 -0.298979 0.155584 0.158889 -0.003800 -0.221235 -0.355493 0.014653 0.558891 -0.217611 -0.723111 -0.188012 -0.356314 0.462339 0.100450 -0.487353 0.637117 -0.434899 0.231929 0.404698 -0.527414 -0.544720 -0.247489 -0.125343 -0.453742 -0.199299 0.027119 0.384615 0.241103 -0.137668 -0.278755 -0.210352 0.000010 0.193708 0.318010 0.026459 0.072919 0.324419 -0.427859 0.379078 0.158650 0.265040 -0.271943 -0.143360 0.385493 0.227385 -0.622897 -0.192031 0.132846 -0.132314 -0.171668 -0.010218 0.278372 0.212326 -0.373128 -0.559573 -0.008216 0.011949 0.368641 0.161993 0.132510 -0.563656 0.572741 0.300817 -0.792484 -0.425770 0.382757 -0.372183 -0.013847 0.408315 0.040921 -0.071714 -0.200137 0.216154 0.025998 0.076173 -0.086806 0.331006 0.790817 0.024227 -0.043893 -0.073946 0.034193 0.273867 -0.527595 -0.396669 -0.308722 -0.301195 0.031953 -0.350150 -0.054065 0.077666 0.107403 -0.012994 0.354349 -0.048846 0.239674 -0.312328 0.069067 -0.054824 -0.414342 -0.222177 0.255652 0.140886 -0.225418 0.044331 -0.030410 0.100186 0.045326 -0.320856 0.340310 0.797411 -0.040910 0.028086 -0.418222 0.365218 -0.011272 0.358902 -0.182589 0.067477 -0.451890 -0.272181 0.354853 -0.226749 0.439453 -0.382604 -0.459874 -0.320885 0.182698 -0.409318
ключевой -0.576992 -0.284887 0.101943 -0.244639 -0.093408 0.002132 -0.546357 0.152571 0.031662 0.223469 0.399355 0.174707 -0.344028 0.392038 0.132292 -0.196002 0.517649 0.186043 0.054235 -0.048230 -0.593712 0.172908 0.027351 -0.227697 -0.812144 -0.310135 -0.137810 -0.229314 -0.265620 0.221001 0.130628 -0.021153 -0.215594 -0.648611 0.032616 0.115853 0.496609 -0.499552 1.057354 -0.243687 -0.207623 -0.095907 -0.274767 -0.136144 0.172032 -0.174302 -0.473352 -0.450241 -0.163186 -0.356860 -0.243360 -0.624156 0.112186 0.504076 -0.041731 -0.336240 0.949477 0.389549 0.774432 -0.023511 0.609457 -0.699044 0.123699 -0.192135 -0.087531 0.269342 -0.125506 -0.128953 -0.635088 0.264240 -0.227703 0.399919 0.008055 0.692390 -0.088759 0.123776 0.524953 -0.100923 -0.461277 -0.665517 -0.412027 -0.240240 -0.119039 0.068323 -0.116084 0.237106 -0.012480 -0.076500 -0.156213 -0.025475 0.222583 -0.441448 -0.060438 -0.030665 0.599206 0.346522 0.048029 -0.670962 0.191415 -0.504254 -0.650397 0.178877 0.091069 -0.225792 -0.292226 -0.026623 -0.026657 -0.152562 -0.137271 -0.038544 0.561458 0.699832 -0.579762 0.250901 -0.151407 0.300525 -0.089978 -0.133539 0.168233 -0.113234 0.138386 0.274095 0.253607 -0.001497 0.469821 -0.152539 -0.426704 0.310292 -0.026380 -0.707969 0.237664 -0.308452 0.601600 -0.281948 0.152208 -0.394056 -0.344673 0.262639 -0.190818 -0.567779 -0.042887 0.163327 -0.064992 0.355108 0.810050 -0.362629 -0.058328 0.074266 0.228383 0.172873 0.032151 0.048230 0.071502 -0.229941 -0.372430 0.000873 0.047833 -0.071568 -0.599850 -0.056507 0.079962 0.195571 1.097975 0.269459 -0.409099 -0.094732 1.049163 0.668867 -0.575200 -0.055906 -0.086919 0.135727 -0.626791 0.147057 0.190015 -0.400196 0.331271 -0.618547 0.100192 -0.103246 0.531943 0.295663 0.718136 0.217050 0.570155 0.152666 -0.406360 -0.573432 0.040947 0.027754 -0.158037 -0.531559 0.290113 -0.635630 0.032455 0.020968 -0.769823 -0.129701 0.279611 0.089441
риск -0.964255 -0.286590 0.092093 -0.019769 -0.236331 -0.503355 -0.549460 0.174165 0.222251 0.073484 -0.009777 0.120290 -0.438998 -0.077759 0.127077 -0.103837 0.472809 0.189546 0.092709 -0.385812 -0.148423 0.276822 0.001435 -0.434648 0.110806 -0.397570 -0.408080 -0.805766 0.115083 0.462421 -0.038258 0.003450 0.236881 -0.212836 0.071215 0.655550 0.814851 -0.155727 0.003053 0.088488 0.114052 0.064168 0.136684 -0.266878 -0.445669 -0.208813 -0.504861 -0.160057 -0.056026 0.350454 -0.435149 -0.166892 -0.533586 0.413985 -0.179580 -0.071119 0.330890 0.209294 0.241076 0.043323 -0.515036 0.134243 -0.233706 -0.112235 -0.002004 -0.339249 -0.250043 0.169862 -0.135565 0.334687 0.153172 0.113033 -0.009691 0.280813 0.607394 -0.209249 0.141213 -0.161438 0.303215 -0.171229 -0.892286 -0.230384 0.161878 -0.068350 -0.145611 0.123349 0.380362 0.206804 0.271918 -0.206131 0.209261 -0.013882 -0.043033 0.177799 0.806588 0.140378 -0.360338 -0.084758 0.253743 0.665103 0.178558 -0.061084 0.307146 -0.463303 -0.351352 0.037088 -0.225898 0.073506 0.215754 -0.294328 0.473652 -0.157868 -0.210701 -0.253422 -0.299036 0.106248 -0.700339 0.446244 -0.187893 0.423459 -0.169871 -0.232954 0.047040 -0.058669 -0.688871 -0.156719 -0.304624 -0.178057 0.190045 0.129648 -1.014671 -0.277245 0.688038 -0.050447 0.101354 -0.569820 0.402077 -1.007858 0.020499 -0.129933 -0.378423 -0.491226 -0.510464 -0.215913 0.321414 -0.044656 -0.175479 -0.234067 0.294451 0.143242 -0.016147 0.340892 -0.240802 -0.156381 0.255317 -0.826205 -0.525765 0.397802 0.122388 0.101323 -0.646652 0.202437 -0.139425 -0.173956 -0.445062 -0.116490 0.027787 -0.111352 0.628982 -0.147590 -0.091675 0.447529 0.032312 0.034038 0.284022 0.218964 -0.086463 0.220798 -0.465330 0.805257 0.291040 0.411761 0.225107 0.304784 0.139230 -0.069113 0.147092 -0.464721 -0.447094 -0.146968 0.128113 -0.469208 0.845713 -0.180268 0.133882 -0.159742 -0.124657 -0.026804 0.408420 -0.291516
цена 0.004877 0.044006 0.126705 -0.145942 0.019148 -0.114300 -0.267054 0.060495 0.554071 -0.068732 -0.257209 -0.066117 -0.597680 -0.662991 0.112000 0.354640 0.241923 -0.091296 -0.687208 0.194632 -0.283052 0.074165 0.330065 -0.261490 -0.017186 -0.059848 -0.091340 -0.102462 -0.047712 0.216044 0.048932 -0.176670 0.440156 -0.112442 0.402500 -0.014879 0.065376 -0.328474 -0.050794 0.258255 0.407994 -0.027551 0.338100 -0.385362 -0.262964 -0.051351 -0.180819 -0.172469 0.406125 0.120550 -0.263052 -0.447289 -0.489990 -0.302553 0.114600 -0.108175 0.540892 0.019249 -0.440649 0.256488 -0.335182 -0.163611 -0.003268 -0.305388 -0.024868 -0.248835 -0.230463 -0.134171 -0.157217 0.304678 0.117139 -0.062944 0.114763 0.483944 -0.040990 -0.224706 0.080691 0.485294 0.822186 0.075033 0.484700 -0.228723 0.179631 0.496603 -0.007279 0.186564 0.378144 -0.189148 0.131391 -0.003211 -0.235411 -0.394045 0.571923 0.206269 -0.844678 0.220148 0.356447 0.558797 0.126460 -0.176259 -0.130206 0.041155 0.075723 0.440079 0.214144 0.038903 0.337816 -0.146814 -0.088604 0.010430 0.429985 0.372806 -0.208284 -0.002209 0.505513 0.144712 -0.295209 -0.490676 -0.422685 0.035922 -0.620887 0.373874 0.054963 -0.327014 -0.284312 -0.198031 -0.184600 -0.024081 0.513814 0.223603 -0.045251 -0.848147 0.361200 0.659224 -0.645678 -0.702415 0.350062 -0.519172 0.254634 -0.037572 0.385861 0.335030 -0.130525 -0.520468 0.217602 0.547365 0.129615 -0.506729 0.255192 0.912623 0.147633 0.004779 0.237812 -0.420934 -0.176122 -0.398512 0.067593 0.353022 0.000997 -0.106965 -0.152138 0.430940 -0.096929 0.283090 0.142180 -0.030112 0.215572 -0.045209 -0.162210 -0.033078 -0.412745 0.579924 0.048314 0.688471 0.135230 -0.191386 0.304079 0.170938 -0.229086 -0.193940 0.118605 0.317093 0.025603 -0.746869 -0.221413 -0.166308 0.804543 0.083480 0.048208 -0.076744 -0.376782 0.173299 0.403194 -0.151354 -0.043680 0.036958 -0.375759 -0.798615 0.235807 -0.155767
условие 0.035366 -0.051732 -0.157517 -0.155020 0.067875 -0.532014 -0.186389 0.319647 0.019940 0.195083 0.429870 -0.206466 -0.187552 0.141947 0.117276 0.141519 0.302007 -0.353163 -0.258830 0.191898 -0.461503 0.070123 0.116267 0.068484 0.296048 -0.148857 -0.288364 0.051938 0.019671 0.314787 -0.288912 0.143298 0.022714 -0.118210 0.639398 0.788542 0.605415 -0.425390 -0.146137 -0.056273 0.496633 0.244203 0.449457 -0.518900 -0.598988 0.060006 -0.152125 -0.210172 0.389311 0.429395 0.434451 -0.008163 -0.003398 0.219069 -0.183092 -0.237468 0.172012 0.423826 0.372036 -0.353748 -0.128574 -0.584002 0.038406 0.479698 0.060772 0.013370 -0.767064 -0.326200 -0.649992 0.254610 -0.188000 0.371897 0.105098 0.058732 -0.079547 0.323550 -0.320268 -0.071287 -0.522230 -0.634867 -0.688795 -0.000173 -0.102722 0.120906 -0.000116 0.087480 0.310448 -0.266311 -0.058650 0.324963 0.012139 0.061828 -0.336297 0.629335 0.263284 -0.300719 -0.658433 -0.222378 0.271465 0.005848 -0.007835 -0.127360 0.196267 -0.146531 0.006401 0.061627 -0.101817 -0.044142 0.108286 0.336700 0.678116 -0.387984 0.221247 0.036495 0.078395 0.158225 -0.313153 -0.069205 -0.067478 0.241486 -0.253581 0.039875 -0.030446 0.268875 -0.101664 0.063871 0.261145 -0.357754 0.024578 0.400346 -0.133998 -0.102926 -0.095772 0.228851 -0.276935 -0.536930 0.093839 -0.368249 0.202691 -0.181262 -0.347153 -0.432618 -0.085270 0.225020 -0.117056 0.555536 -0.705041 0.089861 0.489142 -0.358870 -0.317808 0.415329 -0.283189 0.159355 -0.309772 -0.650731 0.104426 0.169819 0.360168 0.113831 -0.589643 0.160845 0.002036 0.376079 -0.048081 0.069331 -0.058744 0.069587 0.243647 -0.168778 -0.080412 0.225629 0.114097 0.304773 0.523797 -0.224401 0.081634 0.136096 -0.407004 -0.009369 0.095660 0.377428 0.301802 -0.452672 -0.056690 0.956882 -0.019124 -0.131607 -0.359003 0.111389 0.192491 -0.349274 0.267195 -0.133434 0.097272 0.181402 -0.232711 -0.361439 0.016776 -0.572912
быть -0.190918 0.059563 0.006534 0.051000 0.238862 -0.322838 -0.284285 -0.033551 0.517651 0.340733 -0.519308 0.276776 -0.019603 0.389607 -0.332035 -0.252501 0.798132 0.102140 0.199678 0.135583 -0.391304 -0.247413 -0.424267 -0.082131 -0.689277 -0.555621 -0.206678 -0.173097 0.129831 -0.278546 -0.464588 0.072803 -0.208408 -0.337609 -0.012672 0.038906 0.877917 -0.091656 0.738194 0.091974 0.200818 -0.096310 -0.150475 -0.312541 -0.450221 0.071113 -0.176075 0.261315 0.095540 0.378917 -0.615064 0.020908 -0.541096 0.397912 -0.063076 0.154611 0.660738 0.166758 0.163670 0.338589 0.715307 -0.297548 0.065229 -0.258386 0.002040 0.030181 -0.468243 -0.276935 -0.453589 0.244621 0.219866 0.108794 -0.028551 0.035190 -0.515702 0.199829 0.090191 -0.139842 0.118906 -0.592053 -0.140316 -0.273361 -0.119361 0.192695 0.186395 0.049616 -0.130784 0.544882 0.037199 0.103407 -0.170422 -0.240254 0.311489 0.279411 0.692727 0.201342 0.024552 0.507225 0.238260 0.012284 0.126728 -0.317266 0.185491 -0.123663 0.074523 -0.362769 0.557016 0.227888 -0.034070 -0.237385 0.830865 0.071156 -0.627494 -0.081924 -0.026134 0.260540 -0.210840 -0.158578 -0.170901 0.212799 -0.094956 0.490563 -0.278132 -0.073986 0.001261 -0.106425 -0.245671 0.290144 0.715705 -0.289021 0.044492 -0.584921 0.190112 0.024064 -0.241947 -0.041079 -0.103908 -0.377860 -0.108115 -0.313861 -0.295951 -0.480618 0.050609 -0.021830 0.496852 -0.055364 -0.650886 -0.104004 0.065402 0.025594 -0.681367 0.492699 0.009681 -0.017742 0.124257 -0.643201 0.354372 -0.190063 -0.065620 -0.024578 -0.567339 -0.086682 0.445102 0.600272 0.256707 0.267644 0.464962 0.570650 -0.258669 -0.304205 -0.424933 0.478726 -0.342545 -0.338082 -0.166932 0.192365 0.286720 -0.186399 0.362971 -0.110278 -0.119706 0.666770 0.547647 -0.280155 -0.031297 0.504028 0.054649 -0.147931 0.374649 -0.112357 -0.391443 -0.255820 0.068130 -0.448245 -0.073688 0.027495 -0.384885 -0.915053 0.006282 -0.023575
к -0.511569 0.249228 0.232631 -0.313032 -0.185914 0.515332 -0.590561 0.061107 0.344665 -0.474709 0.065355 0.424562 -0.432186 0.026798 0.325083 0.139037 0.187711 0.053478 -0.675347 -0.293741 -0.116748 0.601148 0.396670 0.085732 0.225489 0.831313 -0.609862 0.432891 0.362929 1.264373 -0.139176 0.141904 -0.271377 -0.568180 -0.404049 0.451632 0.012956 -0.445461 0.357023 -0.285660 0.020707 0.485404 0.645497 -1.015369 0.191379 -0.135064 -0.149573 -0.489543 0.392140 0.051648 0.227145 -0.325085 0.325835 0.580518 -0.400488 0.723050 0.177559 -0.006208 0.353017 -0.015665 -0.246295 -0.113469 0.381754 0.140630 -0.095565 -0.072280 -0.133760 0.116463 -0.793982 -0.121031 -0.423074 0.737977 0.203649 0.286200 -0.069723 -0.211052 0.505498 0.007792 -0.224548 -0.742952 -0.664744 -0.250432 -0.062864 0.090103 -0.332260 0.259894 0.790800 -0.079913 0.011703 0.090552 0.521683 -0.593194 -0.205744 -0.367163 0.000987 0.754592 -0.353844 0.068945 -0.018756 0.251026 -0.158548 0.066626 0.337817 0.044900 -0.085206 0.065362 0.322443 -0.155822 0.091653 0.803237 0.176700 -0.166284 -0.423188 -0.561805 0.098759 -0.490037 -0.544796 -0.133383 -0.148264 -0.372089 -0.904209 0.039396 0.423575 0.059390 0.069476 -0.188521 -0.261480 -0.235396 0.449266 0.143172 -0.049826 0.790260 0.428105 -0.322180 -0.508013 0.172363 -0.237932 -0.011444 -0.055685 0.006443 0.530014 -0.182100 0.166400 0.175524 0.156774 0.125809 0.062628 -0.595919 0.297459 0.146100 0.006669 0.033350 0.144107 -0.126206 -0.071440 -0.930294 -0.129601 0.065200 0.184894 -0.162618 -0.174030 0.321973 0.216597 0.738442 0.264745 -0.064591 -0.020745 0.180096 0.192295 0.093345 0.121131 0.249787 -0.110746 -0.038263 0.338461 -0.032289 0.163304 0.103556 -0.161073 -0.288221 0.653237 0.322925 0.466095 -0.190310 0.039129 0.626290 -0.482046 0.130630 -0.108349 0.060582 0.333314 -0.184141 0.158914 -0.001250 -0.336703 0.317771 -0.654988 -0.310586 -0.429132 -0.052890
инфляционный -0.753798 -0.147745 -0.052518 0.458483 -0.433358 -0.362256 -0.678883 0.452000 0.672317 -0.154468 -0.199211 0.097849 -0.235890 -0.542718 0.075113 0.127380 0.259454 0.224567 0.113110 -0.039592 -0.124664 0.475822 0.022788 -0.168269 -0.064060 0.030729 -0.306908 -0.559869 -0.186302 0.301226 0.090952 0.340192 0.350577 -0.444960 -0.296566 -0.031943 0.532560 -0.089270 0.003318 -0.271574 0.003687 0.155065 -0.190113 -0.369655 -0.297013 0.030353 -0.864652 -0.407941 0.340532 0.703342 -0.128627 -0.254319 -0.418100 0.357154 -0.006912 0.110948 0.232308 0.137452 0.118542 0.398195 -0.363807 0.010111 0.122813 -0.293452 -0.362541 0.016438 -0.337666 0.218794 -0.220015 0.362677 -0.144364 0.378078 0.312386 0.227682 0.017918 -0.241358 0.073261 0.048687 0.291308 -0.278882 -0.569837 -0.231395 -0.034093 0.161866 -0.347277 0.096859 0.385984 -0.060472 0.173365 -0.121358 -0.089622 0.143365 -0.118264 0.351035 0.321439 0.137392 0.150351 -0.292459 -0.089262 0.591525 0.226373 0.032091 0.411407 0.019343 -0.180108 0.523637 0.159475 -0.095902 0.014430 0.071348 0.271089 0.232833 -0.057739 0.261822 -0.154731 0.328076 -0.538981 -0.336409 -0.441767 0.236218 -0.047135 -0.057902 0.505009 -0.128709 -0.426913 -0.287934 -0.598990 0.162653 0.049410 -0.005745 -0.329205 -0.459973 0.103727 -0.032648 -0.121575 -0.583230 0.307817 -0.630667 -0.253976 0.083099 0.234541 -0.226650 -0.386384 -0.191410 0.134779 -0.257561 0.336634 -0.421074 0.229371 0.567372 0.143480 0.107908 -0.182903 0.049874 -0.136770 -0.294931 -0.143949 0.018983 -0.038736 0.497883 -0.444263 0.537737 0.001051 0.255762 0.067889 0.005346 0.566723 0.010977 -0.030458 -0.275904 -0.431220 0.903728 0.520534 0.592150 0.290501 -0.371046 -0.439789 0.028656 -0.216831 0.434615 0.312688 0.661535 0.588900 0.209535 -0.444770 -0.223393 0.103544 -0.165924 -0.116460 0.159939 -0.095152 0.088392 0.145548 -0.263891 -0.091943 0.048580 -0.026377 0.069583 0.035084 -0.234096
годовой -0.580198 0.071166 0.433987 -0.057461 -0.148185 -0.096566 -0.141409 0.535189 0.696673 -0.043228 -0.126679 -0.300746 -0.655066 0.538709 0.204812 0.092173 -0.152544 0.206567 -0.161542 0.583340 -0.330513 0.229006 0.326381 -0.022062 -0.034986 0.044984 -0.168463 0.158621 -0.346390 0.328900 -0.227931 -0.293970 0.436317 -0.591072 0.115141 -0.073405 0.082106 -0.396128 0.423284 -0.569775 0.223430 -0.269628 0.408562 -0.606719 -0.132598 0.332629 -0.083541 -0.315569 0.290925 -0.210775 -0.080803 -0.268900 -0.217034 0.347457 -0.193125 -0.065202 0.492673 0.304647 -0.184154 -0.007704 -0.108387 -0.271718 -0.440146 0.368489 -0.158062 0.730162 -0.195720 -0.660015 -0.745586 0.310613 -0.324114 -0.045783 0.022818 0.245426 -0.019527 -0.152874 0.068716 -0.030710 0.538904 0.133997 0.405953 -0.008878 -0.184511 0.483453 -0.062989 0.103559 0.567741 -0.903286 0.137662 -0.290133 -0.373724 -0.229290 -0.006952 0.288950 -0.112926 0.257424 0.393385 -0.102371 0.323360 -0.354588 -0.504295 -0.104996 0.008829 -0.057998 0.126422 -0.140117 -0.120672 0.099727 -0.001672 0.069452 0.619951 0.203212 -0.226798 0.041954 0.276144 -0.023164 0.026486 -0.729584 -0.174253 0.163337 -0.343516 0.632158 0.196865 0.088705 -0.317322 -0.139007 -0.354939 -0.109618 -0.483797 0.141993 0.041571 -0.269872 0.537201 0.152449 -0.713839 -0.480422 -0.197493 -0.305674 -0.002936 -0.032098 0.079224 0.042081 0.143979 -0.674062 0.557927 0.129061 -0.451138 -0.276195 0.334662 0.684485 -0.103187 0.372140 0.024486 -0.578098 -0.054954 -0.432516 -0.335765 0.176725 0.459192 -0.274490 0.359925 -0.162412 0.599012 0.132456 0.460163 -0.196827 0.381608 0.134874 -0.448647 0.127450 0.406306 0.283234 0.073396 0.291223 0.331526 0.205506 0.147015 -0.083650 -0.122509 -0.578401 0.359501 -0.247040 0.979641 0.303746 0.055316 -0.028784 0.949001 -0.229916 0.146952 -0.285997 -0.025705 -0.141528 -0.368292 0.090233 0.186558 -0.107334 -0.220210 -0.376785 -0.038865 -0.448291
динамика -0.278708 0.260730 0.302992 0.161747 -0.013962 -0.695993 -0.331126 -0.015352 0.561439 -0.415302 0.137834 0.082726 -0.813235 0.283825 -0.322631 0.282557 0.598941 -0.066155 -0.061416 -0.405308 -0.578560 0.069927 -0.488271 -0.370380 -0.317783 0.073176 -0.294439 0.215783 0.387898 0.203141 -0.483604 -0.376325 0.026224 -0.491486 -0.266497 -0.202174 0.412576 -0.247097 0.056297 0.253416 0.104449 -0.004241 -0.082564 0.204226 0.113118 0.073333 -0.257251 -0.510013 0.326737 0.166605 -0.612538 -0.048079 -0.497244 -0.247265 -0.169415 -0.174576 0.180295 -0.044751 0.378780 0.226586 0.063488 -0.401454 -0.239099 -0.310719 -0.140658 -0.254972 -0.349262 -0.214832 -0.758317 0.402538 0.661500 0.215308 0.367913 0.025247 -0.235210 0.309958 -0.041172 0.179943 0.383142 -0.284234 -0.465472 0.225801 -0.441909 0.496826 0.268570 -0.148736 0.111200 0.255356 0.417310 0.154416 -0.310935 -0.603300 0.704339 0.418258 0.629547 -0.112110 0.144437 0.150078 0.046386 0.072772 -0.253057 0.202887 0.312261 0.246520 0.259345 0.109195 0.026885 -0.255859 0.092635 -0.626391 0.476815 0.513318 -0.209504 -0.271013 0.439211 -0.036970 -0.328880 0.043084 -0.350316 0.359865 -0.522182 0.058206 -0.077243 0.116252 -0.011254 0.005901 0.094543 0.270915 -0.046606 0.486259 -0.058929 -0.189669 -0.140996 -0.143773 -0.293258 -0.465801 0.618438 -0.811962 0.411990 -0.197577 -0.007077 -0.225322 0.173181 -0.432618 0.327529 0.304075 -0.363850 -0.061283 0.506251 0.200404 -0.472447 -0.043121 0.003026 -0.030465 -0.232526 -0.323177 0.551180 0.830033 -0.439318 -0.076951 -0.552584 -0.008516 0.199749 0.290161 -0.084081 -0.094241 0.135663 0.574688 0.430404 0.304003 -0.047143 0.007815 0.186485 0.431741 -0.007278 0.166187 0.835591 0.330891 -0.137452 0.154520 -0.071561 0.506279 0.179167 -0.084640 -0.018755 -0.030314 0.300707 -0.221383 0.102683 -0.338091 -0.037322 -0.059713 0.448555 -0.247273 0.006238 -0.509148 -0.149980 -1.073598 0.500617 -0.460964
кредитный 0.268406 0.094352 0.069936 -0.057596 0.459939 -0.284362 -0.362620 0.538340 0.054478 0.300544 0.267764 -0.353007 -0.067629 0.496484 -0.183611 -0.068883 -0.111928 0.029999 -0.256503 0.412873 -0.597455 -0.061622 -0.112923 0.377655 0.191119 0.065271 -0.156515 0.230560 -0.136593 0.036814 -0.026477 -0.251649 -0.040245 -0.263676 0.461935 0.514569 0.754699 -0.335392 0.217238 -0.142420 0.806582 0.135561 0.261023 -0.476253 -0.833681 0.064980 0.209308 -0.519025 -0.116286 -0.260411 -0.043459 -0.224671 -0.025528 0.242467 0.355919 0.201069 0.254702 0.417701 0.123344 -0.604285 0.419583 -0.306558 -0.111108 0.302996 -0.163219 0.436547 -0.665160 -0.477407 -0.677015 -0.187633 -0.428974 0.193460 0.423369 0.275792 0.165769 0.139012 0.013810 -0.337808 -0.483967 -0.585106 -0.770683 0.384302 -0.216109 0.326662 -0.098691 -0.112234 0.665065 -0.037367 0.099525 0.305628 0.189471 0.189059 -0.557175 0.286088 0.356026 0.178724 -0.157853 0.118680 0.424595 -0.296159 -0.019301 -0.261090 -0.046865 -0.136213 -0.412932 0.126888 -0.044034 0.197910 0.155935 0.882020 0.298128 -0.239497 0.298184 -0.162437 0.121769 0.381699 -0.175608 0.011674 -0.048793 0.471742 -0.187131 -0.190081 0.446439 0.075280 0.237038 -0.139709 0.099289 0.011869 -0.206113 0.375320 0.334388 -0.148136 0.064714 -0.042976 -0.485252 -0.279612 -0.165778 -0.376682 -0.362848 0.341336 -0.196825 -0.527113 -0.070262 0.029806 0.269647 0.172621 -0.720201 0.296178 0.042731 -0.217231 -0.235532 0.523422 0.026109 -0.121353 0.129490 -0.676826 -0.379529 0.111416 0.229234 -0.227594 -0.497926 0.203910 0.344962 0.186445 0.044576 0.128832 0.403678 0.126678 -0.294739 0.100781 -0.021244 0.229962 -0.282100 0.008363 0.772185 -0.073030 -0.136708 -0.263651 0.054138 -0.042398 -0.068350 0.250433 0.280643 -0.000870 0.305357 0.319212 -0.319965 0.111290 -0.276376 -0.060623 0.263552 -0.221458 0.273563 0.150585 -0.223269 0.511431 -0.645904 -0.809955 0.214628 -0.737982
уровень -0.387973 0.155376 0.206301 0.302979 -0.162429 0.228508 -0.329274 0.203681 0.632418 0.363721 -0.176737 -0.237348 -0.605637 -0.012193 0.599311 0.295408 0.567574 0.082131 -0.411657 0.559240 -0.333752 -0.069909 -0.145734 -0.033987 -0.457833 -0.168331 -0.316583 -0.081652 0.441701 0.455403 -0.016676 0.747307 -0.095394 -0.807321 -0.018637 -0.027107 0.148146 -0.396126 -0.001585 -0.304981 -0.328514 -0.002839 0.187378 0.060974 -0.018518 0.295304 -0.347352 -0.064049 0.267784 0.210302 0.042725 -0.151071 0.004482 0.164194 -0.221938 0.271601 0.407335 0.046196 0.171262 -0.124996 0.188623 -0.238409 0.537872 0.181248 -0.279942 0.031950 -0.136973 -0.279407 -0.112718 0.387416 0.086616 0.547557 -0.057403 0.224494 -0.096981 -0.173967 0.219119 0.238603 0.495309 -0.656157 -0.599693 0.264291 0.632024 0.431101 -0.380876 0.107648 0.503062 -0.194928 -0.723683 -0.170925 0.056644 -0.344257 -0.460770 -0.379267 0.568550 0.195242 -0.056338 0.025175 0.223771 -0.020384 -0.083172 0.235594 1.002687 0.335117 0.032660 -0.401039 0.446782 0.387283 0.110230 0.171187 0.339268 0.277606 -0.395558 -0.272112 -0.047557 -0.212221 0.026612 -0.322418 -0.219038 -0.268871 0.323387 0.015921 0.297936 -0.033933 -0.098315 -0.509776 0.012433 0.161488 0.241343 -0.394559 0.224057 -0.226617 -0.004691 0.397199 -0.546937 -0.022611 -0.291001 -0.202260 0.145645 -0.377662 -0.104540 -0.019075 0.054099 0.107966 0.485493 -0.071591 -0.059862 -0.351636 0.472982 0.574969 0.005441 0.441017 0.079626 -0.157231 -0.088954 -0.554953 0.034079 -0.375585 0.035374 0.383041 -0.659160 -0.228404 0.690070 0.131701 0.111805 -0.076609 0.835970 -0.129058 -0.147762 -0.012091 -0.399737 0.253434 -0.084817 0.162541 -0.067338 0.035113 -0.352269 -0.185491 0.092131 -0.349053 0.187122 0.023163 0.831526 0.295197 0.340848 0.155176 0.327724 -0.620675 0.001356 0.273284 0.130966 0.042218 -0.168212 0.108264 0.014070 0.072617 -0.356490 -0.364389 -0.333395 0.008644
экономика -0.531322 0.320972 0.101110 0.111544 -0.134613 -0.507286 -0.223885 0.296022 0.454285 0.092152 0.440693 -0.157470 -0.150876 -0.054719 -0.274239 0.243846 -0.156536 0.445356 -0.217826 -0.218669 -0.315820 0.729571 0.050536 0.120223 -0.339861 -0.257029 -0.208174 -0.288542 0.183831 0.412904 -0.342291 -0.286051 -0.236343 -0.372756 0.439444 0.269122 0.269074 -0.428510 -0.655069 -0.100587 0.226209 0.092222 -0.182622 -0.227902 -0.123902 -0.359099 -0.420137 -0.177218 -0.120158 0.079401 -0.006519 -0.111642 -0.198726 0.007403 -0.408327 -0.259330 0.040624 -0.003031 0.314116 0.103576 -0.211471 0.017434 0.029876 -0.017708 0.161158 -0.232869 -0.104334 -0.089145 -0.615001 0.353197 0.141746 -0.539914 0.023078 0.150564 0.463361 0.536213 0.058817 -0.032466 0.235222 -0.392464 -1.099218 -0.080012 -0.221117 0.217432 0.017451 0.111390 0.051954 0.107981 -0.190020 0.290530 0.034966 -0.638498 -0.083382 0.004172 0.310284 -0.080599 -0.056087 0.513347 0.057022 0.305992 -0.237214 -0.097114 0.250905 0.264154 -0.123555 0.158175 -0.093234 -0.065895 0.065632 -0.014764 0.322312 -0.012196 -0.050432 -0.091687 0.179358 0.277265 -0.329012 0.274309 -0.192296 -0.140613 0.155408 -0.489835 -0.017088 0.077335 -0.628092 0.128145 0.449675 -0.197972 0.458091 -0.048330 -0.225724 -0.244210 0.762380 -0.073689 -0.176395 -0.311822 -0.067233 -0.593101 -0.053907 0.159038 0.031582 0.005920 -0.229015 0.434460 0.181681 0.460518 -0.042829 0.135447 0.732299 0.116477 0.062086 0.123623 0.053705 0.020241 0.005856 -0.262839 0.382007 0.077606 -0.433922 -0.182611 -0.362557 0.204395 0.199490 0.097785 -0.500640 0.145386 0.434516 0.107535 0.305529 -0.180360 -0.227563 -0.000778 0.072237 -0.396905 0.018654 0.021638 0.652219 -0.105219 0.171921 -0.183056 0.430643 -0.133434 0.255140 -0.202127 0.183184 0.295366 0.057746 0.201137 -0.745464 -0.450131 -0.209503 -0.499573 0.334036 -0.062600 -0.001132 -0.256542 -0.062561 -0.228478 0.478414 -0.100184
рынок 0.054941 0.308606 0.618765 -0.096877 0.191674 -0.192922 -0.588568 -0.301282 0.431427 -0.129367 0.084907 -0.224331 -0.610067 -0.819257 0.363064 -0.130777 0.094708 -0.276037 -0.642286 -0.280908 -0.627804 0.148074 0.198832 0.293625 0.260891 -0.291556 -0.401518 -0.372265 -0.202632 0.290140 -0.099179 -0.282436 0.329883 0.033046 0.579850 0.551530 0.206940 0.130300 -0.439986 0.053137 0.112329 0.162090 -0.139245 -0.253585 -0.234348 0.176822 0.020271 -0.121832 -0.385183 -0.233293 0.194171 -0.158753 -0.200228 0.207254 0.278278 0.266022 0.709592 -0.017487 0.315499 -0.118757 -0.490447 -0.666087 -0.019939 -0.099799 0.067706 -0.193497 -0.205010 0.010727 -0.312936 -0.047148 -0.099294 0.343138 0.143172 0.168329 0.514338 -0.294039 0.078655 0.183559 0.068103 -0.338560 0.058537 -0.151509 0.010349 -0.168490 0.355737 -0.148942 -0.144761 -0.010469 -0.433086 -0.195021 -0.282216 -0.436528 0.068430 -0.105791 0.077128 0.168897 -0.608671 -0.053549 0.419632 -0.420239 -0.169914 0.025798 0.095316 0.011960 0.177430 0.133220 0.005238 0.047688 0.137393 0.176610 0.312073 -0.029354 -0.045079 -0.123274 -0.168041 0.028426 -0.263872 0.091191 -0.001003 0.175383 0.077660 0.030777 0.502342 -0.234453 0.515185 0.348273 0.271531 -0.295927 0.255187 0.103278 0.268060 0.116138 0.215035 0.308067 -0.329729 -0.658155 0.336384 -0.710424 -0.058529 0.314539 0.059132 -0.021001 -0.415720 -0.371868 0.413095 0.004058 -0.190282 0.033730 0.410187 -0.498215 0.287196 -0.132848 -0.088232 -0.170953 -0.081346 -1.072613 0.008020 0.458659 -0.118440 0.452497 -0.458687 0.672897 -0.590009 -0.120026 -0.476916 -0.361245 0.219531 -0.010425 0.400835 -0.230517 -0.069948 0.229677 -0.590089 0.381223 0.277553 -0.396013 0.054259 -0.319170 0.161994 -0.239315 -0.231479 0.267011 0.161676 0.052860 0.139352 -0.079425 0.107042 -0.092096 -0.419167 -0.337172 0.035890 -0.124075 0.331599 -0.695159 0.470964 -0.420027 -0.834968 -0.445178 0.746913 -0.446986
до -0.305104 -0.183959 0.108096 -0.118916 0.060848 0.329705 -0.721112 0.557197 0.594851 0.250923 -0.199503 -0.031892 -0.427092 0.238763 0.212837 -0.304358 0.160103 0.090412 -0.568072 0.386426 -0.178201 0.076744 0.787246 -0.096189 -0.255039 -0.638408 -0.141737 -0.242854 -0.290978 0.423678 0.106648 -0.538011 0.179992 -0.435835 0.298795 -0.168200 -0.126899 -0.120113 0.536807 -0.430047 0.167951 -0.181775 -0.196783 -0.145623 0.602365 0.011498 0.034270 -0.242842 0.146686 -0.766637 -0.519762 -0.466140 -0.274910 0.397154 0.177520 -0.027975 0.822357 0.412794 -0.133147 -0.296619 -0.000475 -0.114061 -0.053572 0.127650 -0.212041 0.112551 0.222041 -0.210177 -0.316761 -0.330123 -0.488939 0.101964 0.265984 0.696084 0.204486 -0.002592 0.543144 -0.031878 0.357148 0.231505 0.341745 -0.522606 0.344634 0.478777 -0.119775 -0.183465 0.335638 -0.248815 -0.125397 -0.173876 -0.243558 -0.194335 -0.337467 -0.027143 -0.287308 0.185523 0.247289 -0.575401 0.561039 -0.785684 -0.480460 -0.217117 0.019668 -0.127509 -0.514956 -0.635565 -0.005005 0.109244 0.086898 0.396510 0.576853 0.251550 -0.184116 0.140213 0.633089 0.169653 0.267023 -0.689410 0.385185 0.146292 0.134531 0.332554 0.187411 0.260831 -0.088659 -0.367219 -0.441398 0.135571 0.005636 -0.314855 0.225678 -0.431704 0.535649 0.076426 -0.519468 -0.586444 -0.595997 -0.104965 -0.157694 0.110308 0.524171 0.109762 0.077707 -0.450523 0.645000 -0.080842 0.146644 -0.087881 0.164966 0.570858 0.388879 0.275108 -0.039775 -0.633951 0.218648 -0.088552 -1.039779 0.002819 0.292129 0.073283 0.167948 0.157473 0.795988 -0.050902 -0.351688 -0.229480 0.814517 -0.047919 -0.281397 0.452013 0.204193 0.389695 -0.304680 0.392126 0.363025 0.110045 0.042796 -0.440558 -0.140889 -0.129406 0.651102 -0.001034 0.491413 0.517623 0.214779 -0.178425 0.398539 -0.539841 -0.083629 0.102548 -0.255079 -0.265555 -0.143897 0.000333 0.115691 0.240500 -0.896952 -0.231731 0.692570 0.145561
темп -0.491010 0.360110 -0.116159 -0.132312 0.059325 -0.089426 0.247586 0.520417 0.606870 -0.299613 0.228593 0.173759 -0.454388 -0.266083 0.001889 0.248037 -0.030812 0.342102 -0.165179 0.019959 -0.358907 0.149613 0.472697 -0.019672 -0.115723 -0.110766 -0.194113 -0.052982 -0.081524 0.727011 -0.269295 -0.182229 -0.031238 -0.416450 0.269238 -0.185917 -0.116532 -0.327800 0.058671 -0.066351 0.628581 0.084149 0.282837 -0.380022 -0.330359 0.213987 -0.448129 0.242703 0.064973 0.470262 0.052360 -0.200950 -0.053721 0.137949 -0.133090 -0.203641 0.137166 0.069653 -0.401544 0.100439 -0.374132 -0.144852 -0.383564 0.226026 -0.384669 -0.005820 -0.131498 -0.420565 -0.291853 -0.062065 -0.176104 -0.315562 -0.074583 0.200032 -0.030689 -0.100974 -0.200563 0.273630 0.987991 -0.332110 0.094200 -0.344890 -0.175798 0.529491 -0.295802 -0.167456 0.283848 -0.566881 0.124827 -0.039516 -0.089011 -0.477574 -0.073651 0.023009 -0.638077 -0.077864 0.300451 0.393189 0.116797 -0.024308 -0.072691 -0.290809 0.067761 -0.032747 0.012405 -0.119276 0.160831 -0.004086 -0.300835 0.231843 0.274239 -0.053426 -0.404179 0.069138 0.334115 0.212564 -0.097814 -0.604130 -0.200386 0.047019 -0.181566 0.074239 0.136056 0.418674 -0.404353 -0.589138 -0.224014 -0.022067 0.374294 0.136285 0.142245 -0.761612 0.728757 0.319095 -0.598527 -0.315721 -0.030926 -0.058009 0.061611 -0.027218 0.454976 -0.168227 0.055779 -0.264813 -0.178347 0.274670 0.353550 -0.154363 0.722017 0.608448 -0.163203 0.245776 0.224469 0.040639 -0.387328 -0.297072 -0.132774 -0.190714 0.265141 -0.253898 0.226001 0.024905 0.355202 0.288062 0.372613 0.059567 0.482310 -0.460203 -0.452626 0.136587 -0.613952 -0.101203 -0.156569 0.128519 0.037843 0.052819 0.291160 -0.229179 -0.000281 -0.555167 0.530434 0.348223 0.163125 -0.362689 -0.437055 0.300997 0.320458 0.147615 -0.061191 -0.213577 -0.482937 -0.068714 -0.112811 -0.039993 0.109904 -0.237336 -0.411930 -0.222820 -0.379473 -0.272958
ожидание -0.439244 0.106873 0.173375 0.497529 -0.364775 -0.382260 -0.739404 0.322931 0.412864 -0.176182 -0.433896 -0.217945 0.016850 -0.476193 0.134875 0.221681 0.212082 -0.029936 -0.192719 -0.033284 -0.226157 0.676001 -0.103420 -0.064444 0.078447 0.044400 -0.057587 0.019200 -0.263724 -0.017458 -0.213113 -0.069119 0.507447 -0.489896 -0.583426 -0.380778 0.351059 0.225265 -0.462543 -0.314093 0.206535 -0.003101 0.115531 -0.287670 -0.037980 0.252977 -0.598562 -0.705511 0.528373 0.399992 -0.325399 -0.237069 -0.352695 0.213170 0.030978 0.116128 0.481156 -0.168977 0.071537 0.109908 -0.223156 -0.127020 0.052249 -0.343518 -0.144936 0.128153 -0.140060 0.472442 -0.311797 0.145035 -0.340170 0.490759 0.564876 0.344688 -0.182871 -0.136964 -0.308106 0.305773 0.043224 -0.322189 -0.686629 0.038527 -0.105475 0.455899 -0.366935 0.076843 0.535871 -0.262870 0.046724 0.090946 -0.216827 0.002683 -0.180730 0.407359 0.399658 0.430262 0.094721 -0.060944 -0.042161 0.560595 -0.283439 0.262972 0.759690 0.391403 0.036694 0.419339 0.375464 0.153253 0.159920 0.312827 0.352206 -0.034763 -0.205473 0.170627 0.126472 0.202847 -0.103576 -0.242263 -0.515146 0.080520 -0.151542 -0.042297 0.754438 -0.183345 -0.191600 0.164683 -0.175125 0.012350 -0.019986 0.023896 0.049803 -0.174731 -0.600159 0.036525 0.131182 -0.486771 0.095261 -0.597566 -0.333588 0.191305 0.347530 -0.106511 -0.327814 -0.329908 0.136673 -0.284619 0.347512 -0.171566 -0.016381 0.445493 0.166507 -0.085149 0.086390 -0.214298 -0.072596 -0.191802 0.511161 -0.203817 -0.190944 0.473030 -0.247610 0.425979 -0.026774 0.274097 0.267053 0.127608 0.405831 0.256164 0.087483 -0.398154 -0.316385 0.874756 0.713905 0.670143 0.338459 -0.372081 -0.424969 0.111853 -0.071812 0.184738 0.167931 0.518864 0.762253 0.061484 -0.625106 -0.342346 0.020764 -0.025585 -0.300013 0.388428 -0.139264 0.444795 0.071730 -0.172418 -0.086514 0.239546 -0.050097 0.125604 0.202251 -0.368737
снижение -0.331805 -0.160556 0.388136 -0.190650 -0.016235 -0.603400 -0.117649 0.070520 0.516539 0.495348 0.072244 0.078811 -0.265935 0.351264 0.521403 0.138088 0.434427 -0.303905 -0.442889 -0.271087 -0.487342 0.257286 -0.237784 -0.253831 -0.108820 -0.179201 -0.209510 0.042661 -0.083570 0.482220 -0.139794 0.098337 0.139944 -0.323840 0.081402 0.365547 0.569571 -0.422445 0.537281 -0.082929 0.114440 0.194917 0.091428 -0.396401 -0.549713 -0.246482 -0.039874 -0.150192 -0.147054 0.226861 0.120557 -0.324995 0.364582 0.194275 0.138627 -0.021599 0.421651 0.062097 0.368632 0.360960 0.099701 -0.281896 0.182666 -0.098306 -0.145241 -0.251797 -0.353780 -0.039254 -0.458079 -0.040547 -0.194585 -0.208560 0.006999 0.498479 -0.091586 0.290295 0.248368 -0.097418 0.031712 -0.502016 -0.234606 0.070690 -0.508357 0.162609 0.157840 -0.051624 0.769577 -0.360028 0.265714 0.389279 -0.350744 0.099352 -0.187836 0.070243 -0.166195 0.010096 0.289775 0.039428 0.104731 -0.273496 -0.313809 -0.364338 -0.170879 -0.045675 0.321691 0.243345 -0.027858 0.021405 -0.252428 0.032517 0.571673 0.298411 -0.150627 -0.178813 0.274232 0.415079 -0.642934 -0.179916 0.000252 -0.139146 -0.415452 0.378121 0.022841 -0.269734 0.275569 -0.079228 -0.216930 0.344845 -0.271702 0.025750 -0.193044 -0.428682 0.205362 0.284774 -0.320728 -0.213388 -0.132193 -0.036424 -0.284938 -0.229841 -0.212489 -0.308860 -0.165797 0.276385 0.216414 0.293039 -0.093628 -0.140201 0.459361 0.119398 -0.245152 -0.182784 -0.049889 0.543873 -0.424486 0.298500 0.365197 0.105775 -0.409405 -0.624586 -0.100502 0.166282 -0.003008 -0.066719 0.204463 0.038990 0.497419 0.257961 0.016486 -0.091713 -0.025226 0.202261 -0.095553 0.299932 0.303194 -0.542539 -0.442029 0.271341 -0.160104 0.015520 0.343322 0.605951 0.457565 -0.062542 -0.127825 0.324593 -0.021615 0.130875 -0.247097 0.290348 -0.261613 -0.471832 -0.108432 -0.562068 -0.028227 0.416790 -0.613381 -0.745903 0.484788 -0.251631
решение -0.391806 -0.070043 -0.113473 0.306298 -0.153601 -0.192131 -0.226295 0.414650 0.351586 0.024297 0.352691 0.206407 0.060000 0.349643 -0.085215 -0.421988 0.321573 0.455880 -0.070770 0.083850 -0.544945 0.014275 -0.505099 -0.561600 -0.446970 -0.441846 -0.062834 -0.403735 0.164056 -0.461797 0.405182 0.156698 -0.078935 -0.620833 -0.133143 -0.062222 0.486929 -0.585982 0.829984 -0.230474 -0.031043 -0.259667 -0.060421 0.219831 0.294653 -0.436818 -0.774089 -0.416342 -0.261118 -0.048937 0.067427 0.064788 0.012898 0.455578 0.425172 -0.547124 0.924864 0.096851 0.843712 -0.103606 0.589317 -0.139645 -0.094414 -0.134902 -0.124792 0.340607 -0.172311 -0.749870 -0.435751 0.211199 -0.121703 0.338714 -0.004975 -0.066137 0.003166 0.083224 0.706709 -0.368008 -0.630717 -0.549618 -0.379670 0.216108 0.300320 0.075315 0.017558 0.090545 0.128157 -0.326013 -0.063463 -0.498238 0.288989 -0.273358 0.125745 0.435426 0.646506 0.226481 0.610835 -0.547830 -0.061855 -0.197192 -0.485486 -0.055603 -0.138899 -0.025820 -0.447403 0.133895 -0.015926 0.171126 -0.247245 -0.039715 0.758217 0.661803 -0.011911 0.134410 -0.380888 -0.272707 -0.010856 0.137188 -0.356329 0.200145 0.229081 0.286900 -0.006476 0.092493 0.124117 -0.143233 -0.420909 0.317687 -0.235045 -0.481974 -0.117498 -0.658990 0.686285 -0.544935 0.304622 -0.218370 0.035197 0.131406 0.190548 -0.773022 -0.410019 0.007906 -0.239487 -0.414507 0.744596 0.010624 -0.002935 -0.104604 0.000380 0.346452 -0.213283 -0.127393 -0.019133 -0.207009 0.053033 -0.060505 0.044390 0.027266 -0.250565 -0.294428 0.159968 -0.034077 1.132405 0.176359 -0.129403 0.465904 0.654264 0.499191 -0.642879 -0.038310 -0.045250 -0.011035 0.006009 0.129946 0.091672 -0.228708 0.354304 -0.459899 -0.269136 -0.049971 0.418053 -0.090123 0.642757 0.241189 0.808383 0.186792 -0.210966 -0.526307 0.359335 -0.580781 -0.155020 -0.413244 0.349440 -0.095100 -0.348673 -0.349629 -0.203248 -0.159926 -0.010611 -0.469852
потребительский 0.181854 0.511610 -0.165203 0.336735 0.279305 -0.421555 0.158598 0.558257 0.928056 0.061565 0.115890 0.016568 -0.473604 0.384450 -0.038341 0.170833 0.339932 -0.108640 -0.005047 -0.361089 -0.300675 0.048671 -0.023141 -0.349009 0.257866 -0.005172 -0.103244 0.026624 0.027339 0.132324 -0.090763 -0.071991 0.111852 0.036726 -0.042484 0.472385 0.059492 -0.489238 0.363772 -0.047799 0.576450 0.115758 0.536357 -0.135911 -0.259293 0.400337 -0.014615 0.091267 0.252597 0.435357 -0.224717 -0.468697 -0.343489 -0.142295 0.036167 0.391530 0.618083 -0.428833 0.030114 -0.126564 -0.131627 0.151237 -0.274202 0.236171 -0.034282 0.067800 -0.196789 -0.307043 -0.150160 -0.443878 0.228649 -0.429668 0.090041 0.438464 -0.100802 0.097544 -0.098122 0.211510 0.623707 0.153565 0.000813 -0.364598 0.266357 0.283799 -0.393353 -0.205199 0.190644 -0.230357 0.174826 0.170859 -0.597349 -0.168379 0.194222 0.150373 -0.446759 -0.404283 0.450519 -0.243609 0.010624 -0.052601 0.126708 -0.018882 -0.000310 0.151628 0.350122 -0.142931 0.406352 0.045096 0.034377 0.110252 0.606531 0.119333 -0.044671 -0.160323 0.533745 -0.239706 -0.324727 -0.141046 -0.187285 0.062661 -0.665366 0.559294 0.328624 0.197924 -0.169950 -0.474766 0.113040 0.167139 0.421191 0.332687 -0.042526 -0.371717 0.119816 0.656783 -0.318247 -0.131064 0.010465 -0.498272 0.401016 0.120449 -0.013978 -0.018503 0.085364 -0.343259 -0.046122 0.428954 0.261363 -0.359292 0.251419 0.726619 -0.320207 0.073379 0.003951 -0.162996 0.022567 -0.210450 -0.280797 0.231419 0.464799 -0.113540 -0.232414 -0.175737 0.072935 0.321870 0.699104 0.017585 -0.203967 -0.383649 0.084258 0.267542 -0.186354 0.307158 0.086078 0.970116 -0.231604 0.109554 0.072635 0.137630 -0.397742 -0.542856 0.196011 0.926937 0.369403 -0.605558 -0.551931 0.578519 0.361249 0.192319 -0.064567 0.023914 -0.273446 -0.408846 0.138659 0.212522 -0.174142 -0.138685 -0.353832 -1.032895 0.214534 -0.269522
денежный 0.178774 0.002781 -0.127787 -0.195405 0.370550 -0.035352 -0.492171 0.506101 -0.045574 0.146470 0.296752 -0.156462 0.074482 0.297896 -0.357946 -0.138685 -0.237518 0.117112 -0.079975 0.662389 -0.633220 -0.191364 -0.081195 0.502418 0.036394 0.163628 -0.084738 0.226112 0.048848 -0.162871 -0.017764 -0.335400 -0.105771 -0.313836 0.477844 0.165267 0.814351 -0.388595 0.152503 -0.276200 0.792320 0.076239 0.416355 -0.586620 -0.804055 0.210017 -0.044165 -0.344499 0.207518 -0.214717 0.089531 -0.006074 -0.081858 0.148358 0.231703 0.076966 0.243292 0.419068 -0.198969 -0.342939 0.293738 -0.233979 0.062567 0.176258 -0.124007 0.331974 -0.650260 -0.587780 -0.621543 -0.083952 -0.395503 0.393200 0.313978 0.094991 -0.031676 0.124378 0.105087 -0.422160 -0.312668 -0.437471 -0.647691 0.341091 -0.265786 0.284256 0.003038 -0.093673 0.420709 -0.189330 0.077278 0.247301 0.242633 0.122350 -0.354142 0.526475 0.199871 0.293516 -0.270609 0.465102 0.387952 -0.132145 0.043244 -0.326292 -0.161545 -0.179896 -0.486003 0.027845 -0.013601 -0.002756 0.086253 0.991877 0.206870 -0.367529 0.310685 -0.220447 -0.016635 0.396245 -0.047958 -0.169604 -0.227146 0.579307 -0.194391 0.010545 0.138010 0.246301 0.159789 -0.186447 -0.051965 -0.205472 -0.186110 0.219241 0.300888 -0.159408 0.205258 -0.069741 -0.519348 -0.254839 -0.202472 -0.255779 -0.252329 0.276265 -0.303940 -0.530378 0.033610 -0.018733 0.018490 0.147848 -0.742103 0.233484 -0.006783 -0.090925 -0.282356 0.579285 -0.000125 -0.113256 0.062401 -0.618252 -0.207787 0.059344 0.403629 -0.070227 -0.411462 0.087094 0.640703 0.410819 0.290359 0.346236 0.453830 0.220911 -0.433317 -0.074905 -0.146046 0.144515 -0.261760 -0.036807 0.766423 -0.063942 -0.031013 -0.272678 0.144218 -0.093888 -0.248117 -0.050161 0.247833 -0.281921 0.420125 0.244022 -0.131001 0.091838 -0.062480 -0.147612 0.316220 -0.058063 0.118435 0.231079 -0.324888 0.303285 -0.579079 -0.608308 -0.264859 -0.658580
также -0.566728 0.142068 0.058841 -0.068945 0.108642 -0.457768 -0.534255 -0.100360 0.353878 -0.148384 0.213577 0.222655 -0.006825 -0.290956 -0.110959 0.020660 0.330425 0.037052 -0.607831 -0.456492 -0.076091 0.396386 -0.016053 -0.706254 -0.071040 -0.632484 -0.482262 -0.207889 -0.385827 -0.438184 -0.131843 -0.053744 -0.084717 0.156702 0.047198 0.199578 0.109384 -0.049209 -0.264091 0.200012 0.166743 0.073735 0.175932 -0.302566 0.190722 0.190504 -0.222281 -0.440689 0.373624 0.221156 0.359619 -0.542256 -0.306220 0.129258 0.389110 0.036444 0.407216 -0.500034 0.013766 0.373307 -0.370619 -0.099736 -0.128640 -0.042837 0.168070 -0.235557 -0.023222 -0.079945 -0.356595 0.563956 0.285330 0.027712 0.078210 0.200168 0.296158 0.097545 0.180692 -0.022218 0.155857 -0.188883 -0.429490 -0.313686 -0.464290 -0.432718 0.101117 -0.272965 0.292664 0.510638 -0.069239 0.341284 0.164527 -0.081228 0.020718 0.513929 0.239400 0.124226 -0.346346 0.011961 0.234309 0.509072 0.053286 -0.108434 0.396003 -0.140915 -0.059491 0.062280 0.011765 -0.180244 0.227697 -0.430851 0.374181 0.161966 -0.081686 -0.052856 0.154433 0.420665 0.027217 0.209899 -0.270999 0.100633 -0.026198 -0.012705 -0.106006 0.230335 -0.367157 0.327137 -0.348750 0.176272 1.015432 0.092553 0.117210 -0.574533 0.401771 0.146127 0.234788 -0.551270 0.514663 -0.534387 -0.083318 -0.022991 -0.030208 -0.125916 -0.341247 0.252134 0.363827 0.136122 -0.487544 -0.066518 0.406304 0.302606 -0.044161 -0.100805 -0.259445 -0.083447 -0.029963 -0.530926 0.445870 -0.084267 -0.394796 0.326315 -0.249352 0.349754 -0.119532 0.467362 0.363059 -0.047550 -0.129755 0.015602 0.282219 -0.040849 -0.121937 -0.068693 0.489723 0.307294 0.186157 0.024670 0.511602 -0.078182 -0.122826 0.286607 0.303685 -0.110920 0.145205 -0.269258 -0.343992 0.192216 0.092710 -0.138489 -0.680935 -0.304573 -0.174856 -0.177254 0.094797 -0.189786 -0.524608 -0.676034 -0.299731 -0.212335 0.000110 0.047468
директор -0.184754 0.229436 0.223393 0.207042 0.021549 0.364582 0.131941 0.509317 0.150278 0.298479 0.147359 -0.254914 -0.335733 0.123138 0.556080 -0.135159 -0.002192 0.170817 0.030896 0.267960 -0.649164 0.005392 -0.186251 -0.253854 -0.362022 -0.404150 0.101633 -0.186876 0.205603 -0.154714 0.267387 0.225503 0.396867 -0.454759 0.081647 0.027460 0.532228 -0.257141 0.372962 -0.371669 -0.196785 -0.094451 0.023461 -0.135543 0.016020 0.076451 0.224599 -0.517597 -0.464527 -0.118567 -0.134411 0.001046 -0.116614 0.623696 -0.072196 -0.352767 0.610621 0.351709 0.815403 0.181146 0.575011 -0.314598 0.047901 0.346283 0.003435 0.229133 -0.235520 -0.762919 -0.539247 0.289629 -0.052725 0.474915 -0.034919 -0.200274 -0.231784 -0.180957 -0.063250 -0.491749 -0.530228 -0.459291 -0.459033 0.033006 0.282941 0.064278 0.119600 0.293949 -0.380222 -0.730581 0.038303 -0.902902 0.236847 0.092552 -0.000583 0.504366 0.640785 0.109390 -0.070731 -0.302191 0.336834 -0.197908 -0.245393 0.202940 0.413293 -0.089772 -0.197346 0.046214 -0.145932 0.631357 0.119243 -0.037562 0.355471 0.333926 -0.211559 0.237429 -0.210451 -0.173213 0.018676 -0.071822 0.324641 0.200028 0.410001 0.382500 0.539395 0.023018 0.281574 -0.001716 -0.067098 -0.064788 -0.561682 -0.596497 0.251561 -0.339112 0.583547 -0.002140 0.164581 0.002762 -0.017411 0.001382 0.224978 -0.504446 -0.784709 0.136793 0.078831 -0.386399 0.560798 0.027863 0.000012 0.166924 0.157143 0.048522 -0.238139 -0.034881 0.087422 -0.480914 -0.018875 -0.605962 0.194917 0.129798 -0.092532 -0.243984 0.073098 0.264252 0.664071 0.211268 -0.269235 0.167935 0.505913 0.389740 -0.824703 -0.369157 -0.032319 -0.023199 -0.339714 0.317278 -0.167769 -0.277413 -0.031894 -0.456940 -0.210748 -0.132503 -0.160232 -0.004993 0.757993 0.220244 0.146633 0.539272 -0.020200 -0.914979 0.137982 -0.465606 0.173156 -0.284258 0.165130 -0.452896 0.324481 -0.135985 0.173717 0.040586 -0.137479 -0.578350
совет -0.163795 0.229438 0.183923 0.233731 0.061813 0.287088 0.102661 0.512147 0.061774 0.287530 0.293565 -0.183268 -0.282364 0.099899 0.568522 -0.148281 -0.000198 0.077307 0.057407 0.302631 -0.651492 -0.000170 -0.217647 -0.319777 -0.413182 -0.455159 0.092044 -0.273747 0.159610 -0.192934 0.377905 0.292519 0.398666 -0.507288 0.098656 0.089341 0.580234 -0.282208 0.427634 -0.315473 -0.155002 -0.052698 -0.024095 -0.170593 -0.086194 0.108542 0.168830 -0.501297 -0.516179 -0.164196 -0.055183 0.009484 -0.160638 0.536531 -0.016536 -0.474058 0.686994 0.418056 0.885004 0.136370 0.690606 -0.316443 -0.036244 0.375892 -0.069393 0.191272 -0.215239 -0.748763 -0.544258 0.338144 -0.079615 0.404864 -0.080705 -0.115307 -0.239465 -0.201749 -0.005953 -0.545606 -0.620986 -0.564588 -0.539030 0.041995 0.360298 0.042464 0.110121 0.279134 -0.430249 -0.714523 0.051009 -0.928661 0.264629 -0.003105 -0.028920 0.524979 0.698505 0.022531 -0.110869 -0.333455 0.287818 -0.152272 -0.355755 0.164941 0.372581 -0.160502 -0.214114 0.130276 -0.217064 0.617345 0.094232 -0.022907 0.424013 0.369599 -0.196055 0.273092 -0.331623 -0.155318 0.035232 -0.039121 0.393642 0.194942 0.466905 0.374726 0.573707 0.009574 0.414749 -0.007192 -0.084527 -0.058320 -0.538073 -0.710695 0.278913 -0.387978 0.690450 -0.069067 0.277969 -0.057745 -0.048414 0.014526 0.211050 -0.576765 -0.835046 0.181459 -0.004766 -0.377677 0.554038 0.077335 0.042078 0.222415 0.248133 0.058333 -0.243566 -0.089818 0.141108 -0.423554 -0.066702 -0.586955 0.213345 0.113453 -0.076134 -0.236477 0.184580 0.294556 0.685093 0.274164 -0.284074 0.165239 0.537958 0.383462 -0.919961 -0.499765 -0.108255 -0.010560 -0.448895 0.246466 -0.095866 -0.381770 0.098962 -0.517766 -0.239710 -0.151856 -0.167609 -0.018172 0.679805 0.193387 0.231333 0.539833 -0.099527 -0.911783 0.149152 -0.522764 0.172292 -0.374100 0.214062 -0.524623 0.312903 -0.242442 0.155500 0.019250 -0.137389 -0.652483
спрос -0.219705 0.824922 0.045766 0.485780 0.130084 -0.427561 -0.476874 0.230348 0.519227 -0.104666 0.219232 -0.056968 -0.527037 0.227043 -0.373590 0.583714 0.121396 -0.451660 0.001466 0.164988 -0.046381 -0.080310 -0.217827 0.137941 -0.120948 -0.413081 -0.187053 -0.569725 -0.132884 -0.065215 0.014172 0.277238 -0.078943 -0.289454 0.289419 0.712078 0.208879 -0.644991 0.114575 -0.199422 0.709029 -0.072218 0.059092 -0.309732 -0.556668 0.400334 -0.152297 0.192793 0.694303 0.622725 -0.064957 -0.488248 -0.368556 -0.415015 -0.149546 -0.100181 0.153233 0.152343 -0.297207 -0.003049 -0.019541 -0.116246 0.143244 0.591038 0.043539 -0.102460 -0.264196 -0.013086 -0.077219 -0.134090 0.319431 0.065588 -0.045416 0.200264 -0.201051 0.234639 0.305292 -0.058041 0.037192 0.066741 -0.416490 -0.197118 0.098761 -0.042795 -0.312662 -0.406423 0.075331 0.320361 -0.212778 0.569618 -0.865460 -0.921516 -0.127074 0.077616 -0.110803 -0.472308 -0.203021 -0.142559 -0.474825 0.386520 0.010147 -0.038756 0.380966 0.272328 0.610542 -0.079558 0.486588 0.066835 0.028793 -0.350717 0.086130 0.547890 0.177577 -0.150635 0.264974 -0.271148 -0.446897 0.144369 -0.210310 -0.500795 -0.534404 0.106826 0.194389 0.099905 -0.089183 -0.414764 0.188305 -0.224250 0.643078 -0.116928 -0.182488 0.163585 0.122958 0.127927 -0.205591 -0.471412 0.110191 -0.823396 0.121004 0.597390 -0.142584 0.106267 0.003578 0.533132 -0.279508 0.410311 -0.010582 0.363416 0.645826 0.209363 -0.079676 0.263699 -0.194857 -0.058533 -0.102851 -0.103639 0.129382 0.015676 0.179119 0.359104 -0.616660 -0.414026 -0.084827 0.629971 0.326101 -0.018780 -0.294709 -0.239921 -0.012205 -0.374013 -0.136730 0.392526 0.200760 0.337325 -0.507841 -0.064295 0.062867 0.570066 0.196669 -0.402192 -0.511724 0.385355 0.160620 -0.328229 0.004327 0.714966 0.256283 0.101202 -0.186693 0.607003 0.080136 -0.261317 -0.198691 -0.227396 -0.019487 -0.045998 -0.183438 -0.547357 0.252503 -0.011657
влияние 0.178595 -0.098912 0.017197 0.094598 0.265278 -0.383236 -0.114686 -0.140616 0.487991 -0.356452 -0.162062 -0.112019 -0.512807 -0.338083 -0.504628 -0.002333 -0.000322 0.080237 -0.079648 -0.012279 -0.118222 0.031527 -0.512177 0.050900 0.189394 -0.567386 -0.425777 -0.316351 0.330070 -0.120617 -0.239309 0.142113 0.082322 -0.564204 -0.247605 0.121059 0.137088 -0.280574 -0.182263 -0.133260 0.737271 0.400990 -0.240262 -0.334731 -0.121693 0.170106 -0.112683 0.010919 0.553099 0.360624 0.270482 0.526439 -0.161785 0.336657 -0.128829 -0.498838 0.559336 -0.230307 -0.127729 -0.000575 0.279935 -0.590603 0.061164 -0.092875 0.187096 -0.100349 -0.113748 0.370818 -0.523125 0.158866 0.328731 0.200260 0.537780 -0.014191 0.277390 0.393956 0.373343 0.066179 -0.333850 -0.212590 -0.387199 0.107197 0.126070 -0.156540 0.217160 -0.256017 0.202895 0.480292 0.110556 -0.433621 0.123662 -0.248978 0.109175 0.014310 0.093564 -0.108139 0.129273 0.109868 -0.332108 -0.097529 -0.374993 -0.152404 0.443146 0.193582 0.390794 -0.073924 0.763258 0.012433 -0.263455 0.073359 0.620587 0.041157 -0.390902 -0.361310 0.166729 0.070955 -0.224558 0.012129 -0.793643 0.040421 -0.880424 0.169244 -0.397614 -0.310539 -0.025882 0.326134 0.067026 -0.086401 0.625626 0.760204 -0.242202 -0.360410 -0.145978 -0.169482 -0.253619 -0.341752 0.375915 -0.301760 -0.240643 -0.047330 0.210325 -0.653896 -0.270198 -0.326393 0.305107 0.228458 -0.248696 -0.175658 0.180929 -0.187827 -0.329123 0.035520 0.008816 0.285316 -0.327699 -0.382223 0.223629 0.336712 -0.292213 0.039821 -0.575188 -0.234612 -0.204309 0.181234 -0.091313 0.447788 0.155548 0.097938 0.189407 -0.343064 0.080951 0.332735 0.603278 0.156079 0.707387 -0.411012 0.299569 0.326528 0.319656 0.075508 -0.106746 0.498209 0.212233 -0.318767 -0.071611 -0.092732 0.634550 0.195145 0.320801 -0.747073 0.041625 0.160515 0.048496 0.014481 -0.167931 0.215295 -0.333136 -0.541292 0.466277 -0.529738
при -0.154626 0.594725 -0.193149 0.512099 0.469071 -0.195162 -0.645712 0.907986 0.935683 0.350681 0.691615 0.178128 -0.246768 -0.167420 0.433273 0.189828 0.699244 0.058425 -0.317827 -0.094118 -0.326322 0.128618 0.236978 -0.139085 -0.110031 -0.025684 0.020676 -0.028883 0.212903 0.145995 0.143880 0.115030 0.163809 -0.385238 0.069935 -0.174626 0.180481 -0.821080 0.797250 -0.699212 0.093938 -0.036040 -0.140597 0.186342 -0.012264 0.112117 -0.074848 -0.514790 0.129374 -0.216131 0.299096 -0.057731 -0.177997 0.186802 0.137993 0.026762 0.583394 -0.149413 0.529960 -0.189595 -0.047956 0.120566 0.213454 0.244844 -0.266145 -0.004095 -0.267192 -0.557650 -0.089167 -0.264858 0.187546 0.508307 0.152055 0.218765 0.009207 0.396401 0.279763 0.334245 -0.096189 0.014213 0.012119 -0.143460 0.669660 -0.526404 -0.271692 -0.197906 -0.578206 -0.268978 -0.586561 -0.634559 -0.605717 0.028356 -0.467802 0.571395 -0.282332 -0.060186 -0.217321 -0.009488 0.118727 0.034827 -0.216093 -0.322357 0.170155 -0.352266 -0.214520 0.056579 0.142335 0.000521 -0.420431 0.290330 0.536624 -0.604866 0.322170 -0.174924 -0.172973 -0.202128 -0.410518 0.055444 -0.232147 -0.531532 0.765871 0.149495 0.091996 0.316267 0.176006 -0.331835 -0.134899 -0.252882 -0.527309 -0.310132 0.225688 -0.243073 0.222311 0.004370 0.245943 0.206857 -0.320710 -0.404561 0.350467 -0.007610 -0.035375 -0.764549 0.149995 0.159908 0.406173 -0.821347 0.260586 -0.043533 0.628385 0.469919 -0.373587 0.296274 -0.290788 0.162129 0.304113 -0.458692 0.076014 0.291794 0.237411 -0.047507 -0.340216 0.182755 0.284483 0.082556 -0.295981 0.152236 -0.223019 0.033298 0.213705 -0.232276 -0.463439 0.126490 -0.023536 0.615406 -0.619387 0.070234 0.179960 -0.043946 -0.130377 -0.072527 -0.150659 0.257316 0.490510 -0.229574 0.464147 0.382046 0.425672 -0.333592 -0.238262 0.242301 -0.390978 -0.386996 0.097797 -0.446019 0.166643 -0.308010 -0.177012 -0.073043 0.345169 -0.159272
операция -0.067464 -0.274606 0.071176 0.135175 -0.151447 0.782180 -0.394753 -0.556164 -0.555460 0.296595 -0.110323 0.193190 -0.220087 -0.098709 0.251590 -0.618780 0.060797 0.080236 -0.534725 0.098401 -0.512698 0.130989 0.339847 0.125211 -0.437295 -0.174875 0.097564 -0.203672 -0.071544 -0.139706 -0.093330 0.391217 -0.289147 -0.275952 0.015548 -0.227658 -0.391810 0.043204 0.982469 -0.502160 -0.055060 -0.338106 -0.113538 0.188307 1.015015 -0.389928 0.277966 0.363479 -0.555433 -0.645335 -0.379980 0.248390 0.370938 0.613687 -0.244311 -0.008690 0.277981 0.123467 0.373257 -0.122452 -0.211765 -0.506393 0.122719 0.040218 0.069739 0.329343 0.509296 -0.247985 -0.141378 -0.679069 -0.421655 0.115452 -0.024091 -0.250955 0.091443 -0.148766 0.538753 0.066341 0.272545 -0.305514 0.143548 -0.287749 0.180907 -0.323326 0.096783 0.335655 0.359624 -0.269359 -0.455505 -0.056864 -0.213535 0.273170 -0.072319 -0.463549 0.256427 0.192945 0.052457 -0.706128 0.114695 -0.896389 -0.549013 0.477238 0.019640 -0.553221 -0.344259 -0.676771 -0.143379 0.380649 -0.289731 -0.223984 -0.038045 0.245380 -0.311518 -0.079869 -0.319018 0.099756 0.724430 0.142202 0.611341 -0.551832 0.518188 0.466417 0.098935 0.175848 0.627685 -0.003536 0.160037 0.232759 -0.618547 -0.516678 0.451748 0.559582 0.262915 0.049469 0.146105 0.020751 -0.435639 0.788822 -0.046922 0.004288 0.539593 0.376122 0.337669 -0.395281 0.071580 -0.773910 -0.132563 0.085592 -0.028331 -0.291593 0.358314 -0.088018 -0.309297 -0.570123 0.197763 -0.152465 -0.584511 -0.013586 -0.121259 -0.324707 0.061835 -0.080857 0.509575 -0.070954 -0.265664 -0.477216 0.015253 0.089823 -0.007142 0.247533 0.126337 -0.334612 -0.869438 0.281457 -0.053930 -0.093043 -0.175028 -0.695345 0.340597 -0.194556 0.058221 -0.773178 0.083888 0.715854 0.424930 -0.253601 0.205873 -0.624532 0.044339 -0.114070 0.354982 -0.084191 -0.281756 -0.700198 0.113866 -0.104177 -0.365747 0.413636 0.133915 0.492273
прогноз -0.648117 0.222431 0.022149 0.219476 0.010657 0.343994 -0.223120 0.334761 0.218314 -0.065950 0.571506 0.214482 0.031995 0.073988 0.252627 -0.206318 0.042103 0.277759 0.154424 -0.150464 -0.846751 0.504049 0.056516 -0.256354 -0.620324 -0.142313 -0.175598 0.058718 0.095955 -0.279710 -0.238204 -0.237687 0.460784 -0.441552 -0.084714 -0.025023 0.557250 -0.266599 0.404628 -0.647955 0.074864 -0.043872 0.181002 -0.291400 -0.382791 -0.079917 -0.145018 -0.165326 0.133086 -0.304458 -0.245072 -0.035025 -0.575162 0.536775 -0.069335 -0.119171 0.873431 -0.084297 0.220149 0.087004 -0.126666 0.012750 -0.132377 0.013934 0.088636 -0.198934 0.321963 -0.706239 -0.923591 0.021795 0.103135 0.083230 0.192310 0.215373 -0.031406 -0.223918 0.017946 -0.116692 0.460053 -0.441619 -0.207458 -0.183693 -0.315946 0.647525 -0.210735 -0.087044 -0.262780 -0.234753 -0.215186 -0.248947 -0.304582 -0.234396 -0.001926 0.702454 0.491500 0.370259 0.030132 0.324497 0.570381 0.058839 -0.135066 -0.108766 0.254386 -0.562691 -0.244728 0.029468 -0.229446 0.517368 -0.052235 0.212627 0.563865 0.068722 -0.692769 -0.005080 0.117528 0.406204 0.422165 0.169345 0.020308 -0.028849 0.045778 0.708412 -0.014588 0.289528 -0.302879 0.372285 0.102804 -0.261300 -0.096092 -0.004911 0.112009 0.126816 0.968725 0.200922 0.180989 0.018024 -0.178602 -0.237364 0.106930 -0.154188 -0.690503 0.466586 0.177266 -0.689382 0.297485 -0.403381 -0.053132 0.197162 0.245810 0.293834 -0.346561 -0.188782 0.046798 -0.032595 -0.039824 -0.024424 0.400606 0.206866 0.320799 -0.303230 -0.322765 0.317244 0.557227 -0.017610 0.494637 0.549187 0.538769 0.399351 -0.230497 -0.468862 0.197971 -0.037753 -0.169442 0.325281 -0.160641 -0.256008 0.469263 -0.479499 -0.230495 0.119295 0.184695 -0.232969 0.514290 0.225266 0.184099 0.082040 0.178532 -0.232996 -0.061720 -0.455322 -0.235250 -0.337226 -0.069745 -0.136351 -0.112824 -0.661484 -0.102561 -0.193854 -0.477169 -0.401162
процентный 0.079364 -0.164035 0.268881 0.101482 -0.478355 0.491838 -0.602713 -0.154890 -0.130711 0.047643 0.346254 0.282356 -0.780792 0.202938 0.050057 -0.516851 -0.068288 0.024218 -1.025916 0.177565 -0.609588 -0.452250 -0.128608 -0.068272 -0.163297 -0.494967 -0.203951 -0.081250 0.047456 0.644098 0.078349 0.167628 -0.576608 -0.244675 0.252668 0.260817 -0.274037 -0.068195 0.924288 -0.121457 0.029415 -0.078566 -0.132418 0.012990 0.791111 -0.225244 0.123155 -0.120229 -0.548091 -0.193077 -0.018179 0.056818 0.424653 0.490604 0.220723 0.028717 -0.318733 0.216177 0.158377 -0.348618 -0.197708 -0.735749 -0.237725 0.338894 -0.258652 0.107123 -0.161262 -0.141494 -0.296240 -0.590079 -0.453943 0.474645 0.173900 -0.427756 0.217438 0.070852 0.368209 -0.014581 -0.302301 -0.575095 -0.224258 -0.131430 -0.190023 -0.490715 0.193172 0.051844 0.621156 -0.285538 -0.043919 0.392626 -0.041432 0.436342 -0.323758 -0.478890 0.076626 0.082103 -0.148184 -0.840188 0.204548 -0.979394 -0.462539 0.227384 0.023697 -0.110245 -0.481262 -0.482135 -0.352232 0.404634 -0.305587 -0.020446 0.401915 0.073301 0.060734 -0.290241 0.484149 0.031571 0.219678 -0.054025 0.508436 -0.210218 0.063852 0.473980 0.502899 0.326205 0.640817 -0.345765 -0.281696 0.222106 -0.315716 -0.100635 0.662636 0.315955 0.009363 -0.419480 -0.319779 -0.054714 0.000584 0.562730 0.093337 0.120963 0.697495 -0.198009 0.389550 -0.361454 0.122208 -0.355853 -0.337543 0.218719 0.492411 -0.389912 0.248667 -0.145894 -0.415196 -0.480376 -0.060324 -0.742384 -0.746612 0.023669 -0.162193 -0.177269 0.144493 0.153575 0.047801 0.164085 -0.540890 -0.670120 -0.032372 0.156764 -0.218107 0.388762 -0.167121 -0.185961 -0.266437 0.322660 0.545094 0.017032 -0.046196 -0.457982 0.249715 0.028731 0.465163 -0.179908 0.065250 0.342933 0.390405 0.290117 -0.159172 -0.547322 -0.208913 0.023172 0.258211 -0.133095 0.110088 -0.771077 0.211221 -0.268919 -0.739980 -0.111298 0.333144 -0.106038
это -0.392414 0.769582 0.152929 0.165449 -0.199964 -0.404579 -0.252459 0.470536 0.703606 0.206519 0.136232 0.033556 -0.332691 -0.180024 -0.310001 0.089298 0.331497 0.363139 -0.254575 -0.143968 -0.434400 0.299830 0.379658 0.002585 -0.035245 -0.303914 -0.108890 -0.021638 0.160285 -0.070192 -0.013737 0.140737 0.131605 -0.325940 0.041503 0.216619 0.244243 -0.383529 0.369158 -0.312310 0.450092 0.052165 -0.079383 -0.061161 -0.305574 -0.040276 -0.031985 -0.257411 0.022947 0.345054 -0.165098 -0.189193 -0.323504 0.018702 -0.001110 0.367527 0.236136 -0.184354 -0.182296 -0.045542 -0.064578 -0.158798 0.070764 0.063991 -0.004867 -0.129654 -0.492287 -0.321574 0.194114 -0.232384 0.020169 0.251737 0.418424 0.121120 0.195826 0.184877 0.196409 0.143992 0.423532 0.035995 -0.308589 0.295150 -0.003948 -0.395753 0.014941 -0.136873 0.325323 0.052830 -0.141665 -0.203286 -0.568328 0.093682 -0.636021 -0.090614 -0.285850 0.224992 -0.180261 0.219020 0.229065 -0.165822 0.021799 -0.023513 0.324396 -0.129475 -0.165724 0.066077 0.301216 0.323583 -0.155543 0.320900 0.061992 -0.041825 0.101005 -0.070107 0.165801 0.350893 -0.207698 0.177974 -0.237690 -0.262330 0.238704 -0.465852 -0.166046 0.117531 -0.212599 -0.365605 -0.031852 0.100987 -0.382759 -0.126223 -0.006937 -0.463065 -0.061565 -0.114179 -0.103137 0.040553 0.134488 -0.843011 -0.301032 0.208794 -0.057121 -0.453905 -0.231325 -0.073671 0.413262 -0.380073 -0.234654 0.024190 0.336775 0.205581 -0.296957 0.269611 0.057764 0.143409 0.166965 -0.361011 -0.117753 0.219868 -0.163241 -0.111375 -0.788061 -0.128210 -0.173646 -0.062575 0.091140 0.000517 -0.181355 -0.119459 0.184140 -0.001908 -0.163313 0.205127 0.094825 0.794447 -0.475968 0.123172 -0.171827 0.271995 -0.009728 0.158432 0.016373 0.150886 0.370172 0.452241 0.178250 0.098527 0.322876 0.073624 -0.120421 0.274904 -0.012516 -0.064287 -0.052041 0.296437 0.171809 0.070376 -0.098687 -0.673066 0.318279 -0.074490
дальнейший -0.299947 -0.247115 -0.076974 -0.138560 0.294509 -0.537990 -0.704398 0.141471 0.377023 0.009104 -0.031529 0.238796 0.133722 0.230868 0.251743 -0.045094 0.550869 -0.224138 -0.030894 0.105906 -0.342004 -0.065183 -0.157512 -0.019765 -0.443615 0.237929 -0.467256 0.028542 -0.120592 0.501397 -0.334268 -0.204003 -0.061027 -0.136580 0.205580 0.034423 0.695702 -0.255402 0.481536 -0.084957 -0.269218 0.239826 0.011628 -0.528419 -0.407469 -0.125912 -0.686958 -0.035359 0.137761 0.079734 0.133636 -0.003790 0.005225 -0.044356 0.220170 0.102136 0.702173 0.103156 0.525649 0.102597 -0.030471 -0.161231 0.026177 -0.418898 -0.256699 -0.040802 -0.465799 -0.401195 -0.434725 0.121971 -0.172082 0.116540 0.102685 0.343191 -0.097702 0.322213 0.080930 -0.056978 0.170847 -0.343971 -0.133049 -0.096984 -0.216616 0.414022 0.100724 -0.185059 -0.007570 -0.075760 -0.037467 0.186915 -0.307519 -0.161591 0.093144 0.405774 0.468393 0.323418 -0.059055 0.114251 0.468423 0.089018 -0.199130 -0.662400 -0.451155 -0.162560 0.115452 0.180168 -0.248010 -0.144669 -0.303189 0.366243 0.744639 -0.110374 -0.113452 -0.114197 -0.151390 0.336739 -0.403751 -0.368989 -0.290816 0.086013 -0.092428 0.524035 -0.235024 -0.148525 0.419574 0.021794 -0.180325 0.116818 -0.054268 0.096949 -0.172598 -0.309948 -0.013701 -0.043732 -0.277747 -0.267270 -0.239410 -0.207355 -0.072154 -0.390284 -0.134313 -0.440360 -0.054367 0.253948 0.292787 -0.071370 -0.457649 -0.112571 0.241838 0.091087 -0.480810 0.481352 -0.116567 0.452059 -0.025004 -0.226987 0.084882 0.136494 0.113008 0.157093 -0.116485 0.117055 0.516651 0.216942 0.053704 0.134378 0.514980 0.614985 0.254586 -0.212990 -0.155403 0.817657 -0.438295 -0.384051 0.314639 -0.121667 0.260188 -0.083233 -0.169191 -0.069425 0.121091 0.452576 0.577984 -0.290470 0.238945 0.336166 -0.063581 0.232912 0.006176 -0.023323 -0.506724 -0.249565 -0.149473 -0.579148 -0.228799 -0.173341 -0.678756 -0.407698 0.227606 -0.312583
политика -0.340788 0.128349 0.345655 -0.200612 0.302288 -0.100793 -0.695559 0.430843 0.311939 0.191556 0.124188 0.008760 -0.024029 0.423527 -0.367334 -0.063271 -0.246569 0.193708 0.026214 0.392803 -0.329865 -0.084327 -0.115258 0.206429 -0.060222 0.016675 -0.045925 0.028677 0.267677 -0.063974 0.024055 -0.193414 -0.036562 -0.448112 0.287384 0.159121 0.561972 -0.358942 0.034589 -0.150561 0.830635 -0.003641 0.336815 -0.563202 -0.402358 -0.216428 0.076946 -0.473386 0.252092 -0.427569 -0.110824 -0.129344 0.126458 0.295375 0.357440 0.301215 0.319740 0.326766 -0.211853 -0.352794 0.418749 0.147949 0.109656 0.231654 -0.009376 0.408796 -0.376091 -0.779851 -0.409034 -0.148340 -0.099430 0.192427 0.291416 0.026845 0.040025 -0.109924 0.355934 -0.484798 -0.450498 -0.053072 -0.456690 0.261096 -0.199881 0.229420 -0.011139 -0.081615 0.347595 0.133858 0.096617 0.094689 0.293143 -0.449056 -0.047742 0.431749 0.280743 0.612953 0.130757 0.285513 0.255454 0.163375 0.287301 -0.581747 -0.349599 -0.410445 -0.411677 0.151756 -0.212136 0.055965 0.161011 0.572566 -0.214332 0.089422 0.505118 -0.302462 -0.075965 -0.030559 -0.087535 -0.039736 -0.281087 0.330705 -0.221781 -0.143646 0.106862 0.013006 -0.025270 -0.169180 0.150860 0.224987 -0.072626 0.095438 0.099236 0.022276 0.818890 -0.260899 -0.690089 -0.333447 0.106489 -0.515600 -0.417377 0.504531 -0.515097 -0.526993 -0.046396 -0.057369 0.609795 0.304108 -0.375365 0.267019 -0.060688 0.103238 -0.299241 0.260403 0.155403 -0.521386 0.451881 -0.738243 -0.256101 0.055381 0.157238 -0.355611 -0.047668 -0.053535 0.710298 0.284754 0.554866 0.151895 0.066020 0.122060 -0.420605 -0.068889 0.210487 -0.106253 0.002803 -0.231976 0.298492 0.025835 0.136867 -0.303412 0.245606 -0.028769 -0.298508 -0.168075 0.081131 0.309590 0.661152 -0.145592 -0.075059 0.094598 0.169523 -0.561910 0.241658 -0.058565 0.279135 0.432108 -0.471234 -0.008494 -0.563986 -0.669112 -0.245311 -0.426427
оставаться 0.062672 0.187863 -0.003081 0.465103 0.265227 -0.549127 0.005351 0.598626 0.189232 0.154081 -0.121128 -0.388966 -0.291126 0.165528 -0.090999 0.322557 0.322275 -0.108067 0.147634 0.226881 -0.421173 -0.058364 -0.290790 -0.040012 0.224590 0.136251 -0.146480 -0.326923 0.033720 0.209122 -0.353717 0.201628 0.169471 -0.722822 0.194785 0.089238 0.205364 -0.222160 -0.209019 0.016583 0.572507 -0.529355 0.221787 0.214776 -0.688218 0.282098 -0.485545 0.057388 0.014786 0.408496 -0.156740 0.143942 -0.202322 -0.128514 0.051184 -0.191403 -0.165545 0.092586 0.059514 -0.658732 -0.249157 0.031989 -0.298597 0.204343 -0.616185 0.025243 -0.260397 -0.236553 -0.188684 0.093231 -0.010620 0.068780 0.112827 0.248039 -0.020754 -0.032808 -0.301204 0.461345 0.105431 -0.558145 -0.588587 0.266979 0.304333 0.423486 -0.350607 -0.013746 0.643728 -0.514611 -0.265489 0.159335 -0.218240 -0.162151 -0.578879 0.378535 0.522993 -0.366338 0.009204 0.060033 0.152964 0.247534 -0.036461 -0.136266 0.437721 0.037800 0.039408 -0.057447 -0.046457 0.182657 0.205701 0.145719 0.314977 -0.207247 -0.136303 -0.082020 0.033464 0.109347 -0.364113 0.152176 -0.201168 0.017088 0.064459 -0.131486 0.499410 0.122497 -0.284553 -0.551656 0.128210 -0.176974 -0.019057 0.036409 -0.020340 -0.203830 0.001129 0.446028 0.021107 -0.143474 -0.084036 -0.542798 0.433758 0.076508 0.077763 -0.391074 -0.056717 -0.077523 0.115474 -0.204935 0.269130 -0.218651 0.563744 0.361354 -0.291064 0.605193 -0.180545 -0.205285 0.085696 -0.456659 0.074463 -0.102078 0.478552 0.235298 -0.435683 0.019938 0.031036 -0.372729 -0.150921 0.090284 0.337233 -0.589485 0.439490 -0.044955 -0.329752 0.296301 0.001041 0.263257 -0.036206 0.056887 -0.272250 0.003664 -0.160982 -0.058758 -0.054228 0.397154 0.403047 0.161709 0.150020 -0.242920 0.147472 -0.048892 -0.277578 0.179497 -0.056659 -0.287096 0.315135 -0.014064 0.239021 -0.161086 -0.110823 -0.083855 0.252178 -0.742497
мочь -0.149204 0.267372 0.083668 -0.120961 -0.186655 -0.006996 -0.183386 -0.100986 0.072754 -0.116088 -0.132536 0.177510 -0.192272 -0.329246 -0.627964 0.181743 -0.514988 0.082390 -0.309694 0.295894 -0.085468 0.161828 0.397397 0.170965 0.361720 -0.159757 -0.203580 -0.450919 0.053453 0.095273 -0.154128 0.150055 0.081557 0.145476 -0.003821 0.351413 0.250379 0.168506 -0.231976 0.089439 0.362092 0.381765 -0.086851 -0.850631 -0.089189 -0.264123 0.213188 -0.147416 0.232232 0.646410 -0.271488 0.053735 -0.286472 0.297687 0.518799 0.439762 -0.555942 -0.210647 -0.560347 0.596345 0.108511 -0.306307 0.604823 -0.078622 0.184023 -0.175276 -0.191842 0.094898 -0.362334 0.326084 -0.037254 0.258043 0.382959 -0.085379 0.342924 0.127733 0.222803 0.087741 -0.247027 0.025580 -0.362484 -0.244423 -0.489465 -0.190681 0.331237 -0.299816 0.038191 0.624424 0.110945 0.160399 0.174775 0.095868 0.015542 -0.272173 -0.278192 0.213212 -0.364258 0.551199 -0.194407 0.171051 0.621610 0.056357 0.110272 0.051185 -0.268261 0.040882 0.584741 -0.135224 0.213722 0.476967 0.007494 0.192838 0.049144 -0.345871 0.285418 0.427098 -0.139050 0.184241 -0.149137 0.043026 -0.471785 0.044274 0.263219 -0.250357 -0.489374 0.179924 -0.186456 0.191764 0.670311 0.618255 0.047358 -0.142177 0.459738 -0.339271 -0.594245 -0.116487 0.604639 -0.289676 -0.472569 0.748273 0.378248 -0.474847 -0.148772 0.053560 0.141171 -0.137402 -0.231431 -0.021233 0.311740 -0.237153 0.023632 0.315957 -0.099866 0.235139 -0.022221 -0.947282 -0.300549 0.146155 0.086427 -0.204445 -0.774567 0.624996 -0.527486 0.427195 0.144953 0.198820 -0.168823 0.004305 0.026049 -0.466623 -0.035468 0.296880 0.365602 0.070481 0.063138 0.044060 -0.146872 0.113532 0.032331 0.281055 0.000522 0.539152 -0.202751 -0.250477 -0.343698 0.191526 -0.203141 0.479169 -0.341704 -0.373835 0.015773 0.228660 0.195743 -0.269358 -0.415727 0.106099 -0.159999 -0.225757 0.304646 -0.007366
активность 0.399497 0.797913 0.105713 0.808709 0.271683 -0.522176 0.498181 0.353979 0.711754 0.108379 0.258591 -0.038996 -0.138612 0.154319 0.076338 0.426821 0.240398 0.198521 -0.469009 -0.296764 -0.175442 0.317736 -0.372780 -0.423061 0.088376 0.013963 -0.341262 0.097060 -0.023458 0.174961 -0.077187 -0.015133 -0.064466 -0.185964 -0.095706 0.468616 0.015961 -0.182704 0.036166 -0.155859 0.589363 0.481830 -0.166769 -0.080734 -0.509242 0.210315 0.234609 -0.119340 -0.195109 0.231161 -0.020543 -0.065082 -0.182927 -0.011154 0.054791 0.080918 0.033071 -0.441628 0.441407 -0.212658 0.158737 -0.074795 -0.508090 0.353478 -0.447145 0.080167 0.050761 -0.039800 -0.380774 -0.156399 0.188056 -0.598849 0.372632 0.059082 0.331044 0.473317 -0.298565 -0.011283 0.368845 -0.554252 -0.784075 0.046201 -0.047858 0.014826 -0.362363 -0.263722 0.394010 -0.104039 0.119498 0.292605 -0.424574 0.299062 -0.310323 -0.007992 0.120744 -0.537625 0.122805 0.202585 -0.129491 0.052067 -0.013919 -0.310101 0.470987 0.122315 0.268094 0.350216 0.087274 0.249632 -0.010731 -0.086697 0.618273 -0.088774 -0.188201 -0.320467 0.385941 0.148882 -0.175159 0.157578 -0.122508 -0.251560 -0.063113 -0.257361 0.338024 0.211428 -0.039573 -0.075048 0.499910 0.054925 0.256307 0.251398 0.126999 -0.166273 0.046917 0.072520 0.048698 0.374608 -0.031997 -0.619930 0.026110 0.153972 0.143128 -0.313828 0.128739 0.101833 -0.117925 0.517541 -0.063456 0.201398 0.825520 0.094194 -0.383745 0.028006 0.113092 0.231216 0.071384 -0.529346 0.132933 -0.131408 0.130308 -0.236802 -0.375305 0.033371 -0.510531 0.166868 0.426734 -0.027949 -0.057652 -0.471427 0.058442 0.183664 -0.212972 0.172108 0.190908 0.175228 -0.069331 -0.029876 0.377139 0.150598 0.089587 -0.405376 0.278903 0.374396 0.143021 -0.263271 -0.514826 0.794088 0.029740 0.337143 -0.366076 -0.187831 -0.067387 -0.528305 -0.291096 0.073983 -0.113789 -0.176987 0.086085 -0.798513 0.345268 -0.684946
а -0.462586 0.053083 0.078656 -0.012597 0.333279 -0.373460 -0.545260 -0.090700 0.382896 -0.245990 0.727609 0.295390 -0.100604 -0.305580 -0.008482 0.169501 0.497684 -0.017091 -0.893309 -0.632390 -0.189556 0.400173 0.055850 -0.666139 0.096115 -0.446637 -0.563294 -0.027335 -0.530367 -0.057150 0.057376 0.010117 -0.341215 0.295705 0.141008 0.125503 -0.129557 -0.082669 -0.405163 0.126442 0.133987 0.062013 0.128451 -0.366137 0.191617 0.537317 -0.245894 -0.359513 0.470893 -0.255744 0.755231 -0.483731 -0.439626 0.144889 0.337022 0.213118 0.345131 -0.748843 0.368384 0.218544 -0.594229 0.000791 -0.076877 0.077873 -0.118194 -0.191056 -0.065389 -0.245177 -0.272909 0.553697 0.196637 0.037739 -0.046806 0.200638 0.316815 0.009395 0.256195 -0.035618 0.467211 -0.375704 -0.580942 -0.327441 -0.478672 -0.538121 -0.084227 -0.270871 0.339233 0.333175 -0.334466 0.640600 0.307528 -0.068352 -0.044783 0.406180 0.078337 -0.094283 -0.083513 -0.075010 0.312084 0.407190 0.040487 0.011212 0.420584 -0.327648 -0.066853 0.064400 -0.290814 -0.303363 0.194722 -0.502068 0.132839 0.171465 0.131760 -0.060657 0.177955 0.486328 -0.036249 0.261815 -0.300343 0.020399 -0.003864 -0.302911 0.052460 0.505455 -0.375711 0.260245 -0.265205 0.069671 1.021053 0.075783 0.357042 -0.440397 0.327323 0.327584 0.174428 -0.526081 0.416337 -0.347457 0.250766 0.077471 0.021580 -0.042482 -0.171129 0.400647 0.266627 0.371540 -0.479511 -0.324801 0.742707 0.389409 -0.078244 -0.154298 -0.265148 0.004174 -0.133110 -0.516550 0.497116 -0.183057 -0.378264 0.418633 -0.213669 0.541607 -0.133116 0.278301 0.372044 -0.104508 -0.003525 -0.236588 0.356143 0.284934 -0.097879 -0.290434 0.257103 0.345818 0.221355 -0.028725 0.830172 -0.386966 -0.031603 0.012571 0.421012 -0.542575 -0.178011 -0.134758 -0.275036 0.230612 -0.234887 -0.083503 -0.953284 -0.497525 -0.029575 -0.242377 0.118505 0.037038 -0.552277 -0.790119 -0.397976 0.023909 -0.255407 0.106622
принимать -0.347363 -0.057434 -0.131269 0.017602 -0.105488 -0.208804 0.001526 0.612407 0.324434 0.060623 -0.015572 -0.014522 0.073554 0.615854 -0.380121 -0.522240 0.289005 0.543643 0.189671 0.119158 -0.532241 0.009621 -0.284468 -0.415674 -0.420657 -0.357976 -0.128675 -0.338975 -0.151025 -0.147233 0.241781 -0.459081 -0.102446 -0.357402 0.050320 -0.131514 0.517583 -0.407077 0.761092 -0.160384 0.359015 -0.451929 -0.410957 0.116032 0.040391 -0.310104 -0.806567 -0.315196 -0.298121 0.052004 -0.013218 -0.035263 -0.268868 0.515014 0.399615 -0.484063 0.879170 0.025639 0.618768 -0.204030 0.504091 -0.165995 -0.115695 -0.115389 -0.106031 0.354099 -0.112336 -0.804883 -0.602974 0.394717 -0.396749 0.239343 -0.113320 0.041266 0.064505 0.324207 0.573106 -0.421843 -0.421798 -0.279441 -0.035316 0.113164 -0.088656 -0.194276 0.172162 0.293396 -0.117262 -0.195267 -0.129620 -0.350163 0.346046 -0.206861 0.174103 0.441262 0.406533 0.209497 0.461542 -0.421750 0.165303 -0.267400 -0.335071 -0.187074 -0.133630 -0.008681 -0.322290 0.157902 0.028048 -0.180428 -0.183881 -0.168024 0.720104 0.216915 -0.280750 0.220232 -0.258058 -0.107000 -0.155381 -0.048213 -0.713632 0.202897 0.153655 0.006790 -0.122726 0.229671 -0.079823 -0.077948 -0.709839 0.138634 -0.353291 -0.345584 -0.310753 -0.751577 0.449963 -0.645382 0.308921 -0.097665 0.046545 -0.101515 0.158092 -0.700207 -0.225937 -0.338355 -0.095923 -0.191546 0.870615 0.128575 -0.270126 -0.233139 0.113834 0.268169 -0.256815 0.412180 -0.033822 -0.227285 0.084925 -0.292692 0.142606 0.047838 -0.251003 -0.116376 0.192565 0.120075 0.950880 0.174400 -0.221551 0.351101 0.874747 0.153176 -0.468920 0.197371 0.093454 0.135538 -0.209742 0.112291 -0.024194 0.138059 0.221247 -0.536153 -0.071603 -0.063657 0.616955 0.023421 0.716689 0.304953 0.667974 0.324016 -0.040978 -0.316521 0.289096 -0.526313 -0.049373 -0.245845 0.193696 -0.017448 -0.264034 -0.083901 -0.194686 -0.106424 0.259571 -0.424199
экономический 0.015603 0.160108 -0.036901 0.582052 0.082596 -0.508309 0.111587 0.272876 0.469750 0.062996 0.082774 0.307585 -0.063670 -0.047070 0.018287 0.327902 0.251104 0.175967 -0.160750 -0.172979 -0.226657 0.424930 -0.198884 -0.401579 -0.173190 -0.026438 -0.518271 0.083444 0.228575 0.565351 -0.258861 -0.159546 -0.131625 -0.528742 -0.203229 0.068212 0.071284 -0.068863 -0.012587 -0.144624 0.524839 0.578538 -0.262061 -0.175890 -0.302248 0.022981 -0.181855 0.154233 -0.088832 0.251342 -0.016303 0.399526 0.069622 0.135614 -0.144096 -0.011789 0.048282 -0.267792 0.549744 0.023834 -0.087812 0.021948 -0.372019 0.159277 -0.567874 -0.190022 0.270393 -0.003663 -0.302104 -0.234922 0.091689 -0.494287 0.200936 -0.031442 0.223104 0.436055 -0.230116 -0.164296 0.295641 -0.511927 -1.076365 -0.128625 -0.130057 -0.063964 -0.238863 -0.024408 0.268229 -0.189731 0.096173 0.215094 -0.040345 0.186556 -0.275604 0.244897 0.208572 -0.318910 -0.016863 0.242068 -0.030084 0.176467 -0.011826 -0.461806 0.153528 -0.065503 0.262987 0.415366 -0.143625 0.071396 -0.219579 -0.082190 0.499267 -0.474039 -0.278992 -0.213087 0.177052 0.384171 -0.266513 -0.051532 -0.176902 -0.057458 0.100981 -0.198523 0.060784 0.296128 0.004382 -0.050689 0.471696 -0.108481 0.009258 0.085932 -0.051784 0.031165 0.243480 -0.020900 0.032757 0.315021 -0.041422 -0.244266 0.027276 0.139236 0.096605 -0.531334 0.118560 0.209215 -0.262063 0.457147 0.141333 0.168853 0.919455 -0.056173 -0.360630 0.011427 0.078467 0.405861 0.088427 -0.558054 0.155650 -0.197887 0.186948 -0.166908 0.031480 0.044797 -0.112921 0.186675 0.362757 0.017612 0.096070 -0.315903 0.245645 -0.052332 -0.456262 0.150412 0.043217 -0.119681 0.180132 -0.268023 0.280256 0.003285 0.129842 -0.128916 0.274925 0.334800 -0.153458 -0.150832 -0.583727 0.604157 -0.004043 0.225709 -0.350151 -0.333713 0.002338 -0.573466 -0.328180 -0.150263 -0.044655 -0.375991 0.045345 -0.469067 0.189333 -0.678208
время -0.338276 0.348114 -0.034994 0.501095 -0.265180 0.537383 0.005654 0.590342 -0.003676 0.085272 -0.094160 0.217370 -0.289116 -0.119210 0.236949 0.037457 -0.304234 0.626114 -0.207565 0.773408 -0.489755 -0.275330 -0.590577 0.064140 -0.498345 -0.711172 0.188002 -0.669488 0.766314 0.062194 0.283700 0.596521 0.271566 -0.674820 0.178815 0.225828 -0.092934 -0.476336 0.661621 -0.313812 -0.393957 -0.214527 0.266904 -0.189554 0.146659 -0.088688 0.040489 -0.232281 -0.497375 0.516381 -0.070087 0.143701 -0.015064 0.373170 0.068184 -0.369415 -0.058968 0.315922 0.250034 0.434501 0.231992 -0.303973 0.180742 0.273823 0.206887 0.370654 -0.500074 -0.604475 0.022230 0.151339 0.192505 0.193801 -0.059980 -0.629853 0.309300 0.050062 -0.029834 -0.207533 -0.314144 -0.173507 -0.571602 0.237108 0.488860 -0.091447 -0.014778 0.165146 -0.071055 -0.797221 -0.083622 -0.839746 -0.140076 0.285134 -0.298260 -0.170088 -0.030712 0.180740 0.320564 -0.209858 -0.197954 -0.116780 -0.167982 0.479409 0.292078 0.317261 -0.428169 0.055965 -0.030206 1.213438 -0.685655 0.170769 0.335539 0.160427 -0.239900 -0.258471 0.028838 -0.119563 -0.421371 -0.118733 0.102034 -0.234880 0.560696 0.442565 0.745988 -0.264443 0.229871 -0.218648 0.050449 -0.100937 -0.612727 -0.228462 0.371811 -0.356317 0.381782 -0.103823 -0.217236 0.428874 0.124981 0.583919 0.176965 -0.213952 -0.264737 0.166845 -0.056119 -0.393860 0.016927 -0.422197 0.167334 0.144988 0.209841 0.356308 -0.287387 -0.118882 -0.292791 -0.271221 0.025282 -0.695436 -0.395050 -0.235946 0.074044 -0.480168 0.036131 -0.199195 0.133400 0.263810 -0.480583 0.123071 0.001579 0.325616 -0.838169 -0.372063 -0.373692 0.403540 0.189421 0.104626 -0.146348 -0.242516 -0.357603 0.144618 0.033023 -0.009590 -0.158308 0.352157 0.791540 -0.091446 0.410125 0.601244 -0.054160 -0.440750 0.178144 -0.354622 0.096831 -0.152802 -0.155369 -0.358318 0.319136 -0.113871 0.492117 -0.037989 -0.020362 -0.500274
внешний -0.012075 0.078859 -0.175354 -0.066595 -0.019611 -0.487660 -0.028003 -0.104615 0.082633 -0.178678 0.546849 -0.226002 -0.180765 -0.035911 0.078327 0.123903 -0.019646 -0.377468 -0.118132 -0.148547 -0.009759 0.120089 0.201609 -0.074633 -0.072969 -0.401661 -0.382475 -0.465240 -0.165796 0.343325 -0.041309 0.335457 0.453684 -0.007379 0.618369 0.897498 0.267626 -0.249761 -0.251462 -0.171391 0.055779 0.247893 -0.107328 -0.508484 -0.167174 0.229718 -0.071368 -0.230802 0.606809 0.295819 0.555501 0.079692 -0.235394 -0.067786 -0.115932 -0.746787 0.293670 0.208445 0.445490 -0.195193 -0.206540 -0.625177 0.041218 0.463918 0.180330 -0.302423 -0.282977 0.205257 -0.498012 0.481343 0.206542 0.120672 -0.211563 0.145802 0.057582 0.329017 -0.056800 -0.132275 -0.366003 -0.046456 -0.296038 -0.339943 0.197353 -0.492027 -0.035732 0.051363 -0.618886 0.045449 -0.002164 -0.012026 0.000410 -0.268918 -0.149224 0.518794 0.396680 -0.346487 -0.931613 -0.400282 -0.037515 0.236436 -0.083956 -0.304233 0.139551 -0.039312 0.508597 0.028401 -0.059811 -0.221829 0.220065 -0.199034 0.575947 -0.111786 -0.160280 0.049258 -0.014821 -0.132910 -0.217524 -0.067946 0.165792 -0.322846 -0.303455 0.281121 -0.298706 -0.059521 -0.349793 0.618195 0.157014 -0.319343 0.646346 0.205613 -0.338702 0.228854 0.446313 0.068435 0.344103 -0.493215 0.187642 -0.558029 0.258444 -0.275531 -0.465931 0.126653 -0.288635 0.362828 -0.106065 0.382711 -0.427484 0.154221 0.628866 -0.437980 -0.037524 0.313871 -0.134099 0.020693 -0.432505 -0.690188 0.305759 0.461026 -0.167586 0.460083 -0.291416 -0.059280 -0.136330 0.306860 -0.293658 -0.087890 -0.357520 0.076142 0.353149 -0.561780 0.202823 0.627489 0.282907 0.074164 0.077737 -0.103012 0.537479 0.281294 -0.226599 0.062776 0.015323 -0.093459 0.134906 -0.327395 -0.000476 0.655517 0.526944 -0.082821 -0.201898 -0.328786 0.073453 -0.348431 0.101948 -0.502196 0.020475 -0.423818 0.100180 0.000505 0.253418 -0.424011
от -0.565569 -0.323599 0.098482 -0.270597 -0.477308 0.004954 -0.659467 -0.172689 0.024141 0.148929 0.167551 0.377908 -0.080958 0.215111 -0.900533 -0.465245 0.049105 0.372112 -0.213972 0.050163 -0.427072 0.240375 0.388515 0.136652 -0.114373 -0.476700 -0.221894 -0.569553 0.018226 0.209359 -0.057140 -0.669781 -0.380343 -0.309013 0.291224 0.091655 0.115372 0.267025 0.298146 -0.208124 0.437988 -0.218908 -0.331729 -0.091628 0.681351 -0.434964 -0.409001 0.249856 0.176888 -0.314518 -0.584284 0.024052 -0.253291 0.158636 0.142428 -0.207582 0.046344 0.366262 -0.270602 -0.356272 -0.085193 -0.249901 -0.202611 -0.208358 0.104609 -0.219205 0.243655 0.353011 -0.358825 -0.291294 -0.452740 -0.127251 0.172424 0.192694 0.332122 0.199062 0.333917 0.027994 0.150744 0.013836 -0.348124 -0.266060 -0.164143 -0.011128 -0.087063 -0.210767 0.469502 0.274660 -0.084506 0.845190 0.011203 -0.455261 -0.083077 -0.086216 0.185361 0.060145 -0.397264 -0.003805 0.197662 -0.636777 -0.337063 -0.010058 -0.262096 -0.043094 -0.377694 -0.492810 0.279965 -0.499025 0.176935 0.214470 0.173898 0.072049 -0.324785 -0.299831 0.380597 0.210063 0.153670 -0.077333 0.385714 0.275731 -0.015794 -0.007856 -0.181031 0.329169 -0.322671 -0.003224 -0.241203 -0.067207 0.692584 -0.269391 0.010063 0.332239 0.507368 -0.389033 -0.038763 -0.310126 -0.108856 0.024446 -0.124372 0.512061 0.729949 -0.063986 0.030475 0.052194 0.140357 -0.017501 -0.206919 0.196132 0.026502 -0.495379 0.347745 -0.063316 -0.262750 -0.574204 0.089758 -0.160518 -0.488772 -0.210674 -0.104385 0.111281 -0.185099 0.193802 0.496885 -0.083135 -0.328480 -0.060948 0.138219 0.017522 0.252216 0.422483 0.013161 -0.149401 -0.204857 0.033586 0.214174 0.124472 0.511134 -0.459329 0.398383 0.125028 0.295353 0.001763 -0.351582 0.227300 0.539808 -0.058932 -0.390584 0.014160 -0.231537 0.029649 -0.012093 -0.448094 0.772398 -0.170300 -0.074720 -0.016970 -0.825035 -0.038416 0.540682 0.524731
