в 0.385782 0.717946 -0.036495 0.671437 1.022065 0.336560 -0.350457 -0.201873 -1.030407 -0.364883 -0.003804 0.352059 -1.177761 1.158668 -1.522457 0.241675 -0.190706 0.224220 -0.567695 1.278324 0.223317 -1.587834 -0.347166 0.302570 -0.512171 -1.457505 -1.079801 0.768206 -0.380936 -0.250617 0.701234 0.897851 -0.229112 0.598873 0.234975 -0.172768 -0.239315 -0.946913 -0.492310 0.380250 0.375128 -0.136385 -0.574712 -0.090417 0.028664 0.399829 0.752018 0.192790 1.525567 0.531774
на -0.743467 0.161963 -0.661310 0.580825 0.029869 -0.684776 0.197567 1.207168 0.255633 0.030667 0.374481 -0.575113 -0.663431 1.406149 -0.576176 -0.604963 0.018161 0.551880 0.745764 0.219715 0.073403 -0.888985 1.033395 1.560893 -0.902757 -0.361668 -0.719726 0.972070 0.480720 -0.334971 0.711277 1.103808 0.062001 0.316180 0.549309 0.505321 0.890322 -0.096045 -0.078577 1.012694 1.249659 -0.728592 0.817936 0.180791 0.000261 -1.135632 0.437099 -0.089183 -0.012919 -1.358063
и 0.298368 -0.379500 -1.071337 -0.256158 1.073946 0.461751 -0.703187 -0.215178 -0.618389 0.051851 0.278708 1.183724 0.171776 1.053968 -0.655301 0.274234 -0.646296 -0.327006 1.013587 0.445253 -0.554093 -0.662329 -0.219682 1.145521 -0.171437 -0.796705 -0.713588 0.248690 1.146972 0.222138 -0.018448 -0.512337 -0.013434 1.773258 -0.501228 0.547963 -0.685570 -1.021085 0.781338 -0.204070 1.490179 -0.501770 0.138481 -0.548183 0.255667 0.220831 0.149309 -0.101733 0.719612 -0.906582
банк -0.177516 -0.481839 -0.389062 0.998620 0.049455 -0.039003 0.058666 1.226364 0.494470 -0.325132 -0.486947 0.751053 -1.838626 0.218131 0.546908 0.190834 -0.121849 -0.255656 1.143563 0.617780 -0.486840 0.800658 -0.002786 0.263234 0.415384 -0.965305 -1.171580 0.395210 -0.925029 -0.823740 0.963858 0.191931 -0.574465 0.197242 0.524183 0.753400 0.017101 0.103284 0.972969 0.054589 0.881544 0.196886 0.017641 0.079201 0.281051 0.061052 0.085644 -0.165977 1.239716 -1.161276
россия -0.146911 -0.466094 -0.493066 0.939751 -0.033202 -0.023523 0.348748 1.324949 0.192176 -0.348215 -0.568188 0.722373 -1.864358 0.015970 0.692267 0.195934 0.182919 -0.286754 1.107248 0.790919 -0.588614 0.569846 -0.124883 0.416507 0.361115 -0.909556 -1.427392 0.670768 -1.151836 -0.886917 1.237608 0.078096 -0.755881 0.264556 0.555025 0.734090 -0.050103 0.134108 0.918792 0.348578 0.714818 0.077307 -0.006543 0.002318 0.125143 0.138618 0.275277 -0.081306 1.249001 -0.947323
год -0.609982 -0.244360 -0.909042 0.766245 0.218254 0.167525 -0.217975 0.369775 0.442569 0.435337 -0.098558 -0.170393 -0.845327 1.545880 -0.665327 0.099002 0.680299 -0.848571 0.604885 0.013214 -1.065402 -0.512727 0.036622 1.040593 -0.627833 -0.135297 -1.104971 1.136373 -0.283682 -0.939626 1.003331 0.622489 -1.156615 0.793606 0.200430 0.459602 0.338503 -0.808804 0.212367 0.001558 0.331920 1.434307 -0.702228 0.072124 0.019020 0.173247 -0.228115 -0.297686 0.930195 0.417027
ставка -0.586895 -1.562352 -0.119359 0.647179 0.263085 -0.793130 0.893794 2.403955 -0.083568 -1.594303 -0.784640 0.105131 -0.149051 0.058914 0.337918 -0.422902 0.397666 -0.333805 -0.202134 0.830916 -1.364535 0.263727 0.691486 -0.210402 -0.734237 -0.985664 -0.709388 0.171363 -0.014626 0.518260 1.299020 -0.242660 -0.552397 -0.486781 0.114926 0.451120 0.738885 -0.800566 0.842847 -0.390916 0.866154 -0.908808 0.723743 -0.509055 -0.055336 -0.186034 -0.306526 -0.077431 1.367619 -0.974147
по -0.002634 -1.171185 -0.053293 0.101334 0.273943 -0.449250 -0.912677 1.028985 0.746623 -1.220171 -0.190035 0.866604 0.033542 1.145018 -0.197448 -0.299596 -0.952936 -0.610848 1.090183 1.434818 -0.893527 0.007172 0.664013 0.458241 0.612629 -1.168056 -0.691109 0.167298 -0.836230 -0.457185 0.883145 0.257618 -1.410670 0.710607 -0.099996 0.294767 -0.001271 0.556586 0.070182 -0.436595 0.853198 -0.074579 0.101252 -0.035595 0.207253 -0.874440 -0.611502 -0.143265 1.270465 -0.047314
с 0.915605 -0.399492 0.665082 -0.233762 0.022617 -0.369711 0.725182 1.631912 0.275167 0.065821 0.920345 -0.267903 -1.097862 0.435264 -1.655304 0.480347 0.483667 0.052584 -0.168019 0.364222 -1.186913 -0.975181 0.564429 0.375255 -0.241377 0.350241 -1.261649 1.328077 -0.953301 -0.038072 0.714590 -0.773569 -0.069149 1.550132 0.101103 0.060821 -1.237754 -0.373646 0.453210 -0.480342 0.466772 -0.288749 0.403614 0.019709 0.921296 -0.182150 0.516489 -0.152326 1.457932 -0.979975
инфляция -0.701602 -0.260446 -0.289894 0.402191 0.585788 -0.217286 -0.299901 0.034518 0.025904 0.921614 -0.546047 0.382885 -1.236158 1.558428 -0.806041 -0.085871 -0.019423 -0.334890 0.914306 0.707017 0.276925 -1.484190 0.670275 0.614793 -0.310223 -0.099796 0.001891 0.279368 -1.103137 -1.176445 0.290664 -0.526228 -0.518988 0.483855 -1.486214 0.396692 -0.771940 -0.378346 0.788823 0.065047 0.525546 0.184051 -0.130324 -1.044564 -0.402617 0.703904 0.078058 0.318374 0.572214 -0.374540
рост -0.329347 1.030228 -0.313773 -0.205697 0.969946 0.388888 -0.926306 0.492125 0.267427 1.730359 0.618549 -0.041968 -0.654233 0.603186 -0.718155 -0.775257 -0.169633 0.529106 0.054221 0.516567 0.099005 -0.586259 0.622431 0.660041 -0.086373 -1.022603 -0.387477 0.022842 0.253674 0.529129 0.220831 -0.117352 -0.623758 -0.138532 0.688646 0.230222 -0.192331 -0.532601 -0.320757 -0.432345 0.860646 -0.496091 0.236517 -0.036516 -0.290184 -0.783923 -0.315065 -0.125086 1.412013 0.259368
ключевой -0.831565 -1.394976 -0.087500 0.515678 -0.115955 0.048065 0.243145 1.678845 -0.407820 -1.069658 -0.518239 -0.234301 -0.581954 -0.208873 0.163222 0.117549 0.590358 -0.585234 0.299401 1.123928 -1.374486 -0.050521 0.536871 0.493405 -0.909007 -0.601242 -0.733715 0.413185 0.069772 -0.381366 2.084358 -0.134704 -0.434749 -0.870337 -0.618323 0.358201 1.104791 -0.804992 1.013863 0.033142 1.142451 -0.061171 0.451158 -1.353484 -0.020556 -0.060228 -0.563235 -0.135056 0.828430 -1.033817
риск -0.599129 -0.450152 -0.429295 -0.643373 0.455561 0.614898 0.059756 0.157459 -1.250879 1.289859 0.611930 1.235050 -1.012823 0.002454 -0.401021 -0.158433 0.347575 1.196707 -0.084542 0.759139 -0.166111 -0.631054 1.079658 0.150804 -0.136820 0.161994 0.051638 0.245844 -0.281359 -1.227937 0.170919 0.930321 -0.600334 1.121561 -0.410256 -0.515370 0.011006 -0.689017 0.653276 -0.766030 0.553022 0.090961 0.403483 0.316942 0.801082 -0.306670 -0.305385 0.278541 1.116060 -1.197787
цена -0.131357 0.028845 -0.511829 0.903304 0.039688 0.263282 -1.188135 0.015575 0.702819 1.009744 0.444039 -0.149032 -1.219094 1.307098 -0.467369 0.196457 -0.391961 0.186702 0.364568 -0.310032 0.391105 -1.250092 0.665454 1.012659 -0.850125 0.035827 -0.249706 0.938689 -0.160807 0.170363 -0.718987 -0.441331 -0.347069 0.536714 -0.792766 -0.146223 -0.152115 -0.255908 -0.526950 0.342634 0.537072 -0.662768 0.278907 -0.868525 -0.255813 -0.888816 -0.133470 -0.463897 0.573710 -0.061118
быть -0.360004 -0.020605 -0.714949 0.412931 -0.715981 0.458068 0.280773 0.591679 -1.007558 0.813768 0.030048 0.628800 0.085150 0.601605 -0.195829 -0.144063 -0.131031 -0.553785 0.486687 0.358795 0.071729 0.098312 0.112892 1.928824 -0.356198 0.012296 -1.291280 0.571468 0.017079 -0.655935 1.078102 -0.095837 -0.158927 -0.347154 -0.384119 0.030137 0.416339 0.094745 0.875565 -0.305258 0.530913 -0.162192 0.555962 -1.384479 0.336263 0.520491 0.882848 -0.329844 1.777842 0.168738
условие -0.193053 0.879964 -0.606202 -0.578299 0.380495 0.377280 0.169575 0.915601 -0.393397 0.027289 -0.714794 0.702779 -0.155973 0.565212 -0.789627 -0.404633 0.159923 1.236359 0.570406 0.427027 -0.276353 0.354091 -0.137633 0.445740 -0.264149 -0.734614 -0.725445 0.610317 -0.003759 -0.817866 -0.624202 0.873803 0.757674 -0.047089 -0.675977 0.172704 -0.913758 -0.983696 -0.261100 -0.448562 0.470183 -0.664416 0.116759 -0.244970 0.006576 0.721430 -0.434917 -0.412284 1.150127 -0.468536
к 0.100636 0.415736 -0.533221 -0.307823 1.122086 -0.557363 -0.106372 0.155606 1.270047 -0.140796 0.171276 -0.018525 -1.819077 -0.112543 -0.682421 -0.336928 -0.377355 -0.442489 0.263237 -0.341279 -0.264510 -0.401659 -0.058659 0.529760 -1.069782 -1.776284 -0.932818 -0.041688 0.144004 0.151471 0.266373 0.503470 0.060122 -0.615417 -1.086391 -0.707714 -0.358561 -0.497413 0.913374 -0.502885 1.145264 0.107442 -0.251292 0.892110 0.381310 0.812534 -0.794580 -0.798933 1.158242 -0.891460
инфляционный -0.968003 -0.582536 -0.264579 -0.194851 0.099145 0.854633 -0.376390 -0.016739 -0.284127 0.703776 0.569271 -0.058700 -0.777779 0.155963 -0.374559 0.082700 0.626709 0.520688 0.587419 -0.190277 0.152473 -1.068756 0.570469 0.574503 0.270906 -0.841055 -0.209588 0.406845 0.707133 -1.498930 0.265941 -0.382673 -0.743322 0.468384 -0.603052 -0.614129 0.628251 -0.196721 -0.041851 0.040646 0.517379 -0.683196 -0.313683 0.541439 1.023393 -0.330503 -0.488646 -0.101393 1.306069 -0.846606
годовой -0.297606 -0.356218 -0.431792 0.279326 0.415111 -0.436304 -0.327096 1.051559 0.839111 0.543560 -1.535028 -0.438710 -1.728072 1.279711 0.087016 -0.106124 -0.032729 0.130393 0.977724 0.367218 -0.659680 -0.510729 0.390511 0.408178 0.277903 -0.433240 0.045800 0.593311 -1.128239 -0.388953 0.055651 -0.385245 -0.290237 0.286814 -0.423344 0.497783 -0.041019 0.007538 0.291645 0.488289 -0.093195 0.625975 -0.261419 -0.736756 -0.264760 -0.062956 0.098542 -0.052591 1.476662 0.288065
динамика -0.625962 -0.402151 -0.218681 0.512502 -0.891430 -0.600465 0.127858 0.569231 -0.838231 0.667315 0.693030 1.718328 -0.601063 0.661448 -0.791049 -0.256582 -1.029881 0.329386 0.558328 0.504489 0.571856 -0.963530 0.579522 0.974860 -0.185673 -0.780775 -0.153302 0.590695 -0.033386 -0.258076 -0.101259 -0.411390 -0.833973 0.446371 -0.233174 0.950480 -0.862072 -0.394021 0.904208 0.422569 1.356395 -0.694844 0.483349 -0.992949 -0.592392 0.553397 0.024532 0.452208 0.803385 -0.009884
уровень -0.436388 -0.601839 -0.999583 0.129901 0.325210 -0.418534 -0.102831 0.721904 0.000807 0.147481 -0.971266 -0.157817 -0.687248 1.051302 -0.410452 -0.519626 0.592063 0.492473 0.191365 0.021275 0.251106 0.011867 0.151219 0.045416 -1.173837 -0.465516 -0.544868 0.691458 0.449596 -0.478813 1.235801 -0.455085 -0.281268 0.092178 -0.323999 -0.749173 1.072212 0.247137 -0.013602 0.115169 1.744274 0.118304 -0.409072 0.230784 0.897675 0.563741 0.576742 -0.053302 0.803537 0.357498
кредитный -0.741925 0.053761 -0.254416 -0.052884 1.564779 0.217925 0.588404 0.962501 0.704790 -0.384330 -0.458255 0.066268 0.149499 0.578413 -0.354792 -0.972091 -0.019299 0.341262 0.425549 0.058041 -0.399358 -0.044686 0.159462 0.089014 0.004872 -0.203480 -0.750856 0.196597 -0.673822 -0.535225 0.377354 0.162863 0.921432 0.475747 -0.354056 0.743950 -0.183633 -1.126265 0.016444 -1.152640 0.042404 -0.706498 0.280682 -0.894382 -0.130514 1.210374 0.061548 -0.813499 1.541623 -0.604638
экономика -0.080607 1.121112 0.075273 0.126418 0.762735 0.579679 -0.092744 0.315973 -0.266111 1.057668 0.001367 0.572308 0.164762 0.125842 -1.088605 -0.117058 0.532559 0.352928 0.224635 0.829894 0.228944 -0.872830 0.390297 0.779617 -0.533600 -0.889572 0.263619 0.089665 -0.842529 -0.458274 0.968017 0.252978 -0.849594 0.126794 0.092597 0.671875 -0.334406 -0.394748 0.165710 -0.526282 1.373783 -0.141625 0.360439 -0.387789 0.419292 0.422376 -0.343188 0.079076 -0.307783 -0.843819
рынок -0.242362 -0.146898 -0.114556 0.246401 0.486576 -0.215367 -0.429753 1.258272 0.117119 0.168305 -0.465678 0.436303 -0.259946 -0.361052 0.044962 -0.411492 -0.868808 0.781700 0.428778 0.209860 0.417861 -0.520416 1.160859 0.540590 -0.840943 -0.018587 -0.735571 0.572307 0.206471 -0.291961 0.133328 0.788145 0.613556 0.306338 0.173603 -0.328696 -0.541122 -1.039613 -0.249584 -0.093589 0.487708 -0.818461 0.550719 -0.310101 0.327285 -1.056082 0.515863 -0.166921 -0.257576 -1.533669
до -0.272838 -1.543149 -0.063054 0.580506 0.248388 -0.391198 -0.448771 0.606067 0.660714 -0.559475 -1.227010 -0.628584 -0.808436 1.406728 0.157208 -0.588622 0.994628 -0.536957 0.343115 0.177514 -1.037402 -0.914798 1.421764 -0.012534 -0.761614 -0.616680 -0.038994 0.181654 -0.839252 0.620181 0.871703 -0.055156 -0.452656 0.292904 -0.133395 -0.440918 0.763275 -0.612483 -0.275403 -0.173506 -0.017061 0.439370 -0.406379 -0.937048 -0.743244 -1.096999 0.088560 -0.489794 1.006431 -0.573530
темп -0.346365 1.148970 0.042550 0.265849 0.261642 0.520874 -1.443577 0.514802 0.885517 1.076999 -0.437281 -0.981358 -1.174795 0.805166 -0.737573 -0.477894 -0.225098 0.431074 0.067450 0.015830 -0.206089 -0.235739 0.485089 1.012420 -0.340665 -0.407473 0.058400 0.748357 -0.481587 0.156457 0.209073 -0.600661 -0.807565 -0.545363 0.307940 0.092047 -0.108432 0.365992 -0.437119 -0.515725 0.830982 -0.015916 -0.211680 -0.372241 -0.295760 -0.459458 -0.220198 -0.611677 1.452770 0.633309
снижение -0.696810 0.072855 -0.747920 -0.549795 0.822395 0.646761 -0.037453 0.873016 -0.740840 0.195690 -0.013521 0.344930 -0.498740 0.313503 0.132492 0.777755 0.115323 -0.022420 -0.123818 0.256718 -0.201579 -0.568338 0.019837 0.863961 -0.630748 -0.895740 -1.436898 -0.344150 -0.644412 -0.001606 -0.231380 -0.801795 -0.093556 -0.542402 -0.254025 0.252599 -0.267820 -1.222633 -0.070834 0.459746 0.649186 -0.802305 -0.245328 -0.954455 0.093803 -0.330326 -0.622970 0.030526 1.555941 -0.110772
ожидание -0.797912 -0.854427 0.098554 0.510272 0.391925 0.686396 -0.010983 -0.369741 -0.089148 0.120964 0.107742 -0.382695 -0.546836 0.367406 -0.968950 0.268781 0.331068 0.321886 1.079534 -0.630781 0.945913 -0.885851 0.655822 0.352549 0.350486 -1.235005 -0.238703 0.568353 1.055060 -1.260571 0.411180 -0.855379 -0.269504 0.720668 -0.399111 -0.180710 -0.319026 -0.097389 -0.291405 0.520340 0.563268 -0.971296 -0.609537 0.412756 0.941099 -0.427414 -0.254442 -0.481534 0.936076 -1.161722
решение -0.573717 -2.037686 0.144017 0.519105 -0.336113 0.979434 0.663857 0.911815 -0.081766 0.046575 -0.207534 0.253828 -0.445394 -0.132596 0.723438 0.745316 0.370561 -0.381277 0.489413 1.167865 -0.859951 0.142586 0.069206 -0.064089 -0.481596 -0.692875 -0.614857 0.530568 -0.407094 -0.840087 1.299270 0.707665 -0.772176 0.300145 -0.295657 1.262645 1.350214 -0.240125 0.326124 0.300960 1.058861 0.716596 0.753917 -0.957013 -0.098287 1.108683 -0.636333 0.054366 0.707848 0.245615
потребительский -0.163204 0.021373 -0.120968 0.809844 -0.160240 0.735514 -0.523708 -0.001732 0.138044 1.211779 -0.184393 0.210428 -1.195046 1.675307 -0.349011 0.061274 -0.372089 -0.001940 0.382314 -0.284460 0.387012 -0.175629 0.097299 0.815357 -0.077872 -0.232050 -0.527120 0.178924 -0.314375 0.431472 -0.829880 -0.391928 0.216582 0.381947 -0.338449 0.305776 -0.692092 -0.389460 -0.671070 -0.288343 1.096983 -0.441036 0.284861 0.108031 -0.812603 -0.471863 -0.457929 0.036009 1.762477 0.984210
денежный -0.554985 0.288975 -0.084687 -0.313690 1.015412 0.141199 0.242644 0.608385 1.100469 -0.145644 -0.396145 -0.044662 -0.003348 0.633376 -0.481726 -0.868831 0.007148 0.330069 0.596893 -0.089646 -0.420691 0.350587 -0.119578 0.373817 0.331407 -0.332897 -0.804688 0.616230 -1.035943 -1.074905 0.155846 0.158405 0.984779 0.436982 -0.629045 0.599656 -0.263341 -0.640309 0.119117 -1.217603 -0.191603 -0.284005 0.250568 -1.334818 -0.045176 1.817672 0.182247 -1.322005 1.401673 -0.428242
также -0.113935 0.658175 -0.051766 -0.171995 -0.314072 0.933173 0.131638 -0.161782 -0.712923 0.724689 0.010386 0.190545 0.058231 -0.022102 -0.329243 0.758336 0.117058 0.471339 0.935938 -0.065809 -0.013651 -1.128695 0.267918 0.931372 -0.575937 -1.535240 -0.199319 0.803052 0.093898 -0.052078 -0.584095 0.318175 -0.594282 0.779207 -0.606088 0.130529 0.301976 0.334980 0.605157 -0.783232 0.667061 -0.069420 1.412316 0.126159 -0.316270 -0.563529 0.124906 0.023504 0.250537 -1.439533
директор -0.838408 -1.303412 -0.397292 0.606356 -0.009950 0.443274 -0.070607 1.869606 0.506000 -0.480119 -0.670445 0.863408 -0.634042 0.250757 1.155530 -0.031972 0.009864 0.467229 1.243023 0.972041 -0.611738 1.005582 -0.386987 -0.193389 -0.264501 0.351190 -1.296320 0.933005 -0.147692 -1.622759 1.477331 0.575065 -0.522183 0.072367 -0.153707 0.967813 0.340508 -0.394753 -0.040442 0.450918 0.430888 0.721216 -0.135391 0.025982 0.036234 0.322932 -0.118365 0.125851 0.100702 -0.176851
совет -1.048894 -1.305246 -0.331608 0.648646 0.066253 0.452741 -0.134109 2.072678 0.462245 -0.585286 -0.753315 1.023739 -0.540287 0.323685 1.159236 0.091613 0.034013 0.598355 1.430932 1.190900 -0.842144 1.079448 -0.371105 -0.257260 -0.322137 0.347165 -1.508030 1.267787 -0.242413 -1.949781 1.542107 0.786475 -0.650707 0.040066 -0.134356 1.183495 0.253594 -0.424487 -0.147326 0.371837 0.591032 0.821697 -0.148527 -0.007468 0.103429 0.238420 -0.173384 -0.028657 -0.072750 -0.203844
спрос 0.135395 1.270854 -0.438972 0.238707 -0.151165 0.298948 0.132367 0.148313 -0.518561 1.129432 0.067976 0.311125 -0.005060 1.093094 -1.648336 -0.685932 -0.216454 -0.367155 0.657082 0.282108 -0.128861 -0.045799 0.181355 -0.315050 0.480421 -0.368455 -1.150247 -0.071324 0.158118 -0.214782 -0.826300 -0.065374 0.476135 -0.100881 -0.526613 -0.145889 0.212001 0.243943 -0.218309 -0.318631 1.587128 -1.009148 0.524099 -0.205379 0.287853 -0.805774 -0.107370 0.475664 0.452926 0.511984
влияние -0.620959 0.023361 -0.834772 -0.067383 -0.703554 0.065170 0.999820 -0.275441 0.090917 0.918018 0.025543 0.084617 0.259455 -0.213488 -0.772329 -0.578751 -0.509320 -0.161541 0.183824 -0.067428 0.236300 -1.177353 0.486919 1.075579 -0.943102 -0.568655 -0.499813 0.623992 -0.405710 -0.335075 -0.493915 1.114319 -0.091769 0.425207 -0.047414 0.994253 -0.660779 0.076709 -0.045505 0.932318 0.586243 -1.311765 0.642405 -0.118143 0.559404 0.394035 0.661599 -0.174364 1.099283 0.130396
при -0.591376 -0.942870 -0.423442 0.354387 -0.749646 0.311955 -0.556679 1.247079 0.031334 -0.658144 -0.641518 1.330604 -0.964488 0.925212 -1.160452 0.455560 0.718477 -0.366647 -0.059647 -0.108993 0.180623 0.365534 0.221086 0.513303 0.195046 -0.313737 -0.733787 -0.195776 -0.913162 -0.614317 -0.100692 0.573724 0.942798 0.160898 0.866726 0.341685 0.970876 -0.235636 -0.365903 -0.451938 1.417118 0.515339 0.546731 0.601515 0.658699 -0.478253 0.150422 -0.449873 0.320196 -0.119135
операция 0.717077 -1.432867 0.213142 -0.242722 0.013838 -1.195238 -0.069566 1.461720 0.869117 -1.607528 -1.401051 -0.256773 0.020352 -0.890802 1.561039 -0.409731 -0.139249 -0.390191 -0.240526 1.124150 -0.170691 0.783136 0.852309 -0.730685 -0.178215 -0.076432 -0.399634 -0.622203 -0.634385 1.416880 1.504799 0.268377 -0.406005 -0.594140 0.445928 -0.443074 0.790217 1.049751 0.063703 0.126054 0.007788 0.117843 -0.010799 0.049888 -0.143495 -1.026109 0.770249 0.007240 0.116306 -0.826434
прогноз -0.357539 -0.542269 0.469824 0.374938 0.134077 0.210203 -0.694624 0.443442 -0.020483 0.368691 -0.398340 0.574008 -0.807954 0.097594 -0.089969 0.916416 0.400791 0.097185 1.427659 0.768384 0.010182 0.615052 -0.086760 0.138832 -0.324272 -0.379572 -0.783430 0.730975 -1.249731 -1.056455 0.919969 -0.307768 -0.682452 0.018381 0.070724 0.722809 -0.809583 0.476374 0.641906 -0.234550 0.371759 0.994030 0.413243 -0.741359 0.246928 -0.364301 0.826719 -0.436813 1.072181 -0.644354
процентный 0.017620 -0.992923 0.090128 -0.649333 0.247637 -1.170722 0.175667 1.423486 0.482863 -1.248816 -1.127137 0.280621 -0.009738 0.117221 1.353972 -1.283004 -0.327922 -0.285391 -0.634411 0.923212 -0.583717 0.456198 0.985864 -0.331131 -0.258015 -1.242420 -0.680819 0.483608 -0.130665 1.174210 0.342617 0.664912 -0.522300 0.105455 0.444787 0.045484 0.632185 -0.288636 0.160137 -0.328669 0.333819 -0.621169 0.527392 -0.015642 -0.027518 -0.484122 -0.739532 -0.803333 0.929249 -0.477536
это -0.291855 -0.163616 -0.575802 0.435124 -0.060544 0.743412 0.128326 1.181014 0.306054 0.561948 -0.065069 0.821544 -0.472083 0.512126 -1.152232 -0.222673 0.307533 0.158461 -0.641801 -0.369556 0.386060 -0.600581 0.225856 0.079136 0.418059 -0.357831 -0.344678 -0.493798 -0.782190 0.039995 0.153861 -0.005283 0.160109 0.630019 0.062342 -0.025932 0.257131 0.058596 -0.032889 -0.535772 0.482367 -0.486359 -0.078606 0.378391 0.800843 -0.480001 0.495461 0.157605 0.933749 -0.134153
дальнейший -0.112758 0.027673 -0.534593 -0.398994 0.351636 -0.280911 -0.294394 0.643382 -1.039454 -0.048217 0.086277 0.578725 -0.464476 0.117929 -0.378896 0.799836 0.406232 -0.438914 0.570580 0.127926 -0.153924 -0.161041 0.273751 1.704946 -0.323496 -0.762491 -0.700171 0.456220 -0.534558 -1.058404 0.362264 -0.282312 0.260411 -0.450687 0.157379 -0.106309 0.090408 -1.039595 0.355334 -0.121823 0.575424 -0.166462 0.394739 -1.321463 0.142085 0.474224 -0.107036 -0.750214 1.176664 -0.358524
оставаться -0.511186 -0.133366 -0.129294 0.098569 0.626592 0.059950 -0.257823 0.305710 -0.776164 0.361406 -0.116027 0.273247 -0.346075 1.461819 -0.805208 -0.488966 0.178896 1.200264 0.372696 0.102294 0.250693 0.160746 0.781231 -0.198889 0.091820 0.652233 0.413759 0.164677 0.136414 -0.831507 0.086154 -0.061683 0.241542 0.391775 0.610170 0.200940 0.119588 -0.006708 -0.749467 -0.666878 1.692761 -0.453101 -0.332796 0.144986 0.671226 0.253157 0.144693 -0.505426 1.520315 0.056698
политика -0.383406 -0.067230 0.117318 0.007812 1.365749 0.206557 0.479140 0.241785 0.708979 0.490025 0.351789 0.113154 -0.945745 0.507024 -0.081674 -0.749956 -0.745353 0.202490 0.685001 0.372175 -0.463768 -0.525524 -0.232322 0.003766 0.196257 -0.433697 -0.672162 0.205818 -1.100511 -0.733953 0.502699 0.225022 0.912499 0.703202 -0.362713 0.864618 0.715453 -0.195727 0.763932 -0.756650 -0.224654 0.334731 0.176970 -1.058963 -0.123483 1.232750 0.440969 -0.426018 0.556584 -0.203138
мочь -0.157202 0.949248 -0.723454 -0.162517 0.507243 0.703095 -0.158033 -0.770658 1.017975 0.705930 1.267085 0.055455 0.481316 -0.125712 -0.353329 -1.048581 0.057409 0.129833 -0.065121 -0.039546 0.375342 -0.937137 0.265148 1.104762 -0.128395 -0.827131 -0.769857 -0.626118 0.077494 -0.076740 -0.440102 0.998249 -0.200059 0.017628 -0.716552 -0.458530 -0.152713 -0.069647 0.557734 -0.549154 -0.529533 -0.945740 0.334358 0.244655 0.316233 -0.010734 0.877335 -0.147933 0.799200 -0.737305
активность -0.805023 1.159342 -0.167456 0.304679 0.586066 0.633607 0.232432 0.512029 -0.132708 0.460964 -0.251555 0.328520 0.791874 0.934167 -0.413283 -0.023194 -0.106828 -0.078728 0.093669 -0.355864 0.432935 -0.024107 -0.136930 0.652245 -0.018250 -0.701164 -0.639317 -0.019462 -0.175821 0.304612 -0.491392 0.015110 -0.383088 0.560053 0.917009 1.087877 -0.891475 -0.251732 -0.233234 -0.867156 1.609823 -0.357554 0.004959 0.765708 0.026212 -0.238940 -0.146599 0.377132 1.109351 0.368754
а -0.210194 0.724605 0.247143 -0.490096 -0.279060 0.915428 -0.375325 0.020399 -0.612651 0.113425 -0.382702 0.256747 0.222445 0.346696 -0.280110 0.727607 -0.147769 0.783867 0.865837 -0.077483 -0.129331 -1.115921 -0.069232 0.975185 -0.949577 -1.581174 0.153837 1.057830 -0.170727 0.241917 -0.496718 -0.130743 -0.257253 0.733455 -0.482517 0.039304 0.339086 0.459502 0.603582 -1.279642 1.334279 0.018768 1.404130 0.479317 -0.580240 -0.382386 -0.081827 0.034617 -0.181932 -1.589438
принимать -0.538951 -1.500392 -0.066584 0.714908 -0.496704 1.262579 0.646895 1.057646 -0.131816 0.279929 -0.666147 0.486684 -0.436123 0.193859 0.504746 0.355436 0.448870 -0.265985 0.330663 0.507883 -1.544634 -0.120948 0.141498 0.756774 -0.241003 -0.377369 0.121698 0.327928 -0.852125 -0.789889 1.158692 0.441463 -0.481818 0.131390 -0.043315 1.096398 0.999911 -0.448975 0.826184 0.029710 0.819003 0.359423 0.374695 -1.112808 0.195498 1.039592 -0.355760 0.076672 0.822825 -0.204583
экономический -0.810052 0.988705 0.248005 -0.545960 0.563558 0.163922 0.154275 0.391694 -0.395799 0.661432 0.051407 0.595240 0.378518 0.356189 -0.152633 0.088533 0.085420 0.082136 0.047975 -0.041665 0.333743 0.001557 0.187090 0.987422 -0.243743 -1.188292 -0.598602 0.483386 -0.433953 -0.385763 0.011999 -0.091849 -0.712028 -0.093103 1.264411 0.832452 -0.955977 0.007063 -0.179451 -0.857209 1.271119 -0.086295 -0.407729 0.627446 0.009603 -0.104552 -0.479422 -0.170422 0.808722 0.253023
внешний 0.677891 1.178745 -0.943358 -0.618528 -0.422205 0.200860 0.173570 0.628086 -0.818695 0.384728 -0.526150 1.012523 0.338939 -0.306199 -0.818508 0.137141 0.250683 0.507012 1.101206 0.675686 -0.839998 -0.179457 0.271934 0.233335 -0.358462 -0.105365 -0.369267 0.771445 0.069114 -0.853211 -0.828686 1.453072 -0.029158 0.107194 -0.640426 0.466777 -1.033666 -0.918147 0.147742 0.238714 1.037532 -0.345112 0.818756 0.230050 0.340018 -0.615625 0.143926 -0.058536 -0.225166 -0.628629
время -0.270968 -0.943862 -0.864832 0.010316 0.223742 -0.133723 -0.648330 1.102610 0.988958 0.089186 -0.375032 0.218568 -0.427686 0.401234 0.557066 -0.174151 0.392226 -0.195290 -0.281434 1.181954 -0.001591 0.948756 -0.310577 -0.226440 0.508911 -0.135858 -1.321607 0.389566 -0.314737 -1.179302 0.951641 1.173504 -1.197318 0.436751 0.035813 0.614079 0.722007 0.204604 -0.592572 0.500570 0.235015 -0.218439 0.194674 0.797697 1.323387 0.168337 -0.533505 -0.106798 0.253495 1.162535
от 0.515888 -0.480434 0.720410 -0.293949 0.210026 -0.075764 0.043199 -0.390357 -0.145792 0.216669 -0.452088 -0.010647 0.045314 -0.140217 0.212918 -1.482752 0.426668 -0.472796 -0.407646 0.804944 0.075074 -0.565386 1.694261 -0.058495 -0.236738 -0.906940 0.162536 -0.426680 -0.495092 1.017416 1.074603 0.735112 -0.241757 -0.060397 -0.708749 -0.167208 0.085301 -0.398384 1.114279 -1.084110 0.521111 0.082012 0.358664 -1.392985 -0.525282 -0.503366 -0.042009 -0.839205 0.318366 -1.076371
финансовый 0.058858 0.243692 -0.530921 -0.218355 0.675871 -0.021008 -0.593965 0.940624 -0.129777 -0.310997 -0.160583 1.170148 0.206943 -0.666524 0.236895 -0.160946 -0.806336 1.024900 1.063559 0.312526 -0.472473 -0.499999 0.540233 0.551436 -0.414948 -0.144627 -0.279140 0.299404 0.251740 -0.993922 0.198327 0.745624 0.802478 -0.225209 -0.162983 0.351835 -1.003710 -1.389875 0.097003 0.279251 0.392258 -0.980286 0.396298 0.255693 0.524302 -1.177433 0.828663 -0.493393 -0.761677 -1.129030
для -0.013051 -0.434005 -0.391898 -1.468529 1.770436 -0.027296 -0.124558 -0.029201 0.066236 -0.046020 1.067301 1.066454 -0.704084 0.254146 0.177257 0.350129 0.238975 0.701113 0.800750 0.602486 -0.413306 -0.214850 0.110760 0.248459 -0.036293 -0.477678 0.037256 -0.880807 -0.782778 -1.116621 0.129603 0.048850 0.572758 -0.298631 -0.764745 0.045863 -0.333744 -0.574256 0.439673 0.087205 0.392307 -1.022279 0.077458 0.284923 0.660033 0.388077 -0.456687 -0.337959 0.733124 -0.043466
сторона 0.104166 0.500890 -0.954981 -0.606608 -0.020158 0.210234 0.099459 0.755262 -0.982689 0.611803 -0.356651 1.095206 0.032047 0.140368 -1.053440 0.104237 -0.310766 1.203995 0.697594 0.783798 -0.018959 -0.392990 0.394376 -0.082520 -0.405516 0.105367 -0.603090 0.182703 -0.082371 -0.733758 -1.045730 1.176486 -0.455508 0.654779 -1.491272 -0.921662 0.094087 0.320400 0.636253 -0.342730 0.953270 0.164205 0.549485 0.034103 0.452048 -0.427455 0.220442 1.048661 -0.025831 -1.235499
кредит 0.356112 -0.220716 0.260949 -0.175737 -1.246471 -1.344316 -0.156188 -0.101189 0.769051 -1.391967 -0.160824 -0.131052 0.364445 0.481817 -0.031360 -2.153238 -0.312354 -1.141756 -0.417535 0.524734 -1.297289 0.409511 0.838977 -1.275705 -0.051117 -0.414043 0.197479 0.176438 -0.361694 1.165113 0.210918 0.431084 -0.162824 -0.348159 -0.627092 -1.626798 0.238673 0.809763 0.237440 -0.305593 0.282144 -1.303267 0.073826 0.032164 -0.300064 -0.992899 -0.080304 -0.175616 0.347568 0.301516
оценка -0.815505 -0.046327 -0.387011 0.585856 -0.143553 -0.030760 -0.878649 0.527199 0.083544 0.157209 -0.435309 0.488195 -1.024169 0.842090 -0.037994 0.151262 -0.579149 0.801277 0.757929 0.623276 0.337822 -0.354347 0.238397 0.764065 0.257889 -0.756397 0.333679 0.907586 -0.282962 -0.148255 0.214246 -0.365291 -1.644917 0.740434 0.220964 0.331499 -0.421561 0.275800 0.356583 0.130828 0.466205 0.611289 -0.122441 0.215136 -0.579103 -0.266680 -0.382470 0.485837 0.607242 -0.265094
фактор -0.186486 0.207076 -1.391838 -0.707996 -0.014717 -0.158889 0.521284 0.022005 0.594465 1.238399 0.415650 0.239341 0.059673 0.149442 -0.735602 -0.497356 -0.590689 0.011832 -0.021078 0.067942 0.138524 -0.977903 0.600216 0.789231 -0.327279 0.379563 -0.292843 0.087280 -0.667958 -0.332598 -0.821070 0.983802 -0.907852 0.862693 -0.366832 -0.354983 -0.601808 0.265662 -0.036220 0.686272 -0.458266 -0.230459 0.398267 0.321696 0.657302 0.186922 0.735892 0.610932 1.391142 -0.470141
внутренний -0.185034 1.175524 -0.611965 0.031553 -0.345961 -0.117194 -0.015120 0.766442 -1.154823 0.915243 -0.213993 0.847386 0.078244 0.196441 -1.346505 -0.571808 -0.588533 0.552273 1.451951 0.726021 -0.688308 -0.055646 0.186355 -0.254075 0.368925 -0.096923 -0.657689 0.249425 0.215854 -0.690349 -0.955167 0.408719 -0.020337 -0.178063 -0.626173 0.332199 -0.354597 0.093767 0.358071 -0.263206 0.812907 -0.521026 0.772168 -0.437141 0.205125 -0.892108 -0.276202 0.921919 -0.365901 -0.385405
тот -0.024807 0.754719 -0.082717 0.275770 0.570180 0.772319 0.034522 0.430826 -0.116202 0.475218 0.149701 -0.137956 -0.107974 -0.400366 -1.043384 0.532234 -0.933147 -0.177298 -0.312696 1.075191 0.916676 -0.806727 -0.007653 -0.657509 0.305749 -0.435415 -0.625410 1.069981 0.257889 -0.733150 0.736402 1.054600 -0.247587 1.017959 0.159378 0.462544 0.055534 -0.365921 -1.049581 0.705944 0.198033 -1.237647 1.026143 0.158673 0.589391 0.026072 0.029463 -0.022295 0.960096 0.538043
заседание -0.610432 -0.512130 0.012945 0.154536 0.035611 -0.049532 -0.330125 1.592347 -0.089259 -0.861590 0.191146 0.709484 -0.068827 -0.211339 0.546774 0.064017 -0.199349 0.412331 1.088212 1.312325 -0.653108 0.994392 -0.130423 0.073551 -0.467427 0.705863 -1.556672 0.954917 0.017048 -1.792857 1.589112 0.050183 -0.090512 -0.673707 -0.497021 0.223055 -0.318138 -0.438666 0.455167 -0.287788 0.026944 0.517122 -0.037528 -0.782551 0.088348 0.127465 0.019776 -0.189762 0.091494 -0.799810
что -0.381755 0.544833 -0.158129 -0.038737 0.449391 0.400357 0.416440 0.951558 0.623481 1.825165 0.038899 0.844429 -0.188028 0.331121 0.248467 -0.202582 0.143844 -0.318528 0.483123 -0.081267 0.246228 -0.895664 0.391603 -0.282170 -0.246084 -0.611833 -0.638750 -0.012499 -0.082558 -0.567754 0.794114 -0.977152 -0.696687 -0.266146 -0.085335 -0.124981 -0.625937 0.065872 0.364478 0.743220 0.020630 -0.558071 -0.717780 0.256633 0.105815 -0.229236 0.982881 0.137187 1.443952 0.456066
высокий -0.327190 0.339055 -0.226684 0.824369 1.056031 -0.390511 0.264592 0.193153 -0.450142 0.679820 -0.365804 -0.385167 -0.194155 0.472580 -1.181682 0.456349 -0.097482 0.218307 0.525167 -0.348929 0.384927 0.222506 0.513118 -0.457217 -0.042026 0.034265 0.454402 -0.292113 0.896585 -0.145073 -0.737768 -0.328004 0.215453 0.345962 0.024865 0.406815 0.029690 0.265065 1.016707 -0.467309 1.504263 -0.048622 0.097203 -0.040014 1.026988 -0.733905 0.479531 -0.508132 1.638097 0.289632
учет 0.186811 -0.537060 0.640141 -0.310397 -0.044921 -0.279344 0.508290 1.058054 0.597552 -0.109943 0.370214 0.392214 -0.096428 0.356214 -1.392830 0.620895 -0.084708 0.305921 0.833261 0.428761 -0.869423 -0.459158 0.338867 0.712865 0.310607 -0.353210 0.323441 1.068912 -0.656794 -0.472901 0.454876 -0.811228 -0.217676 1.021460 -0.263175 0.325113 -0.555484 0.104939 1.058715 -0.339919 0.452803 0.164013 0.453633 -1.536984 -0.232606 1.334066 0.288149 -0.579813 0.957590 -1.276290
оказывать -0.714853 0.537686 -0.739606 0.747758 -0.257189 0.495611 1.039603 -0.512761 -0.115806 0.851038 0.693050 0.274944 -0.026755 -0.353453 -0.804037 -0.692913 -0.445700 -0.269979 0.578914 -0.294254 0.061849 -1.483333 -0.186999 1.474501 -0.472067 -0.399723 -0.651042 -0.399278 0.051340 -0.340620 -0.190985 0.433965 -0.077796 0.029485 -0.097115 1.348255 -0.080233 0.178226 -0.251667 -0.060775 0.883937 -1.406112 0.356016 0.346885 0.184781 0.446595 0.262591 0.317418 0.641707 -0.005901
проинфляционный 0.137609 -0.415617 -1.262280 -0.635577 0.313353 -0.283470 0.221117 -0.427713 -0.898267 0.376698 0.749766 0.464404 0.011616 -0.206335 -0.779799 -0.399662 0.341969 0.474709 -0.054589 0.366427 0.162981 -0.474854 0.734204 0.359083 -0.146549 0.251582 -0.199424 -0.426463 -0.153482 -0.380793 -0.629119 1.789000 -0.770791 1.349117 -0.384547 -0.590653 -0.053291 -0.138243 0.157139 -0.433730 -0.489233 -0.129537 0.358154 0.211698 0.866457 -0.473901 0.225446 0.071920 1.397659 -0.953206
российский 0.959967 1.049075 -0.422828 -0.390139 1.412206 0.438636 -0.207767 -0.231436 -0.382281 1.311503 0.116266 0.616361 0.316772 0.051971 -0.419706 0.034745 0.400046 -0.349741 0.684552 0.645117 -0.227159 -0.814000 0.937814 0.252323 -0.608120 -0.589027 0.061872 -0.492148 -0.317404 -0.515106 0.977162 0.341790 -0.776122 -0.316263 0.368399 0.632302 -0.426605 -0.296538 -0.185444 0.253642 1.676315 -0.444739 -0.437174 -0.290483 0.261106 -0.533958 0.269487 -0.447416 -0.381424 0.020977
день 0.489292 -1.181543 0.700251 -0.095629 -0.166640 -0.976677 -0.169401 0.207685 0.242241 -1.363338 -0.596827 -0.734129 0.436170 0.071783 0.640849 -1.132137 0.386307 -0.358605 -0.632084 0.680266 -0.575999 -0.537189 1.275529 -0.637732 -0.820344 -0.102501 0.317123 -0.264307 0.192547 1.700570 1.319203 0.478399 -0.236584 -0.313917 -0.234711 -0.902154 0.524236 -0.393351 -0.107130 -0.002609 -0.169132 -0.189337 -0.219311 -0.654678 -0.945026 -0.870177 0.179405 -0.336034 -0.205388 -0.578814
замедление -0.285232 0.053773 -0.059917 -0.140166 0.323543 0.009347 -0.485593 0.542677 0.141433 1.420292 -0.475515 -0.042694 -0.836155 1.147996 -0.251535 -0.225470 0.256127 0.174236 -0.227162 0.041064 0.067371 -0.717588 0.981207 0.843447 0.234427 -0.494252 0.150938 -0.074576 -0.782529 -0.301130 -0.414975 -0.419912 -0.111506 -0.206594 -0.050826 0.666625 -0.724651 -0.888403 -0.199642 0.185497 0.590502 -0.513491 0.052660 -0.251319 0.345517 -0.146173 -0.795904 0.300397 0.715771 -0.009904
происходить -0.444474 0.469292 -0.428016 0.812290 -0.395397 0.846776 0.111012 0.744730 0.191076 -0.294203 -0.617558 -0.331909 -0.179565 0.576655 -0.938874 0.037563 0.530725 -0.726652 -0.585704 -0.632879 -0.392667 -0.589891 0.058994 0.433633 -0.750433 -0.311383 -1.115375 0.685875 -0.069683 0.320962 -1.207997 0.097302 -0.157267 0.154599 -0.294659 0.354012 -0.817928 -1.362885 -0.418594 -0.095870 0.386722 -0.501813 0.132827 -0.281439 0.948270 -0.720549 -0.741655 0.111483 0.319263 -0.466646
снижаться -0.671350 -0.449410 -0.369224 0.686616 0.454187 0.485420 -0.295604 0.459233 0.112184 -0.114283 -0.879567 0.053361 -0.858058 1.206025 -1.066135 0.129234 -0.220682 0.094081 1.076034 -0.292501 -0.320877 -0.810525 0.524370 -0.084528 -0.003999 0.201162 -0.031057 -0.003097 -0.464796 -0.369871 0.281774 -0.373955 0.243483 0.755051 0.170742 -0.131969 -0.309704 -0.234177 -0.667092 -0.131889 -0.155109 0.078671 -0.830033 -0.005997 -0.483463 -0.342583 0.375558 -0.498000 1.724267 -0.605988
население -0.455943 -0.439254 0.082014 -0.001519 0.727263 1.048235 -0.077109 -0.121678 0.043924 -0.610923 0.059002 -0.152313 -0.880645 0.922134 -0.774169 0.522718 -0.233279 0.445278 0.661475 -0.859122 0.284887 -0.680142 -0.434579 -0.120530 0.233177 -1.524380 -0.276827 -0.136241 1.006445 0.287638 -0.309404 -1.043450 0.806755 0.359707 -0.436906 -0.133189 0.035685 -0.171808 -0.255652 0.058455 0.508325 -1.009992 -0.436818 1.407644 -0.216691 -0.431249 -0.386592 -0.371041 1.414371 -0.384991
со -0.110159 0.708372 -0.963083 -0.442628 -0.655581 0.326674 0.050581 0.923756 -0.966109 0.804372 -0.483947 1.181054 0.149232 0.154664 -0.972524 0.283046 -0.376904 1.223110 0.599821 0.417269 -0.237053 -0.578252 0.063977 0.292846 -0.326947 0.020530 -0.452551 0.635794 -0.437257 -0.607236 -1.012293 0.994518 -0.589301 0.866163 -1.222494 -0.448800 -0.101822 0.142749 0.686563 -0.365230 0.867390 -0.009947 0.966356 0.333573 0.303483 -0.514404 0.035118 0.982325 -0.371056 -1.070451
мера 0.213849 0.084429 0.851336 -0.300169 -0.588399 1.537742 0.032000 -0.486828 -0.003303 0.221625 0.590642 0.165579 0.373036 -0.023604 0.730815 -0.037428 -0.587327 -0.131645 -0.812263 0.378308 -0.682439 -1.148452 0.181049 1.211491 0.401425 -0.005754 -0.268221 0.087961 -1.500744 -0.251273 0.459354 0.671060 -0.042089 0.558448 0.201044 0.835356 -0.000826 0.842951 0.560870 -0.637720 0.868140 -0.495312 -0.029033 0.057627 0.630186 -0.040867 0.374840 0.490304 0.321763 -0.208958
о -0.413352 -1.397968 -0.241890 -0.103200 0.401061 0.370019 0.318247 1.490296 0.485752 -0.295432 -0.382572 0.135945 0.586096 -0.033968 1.536257 1.233181 0.649820 -0.401672 0.110223 0.522508 -0.181533 1.018426 -0.450711 -0.445405 -0.338466 -0.610721 -1.552271 -0.143248 -0.023620 0.472440 1.026982 -0.140390 -1.318655 0.037835 -0.170257 1.141174 0.617883 0.093670 -0.709606 0.687184 1.333886 0.068781 0.150453 0.277224 0.055653 0.055253 -0.873165 0.055246 0.519276 0.530627
среднесрочный -0.349220 -1.591555 0.218536 0.114653 0.792986 -0.579904 0.006000 -0.831438 -0.633769 0.186677 1.232587 0.569751 -0.323951 0.315499 0.373307 -0.288035 -0.103157 0.459833 1.523268 0.562946 0.388295 0.122036 0.057093 0.361935 -0.643069 -0.621803 -0.434179 0.372405 -0.048893 -1.267848 1.300634 0.650535 -1.072770 0.568752 0.201438 0.495132 0.192569 0.365808 -0.041386 -0.293839 -0.084200 0.494717 0.352588 0.189734 0.491305 -0.310793 -0.210055 -0.179601 0.465393 -0.488500
не -0.163966 -0.634610 -0.116339 0.640275 -0.760536 -0.220823 0.533802 0.044472 -0.230555 0.698033 0.701707 0.491241 -0.948614 0.589726 0.118158 -1.361560 1.229748 0.127525 0.273517 -0.203850 -0.523464 0.364075 0.416845 -0.263212 -1.044738 -0.168577 -0.420757 -0.062523 -0.093357 -0.348287 0.728072 -0.109873 -0.196794 -0.456055 0.027674 -0.806044 -0.450219 -0.389347 -1.047676 -1.197899 0.415454 -1.390476 0.273205 1.032278 -0.266968 0.767864 -0.480460 0.691659 1.329164 -0.474087
продолжать -0.857312 0.423667 -0.350201 0.704719 0.027884 0.647587 0.349759 0.293975 -0.224555 -0.309433 -0.656005 0.367764 -0.517591 -0.110111 -1.045955 -0.593448 -1.210609 -0.227228 0.996236 -0.049917 -0.179110 -0.802052 0.375204 0.144971 0.969194 -0.249118 -0.571388 -0.643982 -0.193282 -0.478215 -0.018670 -0.232221 0.087851 -0.505405 -0.021877 0.130732 0.234956 0.590509 -0.588036 -0.453186 0.364760 -0.827953 -0.866867 -0.135128 -0.624172 -0.093450 0.201428 -0.416404 1.437876 -0.529192
повышение -0.425604 0.340854 -0.411058 0.337483 -0.379012 0.398827 0.019501 0.149376 -0.260917 -0.335449 0.007481 -0.805689 -0.539827 -0.496444 0.198190 0.570838 0.026000 -1.001502 -0.337373 0.405616 -0.644449 -0.138856 0.142164 1.382154 0.169906 -0.478418 -1.199680 0.329294 0.584037 -0.239459 0.330982 -0.221322 -0.161904 -0.489365 -0.183710 0.103274 0.280216 -0.797126 0.101110 0.077756 -0.453964 -0.298267 0.512967 -0.537537 -0.240886 -0.209796 -0.924013 -0.439454 1.561828 -0.554634
товар 1.754686 0.108231 -0.957576 -0.253825 -0.018710 -0.036699 -0.761283 0.886897 0.549273 1.057355 0.213275 0.345310 -0.083486 0.904715 -0.729166 0.426342 -0.759065 -0.463384 0.670771 0.184516 -0.153060 -0.896128 1.098709 0.734440 0.119318 0.044007 -0.705874 0.087841 0.568181 -0.103829 -0.465364 -0.196764 0.152063 0.465026 -0.009902 -1.057969 0.506076 0.485754 -0.933410 0.873062 1.116787 -1.571343 0.181657 -0.548355 0.054250 -0.768268 0.231723 0.004177 -0.185166 0.187885
прирост -0.245857 0.261941 0.207035 0.792092 -0.156602 0.327647 -1.540768 0.589531 0.974222 0.603456 -0.650796 -0.474479 -1.612203 1.396110 -0.363082 -0.232946 -0.257934 0.143036 0.336280 0.008894 -0.310271 0.044169 -0.024669 0.449620 -0.204802 -0.407006 -0.081805 1.260803 -0.814485 0.229693 0.059999 -0.798916 -0.689391 0.025913 0.317031 -0.117257 -0.208203 0.294969 -0.588973 0.042476 0.140637 0.392247 -0.509969 -0.552600 -0.636274 -0.633217 0.011238 -0.582334 1.668198 1.141946
бюджетный 0.487360 -0.254650 0.488772 0.636069 0.601223 0.564869 0.561322 -1.093269 -0.973950 0.552379 1.552151 0.190816 -0.912164 0.245372 0.088247 -0.603513 -1.273957 -0.043233 0.562307 0.179150 -0.376117 -0.522693 -0.542634 0.271723 0.222270 -0.286989 -1.081604 0.336756 -0.131419 -0.443916 0.006219 1.011352 0.714988 0.626152 0.298830 0.879092 1.237467 0.262387 0.418554 -1.082126 -0.552993 0.665322 0.656489 -0.254128 -0.175281 0.548616 0.436293 0.402230 0.167198 0.222489
кредитование 0.104222 0.483080 -0.178180 0.761112 0.129504 0.548063 0.318588 0.572381 -0.005923 0.382715 -0.426484 -0.050582 -0.244035 0.049943 -0.319314 -0.487631 -1.293881 0.432364 -0.091092 -0.188088 -0.434387 0.497380 -0.007727 0.519371 0.087319 -0.229203 0.548500 -0.533887 0.584633 1.048313 -0.059033 0.175467 0.623042 -0.246178 0.514728 0.810386 -0.622509 -0.235410 -0.175669 -1.278583 0.927218 -0.707764 0.183492 0.515556 -0.492290 0.463144 -0.334531 0.071610 1.474449 0.271530
число -0.081112 0.999665 0.181287 0.182081 0.203504 0.861589 0.222929 0.411693 -0.121031 0.409003 -0.239453 -0.445855 0.006648 -0.963671 -0.798286 0.763475 -1.341923 -0.324171 -0.646727 0.779017 1.397185 -0.618983 0.015876 -0.550924 0.090601 -0.432412 -0.423427 1.578221 0.300706 -0.505037 0.674045 0.913135 0.133195 1.312634 0.109395 0.338340 0.148823 -0.116197 -0.845380 0.696689 0.217098 -0.856541 1.472304 -0.174443 0.599559 0.106388 0.272861 -0.252623 0.821615 0.081725
базовый -0.591650 -0.154384 0.722607 0.077163 0.963390 -0.271713 -0.848282 -0.127504 -0.060329 -0.004955 1.434349 0.574602 -1.954257 0.723677 -0.295747 0.889982 0.089846 0.178228 0.364918 1.142382 -0.301559 -0.526621 0.313768 0.097573 -0.525958 0.079685 -0.655812 -0.475231 -1.698907 -1.009660 0.095578 -0.364098 0.339633 -0.328962 0.157863 0.023297 -0.413472 0.095454 1.117428 0.522588 -0.170308 0.687147 0.215806 -0.613789 0.540335 -1.143148 0.903600 0.100137 0.657990 -0.456639
более 0.047552 0.534224 -0.181879 0.065968 0.974488 -0.034253 -0.240082 -0.149486 0.835386 0.623989 0.961108 -0.557959 -0.376812 0.512855 -1.144710 -0.879245 0.999291 0.117040 -0.510195 0.773986 0.436323 -0.059076 -0.080226 0.783691 0.685404 -0.634457 -1.375057 -0.732757 -0.807165 -0.312717 -0.547361 0.211874 -0.497345 0.391855 -0.992113 0.246948 -0.466955 0.390174 0.205903 -0.341288 -0.619997 -0.848242 0.621810 -0.511649 2.088050 0.408766 -0.684635 0.214109 -0.189006 -0.169060
вблизи -0.935482 -0.151363 -0.436270 0.142526 0.549008 -1.483092 -0.436837 -0.839071 -0.336753 -0.842124 -0.147890 0.064664 -0.324498 0.994741 -0.487806 -0.459705 0.793599 -0.336351 1.282490 -0.284468 1.064553 0.266751 0.273644 0.932337 -0.273060 -0.429958 0.120832 0.626322 -0.552514 -1.711429 0.638575 0.035692 0.416329 -0.131265 0.134093 -0.506176 -0.067129 -0.199337 0.064205 -0.398555 0.145554 0.419996 -0.180347 -0.823535 -0.067718 1.156784 0.596693 -1.113337 0.501658 -0.091539
за -0.790341 0.955109 -0.817171 1.007904 1.380359 0.115457 -0.616579 0.895164 -0.466649 -0.380463 0.669602 -0.652576 -0.146579 0.036865 -1.102616 0.931343 -0.352790 -0.785490 -1.046324 0.408322 0.463460 -0.074433 0.283567 -1.179194 -0.679947 0.109281 -0.649377 0.842906 0.742499 0.031867 -0.608416 0.037948 -0.606367 0.869730 0.340624 -0.661159 0.443760 -1.213365 0.181708 -0.617295 -0.209270 0.324716 0.215028 -0.387879 -0.164347 -1.024753 -0.423575 -0.157309 1.008125 -0.175043
пресс -1.085103 -0.851913 -0.753016 0.929545 -1.324105 0.448660 0.105438 1.065529 0.480225 -0.383095 -0.338212 0.485720 -0.035530 0.009537 0.815806 0.611556 0.341145 -0.492045 0.429829 0.087400 -0.147312 0.839777 -0.280503 0.149203 0.209366 -0.490211 -0.862476 1.056403 0.252193 -1.068372 0.607306 1.068284 -1.142844 0.127478 0.797427 1.012586 1.319942 0.175258 -0.567609 1.504666 0.791118 0.255025 0.474506 0.890158 0.511080 -0.521015 -0.649995 0.235684 -0.936327 0.477031
цель -0.009810 0.026608 0.064117 -0.496175 0.285045 -0.320197 0.366529 -0.526120 -0.528736 -0.260209 -0.063402 0.967984 -0.400335 0.419432 -1.116366 -0.272015 0.714454 -0.196065 0.932671 0.696695 -0.471050 -0.876933 0.148728 0.598578 -0.325812 -0.726667 0.525559 -0.222970 -1.248122 -0.655254 0.652439 0.416033 -0.528901 0.247343 -1.245231 0.252052 -0.365736 -0.096299 1.582651 -0.730568 0.970831 0.934064 0.756061 -0.781824 -0.615054 1.594946 -0.340978 0.134703 -0.644846 -1.192495
сохраняться -0.799189 -0.061038 -0.985147 -0.466099 0.706335 -0.810763 -0.083801 0.443402 -0.869425 -0.203759 0.028250 0.472415 -0.137030 0.814831 -1.204282 0.098746 0.498818 0.906764 -0.304336 -0.373632 0.898685 -1.003409 0.328462 0.220936 -0.818533 -0.117845 0.481275 -0.114604 -0.078435 -0.278455 -0.565853 0.336806 -0.191730 0.485846 -0.054536 -0.061470 0.627376 -0.132245 -0.164943 0.018643 1.425585 -0.308776 0.280729 0.395599 0.648750 0.001053 -0.127333 -0.268844 0.263519 0.071630
этот 0.128687 0.064163 0.183157 0.016233 -0.154599 0.131348 0.109965 0.193961 0.505875 -0.041158 0.693177 0.593949 -0.965042 0.699208 -0.734287 -0.541144 0.170189 0.415191 0.044176 0.258755 -0.388311 -0.238625 0.495960 0.388754 0.463036 0.005651 -0.107746 0.026923 -0.237898 -0.698917 0.358563 0.402041 0.460228 0.413198 0.222550 -0.523966 -0.072960 -0.810394 -0.309549 -0.082844 0.011631 -0.484770 0.394926 0.065964 0.053840 0.502931 -0.383664 -0.195471 0.541184 -0.902552
текущий -0.967441 0.372718 -0.491176 0.112482 0.251663 -0.393878 -0.939464 0.899322 0.450153 -0.282389 -0.114118 -0.773110 -0.580748 0.934614 -1.216806 0.121901 0.695537 0.101830 0.236352 -0.198151 -0.604346 -0.268273 -0.252662 0.050396 0.088443 0.040656 0.254989 0.681144 0.044734 -0.399822 -0.033026 -0.634139 -0.399645 0.056958 -0.190831 0.213437 0.805426 -0.806982 -0.456569 -0.166847 0.292807 -0.042494 0.151921 -0.278437 0.018378 -0.009081 -0.867569 -0.436990 0.880550 0.690363
составлять -0.554569 -0.033888 -0.470849 0.283348 0.350809 -0.483953 -1.246700 0.254324 1.588341 -0.144716 -0.251435 -0.126587 -1.111914 2.016825 -0.278172 0.150051 -0.310789 -0.270822 0.353735 0.017320 -0.110531 -0.640075 -0.154733 0.659045 -0.145905 0.366789 -0.000103 0.733693 -1.095392 -0.324440 0.340627 -0.650484 -0.475253 0.930220 0.047150 0.145218 -0.550847 -0.148628 0.112989 0.531693 -0.165166 1.099080 -0.720925 -0.237995 -0.802808 0.525443 0.653137 -0.294286 0.897131 0.786163
сохранение -0.092118 -0.140661 0.155927 -0.953601 0.599517 0.340696 0.406176 0.489732 0.313878 1.265349 -0.033463 0.060179 0.049798 0.454935 -0.551554 0.775482 0.718680 0.319034 -0.250634 -0.244153 0.139134 0.235728 0.677219 -0.494175 -0.137525 -0.464260 -0.323707 0.240678 0.285871 -0.741448 -0.967667 -0.286492 0.919521 0.281567 -0.448591 0.127808 0.675466 0.259999 0.337580 0.235005 1.611645 0.158246 0.475724 -0.361052 0.917442 0.166390 0.290500 -1.154303 0.726392 0.380874
который -0.424842 -0.063279 -0.972622 0.494845 -0.764164 0.164199 -0.072293 0.933243 0.367122 0.262526 -0.142356 0.306918 -0.122136 -0.036714 0.895315 -1.080401 -0.135510 0.250380 0.397980 0.391466 0.036068 0.881340 -0.044637 0.474199 -0.305867 0.528384 -1.341347 0.270551 0.696067 -0.577925 1.475513 0.217234 0.117251 -0.997015 -0.546800 -0.153006 0.500162 0.256653 0.428952 0.188150 0.714657 -0.333583 -0.173108 0.106864 0.488254 0.041212 0.844580 -0.158105 0.237770 -0.035960
относительно -0.681009 0.029538 0.525957 -0.145613 -0.073833 -0.279974 0.596027 0.363186 -1.026675 -0.149939 -0.341980 1.028416 0.719147 -0.233163 -0.992091 1.102758 0.195797 0.428918 1.370389 0.309456 0.487148 -0.310367 0.123841 0.601585 -0.615289 -0.635875 0.747601 0.517790 -0.455574 -1.157324 0.147828 -0.520953 -0.423380 0.188646 -0.449246 1.358958 -0.423306 0.245055 1.002931 -0.384863 1.971899 0.294582 1.130560 -0.809831 -0.152885 0.894712 -0.069055 -0.271002 -0.608355 -1.063547
то -0.413391 -0.177258 -0.109236 -0.275192 0.576142 -0.416351 0.614399 0.899562 -0.169283 0.979150 1.057535 0.901100 0.773781 0.835203 0.043381 -0.100736 0.202562 -0.092413 -0.111799 -0.294168 -0.223400 -0.961637 0.529385 -0.136828 -0.960438 0.749909 -0.704318 -0.386587 -0.462696 -0.071798 0.270008 -0.841666 -0.818116 0.384373 0.178431 0.004920 -0.557500 -0.560774 -0.535056 0.127094 1.292683 -0.899429 -0.689922 0.141092 0.227659 -0.247846 0.124576 0.604987 0.587878 0.548610
ограничение 0.319064 1.145400 -1.185469 -0.897949 0.389949 0.738219 0.130502 0.169014 0.528761 0.280717 0.290573 0.505725 0.489823 -0.151143 -0.481124 0.408613 -0.279189 0.052219 0.120804 0.362968 -0.764657 -1.173708 0.191025 0.150202 -1.166594 0.267014 -0.500203 0.395452 -0.449964 -1.030652 0.028155 1.264644 0.041043 -0.189181 -0.915181 -0.637002 0.366288 -0.562764 0.433765 0.526878 0.620816 -0.038361 0.419461 0.278427 0.207581 0.136780 0.976492 0.241779 -0.563880 -0.642725
во -0.149008 -0.333759 -0.644734 1.150721 -0.498076 -0.334197 -0.497995 0.674161 0.142899 1.510568 0.113793 1.423241 0.188972 0.605857 -0.717961 -0.628827 0.229739 -0.368750 -0.380481 -0.335180 -0.502449 0.097029 -0.065780 0.888325 0.092777 -0.473436 -0.406376 0.081717 -0.331526 0.351863 0.569524 -0.365212 -1.096987 -0.251941 -0.040377 -0.338687 0.431161 -1.300548 0.325738 -0.827576 -0.908466 0.091916 0.623685 -0.684642 0.438991 -0.328313 -0.655517 -0.120182 -0.336283 0.871636
депозитный -0.110533 -1.443021 0.054404 -0.434121 1.115783 -0.369669 0.398875 1.427658 0.214974 -1.179179 -1.014369 -0.495263 0.523836 0.115286 0.828569 -0.693877 0.385378 -0.050183 -0.444822 0.350950 -0.520011 -0.192735 0.999325 -0.242751 -0.701994 0.162626 -0.345494 -0.608926 -0.428527 1.187979 0.666490 0.191182 0.024472 0.275034 0.010592 -0.022779 0.130918 -1.245433 -0.565251 -0.395334 -0.141621 -0.715975 0.184249 -0.530568 -0.186253 -0.458736 -0.169651 -0.252217 1.402083 -1.207264
квартал -0.786182 1.131035 -0.289264 0.632852 0.115482 -0.435375 -0.226701 0.847752 0.094118 0.445905 0.152363 -0.303326 0.258225 0.841495 -1.147137 0.294222 0.547802 -0.737050 0.160932 0.156540 -0.179500 0.042683 0.170165 0.233284 -0.331185 -0.394206 -0.858579 0.688547 -0.236411 -0.272543 0.350008 -0.608993 -1.401796 -0.424370 0.726381 0.091324 -0.640601 -0.331577 -0.211296 -0.235652 0.342956 0.709438 -0.571778 -0.287680 -0.564456 -0.365596 -0.285527 0.076209 0.701056 0.595424
оценивать -0.709659 0.257914 -0.031132 -0.072674 -1.552465 0.489000 0.147946 0.541262 -1.804100 0.040960 -0.577751 0.978339 0.085234 -0.775742 0.146175 0.884904 0.813615 0.343986 0.483109 0.835386 -0.669426 0.092106 0.494500 0.975920 -0.345771 -0.396329 -0.617708 0.457455 -0.448900 -1.142338 -0.386418 0.069035 -0.821105 -0.862941 -0.841435 -0.415323 -0.169285 -0.028404 1.308420 -0.540850 0.069588 -0.006799 1.261958 -0.689318 0.344855 -0.481385 -0.269811 0.592989 -0.012519 -1.793612
повышенный -0.499474 -0.331080 -0.370994 0.193776 0.246077 -0.197302 0.199603 0.278711 -0.150666 0.316356 0.057981 -0.325158 -0.424407 0.638301 -1.118849 -0.375289 0.005270 0.451491 0.432295 -0.907162 0.381384 -0.135301 0.430292 -0.321257 -0.096158 -0.152075 -0.166835 0.379239 1.205738 -0.640941 -0.056100 -0.574141 0.127597 0.620361 -0.344367 -0.742844 0.518967 0.212511 0.008966 -0.348282 1.490516 -0.498501 -0.459342 0.615315 1.256241 -0.309215 -0.333578 -0.127819 0.631017 -0.553005
низкий -0.256938 0.499320 -0.468639 -0.164607 0.270061 0.023393 -0.256863 0.521214 0.598670 1.135022 -0.781913 -0.956759 0.069826 0.953494 -0.000558 0.605732 0.851737 -0.060083 -0.286815 -0.054968 0.932879 0.713004 0.530130 -0.084915 -0.878455 -0.324941 -0.286004 0.542508 -0.039665 -0.070651 -0.784207 -0.746435 -0.014961 0.015519 0.190736 -0.282004 0.348115 1.204478 0.179338 -0.649894 1.506300 -0.053442 0.458562 -0.127844 0.364769 0.402328 0.495297 -0.116755 0.634096 0.371022
основной 1.053217 -0.623636 -0.522647 -0.718142 0.444863 -1.003168 0.410677 1.165560 -0.905629 0.498035 0.370948 0.827832 -0.887672 0.186695 0.379702 0.393857 -1.098526 0.031321 -0.242161 0.412092 -0.222687 -0.291780 0.356391 0.039022 0.371425 0.184755 -0.819931 -0.056538 -0.688385 0.227768 -0.813069 0.289698 -0.595340 0.489348 1.218864 0.153546 0.784882 0.855564 -0.012294 -0.205348 -0.070877 -0.015803 -0.149257 0.246508 0.056158 -0.574004 0.395720 0.128367 0.860198 0.460880
рубль -0.261374 0.417344 -0.030392 0.165950 -1.289135 0.251932 0.650063 -0.218821 0.376063 0.181310 0.401131 -0.263378 -0.809625 0.600965 -1.173003 -0.124459 -0.139782 -0.512218 -0.584548 -0.696457 -1.032196 -1.671234 0.120847 0.480671 -0.422761 0.192711 -1.015728 0.683828 0.677214 0.197150 -1.409887 -0.308156 -0.021232 0.310308 -1.340088 0.014139 -0.774003 -0.967232 0.623377 1.016144 0.522044 -0.340101 -0.424759 -0.316778 0.712027 -0.461512 -0.908513 0.045355 0.358426 0.118836
обеспечивать -0.278925 -0.145521 0.493732 -0.417323 0.008186 -0.810861 0.100595 -0.467257 0.403984 -1.053183 0.096865 -0.451921 0.586991 0.429163 0.313255 -2.168508 -0.403196 -0.518812 0.108644 0.239462 -0.903403 0.114842 0.841209 -1.017400 0.032732 -0.359797 -0.023615 -0.136874 0.312564 0.810355 0.578150 0.088927 0.559318 -0.690767 -0.861495 -1.000677 0.520170 0.063010 0.332237 -0.836853 0.328495 -0.961946 -0.495767 -0.357754 -0.881125 -0.686260 -0.173194 -0.613194 0.128793 0.092935
мировой 0.151529 0.526085 -0.201442 0.134091 0.990571 0.488313 -0.887480 -0.058641 0.178515 1.173578 0.481678 0.205748 -0.182583 -0.648582 -0.072075 0.042197 -0.197443 0.728438 0.184829 0.030160 0.994455 -0.845438 0.717229 1.471581 -0.319396 -0.580137 0.324741 0.252909 -0.450796 -0.600768 0.021467 0.384296 -0.295305 0.161425 0.590350 0.283841 -1.001568 -0.755013 -0.455089 0.415064 0.226194 -0.861908 0.507273 -0.036989 1.136924 -0.468566 0.453162 -0.010176 -0.786356 -1.355158
из -0.854161 0.010851 -0.199179 1.151459 1.232069 0.406553 0.287310 0.822902 -0.301091 0.117204 1.119140 -0.314832 -0.761008 -0.917167 0.119383 0.823074 -1.823343 0.253487 -0.292145 1.329679 0.537135 -0.090125 0.153126 -1.009192 -0.632329 0.385962 -0.699190 0.829621 0.439393 -0.707716 -0.149018 -0.080196 -0.569144 0.118054 -0.046757 0.422455 0.484276 -0.063637 1.134106 0.013127 -0.316580 0.759674 0.037168 -0.914845 0.562253 -0.252569 0.450269 0.841390 0.186295 -0.013658
развитие 0.181730 0.114228 0.567661 -0.640561 -0.410648 -0.579489 -0.322083 0.379236 -1.283709 -0.713392 0.249690 1.581753 -0.570038 0.298606 -1.485377 1.122673 0.946039 0.061458 0.441335 0.818116 0.094073 -0.095000 0.327856 1.029532 -0.538353 -0.548231 0.454670 0.087377 -1.144706 -0.684033 0.557824 0.202956 0.225471 -0.321163 0.570516 0.232026 -0.216916 -0.352569 0.548117 -0.340325 1.604567 0.941702 1.280418 -0.294942 -0.265063 0.471343 -0.010329 -0.122255 -0.874628 -0.901791
аукцион -0.311442 -0.509798 1.075426 -0.234772 -0.048987 -0.315754 -0.129393 0.484668 0.198611 -1.315466 -0.588488 -0.429008 0.908025 -0.347169 0.303532 -1.189648 -0.044012 -0.086965 -0.265972 0.833767 -0.250374 -0.181883 1.514631 0.038464 0.225565 0.184836 0.123298 -0.465581 -0.416570 0.828670 0.672281 -0.036296 0.030963 -0.679737 -0.375368 -0.008443 -0.293586 -0.386987 0.123304 -0.614071 0.010094 -0.679704 0.222783 -1.285806 -0.679749 -0.895260 -0.527119 -0.374162 0.020951 -1.150731
об -0.012320 -0.645556 -0.617240 0.492779 -0.380380 0.293014 0.306830 1.437240 0.104941 0.036306 -0.737337 -0.095867 0.122626 -0.776904 0.662406 0.449970 -0.108745 -0.067937 -0.297277 0.939129 0.474587 0.812275 -0.467920 -0.215567 -0.829410 0.641138 -1.021778 0.446507 0.646227 -0.314244 2.190215 0.264125 -0.195965 -0.605086 -0.448988 -0.327064 1.495387 0.825007 0.280470 0.650015 0.808352 0.542626 0.410083 -0.023989 0.783353 0.306960 1.295349 0.085422 0.321893 0.460604
горизонт -0.937577 -0.247558 0.045623 -0.760674 -0.317726 -0.799920 0.096822 -0.020369 -0.751889 -0.160763 0.535789 0.399751 0.433460 0.192704 -1.168418 0.018008 0.524170 1.348742 0.932119 0.647967 0.213061 -0.362782 0.663225 1.166216 -0.212241 -0.432238 0.785358 0.223106 -0.260262 -0.765555 0.064034 1.114558 -1.190971 0.764797 -0.205775 0.199723 -0.045233 0.610036 0.425846 -0.308965 -0.091514 0.291679 1.377922 -0.054187 0.308377 -0.498831 -0.838839 0.195757 0.188826 -1.734068
ввп -0.418822 0.871054 0.098275 0.277325 -0.206173 0.489163 -1.387003 0.472847 0.222285 0.582311 -0.015802 0.366047 -0.749397 0.679783 -0.361299 0.204742 0.290199 0.220458 -0.211763 0.429971 -0.240712 0.336579 -0.339857 0.634597 -0.288686 -0.817724 -0.561644 0.763599 -0.572170 -0.011319 0.493732 -0.407866 -1.645232 -0.398784 1.059197 -0.178762 -0.335846 0.370001 -0.467707 -0.069912 -0.024599 1.091176 -0.744789 0.008758 -0.421587 -0.644890 0.097258 -0.180764 0.972031 0.900656
они -0.034657 -0.122226 -0.517416 0.209008 -0.272510 -0.617617 -0.611438 0.899914 -0.593996 0.198973 -0.906375 0.871594 -0.277538 -0.066970 -0.182874 -0.444568 -0.184885 1.403405 1.409835 0.327313 -0.205374 0.256988 0.347768 0.313573 -0.380967 0.055345 -0.240790 0.969228 0.554223 -1.188306 0.060052 0.662832 0.219325 -0.329567 -0.591680 -0.138888 -0.902238 -0.742242 0.219056 -0.110197 0.090421 -0.104238 0.267459 0.354037 0.468729 -0.965546 0.212307 -0.355866 -0.702830 -0.955001
устойчивый -0.922884 0.604615 -0.558556 -0.783504 -0.028284 -0.320579 -0.400612 -0.008908 0.100756 0.514088 0.100007 0.008332 -0.848936 -0.149850 -0.740196 0.396024 -0.134418 0.004626 0.128627 1.017476 0.788459 -0.611574 -0.184545 -0.260499 1.223700 -0.166123 0.145704 -0.741293 0.029718 -0.318352 0.512034 -0.768005 -1.344888 -0.047300 -1.497822 -0.468770 -0.145899 0.576691 0.281738 1.111557 0.286686 -0.472611 0.375448 0.197473 -0.347192 0.413111 -1.014747 0.949321 0.855056 0.195014
действие 0.298276 -1.311915 -0.829903 -1.048816 -0.703435 -0.779365 0.479073 0.444314 0.658809 -0.391519 -0.826014 -0.286141 0.858973 -0.081706 0.584718 -0.889306 0.077377 -0.707495 -0.687694 0.567366 -0.426186 -0.083628 0.988347 0.152119 -0.124589 0.496754 -0.219924 -0.304842 -0.991061 1.067784 -0.077468 0.945003 -1.197590 0.998392 -0.558973 -0.907176 0.106259 0.698409 0.357504 0.118432 -0.898072 -0.014961 0.296647 0.062923 0.497070 -0.617872 0.700828 0.460548 1.817874 -0.790544
продолжаться 0.253665 0.786798 -0.284822 -0.188260 0.854012 0.109139 -0.403580 1.461931 0.297088 0.067412 -0.719185 -0.115999 -0.189297 0.753171 -0.480942 0.474437 0.067439 0.275099 0.131046 0.187569 -0.072991 -0.312268 -0.279027 0.469145 0.021097 -0.966627 0.116374 0.230006 -0.091800 0.520656 0.208498 -0.701127 -0.076211 0.109090 0.492278 0.425014 -0.175836 -1.103394 -0.840795 -0.116780 0.391771 -0.351510 0.489396 0.176056 -0.772201 0.362143 -0.888535 0.262137 0.209217 -0.180929
близкий -1.405218 0.232733 0.645123 0.535095 -0.253578 -0.067823 -0.024302 0.858030 0.090423 -1.102805 0.810219 -0.464199 -0.129427 -0.338229 -0.587541 0.305870 -0.317338 -0.369634 0.267284 1.099285 -0.149288 0.390412 0.502355 0.455246 -0.417137 -0.196825 -1.402968 0.952466 0.118199 -1.286148 0.629899 -0.060169 -0.408643 -1.160746 -0.239269 0.024324 -0.215481 -0.024636 0.615800 -0.209845 0.500239 0.057378 -0.087086 -1.156860 -0.189151 -0.266027 -0.523014 -0.286579 0.668403 -0.450608
месяц -1.245291 -0.093024 1.420074 0.638618 -0.248226 0.154156 -0.290447 -0.037773 0.290579 -1.293514 0.178645 -1.086239 0.439994 0.408038 -0.673769 -0.913486 -0.011322 -0.570218 -0.194831 0.842525 -0.003742 -0.569358 1.494017 -0.373871 0.242719 -0.240886 -0.523769 0.606643 -0.038401 -0.186688 0.465729 -0.242901 -0.312776 -0.487066 -0.507094 -0.245465 -0.577889 -0.263154 -0.170848 -0.237149 -0.134958 -0.547437 -0.622574 -1.276710 -0.603607 -1.214272 -0.641044 -0.370186 0.679078 -0.604092
изменение 0.858356 -0.201637 0.179920 -0.420094 -1.123918 0.880734 0.031889 0.098247 -0.237516 0.591729 0.226554 0.776195 -1.395652 -0.262312 -0.049559 0.032397 -0.148394 1.246187 0.048041 0.412917 0.291391 -0.504018 -0.117023 0.040142 0.445298 -0.980658 -0.213298 0.918948 0.317206 0.146188 -0.160233 0.432653 0.120908 0.651999 -1.284662 -0.769026 -0.088424 -0.420391 -0.119743 0.374307 0.089156 -0.515680 0.819336 0.102726 -0.593137 0.718786 -0.512450 -0.177982 0.588235 -0.247255
восстановление 0.298057 1.461615 -0.022783 0.174709 0.311843 0.947478 -0.325284 0.132102 -0.367938 0.741901 -0.403499 0.170124 0.458273 0.092165 -0.332845 0.020927 0.149759 -0.300680 0.120510 -0.012503 0.494511 0.286005 -0.396738 1.005351 0.227928 -1.541866 -0.688898 0.337785 -0.350258 -0.185251 -0.332516 -0.635210 -0.324265 -0.294953 0.815397 0.370307 -0.533832 -0.046610 -0.559525 -0.472940 0.845455 -1.008695 0.582700 0.261574 0.951138 0.123465 -0.473208 0.614510 -0.472282 -0.307723
итог -0.084335 -0.173851 -0.325606 0.151616 0.280873 -0.366250 -1.424484 1.125690 0.905548 -0.846047 -0.517874 0.684562 -0.396912 1.126464 0.112712 -0.146022 -0.396094 -0.022750 1.321295 1.296023 -0.999401 0.429200 -0.050703 0.259457 0.107417 0.701731 -1.482686 0.698772 -0.964505 -1.291356 0.555681 0.112074 -0.652228 0.022935 -0.318547 0.177307 -0.628275 0.124022 -0.027926 -0.216353 -0.246695 1.018624 -0.728630 -0.222683 0.099925 -0.453236 0.463692 -0.032400 0.003239 0.012398
увеличение -0.013086 0.719725 -0.185341 0.044223 0.633600 0.462005 -0.192011 0.509760 -0.506399 0.795716 -0.052247 -0.605175 -0.303128 0.418356 0.063703 -0.366864 -0.181189 -0.030915 0.176488 0.094423 -0.555819 -0.463879 -0.183886 0.381929 -0.064103 -0.158338 -0.689417 0.350251 0.781472 0.205443 0.068630 -0.776994 0.024475 0.106622 -0.072209 0.021813 0.774143 -0.611285 -0.579162 -0.060079 0.209738 -0.671789 0.179917 -0.269679 -0.030163 -0.523072 -0.697495 0.607416 0.683704 0.430842
давление -1.225300 0.211297 -0.960825 0.155173 -0.144858 0.360095 -0.471955 -0.068690 0.209434 0.459652 0.683692 -0.599039 -0.135276 0.381016 -0.255243 -0.567915 0.779598 0.558717 0.906147 -0.437864 0.237322 -0.356284 0.007943 0.668503 0.150588 -0.158682 -0.302754 -0.201402 0.463659 -0.715546 -0.581885 0.201256 -0.606391 -0.178098 -1.349931 -0.932042 1.279704 0.385696 -0.459715 -0.923812 -0.229512 -0.650141 0.277764 0.223891 0.237611 -0.043208 -0.607345 0.431632 0.495044 -0.566240
способствовать 0.212019 0.163462 0.132523 -0.524752 -0.134163 0.970771 0.222524 0.907943 0.038674 1.217997 -0.337124 0.375896 -0.129957 0.721270 0.402137 0.545207 -0.075994 0.059758 0.138108 -0.326488 0.148098 -0.176954 0.386721 0.769917 0.257616 -0.329889 -0.591593 0.511930 0.069596 -0.418905 -0.617737 -0.943751 0.984125 0.002215 -0.861267 -0.022178 0.149585 -0.315504 0.067589 -0.082808 0.980652 -0.870771 0.351527 -1.087950 -0.189138 0.250953 -0.169355 -0.568716 0.875393 0.197018
чем -0.973783 0.953095 0.072117 1.323291 0.179108 0.923019 -0.446459 -0.047378 0.292792 0.226742 -0.686204 -0.259771 -0.699871 0.463785 -0.441738 -0.393933 1.024667 -0.360729 -0.307800 0.551141 0.147859 0.099019 -0.209336 0.206824 -0.099213 -0.616776 -1.212120 -0.531105 -1.355485 -0.477916 -1.341548 -0.419234 -0.379991 -0.740907 -0.050831 0.918684 -1.024651 0.492868 0.488704 0.383964 0.014529 -0.298160 -0.388512 -0.574850 2.120162 -0.712492 0.316558 0.728004 0.042513 -0.090439
труд -0.332869 0.564079 0.277545 -0.207590 -0.671175 -0.541116 -0.900494 0.306158 -0.010586 0.019653 -0.327500 0.608421 0.241048 -0.304262 -0.071787 -1.530184 -0.130225 0.842430 -0.343356 -0.096944 0.672463 0.469726 0.823638 -0.081954 -0.655065 -0.390855 -0.401396 -0.126085 0.390054 0.750796 0.142237 1.140290 0.291698 -0.604850 0.076920 -1.614146 -0.122352 -0.460966 -0.426226 -1.165931 0.648944 -0.464441 0.328250 0.331979 -0.239719 -0.938379 0.257981 -0.237514 -0.323183 -0.573239
дезинфляционный -0.527028 -0.205598 -0.532872 -0.311503 0.593089 -0.184878 0.198605 -0.595211 -0.203774 1.048474 0.773685 0.536253 -0.073073 0.038083 -0.891090 -0.643406 -0.204856 0.615420 0.432566 0.389201 -0.217754 -0.727822 0.615804 0.317302 -0.033524 0.190504 0.444515 -0.777985 -0.641180 -0.664955 -0.632406 1.111406 -0.120760 0.281920 -0.189807 0.272689 -0.586707 -0.150962 0.155801 0.307767 -0.655712 -0.390688 0.231932 -0.005748 0.732173 -0.487334 -0.014616 0.225163 0.728454 -0.192459
связанный 0.762080 -0.024748 -0.261925 0.735007 -0.617195 0.353145 0.178211 0.685158 -0.586259 1.888725 0.505284 0.535326 -0.908484 -0.519904 -1.065976 0.123481 0.441604 0.472228 -0.812177 -0.339020 -0.049822 -0.382861 0.606472 0.230901 0.224409 -0.080687 -0.332908 0.542939 -0.545190 -0.094788 0.105135 -0.201741 -0.533734 0.809060 0.227341 -0.452761 -0.782217 -0.277877 0.899908 -0.379188 -0.681734 -0.238571 0.042773 0.191026 1.373068 -1.069887 0.672721 0.174955 0.672425 -0.376792
проводить 0.294869 -0.094100 -0.054314 -0.187756 0.907798 -0.105698 0.269239 0.480815 1.363773 -0.348355 -0.592560 0.087850 -0.226780 0.530907 -0.282264 -0.240272 -0.244871 0.195312 0.959421 0.193630 -0.578451 0.035054 -0.091137 0.305554 0.475931 -0.086499 -0.033986 0.538699 -1.200315 -0.622844 0.363777 0.209190 0.505971 1.095862 -0.381238 0.596015 -0.521682 0.153445 0.851525 -0.579752 -0.413961 0.516654 -0.152418 -0.938730 -0.119968 1.584755 0.921894 -0.987439 0.833159 -0.762784
конец -0.133011 -0.529605 -0.656945 0.258571 0.079992 -0.134262 0.017818 -0.121872 0.073688 0.407123 -0.518380 -0.260400 -0.799430 1.218156 -0.764994 0.031882 1.050974 -0.822124 0.025871 -0.365411 -0.696669 -0.454327 0.159714 0.239337 -1.030961 -0.113476 -0.324631 0.408239 -0.454664 -0.248228 0.450959 -0.078781 -0.407307 0.426160 -0.353618 -0.481386 0.316121 -0.589267 0.056878 -0.152500 0.518390 0.979027 -0.705130 -0.276461 0.064887 0.397211 -0.171529 -0.399059 1.103136 0.526459
ожидать -0.182857 -0.226746 0.640029 0.186627 -0.642170 -0.059761 0.408503 0.713616 -0.468487 0.284094 -0.047325 0.767311 0.086488 -0.125503 -0.683118 0.562549 -0.006646 -0.559235 0.172044 0.688492 -0.317091 -0.692506 0.393491 0.603321 -0.382516 -0.665545 0.452802 0.631763 -0.291217 0.181618 0.251557 -0.953952 -1.040091 0.382293 -0.448357 0.878913 -0.406534 0.239183 1.805295 0.008810 1.256159 0.499875 0.864419 -1.343548 -0.180276 0.280547 -0.075759 0.440980 -0.525635 -0.970737
услуга 0.747734 0.046642 -0.447737 -0.325786 0.332919 0.556116 -1.049594 0.739138 1.107966 0.417992 0.349568 -0.032560 0.178552 1.429842 -0.265979 0.894837 -0.179404 -0.151053 0.129130 0.085663 -0.160801 -0.631288 0.379559 0.545086 0.043897 0.094429 -0.278635 0.321283 0.313829 -0.195841 -0.439230 -1.091559 0.561307 0.585420 -0.002522 -0.603856 0.816709 0.876444 -0.433815 0.018693 0.952766 -0.868884 0.199204 0.271313 0.067509 -0.320513 0.402133 0.308947 -0.968940 -0.109449
начало -0.195884 -0.129766 0.297035 0.381214 0.396903 0.327957 0.396586 0.004469 0.792256 -0.189754 0.214061 -1.000796 -0.474036 1.130814 -0.938428 -0.034238 0.971921 -0.378404 -0.368013 -0.576315 -1.010560 -1.005769 -0.344081 0.425954 -0.276162 -0.055658 -0.647562 0.576962 -0.308571 0.359953 -0.052193 -0.397873 -0.296558 1.050604 -0.008276 0.749867 -0.128865 -1.027428 -0.332631 -0.142467 0.002591 0.331565 -0.529735 -0.135495 0.545264 0.372961 -0.791554 -0.023124 0.350864 0.526270
сценарий -0.227350 -0.097516 0.578344 0.139273 1.253875 -0.015623 -0.193683 -0.267975 0.002028 0.549204 1.558557 0.602981 -1.642483 0.281027 0.045303 0.536205 -0.201571 0.429109 0.033796 0.524690 -0.165077 -0.346283 0.193334 -0.327825 -0.315065 0.082104 -0.261649 -0.265447 -1.281123 -0.878581 -0.421360 -0.100674 0.063922 -0.103335 0.330752 0.253363 -0.019034 0.235282 1.150944 0.474774 -0.176202 0.569260 -0.133541 -0.483214 1.153926 -0.802197 0.762323 -0.124087 0.468603 -0.061370
значение -0.059360 -0.580775 0.465476 0.576015 -0.438985 -1.121229 0.646357 0.778838 0.310228 -0.551521 0.018681 -0.734658 -0.588318 -0.278612 0.327744 0.313987 1.450809 -1.299887 -0.552379 -0.463947 -0.464320 1.200806 0.507174 -1.048665 -0.847748 -0.293311 -0.269392 0.274954 0.122329 0.385968 0.554367 -0.721374 -0.451918 -0.379360 0.835385 -0.787497 -0.095169 0.330510 0.279300 -1.008674 0.477493 0.129721 0.071464 0.580776 -0.446384 0.274130 -0.099841 -0.091104 0.421002 -0.658578
сбережение -0.581562 0.393751 0.395503 -1.051128 0.539349 0.450918 0.770723 -0.081088 0.408543 0.062466 0.003117 -0.503289 -0.316919 -0.343446 -0.261685 -0.039699 0.342206 0.230130 -0.347320 -0.395802 -0.275092 -0.126314 -0.089807 -0.392056 -0.079378 -1.334208 -0.300517 -0.230651 1.005548 0.705137 -0.509522 -0.338418 0.766628 -0.559073 -1.177018 -0.381736 -0.021958 0.130975 0.678311 -0.183017 0.861462 -0.783758 -0.189860 1.120960 0.142749 0.135713 -1.028540 -0.632776 1.353400 -0.033591
предложение 0.714124 1.219097 -1.118907 -0.277983 0.561114 0.159173 -0.258034 0.563778 -0.382326 0.456779 0.191611 0.047849 -0.188814 0.018600 -0.883866 0.628116 -0.754296 0.104126 0.349535 -0.061486 0.215513 -0.962953 0.306615 0.306254 -0.747772 0.357142 -0.565181 -0.086178 0.364964 0.076397 -0.857651 0.720891 0.043210 0.096132 -0.541038 -1.283419 0.412757 0.285186 -0.196966 -0.158108 0.565337 -0.652241 -0.083864 0.394898 -0.466982 -0.816368 0.220461 0.741782 -0.073726 -0.760248
значительный 0.071998 -0.066415 0.389926 -0.235897 0.135989 0.467265 -0.389556 -0.771530 -0.020893 0.588272 0.156619 -0.196266 -0.352324 0.549894 0.165812 -0.675550 0.308124 -0.116667 -1.002637 0.335624 0.200069 -0.686019 0.272123 0.487456 -0.007949 -0.088241 -0.482264 -0.737828 -0.822601 0.460582 -0.072413 0.474482 -0.085759 0.272596 -0.310067 0.330663 -0.288473 0.039306 0.171935 0.074088 0.790163 -0.448642 -0.275061 -0.063691 1.151757 -0.194678 -0.010717 0.233447 0.154442 0.197564
март -0.341874 -0.951315 -0.535480 0.918825 -0.353815 0.421171 -0.286516 0.872833 0.808149 -0.254309 -0.787132 -0.123548 -1.030784 0.944225 -0.235605 -0.017344 0.104208 0.217984 0.164195 -0.188508 -0.731608 -0.537635 -0.188935 0.303948 -0.299323 0.188325 -0.261832 0.658445 0.207518 -0.292363 0.645835 0.048484 -0.269858 0.637263 -0.296750 0.458043 -0.001928 -0.626394 -0.238933 0.919253 0.136743 0.263751 -0.671866 0.396828 0.185088 -0.121201 -0.196572 0.063157 0.618992 0.315195
ситуация -0.211697 0.113967 1.026961 -0.105707 -0.295189 -0.754595 -0.197812 0.181621 -1.080910 -0.383816 0.681747 1.224976 -0.654252 -0.142417 -0.988621 0.962123 0.710407 -0.004463 -0.013713 0.182254 0.814587 0.129832 0.530861 1.201541 -0.582094 -0.114266 -0.144048 0.351013 -0.915796 -0.850942 0.698186 0.070791 1.009202 -0.557353 1.440272 -0.078390 -1.110577 -0.973064 -0.076113 0.306494 0.764570 0.462571 0.352440 -0.331918 -0.186329 -0.473423 0.921376 -0.700665 -0.265113 -0.627248
расширение 1.077816 1.013335 -0.534737 -0.326689 0.792168 0.261496 -0.310309 0.160332 -0.656967 0.225027 1.285339 -0.011904 -0.159108 0.367700 -1.413335 0.341969 -0.301910 -0.286210 0.955753 0.665435 -0.663156 -0.046913 -0.131715 -0.227044 0.661518 -0.060120 -0.727876 -0.726668 0.005512 -0.116772 -0.603453 0.129726 0.577166 0.040370 0.310959 -0.423808 1.190117 0.367395 -1.097735 -1.024766 -0.036453 -0.764392 0.828482 -0.215439 -0.518153 0.009124 -0.389738 0.653890 0.429567 0.011047
запланировать -0.394432 -0.789627 -0.157450 0.583703 -0.635376 0.472175 -0.470592 1.115698 0.076565 -0.715363 -0.581798 -0.373031 0.164660 0.039887 0.931869 -0.043171 0.044465 0.048873 -0.532362 0.447447 -0.798259 0.072807 -0.134379 0.341702 -0.898547 0.579971 -0.340074 0.768586 0.602144 -0.017783 1.591120 0.074668 -0.659445 -0.110145 0.467854 -0.109444 1.431792 0.494655 0.083540 0.497288 0.578362 0.565097 -0.249755 0.457259 0.466968 -0.606415 0.477567 0.526694 -0.740613 0.134083
ослабление -0.033169 0.229370 -0.293441 0.200259 -1.318726 0.706451 0.286160 -0.243316 0.073654 0.108471 0.095712 -0.371878 -0.689003 0.442410 -0.704453 -0.068780 0.034874 -0.924539 -0.493726 -0.481257 -1.066761 -1.191078 0.037044 0.625152 -0.475682 -0.134081 -1.379313 0.769549 0.363561 0.017131 -0.974755 0.442292 -0.199334 0.274018 -0.844576 -0.176703 -0.016699 -0.758115 0.230936 0.557915 0.540842 0.004330 -0.335103 -0.004443 1.018823 -0.611290 -0.719596 0.103501 0.504503 0.138526
апрель -0.588821 -0.943952 -0.315002 1.018952 -0.413462 0.634753 -0.312302 0.740581 0.490975 -0.362584 -0.544217 -0.319815 -0.947035 0.877748 -0.053429 0.183895 0.323417 -0.002775 0.159392 0.050653 -0.726696 -0.417355 -0.135320 0.069312 -0.257313 0.154148 -0.495837 0.658712 0.079771 -0.331579 0.529004 -0.145426 -0.746988 0.484989 -0.217570 0.665752 0.071196 -0.442944 -0.291516 0.896545 0.183354 0.381518 -0.563078 0.272757 0.109431 -0.345312 -0.360488 0.313515 0.643625 0.243503
ликвидность 0.417042 -1.023032 0.534619 -0.408146 -0.995611 -0.710823 -0.261229 1.289083 0.647968 -1.662900 -0.786643 -0.295087 -0.347822 -0.342030 0.073856 -0.012014 0.315190 -0.423152 -0.701492 0.494862 -0.548225 0.600518 0.813177 0.370479 0.465549 0.393731 0.211673 -0.499316 -1.067232 0.903381 0.498554 0.122837 0.599140 -0.274434 0.526798 -0.524361 0.666748 0.583117 0.308549 -0.154893 -0.266488 0.581797 0.753310 0.177326 0.384807 -1.181599 0.281451 0.189516 -0.673283 -1.099253
предприятие -0.592345 -0.585227 0.233979 0.271096 0.199236 0.310190 0.054593 -0.182778 0.182250 -0.510487 0.423169 0.297421 0.071616 0.602280 -0.725652 0.176745 0.240341 0.763540 0.678220 -0.862028 0.704446 -0.107317 0.030911 -0.870867 0.968127 -0.190612 -0.083290 -0.216441 0.846795 -0.313602 0.334437 -0.548344 -0.082981 0.877199 -0.349401 -0.402710 -0.308789 -0.103801 -1.023740 0.020983 0.392663 -0.295636 -0.839411 1.287861 0.358183 -0.668408 -0.530803 -0.223107 -0.334264 -0.636463
существенный -0.346740 -0.334334 0.043710 -0.438340 -0.111187 0.335244 0.532271 -0.052885 -0.392888 0.782085 0.354054 -0.072708 -1.007991 0.482520 -0.286286 -0.256672 1.163862 0.284454 -0.814250 0.374681 -0.263567 -0.459562 0.416832 0.399713 0.263959 -0.162549 -0.509516 -0.590550 -0.476269 -0.117344 -0.734048 0.155285 -0.150676 0.070424 -0.357311 0.886664 -0.006359 -0.402123 -0.181992 0.320932 0.544003 -0.662147 0.031945 0.265829 0.929539 0.124861 -1.254756 0.235332 0.666670 0.075256
фон -0.257679 0.552556 0.503747 0.321787 0.105789 0.029152 0.129385 -0.021603 0.074264 -0.151515 0.117907 -0.561852 -0.589213 0.862633 -0.514737 0.017331 -0.000540 0.222699 -0.061176 -0.444712 0.175999 -0.078399 0.418034 0.911029 0.305236 -0.143809 0.014383 0.276950 0.686604 -0.109816 -0.529296 0.054559 0.994767 0.030743 0.486780 0.782233 0.187660 -0.934101 -0.768711 0.437837 0.562982 -0.863770 0.639335 -0.090732 0.352008 -0.385767 -1.196306 -0.764423 -0.099107 -0.599458
находиться -1.001476 0.359625 -0.466182 0.631925 -0.045508 -1.150076 -0.178493 -0.628176 -0.762979 -0.932240 -0.772546 0.354412 -0.368061 1.003677 -0.402369 -0.430662 -0.164543 -0.048356 1.288270 -0.336500 1.205785 0.251409 -0.279475 0.731092 0.225674 -0.190054 0.271866 0.247225 -0.035759 -0.649931 0.677259 -0.406465 0.540517 -0.023769 0.172500 -0.696555 0.178270 0.292055 0.439027 -0.332919 0.089142 0.501026 -0.395713 -0.616557 -0.597514 1.221294 1.083799 -0.703264 0.907652 0.019398
краткосрочный -0.645480 -0.247253 -1.044404 -0.171171 0.180657 0.017528 0.124088 -0.208705 -0.545176 -0.171552 0.286256 -0.340830 0.260144 -0.553368 -1.065630 0.242174 0.492979 0.463007 -0.295408 0.129763 0.021722 -0.355762 0.414456 0.983331 -0.166610 -0.178151 0.399545 -0.434820 0.168386 0.237425 0.219988 1.110245 -1.008236 0.976576 0.288248 -0.379833 -0.243295 -0.223884 -0.027787 0.189352 -0.966200 -0.005827 0.554757 0.431197 0.868519 -0.612693 -0.568377 -0.000272 1.495223 -1.299705
эффект -0.542326 0.407271 -1.016564 0.540011 -0.224985 0.561191 0.493140 -0.924406 -0.097315 0.940992 -0.055987 -1.310459 1.139988 0.140487 -0.666546 0.571440 0.419242 -0.589334 -0.059855 -0.291365 0.059493 -0.184142 0.535583 0.476451 -0.394652 0.193662 -0.069035 0.834209 0.492258 -0.426224 -1.142265 1.008459 -0.733586 0.744479 -0.752157 -0.138033 -0.205556 -0.086666 0.794244 -0.418469 -0.907245 0.480906 0.319719 -0.686768 0.365622 -0.151078 0.202627 -0.245057 1.421126 0.017488
дополнительный -0.095670 -0.164033 -0.255909 -0.216124 0.225810 0.988315 0.497739 -0.740416 0.055690 0.040051 2.118889 0.020677 0.191966 0.115496 0.051853 -0.191779 -0.392831 0.250728 0.645444 -0.508598 -0.279707 -0.804839 -0.283184 0.751725 0.449481 -0.212131 -0.175199 -0.256522 -0.450498 -0.566062 -0.576271 0.925785 0.165305 0.463322 -0.240074 0.193379 0.710392 0.114476 -0.954055 -0.898660 -0.887551 -0.721897 0.183415 0.257789 -0.431993 0.469234 0.023725 0.443112 0.483901 -0.247014
ожидаться -0.356535 1.156322 0.164723 0.360662 0.546553 0.381069 -0.889739 -0.212964 0.176262 0.605534 0.082138 -0.127503 -0.732930 0.587476 -0.480554 -0.150250 0.443398 -0.490824 -0.327474 0.408257 -0.268300 -0.289818 -0.333655 0.505270 -0.465043 -0.543761 -1.305386 0.200084 -0.903265 -0.812310 -0.823570 -0.386040 -0.338703 -1.080421 0.124337 0.519220 -0.666979 0.058996 0.198252 0.864434 0.185334 0.012588 -0.697309 -0.608100 1.512722 -0.551897 0.164411 0.313402 -0.233403 0.893021
следующий -0.838711 -0.100114 -0.404326 0.967751 0.420909 -0.241544 -0.327107 1.344146 -0.341430 0.287789 -0.314760 0.795731 -0.238009 -0.501495 0.668443 -0.379845 -0.937303 0.716398 0.968856 1.121723 -0.076488 0.462632 -0.027525 -0.008534 -1.023407 0.660606 -0.703639 1.103937 0.230585 -1.308551 1.602314 0.034885 -0.411509 -0.666026 -0.188140 0.398150 -0.257530 -0.802491 1.079648 -0.365109 0.152935 0.874981 -0.258354 -0.804368 -0.183551 0.024448 0.968939 0.195260 -0.574226 -0.669396
рефинансирование -0.038441 -0.866062 0.416453 0.588145 -0.363811 -0.643612 0.405583 1.083808 0.464176 -0.416762 -0.084536 -0.446266 -0.316763 0.150961 0.791173 0.020033 1.023924 -0.449276 -0.195790 -0.473155 -0.553934 1.072211 0.394652 -0.762693 -0.205780 -0.220852 -0.503617 -0.013988 0.040560 0.652136 0.419857 -0.642561 -0.303942 -0.292252 0.978682 -0.330071 -0.123671 0.005261 -0.485170 -0.610083 -0.070131 -0.363234 -0.171574 0.767088 -0.562517 -0.301969 -0.381007 -0.021563 0.764491 -0.300593
актив -0.098655 0.484840 0.936486 -0.142984 0.220864 -0.565129 -0.830439 -0.197699 0.256110 -1.492164 -0.480674 -0.392306 0.855304 0.106439 0.032690 -1.018995 -0.096170 -0.285666 0.128498 0.535315 -0.443783 -0.461911 0.941735 -0.934213 -0.156417 -0.551524 0.392115 0.297581 0.526946 0.684829 0.706064 -0.263274 0.685044 -1.212624 -0.722067 -0.732951 -0.241013 -0.748409 -0.207224 -0.378244 0.605021 -0.960869 -0.712680 -0.636562 -1.256185 -1.228608 -0.222605 -0.891011 -0.791637 -0.032756
возможность 0.981781 0.845231 -0.295927 -0.418530 0.056021 -0.226457 -0.218304 0.855496 -1.397684 -0.471210 0.716195 0.014067 -0.312253 -0.359862 -0.938883 1.316488 0.290217 -1.031436 1.340564 0.938117 -1.573451 0.730770 -0.165097 0.182569 0.771096 0.064152 -1.439596 -0.699676 -0.158279 -0.822408 -0.135652 -0.762632 0.556281 -1.347495 0.575293 -0.454019 0.980966 0.197414 -0.390476 -0.262800 0.072049 -0.348871 0.425874 -1.209068 -0.547444 -0.606846 -0.699422 0.331178 0.464895 -0.093349
использование -0.491716 -0.681808 -0.396835 0.901442 -1.238420 0.234278 -0.311734 1.248988 0.377242 -0.723223 -1.007203 0.504455 -0.536447 0.713331 0.126014 0.141251 0.614883 -0.227622 0.723821 -0.212575 -0.285504 1.374302 0.203289 -0.018277 0.753869 0.438196 -0.381068 -0.059037 -0.399064 -1.190826 0.303734 0.453151 0.535469 -0.437161 1.452710 0.230781 1.104236 0.489287 -0.736404 -0.077924 0.478374 0.894829 -0.019178 0.963475 0.376523 -0.950888 0.255308 0.020798 -0.736524 -0.057079
реакция -0.317335 0.333618 -0.836120 -0.065895 -0.551978 0.293057 -0.507131 0.924850 -0.564593 0.067265 -1.007685 1.155656 0.229815 -0.000056 0.126428 0.148829 -0.479094 1.514155 1.874931 0.456305 -0.274938 0.255067 0.157128 0.929500 -0.349932 0.205729 -0.398738 1.008474 0.694170 -1.244787 -0.519990 0.711151 0.231569 0.017053 -1.013950 0.205018 -0.902838 -0.613976 0.211593 0.253224 0.685855 -0.178919 0.587140 0.122771 -0.094436 -0.798098 0.050393 -0.003319 -0.840113 -1.498953
реальный 0.329346 0.358376 -0.093674 -0.444919 0.023326 0.023586 0.062371 0.381587 -0.918726 0.285363 -0.691229 0.565292 -0.460041 0.660750 0.464692 -0.866305 0.014042 0.705946 -1.220796 -0.005092 0.318222 0.705444 0.385378 0.559315 0.597087 -1.786226 -0.309788 -0.247367 0.670714 1.758968 -0.794672 -0.448520 0.755295 0.053419 1.036942 0.428773 0.486140 -0.651111 0.128774 -0.880550 0.906934 -0.738923 0.185263 -0.209885 -0.474947 -0.259961 -0.700660 -0.629416 1.510260 0.290101
приводить 0.655423 0.830157 -1.082008 -0.177484 0.161716 -0.280870 -0.003921 -0.554865 0.627020 0.857976 0.617414 -0.002747 -0.774410 -0.624853 -0.227969 -1.401166 -0.169562 -0.577938 -0.311608 -0.250548 -0.544122 -0.549943 0.286653 0.906722 -0.950820 -0.589631 -0.569400 -0.709371 0.357954 0.420369 -0.131394 0.650211 0.046792 -0.829438 -0.693160 -0.827624 -0.628831 -0.721408 0.823193 -0.455314 0.117423 -0.703766 0.071846 0.635883 0.573144 0.368863 0.284591 0.000439 0.545999 -0.653160
служба -1.082431 -0.280613 -0.497124 1.160088 -1.151019 0.660806 0.283060 0.960595 0.239572 -0.331817 -0.569439 0.514178 -0.758437 -0.086813 0.645419 0.451089 0.146261 -0.029952 0.858668 -0.277943 -0.368073 0.653897 -0.151053 0.387271 0.365225 -0.360960 -0.187971 0.651865 -0.213338 -1.384670 0.076147 0.570577 -0.137919 -0.320082 0.884882 0.886856 0.784609 0.018469 -0.000226 0.824158 0.327344 0.351416 0.363903 0.429376 0.006084 -0.372587 -0.195602 0.239573 -0.951268 -0.329707
создавать -0.602300 -0.835623 -0.646371 -0.411481 0.840544 0.619424 -0.276049 -0.064378 0.131853 0.609094 0.434842 0.418771 -0.702170 0.261018 0.834715 -0.721724 0.983225 0.984535 0.671872 -0.131801 0.013660 0.239721 0.175153 0.231812 -0.437962 -0.400878 -0.062815 -0.926130 -0.349627 -0.621177 -0.150119 0.365421 0.483644 -0.723844 -1.388150 -0.564813 -0.278600 -1.066575 -0.835839 -0.423831 -0.469588 -1.355574 -0.093001 0.103307 -0.134124 0.449533 -1.042581 0.168719 0.905703 -0.092978
материал -0.664814 -0.259382 -0.352533 0.757230 -1.216921 0.357042 -0.159013 1.111684 0.085056 -0.284481 -0.837884 0.655569 -0.560051 0.619091 -0.083748 0.352810 0.419592 0.176156 0.951795 -0.221583 0.037318 0.905952 0.301988 0.263678 0.732697 0.146461 0.040214 0.130228 -0.644413 -1.440616 -0.240940 0.444896 0.432008 -0.286087 1.321534 0.424367 0.782699 0.469406 -0.676832 0.290738 0.654953 0.582805 0.216476 0.710029 0.131820 -0.849211 0.134129 0.225357 -0.889633 -0.230892
обязательный -1.156252 -0.851883 -0.387725 1.396553 -0.930511 0.762981 0.350445 1.243050 0.495712 -0.476485 -0.825608 0.407480 -0.907178 0.083858 1.146659 0.475695 0.226918 0.144913 1.133304 -0.200483 -0.696725 0.828864 -0.426070 0.395772 0.075384 0.156478 -0.449622 0.780723 -0.221551 -1.569428 0.755430 0.311500 0.038259 -0.174881 0.624874 1.019303 1.021455 -0.176626 0.233278 0.771835 0.158715 0.928662 0.018733 0.081307 -0.169289 0.040390 0.153916 0.137538 -0.777546 -0.294338
перспектива -0.241881 -0.397343 0.086881 0.084584 0.782306 -1.031749 -0.216034 -1.082861 -0.835730 0.750039 0.244503 0.457879 0.231007 0.168028 0.210569 -0.658141 0.428802 0.478369 1.285238 0.123955 1.125553 0.239471 0.366117 0.943033 -0.386766 -0.964211 0.468554 0.593845 -0.202587 -1.264171 1.056885 0.503046 -1.300547 -0.238988 0.740705 0.216283 -0.539393 0.078748 -0.335566 -0.295679 -0.217751 0.538850 0.297997 -0.036913 0.197007 -0.231683 0.342714 -0.609673 0.272053 -0.260964
релиз -0.795219 -1.381969 -0.496328 0.492655 -0.635657 0.354460 0.326164 0.737672 0.419071 -0.323599 0.026245 0.313768 0.607988 -0.113843 1.461046 0.585325 0.276042 -0.604852 0.154184 0.286233 -0.425528 0.910638 -0.769723 -0.275099 -0.181221 -0.428772 -0.901743 0.759681 0.701820 -0.348175 1.030213 0.709569 -1.501054 0.180327 0.060489 1.084268 1.172821 0.112808 -0.282100 0.937228 0.596802 0.339122 0.100459 0.511338 0.261095 0.366270 -0.855304 0.142216 -0.363651 0.949131
сдерживать -0.616458 0.762319 -0.612652 0.331624 -0.439091 0.216977 0.893642 -0.470437 0.174151 0.732418 0.071954 -0.014166 0.373471 0.238207 -0.453692 -1.049971 -0.655102 0.252217 0.627565 -0.306753 0.161268 -0.453658 -0.027552 1.104739 -0.068447 -0.191049 -0.146149 0.062965 -0.293550 -0.475405 -0.676867 0.782752 0.099602 -0.284530 0.417240 1.363733 -0.320941 0.640628 -0.853077 -0.064420 0.617247 -1.224120 0.271699 0.074698 -0.386028 0.942237 0.216811 -0.181028 1.198488 0.661027
ссылка -0.780015 -0.130659 -0.397607 0.854146 -1.223602 0.464852 0.042629 1.059293 0.185642 -0.211158 -0.786570 0.563612 -0.521486 0.331344 0.190075 0.362446 0.265520 0.255166 1.004189 -0.297930 0.017546 0.646248 0.278973 0.389775 0.571547 0.060042 0.106783 0.355527 -0.421252 -1.426527 -0.196020 0.493030 0.290291 -0.306270 1.137707 0.525360 0.860850 0.468576 -0.542199 0.579797 0.524599 0.444216 0.382014 0.606760 0.014698 -0.760575 0.108684 0.279444 -1.003103 -0.351612
ценовый -1.008574 -0.573576 -0.116140 0.181951 0.027680 -0.181737 -0.360525 -0.031874 -0.013414 -0.737417 -0.205156 0.585268 -0.712027 0.493568 -0.942567 0.344379 -0.283479 1.181749 1.126436 -0.281549 0.918086 -0.599924 0.048224 -0.016814 1.104856 -0.553151 0.752682 -0.033219 0.672068 -0.400462 0.297570 -1.109644 -0.323166 0.795931 -0.739450 -0.409243 -0.941269 -0.163020 -0.085730 0.735145 0.801661 -0.183643 -0.593418 0.706247 -0.281095 0.130497 -0.708442 0.258243 -0.038285 -0.941065
структурный -0.066878 0.685638 -0.640960 -1.058053 -0.613546 0.369220 -0.062208 0.235317 0.224507 0.250576 -0.012531 1.007996 1.019891 -1.013031 -0.388869 0.128313 -0.343272 0.561681 -0.396025 0.450045 -0.485982 -0.960412 -0.300601 0.776279 0.034412 -0.567539 1.116683 0.282124 -0.657396 -0.126187 0.456063 0.427710 -1.078688 -0.187173 -0.118604 -0.079637 0.485791 0.189367 0.315751 -0.144774 0.028847 0.259989 1.213058 0.528373 -0.309045 1.424926 0.233368 0.176287 -0.915231 -0.524506
траектория -0.032662 -0.239907 1.330468 0.202944 1.578042 0.174372 0.386762 -0.753844 -0.537268 0.674900 1.063078 -0.196187 -0.087147 -0.567821 0.442174 -0.803915 -0.356770 -0.323645 0.542925 0.846172 -0.182677 -0.195926 0.479500 -0.151183 -0.208816 -1.461899 -0.376058 0.191134 0.152102 -0.030333 1.205117 0.299612 -0.670723 0.083173 0.719367 1.288532 0.322707 -0.204333 0.734847 -1.096648 0.321617 0.452805 0.607513 -0.827888 0.083988 -0.485408 -0.522919 -0.167845 -0.581145 -0.404178
целое -0.168006 -0.187796 0.502491 0.646718 0.938330 0.360464 0.248536 -0.284241 -0.795209 -0.394084 1.017899 0.297379 -0.743375 0.797279 -0.505409 -0.184629 -0.355539 0.581136 0.506989 0.109428 0.172246 0.451480 -0.389742 -0.836296 0.402489 0.177201 -0.399759 0.168650 0.270248 -1.065589 -0.039675 0.162966 0.596828 0.383858 0.634929 0.499455 0.427548 -0.353461 -1.069228 -1.124068 0.160249 -0.030419 -0.553610 0.020549 -0.062609 0.829834 -0.296474 0.007390 0.924966 0.379276
московский -0.181619 -0.902105 0.106859 -0.096643 -0.071765 -0.284186 -0.582708 0.543489 0.459207 -0.374736 -0.154380 0.919337 0.204999 0.118646 0.892674 -0.413581 -0.223934 -0.077613 0.491039 1.048078 -0.154248 1.329709 -0.087308 -0.576614 0.884721 -0.514723 -0.744329 0.163969 -0.504880 -0.559820 0.492094 1.138240 -0.982975 0.392272 0.596320 0.840027 0.284302 0.590075 -0.330833 -0.264522 0.276138 0.158521 0.227966 0.491669 0.632226 -0.288351 -0.711846 -0.187533 0.011034 0.610017
связывать 0.774318 -0.185957 0.301825 -0.695561 -0.439277 0.053075 0.781220 0.133302 -0.703854 0.925018 0.741137 0.355501 -0.569775 -0.332655 -0.724808 0.644016 -0.209224 0.716594 -0.488324 -0.071802 0.356261 -0.542635 0.229437 -0.258909 0.391048 0.168236 -0.135070 0.770196 -0.106760 -0.003629 -0.601953 0.205863 -0.023505 1.240709 -0.760348 -0.269043 -0.743352 0.652083 0.586080 -0.350417 -0.015115 -0.328279 0.536225 0.681149 0.872089 -0.595435 0.134672 -0.172544 0.633418 -0.435325
тенденция -1.300393 -0.428982 -0.472470 -1.050965 0.288369 -1.023788 -0.460578 0.252349 0.256231 -0.425392 -0.182334 0.711217 -0.186492 -0.140964 -0.235009 0.206274 0.471621 -0.009437 -0.787396 -0.246819 0.895098 -0.224848 -0.138848 0.060938 -0.403149 -0.048826 0.488177 -1.086291 -0.746854 -0.442010 -0.237116 -0.073593 -0.066068 -0.804748 -0.379658 0.400184 -0.467563 -0.383497 0.167164 0.660508 0.719048 -0.550650 -0.324697 0.433460 0.634129 1.160323 -0.523136 -0.279244 0.501820 0.421793
вопрос -0.640150 -0.541058 -0.945380 0.771559 -0.723408 0.145346 0.526893 1.375830 0.335477 -0.248666 -0.978941 -0.476888 0.486544 -0.244880 1.140678 -0.315087 0.194888 -0.130640 0.380415 -0.156434 -0.064613 1.344908 -0.483894 0.364628 -0.925274 1.071478 -1.152060 0.673650 1.016791 -0.956108 1.550616 0.265477 0.558167 -0.955606 -0.272674 -0.312201 1.635018 0.618562 0.114341 0.239405 0.470037 0.346893 0.133379 -0.334699 0.469413 0.673102 1.268771 -0.466001 0.181840 0.445521
жесткий -0.198245 0.285758 0.195490 -0.467001 1.059676 0.444809 0.838078 -0.359102 0.617929 -0.128683 -0.477821 -0.551446 0.446526 0.552531 -0.690673 -0.500521 1.004991 0.046351 0.738502 -0.200561 -0.147874 0.435912 -0.272179 0.182172 0.563428 -0.724911 -0.586376 -0.287615 -0.689582 -0.894705 -0.342948 0.327588 1.172961 0.184234 -1.054607 1.074560 0.420249 0.221999 0.316921 -1.182641 0.649443 -0.172522 0.573963 -1.007437 0.383908 1.986393 -0.197802 -1.181061 0.569235 -0.323339
заработный 0.444055 0.238111 -0.283079 -0.075846 -0.582839 -0.004411 -0.499578 0.205638 -0.945047 1.139136 0.295228 0.688508 -1.159994 -0.305491 0.751727 -0.694874 -0.346899 0.945259 -1.094383 0.089547 0.808788 0.464174 0.644652 0.341362 0.412351 -1.253317 -0.164963 -0.138091 0.934142 2.036184 -0.488125 -0.324616 -0.370154 0.414339 0.443799 -0.535329 -0.211980 -0.741314 0.627460 -1.013188 0.420569 -0.561258 0.669888 -0.021121 -0.501291 -0.464297 -0.772890 -0.189496 1.750357 -0.459258
плата 0.587157 0.256839 -0.531939 -0.078483 -0.535539 0.259354 -0.616917 0.104459 -0.917263 1.255732 0.215388 0.736246 -1.123721 -0.344566 0.799041 -0.429461 -0.198717 1.041595 -0.936631 0.164863 0.890156 0.535474 0.445999 0.441041 0.481202 -1.130908 -0.219711 -0.196385 0.927531 1.697531 -0.354494 -0.245483 -0.255904 0.441107 0.282566 -0.745282 -0.164551 -0.597433 0.547958 -0.870266 0.387397 -0.503233 0.635194 0.204127 -0.370482 -0.272148 -0.592103 -0.021389 1.653100 -0.372745
публикация -0.892355 -0.844381 -0.482307 0.601210 -0.693229 0.297214 0.049571 0.496358 0.436971 0.044075 -0.038281 -0.084582 0.406472 0.040071 0.763138 0.080131 0.471600 -0.562445 -0.391921 0.290837 -0.261255 0.398255 -0.397557 -0.085677 -0.459221 -0.102915 -0.711796 0.774512 0.563354 -0.317023 0.894241 0.753740 -1.524306 -0.002267 -0.154546 0.555986 0.976777 -0.125279 -0.406689 1.097241 0.161082 0.158653 0.048438 0.344394 0.407099 0.107829 -0.745949 0.213700 -0.380026 1.185435
увеличиваться -0.633828 -0.290099 -0.100493 1.010677 0.584484 0.710694 -0.593093 0.206925 0.232629 -0.367651 -0.487473 -1.104943 -0.491617 0.839903 -0.802209 0.181307 -0.096001 0.399339 0.249835 0.253006 0.166483 -0.869626 0.231456 0.128810 0.097958 0.073622 0.116074 -0.125774 -0.057669 0.619932 0.572195 -0.490138 -0.475759 0.738925 -0.261792 -0.282055 -0.110255 -0.158641 -0.630051 0.141770 -0.894795 0.160237 -0.359555 -0.604972 -0.398109 -0.769862 0.025831 0.284278 1.200599 -0.395213
июль -0.291269 -0.712374 -0.262299 0.668707 -0.258633 0.540176 -0.351485 0.806890 0.406728 -0.700195 -0.431350 -0.295948 -0.557296 0.985179 0.277434 0.735066 0.036094 -0.265080 0.181512 0.298241 -0.727044 -0.525693 -0.286048 0.542311 -0.102219 0.210625 -0.518347 0.576005 0.032133 -0.016172 0.726955 -0.350847 -0.564703 0.522972 0.091703 0.611248 0.162121 -0.482351 -0.326077 0.879186 0.254993 0.340855 -0.346920 0.039753 -0.353289 -0.199365 -0.015361 0.473612 -0.002044 0.163069
валютный -0.462577 -0.596852 0.691951 -0.108363 -0.902693 -1.431939 0.266683 -0.367166 0.228951 -1.590180 0.104438 0.658355 1.118000 -0.318313 0.220015 -1.079484 -0.554276 -0.638386 -0.387731 0.537892 0.179767 -0.505041 0.706173 -0.829023 -0.699175 -0.111874 0.730034 0.267357 0.328167 0.629502 0.557840 0.587759 -0.665491 0.084122 -0.618925 -0.160202 -0.417264 0.121880 0.427530 1.015102 0.397204 -0.819555 0.088519 -0.798047 -0.509493 -0.363100 -0.053431 -0.276353 -0.317297 0.055570
под -0.248095 0.004689 -0.938393 0.179939 -0.320875 0.304754 0.746838 0.633656 0.802281 0.865183 -1.563515 -0.377779 0.218853 -0.734587 -0.637197 -0.179239 -0.633063 -0.309243 -0.476907 -0.053952 0.582132 -0.606830 0.341466 -0.546539 -0.798085 -0.008551 -0.235729 0.898820 -0.161703 -0.409215 -0.180671 0.768412 0.277507 0.525913 -1.032707 0.007252 -0.644255 -0.329801 -0.227275 1.327189 -0.006452 -0.881752 0.515442 -0.325516 0.852559 0.792367 0.688767 -0.199775 0.862922 0.023523
процесс -0.438619 0.409463 0.278115 -0.648177 -0.103561 -0.254783 -0.281929 -0.163918 -0.032256 -0.316167 0.125645 0.868697 -0.232605 0.134322 -0.701796 0.391858 -0.389389 0.761044 1.058439 0.904439 0.044072 -0.907759 -0.468580 0.646870 1.299279 -0.830183 1.247907 -0.482364 -0.737520 -0.134458 0.514605 -0.898694 -1.012852 0.236357 -0.807058 0.339368 -0.427091 0.212262 0.554755 0.118436 0.339095 0.176281 0.731871 -0.178460 -1.112013 1.296538 -1.102506 0.920410 -0.942410 -0.734412
усиление 0.412738 0.341065 -1.326821 -0.427934 0.328735 -0.139710 -0.027539 0.144555 0.056136 0.596392 0.956817 0.539228 -0.060700 -1.882479 -0.850328 0.355789 0.283743 -0.408670 -0.451345 -0.582321 -0.205706 -0.820604 0.027223 0.691100 -0.612628 -0.317299 -0.063380 0.490849 0.409234 -0.693539 0.047889 1.043905 -0.087543 0.402315 0.140044 -0.478156 -0.245865 -1.888556 0.557729 0.077728 -0.685315 -0.089089 0.775002 0.621308 1.212059 0.321606 0.476894 -0.624968 -0.210449 -1.051261
целевой -0.396527 -1.052516 -0.162585 0.315746 0.709951 -0.538669 0.010357 -0.797628 -0.299354 0.173304 -0.484110 0.115300 -0.776058 1.558964 -0.054789 -0.618948 1.033359 -0.026700 0.625686 -0.291307 -0.058581 -0.163596 0.238702 -0.506661 -1.004371 -0.166517 0.217204 0.125616 -0.408566 -0.668135 1.165293 -0.516947 -0.158315 0.201511 -0.501549 -0.771535 0.696554 0.010462 0.136232 -0.492462 0.417522 1.110157 -1.028050 -0.286103 -0.210640 0.770011 0.526622 -0.260716 0.839369 0.573110
отдельный 1.616693 0.277300 -0.238214 0.379887 -0.294617 -0.126520 -0.664985 0.741302 0.380297 0.624611 0.160878 0.490507 -0.282511 0.372458 -0.348128 0.135731 -1.332229 0.208247 0.105379 -0.267072 0.104772 -0.985595 0.690857 1.285092 0.336858 0.304102 -0.098714 0.216839 0.076541 0.417600 -0.472267 0.165512 0.527536 0.519310 0.446149 -0.875580 0.132838 -0.115036 -0.685510 0.221698 0.269578 -0.827788 0.251739 -0.171967 -0.218973 -0.438596 0.196542 0.119369 -0.515738 -0.166506
после -0.261773 -0.622635 -0.018893 0.530980 0.007512 0.502415 -0.652585 0.034603 0.542030 -0.293672 -0.692526 -0.443098 -0.323443 1.508329 -0.104080 0.098150 0.121609 0.233240 0.075269 -0.087141 -0.602326 -1.277728 0.115065 0.484386 -0.091732 0.078637 0.226730 0.282609 -0.664066 0.208456 0.184068 -0.388119 -0.420332 0.789792 -0.083837 0.041947 -0.378987 -0.542957 -0.839881 0.531565 -0.739490 0.179215 -0.683842 0.200180 -0.876114 -0.597278 0.001788 0.452225 0.252617 0.219545
однако -0.430752 0.222671 -0.340387 0.167045 0.259954 0.098453 -0.313855 0.100694 -0.593425 0.015267 -0.145185 -0.098088 0.267704 0.958871 -0.709613 -0.001348 0.302668 0.244890 0.769396 0.054654 -0.111610 -0.529518 0.703257 0.443047 0.004182 0.217300 -0.166124 -0.439438 -0.298481 -0.430546 0.003684 -0.160266 -0.396491 0.065349 0.457735 0.211979 -0.759864 -0.351663 -0.842355 0.079182 0.276081 -0.333555 -0.817822 -0.073097 -0.212321 -0.832500 -0.014236 0.197668 0.982377 0.038559
первый -0.150670 -0.144935 -0.787388 1.125991 -0.027154 -0.217985 -0.133835 0.612430 0.120259 1.533072 -0.094277 0.546574 -0.901463 -0.176855 -1.088310 -0.612773 0.026322 0.077535 -0.499180 0.093802 -0.826874 -0.079609 -0.322436 -0.108341 -0.432718 -0.430038 -0.202097 0.698816 -0.295023 -0.181275 0.523836 0.422681 -0.585297 -0.207180 -0.024614 0.194487 -0.555101 -1.613939 0.918878 -0.473134 -1.322409 0.650850 -0.709530 0.038143 0.305564 -0.025477 -0.191524 0.251993 -0.077468 0.323256
сентябрь -0.339360 -0.620374 -0.698177 0.866738 -0.108401 0.602868 -0.723442 1.092447 0.633704 -0.263021 -0.795523 -0.251408 -0.994870 1.076531 0.197624 0.239906 0.092887 -0.035479 0.162627 0.357818 -0.803902 -0.267217 -0.250833 0.687925 -0.203039 0.063571 -0.661050 0.709181 -0.250682 -0.069041 0.640074 -0.054783 -0.681596 0.448098 0.090355 0.524249 0.484370 -0.677104 -0.289879 0.693388 0.015175 0.680414 -0.262110 -0.033267 -0.328484 -0.261007 -0.147024 0.195941 0.483658 0.412553
продовольственный 1.251423 -0.172936 -0.480754 0.407950 -0.639976 -0.400991 -0.851550 0.795608 0.196572 1.395427 -0.073885 0.366317 -0.675701 0.511686 -0.378864 0.362713 -1.013370 -0.187686 0.094564 -0.003732 0.312425 -0.928238 1.282329 1.348388 -0.252987 0.489772 0.093204 0.647547 0.150635 0.296282 -0.233858 -0.159937 0.108831 0.212171 -0.225698 -1.016313 0.061378 -0.338017 0.018722 0.385894 0.134314 -0.548231 0.524687 -0.961783 -0.390310 -0.613789 0.276343 -0.059719 -0.009472 -0.023388
рассматриваться -0.488989 -0.628841 -0.999502 0.664998 -1.103361 -0.006761 0.154357 1.350277 0.054067 0.049928 -0.683653 -0.014581 0.414867 -0.192763 1.302227 -0.364422 -0.102254 -0.279924 0.442288 0.215549 -0.000166 1.234366 -0.175666 0.684337 -0.873722 0.882520 -1.284861 0.622700 1.046286 -0.748310 1.690765 0.221503 -0.060541 -0.952708 -0.188994 -0.322691 1.403931 0.723682 0.327921 0.300590 0.621903 0.317834 0.096847 -0.197658 0.353513 0.007021 1.150519 -0.224403 0.183307 0.368543
февраль -0.128414 -0.942821 -0.184313 1.011373 -0.205965 0.433139 -0.484800 0.821206 0.752700 -0.309474 -0.620426 -0.183307 -1.348331 1.024340 0.024402 0.153552 -0.020309 0.092250 0.297698 0.107777 -0.756456 -0.502987 -0.265246 0.258914 -0.391809 0.071605 -0.370996 0.694402 0.045660 -0.236161 0.831120 -0.140486 -0.305160 0.317011 -0.091439 0.618823 -0.013406 -0.561422 -0.329315 0.894071 0.231476 0.522126 -0.651034 0.347278 -0.195061 -0.259216 -0.079883 0.148016 0.413318 0.584158
часть -0.187976 -0.172065 0.523332 -0.379054 -0.647853 -0.871799 -0.219024 -0.006327 0.243831 -1.396507 -0.376125 0.202603 0.362082 -0.570217 0.103115 -0.272165 -0.582921 -0.401676 -0.505103 0.943656 0.102235 0.159226 0.055469 -1.225104 -0.591731 -0.460198 0.455902 0.516896 0.749834 0.378249 0.680525 0.827547 -0.619216 -0.367733 -0.343236 -0.186794 0.400545 0.431161 -0.173247 0.742414 0.522212 -0.255726 0.219876 0.118223 -0.365971 0.012940 -0.429771 -0.480514 0.374877 0.399916
вклад 0.160683 0.132163 0.239072 -0.136206 -0.447955 -0.578034 0.253616 -0.140210 -0.636061 0.410901 0.435797 -0.252588 -1.584797 1.037081 -0.347800 -0.877104 -0.915528 -0.180576 -0.347881 0.183119 -0.466121 -0.866609 0.440441 0.084298 0.096845 -0.328144 -0.550373 -0.032298 -0.138899 -0.026160 -1.208341 0.338580 0.243223 -0.545353 0.247513 0.582063 0.700942 0.105832 -0.247424 0.842535 -0.090949 0.083193 -0.392900 -0.282559 -0.381061 -0.128475 -0.318682 0.538867 0.786912 0.490758
неделя -0.102484 -1.517389 0.679791 -0.206687 -0.153429 -0.319274 -0.243889 0.483100 0.309813 -1.336063 -0.797027 -0.935237 0.552729 -0.295439 0.682606 -0.602582 0.548658 -0.378856 -0.536592 0.874953 -0.369687 -0.420452 1.330889 0.364131 -0.451055 0.520384 0.127810 -0.370313 -0.276000 0.887638 1.196586 0.224531 -0.468582 -0.279701 -0.503463 -0.469692 0.494692 -0.464747 0.250974 -0.139084 -0.620847 0.598667 0.112009 -1.083287 -0.580909 -0.846376 -0.096705 -0.070708 -0.052334 -1.256063
июнь -0.373738 -1.083211 -0.201624 0.814036 -0.353972 0.516380 -0.461828 1.000599 0.579813 -0.403829 -0.702399 -0.259709 -0.771770 1.400894 0.341191 0.399344 0.324440 -0.064578 0.076576 -0.006712 -0.561950 -0.490712 -0.061199 0.773018 -0.067349 0.208857 -0.499251 0.626929 -0.232475 -0.047154 0.701252 -0.411041 -0.326579 0.586237 0.284037 0.660462 0.489239 -0.425244 -0.600992 0.725290 0.345976 0.321605 -0.594743 -0.070420 -0.174845 -0.012649 -0.077578 0.128890 0.405532 0.604305
октябрь -0.602727 -0.789949 -0.521379 0.935015 -0.085980 0.438229 -0.790573 0.884684 0.699170 -0.175360 -0.425789 -0.247924 -0.902491 1.056146 0.321708 0.164823 0.116789 0.022075 0.259425 0.411213 -0.467749 -0.295831 -0.099486 0.411782 -0.229053 0.163591 -0.511279 0.521578 -0.168352 -0.146262 0.747864 -0.072112 -0.856391 0.501655 0.122645 0.518679 0.268230 -0.370586 -0.365953 0.679973 -0.137603 0.716246 -0.350459 0.139722 -0.205103 -0.300824 0.005699 0.235308 0.519726 0.331573
существенно -0.219445 -0.852709 -0.087093 0.763674 -0.291641 0.554005 0.366985 -0.170455 -0.632347 0.198678 0.140538 0.615360 -1.302468 0.640127 0.021520 -0.684030 0.770980 0.843876 0.921070 0.037423 -0.256510 0.384338 0.108119 -0.446675 0.011359 0.555067 -0.243888 -0.359078 0.175804 -0.390516 0.471863 -0.265442 0.335337 0.473254 -0.067004 -0.217456 -0.742135 -0.835973 -1.116485 -0.522659 -0.674680 -0.706470 0.458898 0.560104 -0.693546 0.470521 -0.456292 0.324728 1.112689 -0.892889
фактический 0.124765 -1.064635 1.068615 -0.330617 -0.725893 -0.226774 0.773927 0.770518 -0.510682 -0.425632 0.546871 0.832440 0.478791 -0.217174 -0.706784 0.754552 -0.145689 -0.380288 0.330100 0.907446 -0.760023 -0.647666 0.510925 0.644236 -0.014716 -0.347415 0.485517 0.768984 -0.435344 0.078508 0.945443 -1.021935 -0.700156 0.767880 -0.821326 0.797908 -0.386756 0.144739 1.740914 -0.417187 0.978925 0.220214 1.049410 -1.882590 -0.266152 1.183420 -0.226358 0.054200 0.027667 -1.386782
